tree
version=v4
num_class=3
num_tree_per_iteration=3
label_index=0
max_feature_idx=200
objective=multiclass num_class:3
feature_names=Column_0 Column_1 Column_2 Column_3 Column_4 Column_5 Column_6 Column_7 Column_8 Column_9 Column_10 Column_11 Column_12 Column_13 Column_14 Column_15 Column_16 Column_17 Column_18 Column_19 Column_20 Column_21 Column_22 Column_23 Column_24 Column_25 Column_26 Column_27 Column_28 Column_29 Column_30 Column_31 Column_32 Column_33 Column_34 Column_35 Column_36 Column_37 Column_38 Column_39 Column_40 Column_41 Column_42 Column_43 Column_44 Column_45 Column_46 Column_47 Column_48 Column_49 Column_50 Column_51 Column_52 Column_53 Column_54 Column_55 Column_56 Column_57 Column_58 Column_59 Column_60 Column_61 Column_62 Column_63 Column_64 Column_65 Column_66 Column_67 Column_68 Column_69 Column_70 Column_71 Column_72 Column_73 Column_74 Column_75 Column_76 Column_77 Column_78 Column_79 Column_80 Column_81 Column_82 Column_83 Column_84 Column_85 Column_86 Column_87 Column_88 Column_89 Column_90 Column_91 Column_92 Column_93 Column_94 Column_95 Column_96 Column_97 Column_98 Column_99 Column_100 Column_101 Column_102 Column_103 Column_104 Column_105 Column_106 Column_107 Column_108 Column_109 Column_110 Column_111 Column_112 Column_113 Column_114 Column_115 Column_116 Column_117 Column_118 Column_119 Column_120 Column_121 Column_122 Column_123 Column_124 Column_125 Column_126 Column_127 Column_128 Column_129 Column_130 Column_131 Column_132 Column_133 Column_134 Column_135 Column_136 Column_137 Column_138 Column_139 Column_140 Column_141 Column_142 Column_143 Column_144 Column_145 Column_146 Column_147 Column_148 Column_149 Column_150 Column_151 Column_152 Column_153 Column_154 Column_155 Column_156 Column_157 Column_158 Column_159 Column_160 Column_161 Column_162 Column_163 Column_164 Column_165 Column_166 Column_167 Column_168 Column_169 Column_170 Column_171 Column_172 Column_173 Column_174 Column_175 Column_176 Column_177 Column_178 Column_179 Column_180 Column_181 Column_182 Column_183 Column_184 Column_185 Column_186 Column_187 Column_188 Column_189 Column_190 Column_191 Column_192 Column_193 Column_194 Column_195 Column_196 Column_197 Column_198 Column_199 Column_200
feature_infos=[-1.0180261661678918:3.3903727878422143] [-2.0382882459766125:1.8409716047314495] [-0.93530977239818869:0.63271182199184572] [-3.8831118936624298:4.6769269811173091] [-1.2136513748741204:2.6824969158727128] [-1.2653777891203133:1.6385472595634485] [-1.2605142042890836:1.6267523488130884] [-1.9629414037897701:2.0060204101889596] [-1.2132301287184513:1.4800487800976518] [0:1] [-0.59237384221038702:2.3777271649748966] [-0.93530977239818869:0.63271182199184572] [-1:0] [-0.5:0.5] none [-5.3264528913407574:5.6690216122999111] [-0.97466789115312202:0.72751427782554556] [-0.94158256957470887:0.67550261052449556] [-0.97466789115312202:0.72751427782554556] [-0.94158256957470887:0.67550261052449556] [-0.97371912454970644:0.72846304442896115] none [0:1] [0:1] [-1:0] [0:1] [0:1] [-0.95063145283115935:0.66542287780057607] [-0.95347959789925019:0.65299528598589773] [0:74334] none [-1.271803643751418:0.61915297990739426] [-1.2626495372017583:0.60718245188669606] [-0.96605463819308868:0.6463950740464145] [-0.99376982043156781:0.67147946280368187] [0:1] [0:1] [0:1] [0:1] [-0.95015665283751749:0.74214365796486448] [-0.94154430915257881:0.72600656253700857] [-0.97010072246619627:0.76593643104529785] [-0.9718120441251864:0.71280141627050686] [-0.95015665283751749:0.74214365796486448] [-0.94154430915257881:0.72600656253700857] [-0.97010072246619627:0.76593643104529785] [-0.9718120441251864:0.71280141627050686] [-1:0] [0:1] [0:1] [0:1] [-8.671641169865838:27.462030864144872] [-1:0] [0:1] [0:1] [0:1] [-0.96630784425693539:0.78318475337087246] [-0.96130908284053229:0.78101937488174067] [-0.97026648796358994:0.7846289984279623] [-0.96630784425693539:0.78318475337087246] [-0.96433464473181829:0.78238984960903823] [-0.96934982650409529:0.78478020905207568] [-1.75:2.75] none none [-1:1] [-1:0.83333333333333337] [-0.95342855643352953:2.546175737796442] [-0.96154074073083251:1.0131586963950387] [-0.93395560424257551:0.62381664433097472] [-2.009310752858775:2.3991144346479318] [-1.0709039200373185:1.2128291969496521] [-1.2045694397825331:1.5020269518311213] [-1.2000470241682923:1.5006307219069919] [-0.9611524668305822:1.2015007921858576] [-1.2013471052912954:1.4587111469456771] [0:1] [-0.51579162512738685:1.8585716907367293] [-0.93395560424257551:0.62381664433097472] [-1:0] [-0.5:0.5] none [-0.46738541856275462:0.48655846737629693] [-1.0660265227287034:0.71481029068948621] [-1.0034991462282012:0.66746020717642085] [-1.0660265227287034:0.71481029068948621] [-1.0034991462282012:0.66746020717642085] [-1.0703604884572899:0.71575905729290146] none [0:0.080000000000000002] [0:0.080000000000000002] [-1:0] [0:0.080000000000000002] [0:0.080000000000000002] [-1.13734021148693:0.63036356969701468] [-1.1387791334514323:0.62348234862449514] [0:1490.78] none [-1.2718036437514184:0.61915297990739415] [-1.2626495372017597:0.60718245188669662] [-1.1582290280808392:0.63879323848625302] [-1.1918987946280355:0.66378562848951228] [0:0.68000000000000005] [0:0.95999999999999996] [0.02:0.68000000000000005] [0.02:0.59999999999999998] [-0.94522927904926801:0.66976730731654666] [-0.93697965953543161:0.6605419042922489] [-0.97883766147530504:0.68531277386847167] [-0.98129550434124913:0.6755914065412939] [-0.94522927904926801:0.66976730731654666] [-0.93697965953543161:0.6605419042922489] [-0.97883766147530504:0.68531277386847167] [-0.98129550434124913:0.6755914065412939] [-0.93999999999999995:-0.10000000000000001] [0.040000000000000001:0.80000000000000004] [0:0.080000000000000002] [0:0.10000000000000001] [-3.9518878393388972:9.7008149173136733] [-1:0] [0:1] [0:0.44] [0:0.46000000000000002] [-0.96114766965954002:0.6755458009948847] [-0.95624246493841369:0.67696768100733284] [-0.96365047786370894:0.67395770156653478] [-0.96114766965954002:0.6755458009948847] [-0.95911332650904768:0.67718370117475002] [-0.96382823823188812:0.67458891973284296] [-0.92000000000000004:0.875] none none [-0.11:0.10000000000000001] [-0.87333333333333285:0.71666666666666645] [0.018029858121225678:1.3298507816491116] [0.27076604292280704:1.0054926851432631] [0.00050750168589207788:0.072134637465229717] [0.046892945539335901:2.6829088566080075] [0.086431684289862268:1.2956297117089315] [0.015149890329972574:0.21547217063436652] [0.014837381557976894:0.21428908739094377] [0.23611901047065006:0.95582694981430205] [0.0039841600099625755:0.15072821607645764] [0:0.5] [0.052602940488704321:1.1440718143279098] [0.00050750168589207788:0.072134637465229717] [0:0.5] [0:0.49487372126634482] none [0.35363000362226071:1.6814289085851934] [0:0.16750473225139345] [0:0.12046744772749191] [0:0.16750473225139345] [0:0.12046744772749191] [0:0.16750473225139328] none [0:0.271293199325011] [0:0.27129319932501095] [0:0.5] [0:0.271293199325011] [0:0.27129319932501095] [0:0.12906620007746772] [0:0.12821608717069752] [0:10406.760000000024] none [0:0.1401770762374569] [0:0.14646416985958718] [0:0.208835354959862] [0:0.20609180624717074] [0:0.5] [0:0.5] [0.13999999999999993:0.5] [0.13999999999999993:0.5] [0.0019493154531780971:0.11518177955208969] [0.0018123117546169445:0.10778279151677431] [0.00097774017863725771:0.15604713899142572] [0.0015951417679179077:0.13500111849821711] [0.0019493154531780971:0.11518177955208969] [0.0018123117546169445:0.10778279151677431] [0.00097774017863725771:0.15604713899142572] [0.0015951417679179077:0.13500111849821711] [0.2374868417407584:0.5] [0.19595917942265434:0.5] [0:0.271293199325011] [0:0.29999999999999999] [0.18309495714158505:10.125724960160783] [0:0.5] [0:0.5] [0:0.49638694583963416] [0:0.49839743177508466] [0.002423878226184882:0.1174645528229146] [0.0024784711529097407:0.12329054945280807] [0.0025374118450087685:0.11140279709475126] [0.002423878226184882:0.1174645528229146] [0.0024452010207051209:0.12231080267176822] [0.0024876276448008851:0.11296340817153429] [0.43999999999999995:1.3515639089588034] none none [0.66332495807108005:0.73484692283495345] [0.11180339887498947:0.89209491273817598]
tree_sizes=3367 3400 3346 3493 3473 3462 3498 3487 3452 3485 3492 3457 3501 3495 3464 3496 3489 3478 3489 3493 3463 3495 3494 3482 3501 3494 3462 3501 3478 3463 3486 3502 3472 3497 3495 3465 3499 3474 3461 3505 3482 3489 3494 3515 3462 3510 3504 3462 3503 3482 3491 3491 3508 3484 3501 3491 3482 3487 3491 3493 3508 3488 3486 3491 3488 3497 3494 3500 3489 3506 3477 3497 3495 3478 3490 3480 3485 3485 3487 3499 3498 3495 3472 3502 3488 3495 3498 3479 3510 3493 3504 3495 3498 3502 3492 3508 3494 3514 3487 3480 3494 3496 3513 3511 3493 3510 3487 3508 3474 3499 3508 3495 3504 3503 3517 3482 3510 3480 3468 3499 3473 3486 3486 3498 3490 3513 3475 3477 3513 3487 3500 3499 3488 3494 3483 3491 3493 3493 3497 3493 3506 3502 3495 3498 3486 3505 3495 3494 3496 3501 3487 3481 3486 3489 3500 3505 3504 3503 3509 3490 3469 3500 3487 3496 3474 3499 3468 3498 3495 3491 3495 3490 3487 3509 3488 3503 3492 3501 3464 3514 3497 3507 3509 3489 3491 3509 3478 3477 3476 3483 3499 3502 3485 3477 3505 3484 3479 3488 3502 3477 3475 3468 3482 3506 3482 3471 3482 3476 3475 3507 3462 3494 3504 3493 3482 3498 3468 3482 3499 3476 3488 3491 3483 3489 3502 3470 3496 3491 3489 3486 3491 3507 3474 3505 3470 3502 3505 3460 3490 3483 3464 3477 3477 3487 3483 3485 3461 3502 3511 3453 3468 3488 3496 3493 3477 3481 3505 3499 3497 3494 3494 3495 3484 3491 3460 3490 3498 3458 3476 3505 3484 3486 3498 3489 3463 3514 3478 3464 3502 3473 3477 3519 3488 3467 3499 3460 3481 3486 3488 3474 3492 3491 3476 3502 3468 3482 3509 3469 3453 3472 3509 3465 3513 3457 3450 3486 3486 3464 3492 3495 3481 3500 3477 3469 3487 3461 3491 3496 3507 3481 3483 3488 3486 3511 3482 3473 3492 3461 3461 3465 3483 3483 3497 3486 3490 3491 3459 3478 3487 3492 3475 3520 3481 3465 3495 3464 3478 3486 3488 3502 3485 3496 3462 3487 3464 3477 3483 3466 3485 3479 3479 3478 3479 3481 3469 3492 3485 3476 3499 3462 3471 3472 3473 3469 3478 3503 3486 3485 3484 3486 3493 3472 3490 3479 3502 3496 3471 3486 3487 3506 3479 3454 3465 3476 3464 3500 3481 3483 3477 3461 3477 3479 3484 3476 3480 3476 3464 3478 3502 3483 3483 3480 3481 3464 3476 3486 3481 3474 3485 3479 3472 3489 3470 3495 3481 3473 3499 3471 3475 3475 3473 3482 3484 3477 3492 3461 3468 3485 3492 3477 3470 3471 3477 3476 3476 3500 3477 3485 3481 3489 3486 3491 3486 3489 3499 3478 3471 3498 3472 3488 3495 3488 3466 3471 3496 3495 3474 3485 3475 3482 3479 3472 3468 3481 3459 3467 3479 3495 3480 3484 3492 3490 3482 3507 3483 3486 3472 3482 3478 3460 3468 3505 3503 3477 3482 3498 3497 3469 3484 3478 3479 3477 3466 3488 3476 3511 3485 3473 3488 3496 3479 3498 3452 3500 3489 3469 3492 3471 3473 3480 3483 3465 3466 3471 3474 3481 3481 3466 3483 3485 3487 3494 3502 3464 3472 3477 3465 3501 3483 3479 3470 3459 3481 3487 3481 3486 3495 3499 3484 3479 3445 3474 3473 3466 3480 3481 3481 3488 3478 3490 3461 3496 3484 3475 3486 3490 3486 3487 3472 3500 3484 3481 3493 3483 3479 3479 3491 3462 3463 3475 3482 3500 3490 3487 3486 3480 3489 3497 3500 3497 3480 3489 3481 3499 3473 3488 3484 3488 3498 3478

Tree=0
num_leaves=31
num_cat=0
split_feature=0 26 149 142 147 25 200 66 170 121 149 76 15 70 51 74 200 176 142 199 82 114 82 176 142 80 182 80 5 105
split_gain=63.6144 19.0096 18.0375 17.6841 16.4214 15.2689 13.5622 14.4745 12.3236 10.156 9.84342 9.82368 8.63194 8.61193 8.37591 8.58776 8.84556 8.37286 7.35207 7.27576 7.36641 11.9928 7.24264 7.15371 9.00553 8.18392 6.83438 6.80426 6.95401 6.46277
threshold=-0.33978989889038025 1.0000000180025095e-35 0.64448115685767737 0.027282421259831741 0.083989794855663602 1.0000000180025095e-35 0.86470521283783663 -0.58333333333333315 0.31248076809271935 0.23000000000000001 1.1944727735202172 0.19000000000000003 0.66037124974736539 -0.36208738606406782 -0.16754583570367995 0.027296055182372051 0.11756794725698931 0.01278120920599801 0.079712683169741824 0.71231980689266183 0.024942835693827971 -0.44999999999999996 -0.099834269734394479 0.017355995483828233 0.065551505597043466 0.22500000000000003 0.4949727265048785 0.23500000000000001 0.0067370638853414483 0.23000000000000001
decision_type=2 2 2 2 2 2 2 2 2 2 2 2 2 2 2 2 2 2 2 2 2 2 2 2 2 2 2 2 2 2
left_child=4 2 3 13 -1 8 7 -6 10 12 14 -5 -9 -2 29 16 -16 -15 -10 20 -12 -22 -20 -17 25 26 -25 -23 -29 -4
right_child=1 -3 5 11 6 -7 -8 9 18 -11 19 -13 -14 17 15 23 -18 -19 22 -21 21 27 -24 24 -26 -27 -28 28 -30 -31
leaf_value=-1.0231852461759767 -1.0595251392048999 -1.0021963622451286 -1.0487772269541382 -1.0317945737290839 -1.0567827187061334 -1.0651318655579338 -1.0277457370677037 -1.0413798374097716 -1.0305306356362958 -1.054864125730691 -1.0179886414728407 -1.0610317319304392 -1.0521242604188952 -1.0093636274330904 -1.0101410934873776 -1.0448630208552681 -1.0415110097857279 -1.0366892725764256 -1.0404622696045849 -1.0487017196364345 -1.0458403721645824 -1.0078772952704822 -1.012095264921127 -1.0219091024 -1.0564975069742617 -1.0497388532068772 -0.9967298040509206 -1.0231515019895927 -1.0571222564821712 -1.0328422187884161
leaf_weight=27.782562643289566 8.9178596138954145 16.463740825653076 95.009504348039627 12.690800219774244 126.22201299667358 13.376789420843123 32.241492450237274 337.8496815264225 390.67085000872612 85.405655533075333 49.391222476959229 55.908119887113571 84.033677130937576 15.434757024049757 8.5748650133609754 18.178713828325272 143.0287484228611 29.154541045427322 10.289838016033171 15.777751624584196 35.328443855047226 17.492724627256393 38.072400659322739 45.275287270545959 6.8598920106887809 7.545881211757659 12.347805619239805 21.951654434204105 7.2028866112232199 30.18352484703064
leaf_count=81 26 48 277 37 368 39 94 985 1139 249 144 163 245 45 25 53 417 85 30 46 103 51 111 132 20 22 36 64 21 88
internal_value=-1.03866 -1.03419 -1.03468 -1.04554 -1.04578 -1.0333 -1.04673 -1.04769 -1.03286 -1.04543 -1.03601 -1.05562 -1.04352 -1.03261 -1.03864 -1.03538 -1.03974 -1.02723 -1.02916 -1.02945 -1.02714 -1.03266 -1.01813 -1.02805 -1.0238 -1.02036 -1.01651 -1.02267 -1.03154 -1.04494
internal_weight=1798.66 1105.13 1088.66 122.106 693.535 966.559 665.753 633.511 953.182 507.289 514.149 68.5989 421.883 53.5072 367.004 241.811 151.604 44.5893 439.033 147.145 131.367 81.9757 48.3622 90.2076 72.0289 65.169 57.6231 46.6473 29.1545 125.193
internal_count=5244 3222 3174 356 2022 2818 1941 1847 2779 1479 1499 200 1230 156 1070 705 442 130 1280 429 383 239 141 263 210 190 168 136 85 365
is_linear=0
shrinkage=1


Tree=1
num_leaves=31
num_cat=0
split_feature=0 25 0 176 199 77 200 10 144 133 182 144 141 138 182 134 134 96 141 143 144 134 133 175 151 174 7 144 68 51
split_gain=41.0855 20.6998 17.2481 16.7075 11.8899 9.99127 9.98797 10.7261 9.5259 10.1452 9.20604 9.09242 9.661 8.5372 8.42296 8.30617 8.15148 8.11308 8.00507 8.88949 7.90297 7.83144 7.67211 7.64369 7.42652 6.83024 7.5494 6.25774 6.21024 5.75468
threshold=-0.84019433736868587 1.0000000180025095e-35 -0.050039696712192598 0.018014729527650947 0.71109051596295447 0.93803078480265045 0.75091795675544859 1.0000000180025095e-35 0.75420447094315124 0.65499999999999992 0.45362822795422864 0.30149096584893215 0.67862456362867796 0.38376025526838436 0.49172822786337922 0.11295575677488687 0.11458706838573553 9.4000000000000021 0.5732186094634043 0.4949727265048785 0.87246679205589905 0.057990153917351572 -0.66333333333333322 0.0073130924077899253 0.0037105616759315705 0.015169590969696648 -0.083186507073151464 0.47641300837798167 0.30322637588220952 0.19624936716228761
decision_type=2 2 2 2 2 2 2 2 2 2 2 2 2 2 2 2 2 2 2 2 2 2 2 2 2 2 2 2 2 2
left_child=10 2 6 5 11 24 7 18 9 23 -1 12 -5 17 -11 -12 -3 -13 22 21 28 -20 -2 27 -4 26 -15 -9 -10 -8
right_child=1 16 3 4 -6 -7 29 8 20 14 15 13 -14 25 -16 -17 -18 -19 19 -21 -22 -23 -24 -25 -26 -27 -28 -29 -30 -31
leaf_value=-0.9925251569070056 -0.9811514200778555 -0.9963853342550808 -1.0100293712411346 -1.0120729288692847 -0.98634887315008524 -0.95029954346683609 -0.98061375251865923 -0.98778265330794179 -0.99280088386043952 -1.0067404131729332 -1.0161800603150399 -0.99722582607175525 -0.9922173686799165 -1.0021204548865068 -0.9649045090499706 -0.98563198307115696 -0.96024822211318739 -1.0146334453550725 -0.97783053221223193 -1.0109543906978162 -1.0072945311083368 -0.99627833573583779 -1.0069050920424998 -1.012956769610722 -0.98326073127162505 -0.99644557711885628 -0.96233305550598891 -1.016867907938745 -0.95910705015081177 -0.99836101557496182
leaf_weight=18.133882403373718 11.159312248229979 8.3694841861724871 10.810583740472792 83.346113353967667 73.232986629009247 7.3232986629009238 26.154638081789017 20.923710465431217 16.738968372344974 9.4156697094440478 186.91848015785217 50.565633624792099 29.990651667118073 6.9745701551437405 8.0207556784152967 8.3694841861724836 17.087696880102158 46.032163023948669 23.713538527488708 32.431751221418381 24.062267035245895 163.55367013812065 155.18418595194817 235.04301422834396 68.002059012651443 414.9869242310524 11.159312248229979 9.7643982172012311 6.9745701551437369 44.288520485162735
leaf_count=52 32 24 31 239 210 21 75 60 48 27 536 145 86 20 23 24 49 132 68 93 69 469 445 674 195 1190 32 28 20 127
internal_value=-1.0006 -0.998967 -0.999397 -0.996301 -0.997802 -0.983818 -1.00255 -1.00361 -1.00757 -1.00966 -1.01297 -0.999107 -1.00682 -0.997457 -0.987496 -1.01487 -0.972129 -1.00552 -1.00021 -0.996454 -0.995182 -0.993942 -1.00518 -1.01112 -0.986933 -0.995658 -0.977636 -0.997037 -0.982891 -0.991772
internal_weight=1828.73 1615.31 1589.85 802.424 716.288 86.1359 787.429 716.986 330.943 283.168 213.422 643.055 113.337 529.719 17.4364 195.288 25.4572 96.5978 386.042 219.699 47.7758 187.267 166.343 265.731 78.8126 433.121 18.1339 30.6881 23.7135 70.4432
internal_count=5244 4632 4559 2301 2054 247 2258 2056 949 812 612 1844 325 1519 50 560 73 277 1107 630 137 537 477 762 226 1242 52 88 68 202
is_linear=0
shrinkage=1


Tree=2
num_leaves=31
num_cat=0
split_feature=0 77 137 133 82 96 77 141 40 76 133 120 165 134 144 162 118 67 195 147 141 149 143 103 68 139 10 141 133 161
split_gain=201.705 79.9833 70.1711 38.1963 27.8725 27.8989 24.6125 22.2175 27.4826 20.0413 24.1395 19.2198 18.0562 16.5662 16.074 23.4688 15.4283 14.8026 14.4695 14.4024 13.8805 13.4676 13.0437 15.6632 15.8597 12.5044 12.0603 11.9558 11.3517 13.1552
threshold=-0.82728071363768818 1.6384289294352095 0.43414642489461303 -0.80833333333333257 0.28906673112042797 652.81000000000017 -0.25108937594040986 0.61767599353667291 -0.88195170479778529 0.79000000000000015 -0.47166666666666635 0.25000000000000006 0.11214166098996557 0.04278088701538748 0.367974635271553 0.0056697552214716633 0.56772402711090075 -0.18275981395501545 0.01944553317390291 0.42970910553583885 0.41355208375118307 1.3590010448434378 0.48764219626854988 0.11000000000000001 0.068372602440340269 0.10643539799109634 0.16815495285176685 0.70234332304133928 0.048333333333333332 0.0079595724229125069
decision_type=2 2 2 2 2 2 2 2 2 2 2 2 2 2 2 2 2 2 2 2 2 2 2 2 2 2 2 2 2 2
left_child=6 2 3 11 5 17 13 8 12 14 26 -2 -8 -1 15 27 18 -4 -17 -10 -6 -22 23 24 -9 28 -11 -5 -12 -30
right_child=1 -3 4 9 20 -7 7 22 19 10 25 -13 -14 -15 -16 16 -18 -19 -20 -21 21 -23 -24 -25 -26 -27 -28 -29 29 -31
leaf_value=-1.2430133544965078 -1.2864543677122333 -1.220086153077097 -1.2815358681953302 -1.2892418327269091 -1.2948780257236159 -1.2317005906382459 -1.2166448382441639 -1.232503431944316 -1.2616838687066785 -1.2613292578860746 -1.2879292169263474 -1.2251914003567228 -1.2665439033216923 -1.2897727784439901 -1.2854132976787409 -1.256588671126422 -1.228337336518222 -1.2927512392041665 -1.2861853073826315 -1.2117901262477049 -1.2294380378665934 -1.2779213115448587 -1.2260807014957544 -1.2833912193444577 -1.2711386258733557 -1.2358486040529419 -1.2203878267799839 -1.2680754775055803 -1.2382500855035554 -1.2773812446988222
leaf_weight=9.9445194303989428 6.0269814729690578 18.080944418907166 126.86796000599861 75.33726841211319 7.8350759148597744 7.2323777675628653 48.818549931049347 18.683642566204071 38.2713323533535 12.656661093235018 40.682124942541122 19.587689787149429 7.5337268412113181 21.697133302688599 230.53204134106636 44.599662899971008 11.14991572499275 641.27082872390747 22.299831449985504 6.0269814729690543 13.259359240531923 8.4377740621566755 9.3418212831020337 23.505227744579315 19.587689787149429 7.2323777675628653 13.25935924053192 35.257841616868973 11.451264798641203 23.806576818227768
leaf_count=33 20 60 421 250 26 24 162 62 127 42 135 65 25 72 765 148 37 2128 74 20 44 28 31 78 65 24 44 117 38 79
internal_value=-1.27865 -1.28277 -1.2836 -1.27538 -1.28926 -1.29035 -1.25076 -1.24628 -1.23721 -1.27712 -1.26566 -1.23961 -1.22332 -1.27508 -1.2801 -1.2736 -1.26101 -1.2909 -1.26645 -1.2549 -1.26065 -1.24829 -1.25912 -1.26412 -1.25228 -1.27354 -1.24038 -1.28249 -1.27713 -1.26467
internal_weight=1580.27 1376.86 1358.78 553.88 804.903 775.371 203.411 171.769 100.651 528.265 109.088 25.6147 56.3523 31.6417 419.177 188.645 78.0494 768.139 66.8995 44.2983 29.5322 21.6971 71.1184 61.7766 38.2713 83.1723 25.916 110.595 75.94 35.2578
internal_count=5244 4569 4509 1838 2671 2573 675 570 334 1753 362 85 187 105 1391 626 259 2549 222 147 98 72 236 205 127 276 86 367 252 117
is_linear=0
shrinkage=1


Tree=3
num_leaves=31
num_cat=0
split_feature=0 26 149 142 147 25 200 66 170 121 76 149 15 70 51 74 200 176 142 199 82 114 82 176 142 80 70 77 182 175
split_gain=60.2044 17.9655 16.9362 16.6923 15.5177 14.4362 12.9901 13.8686 11.5818 9.7339 9.40733 9.28333 8.29611 8.26511 8.0861 8.14401 8.37855 7.88664 7.01003 6.87571 6.94654 11.4953 6.86733 6.79664 8.61325 7.73296 6.42442 6.90028 6.39938 6.27146
threshold=-0.33978989889038025 1.0000000180025095e-35 0.64448115685767737 0.027282421259831741 0.083989794855663602 1.0000000180025095e-35 0.86470521283783663 -0.58333333333333315 0.31248076809271935 0.23000000000000001 0.19000000000000003 1.1944727735202172 0.66037124974736539 -0.36208738606406782 -0.16754583570367995 0.027296055182372051 0.11756794725698931 0.01278120920599801 0.079712683169741824 0.71231980689266183 0.024942835693827971 -0.44999999999999996 -0.099834269734394479 0.017355995483828233 0.065551505597043466 0.22500000000000003 0.1742454083349855 0.69962683675270287 0.4949727265048785 0.0031577477162495703
decision_type=2 2 2 2 2 2 2 2 2 2 2 2 2 2 2 2 2 2 2 2 2 2 2 2 2 2 2 2 2 2
left_child=4 2 3 13 -1 8 7 -6 11 12 -5 14 29 -2 -4 16 -16 -15 -10 20 -13 -22 -20 -17 25 28 -23 -28 -25 -9
right_child=1 -3 5 10 6 -7 -8 9 18 -11 -12 19 -14 17 15 23 -18 -19 22 -21 21 26 -24 24 -26 -27 27 -29 -30 -31
leaf_value=0.014951136901439309 -0.020625084580012241 0.035266610300878763 -0.0061851710895203839 0.0067180747119992097 -0.017752972104481787 -0.025958918940758004 0.010678697253799833 -0.027494152916266335 0.0078587607509751443 -0.015873217055134514 -0.021898410250189418 0.019998672806855161 -0.0131949568472573 0.028296091241698695 0.027621569080372319 -0.0060875219298438671 -0.0027788231533772021 0.0018694660839485783 -0.0018301663353479916 -0.0098358188559191911 -0.0071339709644534415 0.04218927630392931 0.025762965769034189 0.0162734390690355 -0.017615562906013568 -0.010847454656245304 0.005204028372493257 0.038160046041882507 0.040502381965553641 -0.0019662855290511067
leaf_weight=27.954574465751648 8.8721180260181409 16.649800181388855 125.00864604115486 12.715578705072401 125.27513819932938 13.206690669059752 32.336810320615768 8.8958046734333021 392.04641020298004 84.854839712381363 55.315921425819397 49.761063575744629 83.616337805986404 15.591179460287092 8.6535026729106885 18.145027875900269 142.86960741877556 29.196436256170273 10.294279515743254 15.7218861579895 35.301972836256027 6.9328719675540915 38.391239255666733 45.527525663375854 6.8295638859271994 7.5151253640651694 33.050885796546936 6.9141150116920462 12.505933463573454 328.53528100252151
leaf_count=81 26 48 365 37 368 39 94 26 1139 249 163 144 245 45 25 53 417 85 30 46 103 20 111 132 20 22 96 20 36 959
internal_value=1.02097e-06 0.00433903 0.00386677 -0.00668202 -0.00694398 0.00519198 -0.00786645 -0.00881656 0.00562255 -0.00660367 -0.0165498 0.00256625 -0.00473555 0.00582863 1.07307e-05 0.0032107 -0.00104265 0.0110689 0.00919205 0.00891782 0.0111521 0.00579673 0.0199286 0.0103302 0.0144461 0.0177866 0.0155302 0.0109056 0.0214947 -0.00263928
internal_weight=1798.49 1107.02 1090.37 121.691 691.469 968.676 663.514 631.177 955.47 505.902 68.0315 514.738 421.047 53.6597 367.055 242.046 151.523 44.7876 440.732 147.683 131.961 82.1998 48.6855 90.5232 72.3781 65.5486 46.8979 39.965 58.0335 337.431
internal_count=5244 3222 3174 356 2022 2818 1941 1847 2779 1479 200 1499 1230 156 1070 705 442 130 1280 429 383 239 141 263 210 190 136 116 168 985
is_linear=0
shrinkage=0.03


Tree=4
num_leaves=31
num_cat=0
split_feature=0 25 0 176 199 200 10 77 144 133 182 144 141 138 134 182 96 141 143 134 144 134 133 175 151 174 7 144 68 51
split_gain=38.64 19.321 16.4824 15.7364 11.265 9.49251 10.1987 9.34799 9.11251 9.7284 8.76391 8.66581 9.22364 8.14675 7.918 7.90428 7.67181 7.65158 8.53988 7.55625 7.5425 7.4647 7.31114 7.29868 7.00816 6.44907 7.1207 5.97857 5.835 5.48375
threshold=-0.84019433736868587 1.0000000180025095e-35 -0.050039696712192598 0.018014729527650947 0.71109051596295447 0.75091795675544859 1.0000000180025095e-35 0.93803078480265045 0.75420447094315124 0.65499999999999992 0.45362822795422864 0.30149096584893215 0.67862456362867796 0.38376025526838436 0.11295575677488687 0.49172822786337922 9.4000000000000021 0.5732186094634043 0.4949727265048785 0.11458706838573553 0.87246679205589905 0.053031311207005404 -0.66333333333333322 0.0073130924077899253 0.0037105616759315705 0.015169590969696648 -0.083186507073151464 0.47641300837798167 0.30322637588220952 0.19624936716228761
decision_type=2 2 2 2 2 2 2 2 2 2 2 2 2 2 2 2 2 2 2 2 2 2 2 2 2 2 2 2 2 2
left_child=10 2 5 7 11 6 17 24 9 23 -1 12 -5 16 -12 -11 -13 22 21 -3 28 -19 -2 27 -4 26 -15 -8 -10 -7
right_child=1 19 3 4 -6 29 8 -9 20 15 14 13 -14 25 -16 -17 -18 18 -20 -21 -22 -23 -24 -25 -26 -27 -28 -29 -30 -31
leaf_value=0.0078876133052801119 0.018873054144977388 0.0040086569865319145 -0.0092364647060189532 -0.011237885368393043 0.013849411118942469 0.019421194443102224 0.012435120436555211 0.048440963411683101 0.0076107426313547187 -0.0059482307417419609 -0.015187821078549317 0.003222480224170471 0.0081532327414292598 -0.0015537129375681582 0.014582041446688471 0.0344894340500169 -0.013720375981623914 0.024514867016671715 -0.010209492507679245 0.038692103526853684 -0.0065836103363469236 0.0044932595307435423 -0.0061987269881991708 -0.012113823638697495 0.016789907015825844 0.0040510924165674282 0.037001273499418119 -0.016016545403055013 0.04012890277888307 0.0021328586463990632
leaf_weight=18.174206525087357 11.226275056600569 8.3909589946270007 10.778850287199019 83.03605392575264 73.557860523462296 26.307775318622589 21.013472735881809 7.4297235310077658 16.776492983102802 9.3893443942070025 185.66829562187195 50.662538707256317 30.072357088327408 6.9778130054473904 8.404890447854994 8.1064646840095502 45.794679522514343 18.603436917066574 32.359397947788239 17.327695280313492 24.023046433925629 169.07011535763741 154.94578215479851 234.12804025411606 68.400166481733322 415.52589818835258 11.28164094686508 9.7223596870899183 7.0546448826789847 44.348934710025787
leaf_count=52 32 24 31 239 210 75 60 21 48 27 536 145 86 20 24 23 132 53 93 49 69 484 445 674 195 1190 32 28 20 127
internal_value=1.3976e-06 0.00158171 0.00116463 0.00418711 0.00272787 -0.00192098 -0.00295563 0.016266 -0.00682662 -0.00887826 -0.0120331 0.00145629 -0.00608233 0.00306438 -0.0138986 0.0127881 -0.00482142 0.000354141 0.00402378 0.0273763 0.00527892 0.00647793 -0.00450492 -0.0103094 0.0132469 0.00481788 0.0222676 0.00343529 0.017237 0.00856986
internal_weight=1828.56 1616.31 1590.59 803.518 716.909 787.076 716.419 86.6087 330.214 282.36 212.247 643.351 113.108 530.243 194.073 17.4958 96.4572 386.205 220.033 25.7187 47.8542 187.674 166.172 264.864 79.179 433.785 18.2595 30.7358 23.8311 70.6567
internal_count=5244 4632 4559 2301 2054 2258 2056 247 949 812 612 1844 325 1519 560 50 277 1107 630 73 137 537 477 762 226 1242 52 88 68 202
is_linear=0
shrinkage=0.03


Tree=5
num_leaves=31
num_cat=0
split_feature=0 77 137 133 82 96 200 103 35 96 75 76 138 83 39 103 140 196 192 118 67 141 0 134 3 114 175 173 149 142
split_gain=189.418 75.9368 53.9685 33.7354 26.8575 26.1608 25.288 23.3418 22.4656 20.2109 21.7247 19.6474 19.1714 17.4066 15.5817 19.6373 15.9827 16.4666 15.7038 15.3267 13.0721 13.0659 12.3942 20.037 13.4056 13.0886 15.2906 13.8573 12.3093 11.83
threshold=-0.77643296099705672 1.6384289294352095 0.43414642489461303 -0.80833333333333257 0.28906673112042797 652.81000000000017 0.85123680011254976 0.27000000000000007 1.0000000180025095e-35 6.8500000000000005 -0.62486773078033331 0.45000000000000007 0.67095202930567888 -0.10630925621886865 -0.93871641502003667 0.15000000000000005 0.055430968323647037 0.69754031168975539 0.0076962031707778272 -0.3466497714462094 -0.12727423079922981 0.41355208375118307 -0.37879990311867384 0.1059439370904936 -0.45871281817476123 -0.26999999999999996 0.013341445121834961 0.013999706453855168 1.3590010448434378 0.058158242240801378
decision_type=2 2 2 2 2 2 2 2 2 2 2 2 2 2 2 2 2 2 2 2 2 2 2 2 2 2 2 2 2 2
left_child=6 2 3 12 5 20 7 8 14 22 13 -12 -2 -11 -1 16 17 -16 19 -18 -4 -6 23 24 -5 26 -25 -28 -23 -20
right_child=1 -3 4 9 21 -7 -8 -9 -10 10 11 -13 -14 -15 15 -17 18 -19 29 -21 -22 28 -24 25 -26 -27 27 -29 -30 -31
leaf_value=0.045907259969888439 0.054461678653517302 0.055293127483539782 -0.0043882327682664094 0.018591731027334666 -0.015963806145134769 0.044477062262543193 -0.016935726262655763 0.054311950088157493 -0.0036929625690475137 0.041657495769746034 -0.010346570905380654 0.012909233409672117 -0.0079042889839510133 0.00098939070512530248 0.032375042529082236 0.0005540671913937241 0.0078071538471101458 -0.01438280944253595 0.030256699120381939 0.048228529823142442 -0.014100689046123412 0.046982312064212814 -0.011469194827292386 0.0026167439353980836 -0.014660181971167537 -0.013704463245751537 0.05659075772605731 0.016809328508362736 0.00081420586652472201 0.0033639469508793597
leaf_weight=28.360409080982208 16.695815265178684 18.660307943820953 157.19204404950142 12.956482291221617 7.7624632120132473 7.4288348853588095 13.878699272871016 21.841335475444794 27.319279253482819 27.089600563049316 58.736999273300171 73.743782550096512 6.0412847995758048 14.564876973628996 11.927668154239656 31.756403267383575 10.068434476852415 15.702146172523497 40.686324506998062 52.278445512056351 603.71127501130104 13.575992792844774 125.91468033194542 32.602072358131409 69.145186096429825 15.031112492084501 12.436462968587874 21.512421250343323 8.4215902686119062 23.068525940179825
leaf_count=92 54 60 523 43 26 24 46 71 90 88 195 244 20 48 39 105 33 52 133 170 2021 44 419 108 230 50 41 71 28 76
internal_value=-2.77944e-06 -0.00479052 -0.00566333 0.00221278 -0.0104642 -0.0115473 0.0225316 0.0246143 0.0219247 0.000463462 0.00854017 0.00259848 0.0378909 0.0274375 0.0251974 0.0220309 0.0264674 0.00580235 0.0309952 0.0417009 -0.0120942 0.017499 -0.00439305 0.00105031 -0.00941269 0.0115799 0.0172907 0.0313824 0.0293072 0.020526
internal_weight=1580.11 1303.22 1284.56 486.471 798.092 768.332 276.888 263.009 241.168 463.734 174.135 132.481 22.7371 41.6545 213.848 185.488 153.732 27.6298 126.102 62.3469 760.903 29.76 289.598 163.684 82.1017 81.5821 66.551 33.9489 21.9976 63.7549
internal_count=5244 4337 4277 1611 2666 2568 907 861 790 1537 575 439 74 136 700 608 503 91 412 203 2544 98 962 543 273 270 220 112 72 209
is_linear=0
shrinkage=0.03


Tree=6
num_leaves=31
num_cat=0
split_feature=195 0 133 77 25 29 36 149 105 142 17 51 20 91 121 196 105 166 166 173 174 79 186 136 79 57 101 150 182 84
split_gain=56.8714 21.583 14.5553 13.7554 13.1684 14.2052 12.3085 9.10379 9.03277 9.4896 10.0144 8.75626 8.19919 8.59588 12.1138 7.78748 8.96377 7.76517 12.1969 7.03439 7.6238 7.53244 8.78456 7.04325 6.9133 6.85129 6.87474 6.84154 7.54954 6.33788
threshold=0.0265697015587496 -0.80145313776442206 -0.82166666666666577 1.3175665783629247 1.0000000180025095e-35 37.500000000000007 1.0000000180025095e-35 0.58151168546234266 0.11000000000000001 0.042692250674256804 0.58182453915005261 -1.1912328356135029 -0.58833011866068241 -0.10999999999999999 1.0000000180025095e-35 1.1499456490401145 0.35000000000000003 0.03726817709913216 0.042251488427344594 0.016768677585961771 0.015372877316609817 -0.70999999999999985 0.49739218880735953 0.0075779381976891561 -0.029999999999999995 0.5156321948286936 -0.52355619013128074 0.010397639088521848 0.45362822795422864 -0.33135747395886117
decision_type=2 2 2 2 2 2 2 2 2 2 2 2 2 2 2 2 2 2 2 2 2 2 2 2 2 2 2 2 2 2
left_child=1 11 -3 4 5 15 7 -2 -8 10 -10 -1 -9 25 -15 16 17 19 -19 20 21 -4 24 -24 -23 26 -14 -28 -29 -30
right_child=6 2 3 -5 -6 -7 8 12 9 -11 -12 -13 13 14 -16 -17 -18 18 -20 -21 -22 22 23 -25 -26 -27 27 28 29 -31
leaf_value=0.017886643404238855 -0.017554436407748182 -0.027356071981283675 0.015563930589715605 -0.0257787884083382 -0.028315921360989503 0.039715869370885226 0.040237057052887687 0.03311256050928249 0.00090072520675561936 0.027004439611778917 0.038518553215876349 -0.012897030842580827 -0.014796352347670759 0.012619066486990351 -0.0034443711135562242 -0.017622168218509721 -0.016619636550094567 0.036574075472080581 -0.00091303662716458252 -0.0039889094349613869 0.012790785053299837 -0.0048210853406678378 0.016591700482490555 -0.013476668591207944 0.012963956616830604 -0.0047033753920637088 0.0013100934985367948 0.023120188028744847 0.020324411052553785 0.0073337286152426852
leaf_weight=8.58708408474922 16.239762544631958 19.895453691482544 28.256329536437988 20.15368863940239 15.137745022773741 7.999368041753768 12.142020136117933 9.3245842158794385 50.41785991191864 27.738983720541 7.2900205552577964 263.53138107061386 11.022236853837965 54.812030762434006 184.38358870148659 23.084236234426498 27.613700151443481 13.751908272504808 18.082793354988098 233.1485116481781 56.753903388977051 206.81969365477562 38.44815731048584 8.5749458968639356 21.738146603107452 38.587907135486603 77.583770424127579 41.879441916942596 40.108007311820984 214.9270259141922
leaf_count=25 48 59 82 60 45 23 35 27 146 80 21 775 32 159 538 68 81 40 53 679 165 606 112 25 63 112 225 121 116 623
internal_value=2.45673e-06 -0.00470198 -0.0020437 -0.00134383 -0.000639732 -2.74674e-05 0.00605351 0.00464092 0.0160249 0.0125843 0.00565284 -0.0119256 0.0051768 0.00478408 0.000236589 -0.000497576 0.000107622 0.000845986 0.0152806 7.20414e-05 0.00269774 0.000812458 -0.000700064 0.0111086 -0.00312955 0.00734885 0.00855519 0.00924247 0.0113152 0.0093767
internal_weight=1798.03 1011.58 739.459 719.563 699.409 684.272 786.457 688.868 97.5889 85.4469 57.7079 272.118 672.629 663.304 239.196 676.272 653.188 625.574 31.8347 593.74 360.591 303.837 275.581 47.0231 228.558 424.108 385.52 374.498 296.914 255.035
internal_count=5244 2961 2161 2102 2042 1997 2283 2001 282 247 167 800 1953 1926 697 1974 1906 1825 93 1732 1053 888 806 137 669 1229 1117 1085 860 739
is_linear=0
shrinkage=0.03


Tree=7
num_leaves=31
num_cat=0
split_feature=0 25 98 77 129 82 200 117 173 137 176 182 134 101 134 139 137 141 10 200 96 161 137 77 3 158 15 118 138 175
split_gain=36.4052 18.0706 15.8031 12.2839 10.8209 10.395 12.701 11.453 9.47846 9.36767 8.74144 8.42463 7.57629 7.49469 7.02913 6.59734 6.58505 9.03078 7.22348 6.46513 8.03953 7.08434 6.39106 9.40409 6.37156 7.01001 8.00756 7.89345 7.72909 6.53256
threshold=-0.84019433736868587 1.0000000180025095e-35 0.037559534448084984 1.6384289294352095 0.13750000000000004 0.12239648638783802 0.12242911781471309 0.030000000000000002 0.047069609552331422 0.48846854404976664 0.051169962388426159 0.45362822795422864 0.11295575677488687 0.014054570695639052 0.11458706838573553 0.028927729721673935 0.55931914571186359 0.81500145300003146 -0.27312925516834935 0.11606978141625469 17.070000000000004 1.5265566588595905e-16 0.43750610875613621 0.94940101842134084 -0.4360290532634033 0.48764219626854982 -0.95083419708646355 -0.18671084825705375 0.53290354800526574 0.016539675239848468
decision_type=2 2 2 2 2 2 2 2 2 2 2 2 2 2 2 2 2 2 2 2 2 2 2 2 2 2 2 2 2 2
left_child=11 2 3 5 8 6 9 10 22 19 13 -1 -13 24 -3 -10 18 -18 -11 20 21 -2 -4 -24 -8 26 28 -28 -26 -27
right_child=1 14 4 -5 -6 -7 7 -9 15 16 -12 12 -14 -15 -16 -17 17 -19 -20 -21 -22 -23 23 -25 25 29 27 -29 -30 -31
leaf_value=0.0078020473975840459 -0.0050986606887487799 0.0038203031009472073 0.002449242436242686 -0.023720454683841638 -0.0022420804804826589 -0.0061214192528956353 0.013259356987145513 -0.01570346144626485 -0.024189847664577366 1.4679643431074611e-06 0.021655501676609769 -0.01482583612198757 0.014249228576658791 -0.005144335795833563 0.037181976899327299 0.0038761418409508897 -0.0063138426346959443 0.027713001026780079 0.029782270393295656 -0.01053492786087748 -0.018112661727046404 0.032168399585824611 0.013442840878118888 0.045179335527812697 -0.021909247276352298 0.0029901485403592194 0.016598348203053909 0.0043587687274435861 0.0037915676322843564 -0.019937814638923409
leaf_weight=18.191653668880463 7.9790358245372834 8.4099472165107745 45.515280246734619 20.603579044342041 112.27749955654144 223.89353311061859 71.315822839736938 26.715884625911713 8.0267261266708356 14.267091810703279 25.230711311101913 184.46128311753273 8.4348180890083295 76.176996111869812 17.535307437181473 123.77684313058853 54.434161931276321 8.059089779853819 15.076038390398024 155.80054804682732 9.0202596783637983 10.811157763004301 157.653903901577 8.8762458264827711 18.485692113637924 24.143319815397263 57.519386023283005 270.1244090795517 24.473706841468811 20.835672974586487
leaf_count=52 23 24 130 60 322 643 204 77 23 41 72 536 24 219 49 354 156 23 43 448 26 31 450 25 53 69 164 773 70 60
internal_value=3.38374e-06 0.00153296 0.00112799 -0.000767391 0.0058442 -0.000343009 0.00110988 0.00350763 0.00848462 -0.00424386 0.00438004 -0.0117139 -0.0135545 0.00360595 0.0263681 0.00216695 0.00357889 -0.00192576 0.0153024 -0.00815655 0.00516764 0.0163434 0.0124116 0.0151344 0.00497496 0.00355332 0.0049107 0.00650748 -0.00726765 -0.0076308
internal_weight=1828.13 1617.04 1591.09 1134.97 456.126 1114.36 890.469 615.022 343.849 275.447 588.306 211.088 192.896 563.075 25.9453 131.804 91.8364 62.4933 29.3431 183.611 27.8105 18.7902 212.045 166.53 486.898 415.582 370.603 327.644 42.9594 44.979
internal_count=5244 4632 4559 3255 1304 3195 2552 1761 982 791 1684 612 560 1612 73 377 263 179 84 528 80 54 605 475 1393 1189 1060 937 123 129
is_linear=0
shrinkage=0.03


Tree=8
num_leaves=31
num_cat=0
split_feature=0 77 137 133 76 82 200 40 103 133 139 0 175 8 7 173 115 102 3 133 146 129 117 141 133 144 0 182 8 137
split_gain=177.428 70.4763 51.5438 32.8771 41.7636 26.1739 23.6707 21.7712 18.6 22.0807 22.0282 18.4722 21.4971 17.9422 19.2632 15.9181 16.4124 14.5946 15.0924 14.1985 13.4734 13.0106 12.713 12.6057 15.5976 16.9813 20.489 11.8841 11.7994 11.6827
threshold=-0.77643296099705672 1.6384289294352095 0.51719000315438846 -0.47166666666666635 0.91000000000000014 0.28906673112042797 0.85123680011254976 -0.88195170479778529 0.25000000000000006 0.51833333333333342 0.0522518243440225 -0.22060780715690248 0.01147177045874651 -0.3169982112492537 0.73973036358593525 0.0086291230762865784 0.71000000000000008 0.15000000000000005 0.29587057772612257 0.036666666666666625 0.49172822786337922 -0.72749999999999992 0.090000000000000011 0.54747591089269942 0.52500000000000002 0.14946157598245743 -0.39574838770592397 0.49739218880735953 1.2653147260467805 0.37174680538961352
decision_type=2 2 2 2 2 2 2 2 2 2 2 2 2 2 2 2 2 2 2 2 2 2 2 2 2 2 2 2 2 2
left_child=6 2 3 4 11 -4 7 8 9 10 -1 12 -2 14 27 16 28 18 -14 22 -15 -7 -5 24 25 -21 -27 -9 -12 -25
right_child=1 -3 5 19 -6 21 -8 13 -10 -11 15 -13 17 20 -16 -17 -18 -19 -20 23 -22 -23 -24 29 -26 26 -28 -29 -30 -31
leaf_value=-0.02279909750520169 -0.010175194413787043 0.052390193487225747 -0.01306988839795006 -0.010825241154170351 0.048127241105689181 0.046478545302699271 -0.016719940532440851 0.029102990094935374 0.057137909597362611 -0.010621442776612255 0.031720118801091997 -0.0091185724411019051 0.038747312354850356 0.01243472002229133 -0.0029806607601216063 -0.0066200901551317949 -0.00087770894552121486 -0.0029813865261114612 -0.0076419076214223969 0.050887590601419848 -0.020767206310856615 0.0028803209253184759 0.02166180425037123 0.0038870585899381366 -0.011330775157327723 0.028878745356317282 -0.0010538597076580555 0.065077075013863783 0.056915044244691231 -0.013065936908068962
leaf_weight=6.0398840904235831 23.86677885055542 19.188149750232697 594.73968297243118 209.02815037965775 24.623323440551758 8.7993074059486407 13.77063128352165 25.654108017683029 23.075549840927124 12.165115624666212 30.929318457841873 48.731627106666565 39.873409271240234 80.734468698501587 11.962646216154097 7.0250405669212332 7.703243911266326 14.512874752283095 7.4991043508052817 9.8661287128925306 12.735162168741224 20.54064005613327 11.434042960405348 70.11612457036972 29.406895935535431 31.688093274831772 58.719569474458694 12.192730128765104 36.438330322504044 76.497931003570557
leaf_count=20 79 60 2006 698 78 28 46 83 73 40 99 163 129 263 39 23 25 48 25 32 42 68 37 232 98 104 196 39 115 256
internal_value=-6.71277e-06 -0.00467812 -0.00553365 0.000338901 0.0122072 -0.0117053 0.0216345 0.0236152 0.0328529 0.0272658 0.0324953 0.00563041 0.014012 0.0156608 0.0302035 0.0365634 0.0406044 0.0233401 0.0314039 -0.00346242 0.00791098 0.0159558 -0.00914033 0.00106813 0.0078816 0.0135159 0.00943759 0.0406924 0.0453477 -0.0049584
internal_weight=1579.56 1299.13 1279.94 655.864 159.107 624.08 280.426 266.656 123.376 100.301 88.1358 134.484 85.7522 143.279 49.8095 82.0959 75.0709 61.8854 47.3725 496.757 93.4696 29.3399 220.462 276.295 129.681 100.274 90.4077 37.8468 67.3676 146.614
internal_count=5244 4337 4277 2175 522 2102 907 861 395 322 282 444 281 466 161 262 239 202 154 1653 305 96 735 918 430 332 300 122 214 488
is_linear=0
shrinkage=0.03


Tree=9
num_leaves=31
num_cat=0
split_feature=0 26 149 142 147 25 200 66 139 121 76 91 121 51 15 4 70 140 176 133 138 196 68 200 7 200 10 62 71 71
split_gain=54.1714 16.3286 15.1336 15.4176 14.1538 13.15 12.0374 12.9786 10.3646 9.09329 8.75028 8.53145 8.66793 9.87002 8.40654 8.1639 7.76869 7.20222 7.18518 6.42062 6.24874 6.24553 7.12561 6.62528 8.44085 8.42076 8.83161 6.34955 6.1747 6.11476
threshold=-0.33978989889038025 1.0000000180025095e-35 0.64448115685767737 0.027282421259831741 0.083989794855663602 1.0000000180025095e-35 0.86470521283783663 -0.58333333333333315 0.10566593341779366 0.21000000000000005 0.19000000000000003 -0.61499999999999988 1.0000000180025095e-35 0.20382392168779956 0.5591567315199566 -0.93476183196409501 -0.36208738606406782 0.058029547752115461 0.01278120920599801 0.19833333333333325 0.71811988744821986 0.9515250916292225 0.64128428350895705 0.12474418068694205 -0.47522678323384093 0.11948951079729843 -0.28440587016449392 -0.87499999999999989 0.039361442807810773 0.85961404412389109
decision_type=2 2 2 2 2 2 2 2 2 2 2 2 2 2 2 2 2 2 2 2 2 2 2 2 2 2 2 2 2 2
left_child=4 2 3 16 -1 8 7 -6 11 14 -5 -4 13 -13 -9 28 -2 -15 -18 -11 -10 22 27 25 -25 26 -23 -17 -14 -29
right_child=1 -3 5 10 6 -7 -8 9 20 19 -12 12 15 17 -16 21 18 -19 -20 -21 -22 23 -24 24 -26 -27 -28 29 -30 -31
leaf_value=0.014201316974168536 -0.020197119966696132 0.033331112212588325 0.008110892463205106 0.00640049059941648 -0.017137527562298378 -0.025173474651076583 0.01030182313219302 -0.0016643747468583015 0.0091694694719229083 -0.018343631577087169 -0.021198511511146649 0.00023130756070051313 0.00066066688102696728 0.042479537225662653 -0.011917501086643169 -0.013551205808879703 0.026945480525823882 0.012717913597799778 0.0018298789091916673 -0.0021867777208217391 0.024611700616827926 0.016621597155681338 0.024286644317639289 0.019005690652081946 -0.008273574787823864 0.018085546021385224 -0.022992171470792262 -0.00279453155304526 0.031810766600535396 0.014972700718627907
leaf_weight=28.194016128778458 8.7853850424289686 16.93934890627861 312.93456056714058 12.767364114522932 123.59831196069717 12.916840404272078 32.485103696584702 297.45214766263962 76.221961915493011 80.132162809371948 54.357808887958527 29.440032988786697 10.353498011827471 12.165199518203737 94.940321981906891 46.595396369695663 15.795068889856337 18.366619408130646 29.210292011499405 30.585551142692566 34.150349736213684 9.3669731020927447 8.6401337087154371 13.131860017776487 45.85771170258522 49.814966917037964 11.028961420059202 249.71044912934303 12.817066818475721 18.741863906383514
leaf_count=81 26 48 905 37 368 39 94 871 220 238 163 85 30 35 280 136 45 53 85 90 98 27 25 38 133 144 32 727 37 54
internal_value=4.32745e-06 0.0041025 0.00364958 -0.00635954 -0.00661409 0.00489438 -0.00750437 -0.00842735 0.00529923 -0.00628753 -0.0159491 0.00417489 0.00187705 0.0126254 -0.00414514 0.000523018 0.00560724 0.0245762 0.0106444 -0.0138803 0.0139475 -0.000365594 -0.00259136 0.00521065 -0.00220085 0.0114376 -0.00479928 -0.00332848 0.0178917 -0.00155412
internal_weight=1797.5 1110.11 1093.17 120.916 687.388 972.254 659.194 626.708 959.338 503.11 67.1252 848.965 536.031 59.9719 392.392 476.059 53.7907 30.5318 45.0054 110.718 110.372 452.888 323.688 129.2 58.9896 70.2109 20.3959 315.048 23.1706 268.452
internal_count=5244 3222 3174 356 2022 2818 1941 1847 2779 1479 200 2461 1556 173 1151 1383 156 88 130 328 318 1316 942 374 171 203 59 917 67 781
is_linear=0
shrinkage=0.03


Tree=10
num_leaves=31
num_cat=0
split_feature=0 25 98 77 129 82 200 117 173 137 176 182 134 132 182 79 15 134 135 138 139 137 141 10 200 47 101 115 103 196
split_gain=34.5742 16.9277 14.9252 11.6529 10.3077 9.85624 12.054 10.8293 8.92663 8.87925 8.2969 8.02394 7.21222 7.15298 8.71404 8.02855 7.29245 6.61653 6.36696 6.49209 6.35601 6.29535 8.575 6.77423 6.24278 7.67902 6.16978 6.47187 6.2924 10.2845
threshold=-0.84019433736868587 1.0000000180025095e-35 0.037559534448084984 1.6384289294352095 0.13750000000000004 0.12239648638783802 0.12242911781471309 0.030000000000000002 0.047069609552331422 0.48846854404976664 0.051169962388426159 0.45362822795422864 0.11295575677488687 -0.014999999999999998 0.48764219626854988 -0.40999999999999998 0.22249796074250169 0.11458706838573553 0.70021716037575843 0.59774430527873912 0.028927729721673935 0.55931914571186359 0.81500145300003146 -0.27312925516834935 0.11606978141625469 -1.0000000180025095e-35 0.014054570695639052 0.6100000000000001 0.05000000000000001 0.82985691452318677
decision_type=2 2 2 2 2 2 2 2 2 2 2 2 2 2 2 2 2 2 2 2 2 2 2 2 2 2 2 2 2 2
left_child=11 2 3 5 8 6 9 10 -4 24 13 -1 -13 14 15 -8 18 -3 19 -16 -10 23 -23 -11 25 -2 27 28 -15 -30
right_child=1 17 4 -5 -6 -7 7 -9 20 21 -12 12 -14 26 16 -17 -18 -19 -20 -21 -22 22 -24 -25 -26 -27 -28 -29 29 -31
leaf_value=0.0075693467514073411 -0.014719786694372837 0.0035693482622872726 0.01204745600958586 -0.023229143151725119 -0.0022194579646081232 -0.0059679329061848446 0.015375242189601441 -0.015334218805860432 -0.023849066726238027 3.9702537888309428e-05 0.021034139176147295 -0.014503198856695113 0.013805632279745737 0.0058667224662470154 0.0044571557902737848 -0.010180467895180831 0.030763081660682458 0.035853962454998597 -0.0078536414182779346 0.034760044832495778 0.0037853810118530979 -0.0062233908058011034 0.026816884489683463 0.028823104054349763 -0.010308125680536148 0.017644107905766798 -0.0065219061210994196 0.015538541666925254 -0.014561842755666 0.0023260126479160018
leaf_weight=18.240733087062836 10.760922551155092 8.4345537126064318 212.871442258358 20.371783077716827 112.23790892958641 223.37126305699348 18.985168248414993 26.537735611200333 7.9727189838886252 14.259206950664522 25.385489672422409 183.33822390437126 8.4740546643733961 186.79958429932594 14.026316046714784 26.516522258520126 23.895793616771698 17.707747906446457 12.572208315134047 11.646176338195799 123.91288268566132 54.362133592367172 8.1262970268726331 15.207267403602598 155.22969183325768 17.056930124759674 67.367178738117218 35.415630489587784 44.171157777309418 122.35316324234009
leaf_count=52 31 24 605 60 322 643 54 77 23 41 72 536 24 533 40 76 68 49 36 33 354 156 23 43 448 49 194 101 127 350
internal_value=6.01193e-06 0.00149294 0.0010996 -0.000744389 0.00567702 -0.000333226 0.0010799 0.00341239 0.00824776 -0.00414207 0.00425684 -0.0114444 -0.0132525 0.00350136 0.0104574 0.000482421 0.0177615 0.0254377 0.00963798 0.0182039 0.00211483 0.00346357 -0.00192667 0.0148944 -0.0079628 0.00512462 0.00185971 0.00331222 0.00208671 -0.00215355
internal_weight=1827.61 1617.55 1591.41 1134.42 456.995 1114.05 890.675 615.672 344.757 275.002 589.134 210.053 191.812 563.749 107.642 45.5017 62.1405 26.1423 38.2447 25.6725 131.886 91.9549 62.4884 29.4665 183.048 27.8179 456.107 388.74 353.324 166.524
internal_count=5244 4632 4559 3255 1304 3195 2552 1761 982 791 1684 612 560 1612 307 130 177 73 109 73 377 263 179 84 528 80 1305 1111 1010 477
is_linear=0
shrinkage=0.03


Tree=11
num_leaves=31
num_cat=0
split_feature=0 77 0 96 133 77 144 134 114 40 141 40 138 142 200 165 134 163 10 147 143 103 68 80 140 200 137 142 71 71
split_gain=165.896 58.6157 55.5761 43.4204 22.378 20.228 20.033 26.5323 18.2816 17.9008 17.9004 21.1457 16.3361 14.8987 17.8076 14.8664 14.4136 12.7355 22.6915 12.2163 11.1798 13.687 13.4299 10.2161 11.8123 9.93057 9.68814 9.64091 11.8322 12.6729
threshold=-0.34597700300085782 1.4886756655335152 -0.82728071363768818 652.81000000000017 -0.82166666666666577 -0.25108937594040986 0.31972475031435849 0.36198915805837234 -0.26999999999999996 -0.78199907571204397 0.61767599353667291 -0.88195170479778529 0.46301562457295614 0.034481684637574679 0.79403615931836324 0.11214166098996557 0.04278088701538748 316.54303654513257 0.89864354934526736 0.42970910553583885 0.48764219626854988 0.11000000000000001 0.068372602440340269 0.45500000000000007 0.062472772385984178 0.12183777921664711 1.0620954907044402 0.01030445739571262 -0.28343686385070305 0.021029982972551192
decision_type=2 2 2 2 2 2 2 2 2 2 2 2 2 2 2 2 2 2 2 2 2 2 2 2 2 2 2 2 2 2
left_child=2 3 5 6 -4 16 7 23 9 12 11 15 25 -14 -15 -7 -1 -8 -19 -13 21 22 -12 -2 -25 -6 -9 -11 -29 -30
right_child=1 -3 4 -5 8 10 17 26 -10 27 20 19 13 14 -16 -17 -18 18 -20 -21 -22 -23 -24 24 -26 -27 -28 28 29 -31
leaf_value=0.031628489981995675 -0.0075452640661529706 0.040738761815974849 0.045036570835961263 0.039945217585371173 0.0083981396753685083 0.053707900050738507 -0.013465961156152138 0.047642091487547555 -0.011360532713426765 -0.0021871363347787495 0.040786789828967523 0.014770378731500789 -0.012564714872511085 0.037199588210721647 -0.011663224244109486 0.0095142848412181538 -0.011245225160381475 -0.0056800624029337676 0.055527194094418621 0.059299324000066024 0.04674474943333666 -0.0054579237009316633 0.0059966564646041047 0.03563602812019178 -0.0058173270790073594 -0.017678111681595988 0.0030721880187811025 -0.00080098997888357706 0.027030887872880494 0.009226304800182673
leaf_weight=10.442808985710142 197.30518901348114 21.88836869597435 12.548630088567732 16.08437368273735 17.34765362739563 52.730692058801651 639.632802516222 12.211755484342577 57.034319758415222 34.987529456615448 19.802784472703934 39.62454828619957 15.904250323772429 22.916570663452148 9.4933534264564496 7.8735241591930381 21.767582833766937 37.13378182053566 6.3892553448677054 6.4471202790737143 9.9109783172607404 23.902312964200974 20.145354449748993 11.235301405191423 13.767828255891798 54.242146283388138 6.8523100316524497 34.338077217340469 77.71086248755455 66.999831706285477
leaf_count=33 665 68 39 50 57 162 2171 39 190 115 62 127 53 74 32 25 72 125 20 20 31 78 65 36 46 181 23 113 252 220
internal_value=-1.18872e-05 -0.00779303 0.0121428 -0.00892238 0.00560229 0.0245541 -0.00977255 -0.00234321 0.00433662 0.00701757 0.0284635 0.0363207 -0.00226247 0.0112168 0.0228869 0.0479664 0.0026547 -0.0123975 0.00330527 0.0210016 0.0171001 0.0124986 0.0232426 -0.0052559 0.01281 -0.0113593 0.0316221 0.0122163 0.0150308 0.0187875
internal_weight=1578.67 962.501 616.171 940.613 403.523 212.648 924.528 241.372 390.975 333.94 180.437 106.676 119.904 48.3142 32.4099 60.6042 32.2104 683.156 43.523 46.0717 73.7614 63.8505 39.9481 222.308 25.0031 71.5898 19.0641 214.036 179.049 144.711
internal_count=5244 3243 2001 3175 1326 675 3125 809 1287 1097 570 334 397 159 106 187 105 2316 145 147 236 205 127 747 82 238 62 700 585 472
is_linear=0
shrinkage=0.03


Tree=12
num_leaves=31
num_cat=0
split_feature=195 0 133 77 25 29 36 138 84 143 149 51 20 91 121 196 105 166 166 173 174 82 15 135 15 48 150 4 0 77
split_gain=51.3185 19.7262 13.5585 12.7647 12.2009 13.0165 11.3496 8.46752 8.61306 9.28179 8.23863 8.18028 7.5892 7.76385 11.0695 7.25056 8.3938 7.42846 11.2654 6.90044 6.95789 7.10715 7.24766 7.51838 6.84226 6.6642 7.04788 6.71605 7.19949 6.60548
threshold=0.0265697015587496 -0.80145313776442206 -0.82166666666666577 1.3175665783629247 1.0000000180025095e-35 37.500000000000007 1.0000000180025095e-35 0.77139916118798912 0.52445429304837787 0.1679795897113272 0.58151168546234266 -1.1912328356135029 -0.58833011866068241 -0.10999999999999999 1.0000000180025095e-35 1.1499456490401145 0.35000000000000003 0.03726817709913216 0.042251488427344594 0.016768677585961771 0.015372877316609817 0.014462925376034221 0.67083049094819913 0.59911870744139739 0.73949676208095394 1.0000000180025095e-35 0.0022607192770212306 0.11244780470967385 -0.46220060181365114 0.69962683675270287
decision_type=2 2 2 2 2 2 2 2 2 2 2 2 2 2 2 2 2 2 2 2 2 2 2 2 2 2 2 2 2 2
left_child=1 11 -3 4 5 15 10 8 9 -8 -2 -1 -12 29 -15 16 17 19 -19 20 21 -4 25 -24 -11 -23 -27 28 -28 -14
right_child=6 2 3 -5 -6 -7 7 -9 -10 24 12 -13 13 14 -16 -17 -18 18 -20 -21 -22 22 23 -25 -26 26 27 -29 -30 -31
leaf_value=0.017283593382497294 -0.016901993992440401 -0.02664821939547583 -0.0043569369026984972 -0.025069305860446957 -0.02757557341883083 0.037699760305909026 0.029228587170507508 0.03270529679990964 0.037636661508158253 0.0071507329531017147 0.031562361393750883 -0.01238152315494353 0.0053596619196872716 0.011955379188942315 -0.0033570987476199015 -0.01710307792460744 -0.016162501894332652 0.035169304392602706 -0.00074847352830938445 -0.0039655334344125878 0.012266257487878575 0.015162443324380881 0.0059329653292903555 -0.022870635007682653 -0.018628967383056881 -0.026446357480865337 -0.0082898227126338223 0.021540178871139497 0.015388955935026536 0.015815170823795174
leaf_weight=8.643306761980055 15.997460067272185 19.468846529722214 132.71994349360466 19.734983593225479 14.774985432624815 8.1354139745235425 13.713007688522337 19.972738325595856 9.4797440469264966 43.444029122591019 9.459754675626753 260.76850366592407 362.29045453667641 55.239136666059494 184.08685445785522 22.804679870605469 27.348937183618546 13.930018603801729 18.032662510871887 233.00966766476631 57.094760775566101 62.403987884521484 17.100930005311966 15.592397689819334 11.777889758348463 7.1390513479709616 34.744572609663003 16.520284920930862 17.316001087427146 63.987007468938828
leaf_count=25 48 59 389 60 45 23 39 57 27 125 27 775 1045 159 538 68 81 40 53 679 165 182 50 46 34 21 102 48 50 184
internal_value=6.53722e-06 -0.00448198 -0.00194519 -0.00127573 -0.000603644 -2.09364e-05 0.00573359 0.0152668 0.0108251 0.00713802 0.00437633 -0.0114298 0.00488058 0.00450137 0.000177194 -0.000475054 0.000105687 0.000816868 0.0149053 5.83246e-05 0.0026582 0.000850942 0.00489731 -0.00780431 0.00165236 0.00790373 0.00192151 0.00487452 -0.000413963 0.0069291
internal_weight=1796.73 1007.28 737.872 718.403 698.668 683.893 789.448 98.3874 78.4147 68.9349 691.061 269.412 675.063 665.603 239.326 675.758 652.953 625.604 31.9627 593.642 360.632 303.537 170.817 32.6933 55.2219 138.124 75.7199 68.5809 52.0606 426.277
internal_count=5244 2961 2161 2102 2042 1997 2283 282 225 198 2001 800 1953 1926 697 1974 1906 1825 93 1732 1053 888 499 96 159 403 221 200 152 1229
is_linear=0
shrinkage=0.03


Tree=13
num_leaves=31
num_cat=0
split_feature=0 25 0 176 199 200 10 144 133 77 144 141 182 138 141 143 0 144 182 134 118 175 96 133 151 134 154 10 7 0
split_gain=32.5441 15.8317 14.1714 13.8418 10.1278 8.42073 9.36356 8.33243 9.07484 8.26659 7.72853 8.45727 7.6304 7.4415 7.18799 7.97921 7.17677 7.12378 7.12158 6.96122 8.82535 6.81712 6.75499 6.73661 6.47972 6.17313 6.10862 11.2454 6.52648 6.06819
threshold=-0.84019433736868587 1.0000000180025095e-35 -0.050039696712192598 0.018014729527650947 0.71109051596295447 0.75091795675544859 1.0000000180025095e-35 0.75420447094315124 0.65499999999999992 0.93803078480265045 0.30149096584893215 0.67862456362867796 0.45362822795422864 0.38376025526838436 0.5732186094634043 0.4949727265048785 -0.81033124381663146 0.87246679205589905 0.49172822786337922 0.069427108433774073 0.18962637987208023 0.0073130924077899253 9.4000000000000021 -0.66333333333333322 0.0037105616759315705 0.11458706838573553 0.0029399508827527192 -0.0067430242932593936 -0.30730568744837494 0.68684589711696087
decision_type=2 2 2 2 2 2 2 2 2 2 2 2 2 2 2 2 2 2 2 2 2 2 2 2 2 2 2 2 2 2
left_child=12 2 5 9 10 6 14 8 21 24 11 -5 -1 22 23 16 -16 -9 -10 26 -21 -8 -12 -2 -4 -3 27 28 -14 -15
right_child=1 25 3 4 -6 -7 7 17 18 -11 13 -13 19 29 15 -17 -18 -19 -20 20 -22 -23 -24 -25 -26 -27 -28 -29 -30 -31
leaf_value=0.007378687519492182 0.018002004151227512 0.0033989130300736523 -0.0093415184066723521 -0.010833999637657597 0.012981341645699656 0.0080460830704638629 0.0034020534275890258 0.016617527537843253 -0.0055353735596390371 0.044992698213814686 0.002739387844810477 0.0077191298943915868 -0.008967570061640253 0.0069697057710255486 0.029563350679263811 -0.009866613766106664 0.0048241888239274966 -0.0065081274921668106 0.032758140107579527 0.0071765383555086985 -0.017630468503701653 -0.011633520224484202 -0.013178635773313019 -0.0059710850478903645 0.015648863061393577 0.034517438727348866 -0.021370042654383466 -0.022445428402952394 0.02088446098975532 -0.00053527176549056203
leaf_weight=18.279017388820648 11.323314189910887 8.4509167373180407 10.79503872990608 82.453861385583878 74.225794762372971 71.06808739900589 30.732132643461227 23.969020545482635 9.3305843472480792 7.6121817231178275 50.955666959285736 30.215815782546997 13.687650978565218 289.8936273753643 11.223633497953413 32.174674808979034 176.78644552826881 23.985011011362076 8.2228344380855543 29.666932672262192 22.846861243247986 232.16410478949547 45.344271868467331 154.39301785826683 69.183274209499359 17.867755979299545 85.845965832471848 25.788428544998169 12.713633388280867 145.69299882650375
leaf_count=52 32 24 31 239 210 202 88 68 27 21 145 86 40 826 32 93 505 69 23 86 67 674 132 445 195 49 254 76 37 416
internal_value=9.14133e-06 0.0014476 0.00106602 0.0038596 0.00248752 -0.00180225 -0.00278208 -0.00650543 -0.00848144 0.0151191 0.00127907 -0.00585841 -0.0111365 0.00279101 0.000386505 0.00393853 0.00630104 0.00505084 0.0124031 -0.0129126 -0.0036161 -0.00987589 -0.00475585 -0.00433302 0.0122758 0.0245253 -0.0164493 -0.00835528 0.00540778 0.00445948
internal_weight=1826.89 1618.06 1591.75 806.373 718.782 785.373 714.305 328.404 280.45 87.5905 644.556 112.67 208.828 531.887 385.901 220.185 188.01 47.954 17.5534 190.549 52.5138 262.896 96.2999 165.716 79.9783 26.3187 138.036 52.1897 26.4013 435.587
internal_count=5244 4632 4559 2301 2054 2258 2056 949 812 247 1844 325 612 1519 1107 630 537 137 50 560 153 762 277 477 226 73 407 153 77 1242
is_linear=0
shrinkage=0.03


Tree=14
num_leaves=31
num_cat=0
split_feature=0 77 137 133 76 82 200 103 35 0 175 133 147 1 133 137 147 143 138 83 117 141 133 144 0 129 137 137 150 74
split_gain=156.095 61.4586 47.0249 30.9338 35.8144 24.2521 21.3744 18.8698 19.6165 16.6189 19.9141 14.6886 13.386 14.1825 12.6166 20.8257 18.5401 15.6618 16.7005 15.5569 12.125 11.9539 14.7816 15.157 18.3756 11.4198 10.8429 13.8689 10.7936 10.1199
threshold=-0.77643296099705672 1.4886756655335152 0.51719000315438846 -0.47166666666666635 0.91000000000000014 0.28906673112042797 0.85123680011254976 0.27000000000000007 1.0000000180025095e-35 -0.22060780715690248 0.01147177045874651 0.036666666666666625 0.33948451256678308 -0.14226940536802926 0.51833333333333342 0.10818966640869453 0.43897602224478066 0.43285868703523972 0.37087472781189285 -0.96366029771953132 0.090000000000000011 0.54747591089269942 0.52500000000000002 0.14946157598245743 -0.39574838770592397 -0.72749999999999992 0.37174680538961352 0.17531789638654185 0.0087484747546122867 0.29979841373603111
decision_type=2 2 2 2 2 2 2 2 2 2 2 2 2 2 2 2 2 2 2 2 2 2 2 2 2 2 2 2 2 2
left_child=6 2 3 4 9 -4 7 8 14 10 -2 20 13 -12 15 -1 17 18 -17 -20 -5 22 23 -13 -25 -7 27 -23 -18 -26
right_child=1 -3 5 11 -6 25 -8 -9 -10 -11 12 21 -14 -15 -16 16 28 -19 19 -21 -22 26 -24 24 29 -27 -28 -29 -30 -31
leaf_value=0.039465562861504072 -0.010074202819404632 0.040899766252742199 -0.012728859773961895 -0.011112103644210726 0.044146722526444894 0.043000673973234128 -0.016576316230267948 0.047663858013916698 -0.0043611225549445923 -0.0086816122454920208 0.049454617886924977 0.047817824857803413 0.0032922962855119254 0.014092594956976267 -0.0010924342489334353 -0.010958824446013753 0.05795885477746917 -0.0012890297946355918 -0.0072979195287586601 0.033332018317295029 0.020357814187264813 -0.017273133707659552 -0.011134929884786636 0.027347843991976001 -0.0087693704936969274 0.0026820983899099988 -0.012733545286836245 0.012096252842233111 0.014220743958761006 0.018820472687257613
leaf_weight=59.724154323339462 23.792173653841019 26.328604817390442 582.63767230510712 203.69599223136902 25.623945742845535 9.1192537546157855 13.687924504280089 23.294545769691467 27.72436711192131 48.12355649471283 21.051591426134109 10.173336386680601 22.019356727600098 19.815972626209259 18.82439050078392 12.09862035512924 15.081681191921236 41.277839630842209 9.9532036483287794 57.361783117055893 11.648867785930632 20.341949820518494 29.22278305888176 32.332352876663208 41.63358137011528 20.615844279527664 75.664776712656021 50.138661861419678 7.6555738449096671 16.790705293416977
leaf_count=184 79 80 1997 687 78 28 46 71 90 163 66 32 72 64 61 39 46 134 32 180 37 68 98 104 140 68 256 164 24 56
internal_value=-1.80327e-05 -0.00446552 -0.00541013 0.000196426 0.0116351 -0.0113801 0.0200064 0.0218407 0.0194316 0.00545519 0.0133038 -0.00353611 0.0221485 0.0323082 0.0224033 0.0245804 0.0183822 0.0137007 0.021492 0.0273245 -0.00940977 0.00104178 0.0076541 0.0130942 0.00920185 0.0150471 -0.00484696 0.00361973 0.0432323 -0.000840255
internal_weight=1577.46 1290.77 1264.44 652.07 160.427 612.373 286.684 272.996 249.702 134.803 86.6791 491.643 62.8869 40.8676 221.977 203.153 143.429 120.691 79.4136 67.315 215.345 276.298 130.153 100.93 90.7566 29.7351 146.145 70.4806 22.7373 58.4243
internal_count=5244 4337 4257 2164 522 2093 907 861 790 444 281 1642 202 130 700 639 455 385 251 212 724 918 430 332 300 96 488 232 70 196
is_linear=0
shrinkage=0.03


Tree=15
num_leaves=31
num_cat=0
split_feature=0 26 29 77 147 200 66 96 139 121 15 4 91 194 121 71 51 118 140 105 68 147 10 62 141 133 0 136 4 138
split_gain=48.8085 14.8176 13.6394 13.5498 12.9963 11.2268 12.134 10.7259 9.73686 8.52583 7.93327 7.36512 6.42199 8.86652 8.67844 9.78883 9.37151 6.96117 6.75746 6.2028 8.14671 7.55152 6.76882 6.38951 6.12891 6.10741 5.93211 6.22889 6.68554 5.78668
threshold=-0.33978989889038025 1.0000000180025095e-35 1.5000000000000002 1.4886756655335152 0.083989794855663602 0.86470521283783663 -0.58333333333333315 174.57000000000002 0.10566593341779366 0.21000000000000005 0.5591567315199566 -0.93476183196409501 -0.61499999999999988 0.020345694108813501 1.0000000180025095e-35 -0.49332694462883347 0.20382392168779956 -0.56140024177564973 0.058029547752115461 0.27000000000000007 -0.17022380747289168 0.31913922759179708 -0.23059366468056877 -0.87499999999999989 0.62671810630011493 0.19833333333333325 1.3352193992536852 0.010925744709685298 -0.43565033835870365 0.71811988744821986
decision_type=2 2 2 2 2 2 2 2 2 2 2 2 2 2 2 2 2 2 2 2 2 2 2 2 2 2 2 2 2 2
left_child=4 2 3 7 -1 6 -6 8 11 10 -8 -2 13 -13 16 -16 -14 -15 -18 20 22 -21 -17 -22 -24 -11 27 28 -25 -10
right_child=1 -3 -4 -5 5 -7 9 -9 29 25 -12 12 14 17 15 19 18 -19 -20 21 23 -23 24 26 -26 -27 -28 -29 -30 -31
leaf_value=0.013570041229761369 0.01814746776315972 0.031519064534677038 -0.025109490979963206 -0.01971157706795338 -0.01655090548083589 0.0099974662329493456 -0.0015137153892441618 -0.020059471318178194 0.0085979756055172656 -0.017789201462585003 -0.011508982589034529 -0.0044522557159375848 -6.1620286099937371e-05 0.0014374661643571211 0.020453281817214116 -0.027557823664583602 0.040773280023798424 0.01178428672479406 0.012108006614191083 -0.017982901344616074 -0.0087131057405610956 0.016632128917631502 -0.013682266762416181 0.023086610084595238 0.0097306144204556064 -0.0019824253664514507 0.014751135636720723 -0.0027012858485801045 0.0027074587896192713 0.023524561522895154
leaf_weight=28.38776907324791 30.692504167556763 17.193231701850891 14.845056086778639 21.540966182947159 121.88734593987465 32.60019850730896 296.64101022481918 15.993069082498549 77.638214558362961 79.074184268712997 94.149752467870712 55.464281320571899 29.555612295866013 83.584138125181198 20.177368193864822 17.808198243379593 12.339674174785616 195.16330021619797 18.494514793157578 6.8775783181190482 66.317167907953262 32.362354815006256 29.478396534919739 18.10856881737709 15.27802589535713 30.479215413331985 27.842147707939148 199.94918757677078 72.461524158716202 33.444175899028778
leaf_count=81 88 48 46 66 368 94 871 49 223 238 280 162 85 240 58 52 35 561 53 20 194 93 86 52 44 90 80 582 210 95
internal_value=9.07545e-06 0.00388473 0.00345099 0.00384336 -0.00630235 -0.00716385 -0.00806297 0.00432248 0.00469633 -0.00599525 -0.00392179 0.00369562 0.00320347 0.00650207 0.00125931 -2.1998e-05 0.0120093 0.00868173 0.0235797 -0.00087123 -0.00187463 0.0105652 -0.0119144 -0.000241742 -0.00569006 -0.0133915 0.00152291 0.000255171 0.00678206 0.013092
internal_weight=1795.83 1112.61 1095.42 1080.57 683.219 654.832 622.232 1059.03 1043.04 500.344 390.791 931.955 901.262 334.212 567.05 506.661 60.3898 278.747 30.8342 486.483 447.243 39.2399 62.5646 384.679 44.7564 109.553 318.361 290.519 90.5701 111.082
internal_count=5244 3222 3174 3128 2022 1941 1847 3062 3013 1479 1151 2695 2607 963 1644 1471 173 801 88 1413 1300 113 182 1118 130 328 924 844 262 318
is_linear=0
shrinkage=0.03


Tree=16
num_leaves=31
num_cat=0
split_feature=0 25 98 77 129 82 200 117 137 173 176 104 135 132 135 132 182 79 15 120 51 79 200 134 3 139 147 200 96 161
split_gain=30.8368 14.8555 13.598 10.7715 9.46926 9.11897 11.2012 10.0396 8.26137 8.23421 7.79149 7.3899 8.12476 9.44019 6.98263 6.74741 8.21197 7.52398 6.8383 6.73278 6.39971 8.50948 8.75622 8.05823 8.7999 6.08719 6.07381 6.06771 7.52378 6.6646
threshold=-0.84019433736868587 1.0000000180025095e-35 0.037559534448084984 1.6384289294352095 0.13750000000000004 0.12239648638783802 0.12242911781471309 0.030000000000000002 0.48846854404976664 0.047069609552331422 0.051169962388426159 0.31000000000000005 0.61118551227077234 -1.0000000180025095e-35 0.83684123319588377 -0.014999999999999998 0.48764219626854988 -0.40999999999999998 0.22249796074250169 0.6100000000000001 -0.37843242888319029 -0.089999999999999983 0.12376047055684482 0.26341709715199751 -0.45009383780333839 0.028927729721673935 0.43433848226311439 0.11606978141625469 17.070000000000004 1.5265566588595905e-16
decision_type=2 2 2 2 2 2 2 2 2 2 2 2 2 2 2 2 2 2 2 2 2 2 2 2 2 2 2 2 2 2
left_child=11 2 3 5 9 6 8 10 27 -4 15 12 13 -1 -13 16 17 -8 -18 -15 21 22 -17 24 -22 -11 -26 28 29 -2
right_child=1 -3 4 -5 -6 -7 7 -9 -10 25 -12 14 -14 19 -16 20 18 -19 -20 -21 23 -23 -24 -25 26 -27 -28 -29 -30 -31
leaf_value=0.034195925630446711 -0.0049511150253443428 0.02370091939783173 0.011487838787506425 -0.022535560383551603 -0.0021771197931878968 -0.0057635925839753096 0.014737363441930926 -0.01486825715819085 0.0033064364185760877 -0.023536402424898583 0.020274991553235248 -0.014894119935178446 -0.026669140133878052 -0.017297392548871891 0.010957181354879211 0.027620217728779609 0.0092781926688502783 -0.009975240505588838 0.029662084501437678 0.020110438180536767 0.025006192143372578 0.026464915282713337 0.00083044965143403207 -0.017539765006916074 0.00077749742401152352 0.0035898742219734937 -0.020044625187498007 -0.010038820415896703 -0.017518980470308858 0.03115279705771554
leaf_weight=9.0918331146240252 7.9594006240367952 26.465973645448685 214.08613723516464 20.018107116222382 112.14717331528664 222.59726071357727 19.104765087366104 26.295668244361877 92.086354494094849 7.92003110051155 25.568807870149612 163.03782400488853 7.1720106005668631 11.460629016160967 9.979233652353285 12.609178274869917 38.378297358751297 26.423800975084305 24.121970236301422 6.9599661827087393 13.079966276884077 18.533070296049118 85.009245902299881 22.834465742111206 291.34266370534897 124.19654026627541 13.178528249263762 154.49828240275383 8.9169974029064161 10.9076731801033
leaf_count=26 23 73 605 60 322 643 54 77 263 23 72 482 21 34 29 36 109 76 68 20 37 53 244 65 832 354 38 448 26 31
internal_value=1.27062e-05 0.0014094 0.00103877 -0.000724449 0.00539909 -0.000332318 0.0010248 0.00326898 -0.00401767 0.00785328 0.00407709 -0.0108694 0.00176913 0.00918249 -0.0134031 0.00334356 0.0100858 0.000394699 0.0171454 -0.00316336 0.00174834 0.00782892 0.00429083 -0.000326263 0.000911331 0.00196373 -0.000123605 -0.0077177 0.0051893 0.0159217
internal_weight=1825.98 1618.28 1591.81 1133.46 458.35 1113.45 890.849 616.48 274.369 346.203 590.185 207.701 34.6844 27.5124 173.017 564.616 108.029 45.5286 62.5003 18.4206 456.587 116.151 97.6184 340.436 317.601 132.117 304.521 182.282 27.7841 18.8671
internal_count=5244 4632 4559 3255 1304 3195 2552 1761 791 982 1684 612 101 80 511 1612 307 130 177 54 1305 333 280 972 907 377 870 528 80 54
is_linear=0
shrinkage=0.03


Tree=17
num_leaves=31
num_cat=0
split_feature=0 77 0 96 133 144 134 77 114 40 186 138 142 200 141 141 134 136 70 132 166 72 104 200 80 140 147 142 71 167
split_gain=147.854 51.1469 47.4697 38.8624 19.6626 18.844 24.4532 18.0744 17.0384 16.5049 15.8371 15.4649 13.7964 15.8767 12.5239 17.2754 12.3083 12.2955 11.0266 12.6818 10.2365 24.4688 10.4377 9.35816 9.32978 10.6126 9.26904 9.00874 10.9738 11.4657
threshold=-0.34597700300085782 1.4886756655335152 -0.82728071363768818 652.81000000000017 -0.82166666666666577 0.31972475031435849 0.36198915805837234 -0.30117367820741792 -0.26999999999999996 -0.78199907571204397 0.48764219626854988 0.46301562457295614 0.034481684637574679 0.79403615931836324 0.59385278581258627 0.4326162964638538 0.086669521120167209 0.013037980481285729 -0.1418465935079716 -0.014999999999999998 3.8163916471489762e-17 -0.76666670093264522 0.39000000000000007 0.12183777921664711 0.45500000000000007 0.062472772385984178 0.3134484690472395 0.01030445739571262 -0.29777493450217923 0.021698532149990565
decision_type=2 2 2 2 2 2 2 2 2 2 2 2 2 2 2 2 2 2 2 2 2 2 2 2 2 2 2 2 2 2
left_child=2 3 7 5 -4 6 24 -1 9 11 14 23 -13 -14 15 -9 -12 20 19 -16 21 -7 -22 -6 -2 -26 -23 -11 -29 -30
right_child=1 -3 4 -5 8 17 -8 10 -10 27 16 12 13 -15 18 -17 -18 -19 -20 -21 22 26 -24 -25 25 -27 -28 28 29 -31
leaf_value=-0.00040064007346589424 -0.0072149082254942673 0.036979573951434912 0.041583565954745674 0.036945619636808175 0.0078342087939012837 0.05665630930089751 0.030134155881311978 0.011459267329004784 -0.011154182767040631 -0.0023328288311907576 0.046859696363987118 -0.01231925708759605 0.034961804245028601 -0.011234118625080754 -0.0018949109042079903 0.042162047803885522 0.0044936386558034093 -0.015165264076059394 0.0032482882122040644 0.041857301113944589 -0.010672227408748456 -0.018899184323473765 0.028201880184891583 -0.017417405797552313 0.033385489232767109 -0.0056695271659976173 0.011311732113706143 -0.0027735656773082533 0.014838171250403331 0.043142026263940023
leaf_weight=26.889225244522095 195.44657763838768 22.751356303691864 12.987254887819288 16.597380667924881 17.517939388751984 7.2682737410068503 19.3976089656353 27.348969221115112 56.655189603567123 35.086094617843628 41.691784173250198 15.780450135469435 23.512085109949112 9.361655652523039 8.9053361117839831 41.553867131471634 7.2440180182456961 413.15390673279762 46.163496255874634 18.04241544008255 209.50792267918587 18.061395734548569 6.4063112735748282 53.693418234586716 11.526137262582781 13.710752367973326 18.504245966672897 28.609716087579727 138.30891215801239 14.203877836465834
leaf_count=87 665 68 39 50 57 22 62 85 190 115 125 53 74 32 28 125 23 1428 147 55 721 62 21 181 36 46 62 94 446 45
internal_value=-2.50647e-05 -0.0074607 0.0113311 -0.00854837 0.00526584 -0.00937542 -0.0021598 0.0226274 0.00406484 0.00663046 0.0258701 -0.00229849 0.0107381 0.0218063 0.0207985 0.0299755 0.0405882 -0.0119498 0.0121498 0.0273986 -0.0068354 0.00638234 -0.00951881 -0.0112055 -0.00499837 0.0121676 -0.00361078 0.0115806 0.0142759 0.0174742
internal_weight=1575.89 952.332 623.556 929.581 405.717 912.983 240.081 217.839 392.729 336.074 190.95 119.866 48.6542 32.8737 142.014 68.9028 48.9358 672.902 73.1112 26.9478 259.748 43.8339 215.914 71.2114 220.683 25.2369 36.5656 216.209 181.123 152.513
internal_count=5244 3243 2001 3175 1326 3125 809 675 1287 1097 588 397 159 106 440 210 148 2316 230 83 888 146 742 238 747 82 124 700 585 491
is_linear=0
shrinkage=0.03


Tree=18
num_leaves=31
num_cat=0
split_feature=195 0 133 77 25 29 36 105 142 17 51 106 33 115 0 196 105 166 166 173 174 82 15 135 48 150 4 0 146 76
split_gain=46.283 17.9516 12.6985 11.8436 11.3003 11.9381 10.4383 8.19941 8.26322 9.16388 7.68256 7.65918 10.7751 7.04549 6.94731 6.73482 7.94422 7.04872 10.4632 6.73444 6.39963 6.78564 6.84348 7.18102 6.32754 6.67786 6.33203 6.67365 6.32408 6.29175
threshold=0.0265697015587496 -0.80145313776442206 -0.82166666666666577 1.3175665783629247 1.0000000180025095e-35 37.500000000000007 1.0000000180025095e-35 0.11000000000000001 0.042692250674256804 0.58182453915005261 -1.1912328356135029 -0.31193774819977294 -0.098632586118628796 0.71000000000000008 -0.44336736495112816 1.1499456490401145 0.35000000000000003 0.03726817709913216 0.042251488427344594 0.016768677585961771 0.015372877316609817 0.014462925376034221 0.67083049094819913 0.59911870744139739 1.0000000180025095e-35 0.0022607192770212306 0.11244780470967385 -0.46220060181365114 0.4949727265048785 0.31000000000000005
decision_type=2 2 2 2 2 2 2 2 2 2 2 2 2 2 2 2 2 2 2 2 2 2 2 2 2 2 2 2 2 2
left_child=1 10 -3 4 5 15 11 -8 9 -9 -1 14 -13 -14 -2 16 17 19 -19 20 21 -4 24 29 -23 -26 27 -27 -16 -24
right_child=6 2 3 -5 -6 -7 7 8 -10 -11 -12 12 13 -15 28 -17 -18 18 -20 -21 -22 22 23 -25 25 26 -28 -29 -30 -31
leaf_value=0.016812871004031713 -0.010814755469936578 -0.026029475441622596 -0.0042192414422217838 -0.024397053835408796 -0.026879631704314098 0.035850441962130095 0.037314945327975149 0.00024987578600701695 0.024543208354963864 0.035870047352351969 -0.01187369406830208 -0.0074020440513095269 0.0034844873812035606 0.019305112074602452 0.0097466442018538119 -0.01658886137308193 -0.015793235574283099 0.033845697474758567 -0.00066981659833041966 -0.0039274021690618678 0.011805057665383509 0.014792776535632501 -0.011098354821108141 -0.022411455712963945 -0.025927628973995621 -0.0080294530202402077 0.020867058793231977 0.014734945023309576 0.027862372385668265 0.025372569360932018
leaf_weight=8.6850835680961591 11.963583648204802 19.048093169927597 132.3647027015686 19.295162975788116 14.390286684036253 8.2511697411537153 12.440147221088408 50.828828930854797 28.386312991380692 7.453426629304885 257.93720111250877 81.95878204703331 460.86333036422729 26.807813912630081 89.853032559156418 22.508947849273682 27.123307526111603 14.091637402772902 18.003345936536789 232.79355129599571 57.383123159408569 62.651894420385361 9.176852762699129 15.406417697668074 7.037876993417739 34.568351030349724 16.63539931178093 17.43648689985276 21.491369634866714 7.9410230815410605
leaf_count=25 35 59 389 60 45 23 35 146 80 21 775 243 1328 76 258 68 81 40 53 679 165 182 27 46 21 102 48 50 61 23
internal_value=1.20444e-05 -0.0042696 -0.00185382 -0.00121161 -0.000570466 -1.64552e-05 0.0054326 0.0145391 0.0112699 0.00480516 -0.0109392 0.00413013 0.00266267 0.00435416 0.0109091 -0.000454811 0.00010166 0.000790914 0.0144846 5.02651e-05 0.00261812 0.000879529 0.00482966 -0.00755263 0.007741 0.00190302 0.00475658 -0.000396872 0.0132433 0.00582059
internal_weight=1794.78 1002.73 736.108 717.06 697.764 683.374 792.047 99.1087 86.6686 58.2823 266.622 692.938 569.63 487.671 123.308 675.123 652.614 625.491 32.095 593.396 360.602 303.219 170.854 32.5243 138.33 75.6781 68.6402 52.0048 111.344 17.1179
internal_count=5244 2961 2161 2102 2042 1997 2283 282 247 167 800 2001 1647 1404 354 1974 1906 1825 93 1732 1053 888 499 96 403 221 200 152 319 50
is_linear=0
shrinkage=0.03


Tree=19
num_leaves=31
num_cat=0
split_feature=0 25 98 77 129 141 171 173 75 41 132 141 51 70 182 200 7 129 51 141 51 134 118 105 1 170 58 135 91 82
split_gain=29.0159 13.8799 12.8801 10.2989 9.05301 8.9692 9.25223 7.79458 7.64852 10.8742 8.89614 8.18144 9.87812 8.7781 7.09741 7.02852 12.2698 7.24116 6.94238 8.62428 10.3515 6.60047 8.42135 6.39567 6.81984 6.28215 7.00706 6.68734 11.0663 6.24583
threshold=-0.84019433736868587 1.0000000180025095e-35 0.037559534448084984 1.6384289294352095 0.13750000000000004 0.74503063660152224 0.49739218880735953 0.047069609552331422 -0.75727055009958832 -0.24289523713158853 -0.024999999999999998 0.57782032894981583 1.0006544744864423 -0.20114497572532825 0.45362822795422864 0.12242911781471309 0.66377313137432059 -0.34749999999999992 0.013102408154492899 0.60277607229523411 -0.4932583519713214 0.069427108433774073 0.18962637987208023 0.21000000000000005 0.35493741134601364 0.44381656520104984 0.023691825193662155 0.70021716037575843 -0.34999999999999992 -0.079838262660535911
decision_type=2 2 2 2 2 2 2 2 2 2 2 2 2 2 2 2 2 2 2 2 2 2 2 2 2 2 2 2 2 2
left_child=14 2 3 5 7 6 8 -4 9 -2 25 15 18 -14 -1 -12 23 -18 19 20 -13 -16 -23 -17 -25 26 27 28 -10 -21
right_child=1 -3 4 -5 -6 -7 -8 -9 10 -11 11 12 13 -15 21 16 17 -19 -20 29 -22 22 -24 24 -26 -27 -28 -29 -30 -31
leaf_value=0.0072633318939189593 0.0018119520068926945 0.022853787868628964 0.011169620356715567 -0.022151023875322945 -0.0021637167167607081 0.0065230514506002578 -0.01292537065898741 0.0019105649077646124 0.036768057910442395 -0.014755407158389387 -0.0095359956592940606 0.00083933494495441914 -0.010001199394458704 0.028524657427977516 -0.015789913326124123 0.0015083303883344594 0.041842510543057349 0.0085279904271614877 -0.0051947028149149496 -0.0084200012657355827 0.034361505093788387 0.00727992717120436 -0.017047629628783548 -0.014644073591249812 0.0017683593984103875 -0.013518015014015724 -0.011566872784185615 0.0012044974370123453 0.0092598833790395515 0.0057158345999690453
leaf_weight=18.295304417610168 67.042761594057083 26.613647490739822 214.77703669667244 19.809001833200455 112.11979651451111 148.96677616238594 58.731015294790268 132.19177728891373 22.037464886903763 76.162007749080658 122.66134935617447 15.677290916442869 6.957883000373843 22.65012064576149 135.98348388075829 114.15752753615379 7.7220045924186698 24.509434938430786 96.889312952756882 40.0489382147789 17.595424741506577 29.618375778198242 22.56159570813179 64.909564226865768 35.111990451812744 10.051049977540968 10.448549330234526 23.4989013671875 32.680831849575043 94.53451219201088
leaf_count=52 192 73 605 60 322 425 170 377 62 223 355 45 20 64 407 326 22 70 277 115 50 86 67 188 101 29 30 67 93 271
internal_value=1.64856e-05 0.0013675 0.0010083 -0.000709531 0.00524723 -0.000327934 -0.00138653 0.00764201 -0.000637991 -0.00699923 0.000557271 -0.000692998 0.00303745 0.0194711 -0.0105749 -0.00366822 -0.000747282 0.0165095 0.00119958 0.00489047 0.0185667 -0.0123093 -0.00323883 -0.00334422 -0.00888258 0.0089597 0.0115077 0.0145901 0.0203386 0.00150934
internal_weight=1825.01 1618.56 1591.94 1132.85 459.089 1113.04 964.078 346.969 905.347 143.205 762.142 663.425 294.353 29.608 206.459 369.072 246.411 32.2314 264.745 167.856 33.2727 188.163 52.18 214.179 100.022 98.7168 88.6657 78.2172 54.7183 134.583
internal_count=5244 4632 4559 3255 1304 3195 2770 982 2600 415 2185 1904 842 84 612 1062 707 92 758 481 95 560 153 615 289 281 252 222 155 386
is_linear=0
shrinkage=0.03


Tree=20
num_leaves=31
num_cat=0
split_feature=0 77 0 163 76 133 144 144 134 114 40 138 141 40 68 147 142 200 8 143 103 68 166 58 41 200 144 142 71 149
split_gain=139.217 47.7612 44.1801 36.9167 28.0442 18.4202 17.1586 16.9249 16.9377 16.206 15.6532 14.8613 13.4659 14.7641 14.1055 17.7261 13.0956 14.8034 12.7384 9.93666 15.4098 12.4899 9.3977 9.37934 13.3859 9.00909 8.75091 8.53837 10.429 11.1023
threshold=-0.34597700300085782 1.4886756655335152 -0.82728071363768818 316.54303654513257 0.97000000000000008 -0.82166666666666577 0.14484966290516771 0.31972475031435849 0.40529031245579122 -0.26999999999999996 -0.78199907571204397 0.46301562457295614 0.61767599353667291 -0.88195170479778529 -0.21755887170602822 0.3010810981005424 0.034481684637574679 0.79403615931836324 -0.29778837427089472 0.48764219626854988 0.11000000000000001 0.068372602440340269 0.0018259209351608487 -0.22902608345469125 -0.18492213560417367 0.12183777921664711 0.5213836088230287 0.01030445739571262 -0.28343686385070305 1.0092960870134029
decision_type=2 2 2 2 2 2 2 2 2 2 2 2 2 2 2 2 2 2 2 2 2 2 2 2 2 2 2 2 2 2
left_child=2 3 6 7 -5 -4 -1 8 23 10 11 25 13 14 15 -8 -13 -18 22 20 21 -14 -15 -2 -25 26 -7 -12 -29 -30
right_child=1 -3 5 4 -6 9 12 -9 -10 -11 27 16 19 18 -16 -17 17 -19 -20 -21 -22 -23 -24 24 -26 -27 -28 28 29 -31
leaf_value=-0.0097420775021153649 -0.015494688002121695 0.035281546796492695 0.039938617426943886 -0.0016480606991831298 0.035111393754823916 -0.0088927549853963263 0.05331515061924786 -0.012760375823960836 0.03107048518492583 -0.010985383631836461 -0.0023611773982890731 -0.0121603477415513 0.037054727850773066 0.0053394187373350934 0.047385058215625761 -0.0057621234198781566 0.03359716292317215 -0.011022622242382013 0.0043734756768556912 0.042201750318477789 -0.0063145495271050289 0.0052252057043741824 0.046860174581059566 0.030773489519315095 -0.0036683416564809415 -0.017232183616131356 0.034759842241977167 -0.0010562214004570317 0.022041228794521601 0.0031400311723446392
leaf_weight=14.536019384860991 56.319785952568054 23.135371059179306 13.196491003036497 56.104307413101196 28.001040250062943 10.998079210519792 7.492509841918948 624.12648513913155 12.370805650949476 56.359351634979248 35.104117959737778 15.700417995452879 23.265792489051819 7.0078491866588619 51.591918975114822 11.723091453313826 23.882781028747559 9.2968311607837659 27.868416637182236 10.362316280603407 28.722997933626175 21.210699945688248 16.358016163110733 10.975759565830229 135.96206402778625 53.311347395181656 6.6214426755905142 34.508885890245438 110.52837163209915 37.444102674722672
leaf_count=47 193 68 39 191 84 36 22 2171 38 190 115 53 70 22 150 37 74 32 87 31 93 67 49 34 464 181 21 113 350 122
internal_value=-3.28466e-05 -0.00729299 0.010931 -0.00835914 0.0105902 0.00507436 0.0217576 -0.010257 -0.00301112 0.00390591 0.00639338 -0.00231463 0.0239846 0.0303375 0.0392134 0.0172732 0.0104132 0.0210948 0.0180707 0.0147062 0.0108138 0.0218753 0.0344073 -0.00508542 -0.00109565 -0.0110856 0.00751196 0.0111883 0.0137949 0.0172583
internal_weight=1574.09 946.996 627.092 923.86 84.1053 406.952 220.14 839.755 215.628 393.756 337.396 119.811 205.604 122.042 70.8075 19.2156 48.88 33.1796 51.2343 83.5618 73.1995 44.4765 23.3659 203.258 146.938 70.9309 17.6195 217.585 182.481 147.972
internal_count=5244 3243 2001 3175 275 1326 675 2900 729 1287 1097 397 628 367 209 59 159 106 158 261 230 137 71 691 498 238 57 700 585 472
is_linear=0
shrinkage=0.03


Tree=21
num_leaves=31
num_cat=0
split_feature=195 133 0 77 36 25 29 105 142 17 200 149 174 187 82 140 68 120 25 51 51 115 176 3 0 66 96 15 10 173
split_gain=43.8657 17.153 16.1408 11.6819 9.94152 9.80168 11.1781 7.76654 7.80838 8.72729 7.5415 7.22391 7.04708 7.18323 9.95004 7.16147 8.28253 6.96926 6.8623 7.19844 10.9115 6.5129 8.86072 7.60632 6.74332 6.49682 10.1697 9.91409 9.55351 8.90101
threshold=0.0265697015587496 -0.82166666666666577 -0.77239752542108464 1.3175665783629247 1.0000000180025095e-35 1.0000000180025095e-35 37.500000000000007 0.11000000000000001 0.042692250674256804 0.58182453915005261 0.87619742346454732 0.58151168546234266 0.0048395125899356002 0.43285868703523972 -0.035238799624945367 0.055146820725301998 0.027023409907875696 0.070000000000000021 1.0000000180025095e-35 1.4761726584001325 -0.064745312432488947 0.53000000000000014 0.025364948767270537 -0.085433489850837568 1.2052765838659762 -0.24999999999999997 10.430000000000001 -0.23221373386845737 0.51976845397746108 0.018404814234460956
decision_type=2 2 2 2 2 2 2 2 2 2 2 2 2 2 2 2 2 2 2 2 2 2 2 2 2 2 2 2 2 2
left_child=1 -1 10 5 11 6 17 -6 9 -9 12 -2 13 14 -3 16 -14 -4 19 20 21 24 -23 -24 -13 26 27 28 -19 -27
right_child=4 2 3 -5 7 -7 -8 8 -10 -11 -12 18 15 -15 -16 -17 -18 25 -20 -21 -22 22 23 -25 -26 29 -28 -29 -30 -31
leaf_value=-0.026867605304537023 -0.016119953555252538 0.026363220749634098 0.017810388782280855 -0.024066168994187565 0.036217976142406856 -0.026182725773702186 0.034839593334432269 0.00021806539629698737 0.023819429106780577 0.034858306946402288 0.017573094409331087 -0.0040736595831129818 -0.014023500449726996 -0.021554112310632857 -0.01604009905036681 -0.009361547939544591 0.018638335302034677 0.019985327336757508 -0.024887631538307888 -0.0041711943769760437 0.010282213713067789 0.031696328205878824 0.0063445139606497711 -0.021659759854493879 0.014775061299334709 0.0049285942063997511 -0.013728384903061107 -0.0054123672742000363 -0.006404272259445864 -0.005015362038738121
leaf_weight=29.076355218887329 15.679193258285521 7.4044372737407711 18.808107107877731 19.066249221563339 12.546159744262694 12.854618757963179 8.3114758729934675 50.846385568380356 28.56787770986557 7.5129448771476737 9.1009768545627576 149.89863151311874 11.075500309467317 71.547222852706909 15.213444024324415 163.46522381901741 18.931331962347031 33.55534565448761 7.0874828696250907 72.055876344442368 273.5056833922863 11.685429126024244 135.31588369607925 9.3310155570507032 19.279662191867828 254.00621882081032 75.04089093208313 114.33576914668083 19.533583045005798 118.95498502254486
leaf_count=91 48 22 54 60 35 41 23 146 80 21 26 434 33 219 46 490 56 98 22 209 786 33 387 27 55 738 225 335 57 347
internal_value=1.52362e-05 -0.0041629 -0.00348316 -0.000917884 0.00528342 -0.000244477 0.000274436 0.014153 0.0109683 0.00467751 -0.00931387 0.00401182 -0.0101646 -0.0168954 -0.00215848 -0.00688862 0.00658288 -0.00017853 0.00447728 0.00478741 0.00586504 0.00215358 0.006568 0.00453799 -0.00192565 -0.000728291 -0.00455117 -0.000437874 0.0102755 0.001757
internal_weight=1793.59 1000.28 971.205 674.467 793.312 655.401 642.546 99.4734 86.9272 58.3593 296.738 693.839 287.637 94.1651 22.6179 193.472 30.0068 634.235 678.16 671.072 599.016 325.511 156.332 144.647 169.178 615.427 242.466 167.425 53.0889 372.961
internal_count=5244 2961 2870 1978 2283 1918 1877 282 247 167 892 2001 866 287 68 579 89 1854 1953 1931 1722 936 447 414 489 1800 715 490 155 1085
is_linear=0
shrinkage=0.03


Tree=22
num_leaves=31
num_cat=0
split_feature=0 25 0 176 199 77 132 62 134 200 139 0 77 7 51 144 167 104 135 133 137 135 36 141 144 37 136 4 65 166
split_gain=27.4582 13.0005 12.2719 12.3631 9.2588 7.73784 7.71618 9.46325 11.084 8.99832 7.701 8.79029 7.96839 7.67292 7.63508 9.33152 7.35249 6.96769 7.71554 8.96045 6.7253 6.64998 6.54294 6.93719 7.73031 7.1677 6.48219 6.46382 6.47405 10.141
threshold=-0.84019433736868587 1.0000000180025095e-35 -0.050039696712192598 0.018014729527650947 0.71109051596295447 0.93803078480265045 -0.014999999999999998 0.50000000000000011 0.054549558693599953 0.12242911781471309 0.05879795050194267 -0.28033383005537821 0.30637389723698666 0.78050473772590612 0.55925672785074165 0.30149096584893215 0.12411678019981436 0.31000000000000005 0.61118551227077234 -0.031666666666666683 0.30032776125325328 0.83684123319588377 1.0000000180025095e-35 0.66593885659313712 0.30149096584893215 1.0000000180025095e-35 0.0017547029924150136 -0.027948833782669481 -0.74999999999999989 0.048881886519336538
decision_type=2 2 2 2 2 2 2 2 2 2 2 2 2 2 2 2 2 2 2 2 2 2 2 2 2 2 2 2 2 2
left_child=17 2 6 5 16 -4 14 9 -9 -8 -10 12 -12 26 -2 -16 22 18 19 -1 -15 -19 23 24 -5 27 -11 28 -26 -30
right_child=1 -3 3 4 -6 -7 7 8 10 13 11 -13 -14 20 15 -17 -18 21 -20 -21 -22 -23 -24 -25 25 -27 -28 -29 29 -31
leaf_value=0.029873729952674347 0.00062023023632751381 0.022075300081393492 0.011422939506534297 -0.0092784687014499136 0.012273284918957888 0.042882679020988149 -0.010130219915565331 0.038799669863045075 0.009304234316745149 0.018314245208007653 -0.0079625050924323308 -0.021123773443966307 0.028927263342421548 0.027410908795805707 -0.0074519055943559238 0.026835355630655769 0.017380703122395851 -0.014275027241953913 -0.026026592853935479 -0.0050091391778277683 0.00069245359226535383 0.010968907157576264 -0.006934546535628674 0.0071229532122838082 -0.0058185761780937002 -0.0084479864851019163 -0.0042224513016492311 -0.0010056483738504168 0.008143064813090824 0.03603259738366555
leaf_weight=11.160275191068651 99.286744445562363 26.742216348648071 80.624320417642593 71.906608641147614 74.733661234378815 7.7092457413673392 181.50944802165031 8.0600796639919263 59.448508262634277 11.929528921842573 14.156803309917452 21.240768522024155 8.39489898085594 14.092248618602751 10.038563400506971 24.77348530292511 24.089960098266602 160.78356608748436 7.0476284325122824 16.317587196826935 21.285199731588364 9.9744372665882093 91.179916560649872 154.2365765273571 22.858349829912186 52.282386809587479 309.2217965722084 126.96900728344917 88.331356734037399 13.531283646821974
leaf_count=32 285 73 226 210 210 21 528 23 171 34 41 62 24 40 29 70 68 482 21 48 61 29 262 438 65 149 890 362 252 38
internal_value=2.07659e-05 0.00133163 0.000983157 0.00357611 0.00227679 0.0141686 -0.00169259 -0.00304559 0.00491715 -0.0046928 0.00227192 -0.00727448 0.00576976 -0.00192459 0.00485895 0.0169481 0.00111922 -0.0103152 0.0019764 0.00915872 0.0113355 -0.0128005 0.000488705 0.00176551 -0.000432847 0.00165964 -0.0033853 0.00375925 0.00861004 0.0118479
internal_weight=1823.92 1618.63 1591.89 808.453 720.119 88.3336 783.438 649.339 111.301 538.038 103.241 43.7925 22.5517 356.529 134.099 34.812 645.385 205.283 34.5255 27.4779 35.3774 170.758 621.295 530.116 375.879 303.972 321.151 251.69 124.721 101.863
internal_count=5244 4632 4559 2301 2054 247 2258 1874 321 1553 298 127 65 1025 384 99 1844 612 101 80 101 511 1776 1514 1076 866 924 717 355 290
is_linear=0
shrinkage=0.03


Tree=23
num_leaves=31
num_cat=0
split_feature=0 77 0 163 149 133 144 144 134 114 40 8 138 37 38 142 200 5 134 58 41 176 72 200 67 147 166 144 142 71
split_gain=131.55 44.6796 40.7662 35.3275 26.4249 17.1095 16.2855 16.1269 15.9367 15.5222 14.8182 14.3329 14.3112 12.9354 12.7235 12.5093 13.8907 10.0206 9.29409 8.99524 12.5746 8.97638 17.9356 8.71385 8.39477 11.3838 8.98696 8.24416 8.12146 9.83146
threshold=-0.34597700300085782 1.4886756655335152 -0.82728071363768818 316.54303654513257 0.7265630631964084 -0.82166666666666577 0.31972475031435849 0.14484966290516771 0.40529031245579122 -0.26999999999999996 -0.78199907571204397 -0.56494342798422637 0.46301562457295614 1.0000000180025095e-35 1.0000000180025095e-35 0.034481684637574679 0.79403615931836324 1.2899824751865896 0.10243616337388435 -0.22902608345469125 -0.18492213560417367 0.0060899786768797938 -0.24185123887156479 0.12183777921664711 -0.27637811631506121 0.30765213296486588 3.9031278209478167e-18 0.5213836088230287 0.01030445739571262 -0.29777493450217923
decision_type=2 2 2 2 2 2 2 2 2 2 2 2 2 2 2 2 2 2 2 2 2 2 2 2 2 2 2 2 2 2
left_child=2 3 7 6 11 -4 8 -1 19 10 12 -5 23 14 -9 -14 -17 21 -15 -2 -21 -16 -23 27 25 -8 -26 -7 -12 -30
right_child=1 -3 5 4 -6 9 24 13 -10 -11 28 -13 15 18 17 16 -18 -19 -20 20 -22 22 -24 -25 26 -27 -28 -29 29 -31
leaf_value=-0.0096758135312735218 -0.015232645088633772 0.033729343646321575 0.038265913224978236 0.041253783312102492 -0.0047543294181125904 -0.0087361898678679027 -0.012017883787227384 0.003744690816012728 0.029880279620821622 -0.0108173899013373 -0.0023544356591012373 0.001013790003389864 -0.011984691066932882 0.033780690037935115 0.029143961559699894 0.032491841234540797 -0.010779533917630282 0.041591749886958941 -0.0042110948614643802 0.029578658636111532 -0.0035937120226128623 0.038404130999738266 -0.016727419898011048 -0.017016672545536311 -0.00010906283338407584 0.020041931507133005 -0.014517728978535049 0.033470768049110262 -0.0027654143661829797 0.016378636220186402
leaf_weight=14.506637692451475 55.766435533761978 23.475668370723724 13.405414044857023 26.201636642217636 46.728490263223648 10.950651764869692 25.677117586135864 44.612050592899323 12.536225557327269 56.066624134778976 35.094467997550964 11.446660757064818 15.611941546201704 87.824735462665558 25.142556250095367 24.182427018880844 9.2232897579669935 20.99173566699028 6.2046421766281119 11.127925097942351 135.68976792693138 8.3196402192115801 14.684575319290159 52.860711663961411 42.018957316875458 16.293132245540619 534.97804367542267 6.7216008007526389 28.597995758056641 154.98552829027176
leaf_count=47 193 68 39 77 160 36 88 139 38 190 115 38 53 262 75 74 32 61 20 34 464 25 46 181 144 54 1885 21 94 491
internal_value=-4.14796e-05 -0.00713896 0.0105705 -0.00818354 0.0103151 0.00493552 -0.0100549 0.0209057 -0.00294424 0.00380234 0.00622579 0.0290191 -0.00226681 0.0230408 0.0162352 0.0101842 0.0205447 0.0242949 0.0312738 -0.00497547 -0.00107944 0.0167535 0.0032113 -0.0109198 -0.0125262 0.000427951 -0.0134684 0.00731713 0.0108687 0.0133964
internal_weight=1571.93 941.94 629.987 918.464 84.3768 407.701 834.088 222.287 215.12 394.295 338.229 37.6483 119.551 207.78 113.751 49.0177 33.4057 69.1385 94.0294 202.584 146.818 48.1468 23.0042 70.533 618.967 41.9702 576.997 17.6723 218.678 183.584
internal_count=5244 3243 2001 3175 275 1326 2900 675 729 1287 1097 115 397 628 346 159 106 207 282 691 498 146 71 238 2171 142 2029 57 700 585
is_linear=0
shrinkage=0.03


Tree=24
num_leaves=31
num_cat=0
split_feature=0 26 25 147 77 200 66 96 139 121 15 4 151 103 143 149 147 146 74 51 1 68 4 67 10 143 118 175 98 138
split_gain=41.5735 13.0535 11.9935 11.8225 11.4595 10.1579 10.982 9.15053 8.74918 7.84317 7.06986 6.79492 5.92635 7.45673 8.60572 7.15557 6.25019 9.14189 6.54377 14.1269 6.26247 6.25556 6.10229 5.94927 5.86518 6.15458 5.78271 5.627 5.52842 7.32523
threshold=-0.33978989889038025 1.0000000180025095e-35 1.0000000180025095e-35 0.083989794855663602 1.4886756655335152 0.86470521283783663 -0.58333333333333315 174.57000000000002 0.10566593341779366 0.23000000000000001 0.66037124974736539 -0.93476183196409501 0.00022249266756005611 0.11000000000000001 0.28564659966250555 1.2464531728163077 0.30008331019803641 0.49899863582347853 0.097328885917901162 -0.2055996250350946 1.1295533314560726 0.068372602440340269 1.5757619261716764 -0.11377480018226818 1.2815617500721006 0.48764219626854988 -0.41130987760327037 0.0031577477162495703 -0.35642295317189671 0.30785022404480078
decision_type=2 2 2 2 2 2 2 2 2 2 2 2 2 2 2 2 2 2 2 2 2 2 2 2 2 2 2 2 2 2
left_child=3 2 4 -1 7 6 -5 8 11 10 27 -2 -13 15 -15 16 21 18 20 -20 -18 23 28 -14 25 -17 -11 -8 -16 -30
right_child=1 -3 -4 5 -6 -7 9 -9 -10 26 -12 12 13 14 22 24 17 -19 19 -21 -22 -23 -24 -25 -26 -27 -28 -29 29 -31
leaf_value=0.013048877511287742 0.017160032727048635 0.029307208161232241 -0.024134903777027615 -0.015722339452907557 -0.018531621159460995 0.0096007768055541669 -0.026048656260900142 -0.018951041649947948 0.012216131575409531 -0.0024939936515606755 -0.011846595421802816 0.012309945426451903 -0.0097368407193177461 -0.0038645289863469389 -0.013345457454929125 0.0057722932127509822 -0.017919977652991081 0.017654222238472881 -0.021078881682928992 0.012102243680261544 0.0084076742370362903 -0.0038244040739456985 -0.0095731446679241002 0.0092540538417179782 -0.014180164515708504 0.026533263916061832 -0.019600261654430802 -0.0013465581711335701 0.025681873691219704 0.0079026834645281787
leaf_weight=28.535840719938278 30.989561080932617 17.465649008750916 14.293211609125136 119.24916890263557 20.790291100740433 32.741683781147003 8.5170471966266614 15.463814020156859 112.09724286198616 26.230575680732727 81.247101962566376 56.180038183927536 17.785446316003799 73.990367114543915 10.024179190397261 68.042342931032181 70.13613098859787 12.16578236222267 18.968736469745636 29.518982499837875 9.1977378427982313 121.10234606266022 17.731168895959854 89.834463000297546 10.411089390516279 15.843678116798399 55.241100370883942 324.91325584053993 22.668624579906464 260.8919814825058
leaf_count=81 88 48 46 368 66 94 26 49 318 79 245 160 51 214 29 195 206 35 56 85 27 355 51 259 30 45 170 959 64 745
internal_value=1.71768e-05 0.00357567 0.00316641 -0.00584948 0.00352645 -0.00668152 -0.00754781 0.00395784 0.00429601 -0.00558307 -0.00391117 0.00334696 0.0028737 0.00224878 0.00533202 -0.000317046 -0.00220311 -0.00719581 -0.00956098 -0.000878446 -0.0148676 0.000852626 0.00751776 0.00611559 0.00705763 0.00969345 -0.0140927 -0.00197754 0.00854997 0.009324
internal_weight=1792.27 1115.59 1098.13 676.676 1083.83 648.14 615.398 1063.04 1047.58 496.149 414.677 935.483 904.493 848.313 385.306 463.007 368.71 139.987 127.822 48.4877 79.3339 228.722 311.316 107.62 94.2971 83.886 81.4717 333.43 293.585 283.561
internal_count=5244 3222 3174 2022 3128 1941 1847 3062 3013 1479 1230 2695 2607 2447 1103 1344 1074 409 374 141 233 665 889 310 270 240 249 985 838 809
is_linear=0
shrinkage=0.03


Tree=25
num_leaves=31
num_cat=0
split_feature=83 0 176 82 136 199 151 182 161 4 62 96 144 74 115 200 71 176 173 199 143 57 102 10 175 4 168 192 137 199
split_gain=26.021 13.4137 12.7247 10.2336 11.8973 9.18742 7.96781 7.59389 7.42293 7.45781 7.12168 8.3302 6.87253 6.75655 10.0546 7.38684 6.91437 6.84501 6.47456 6.43069 7.73462 7.10225 6.40016 6.36001 6.31972 6.31144 6.14609 6.00934 6.4838 5.86384
threshold=-0.92217263469659838 -0.050039696712192598 0.018014729527650947 0.064801969568978754 0.0018183973419078517 0.71109051596295447 0.0037105616759315705 0.4623668605416042 0.061416710720884449 2.0782421901121508 1.1250000000000002 2.5900000000000003 0.91694247706773191 0.011314383614212649 0.39000000000000007 0.12195166768699212 -0.45405462486138881 0.0086108295257088779 0.010529357039542865 0.69476613279807908 0.49739218880735953 -0.0020414316958928705 0.25000000000000006 0.021876216272040564 0.017381130004621288 -0.35405046804371837 0.012434480442645533 0.019405513315529446 0.56550021222911828 0.69606028290705302
decision_type=2 2 2 2 2 2 2 2 2 2 2 2 2 2 2 2 2 2 2 2 2 2 2 2 2 2 2 2 2 2
left_child=7 3 6 4 -2 8 -3 25 9 12 19 -12 -4 14 15 -6 -16 -18 -19 20 21 -5 23 -15 -8 -1 27 -20 -29 -9
right_child=1 2 5 10 13 -7 24 29 -10 -11 11 -13 -14 22 16 -17 17 18 26 -21 -22 -23 -24 -25 -26 -27 -28 28 -30 -31
leaf_value=0.023157860152387178 0.017731457152949739 -0.0096766950472953368 -0.00094119632898889574 0.0072879411690021621 -0.024982567757107204 0.012417933329089918 0.014700909091195877 -0.007711049623108702 0.01056737601123302 0.030881297042313894 -0.01168523358753276 0.029284230347553314 0.012425620038128556 -0.00039921573189152619 -0.012028995003992871 -0.0011791603433389071 -0.0072191174759259407 0.025556734113407562 -0.0024444778762245556 -0.0097637762809682314 -0.019307050960112839 -0.019490016408297221 0.015589177453503456 -0.010582884854438986 0.041245814994895873 -0.012335613226477068 0.022782298057720966 0.017752855811256289 -0.0085634339999618777 -0.019854109369190725
