tree
version=v4
num_class=3
num_tree_per_iteration=3
label_index=0
max_feature_idx=212
objective=multiclass num_class:3
feature_names=Column_0 Column_1 Column_2 Column_3 Column_4 Column_5 Column_6 Column_7 Column_8 Column_9 Column_10 Column_11 Column_12 Column_13 Column_14 Column_15 Column_16 Column_17 Column_18 Column_19 Column_20 Column_21 Column_22 Column_23 Column_24 Column_25 Column_26 Column_27 Column_28 Column_29 Column_30 Column_31 Column_32 Column_33 Column_34 Column_35 Column_36 Column_37 Column_38 Column_39 Column_40 Column_41 Column_42 Column_43 Column_44 Column_45 Column_46 Column_47 Column_48 Column_49 Column_50 Column_51 Column_52 Column_53 Column_54 Column_55 Column_56 Column_57 Column_58 Column_59 Column_60 Column_61 Column_62 Column_63 Column_64 Column_65 Column_66 Column_67 Column_68 Column_69 Column_70 Column_71 Column_72 Column_73 Column_74 Column_75 Column_76 Column_77 Column_78 Column_79 Column_80 Column_81 Column_82 Column_83 Column_84 Column_85 Column_86 Column_87 Column_88 Column_89 Column_90 Column_91 Column_92 Column_93 Column_94 Column_95 Column_96 Column_97 Column_98 Column_99 Column_100 Column_101 Column_102 Column_103 Column_104 Column_105 Column_106 Column_107 Column_108 Column_109 Column_110 Column_111 Column_112 Column_113 Column_114 Column_115 Column_116 Column_117 Column_118 Column_119 Column_120 Column_121 Column_122 Column_123 Column_124 Column_125 Column_126 Column_127 Column_128 Column_129 Column_130 Column_131 Column_132 Column_133 Column_134 Column_135 Column_136 Column_137 Column_138 Column_139 Column_140 Column_141 Column_142 Column_143 Column_144 Column_145 Column_146 Column_147 Column_148 Column_149 Column_150 Column_151 Column_152 Column_153 Column_154 Column_155 Column_156 Column_157 Column_158 Column_159 Column_160 Column_161 Column_162 Column_163 Column_164 Column_165 Column_166 Column_167 Column_168 Column_169 Column_170 Column_171 Column_172 Column_173 Column_174 Column_175 Column_176 Column_177 Column_178 Column_179 Column_180 Column_181 Column_182 Column_183 Column_184 Column_185 Column_186 Column_187 Column_188 Column_189 Column_190 Column_191 Column_192 Column_193 Column_194 Column_195 Column_196 Column_197 Column_198 Column_199 Column_200 Column_201 Column_202 Column_203 Column_204 Column_205 Column_206 Column_207 Column_208 Column_209 Column_210 Column_211 Column_212
feature_infos=[-1.0182926869307698:3.3889230344936281] [-2.0384978490671957:1.840496881021223] [-0.9352624874322728:0.63252500091619301] [-3.8757663223096666:4.6672485061093765] [-1.2137201626123977:2.68299811835919] [-0.9352624874322728:0.63252500091619301] [-0.94970758857546045:0.55283768495580143] [-1:0] [-0.96565483577456157:0.78215614098160069] [-0.9668938656280428:0.77653359298928915] [-2.0384978490671957:1.840496881021223] [-0.9352624874322728:0.63252500091619301] [-1:0] [-7.1167441039816506:16.365347291654412] none none none [-0.97466789115312202:0.72751427782554556] [-0.94158256957470887:0.67550261052449556] [-0.97466789115312202:0.72751427782554556] [-0.94158256957470887:0.67550261052449556] [-0.97466789115312202:0.72751427782554556] none [0:1] [0:1] [-1:0] [0:1] [0:1] [-0.95063145283115935:0.66542287780057607] [-0.95347959789925019:0.65299528598589773] [0:74334] none [-1.271803643751418:0.61915297990739426] [-1.2626495372017583:0.60718245188669606] [-0.96605463819308868:0.6463950740464145] [-0.99376982043156781:0.67147946280368187] [0:1] [0:1] [0:1] [0:1] [-0.95015665283751749:0.74214365796486448] [-0.94400757356369913:0.72354329812588825] [-0.96933546123879455:0.76533222424515934] [-0.97253727699393655:0.71333335762593264] [-0.95015665283751749:0.74214365796486448] [-0.94400757356369913:0.72354329812588825] [-0.96933546123879455:0.76533222424515934] [-0.97253727699393655:0.71333335762593264] [-1:0] [0:1] [0:1] [0:1] [-1.0909090909090908:2.0909090909090908] [-1:4] [-8.6678317628917689:27.449154469684757] [-1:0] [0:1] [0:1] [0:1] [-1:0] [0:1] [-0.96570297174804454:0.78234204759589543] [-0.96136036109391609:0.7808280399118257] [-0.9698873840195642:0.78420405624496148] [-0.96570297174804454:0.78234204759589543] [-0.96428127648302997:0.78214859974540374] [-0.96924740717501723:0.78460350029242287] [-1.75:2.75] none [-1:1] [-1:0.83333333333333337] [-0.95371241546311003:2.5449525704417262] [-0.9618239320771077:1.0127405479800113] [-0.9339085214543259:0.62363115130771551] [-2.0056917624197679:2.3939660309351574] [-1.0709518244190612:1.2131153931861329] [-0.9339085214543259:0.62363115130771551] [-0.94917207517350699:0.54888370604291237] [-1:0] [-0.95985799556446949:0.67507692936252017] [-0.96103407996306756:0.67519182036194603] [-0.9618239320771077:1.0127405479800113] [-0.9339085214543259:0.62363115130771551] [-1:0] [-153625112266.63818:6.0016138328530246] none none none [-1.0660265227287034:0.71481029068948621] [-1.0034991462282012:0.66746020717642085] [-1.0660265227287034:0.71481029068948621] [-1.0034991462282012:0.66746020717642085] [-1.0713092550607048:0.71481029068948621] none [0:0.080000000000000002] [0:0.080000000000000002] [-1:0] [0:0.080000000000000002] [0:0.080000000000000002] [-1.13734021148693:0.63036356969701468] [-1.1387791334514323:0.62348234862449514] [0:1490.78] none [-1.2718036437514184:0.61915297990739415] [-1.2626495372017597:0.60718245188669662] [-1.1582290280808392:0.63879323848625302] [-1.1918987946280355:0.66378562848951228] [0:0.68000000000000005] [0:0.95999999999999996] [0.02:0.68000000000000005] [0.02:0.59999999999999998] [-0.94522927904926801:0.66976730731654666] [-0.93944292394655149:0.6580786398811288] [-0.97806550813813131:0.68477216681361752] [-0.98202781441911557:0.67609557923274199] [-0.94522927904926801:0.66976730731654666] [-0.93944292394655149:0.6580786398811288] [-0.97806550813813131:0.68477216681361752] [-0.98202781441911557:0.67609557923274199] [-0.93999999999999995:-0.10000000000000001] [0.040000000000000001:0.80000000000000004] [0:0.080000000000000002] [0:0.10000000000000001] [-1.9254545454545453:1.749090909090909] [-1:3.3799999999999999] [-3.9502579193214085:9.6961402943823298] [-1:0] [0:1] [0:0.44] [0:0.46000000000000002] [-1:0] [0:1] [-0.96054706682100899:0.67479215864902342] [-0.95629415047084065:0.6767847102115373] [-0.96327440519837637:0.67358346600868901] [-0.96054706682100899:0.67479215864902342] [-0.95906083893430039:0.67696019631724991] [-0.96372669753230156:0.67442974529696298] [-0.92000000000000004:0.875] none [-0.11:0.10000000000000001] [-0.87333333333333285:0.71666666666666645] [0.018025018832434597:1.3294938441769379] [0.27074753793375222:1.0054239666624207] [0.00050742591575523785:0.072123867744648448] [0.046799685720013917:2.6775731372935798] [0.086444328884338131:1.2958192569252491] [0.00050742591575523785:0.072123867744648448] [0.00019226529420081148:0.039559160343683404] [0:0.5] [0.0024643473753066429:0.11695876809541071] [0.0024786292280257788:0.11857713909463431] [0.27074753793375222:1.0054239666624207] [0.00050742591575523785:0.072123867744648448] [0:0.5] [0.036415508852358829:132435441609.39857] none none none [0:0.16750473225139345] [0:0.12046744772749191] [0:0.16750473225139345] [0:0.12046744772749191] [0:0.16750473225139345] none [0:0.271293199325011] [0:0.27129319932501095] [0:0.5] [0:0.271293199325011] [0:0.27129319932501095] [0:0.12906620007746772] [0:0.12821608717069752] [0:10406.760000000024] none [0:0.1401770762374569] [0:0.14646416985958718] [0:0.208835354959862] [0:0.20609180624717074] [0:0.5] [0:0.5] [0.13999999999999993:0.5] [0.13999999999999993:0.5] [0.0019493154531780971:0.11518177955208969] [0.0018123117546169432:0.10778279151677429] [0.0009769688910463432:0.1559240416445713] [0.0015963321722223288:0.135101865601574] [0.0019493154531780971:0.11518177955208969] [0.0018123117546169432:0.10778279151677429] [0.0009769688910463432:0.1559240416445713] [0.0015963321722223288:0.135101865601574] [0.2374868417407584:0.5] [0.19595917942265434:0.5] [0:0.271293199325011] [0:0.29999999999999999] [0.064436527806070357:1.8454321539170018] [0:1.6995293466133499] [0.18301040758084322:10.121049104468527] [0:0.5] [0:0.5] [0:0.49638694583963416] [0:0.49839743177508466] [0:0.5] [0:0.5] [0.0024218726426872947:0.11736735942179863] [0.002478271921513306:0.12328063876721995] [0.0025362492708369826:0.11135175531577433] [0.0024218726426872947:0.11736735942179863] [0.0024447885913199759:0.12229017264228799] [0.0024872317980073771:0.11294543273095675] [0.43999999999999995:1.3515639089588034] none [0.66332495807108005:0.73484692283495345] [0.11180339887498947:0.89209491273817598]
tree_sizes=3371 3406 3359 3494 3507 3487 3501 3487 3485 3499 3496 3500 3504 3484 3494 3517 3489 3500 3496 3491 3477 3517 3499 3481 3515 3500 3482 3502 3492 3479 3509 3505 3478 3515 3492 3484 3509 3502 3475 3500 3517 3481 3513 3483 3506 3512 3512 3500 3496 3511 3485 3506 3499 3497 3501 3473 3501 3505 3499 3500 3489 3496 3500 3511 3500 3496 3497 3508 3507 3502 3495 3505 3513 3495 3493 3515 3515 3510 3494 3506 3506 3526 3523 3506 3514 3494 3512 3507 3504 3507 3524 3513 3504 3477 3496 3511 3509 3495 3508 3498 3501 3498 3488 3507 3505 3521 3493 3504 3504 3500 3483 3498 3486 3500 3524 3488 3486 3513 3515 3490 3486 3495 3500 3511 3511 3494 3488 3485 3495 3487 3505 3508 3484 3498 3484 3492 3505 3516 3498 3498 3508 3501 3506 3505 3496 3502 3497 3508 3502 3510 3495 3491 3503 3495 3500 3501 3507 3506 3513 3488 3493 3503 3525 3502 3501 3504 3481 3489 3492 3498 3514 3498 3487 3500 3488 3487 3489 3492 3504 3494 3488 3507 3485 3485 3493 3497 3492 3498 3499 3500 3495 3499 3477 3485 3506 3489 3498 3504 3500 3497 3490 3471 3497 3527 3479 3516 3495 3500 3495 3490 3509 3485 3498 3480 3491 3495 3482 3478 3509 3499 3473 3490 3474 3477 3488 3480 3488 3502 3474 3466 3519 3447 3493 3507 3517 3469 3500 3462 3502 3501 3500 3475 3498 3515 3471 3488 3513 3474 3509 3485 3474 3483 3492 3481 3491 3491 3480 3520 3464 3506 3502 3476 3470 3501 3471 3480 3519 3482 3482 3510 3512 3493 3490 3472 3473 3499 3502 3470 3488 3518 3458 3495 3475 3488 3487 3478 3471 3494 3491 3476 3510 3484 3460 3505 3490 3480 3481 3464 3478 3491 3478 3484 3484 3498 3473 3503 3506 3478 3523 3489 3465 3510 3474 3482 3496 3488 3479 3491 3487 3462 3491 3496 3498 3485 3465 3489 3489 3494 3472 3507 3479 3488 3491 3492 3440 3510 3466 3498 3481 3478 3486 3501 3498 3486 3498 3503 3503 3502 3507 3494 3489 3481 3493 3493 3478 3473 3501 3486 3448 3477 3474 3475 3517 3481 3484 3487 3488 3459 3491 3516 3475 3493 3483 3456 3487 3470 3475 3494 3472 3486 3505 3489 3474 3466 3470 3464 3498 3488 3482 3492 3490 3457 3475 3501 3458 3469 3467 3460 3496 3506 3487 3475 3500 3469 3492 3481 3464 3472 3496 3492 3459 3504 3469 3492 3496 3489 3491 3474 3491 3456 3500 3449 3478 3441 3488 3492 3471 3452 3472 3488 3467 3481 3485 3449 3481 3486 3475 3483 3469 3489 3478 3486 3494 3474 3500 3477 3485 3475 3471 3481 3480 3486 3484 3491 3490 3491 3488 3503 3499 3474 3465 3483 3504 3482 3472 3485 3483 3481 3488 3459 3496 3495 3473 3457 3480 3498 3490 3453 3484 3479 3489 3510 3502 3489 3463 3466 3494 3476 3484 3478 3487 3496 3499 3465 3483 3488 3463 3486 3477 3499 3483 3479 3488 3479 3479 3483 3488 3504 3478 3495 3485 3485 3494 3476 3493 3480 3490 3496 3507 3485 3491 3495 3472 3502 3470 3502 3474 3493 3516 3475 3482 3488 3477 3498 3485 3478 3481 3512 3466 3480 3487 3466 3499 3488 3479 3502 3482 3471 3507 3504 3478 3463 3500 3466 3488 3496 3486 3492 3469 3488 3476 3477 3485 3484 3505 3482 3487 3482 3481 3476 3486 3471 3482 3512 3466 3475 3485 3460 3489 3480 3477 3490 3507 3470 3475 3507 3477 3497 3503 3468 3470 3476 3448 3509 3493 3491 3509 3496 3494 3492

Tree=0
num_leaves=31
num_cat=0
split_feature=0 13 27 148 146 212 70 128 0 203 179 62 209 4 129 126 129 209 138 110 84 123 204 54 124 63 212 171 4 145
split_gain=63.9664 21.4089 15.8482 14.7007 15.2116 13.9506 16.1932 11.737 10.265 9.56973 13.2084 11.1252 8.99164 8.67831 8.38391 8.08959 7.97072 7.8137 7.41004 7.30368 7.60074 7.24699 7.82486 7.1651 6.98784 6.67338 6.66813 6.46695 7.0185 6.48798
threshold=-0.34615517207414848 0.12744809739457746 1.0000000180025095e-35 0.0089294488388663509 0.37712225849416209 0.86470521283783663 -0.58333333333333315 0.21000000000000005 -0.77272997393114407 0.026464054384993812 0.40712315177207975 -0.064983268700452471 0.7945281462909316 -0.54113023355751722 0.21000000000000005 -0.12999999999999998 0.030000000000000002 0.8559570659017337 -0.22749999999999998 0.35000000000000003 -0.82360406987002299 -0.34727272727272712 0.015007719868429248 1.4752960094878775 1.5700000000000003 0.084986303947777536 0.83881118523560694 0.026767799151871417 -0.41524860301280225 0.40909666165248376
decision_type=2 2 2 2 2 2 2 2 2 2 2 2 2 2 2 2 2 2 2 2 2 2 2 2 2 2 2 2 2 2
left_child=5 2 3 27 14 6 24 8 17 10 15 -12 19 -13 -5 25 -11 -8 -9 20 -10 -14 -23 -18 -1 -3 -6 29 -29 -2
right_child=1 9 -4 4 26 -7 7 18 12 16 11 13 21 -15 -16 -17 23 -19 -20 -21 -22 22 -24 -25 -26 -27 -28 28 -30 -31
leaf_value=-1.0583437809697533 -1.0426596018746725 -1.0445440866851072 -0.99864153280596057 -1.0447888480063683 -1.0375841544277238 -1.0264605381123288 -1.0497991514428977 -1.0234674173542848 -1.0450579285614727 -1.0368336115949748 -1.0016992663866926 -1.0102456317448385 -1.0233633088061789 -1.0378824470920216 -1.0639520631916308 -1.0162744631215153 -1.0236576156633244 -1.0341232334545334 -1.0549437141729177 -1.0567821527481651 -1.0253725616354126 -1.0389816323661409 -1.0563725453457815 -1.0381044607513485 -1.034294706357296 -1.0160440252284746 -1.0557051677677596 -1.0255495883164023 -1.0475992449152367 -1.0252619199597941
leaf_weight=115.26431035995483 23.670349448919296 117.66565015912056 8.9192621111869794 42.881067842245102 224.35374695062637 32.932660102844238 157.11623257398605 7.2040193974971762 22.298155277967453 63.807028949260712 15.094135880470274 13.721941709518431 13.721941709518431 40.136679500341415 39.450582414865494 11.320601910352705 285.4163875579834 34.990951359272003 102.57151427865028 9.6053591966629011 84.732990056276321 52.486427038908005 41.851922214031219 34.647902816534042 12.006698995828627 7.8901164829730979 19.896815478801727 19.210718393325806 40.136679500341415 104.28675699234009
leaf_count=336 69 343 26 125 654 96 458 21 65 186 44 40 40 117 115 33 832 102 299 28 247 153 122 101 35 23 58 56 117 304
internal_value=-1.03831 -1.03387 -1.03829 -1.03898 -1.04282 -1.04551 -1.04647 -1.04415 -1.04185 -1.02995 -1.03517 -1.02446 -1.0375 -1.03084 -1.05397 -1.04056 -1.02715 -1.04694 -1.05288 -1.03172 -1.02947 -1.04373 -1.0467 -1.02522 -1.05608 -1.04275 -1.03906 -1.03228 -1.04046 -1.02848
internal_weight=1799.29 1112.51 522.806 513.887 326.582 686.783 653.851 526.58 416.804 589.7 205.829 68.9528 224.697 53.8586 82.3317 136.876 383.871 192.107 109.776 116.637 107.031 108.06 94.3383 320.064 127.271 125.556 244.251 187.305 59.3474 127.957
internal_count=5245 3243 1524 1498 952 2002 1906 1535 1215 1719 600 201 655 157 240 399 1119 560 320 340 312 315 275 933 371 366 712 546 173 373
is_linear=0
shrinkage=1


Tree=1
num_leaves=31
num_cat=0
split_feature=0 26 0 185 211 77 62 212 141 160 37 191 128 142 142 142 184 107 129 67 170 72 144 183 1 138 54 170 211 71
split_gain=41.0477 20.7124 17.1672 16.7498 11.925 10.1645 19.37 9.98876 9.49741 9.43766 9.29775 9.20677 8.54121 8.35297 8.30683 8.15213 7.44995 6.81229 7.36424 6.74924 6.73108 6.52584 11.5974 6.39749 6.31896 8.63751 7.73704 7.09466 6.95812 6.80795
threshold=-0.84050858893288349 1.0000000180025095e-35 -0.050566029063162772 0.018028173355656658 0.71109051596295447 -0.11383467639340726 -0.26287448729431689 0.75091795675544859 0.65499999999999992 0.0037105616759315705 1.0000000180025095e-35 0.45362822795422864 0.13000000000000003 0.052113163364197683 0.11292543898070496 0.114556312740743 0.017367418949085577 0.13000000000000003 0.27000000000000007 0.50000000000000011 0.061416710720884449 0.16767224476640316 0.018572905296237636 0.015169590969696644 0.3460491854741708 0.077500000000000013 -0.31825014062052254 0.0050986575104687041 0.69606028290705302 -0.01885530799992105
decision_type=2 2 2 2 2 2 2 2 2 2 2 2 2 2 2 2 2 2 2 2 2 2 2 2 2 2 2 2 2 2
left_child=11 2 7 9 5 6 -5 8 13 -4 20 -1 -10 19 -13 -3 -11 24 -19 -2 23 22 -12 -7 26 29 27 28 -15 -26
right_child=1 15 3 4 -6 10 -8 -9 12 16 21 14 -14 17 -16 -17 -18 18 -20 -21 -22 -23 -24 -25 25 -27 -28 -29 -30 -31
leaf_value=-0.99270915762655776 -0.99852495394986773 -0.99656964311703078 -1.0102147692515597 -0.99754729853344926 -0.98653238084180084 -0.9807968023988124 -1.0196143779326095 -0.99195562580522068 -1.003039655385036 -0.98357497320713494 -1.0117689259909501 -1.0163659493101813 -0.97004259281820893 -0.98680879426074009 -0.98581543353642731 -0.96042964629513894 -0.95355280479461713 -0.99975988710744901 -1.018832743652315 -0.97136085076679912 -0.98533100968144516 -1.0273562038771895 -0.98411740044475315 -0.99788175092565168 -1.0021279986306011 -1.0324170083857087 -1.0156357143148771 -1.0099279622110731 -1.0092015718307554 -0.97766830506627322
leaf_weight=18.132434964179993 34.521366566419601 8.3688161373138445 10.809720844030378 92.056977510452271 73.227141201496124 20.922040343284607 58.581712961196899 70.43753582239151 14.29672756791115 66.950529098510742 43.587584048509598 186.90356040000916 13.94802689552307 28.942155808210373 8.368816137313841 17.086332947015762 8.368816137313841 218.63532158732414 19.875938326120377 10.809720844030378 51.607699513435364 11.855822861194609 19.875938326120377 344.86496499180794 93.103079527616501 7.6714147925376883 126.92704474925995 114.72252121567726 21.968142360448837 11.507122188806532
leaf_count=52 99 24 31 264 210 60 168 202 41 192 125 536 40 83 24 49 24 627 57 31 148 34 57 989 267 22 364 329 63 33
internal_value=-1.00079 -0.999159 -0.999588 -0.996501 -0.998004 -0.999309 -1.00613 -1.00274 -1.00379 -0.984001 -0.997224 -1.01316 -0.986745 -1.00449 -1.01506 -0.972311 -0.980239 -1.00537 -1.00135 -0.992047 -0.995474 -1.00693 -1.00311 -0.996905 -1.00774 -1.00169 -1.01006 -1.00579 -0.996471 -0.999437
internal_weight=1828.94 1615.53 1590.08 802.709 716.58 643.353 150.639 787.366 716.929 86.1291 492.714 213.405 28.2448 688.684 195.272 25.4551 75.3193 643.353 238.511 45.3311 417.395 75.3193 63.4635 365.787 404.841 112.282 292.56 165.633 50.9103 104.61
internal_count=5245 4633 4560 2302 2055 1845 432 2258 2056 247 1413 612 81 1975 560 73 216 1845 684 130 1197 216 182 1049 1161 322 839 475 146 300
is_linear=0
shrinkage=1


Tree=2
num_leaves=31
num_cat=0
split_feature=0 0 141 101 84 175 212 194 138 195 197 128 108 96 144 209 42 52 141 145 109 150 126 175 179 143 143 171 126 141
split_gain=201.8 70.3799 45.6943 42.8844 34.8288 26.0433 25.891 17.9306 17.6134 16.6969 17.857 16.2443 37.6709 16.2036 19.953 19.9079 28.1973 34.9202 14.343 16.9939 13.3793 16.2266 13.0236 11.8534 14.7338 11.8237 11.4196 11.288 11.2801 10.8159
threshold=-0.82759843127212063 -0.099518021656193112 -0.80833333333333257 652.81000000000017 0.2941666176557079 0.00055317278255396151 0.85123680011254976 0.30108617080067684 -0.067499999999999991 0.42543776604479761 0.48764219626854988 0.23000000000000001 0.05000000000000001 -0.10999999999999999 0.0039561877207285297 0.8348427584537671 0.0064089320514787189 -0.22727272727272724 0.18499999999999997 0.10797450080914144 0.37000000000000005 0.0072347631400569755 -0.48999999999999994 0.010983501941426043 0.47685438564654042 0.85093171686121793 0.47801543136598162 0.0025154350705080823 -0.78999999999999992 -0.47833333333333289
decision_type=2 2 2 2 2 2 2 2 2 2 2 2 2 2 2 2 2 2 2 2 2 2 2 2 2 2 2 2 2 2
left_child=4 2 22 13 5 8 27 18 9 -1 -11 29 26 14 -3 -15 17 -17 25 -20 -9 -22 -2 24 -14 -7 -13 -6 -16 -4
right_child=1 3 11 -5 6 7 -8 20 -10 10 -12 12 23 15 28 16 -18 -19 19 -21 21 -23 -24 -25 -26 -27 -28 -29 -30 -31
leaf_value=-1.2223070269232872 -1.2674390495814023 -1.2505487320108652 -1.2704884991281116 -1.2337017785419215 -1.2139156816828218 -1.2209470588658464 -1.287588902121692 -1.2934529458950272 -1.2947629982273681 -1.2857490560600677 -1.2269022874121136 -1.2667278783152744 -1.2769533678714915 -1.2903978049841343 -1.2810967704877216 -1.2309352586428133 -1.2888396327737779 -1.2833673375282388 -1.2291148202400668 -1.2790144967853985 -1.2119676908234283 -1.2733654767991345 -1.2221772173049588 -1.2944443368492311 -1.2409317569348179 -1.2667278783152744 -1.2182608856123711 -1.2459493091484077 -1.2957744631335342 -1.2816436608493003
leaf_weight=7.834158480167388 8.4367860555648821 9.6420412063598615 97.32435342669487 12.353865295648573 34.651085585355759 32.240575283765793 6.3275895416736594 11.449923932552339 22.899847865104675 20.188023775815967 6.0262757539749137 6.0262757539749172 44.594440579414368 159.69630748033524 53.031226634979248 23.803789228200912 49.114147394895554 21.995906502008438 10.847296357154848 14.161748021841047 6.0262757539749172 10.847296357154844 17.777513474225998 22.297220289707184 13.25780665874481 6.0262757539749137 15.969630748033522 13.860434234142302 423.044557929039 398.6381411254406
leaf_count=26 28 32 323 41 115 107 21 38 76 67 20 20 148 530 176 79 163 73 36 47 20 36 59 74 44 20 53 46 1404 1323
internal_value=-1.27884 -1.28296 -1.27551 -1.28914 -1.25095 -1.25849 -1.23051 -1.24858 -1.27442 -1.26074 -1.27222 -1.27721 -1.26632 -1.29006 -1.29327 -1.28393 -1.27305 -1.25612 -1.2397 -1.25737 -1.26842 -1.25144 -1.23674 -1.27586 -1.2687 -1.22816 -1.23154 -1.22307 -1.29414 -1.27945
internal_weight=1580.39 1377 624.322 752.682 203.387 148.548 54.8391 91.5994 56.9483 34.0485 26.2143 598.108 102.145 740.328 485.718 254.61 94.9138 45.7997 63.2759 25.009 28.3235 16.8736 26.2143 80.1495 57.8522 38.2669 21.9959 48.5115 476.076 495.962
internal_count=5245 4570 2072 2498 675 493 182 304 189 113 87 1985 339 2457 1612 845 315 152 210 83 94 56 87 266 192 127 73 161 1580 1646
is_linear=0
shrinkage=1


Tree=3
num_leaves=31
num_cat=0
split_feature=0 13 27 148 146 212 70 128 0 167 175 119 205 204 13 129 209 0 141 155 170 138 194 13 124 58 61 212 143 171
split_gain=60.6314 20.4113 14.9256 13.9628 14.5236 13.3666 15.4888 11.1324 9.71119 9.05866 9.0214 8.6835 8.19018 8.29269 12.3683 8.09585 7.46218 7.30662 9.16709 7.09482 7.37504 7.06594 6.96141 6.90392 6.75177 6.61432 8.28141 6.47536 6.3678 6.1833
threshold=-0.34615517207414848 0.12744809739457746 1.0000000180025095e-35 0.0089294488388663509 0.37712225849416209 0.86470521283783663 -0.58333333333333315 0.21000000000000005 -0.77272997393114407 0.41424630354415948 0.03726817709913216 -0.24999999999999997 0.028391776055137864 0.031163587315868529 1.3301476210080576 0.21000000000000005 0.8559570659017337 0.01290933685295721 -0.72833333333333361 0.85161673845988595 0.014621665027394639 -0.22749999999999998 0.21669569357789006 -0.32629535964241602 1.5700000000000003 1.0000000180025095e-35 -0.0024822428870049768 0.83881118523560694 0.70016930536872402 0.026767799151871417
decision_type=2 2 2 2 2 2 2 2 2 2 2 2 2 2 2 2 2 2 2 2 2 2 2 2 2 2 2 2 2 2
left_child=5 2 3 29 15 6 24 8 16 12 19 -10 17 22 25 -5 -8 18 -3 20 -11 -9 -14 -13 -1 -15 -27 -6 -21 -2
right_child=1 9 -4 4 27 -7 7 21 11 10 -12 23 13 14 -16 -17 -18 -19 -20 28 -22 -23 -24 -25 -26 26 -28 -29 -30 -31
leaf_value=-0.019647247301800026 0.0095465041467702808 -0.018284691940510044 0.038219228676372445 -0.0063455572949011052 0.00069228300735235866 0.011591227442055537 -0.011233963556313774 0.014400532165340742 -0.001623944683039052 0.022007855801576527 0.025554105143457007 3.9260537617188479e-05 0.01246854821935032 0.0065819387261592159 -0.023341530116796832 -0.025234623091198592 0.0040825987231119043 -0.01055505102493442 0.00743476556351199 -0.0094729594246573193 0.0077036216473100527 -0.016267730083796429 0.040979990815346055 0.02816054853390669 0.0039986204059935734 0.051605354499741588 0.009680140520671409 -0.017196487563290262 0.018306760202498506 -0.0021620004909457917
leaf_weight=114.32848942279816 128.41928416490555 14.353530764579771 9.0375863313674909 42.790058225393295 224.46885532140732 33.038919359445572 156.40827190876007 7.242200791835784 193.18218964338303 52.446462243795395 41.760733515024185 14.455924838781359 21.345481902360916 160.05621287226677 11.687652260065077 39.064821571111679 35.041285395622253 42.791023820638657 95.16829925775528 26.453258097171783 85.038992315530777 101.83664497733116 12.062851190567015 17.21291384100914 12.00963634252548 6.8899455070495632 11.026144891977308 19.819474220275879 10.324931025505064 59.356633931398392
leaf_count=336 373 42 26 125 654 96 458 21 563 152 121 42 62 465 34 115 102 125 277 77 247 299 35 50 35 20 32 58 30 173
internal_value=1.13624e-06 0.00431826 5.61334e-07 -0.000671538 -0.00442365 -0.00702449 -0.00796822 -0.00570028 -0.00346492 0.00813624 0.0130306 0.000763063 0.00531963 0.00898132 0.00655365 -0.0153603 -0.00843055 -4.30517e-05 0.00406407 0.0100294 0.0131602 -0.0142315 0.0227633 0.015324 -0.0173995 0.0085169 0.0258032 -0.000759059 -0.00167422 0.0058454
internal_weight=1799.12 1114.36 522.957 513.919 326.143 684.756 651.718 525.379 416.301 591.406 216.024 224.851 375.381 223.068 189.66 81.8549 191.45 152.313 109.522 174.264 137.485 109.079 33.4083 31.6688 126.338 177.972 17.9161 244.288 36.7782 187.776
internal_count=5245 3243 1524 1498 952 2002 1906 1535 1215 1719 627 655 1092 648 551 240 560 444 319 506 399 320 97 92 371 517 52 712 107 546
is_linear=0
shrinkage=0.03


Tree=4
num_leaves=31
num_cat=0
split_feature=0 26 0 185 211 77 65 212 140 67 185 160 37 191 140 144 74 142 142 191 4 184 69 13 160 148 170 72 144 13
split_gain=38.7751 19.6241 16.2405 15.8439 11.3105 9.65456 18.4134 9.48611 9.14058 11.7534 12.2039 9.00665 8.88898 8.68989 8.57188 8.50014 7.81169 7.80669 7.63526 7.14967 6.99179 6.93299 6.55324 6.80331 9.12761 8.08645 6.45775 6.30593 11.1194 6.10432
threshold=-0.84050858893288349 1.0000000180025095e-35 -0.050566029063162772 0.018028173355656658 0.71109051596295447 -0.11383467639340726 -0.26459548876141165 0.75091795675544859 -1.0000000180025095e-35 0.50000000000000011 0.021210058355844264 0.0037105616759315705 1.0000000180025095e-35 0.45362822795422864 0.03500000000000001 0.0017064154457573108 0.10970682462077611 0.11292543898070496 0.114556312740743 0.49899863582347848 0.87910925195059153 0.017367418949085577 1.0000000180025095e-35 0.77624536846438874 0.023498403971287527 0.0019388843694402884 0.061416710720884449 0.16767224476640316 0.018572905296237636 1.0000000180025095e-35
decision_type=2 2 2 2 2 2 2 2 2 2 2 2 2 2 2 2 2 2 2 2 2 2 2 2 2 2 2 2 2 2
left_child=13 2 7 11 5 6 -5 8 19 15 14 -4 26 -1 -11 -10 -12 -15 -3 22 -17 -13 23 24 -2 -25 -7 28 -14 -9
right_child=1 18 3 4 -6 12 -8 29 9 10 16 21 27 17 -16 20 -18 -19 -20 -21 -22 -23 -24 25 -26 -27 -28 -29 -30 -31
leaf_value=0.0077695186936903044 0.0048251813383680111 0.0041095853538828057 -0.0093489010829774875 0.0031106377893361692 0.013844311171764115 0.0037607577284053404 -0.018443169561901639 0.017763824692002304 0.020626583335605006 0.016570757986855259 -0.024466121422388538 0.016715434373027936 -0.010810889952830534 -0.015192374475008374 -0.014952532441265091 -0.0093387143928947928 0.0060403686474921007 0.014328788589605956 0.039003094996284474 0.019114429383087616 0.0013181811156687865 0.045490333417362375 -0.012830280005130873 0.0207974127319526 0.036994130582157086 -0.012504335715319023 0.015074948363330232 -0.02620998257578934 0.016231831440232356 0.00011243609589038428
leaf_weight=18.19928240776062 87.201362788677216 8.380453437566759 10.797581076622008 92.212484121322632 73.562215000391006 366.36470633745193 58.178173512220383 33.924268871545792 9.7617092430591565 54.758909910917282 17.039265602827076 67.308743834495544 43.474019855260849 185.68113780021667 9.045956611633299 357.85664373636246 13.571422398090361 8.4279206395149213 17.283644109964371 21.277646988630295 65.558108150959015 8.4859973192214948 27.177883148193359 8.0150933861732465 8.7332969009876233 36.209071695804596 51.824582934379578 11.767276674509047 19.970444947481155 36.71745777130127
leaf_count=52 250 24 31 264 210 1049 168 97 28 157 49 192 125 536 26 1028 39 24 49 61 188 24 78 23 25 104 148 34 57 105
internal_value=1.44287e-06 0.00158458 0.00116474 0.00416353 0.0027003 0.00142695 -0.00522739 -0.00189922 -0.00293372 -0.00496013 0.00463089 0.0162853 0.00345521 -0.0120522 0.0121015 -0.0070506 -0.0109409 -0.0139106 0.0276088 0.00273455 -0.00768869 0.0199371 0.000651776 0.00326605 0.00775364 -0.0064688 0.00516288 -0.0060397 -0.00229864 0.00858916
internal_weight=1828.77 1616.46 1590.79 803.946 717.354 643.792 150.391 786.848 716.206 527.592 94.4156 86.5923 493.401 212.308 63.8049 433.176 30.6107 194.109 25.6641 188.614 423.415 75.7947 167.337 140.159 95.9347 44.2242 418.189 75.2117 63.4445 70.6417
internal_count=5245 4633 4560 2302 2055 1845 432 2258 2056 1515 271 247 1413 612 183 1244 88 560 73 541 1216 216 480 402 275 127 1197 216 182 202
is_linear=0
shrinkage=0.03


Tree=5
num_leaves=31
num_cat=0
split_feature=0 0 141 101 84 212 175 194 177 183 128 108 2 96 209 42 52 144 13 0 160 141 155 75 13 141 70 0 205 125
split_gain=189.178 54.3505 40.6371 40.0837 34.6945 24.3934 20.7845 18.4893 20.2905 17.1628 17.0649 35.3745 16.5112 15.6192 19.0379 26.4844 32.1781 18.9897 15.4675 14.9611 12.7916 12.6991 13.1368 12.0612 11.4441 11.4274 12.183 14.5138 11.2231 20.0893
threshold=-0.77676432637944981 -0.099518021656193112 -0.80833333333333257 652.81000000000017 0.2941666176557079 0.85908343314018298 0.00055317278255396151 0.30108617080067684 6.106226635438362e-16 0.0053200704018418503 0.23000000000000001 0.05000000000000001 -0.77604569978100002 -0.10999999999999999 0.8348427584537671 0.0064089320514787189 -0.22727272727272724 0.0039561877207285297 -1.2198729635946595 -0.85449441522368519 0.012787237305140043 -0.44166666666666626 0.32344319175023412 0.42065149004815811 -0.51851143915779552 0.036666666666666625 0.41666666666666669 -0.34615517207414848 0.007975150225375734 0.076769221526251527
decision_type=2 2 2 2 2 2 2 2 2 2 2 2 2 2 2 2 2 2 2 2 2 2 2 2 2 2 2 2 2 2
left_child=4 2 -2 13 6 19 12 8 9 -8 21 -12 20 17 -15 16 -16 -3 -11 -6 -1 22 23 -4 -10 -23 27 -27 29 -9
right_child=1 3 10 -5 5 -7 7 28 24 18 11 -13 -14 14 15 -17 -18 -19 -20 -21 -22 25 -24 -25 -26 26 -28 -29 -30 -31
leaf_value=-0.0048369549853311787 0.040980909898343541 0.027210301819060832 -0.0086158512876990528 0.042830018469855416 0.055035052538550878 -0.013401353347315131 0.057539194384128335 -0.0176740970953112 0.026910272263357377 0.048526060058750473 0.04488574135128278 0.0020231339115502492 0.037430965982215673 -0.011323961236601092 0.045598244859042618 -0.0097761248360582562 -0.0044596089553855444 -0.015015112086750363 -0.00070356430251436344 0.0089561883938173176 0.040590409906930039 -0.011061062133618642 0.018905705589112368 0.036536496919521856 0.05613502504306174 0.021620229739573452 -0.0061642274970025012 -0.0041229161458204685 -0.0068106155366970721 0.051518150149305678
leaf_weight=62.818064093589783 23.43580487370491 9.7843732237815839 43.841030538082123 12.673266530036924 47.527427196502686 6.3095210194587699 7.7039320468902579 6.0076304674148586 20.209941864013672 7.0528003275394431 22.576269567012787 74.559236407279968 11.923744916915892 158.57307580113411 24.400405943393707 48.798761516809464 21.95771461725235 471.48350304365158 30.951013147830963 7.318109303712844 6.1224022805690756 144.37459161877632 47.532246440649033 6.0604499876499167 29.901950716972351 40.724825918674469 114.3045237660408 38.198362022638321 22.932899743318558 10.168892383575438
leaf_count=208 76 32 145 41 153 21 25 20 66 23 73 247 39 530 79 163 73 1580 102 24 20 480 157 20 97 135 380 127 76 33
internal_value=-2.96345e-06 -0.00478792 0.00231891 -0.0100691 0.0225143 0.0424603 0.0168617 0.0240694 0.0311643 0.0167093 0.00061631 0.0119853 0.00483502 -0.0109812 -0.00495821 0.00564993 0.0218881 -0.0141567 0.00843254 0.0488867 -0.000802683 -0.00192217 0.00761882 -0.00313218 0.0443488 -0.00467575 9.51849e-05 0.0091607 0.00668678 0.0258216
internal_weight=1580.23 1303.28 555.607 747.671 276.948 61.1551 215.793 134.929 95.8196 45.7077 532.172 97.1355 80.8642 734.998 253.73 95.1569 46.3581 481.268 38.0038 54.8455 68.9405 435.036 97.4337 49.9015 50.1119 337.602 193.228 78.9232 39.1094 16.1765
internal_count=5245 4338 1840 2498 907 198 709 442 313 150 1764 320 267 2457 845 315 152 1612 125 177 228 1444 322 165 163 1122 642 262 129 53
is_linear=0
shrinkage=0.03


Tree=6
num_leaves=31
num_cat=0
split_feature=0 13 27 148 146 212 70 128 0 208 179 62 209 4 129 129 126 209 110 84 123 204 138 54 124 212 1 141 163 1
split_gain=57.4257 19.3901 14.0706 13.2363 13.8252 12.7636 14.7133 10.6533 9.11436 8.59562 12.6767 9.92338 8.38316 7.85265 7.80934 7.70586 7.5499 7.12572 6.98825 7.20969 6.85417 7.05483 6.81289 6.67542 6.46807 6.28137 6.09975 6.46319 6.17513 6.04875
threshold=-0.34615517207414848 0.12744809739457746 1.0000000180025095e-35 0.0089294488388663509 0.37712225849416209 0.86470521283783663 -0.58333333333333315 0.21000000000000005 -0.77272997393114407 0.026856550869606782 0.40712315177207975 -0.064983268700452471 0.7945281462909316 -0.54113023355751722 0.21000000000000005 0.030000000000000002 -0.12999999999999998 0.8559570659017337 0.35000000000000003 -0.82360406987002299 -0.3563636363636361 0.015007719868429248 -0.22749999999999998 1.4752960094878775 1.5700000000000003 0.83881118523560694 0.82427785802456677 0.51833333333333342 0.001957378179959736 0.06506438032144031
decision_type=2 2 2 2 2 2 2 2 2 2 2 2 2 2 2 2 2 2 2 2 2 2 2 2 2 2 2 2 2 2
left_child=5 2 3 -2 14 6 24 8 17 10 16 -12 18 -13 -5 -11 -3 26 19 -10 -14 -22 -9 -17 -1 -6 27 -8 -29 -19
right_child=1 9 -4 4 25 -7 7 22 12 15 11 13 20 -15 -16 23 -18 29 -20 -21 21 -23 -24 -25 -26 -27 -28 28 -30 -31
leaf_value=-0.019234251166932011 0.0056606698584552358 -0.0044954606251276013 0.036871151497549846 -0.0062019757063413675 0.00065972949977282085 0.011305279964142764 -0.015901350905222683 0.014115223122580919 -0.0067423650756909597 0.0010026719847773097 0.034642846683066095 0.026814695789823973 0.015961535245329051 0.00068776031395840586 -0.024817465626633207 0.013921586822473856 0.020952674345286679 0.014615081988576443 -0.018302245918604781 0.01241791534410718 -0.00061198984554193211 -0.016966457894902903 -0.015958838758231633 2.5915319508700093e-06 0.003907189108268351 -0.016992714900223679 0.0028955273456014786 -0.012568577060099843 0.026011415566874682 -0.010622144274497355
leaf_weight=113.27543312311172 188.22549298405647 124.97323209047318 9.1442581415176374 42.688038617372513 224.56566068530083 33.153509378433228 116.42816957831383 7.2661995291709891 22.296614825725555 63.622453987598419 15.371581375598906 13.897207438945768 12.08359584212303 40.600932449102402 38.640841633081436 288.4001230597496 11.453957498073576 20.327992171049118 9.5727878510951978 85.267726302146912 52.440306127071381 43.372559636831284 101.18751373887062 34.746331006288528 12.024026244878767 19.736553937196732 24.144744873046875 8.2062135338783246 6.8513481318950644 14.748414814472197
leaf_count=336 546 365 26 125 654 96 343 21 65 185 44 40 35 118 115 833 33 59 28 247 153 127 299 101 35 58 71 24 20 43
internal_value=2.69877e-06 0.00419494 -1.58724e-05 -0.00067229 -0.00433295 -0.00685124 -0.00777805 -0.00557046 -0.00338608 0.00790829 0.00296305 0.0133547 0.000703064 0.00735022 -0.0150465 0.010546 -0.00235892 -0.00821127 0.00626029 0.00844625 -0.0053301 -0.00801533 -0.0139439 0.0124249 -0.0170135 -0.000766367 -0.0109643 -0.0135094 0.00498572 0.0040037
internal_weight=1798.71 1116.07 523.001 513.857 325.631 682.647 649.494 524.194 415.74 593.066 206.297 69.8697 225.034 54.4981 81.3289 386.769 136.427 190.707 117.137 107.564 107.896 95.8129 108.454 323.146 125.299 244.302 155.63 131.486 15.0576 35.0764
internal_count=5245 3243 1524 1498 952 2002 1906 1535 1215 1719 600 202 655 158 240 1119 398 560 340 312 315 280 320 934 371 712 458 387 44 102
is_linear=0
shrinkage=0.03


Tree=7
num_leaves=31
num_cat=0
split_feature=0 26 0 185 211 77 65 212 141 160 37 191 128 142 142 142 107 129 184 67 177 72 144 54 1 138 54 170 129 211
split_gain=36.668 18.6102 15.3071 15.0686 10.7915 9.08881 17.5533 9.00753 8.9149 8.48804 8.44746 8.21027 8.02448 7.81612 7.36923 7.16891 6.501 6.91054 6.47109 6.2052 6.19808 6.09676 10.6327 6.06044 5.98305 8.35517 7.5288 6.80344 6.81986 8.0959
threshold=-0.84050858893288349 1.0000000180025095e-35 -0.050566029063162772 0.018028173355656658 0.71109051596295447 -0.11383467639340726 -0.26459548876141165 0.75091795675544859 0.65499999999999992 0.0037105616759315705 1.0000000180025095e-35 0.45362822795422864 0.15000000000000005 0.052113163364197683 0.11292543898070496 0.114556312740743 0.13000000000000003 0.27000000000000007 0.017367418949085577 0.50000000000000011 0.11501860338857732 0.16767224476640316 0.018572905296237636 -0.36680121836974372 0.3460491854741708 0.077500000000000013 -0.31825014062052254 0.0050986575104687041 0.090000000000000011 0.69606028290705302
decision_type=2 2 2 2 2 2 2 2 2 2 2 2 2 2 2 2 2 2 2 2 2 2 2 2 2 2 2 2 2 2
left_child=11 2 7 9 5 6 -5 8 13 -4 20 -1 -10 19 -13 -3 24 -18 -11 -2 -7 22 23 -12 26 -26 27 28 -15 -30
right_child=1 15 3 4 -6 10 -8 -9 12 18 21 14 -14 16 -16 -17 17 -19 -20 -21 -22 -23 -24 -25 25 -27 -28 -29 29 -31
leaf_value=0.0074742793177218761 0.0022431200902596174 0.0040000746038134742 -0.0091162053968914109 0.0030121079381426013 0.013469512988849654 0.0040141838724329923 -0.018073652067531306 0.0083564263575213321 0.00099650939144458836 0.016234059915851994 -0.0269995330431568 -0.014829087729077157 0.033782719942448282 0.022895232573134361 0.01377783501848588 0.037740463754312316 0.0010720946416451897 -0.017489756312906127 0.04387710207970251 0.028173790556321646 0.018674398124091711 -0.025862709429340117 0.015784318635191991 -0.0029430276996703078 0.0013821675263141961 -0.031207966569154515 -0.014496231552065931 -0.0088278413256554257 0.0091175508606246621 -0.019325982425301768
leaf_weight=18.26048019528389 34.528920143842697 8.3913617134094256 10.758882462978361 92.324551582336426 73.857575267553329 391.27765497565269 57.762973219156265 70.829019367694855 17.450221896171573 67.64479860663414 13.850744664669035 184.46259373426437 10.924754083156584 13.225010782480238 8.4768613278865796 17.460294395685196 218.49875283241272 19.67709419131279 8.5894210338592512 10.936181932687758 27.798881053924561 11.674996614456175 20.064021557569504 29.496358305215836 104.56110060214996 7.594070851802825 126.174724817276 114.17427211999893 22.740596383810043 14.91188323497772
leaf_count=52 99 24 31 264 210 1118 168 202 50 192 40 536 31 38 24 49 627 57 24 31 79 34 57 85 300 22 364 329 65 43
internal_value=3.57404e-06 0.0015389 0.00112871 0.00403632 0.00260782 0.00136262 -0.005103 -0.0018487 -0.00285908 0.0158282 0.00332637 -0.0117525 0.0136196 -0.00353967 -0.0135722 0.0267884 -0.0043915 -0.000461408 0.0193486 0.00848049 0.00498665 -0.00594014 -0.00227208 -0.0106298 -0.00671201 -0.000824523 -0.00897937 -0.00476197 0.00436227 -0.00214722
internal_weight=1828.38 1617.18 1591.33 805.101 718.108 644.25 150.088 786.227 715.398 86.9931 494.163 211.2 28.375 687.023 192.939 25.8517 641.558 238.176 76.2342 45.4651 419.077 75.0861 63.4111 43.3471 403.382 112.155 291.226 165.052 50.8775 37.6525
internal_count=5245 4633 4560 2302 2055 1845 432 2258 2056 247 1413 612 81 1975 560 73 1845 684 216 130 1197 216 182 125 1161 322 839 475 146 108
is_linear=0
shrinkage=0.03


Tree=8
num_leaves=31
num_cat=0
split_feature=0 0 141 101 84 212 175 194 177 128 108 183 138 52 96 209 42 52 144 13 0 141 185 105 141 126 141 62 205 125
split_gain=176.776 51.7269 37.6747 37.5535 31.7241 22.3341 19.4575 17.1475 18.5738 16.0465 32.6199 15.8638 15.7236 15.0264 15.015 18.216 24.9711 29.6609 18.1118 14.3978 13.4639 12.1138 12.544 16.1452 11.6094 11.0791 11.0745 10.6802 10.5694 18.6864
threshold=-0.77676432637944981 -0.099518021656193112 -0.80833333333333257 652.81000000000017 0.2941666176557079 0.85908343314018298 0.00055317278255396151 0.30108617080067684 6.106226635438362e-16 0.23000000000000001 0.05000000000000001 0.0053200704018418503 -0.067499999999999991 0.86363636363636376 -0.10999999999999999 0.8348427584537671 0.0064089320514787189 -0.22727272727272724 0.0039561877207285297 -1.2198729635946595 -0.85449441522368519 -0.44166666666666626 0.010741841981208925 0.030144373992231303 0.51833333333333342 -0.78999999999999992 -0.30333333333333318 0.051578373213439589 0.007975150225375734 0.076769221526251527
decision_type=2 2 2 2 2 2 2 2 2 2 2 2 2 2 2 2 2 2 2 2 2 2 2 2 2 2 2 2 2 2
left_child=4 2 27 14 6 20 12 8 11 21 -11 -8 13 -1 18 -16 17 -17 -3 -13 -6 22 -4 -24 -15 -20 -23 -2 29 -9
right_child=1 3 9 -5 5 -7 7 28 -10 10 -12 19 -14 24 15 16 -18 -19 25 -21 -22 26 23 -25 -26 -27 -28 -29 -30 -31
leaf_value=-0.015331270619956601 0.05094210582158111 0.026243610571018258 -0.014019850246689572 0.040756770754359177 0.052110969551502927 -0.013244543029287572 0.054708085434102251 -0.017538465816298202 0.042276655490274408 0.042717955828250234 0.0019322158015246695 0.046181575438701293 -0.013681748205422487 0.03192076334807091 -0.011107192152633363 0.04348367801234701 -0.0095797340431990913 -0.0043558383519233758 -0.0017372727047394983 -0.00083210978037379123 0.0086002750067227744 -0.018351157922848978 0.021853205352344932 -0.0077337943791244909 -0.0047674807955563345 -0.016379498250719014 -0.0024310096153803366 0.005295064357074537 -0.0067864572794037164 0.04898801003857392
leaf_weight=12.076506018638609 17.71222943067551 9.9122742116451246 19.640161991119385 12.965540260076521 48.887321889400482 6.2778298258781424 7.9140549004077902 5.9774120748043087 51.25263124704361 23.108314096927643 74.697047740221024 7.2277857065200797 27.9175084233284 30.928988069295883 157.52974390983582 24.957679063081741 48.521422445774078 21.898712068796158 52.385559052228928 31.038296937942505 7.3648299574851981 45.462540537118912 54.243232518434525 23.918446391820908 10.363470077514647 414.57574892044067 291.31435149908066 6.2377392053604117 22.917455703020096 10.431475251913069
leaf_count=40 56 32 65 41 153 21 25 20 163 73 247 23 93 100 530 79 163 73 176 102 24 152 178 79 34 1404 970 20 76 33
internal_value=-7.20988e-06 -0.00467121 0.00224573 -0.00985215 0.0215874 0.0404247 0.0161853 0.0230944 0.0298433 0.000589891 0.0115686 0.0160443 0.00456116 0.0141041 -0.0107513 -0.00484237 0.00550487 0.0211255 -0.0138851 0.00804794 0.0464143 -0.00188095 0.00741352 0.0127992 0.0227128 -0.0147369 -0.00458012 0.0390534 0.0063737 0.0247538
internal_weight=1579.66 1299.08 556.334 742.747 280.576 62.53 218.046 136.759 97.4328 532.384 97.8054 46.1801 81.2865 53.369 729.781 252.908 95.3778 46.8564 476.874 38.2661 56.2522 434.579 97.8018 78.1617 41.2925 466.961 336.777 23.95 39.3263 16.4089
internal_count=5245 4338 1840 2498 907 198 709 442 313 1764 320 150 267 174 2457 845 315 152 1612 125 177 1444 322 257 134 1580 1122 76 129 53
is_linear=0
shrinkage=0.03


Tree=9
num_leaves=31
num_cat=0
split_feature=0 13 27 148 146 0 54 110 84 208 179 62 129 4 129 141 126 141 110 54 26 212 148 167 129 84 136 54 126 170
split_gain=54.4382 18.4607 13.2599 12.5686 13.1835 12.2547 8.63246 8.59211 8.256 8.12052 12.0551 9.4078 7.52902 7.42484 7.27096 7.18573 7.11664 6.57562 6.37984 6.30976 6.27149 6.09072 5.98089 7.82367 5.60722 5.59365 5.84006 10.1351 5.51012 6.65061
threshold=-0.34615517207414848 0.12744809739457746 1.0000000180025095e-35 0.0089294488388663509 0.37712225849416209 -0.80177778762747132 -1.190877730432909 0.11000000000000001 0.2941666176557079 0.026856550869606782 0.40712315177207975 -0.064983268700452471 0.21000000000000005 -0.54113023355751722 0.030000000000000002 0.51833333333333342 -0.12999999999999998 -0.82166666666666577 0.35000000000000003 1.4752960094878775 1.0000000180025095e-35 0.83881118523560694 0.0076859551368708518 0.47009246144035238 0.15000000000000005 -0.40400370522848911 -0.33955430260749964 -0.57217852413391534 -0.36999999999999994 0.010074606056002097
decision_type=2 2 2 2 2 2 2 2 2 2 2 2 2 2 2 2 2 2 2 2 2 2 2 2 2 2 2 2 2 2
left_child=5 2 3 22 12 6 -1 -7 15 10 16 -12 24 -13 -11 -8 -3 -9 20 25 -19 -6 23 -2 -5 -16 27 -27 29 -24
right_child=1 9 -4 4 21 7 8 17 -10 14 11 13 -14 -15 19 -17 -18 18 -20 -21 -22 -23 28 -25 -26 26 -28 -29 -30 -31
leaf_value=0.017985516551136123 0.0059901658069303424 -0.0043982076337479893 0.035581411231542445 -0.021941890164441258 0.00062724521837378543 0.018949187688151032 -0.011625955934543672 -0.027166884232944357 -0.02225829884306493 0.00097963964317354765 0.033611242290727636 0.025968432224249282 -0.024420537519126123 0.00064300619518937595 0.038798752599214746 0.0067796970670242285 0.020225349050240257 -0.0018646635814504305 -0.016453296985556521 -1.0163191564730249e-05 -0.030386788990436453 -0.016789434501445252 0.0086891901984213309 -0.011670229457598612 0.0013889329386329917 -0.0053032826583974428 0.011210166918707977 0.033158596963473806 -0.00021753633302105417 0.037891455361450603
leaf_weight=8.5729877054691297 119.21476781368256 124.76673573255539 9.242365360260008 13.635975033044813 224.65648689866066 14.90193074941635 179.637361317873 10.96192744374275 61.156355142593384 63.642912149429321 15.511833310127257 14.012659102678297 38.211500763893127 40.622998982667923 7.6687343120574942 21.360189825296402 11.540825068950651 344.92381656169891 31.880492478609085 34.748858779668808 7.0806693434715262 19.651683688163757 14.21894955635071 27.850425362586975 28.962808609008789 8.0039464831352216 247.20403611660004 26.853304803371429 13.501267343759535 13.861334323883055
leaf_count=25 345 365 26 40 654 43 531 33 183 185 44 40 115 118 22 62 33 1010 94 101 21 58 41 81 85 23 711 77 39 40
internal_value=4.68411e-06 0.0040779 -3.31753e-05 -0.000673863 -0.00424812 -0.00668499 -0.0116379 -0.00341255 -0.0126066 0.00769412 0.00288705 0.0129923 -0.014752 0.00713833 0.0102512 -0.00966997 -0.00231339 -0.0042565 -0.00360229 0.0120697 -0.00243839 -0.000773719 0.0054861 0.00264573 -0.00607932 0.0135185 0.0128311 0.024327 0.0155319 0.0231044
internal_weight=1798.06 1117.58 523.008 513.765 325.118 680.476 270.727 409.749 262.154 594.577 206.455 70.1475 80.8103 54.6357 388.122 200.998 136.308 394.847 383.885 324.479 352.004 244.308 188.647 147.065 42.5988 289.73 282.061 34.8573 41.5816 28.0803
internal_count=5245 3243 1524 1498 952 2002 801 1201 776 1719 600 202 240 158 1119 593 398 1158 1125 934 1031 712 546 426 125 833 811 100 120 81
is_linear=0
shrinkage=0.03


Tree=10
num_leaves=31
num_cat=0
split_feature=0 26 0 185 211 77 62 212 140 67 185 144 160 37 140 191 74 142 125 191 142 4 69 13 160 148 148 3 1 184
split_gain=34.6411 17.652 14.4778 14.2496 10.2643 8.63992 16.686 8.53108 8.57936 11.1517 11.4818 8.13322 8.11041 8.08357 8.02873 7.78191 7.53755 7.0573 8.76752 6.8069 6.77448 6.60273 6.24811 6.43688 9.25239 6.97534 6.08929 6.08371 6.18311 6.06982
threshold=-0.84050858893288349 1.0000000180025095e-35 -0.050566029063162772 0.018028173355656658 0.71109051596295447 -0.11383467639340726 -0.26287448729431689 0.75091795675544859 -1.0000000180025095e-35 0.50000000000000011 0.021210058355844264 0.0017064154457573108 0.0037105616759315705 1.0000000180025095e-35 0.03500000000000001 0.45362822795422864 0.10970682462077611 0.069408473909565296 0.19092446129949195 0.49899863582347848 0.114556312740743 0.87910925195059153 1.0000000180025095e-35 0.94024583896959368 0.023498403971287527 0.0019388843694402884 0.013581646331270599 0.74447765489391393 0.61688529969803207 0.017367418949085577
decision_type=2 2 2 2 2 2 2 2 2 2 2 2 2 2 2 2 2 2 2 2 2 2 2 2 2 2 2 2 2 2
left_child=15 2 7 12 5 6 26 8 19 11 14 -10 -4 -7 -11 -1 -12 -17 -19 22 -3 -13 23 24 27 -25 -5 28 -2 -14
right_child=1 20 3 4 -6 13 -8 -9 9 10 16 21 29 -15 -16 17 -18 18 -20 -21 -22 -23 -24 25 -26 -27 -28 -29 -30 -31
leaf_value=0.0072310798854628442 0.002421476232416443 0.0038456756810624246 -0.0090488205178595963 -0.0010686369057933604 0.013098390303748571 0.0048434157374591816 -0.01771495658903325 0.0081120407991661959 0.020212243555348668 0.016082199041546032 -0.023983849325047803 -0.009040823981419378 0.015762511417779113 -0.0058516359152542777 -0.014518575592597806 -0.016784980180379945 0.0060542082024608538 0.0068372719942329449 -0.017836014981204944 0.018637407796569649 0.036577871034481436 0.0013197047025282087 -0.012541745881155688 0.019565496745994854 0.034702654306320323 -0.013636763388024551 0.017878758195065066 -0.022846170888384462 0.022873832418846027 0.042405381341655501
leaf_weight=18.30916565656662 69.468526631593704 8.4064448475837725 10.74752828478813 73.180594265460968 74.144020289182663 419.78509610891342 57.338988602161407 71.02245432138443 9.8023256957530958 55.033829927444458 16.863840788602833 356.13440614938736 67.966329306364059 74.960995614528656 8.9750043451786023 138.99738812446594 13.567139923572539 29.796750336885452 22.94154217839241 21.381675839424133 17.615615248680115 65.550540208816528 27.043200194835663 7.0030721724033347 9.8719500303268415 30.481503665447235 19.289186358451843 6.9483914375305167 16.454466998577118 8.6785210669040662
leaf_count=52 199 24 31 209 210 1197 168 202 28 157 49 1028 192 216 26 407 39 86 67 61 49 188 78 20 28 88 55 20 47 24
internal_value=6.46631e-06 0.00149467 0.00109398 0.00391855 0.00252765 0.00131169 -0.00500034 -0.00180425 -0.00278984 -0.0047586 0.00457899 -0.00680232 0.015357 0.00322296 0.0117915 -0.0114553 -0.0105919 -0.0132397 -0.00389579 0.00269867 0.0260037 -0.00743029 0.000661276 0.0032075 0.00708982 -0.00743374 0.00288379 0.00415466 0.00633815 0.0187793
internal_weight=1827.76 1617.72 1591.69 806.091 718.699 644.555 149.809 785.602 714.58 525.927 94.4398 431.487 87.3924 494.746 64.0088 210.045 30.431 191.736 52.7383 188.653 26.0221 421.685 167.271 140.228 102.743 37.4846 92.4698 92.8714 85.923 76.6449
internal_count=5245 4633 4560 2302 2055 1845 432 2258 2056 1515 271 1244 247 1413 183 612 88 560 153 541 73 1216 480 402 294 108 264 266 246 216
is_linear=0
shrinkage=0.03


Tree=11
num_leaves=31
num_cat=0
split_feature=0 0 146 148 73 41 84 141 38 212 170 119 52 41 146 194 39 120 177 70 126 142 144 211 150 171 75 128 74 143
split_gain=166.299 55.0375 44.3939 44.4171 32.1436 34.0173 26.0769 22.3126 22.1786 19.6497 18.4849 18.3143 19.6675 16.7155 16.0321 14.3318 12.6868 12.1431 11.8833 24.1608 11.3943 11.2113 10.8288 11.1369 10.3793 9.62719 9.13873 13.0605 8.42565 8.25659
threshold=-0.34615517207414848 -0.82759843127212063 0.37712225849416209 0.0089294488388663509 -0.033303412455723623 -0.15049742929520957 0.2941666176557079 -0.82166666666666577 1.0000000180025095e-35 0.85123680011254976 0.0025663203262194984 -0.26999999999999996 1.4090909090909094 -0.78446234012316429 0.46298136861255651 0.20064771044818727 1.0000000180025095e-35 0.31000000000000005 8.3266726846886753e-17 0.58333333333333337 -0.78999999999999992 0.042769404447659323 0.012751239641270664 0.67919012036061854 0.047031199468752526 0.0025154350705080823 -0.29770973334189854 0.27000000000000007 -0.17262765534302602 0.78983315422355094
decision_type=2 2 2 2 2 2 2 2 2 2 2 2 2 2 2 2 2 2 2 2 2 2 2 2 2 2 2 2 2 2
left_child=1 6 3 -2 5 -5 8 -3 16 25 -10 12 13 14 -9 -16 -1 -7 19 -4 -20 -18 23 -22 -21 -8 -15 29 -29 -28
right_child=2 7 18 4 -6 17 9 11 10 -11 -12 -13 -14 26 15 -17 21 -19 20 24 22 -23 -24 -25 -26 -27 27 28 -30 -31
leaf_value=-0.0048764386633910663 -0.011722199961998881 0.045019811728593755 -0.0075260760821548728 -0.0036374318438715135 -0.002594474378994344 0.0090752017767111552 0.055532241589329942 -0.013205866853653098 0.0088943946911708201 -0.0086065899328836154 0.041631700843545845 -0.011334371173632491 0.035283822524781343 -0.0027407364471001973 0.038379339897474128 -0.00013171551780456463 0.044040701626820493 0.054058930681410489 -0.0010450070178509305 0.057869138384762382 0.029023491540504525 0.0097621587159859718 -0.017749943293180175 -0.0099651254218007211 0.0064580187683466444 0.027062364479452025 0.012770567399478697 0.019415553127857921 0.057383827405755282 -0.010456153112988125
leaf_weight=39.000051081180573 70.389912813901901 12.551241308450697 224.03571546077728 16.217247545719147 36.060539245605469 6.3410060405731192 37.726463258266449 68.120323449373245 23.446538388729095 6.2977271974086753 45.933213025331497 56.990444958209991 20.843343287706375 38.351034760475159 11.720397233963011 33.715705513954163 11.506420314311979 36.425479233264923 62.409163773059845 7.2758354246616346 6.8833255469799033 33.847566843032837 333.04727950692177 156.71599128842354 6.8725795149803162 14.916412174701689 123.88337081670761 12.622989207506182 9.0183246135711652 15.497331857681273
leaf_count=128 237 39 755 54 121 20 115 226 76 21 144 190 68 127 38 112 36 113 210 23 23 109 1134 531 22 46 407 41 28 51
internal_value=-1.28217e-05 0.0121595 -0.00780159 0.00634087 0.0197184 0.0333597 0.0245085 0.00564776 0.0180039 0.0414741 0.0305683 0.00438314 0.00706685 0.0051874 -0.00399984 0.00980234 0.00766999 0.0473892 -0.0107363 -0.00512494 -0.013127 0.0184587 -0.0146452 -0.00832471 0.0328962 0.0474653 0.0104201 0.0135547 0.0352376 0.0101881
internal_weight=1578.66 615.989 962.674 165.434 95.0443 58.9837 212.674 403.315 153.734 58.9406 69.3798 390.763 333.773 312.929 113.556 45.4361 84.354 42.7665 797.24 238.184 559.056 45.354 496.647 163.599 14.1484 52.6429 199.373 161.022 21.6413 139.381
internal_count=5245 2002 3243 545 308 187 675 1327 493 182 220 1288 1098 1030 376 150 273 133 2698 800 1898 145 1688 554 45 161 654 527 69 458
is_linear=0
shrinkage=0.03


Tree=12
num_leaves=31
num_cat=0
split_feature=0 13 27 212 70 148 146 185 13 163 110 143 167 175 171 3 163 4 198 129 123 205 204 13 49 3 4 194 37 211
split_gain=51.3584 17.4783 12.5304 12.0204 13.6907 11.9376 12.3799 10.0227 9.61863 8.28051 8.96896 7.82313 7.7883 7.91839 7.75927 10.2992 8.87328 7.66666 7.23466 7.21348 7.05035 7.01748 7.74551 11.7587 6.91002 6.72743 6.6355 6.50979 6.47661 6.39673
threshold=-0.34615517207414848 0.12744809739457746 1.0000000180025095e-35 0.86470521283783663 -0.58333333333333315 0.0089294488388663509 0.37712225849416209 0.0067503058223377958 -1.3585396694700933 0.0010182477583766697 0.35000000000000003 0.54900883341177087 0.41424630354415948 0.03726817709913216 0.0037173507090087553 -0.08537230053470847 0.006643075615836048 -0.13432401056973661 0.44381656520104984 0.21000000000000005 -0.3563636363636361 0.028391776055137864 0.031163587315868529 1.3301476210080576 1.0000000180025095e-35 0.38104329362697342 -0.94733743103357215 0.24663353211257621 1.0000000180025095e-35 0.68154230527963777
decision_type=2 2 2 2 2 2 2 2 2 2 2 2 2 2 2 2 2 2 2 2 2 2 2 2 2 2 2 2 2 2
left_child=3 2 5 4 -1 -2 19 18 11 -10 14 17 21 28 15 16 -11 -9 -6 -7 -16 26 -23 -24 -17 -26 -3 -20 -14 -28
right_child=1 12 -4 -5 7 6 -8 8 9 10 -12 -13 13 -15 20 24 -18 -19 27 -21 -22 22 23 -25 25 -27 29 -29 -30 -31
leaf_value=-0.016394800404003589 0.0053189236505106945 0.027085747530805043 0.034411155097734895 0.01108600199404176 -0.002843983782335557 -0.0059202283201525967 -0.00080930962567718554 0.012956229555487163 -0.015539904197807141 0.024584576321489592 -0.016344128018447462 -0.030389725387379354 0.0065128261833944127 0.023580544727303962 0.020964329967878125 0.02762144360353536 -0.0082818577486322605 -0.026494180149854416 -0.0072151610510974486 -0.02395187328062183 -0.0034011961028004782 0.021445778464472924 0.0077766999391759434 -0.023295782588478631 0.015321208235673721 -0.018375581368868976 -0.026889539877629959 -0.022938013719919884 0.021652550390634639 1.456457756169265e-05
leaf_weight=123.51816907525063 189.03408721089363 7.6655080318450919 9.3276813030242902 33.237771272659302 52.929336100816727 42.480978846549988 244.41521835327148 10.946738034486772 31.868822604417801 9.2122641503810865 25.870619863271713 19.219791293144226 145.21842148900032 42.583774447441101 11.452470749616621 28.585360139608383 37.436455100774765 7.4513075649738303 39.720185965299606 37.675829291343689 160.1440301835537 33.86607027053833 179.5929768383503 11.673495531082152 20.660173356533054 7.1873117685317984 8.4465993344783765 58.760843634605408 30.829237431287766 136.26919382810593
leaf_count=371 546 22 26 96 156 125 712 32 94 27 77 57 418 121 33 83 110 22 117 115 470 97 517 34 60 21 25 176 88 397
internal_value=6.80917e-06 0.00395473 -4.83373e-05 -0.00650753 -0.0074142 -0.000674162 -0.0041646 -0.0052869 -0.00262639 -0.000999304 0.000542515 -0.0170045 0.00746618 0.011972 0.00213299 0.00863853 -0.00179134 -0.0030214 -0.011789 -0.0143956 -0.00177502 0.00485669 0.00822174 0.00588026 0.0172601 0.00662422 -0.000114938 -0.0165965 0.00916408 -0.00155574
internal_weight=1797.28 1119.08 522.934 678.202 644.964 513.606 324.572 521.446 370.035 332.418 300.549 37.6178 596.145 218.631 274.678 103.082 46.6487 18.398 151.41 80.1568 171.597 377.514 225.133 191.266 56.4328 27.8475 152.381 98.481 176.048 144.716
internal_count=5245 3243 1524 2002 1906 1498 952 1535 1086 975 881 111 1719 627 804 301 137 54 449 240 503 1092 648 551 164 81 444 293 506 422
is_linear=0
shrinkage=0.03


Tree=13
num_leaves=31
num_cat=0
split_feature=0 26 103 138 212 122 182 4 109 143 140 194 212 120 77 182 143 127 184 196 54 141 180 72 129 142 145 212 70 160
split_gain=32.811 16.6561 13.7994 10.4696 9.40522 9.55894 8.84954 8.75681 7.60738 8.10592 9.81093 7.31347 8.56058 8.20695 7.97928 7.84227 6.98415 6.8402 6.81159 10.9058 7.90119 8.35061 7.86859 8.51637 7.3797 6.42582 6.12183 6.62349 6.37569 7.83181
threshold=-0.84050858893288349 1.0000000180025095e-35 0.037559534448084984 0.13750000000000004 0.12242911781471309 0.030000000000000002 0.047069609552331422 1.9479912665408747 0.31000000000000005 0.6110738738746303 -1.0000000180025095e-35 0.15513256874722908 0.11993026482778733 0.45000000000000007 -0.015065694665521094 0.014948077715770317 0.83678404087703273 0.6100000000000001 0.01251416888846143 1.4409404620696133 -0.54512205416442505 -0.11999999999999998 0.49739218880735953 0.67455244884250132 0.29000000000000009 0.114556312740743 0.42516101309964743 0.12411906797107501 -0.91666666666666663 0.028920093001806372
decision_type=2 2 2 2 2 2 2 2 2 2 2 2 2 2 2 2 2 2 2 2 2 2 2 2 2 2 2 2 2 2
left_child=8 2 4 6 7 18 26 11 9 10 -1 12 13 -2 -14 -15 -10 -12 19 20 -6 -22 23 24 -20 -3 -4 -28 -29 -30
right_child=1 25 3 -5 5 -7 -8 -9 16 -11 17 -13 14 15 -16 -17 -18 -19 22 -21 21 -23 -24 -25 -26 -27 27 28 29 -31
leaf_value=0.034631648202681886 -0.0042615067950633372 0.0036142334966321856 0.0010807523297707538 -0.0024773123855985593 0.027956519654302913 -0.01476309092544186 0.0019476783150598938 0.025428768451456866 -0.015219014890108368 -0.02673727558797306 -0.017644720463621168 -0.0084613294488734107 0.0057689710361182658 -0.00014184783563437795 -0.017311446443191051 0.034000228215657957 0.010571316004705511 0.019998934816011029 0.0011232218121342977 -0.0071192286251226889 -0.00017390547641719036 0.014551895793636877 -0.013573174077174326 0.026084852770671841 -0.01815300932899494 0.035421252397677412 0.0071251112545370988 0.0020093468111289617 0.033400702948416489 0.015023573559729355
leaf_weight=9.0523256957530993 18.743578195571899 8.4293713867664355 38.986635744571686 112.81725385785103 19.58147531747818 32.785452723503113 132.13154444098473 8.3907022476196271 164.16549453139305 7.1865016520023337 11.544871896505358 237.14761871099472 24.790251046419144 9.456123888492586 29.550315856933594 16.833630979061127 10.02746346592903 6.9655442237853995 489.4695990383625 41.74173030257225 65.629958003759384 73.440488964319229 35.592882931232452 11.908524334430693 18.552123457193375 17.761537939310074 70.393462747335434 16.615925997495651 34.501114934682846 52.83142477273941
leaf_count=26 54 24 111 323 56 95 377 24 482 21 34 683 71 27 85 48 29 20 1404 120 188 209 103 34 54 49 200 47 97 150
internal_value=1.01643e-05 0.00145484 0.00106443 0.00545745 -0.000711505 0.00109555 0.00804872 -0.00484365 -0.0111777 0.0016388 0.00903736 -0.00559845 0.00123358 0.0109059 -0.00678212 0.0217197 -0.0137344 -0.00347926 0.00178337 0.00652489 0.0101147 0.00760251 7.29578e-05 0.00100713 0.000419285 0.0251844 0.0118276 0.0142308 0.0190428 0.0222835
internal_weight=1827.02 1618.08 1591.89 458.277 1133.61 788.702 345.46 344.912 208.942 34.7492 27.5627 336.522 99.3739 45.0333 54.3406 26.2898 174.193 18.5104 755.917 200.394 158.652 139.07 555.523 519.93 508.022 26.1909 213.329 174.342 103.948 87.3325
internal_count=5245 4633 4560 1305 3255 2263 982 992 612 101 80 968 285 129 156 75 511 54 2168 573 453 397 1595 1492 1458 73 605 494 294 247
is_linear=0
shrinkage=0.03


Tree=14
num_leaves=31
num_cat=0
split_feature=0 0 146 148 73 41 84 141 38 212 119 52 41 146 194 170 39 177 141 13 120 126 144 211 142 128 167 141 4 96
split_gain=156.58 50.6643 42.3693 41.6907 29.6156 31.1038 23.7968 20.6071 19.4838 19.4599 17.4951 18.3164 15.8877 15.4596 13.431 12.85 12.4563 11.4945 22.9784 19.6239 11.1282 11.0931 10.5753 10.6651 9.3534 9.54998 8.88968 10.1923 11.3307 10.1853
threshold=-0.34615517207414848 -0.82759843127212063 0.37712225849416209 0.0089294488388663509 -0.033303412455723623 -0.15049742929520957 0.30901135093806981 -0.82166666666666577 1.0000000180025095e-35 0.85123680011254976 -0.26999999999999996 1.4090909090909094 -0.78446234012316429 0.46298136861255651 0.20064771044818727 0.0025663203262194984 1.0000000180025095e-35 8.3266726846886753e-17 0.37333333333333313 0.12744809739457746 0.31000000000000005 -0.78999999999999992 0.012751239641270664 0.67919012036061854 0.042769404447659323 0.19000000000000003 0.48269322199023201 -0.47166666666666635 -0.16557405079978194 -0.18999999999999997
decision_type=2 2 2 2 2 2 2 2 2 2 2 2 2 2 2 2 2 2 2 2 2 2 2 2 2 2 2 2 2 2
left_child=1 6 3 -2 5 -5 8 -3 16 -8 11 12 13 -9 -15 -10 -1 18 -4 -20 -7 -19 23 -23 -18 -26 29 -28 -29 -14
right_child=2 7 17 4 -6 20 9 10 15 -11 -12 -13 26 14 -16 -17 24 21 19 -21 -22 22 -24 -25 25 -27 27 28 -30 -31
leaf_value=-0.0036352322554126181 -0.011469320423355892 0.04289000040343556 -0.0080541374887971914 -0.0035973260021021016 -0.0025130232525320982 0.0085108729023324423 0.047443107420012044 -0.013038404586566845 0.011915262761937842 -0.0086632947352805918 -0.011168330722188544 0.033829097167483162 -0.0013184228276842673 0.03692227416905574 -0.00012756290136440359 0.038365712216496164 0.04207731287953205 -0.00094878710967305176 0.049560817045673965 -0.0058346983203618379 0.0513254562663411 0.028205407589395531 -0.01747893124231905 -0.0097539319727492618 -0.00052221820762455499 0.03189201223977628 0.047805892914401987 -0.0036615269910154876 0.03270535526476142 0.013914887382860478
leaf_weight=41.694403409957886 69.827882140874863 12.823324471712111 214.17696821689606 16.199659109115601 35.985852479934692 6.3997204303741446 47.178475439548492 67.757442712783813 25.262990921735764 6.3074675798416129 56.704115718603134 21.214505344629288 73.453364372253418 11.919641256332396 33.710741400718689 47.820247262716293 11.740303844213484 62.267667680978775 12.206308007240297 10.890432476997374 37.353394359350204 6.9592174589633933 329.42106956243515 155.70581364631653 22.652612298727036 12.804324626922606 10.627211421728132 16.108149319887161 14.790314942598345 85.465946942567825
leaf_count=136 237 39 726 54 121 20 141 226 81 21 190 68 242 38 112 147 36 210 38 36 113 23 1134 531 73 40 34 53 48 277
internal_value=-1.95308e-05 0.0117254 -0.00762591 0.00616566 0.0190011 0.0319146 0.0234766 0.00546725 0.0177474 0.0408266 0.00424228 0.00685041 0.0050267 -0.00394795 0.00955065 0.0292225 0.00831302 -0.0105139 -0.00498833 0.0234411 0.045063 -0.0128789 -0.0143885 -0.00812994 0.0188682 0.0111833 0.0101035 0.0224629 0.0137464 0.00687397
internal_weight=1577.43 620.036 957.394 165.767 95.9386 59.9528 215.461 404.575 161.975 53.4859 391.751 335.047 313.833 113.388 45.6304 73.0832 88.8916 791.627 237.274 23.0967 43.7531 554.354 492.086 162.665 47.1972 35.4569 200.445 41.5257 30.8985 158.919
internal_count=5245 2002 3243 545 308 187 675 1327 513 162 1288 1098 1030 376 150 228 285 2698 800 74 133 1898 1688 554 149 113 654 135 101 519
is_linear=0
shrinkage=0.03


Tree=15
num_leaves=31
num_cat=0
split_feature=0 13 27 212 70 148 146 128 13 185 143 208 179 62 48 146 143 4 129 129 126 138 124 212 54 126 148 142 36 160
split_gain=48.4358 16.4693 11.8777 11.4186 13.078 11.2958 11.6335 9.62367 8.29239 9.16491 8.46151 7.437 11.1565 8.71184 7.19265 10.5407 8.54627 6.98931 6.91254 6.72089 6.68508 6.51332 6.13619 5.89215 5.86217 5.85521 8.00117 6.81433 6.61563 5.74545
threshold=-0.34615517207414848 0.12744809739457746 1.0000000180025095e-35 0.86470521283783663 -0.58333333333333315 0.0089294488388663509 0.37712225849416209 0.21000000000000005 -1.3585396694700933 0.0067503058223377958 0.51801838552126844 0.026856550869606782 0.40712315177207975 -0.064983268700452471 -1.0000000180025095e-35 0.89184883191047104 0.63914176149082957 -0.54113023355751722 0.21000000000000005 0.030000000000000002 -0.12999999999999998 -0.22749999999999998 1.5700000000000003 0.83881118523560694 1.4752960094878775 -0.36999999999999994 0.006753425135242545 0.22733301991801225 1.0000000180025095e-35 0.00022249266756005611
decision_type=2 2 2 2 2 2 2 2 2 2 2 2 2 2 2 2 2 2 2 2 2 2 2 2 2 2 2 2 2 2
left_child=3 2 5 4 22 25 18 8 10 -10 -6 12 20 -14 16 -16 -11 -15 -7 -13 -3 -9 -1 -8 -21 26 28 -28 -2 -27
right_child=1 11 -4 -5 7 6 23 21 9 14 -12 19 13 17 15 -17 -18 -19 -20 24 -22 -23 -24 -25 -26 29 27 -29 -30 -31
leaf_value=-0.018249146075365957 0.0058535177654942035 -0.0044021313905623916 0.033363261685682107 0.01077952588885517 0.0049691673886408322 -0.0057580040316798512 0.00054633344497586494 0.014271372321224806 -0.0094131136917419561 0.012296889914136012 -0.025645212340189148 0.00076732199103756165 0.032007743555829173 0.024836462583478703 -0.0052944248668381081 0.019511739438615627 -0.0070343458127595324 0.0003725424341043909 -0.023491301173139766 0.012798303728083734 0.019370763525759296 -0.015179791579956029 0.0043882425159871095 -0.016614175571263969 -0.0002207927866148087 0.018818102950366719 0.029690703785283788 0.0066268121147884992 -0.019497939489424177 -0.0098079323991607428
leaf_weight=110.53606450557709 90.353382050991058 124.74396845698357 9.4002476334571821 33.356649190187454 11.670173227787016 42.36009156703949 224.89058223366737 7.2511455714702597 101.44152548909187 78.628005355596542 26.749563336372375 63.823198080062866 15.719409972429274 14.161374688148497 149.77116593718529 17.185857564210892 27.881057590246201 40.769629836082458 37.119097948074341 292.02880883216858 11.639292508363722 99.441949516534805 11.940952479839323 19.575048327445984 34.840781956911087 7.7018861770629874 23.430259793996811 22.698293685913086 10.32260078191757 34.922534435987473
leaf_count=336 261 365 26 96 34 125 654 21 301 228 80 185 44 40 440 50 82 118 115 833 33 299 35 58 101 22 67 65 30 101
internal_value=8.69146e-06 0.00383455 -5.45354e-05 -0.00633421 -0.00722271 -0.00066644 -0.00406935 -0.00514553 -0.00307204 -0.00171176 -0.016346 0.00723596 0.00263905 0.0123149 0.00114504 -0.00274098 0.00723652 0.00667941 -0.01404 0.00967193 -0.00237329 -0.0131782 -0.0160421 -0.000827757 0.0114106 0.00515291 0.00799494 0.0183417 0.00325416 -0.00463544
internal_weight=1796.35 1120.5 522.774 675.854 642.497 513.374 323.945 520.02 413.327 374.908 38.4197 597.726 207.034 70.6504 273.466 166.957 106.509 54.931 79.4792 390.693 136.383 106.693 122.477 244.466 326.87 189.429 146.805 46.1286 100.676 42.6244
internal_count=5245 3243 1524 2002 1906 1498 952 1535 1215 1101 114 1719 600 202 800 490 310 158 240 1119 398 320 371 712 934 546 423 132 291 123
is_linear=0
shrinkage=0.03


Tree=16
num_leaves=31
num_cat=0
split_feature=0 26 0 185 211 212 141 77 65 37 160 128 109 143 140 142 143 127 142 107 129 170 72 144 54 183 13 67 1 138
split_gain=31.0205 15.8645 13.2081 13.1891 9.58781 7.95118 8.28776 7.82878 15.5484 7.61312 7.6115 7.33538 7.25329 7.82775 9.23801 7.1028 6.65367 6.53302 6.04781 6.03148 6.23772 5.96502 5.89615 10.0298 5.84737 5.71433 5.6414 5.6339 5.61168 7.86435
threshold=-0.84050858893288349 1.0000000180025095e-35 -0.050566029063162772 0.018028173355656658 0.71109051596295447 0.75091795675544859 0.65499999999999992 -0.11383467639340726 -0.26459548876141165 1.0000000180025095e-35 0.0037105616759315705 0.13000000000000003 0.31000000000000005 0.6110738738746303 -1.0000000180025095e-35 0.052113163364197683 0.83678404087703273 0.6100000000000001 0.114556312740743 0.13000000000000003 0.27000000000000007 0.061416710720884449 0.16767224476640316 0.018572905296237636 -0.36680121836974372 0.015169590969696644 1.0000000180025095e-35 0.50000000000000011 0.3460491854741708 0.077500000000000013
decision_type=2 2 2 2 2 2 2 2 2 2 2 2 2 2 2 2 2 2 2 2 2 2 2 2 2 2 2 2 2 2
left_child=12 2 5 10 7 6 15 8 -5 21 -4 -8 13 14 -1 27 -14 -16 -3 28 -21 25 23 24 -11 -9 -7 -2 -17 -30
right_child=1 18 3 4 -6 26 11 9 -10 22 -12 -13 16 -15 17 19 -18 -19 -20 20 -22 -23 -24 -25 -26 -27 -28 -29 29 -31
leaf_value=0.033513715805469246 0.0021143378819059298 0.0035750788800287016 -0.0089737654664814974 0.0027619207955170972 0.012574367262103162 0.016570632229154416 -0.0020547372131928926 0.018339166919425592 -0.017188445235623392 -0.026546621382554939 0.017987676052774543 0.028385589612634064 -0.014869902684312288 -0.026412565121299719 -0.017310100400420161 -0.0086180791414699597 0.010264250868127697 0.019471635021040108 0.034394825184235776 0.001063568506915039 -0.016701711489467055 0.014065216736958671 -0.025487709111975562 0.015272176658906083 -0.002822058101835433 0.002320585830524434 -0.00032389957928147787 0.026699648263114252 0.0014148390053381281 -0.030496888839750221
leaf_weight=9.1423277556896227 34.570867300033569 8.4325277805328387 10.734448939561842 92.59394770860672 74.53325891494751 34.334113985300064 14.255748212337496 21.270128339529037 56.679759800434113 13.701689869165419 77.183383285999298 14.243060708045958 162.9979028403759 7.128062278032302 11.460224360227587 289.4473617374897 10.064588457345961 7.0009883642196646 17.882506906986237 218.44426986575127 19.364741891622543 52.367109954357147 11.565603256225584 20.166089504957199 29.438325226306915 347.36451753973961 36.912897139787674 11.076608121395109 104.48505699634552 7.4455940425395957
leaf_count=26 99 24 31 264 210 97 41 60 168 40 216 40 482 21 34 839 29 20 49 627 57 148 34 57 85 989 105 31 300 22
internal_value=1.46047e-05 0.00141555 0.00103371 0.0037269 0.00238692 -0.00173849 -0.00269295 0.00120997 -0.0048133 0.00302317 0.0146958 0.0131587 -0.0108973 0.00161427 0.00885163 -0.0033526 -0.0134082 -0.00336148 0.0245188 -0.00416906 -0.000383055 0.00459077 -0.00579139 -0.002193 -0.0103572 0.00324485 0.00781762 0.0080801 -0.00641221 -0.00070792
internal_weight=1826.29 1618.49 1592.18 807.598 719.68 784.58 713.333 645.147 149.274 495.873 87.9178 28.4988 207.794 34.7316 27.6035 684.834 173.062 18.4612 26.315 639.187 237.809 421.002 74.8717 63.3061 43.14 368.635 71.247 45.6475 401.378 111.931
internal_count=5245 4633 4560 2302 2055 2258 2056 1845 432 1413 247 81 612 101 80 1975 511 54 73 1845 684 1197 216 182 125 1049 202 130 1161 322
is_linear=0
shrinkage=0.03


Tree=17
num_leaves=31
num_cat=0
split_feature=0 0 146 148 73 41 84 38 141 212 119 52 170 41 146 194 39 177 141 13 126 144 120 211 142 171 75 128 8 196
split_gain=147.505 46.8336 40.3197 39.3341 27.4028 28.6973 22.0169 19.3925 19.2449 16.8033 16.6505 17.0678 15.7839 15.0583 14.8058 12.5688 11.2581 11.1419 21.9672 18.2769 10.7939 10.3638 10.191 10.1769 9.75286 8.6501 8.35269 12.0643 7.74503 9.09244
threshold=-0.34615517207414848 -0.82759843127212063 0.37712225849416209 0.0089294488388663509 -0.033303412455723623 -0.15049742929520957 0.2941666176557079 1.0000000180025095e-35 -0.82166666666666577 0.85123680011254976 -0.26999999999999996 1.4090909090909094 0.0025663203262194984 -0.78446234012316429 0.46298136861255651 0.20064771044818727 1.0000000180025095e-35 8.3266726846886753e-17 0.37333333333333313 0.12744809739457746 -0.78999999999999992 0.012751239641270664 0.31000000000000005 0.67919012036061854 0.042769404447659323 0.0025154350705080823 -0.29770973334189854 0.27000000000000007 -0.035269450815387696 0.82181576439181481
decision_type=2 2 2 2 2 2 2 2 2 2 2 2 2 2 2 2 2 2 2 2 2 2 2 2 2 2 2 2 2 2
left_child=1 6 3 -2 5 -5 7 16 -3 25 11 13 -9 14 -10 -16 -1 18 -4 -20 28 23 -7 -22 -18 -8 -15 -28 -19 -30
right_child=2 8 17 4 -6 22 9 12 10 -11 -12 -13 -14 26 15 -17 24 20 19 -21 21 -23 -24 -25 -26 -27 27 -29 29 -31
leaf_value=-0.0049389313009432275 -0.011264184207389857 0.041131030476312884 -0.0078690844666208341 -0.0035935909904899173 -0.0024383631976853111 0.0081196506573499045 0.050595463539276811 0.0081317423965140499 -0.012850819204569099 -0.0086110244817765042 -0.010988696610693021 0.032441669010844075 0.038062405896820709 -0.0028123167105156832 0.035449372451256664 -0.00016523079123363044 0.040266002104376905 -0.011657141206713848 0.047649961216104486 -0.0056458506804024904 0.02735084728876773 -0.017216876975557044 0.048918496638064461 -0.0095324152396730356 0.0088110396176523959 0.02410948587893583 0.0095075679249654911 0.033338954087174945 -0.0093574136461846997 0.023212004473300046
leaf_weight=39.050382524728775 69.372629076242447 13.048422127962111 213.03885242342949 16.196048766374588 35.917522430419922 6.439777970314025 39.381013482809067 23.756962150335312 67.346870303153992 6.2973069548606864 56.390052795410156 21.571887880563736 47.686459422111511 38.405769795179367 12.122985005378721 33.736426323652267 11.956464946269987 30.469403445720673 12.433958292007448 10.839562982320784 7.0393364429473868 325.88690507411957 38.170011907815933 154.65559050440788 34.383211225271225 15.452111035585402 141.03838649392128 22.116154491901398 13.302733212709429 18.363794714212418
leaf_count=128 237 39 726 54 121 20 115 76 226 21 190 68 144 127 38 112 36 103 38 36 23 1134 113 531 109 46 458 69 45 62
internal_value=-2.6833e-05 0.0113131 -0.00745564 0.00597426 0.0183381 0.0306107 0.0225294 0.0165766 0.00528822 0.0378014 0.00409734 0.00662665 0.0281096 0.00485747 -0.00389806 0.00924953 0.00692731 -0.0102935 -0.00484588 0.0228276 -0.0126353 -0.014136 0.0430289 -0.00792671 0.016927 0.0431316 0.009775 0.012738 -0.000859484 0.00952998
internal_weight=1575.87 623.741 952.126 166.096 96.7234 60.8058 217.964 156.833 405.777 61.1304 392.729 336.338 71.4434 314.767 113.206 45.8594 85.3901 786.03 236.312 23.2735 549.718 487.582 44.6098 161.695 46.3397 54.8331 201.56 163.155 62.1359 31.6665
internal_count=5245 2002 3243 545 308 187 675 493 1327 182 1288 1098 220 1030 376 150 273 2698 800 74 1898 1688 133 554 145 161 654 527 210 107
is_linear=0
shrinkage=0.03


Tree=18
num_leaves=31
num_cat=0
split_feature=0 13 27 0 148 146 54 110 84 13 108 54 54 113 54 141 143 194 144 151 72 111 143 150 123 71 171 54 197 155
split_gain=45.6961 15.5707 11.2204 11.0237 10.7037 10.9639 7.88564 7.83869 7.51329 7.26095 12.0796 6.83179 8.55655 7.38775 7.11319 6.80885 6.80489 7.79788 6.39022 7.16281 6.31062 7.72653 7.01129 6.12562 5.99386 8.4242 6.63248 8.47321 6.05791 11.1433
threshold=-0.34615517207414848 0.12744809739457746 1.0000000180025095e-35 -0.80177778762747132 0.0089294488388663509 0.37712225849416209 -1.190877730432909 0.11000000000000001 0.2941666176557079 0.49929424219255431 0.15000000000000005 1.4108648195709956 -0.61908931018661895 0.052877098655186458 -0.99413703334051251 0.51833333333333342 0.51801838552126844 0.12210276127990534 0.015183383741682594 0.029800148806529151 -0.5812990140975427 0.0016595176015114321 0.9026017427187577 0.02044881328412762 -0.3563636363636361 -0.58000199948781594 0.034732155704381797 -0.27116004084463524 0.49739218880735953 0.24030599644996853
decision_type=2 2 2 2 2 2 2 2 2 2 2 2 2 2 2 2 2 2 2 2 2 2 2 2 2 2 2 2 2 2
left_child=3 2 4 6 -2 16 -1 -5 15 11 18 12 14 -14 -3 -8 17 -6 -11 23 -12 22 -22 -20 -9 28 -27 -28 -26 -30
right_child=1 9 -4 7 5 -7 8 24 -10 10 20 -13 13 -15 -16 -17 -18 -19 19 -21 21 -23 -24 -25 25 26 27 -29 29 -31
leaf_value=0.01729809731330411 0.0049938627717884413 0.014938029135542227 0.032295848065895437 0.018211397027720858 0.016018021896430194 -0.0008447236510245739 -0.010981294486029355 0.015967325848356875 -0.02122406643989971 -0.0073709376299468292 -0.013385122517439523 0.00015671964584486759 0.02385131364699055 0.010729055419586069 -0.007487609997008521 0.0069702999516824023 -0.022123379624997122 -0.013590087518827338 -0.0035162556462290319 -0.0059502385211976433 0.021836483109884251 0.0054271778635130311 -0.0072313564105393174 0.018651804555280226 -0.0026508503775890071 -0.012161307902485759 -0.016284114927784768 0.022851726961353753 -0.018392422637055768 0.02413237312775383
leaf_weight=8.6304993331432325 189.77439421415329 23.100356191396713 9.4684894979000074 15.015781372785566 11.566661655902861 244.48863387107849 177.19991990923882 13.238242536783217 59.302892923355103 83.908728390932083 10.02986231446266 43.885650485754013 70.760473042726517 84.993598401546478 28.354900449514389 21.301516443490982 41.252062827348709 26.003688544034958 16.613375216722488 36.446594148874283 64.251656949520111 93.782517313957214 8.4503988921642286 34.547659188508987 191.73405173420906 138.99185210466385 8.6769636571407336 11.682739883661268 7.6693902909755733 20.029899716377258
leaf_count=25 546 66 26 43 34 712 531 38 183 245 29 127 201 242 81 62 127 79 49 105 182 269 24 99 565 414 26 34 23 58
internal_value=1.12666e-05 0.00372009 -6.46394e-05 -0.00616583 -0.00066182 -0.00398155 -0.0109098 -0.00306054 -0.0118542 0.00702111 0.00421587 0.0109093 0.0131866 0.0166906 0.00258017 -0.00905488 -0.0137112 -0.00447474 -0.00145405 0.00421303 0.00972524 0.0111175 0.0184578 0.0114532 -0.00387533 -0.00456881 -0.00981885 0.00617269 -0.000756257 0.0123581
internal_weight=1795.15 1121.68 522.554 673.474 513.085 323.311 266.435 407.039 257.804 599.126 348.031 251.095 207.209 155.754 51.4553 198.501 78.8224 37.5704 171.516 87.6076 176.514 166.485 72.7021 51.161 392.023 378.785 159.352 20.3597 219.433 27.6993
internal_count=5245 3243 1524 2002 1498 952 801 1201 776 1719 1002 717 590 443 147 593 240 113 498 253 504 475 206 148 1158 1120 474 60 646 81
is_linear=0
shrinkage=0.03


Tree=19
num_leaves=31
num_cat=0
split_feature=0 26 0 185 211 140 67 142 212 54 77 65 74 37 160 144 191 142 125 155 143 171 144 1 79 140 0 196 1 160
split_gain=29.2528 15.0699 12.5582 12.4697 9.1022 7.66834 8.68579 9.64894 9.56162 7.74975 7.42793 14.7791 7.36132 7.27935 7.27188 6.98406 6.97525 6.74187 8.21538 6.70093 7.54016 6.29085 6.07101 6.14803 5.95648 6.36811 5.94828 6.37731 7.03928 6.97197
threshold=-0.84050858893288349 1.0000000180025095e-35 -0.050566029063162772 0.018028173355656658 0.71109051596295447 -0.014999999999999998 0.50000000000000011 0.05453491736552242 0.12242911781471309 0.55880349223383585 -0.11383467639340726 -0.26459548876141165 -0.052547631314353402 1.0000000180025095e-35 0.0037105616759315705 0.0017544410147910113 0.45362822795422864 0.069408473909565296 0.19092446129949195 0.34141211388249681 0.44385856133999196 0.010878443123562604 0.020390918509663711 1.3025975455105823 -0.0010536873063849859 -0.024999999999999998 -0.29693444700536475 1.4680683891329476 0.36350581541629501 0.0055624943277881112
decision_type=2 2 2 2 2 2 2 2 2 2 2 2 2 2 2 2 2 2 2 2 2 2 2 2 2 2 2 2 2 2
left_child=16 2 5 14 10 9 8 -8 -7 19 11 -5 -11 -12 -4 -10 -1 -18 -19 24 -21 -14 23 -17 25 -2 27 28 29 -9
right_child=1 -3 3 4 -6 6 7 26 15 12 13 -13 21 -15 -16 22 17 18 -20 20 -22 -23 -24 -25 -26 -27 -28 -29 -30 -31
leaf_value=0.0070576385662541406 0.020842325106582356 0.023843030264708038 -0.0088890213707515774 0.0026575967469900401 0.012230417086385706 -0.010227486195825261 0.035757219647268849 -0.016260093510774058 0.01949455667745361 0.036932475525708344 0.0044669750829544053 -0.016837818468071284 -0.012074281762257199 -0.0056931134471815015 0.017472629152358615 -0.0047626739848367471 -0.015843892824153882 0.007215552095965078 -0.016840490412245883 0.013160314026963568 -0.013533631055881854 0.019767946892837653 0.010110095176269752 0.015747338325209494 -0.013943782346163568 -0.0064077753616497164 -0.0059402894336605559 -0.018450132999334474 0.03091350573023385 0.013289443713981289
leaf_weight=18.323339283466339 28.875045031309124 26.431102126836777 10.719807028770445 92.70606517791748 74.782246768474579 181.91496244072914 8.2620542347431165 9.7565704584121686 13.374690115451811 11.278968155384062 421.57519996166229 56.219154089689255 9.1032596826553362 74.713616788387299 77.531748712062836 298.08784103393555 136.15020331740379 29.640549272298813 22.4571153819561 12.626919001340864 38.748680174350739 14.444066911935804 30.769357740879059 13.76089110970497 8.641740679740904 10.533899247646334 46.212700843811035 6.9335786104202262 13.350318253040312 27.276586353778839
leaf_count=52 82 73 31 264 210 528 23 28 38 32 1197 168 26 216 216 860 407 86 67 36 112 41 88 39 25 30 134 20 38 78
internal_value=1.93032e-05 0.00137609 0.00100313 0.0036271 0.00232251 -0.00170216 -0.00305091 0.00455793 -0.00463224 0.00482496 0.00117415 -0.00470191 0.0170037 0.00293743 0.0142705 -0.00177302 -0.0106121 -0.012332 -0.003154 0.000559103 -0.00697288 0.00745793 -0.00260324 -0.00385763 0.00861227 0.0135585 0.00206811 0.008525 0.0122372 0.00550447
internal_weight=1825.2 1618.63 1592.2 808.248 719.996 783.952 649.7 111.792 537.908 134.253 645.214 148.925 34.8263 496.289 88.2516 355.993 206.571 188.248 52.0977 99.4263 51.3756 23.5473 342.618 311.849 48.0507 39.4089 103.53 57.3171 50.3835 37.0332
internal_count=5245 4633 4560 2302 2055 2258 1874 321 1553 384 1845 432 99 1413 247 1025 612 560 153 285 148 67 987 899 137 112 298 164 144 106
is_linear=0
shrinkage=0.03


Tree=20
num_leaves=31
num_cat=0
split_feature=0 0 146 148 73 41 84 141 38 212 119 41 146 177 70 194 39 170 52 1 75 128 212 120 126 144 211 13 145 28
split_gain=139.118 41.9213 39.0965 39.0506 27.2209 27.2762 20.5103 18.8621 16.9735 16.7266 16.3406 17.044 14.9653 11.9213 20.8524 11.2472 11.0488 10.8618 10.0861 9.96469 10.962 10.3912 9.81451 9.7031 9.68006 10.7234 9.61309 8.72436 8.61456 8.42287
threshold=-0.37036194341022838 -0.82759843127212063 0.37712225849416209 0.0089294488388663509 -0.033303412455723623 -0.15049742929520957 0.30901135093806981 -0.81499999999999928 1.0000000180025095e-35 0.85123680011254976 -0.26999999999999996 -0.78446234012316429 0.46298136861255651 8.3266726846886753e-17 0.58333333333333337 0.19241827716833387 1.0000000180025095e-35 0.0025663203262194984 1.4090909090909094 1.078360687626208 -0.29770973334189854 0.27000000000000007 0.12183777921664711 0.31000000000000005 -0.78999999999999992 0.012751239641270664 0.67919012036061854 0.12744809739457746 0.18774579815469158 -0.82233064481609641
decision_type=2 2 2 2 2 2 2 2 2 2 2 2 2 2 2 2 2 2 2 2 2 2 2 2 2 2 2 2 2 2
left_child=1 6 3 -2 5 -5 8 -3 16 -8 11 12 22 14 -4 -14 -1 -10 19 20 -13 -22 -9 -7 -15 26 -26 -16 -17 -30
right_child=2 7 13 4 -6 23 9 10 17 -11 -12 18 15 24 27 28 -18 -19 -20 -21 21 -23 -24 -25 25 -27 -28 -29 29 -31
leaf_value=-0.0037237844329324906 -0.011118459224698859 0.039210709825085843 -0.006763094371164134 -0.0035763202886664454 -0.002413377975943961 0.007581679944736402 0.043414258894310172 0.0082857668980032429 0.01103451837093263 -0.0085653672254825067 -0.011088364651516594 -0.0029530327911938604 0.036447851201252275 -0.0014419020690077729 0.048662098440199482 -0.016695238725587494 0.017363173318936345 0.035102445269210296 0.035785072117157687 -0.0089620822079765558 0.013000623798302184 0.037044430202776431 -0.017710845905067388 0.047097140712608114 0.02653292010305499 -0.016972793664690358 -0.0091115751830180038 0.0053517669803888829 0.025528312783748883 -0.012371858902544854
leaf_weight=41.751860618591309 70.985272586345673 14.197631955146788 225.11962461471558 16.186662703752518 37.083323210477829 6.4948655962944022 48.898188382387161 17.372912883758545 25.612075299024582 6.2881579995155326 55.195929169654846 32.610988706350327 11.393417984247206 64.717965930700302 8.7364186644554156 13.561433374881743 48.156055927276611 49.476039350032806 14.799353718757628 21.881563901901245 111.22679322957993 18.930442690849304 52.770896404981613 40.261220186948776 7.1157615482807151 322.7133055627346 158.26051825284958 8.0365417897701246 16.231347352266312 7.819949388504031
leaf_count=136 244 42 769 54 125 20 141 57 81 21 187 108 35 219 26 45 149 147 46 71 359 58 179 117 23 1135 546 26 53 26
internal_value=-3.52361e-05 0.011204 -0.00711333 0.00589902 0.0179758 0.0299882 0.0216595 0.00527056 0.0163641 0.0374915 0.00398143 0.00659221 -0.00238526 -0.00991346 -0.00435881 0.0103347 0.00757071 0.026893 0.0119553 0.0100454 0.0126006 0.0164976 -0.0112721 0.0416081 -0.012344 -0.0137896 -0.00757787 0.0279105 0.00242472 0.0132056
internal_weight=1573.89 608.175 965.711 171.011 100.026 62.9427 220.182 387.993 164.996 55.1863 373.795 318.599 119.15 794.7 241.893 49.0061 89.9079 75.0881 199.449 184.65 162.768 130.157 70.1438 46.7561 552.808 488.09 165.376 16.773 37.6127 24.0513
internal_count=5245 1941 3304 560 316 191 675 1266 513 162 1224 1037 395 2744 821 159 285 228 642 596 525 417 236 137 1923 1704 569 52 124 79
is_linear=0
shrinkage=0.03


Tree=21
num_leaves=31
num_cat=0
split_feature=208 141 0 148 26 30 203 27 177 3 148 194 175 148 182 110 177 54 194 149 159 84 155 146 80 160 145 148 138 146
split_gain=43.3466 17.2927 15.9321 12.0523 11.5718 13.3961 11.3017 8.15267 7.67867 10.1658 7.29679 9.37397 7.24789 10.2884 7.46436 7.26763 8.55592 7.14313 6.87156 6.83876 6.71645 6.58212 6.0067 7.70282 6.32488 6.93079 5.80391 5.75484 6.21795 5.49536
threshold=0.026565473622471265 -0.82166666666666577 -0.80177778762747132 0.012202159808302122 1.0000000180025095e-35 37.500000000000007 0.04634687490038996 1.0000000180025095e-35 4.1633363423443375e-16 1.3270883126567703 0.0010965535098829153 0.20209644429952789 0.03726817709913216 0.0058703978181623385 0.016768677585961771 0.15000000000000005 8.3266726846886753e-17 -1.190877730432909 0.13474799794488043 0.44381656520104984 4.1199682554449176e-18 0.30901135093806981 0.69380929176902761 0.61704442280870186 0.57275753983271971 0.004672797122020067 0.58720053668577121 0.010356238319603703 -0.40249999999999997 0.3513543275797138
decision_type=2 2 2 2 2 2 2 2 2 2 2 2 2 2 2 2 2 2 2 2 2 2 2 2 2 2 2 2 2 2
left_child=1 -1 17 7 5 10 8 20 -5 -10 11 18 14 -14 15 -12 -17 -3 -4 -16 -2 29 23 24 25 -22 -18 28 -24 -19
right_child=3 2 4 6 -6 -7 -8 -9 9 -11 12 -13 13 -15 19 16 26 21 -20 -21 22 -23 27 -25 -26 -27 -28 -29 -30 -31
leaf_value=-0.026926806543985812 -0.017522407062657685 0.016850920597949376 0.011544256610374297 -0.0095614782094271961 -0.027500672660055504 0.037682026683815845 0.0078179249791305305 0.039947694099344698 -0.00087345793643312734 0.030680037457583791 0.013557352785983412 0.00034608044220474702 0.035372976152724923 0.00040627575119057887 -0.0024553002298887132 0.0084518665812425616 -0.0044935863491671734 -0.019305524291864488 0.049995130238515692 -0.012540779294674401 0.022690033849422968 -0.020860850291034547 -0.01673460023651651 0.015292531860247208 0.03118267111741924 0.0023442529245419007 0.020464955125557655 0.018973250508284002 0.0032811801584685823 -0.0061449748976223845
leaf_weight=29.108758300542831 9.1359284520149213 8.6717327535152418 9.7321186661720294 96.790065377950668 14.711755335330961 8.1245082318782789 132.86226171255112 7.2767294943332663 101.0985851585865 10.108269542455671 32.773402571678162 30.747708559036255 11.00882241129875 24.266901880502701 144.93002751469612 65.418035507202148 254.49835258722305 34.600437194108963 7.3361366987228385 103.88182181119919 16.939937621355057 47.672735661268234 16.782765537500381 158.45958477258682 8.4965870380401594 136.41624766588211 8.6711258292198163 16.648606657981873 83.294736504554749 163.44933524727821
leaf_count=91 27 25 28 283 45 23 381 20 292 29 95 90 31 72 423 189 751 105 21 309 48 149 49 451 24 393 25 48 239 489
internal_value=1.38687e-05 -0.00414312 -0.00345975 0.00524525 -0.00116874 -0.000616423 0.00098301 0.00844918 -0.00338293 0.00199463 -0.00106525 0.0102427 -0.00190296 0.0113187 -0.00266734 8.59777e-05 -0.00125766 -0.00990879 0.0280709 -0.0066661 0.00793547 -0.0108532 0.00846765 0.0105908 0.00598759 0.00459168 -0.00367123 0.00264149 -7.54199e-05 -0.0084442
internal_weight=1793.91 999.604 970.495 794.31 716.101 701.389 340.859 453.451 207.997 111.207 693.264 47.816 645.448 35.2757 610.173 361.361 328.588 254.394 17.0683 248.812 446.174 245.723 437.038 320.312 161.853 153.356 263.169 116.726 100.078 198.05
internal_count=5245 2961 2870 2284 2102 2057 985 1299 604 321 2034 139 1895 103 1792 1060 965 768 49 732 1279 743 1252 916 465 441 776 336 288 594
is_linear=0
shrinkage=0.03


Tree=22
num_leaves=31
num_cat=0
split_feature=0 26 0 185 211 212 141 77 62 160 37 109 143 141 128 107 41 4 143 212 113 42 13 1 54 98 148 72 144 167
split_gain=27.6913 14.3817 11.9421 11.802 8.69711 7.47781 7.68515 7.03282 14.0728 6.9618 6.9218 6.83231 7.51735 8.87777 6.75663 6.47691 6.89154 6.81935 6.29732 6.22933 5.9458 11.8418 9.17506 6.21708 7.21576 8.2345 6.88736 5.72945 9.5228 5.70618
threshold=-0.84050858893288349 1.0000000180025095e-35 -0.050566029063162772 0.018028173355656658 0.71109051596295447 0.75091795675544859 0.65499999999999992 -0.11383467639340726 -0.26287448729431689 0.0037105616759315705 1.0000000180025095e-35 0.31000000000000005 0.6110738738746303 -0.031666666666666683 0.15000000000000005 0.030000000000000002 -0.77503553107698508 0.6180536553411059 0.83678404087703273 0.12133516482134198 -0.56346286824428471 -0.24270362990669669 -0.11846438863729929 1.222222724610041 -0.40386887932317278 1.0000000180025095e-35 0.0017829736496943723 0.16767224476640316 0.018572905296237636 0.35679654352720841
decision_type=2 2 2 2 2 2 2 2 2 2 2 2 2 2 2 2 2 2 2 2 2 2 2 2 2 2 2 2 2 2
left_child=11 2 5 9 7 6 15 8 -5 -4 -9 12 13 -1 -8 -2 17 19 -13 -17 -18 -22 -23 24 25 -24 -26 28 29 -12
right_child=1 -3 3 4 -6 -7 14 10 -10 -11 27 18 -14 -15 -16 16 20 -19 -20 -21 21 22 23 -25 26 -27 -28 -29 -30 -31
leaf_value=0.029470420525140057 -0.0077361192226548421 0.023243524337138662 -0.0088132724747892344 0.0025694486222709659 0.01193258526877432 0.007591399706841963 0.000965762751638152 0.0043398146896314431 -0.016499298984880492 0.016987798590797902 -0.028060288899923794 -0.014253420536945243 -0.025887724576400165 -0.0052084682625140547 0.030836279658852057 -0.0059236791822361891 -0.011776340936679343 -0.010921322207052202 0.010199840974381851 0.012074350944322671 0.012966503079250711 -0.022471403304489757 0.015736649797181358 0.016486175173604071 0.0075975367334081539 -0.0032742317298964816 -0.011740768571148112 -0.025102633003549386 0.014932873614455585 -0.0033932603092190414
leaf_weight=11.188035786151888 202.16903957724571 26.540050625801086 10.706638425588606 92.796790331602097 74.991685420274734 71.403227657079697 17.445905059576038 422.17408925294876 55.762981295585632 77.847276538610458 11.550910741090773 160.78881296515465 7.0257666110992423 16.357178211212158 11.184683799743651 22.237076193094254 63.139011323451996 20.455569356679916 10.07189956307411 78.072957634925842 42.768541514873505 22.308044940233231 29.354881763458252 14.798759132623671 19.866950273513794 68.022802501916885 100.03734183311462 11.44640803337097 20.230863988399506 31.341091394424438
leaf_count=32 587 73 31 264 210 202 50 1197 168 216 34 482 21 48 31 64 183 59 29 222 122 66 85 42 57 198 290 34 57 91
internal_value=2.46326e-05 0.00134146 0.000976355 0.00353315 0.00226253 -0.00166395 -0.00259231 0.00113876 -0.00458814 0.0138683 0.00285149 -0.010351 0.0018119 0.00887705 0.0126348 -0.0032304 -0.00133684 0.00486524 -0.0128119 0.00808449 -0.00341568 -0.00163923 -0.00409479 -0.00232839 -0.00360983 0.00245667 -0.0085366 -0.00557469 -0.00203358 -0.0100361
internal_weight=1824.09 1618.65 1592.11 808.849 720.295 783.265 711.862 645.303 148.56 88.5539 496.743 205.432 34.571 27.5452 28.6306 683.231 481.062 120.766 170.861 100.31 360.296 297.157 254.389 232.081 217.282 97.3777 119.904 74.5693 63.1229 42.892
internal_count=5245 4633 4560 2302 2055 2258 2056 1845 432 247 1413 612 101 80 81 1975 1388 345 511 286 1043 860 738 672 630 283 347 216 182 125
is_linear=0
shrinkage=0.03


Tree=23
num_leaves=31
num_cat=0
split_feature=0 0 146 148 73 41 84 175 141 119 41 212 138 146 195 1 194 177 70 194 141 145 109 150 212 126 144 52 1 75
split_gain=131.245 38.6935 37.2372 36.7572 25.2247 25.4083 18.8752 17.8079 17.7269 15.6056 16.0565 14.5938 14.3553 14.2937 13.036 13.8643 12.5874 11.5655 19.7816 10.5577 10.3845 13.1351 10.0469 11.2058 9.45301 9.43843 10.4552 9.38317 9.44729 10.3179
threshold=-0.37036194341022838 -0.82759843127212063 0.37712225849416209 0.0089294488388663509 -0.033303412455723623 -0.15049742929520957 0.2941666176557079 0.00055317278255396151 -0.81499999999999928 -0.26999999999999996 -0.78446234012316429 0.85123680011254976 -0.067499999999999991 0.46298136861255651 0.42543776604479761 0.18078274511287154 0.30108617080067684 8.3266726846886753e-17 0.58333333333333337 0.20064771044818727 0.18499999999999997 0.10797450080914144 0.37000000000000005 0.0072347631400569755 0.12183777921664711 -0.78999999999999992 0.012751239641270664 1.4090909090909094 1.078360687626208 -0.29770973334189854
decision_type=2 2 2 2 2 2 2 2 2 2 2 2 2 2 2 2 2 2 2 2 2 2 2 2 2 2 2 2 2 2
left_child=1 6 3 -2 5 -5 7 12 -3 10 13 -8 14 24 -1 -16 20 18 -4 -15 -9 -22 -18 -24 -10 -19 -27 28 29 -12
right_child=2 8 17 4 -6 -7 11 16 9 -11 27 -13 -14 19 15 -17 22 25 -20 -21 21 -23 23 -25 -26 26 -28 -29 -30 -31
leaf_value=0.0461815717305974 -0.010893403605720456 0.037790814709204666 -0.0065954370665356294 -0.0036313315678318872 -0.0023394916291737309 0.039874946682163633 0.03954975019132962 0.039157534205488419 0.0080417304208295869 -0.010916417678005304 -0.002913014403686646 -0.008604424302891666 -0.016201933914958666 0.031938923602053984 0.019568857903963156 -0.025140102315521946 -0.015106016072864357 -0.0013436347361612153 0.027031833701651829 0.0012246061722785493 0.038706671814307876 -0.0032201771386281713 0.050619599442933781 0.0023463810812042276 -0.017461812663682606 -0.0074124019980017098 -0.016721493803768649 0.034370333759147317 -0.0088231484525414898 0.015950546491609624
leaf_weight=8.6580707132816297 70.466129839420319 14.390195876359938 224.03991919755936 16.205292820930481 37.012767553329468 47.473596900701523 56.571058481931686 42.989297181367874 17.448334634304047 54.894627332687378 32.575644314289093 6.2945228219032279 23.088982284069061 14.127363264560698 17.888378590345386 9.5884430706500989 11.598150104284288 64.564077883958817 16.934226989746094 35.091476589441299 12.13766995072365 15.080401480197905 6.9442181587219265 11.486803233623503 52.247002124786377 164.54687589406967 319.25548902153969 15.035097539424894 21.800958305597305 131.21134683489799
leaf_count=26 244 42 769 54 125 137 161 127 57 187 108 21 76 43 56 31 38 219 52 116 36 47 20 36 179 569 1135 46 71 417
internal_value=-4.44192e-05 0.0108239 -0.00695971 0.00572544 0.0173557 0.0288033 0.0208065 0.0153181 0.00511583 0.00386006 0.00639857 0.0347282 0.0022754 -0.00233636 0.0140818 0.00396701 0.0230242 -0.00971031 -0.00423231 0.0100406 0.0299769 0.0154767 0.00676889 0.0205342 -0.011077 -0.0121176 -0.0135554 0.011576 0.00972933 0.0121988
internal_weight=1571.65 611.148 960.498 171.158 100.692 63.6789 222.326 159.46 388.822 374.432 319.537 62.8656 59.2239 118.914 36.1349 27.4768 100.237 789.341 240.974 49.2188 70.2074 27.2181 30.0292 18.431 69.6953 548.366 483.802 200.623 185.588 163.787
internal_count=5245 1941 3304 560 316 191 675 493 1266 1224 1037 182 189 395 113 87 304 2744 821 159 210 83 94 56 236 1923 1704 642 596 525
is_linear=0
shrinkage=0.03


Tree=24
num_leaves=31
num_cat=0
split_feature=208 141 0 148 26 30 203 27 177 3 148 194 175 148 182 110 177 54 149 159 194 84 196 69 72 33 212 3 1 176
split_gain=40.9533 16.6618 15.1653 11.4837 11.067 12.7037 10.8333 7.66066 7.30076 9.60227 7.02631 8.856 6.96777 9.70485 7.13881 6.95657 8.20329 6.75861 6.55201 6.44316 6.43438 6.28442 5.84639 5.61175 6.75534 6.43357 5.83102 5.59202 7.77414 6.49745
threshold=0.026565473622471265 -0.82166666666666577 -0.80177778762747132 0.012202159808302122 1.0000000180025095e-35 37.500000000000007 0.04634687490038996 1.0000000180025095e-35 4.1633363423443375e-16 1.3270883126567703 0.0010965535098829153 0.20209644429952789 0.03726817709913216 0.0058703978181623385 0.016768677585961771 0.15000000000000005 8.3266726846886753e-17 -1.190877730432909 0.44381656520104984 4.1199682554449176e-18 0.13474799794488043 0.30901135093806981 0.38079771303410764 1.0000000180025095e-35 0.041744634018759157 -1.0000000180025095e-35 0.12580849450763371 0.12043512343137101 -0.068718025751852693 0.029371367392956583
decision_type=2 2 2 2 2 2 2 2 2 2 2 2 2 2 2 2 2 2 2 2 2 2 2 2 2 2 2 2 2 2
left_child=1 -1 17 7 5 10 8 19 -5 -10 11 20 14 -14 15 -12 -17 -3 -16 -2 -4 -19 -21 24 27 26 -25 28 29 -24
right_child=3 2 4 6 -6 -7 -8 -9 9 -11 12 -13 13 -15 18 16 -18 21 -20 22 -22 -23 23 25 -26 -27 -28 -29 -30 -31
leaf_value=-0.026570831247612937 -0.017286742278200574 0.016267516883465376 0.011275339787071743 -0.0093885861407447205 -0.027085257351432114 0.036527509931198104 0.0076119342656045825 0.038629380698122176 -0.00091284361022969239 0.029618211753393565 0.013233714747869274 0.0003992356644712178 0.034326654005191352 0.00045406385590978933 -0.002410508026390343 0.0082557141274938566 -0.0036056352328134363 -0.0082559757674590482 -0.012298760868130332 0.030297976362894455 0.048323773473378073 -0.020460045377446036 0.014405520055195792 0.0094883837689730254 -0.0012006888448706952 0.0072487837339799332 0.027293343916098802 0.020157193632431521 -0.005838017258736612 -0.0069720797675393645
leaf_weight=28.673279792070389 9.0871655941009504 8.7237173020839673 9.760842442512514 96.483853310346603 14.489332556724547 8.1986486017703992 133.17331612110138 7.3332643508911124 101.140769302845 10.206742405891417 32.891982734203339 30.721034675836563 11.097521632909773 24.242105573415756 144.81389120221138 65.5674067735672 262.82700383663177 197.23929128050804 103.34833970665932 10.549364775419233 7.4309147596359244 47.029884070158005 73.707280218601227 30.433915793895721 100.13281083106995 104.47586280107498 36.297703236341476 31.137294441461563 35.904342830181122 15.483832061290739
leaf_count=91 27 25 28 283 45 23 381 20 292 29 95 90 31 72 423 189 776 594 309 30 21 149 210 87 287 299 103 89 103 44
internal_value=1.71058e-05 -0.00403329 -0.00336596 0.00509344 -0.00113339 -0.000596897 0.000932067 0.00821536 -0.00334823 0.00188581 -0.00103629 0.0100477 -0.00185992 0.0110909 -0.00261089 8.00766e-05 -0.00123739 -0.00967902 -0.00652852 0.00771664 0.027289 -0.0106057 0.00823523 0.00769089 0.00488224 0.0118965 0.0191731 0.00878092 0.00594927 0.0106943
internal_weight=1792.6 997.055 968.382 795.548 715.389 700.9 341.005 454.543 207.831 111.348 692.701 47.9128 644.788 35.3396 609.449 361.286 328.394 252.993 248.162 447.21 17.1918 244.269 438.122 427.573 256.366 171.207 66.7316 156.233 125.095 89.1911
internal_count=5245 2961 2870 2284 2102 2057 985 1299 604 321 2034 139 1895 103 1792 1060 965 768 732 1279 49 743 1252 1222 733 489 190 446 357 254
is_linear=0
shrinkage=0.03


Tree=25
num_leaves=31
num_cat=0
split_feature=88 26 52 54 52 177 141 141 54 72 144 42 123 140 6 54 104 144 8 141 52 191 155 155 143 4 183 96 72 211
split_gain=26.2565 14.6445 13.2773 8.88021 14.1942 9.30854 8.08182 7.96783 9.22237 7.47762 7.37784 10.6596 13.6968 9.54702 9.15382 8.32951 8.16649 7.75259 7.11875 7.0535 7.05534 6.86504 9.33116 6.81021 6.73579 6.69785 6.4262 6.23656 6.88931 5.98816
threshold=-0.92217263469659838 1.0000000180025095e-35 1.1363636363636365 0.72085753247580375 -0.40909090909090901 0.11501860338857732 0.66833333333333322 -0.48499999999999949 -0.028651840353169401 -0.17499300918522931 0.017321185922581459 -0.80871626193313406 0.99272727272727257 -0.024999999999999998 -0.40566820268605613 0.30407105445089283 -0.35457491603138253 0.0059568517328197502 -0.03254525646109848 -0.70666666666666644 -0.13636363636363633 0.4623668605416042 0.23743948142114016 1.6896984025955035 0.48832818922292548 0.54056433097514855 0.012899675977203951 -0.5099999999999999 0.22930811612573426 0.69606028290705302
decision_type=2 2 2 2 2 2 2 2 2 2 2 2 2 2 2 2 2 2 2 2 2 2 2 2 2 2 2 2 2 2
left_child=21 2 3 5 -5 6 10 -4 -9 -8 11 13 15 -2 -12 16 -13 25 -16 20 -18 22 -1 -20 -14 -15 -22 -6 -29 -23
right_child=1 -3 7 4 27 -7 9 8 -10 -11 14 12 24 17 18 -17 19 -19 23 -21 26 29 -24 -25 -26 -27 -28 28 -30 -31
