{"learner":{"attributes":{"scikit_learn":"{\"_estimator_type\": \"classifier\"}"},"feature_names":[],"feature_types":[],"gradient_booster":{"model":{"gbtree_model_param":{"num_parallel_tree":"1","num_trees":"600"},"iteration_indptr":[0,3,6,9,12,15,18,21,24,27,30,33,36,39,42,45,48,51,54,57,60,63,66,69,72,75,78,81,84,87,90,93,96,99,102,105,108,111,114,117,120,123,126,129,132,135,138,141,144,147,150,153,156,159,162,165,168,171,174,177,180,183,186,189,192,195,198,201,204,207,210,213,216,219,222,225,228,231,234,237,240,243,246,249,252,255,258,261,264,267,270,273,276,279,282,285,288,291,294,297,300,303,306,309,312,315,318,321,324,327,330,333,336,339,342,345,348,351,354,357,360,363,366,369,372,375,378,381,384,387,390,393,396,399,402,405,408,411,414,417,420,423,426,429,432,435,438,441,444,447,450,453,456,459,462,465,468,471,474,477,480,483,486,489,492,495,498,501,504,507,510,513,516,519,522,525,528,531,534,537,540,543,546,549,552,555,558,561,564,567,570,573,576,579,582,585,588,591,594,597,600],"tree_info":[0,1,2,0,1,2,0,1,2,0,1,2,0,1,2,0,1,2,0,1,2,0,1,2,0,1,2,0,1,2,0,1,2,0,1,2,0,1,2,0,1,2,0,1,2,0,1,2,0,1,2,0,1,2,0,1,2,0,1,2,0,1,2,0,1,2,0,1,2,0,1,2,0,1,2,0,1,2,0,1,2,0,1,2,0,1,2,0,1,2,0,1,2,0,1,2,0,1,2,0,1,2,0,1,2,0,1,2,0,1,2,0,1,2,0,1,2,0,1,2,0,1,2,0,1,2,0,1,2,0,1,2,0,1,2,0,1,2,0,1,2,0,1,2,0,1,2,0,1,2,0,1,2,0,1,2,0,1,2,0,1,2,0,1,2,0,1,2,0,1,2,0,1,2,0,1,2,0,1,2,0,1,2,0,1,2,0,1,2,0,1,2,0,1,2,0,1,2,0,1,2,0,1,2,0,1,2,0,1,2,0,1,2,0,1,2,0,1,2,0,1,2,0,1,2,0,1,2,0,1,2,0,1,2,0,1,2,0,1,2,0,1,2,0,1,2,0,1,2,0,1,2,0,1,2,0,1,2,0,1,2,0,1,2,0,1,2,0,1,2,0,1,2,0,1,2,0,1,2,0,1,2,0,1,2,0,1,2,0,1,2,0,1,2,0,1,2,0,1,2,0,1,2,0,1,2,0,1,2,0,1,2,0,1,2,0,1,2,0,1,2,0,1,2,0,1,2,0,1,2,0,1,2,0,1,2,0,1,2,0,1,2,0,1,2,0,1,2,0,1,2,0,1,2,0,1,2,0,1,2,0,1,2,0,1,2,0,1,2,0,1,2,0,1,2,0,1,2,0,1,2,0,1,2,0,1,2,0,1,2,0,1,2,0,1,2,0,1,2,0,1,2,0,1,2,0,1,2,0,1,2,0,1,2,0,1,2,0,1,2,0,1,2,0,1,2,0,1,2,0,1,2,0,1,2,0,1,2,0,1,2,0,1,2,0,1,2,0,1,2,0,1,2,0,1,2,0,1,2,0,1,2,0,1,2,0,1,2,0,1,2,0,1,2,0,1,2,0,1,2,0,1,2,0,1,2,0,1,2,0,1,2,0,1,2,0,1,2,0,1,2,0,1,2,0,1,2,0,1,2,0,1,2,0,1,2,0,1,2,0,1,2,0,1,2,0,1,2,0,1,2,0,1,2,0,1,2,0,1,2,0,1,2,0,1,2,0,1,2,0,1,2,0,1,2,0,1,2,0,1,2,0,1,2,0,1,2,0,1,2,0,1,2,0,1,2,0,1,2,0,1,2,0,1,2,0,1,2,0,1,2,0,1,2,0,1,2,0,1,2],"trees":[{"base_weights":[-2.0455056E-1,3.1406695E-1,-5.3171444E-1,-6.035504E-1,3.441263E-1,-5.5660266E-1,-6.928411E-2,-2.1210194E-2,1.2857142E-2,2.4657531E-1,5.215204E-1,-5.698925E-1,-2.3708212E-1,-2.1951224E-1,6.986301E-1,1.633482E-1,4.897959E-1,4.2825925E-1,8.1176466E-1,-3.8095245E-1,-5.9618014E-1,-3.687708E-1,2.6756756E-2,6.486486E-1,-3.0791795E-1,-3.6000006E-3,9.473684E-1,9.1764706E-1,1.3584901E-1,-3.3333337E-1,5.716163E-1,4.7193673E-1,-7.692312E-2,3.5172412E-1,1.0173011E0,-1.5189879E-1,-4.518829E-1,-6.073821E-1,-1.7837843E-1,-5.3164566E-1,2.0547941E-1,-7.6634543E-10,2.88E-2,-5.454546E-1,6.382975E-2,3.6E-2,-7.6634543E-10,3.4615383E-2,3.1034474E-3,9.2402333E-4,8.97106E-3,8.181817E-3,-1.8947368E-2,-5.8441567E-3,1.9480519E-2,1.0712008E-2,2.351351E-2,-9.278351E-3,2.1724137E-2,1.7522123E-2,-1.097561E-2,3.1841155E-2,-7.6634543E-10,-9.137058E-3,1.4693877E-2,-6.2448997E-3,-1.702703E-2,-1.8647032E-2,-1.1757721E-2,-1.5688075E-2,8.4705865E-3,-1.887805E-2,2.195121E-3,-1.4400001E-2,1.4210525E-2,7.1999994E-3,-1.8652853E-2,-1.4210527E-2,1.1612901E-2],"categories":[],"categories_nodes":[],"categories_segments":[],"categories_sizes":[],"default_left":[0,0,0,0,0,0,0,0,0,0,0,0,0,0,0,0,0,0,0,0,0,0,0,0,0,0,0,0,0,0,0,0,0,0,0,0,0,0,0,0,0,0,0,0,0,0,0,0,0,0,0,0,0,0,0,0,0,0,0,0,0,0,0,0,0,0,0,0,0,0,0,0,0,0,0,0,0,0,0],"id":0,"left_children":[1,3,5,7,9,11,13,-1,-1,15,17,19,21,23,25,27,29,31,33,35,37,39,-1,41,43,-1,45,47,49,51,53,55,57,59,61,63,65,67,69,71,73,-1,-1,75,77,-1,-1,-1,-1,-1,-1,-1,-1,-1,-1,-1,-1,-1,-1,-1,-1,-1,-1,-1,-1,-1,-1,-1,-1,-1,-1,-1,-1,-1,-1,-1,-1,-1,-1],"loss_changes":[2.545444E2,1.622116E1,1.0545929E1,2.3080807E0,9.61026E0,3.5700989E0,5.7035675E0,0E0,0E0,7.3085213E0,5.0329742E0,3.9300842E0,5.763732E0,3.3464952E0,1.7653065E0,5.547287E0,6.42404E0,3.4024525E0,4.1072903E0,1.6372805E0,3.322235E0,3.2373304E0,0E0,8.302702E-1,3.3805454E0,0E0,1.515789E0,1.6969266E0,4.533534E0,1.7990432E0,5.164089E0,4.7550945E0,2.64366E0,2.8998384E0,1.4396477E0,2.7289846E0,2.128027E0,1.9369812E0,3.4108136E0,1.6008644E0,1.7185869E0,0E0,0E0,1.5410643E0,2.9056098E0,0E0,0E0,0E0,0E0,0E0,0E0,0E0,0E0,0E0,0E0,0E0,0E0,0E0,0E0,0E0,0E0,0E0,0E0,0E0,0E0,0E0,0E0,0E0,0E0,0E0,0E0,0E0,0E0,0E0,0E0,0E0,0E0,0E0,0E0],"parents":[2147483647,0,0,1,1,2,2,3,3,4,4,5,5,6,6,9,9,10,10,11,11,12,12,13,13,14,14,15,15,16,16,17,17,18,18,19,19,20,20,21,21,23,23,24,24,26,26,27,27,28,28,29,29,30,30,31,31,32,32,33,33,34,34,35,35,36,36,37,37,38,38,39,39,40,40,43,43,44,44],"right_children":[2,4,6,8,10,12,14,-1,-1,16,18,20,22,24,26,28,30,32,34,36,38,40,-1,42,44,-1,46,48,50,52,54,56,58,60,62,64,66,68,70,72,74,-1,-1,76,78,-1,-1,-1,-1,-1,-1,-1,-1,-1,-1,-1,-1,-1,-1,-1,-1,-1,-1,-1,-1,-1,-1,-1,-1,-1,-1,-1,-1,-1,-1,-1,-1,-1,-1],"split_conditions":[-2.2243759E-1,-4.6987945E-1,1.8650466E-1,1.1716834E0,3.4467842E-2,1.0473901E0,3.6E-1,-2.1210194E-2,1.2857142E-2,4.8989794E-1,2.752489E-1,8.326673E-17,6E-1,-6.2463075E-1,-1.0769848E0,2.9579187E-2,-5.106484E-1,2.6578948E-1,-2.380927E0,3.6727658E-1,1.1328909E0,2.615733E-1,2.6756756E-2,1.5346808E0,2.3590821E-1,-3.6000006E-3,3E-1,5.4716074E-1,5.6716233E-1,-1E-2,1.0101867E-1,-1.2558855E-1,6.4157075E-1,7.1784353E-1,5E-1,1E0,4.7416595E-1,1.619316E-1,5.05498E-3,1.095945E0,1.2812391E-1,-7.6634543E-10,2.88E-2,-1.4244176E-1,1.15E-1,3.6E-2,-7.6634543E-10,3.4615383E-2,3.1034474E-3,9.2402333E-4,8.97106E-3,8.181817E-3,-1.8947368E-2,-5.8441567E-3,1.9480519E-2,1.0712008E-2,2.351351E-2,-9.278351E-3,2.1724137E-2,1.7522123E-2,-1.097561E-2,3.1841155E-2,-7.6634543E-10,-9.137058E-3,1.4693877E-2,-6.2448997E-3,-1.702703E-2,-1.8647032E-2,-1.1757721E-2,-1.5688075E-2,8.4705865E-3,-1.887805E-2,2.195121E-3,-1.4400001E-2,1.4210525E-2,7.1999994E-3,-1.8652853E-2,-1.4210527E-2,1.1612901E-2],"split_indices":[88,6,195,10,188,157,144,0,0,166,90,189,144,63,1,196,54,226,54,208,120,172,0,0,194,0,116,157,157,130,154,54,10,164,203,69,164,188,78,1,217,0,0,8,144,0,0,0,0,0,0,0,0,0,0,0,0,0,0,0,0,0,0,0,0,0,0,0,0,0,0,0,0,0,0,0,0,0,0],"split_type":[0,0,0,0,0,0,0,0,0,0,0,0,0,0,0,0,0,0,0,0,0,0,0,0,0,0,0,0,0,0,0,0,0,0,0,0,0,0,0,0,0,0,0,0,0,0,0,0,0,0,0,0,0,0,0,0,0,0,0,0,0,0,0,0,0,0,0,0,0,0,0,0,0,0,0,0,0,0,0],"sum_hessian":[1.4982222E3,5.7955554E2,9.186666E2,1.7777777E1,5.617778E2,8.715555E2,4.7111107E1,1.6444443E1,1.3333333E0,3.6399997E2,1.9777777E2,8.3599994E2,3.5555553E1,3.9999996E1,7.1111107E0,2.7244443E2,9.155555E1,1.5155554E2,4.622222E1,1.0399999E2,7.3199994E2,3.2444443E1,3.111111E0,3.111111E0,3.6888885E1,1.7777777E0,5.333333E0,8.444444E0,2.6399997E2,7.9999995E0,8.355555E1,1.3955554E2,1.1999999E1,1.5111111E1,3.1111109E1,2.5333332E1,7.8666664E1,7.124444E2,1.9555553E1,2.5333332E1,7.1111107E0,1.3333333E0,1.7777777E0,2.2222221E1,1.4666666E1,3.9999998E0,1.3333333E0,6.222222E0,2.222222E0,1.6133333E2,1.02666664E2,2.6666665E0,5.333333E0,7.5555553E0,7.599999E1,1.0355555E2,3.5999996E1,9.777777E0,2.222222E0,1.1555555E1,3.5555553E0,2.9777777E1,1.3333333E0,2.0888887E1,4.444444E0,2.6222221E1,5.2444443E1,6.666666E2,4.5777775E1,1.1111111E1,8.444444E0,2.1777777E1,3.5555553E0,1.7777777E0,5.333333E0,1.7777777E0,2.0444443E1,5.333333E0,9.333333E0],"tree_param":{"num_deleted":"0","num_feature":"231","num_nodes":"79","size_leaf_vector":"1"}},{"base_weights":[-1.7734873E-1,3.5818064E-1,-4.6865335E-1,5.0821525E-1,2.6862675E-1,-5.1381224E-1,1.6298808E-1,-8.5714325E-2,5.4284E-1,-5.342466E-1,2.8781152E-1,-5.5304205E-1,-2.4011578E-1,-4.352332E-1,4.4444442E-1,-5.0769234E-1,4.897959E-1,3.5464412E-1,7.20848E-1,-7.6634543E-10,-1.918033E-2,-1.6000004E-1,3.2399553E-1,-5.599717E-1,1.11111075E-1,-2.8629446E-1,5.4098356E-1,-5.028902E-1,3.1034474E-3,6.631579E-1,-6.976748E-2,-7.6634543E-10,-1.8679246E-2,-3.6000006E-3,2.4545453E-2,5.363457E-1,6.382974E-2,7.490996E-1,-1.4400001E-2,-3.58209E-1,3.272727E-2,5.2858806E-1,2.2841819E-1,-4.2953026E-1,-5.8970773E-1,-2.8301892E-1,6.486486E-1,2.9702967E-1,-3.4938416E-1,-1.2857144E-2,8.5714287E-1,-5.838927E-1,-3.2511625E-8,7.472119E-1,-1.4400001E-2,3.333333E-1,-1.8947368E-2,6.206895E-3,2.5564201E-2,8.081632E-3,-1.451613E-2,-1.4400001E-2,2.3353733E-2,-1.7080294E-2,2.4657522E-3,3.0106762E-2,8.769229E-3,8.225517E-3,-5.714287E-3,4.6753236E-3,-1.3857032E-2,-1.777583E-2,1.2857142E-2,1.2857142E-2,-1.7560976E-2,7.1999994E-3,2.5714284E-2,-8.490567E-3,2.368421E-2,2.5714284E-2,-1.1237231E-2,-7.6634543E-10,3.4054056E-2,-4.390245E-3,-2.0769233E-2,1.2857142E-2,-1.2857144E-2,2.4939759E-2,-6.2068976E-3,1.8E-2,-1.4400001E-2],"categories":[],"categories_nodes":[],"categories_segments":[],"categories_sizes":[],"default_left":[0,0,0,0,0,0,0,0,0,0,0,0,0,0,0,0,0,0,0,0,0,0,0,0,0,0,0,0,0,0,0,0,0,0,0,0,0,0,0,0,0,0,0,0,0,0,0,0,0,0,0,0,0,0,0,0,0,0,0,0,0,0,0,0,0,0,0,0,0,0,0,0,0,0,0,0,0,0,0,0,0,0,0,0,0,0,0,0,0,0,0],"id":1,"left_children":[1,3,5,7,9,11,13,15,17,19,21,23,25,27,29,31,33,35,37,-1,-1,39,41,43,45,47,49,51,-1,53,55,-1,-1,-1,-1,57,59,61,-1,63,-1,65,67,69,71,73,75,77,79,-1,81,83,85,87,-1,89,-1,-1,-1,-1,-1,-1,-1,-1,-1,-1,-1,-1,-1,-1,-1,-1,-1,-1,-1,-1,-1,-1,-1,-1,-1,-1,-1,-1,-1,-1,-1,-1,-1,-1,-1],"loss_changes":[2.3356445E2,6.953308E0,2.7736374E1,4.079487E0,5.2760906E0,9.584259E0,1.1212526E1,3.0819468E0,5.95681E0,4.5542336E-1,5.325218E0,3.7016296E0,4.310963E0,8.335786E-1,5.107195E0,4.2148054E-1,1.1884229E0,4.833047E0,3.5599098E0,0E0,0E0,6.5893083E0,5.7738304E0,2.782959E0,2.0903168E0,4.131523E0,2.444965E0,7.830229E-1,0E0,3.4014158E0,3.4565485E0,0E0,0E0,0E0,0E0,5.707634E0,4.245929E0,3.71344E0,0E0,2.1234288E0,0E0,1.0393084E1,4.024886E0,2.8953896E0,2.0766907E0,1.5178488E0,1.4455605E-1,3.4289672E0,3.3366966E0,0E0,1.2972972E0,6.840353E-1,8.5714287E-1,2.5706825E0,0E0,2.24E0,0E0,0E0,0E0,0E0,0E0,0E0,0E0,0E0,0E0,0E0,0E0,0E0,0E0,0E0,0E0,0E0,0E0,0E0,0E0,0E0,0E0,0E0,0E0,0E0,0E0,0E0,0E0,0E0,0E0,0E0,0E0,0E0,0E0,0E0,0E0],"parents":[2147483647,0,0,1,1,2,2,3,3,4,4,5,5,6,6,7,7,8,8,9,9,10,10,11,11,12,12,13,13,14,14,15,15,16,16,17,17,18,18,21,21,22,22,23,23,24,24,25,25,26,26,27,27,29,29,30,30,35,35,36,36,37,37,39,39,41,41,42,42,43,43,44,44,45,45,46,46,47,47,48,48,50,50,51,51,52,52,53,53,55,55],"right_children":[2,4,6,8,10,12,14,16,18,20,22,24,26,28,30,32,34,36,38,-1,-1,40,42,44,46,48,50,52,-1,54,56,-1,-1,-1,-1,58,60,62,-1,64,-1,66,68,70,72,74,76,78,80,-1,82,84,86,88,-1,90,-1,-1,-1,-1,-1,-1,-1,-1,-1,-1,-1,-1,-1,-1,-1,-1,-1,-1,-1,-1,-1,-1,-1,-1,-1,-1,-1,-1,-1,-1,-1,-1,-1,-1,-1],"split_conditions":[-2.5761256E-1,3.7141338E-2,1.1229645E0,-8.981879E-1,-1.5074646E-30,1.4804541E0,7.213493E-2,-1.40540665E-2,-3.8E-1,-1.7788641E0,-3.59329E-1,3E0,2.5040646E0,1.6869416E0,7.1191293E-1,-4.264021E-1,-5E-1,5E-1,1.0291217E-25,-7.6634543E-10,-1.918033E-2,8.445643E-1,-3.3814782E-1,-4.5498517E-1,2.2274823E-1,7.4452424E-1,5.6975436E-1,-5.3636014E-2,3.1034474E-3,7.1197385E-1,1.1147399E-1,-7.6634543E-10,-1.8679246E-2,-3.6000006E-3,2.4545453E-2,1.2060035E-1,6.098083E-1,2.5601482E-2,-1.4400001E-2,2.997829E-2,3.272727E-2,5.7764643E-1,1E0,2.5799522E-1,4.8137525E-1,-5.0064975E-1,5.0757635E-2,-5.0137305E-1,1.2E-1,-1.2857144E-2,-7.3775023E-1,5.003993E-2,6.648256E-1,1.095945E0,-1.4400001E-2,4.9959984E-1,-1.8947368E-2,6.206895E-3,2.5564201E-2,8.081632E-3,-1.451613E-2,-1.4400001E-2,2.3353733E-2,-1.7080294E-2,2.4657522E-3,3.0106762E-2,8.769229E-3,8.225517E-3,-5.714287E-3,4.6753236E-3,-1.3857032E-2,-1.777583E-2,1.2857142E-2,1.2857142E-2,-1.7560976E-2,7.1999994E-3,2.5714284E-2,-8.490567E-3,2.368421E-2,2.5714284E-2,-1.1237231E-2,-7.6634543E-10,3.4054056E-2,-4.390245E-3,-2.0769233E-2,1.2857142E-2,-1.2857144E-2,2.4939759E-2,-6.2068976E-3,1.8E-2,-1.4400001E-2],"split_indices":[88,183,32,4,74,0,156,1,89,13,87,67,77,0,61,3,69,69,74,0,0,224,54,105,13,77,65,9,0,167,198,0,0,0,0,224,106,197,0,165,0,164,37,157,74,61,1,1,126,0,1,156,81,1,0,168,0,0,0,0,0,0,0,0,0,0,0,0,0,0,0,0,0,0,0,0,0,0,0,0,0,0,0,0,0,0,0,0,0,0,0],"split_type":[0,0,0,0,0,0,0,0,0,0,0,0,0,0,0,0,0,0,0,0,0,0,0,0,0,0,0,0,0,0,0,0,0,0,0,0,0,0,0,0,0,0,0,0,0,0,0,0,0,0,0,0,0,0,0,0,0,0,0,0,0,0,0,0,0,0,0,0,0,0,0,0,0,0,0,0,0,0,0,0,0,0,0,0,0,0,0,0,0,0,0],"sum_hessian":[1.495111E3,5.266666E2,9.684444E2,1.951111E2,3.3155554E2,9.0399994E2,6.444444E1,1.0666666E1,1.8444443E2,7.1111107E0,3.2444443E2,7.897777E2,1.1422221E2,2.0444443E1,4.3999996E1,6.222222E0,4.444444E0,9.111111E1,9.333333E1,1.3333333E0,5.7777777E0,2.3999998E1,3.0044443E2,7.817777E2,7.9999995E0,1.08444435E2,5.7777777E0,1.8222221E1,2.222222E0,3.0666664E1,1.3333332E1,1.3333333E0,4.8888884E0,1.7777777E0,2.6666665E0,5.5555553E1,3.5555553E1,9.155555E1,1.7777777E0,2.1333332E1,2.6666665E0,9.422221E1,2.0622221E2,1.4799998E2,6.337777E2,4.8888884E0,3.111111E0,1.0222221E1,9.822221E1,1.3333333E0,4.444444E0,1.5555554E1,2.6666665E0,2.8888887E1,1.7777777E0,7.9999995E0,5.333333E0,2.7999998E1,2.7555553E1,2.6222221E1,9.333333E0,1.7777777E0,8.977777E1,1.4222221E1,7.1111107E0,3.0222221E1,6.3999996E1,1.8622221E2,1.9999998E1,7.5555553E0,1.4044444E2,6.324444E2,1.3333333E0,1.3333333E0,3.5555553E0,1.7777777E0,1.3333333E0,4.8888884E0,5.333333E0,1.3333333E0,9.6888885E1,1.3333333E0,3.111111E0,3.5555553E0,1.1999999E1,1.3333333E0,1.3333333E0,2.6666664E1,2.222222E0,6.222222E0,1.7777777E0],"tree_param":{"num_deleted":"0","num_feature":"231","num_nodes":"91","size_leaf_vector":"1"}},{"base_weights":[4.0892E-1,-5.8775514E-1,1.0168465E0,1.2380953E0,-6.5619344E-1,1.0711334E0,3.9735056E-2,7.1999994E-3,1.317919E0,-6.8052936E-1,-8.4507085E-2,1.150844E0,7.2999346E-1,4.736842E-1,-6.61017E-1,6.486486E-1,4.22069E-2,-6.899545E-1,-3.7267086E-1,3.4883717E-1,-2.0322582E-2,1.047859E0,1.2744555E0,-3.4426233E-1,7.6969695E-1,8.053691E-1,1.03448234E-1,-7.6634543E-10,-2.1272728E-2,2.88E-2,-7.6634543E-10,-6.9961554E-1,-4.4162443E-1,-5.639098E-1,4.0540537E-1,6.5346533E-1,-1.7027028E-2,1.0539174E0,-1.2857144E-2,8.844985E-1,1.3198601E0,-1.8000001E-2,7.1999994E-3,8.0254775E-1,1.11111075E-1,-1.2857144E-2,9.416058E-1,7.317073E-1,-1.327434E-1,-4.390245E-3,-2.110048E-2,-1.0728837E-9,-1.6211182E-2,-2.0642202E-2,-9.753487E-10,2.88E-2,-1.2857144E-2,3.5121948E-2,7.826086E-3,-6.2068976E-3,3.1846937E-2,-1.5517242E-2,2.9708736E-2,4.005124E-2,5.999999E-3,2.4686825E-2,-8.181819E-3,-1.6363636E-2,1.4210525E-2,3.4838706E-2,1.1886791E-2,7.1999994E-3,2.88E-2,-8.709678E-3,1.2413792E-2],"categories":[],"categories_nodes":[],"categories_segments":[],"categories_sizes":[],"default_left":[0,0,0,0,0,0,0,0,0,0,0,0,0,0,0,0,0,0,0,0,0,0,0,0,0,0,0,0,0,0,0,0,0,0,0,0,0,0,0,0,0,0,0,0,0,0,0,0,0,0,0,0,0,0,0,0,0,0,0,0,0,0,0,0,0,0,0,0,0,0,0,0,0,0,0],"id":2,"left_children":[1,3,5,7,9,11,13,-1,15,17,19,21,23,25,27,29,-1,31,33,35,-1,37,39,41,43,45,47,-1,-1,-1,-1,49,51,53,55,57,-1,59,-1,61,63,-1,-1,65,67,-1,69,71,73,-1,-1,-1,-1,-1,-1,-1,-1,-1,-1,-1,-1,-1,-1,-1,-1,-1,-1,-1,-1,-1,-1,-1,-1,-1,-1],"loss_changes":[9.1383154E2,7.2246735E1,4.963629E1,1.3568039E0,7.617584E0,2.3285706E1,1.5619014E1,0E0,2.3210144E-1,1.2778168E0,6.3171077E0,7.7976685E0,7.548935E0,3.8054056E0,6.2496185E-1,8.302702E-1,0E0,9.196625E-1,2.8904521E0,4.372217E0,0E0,4.002777E0,4.523987E0,1.1567214E0,3.4806213E0,3.1866674E0,2.4878497E0,0E0,0E0,0E0,0E0,9.1185E-1,9.5456696E-1,1.034697E0,2.3128955E0,1.9735622E0,0E0,4.0345154E0,0E0,5.9331837E0,4.5934143E0,0E0,0E0,3.6592636E0,2.4008508E0,0E0,1.3636618E0,2.8097534E-1,1.201453E0,0E0,0E0,0E0,0E0,0E0,0E0,0E0,0E0,0E0,0E0,0E0,0E0,0E0,0E0,0E0,0E0,0E0,0E0,0E0,0E0,0E0,0E0,0E0,0E0,0E0,0E0],"parents":[2147483647,0,0,1,1,2,2,3,3,4,4,5,5,6,6,8,8,9,9,10,10,11,11,12,12,13,13,14,14,15,15,17,17,18,18,19,19,21,21,22,22,23,23,24,24,25,25,26,26,31,31,32,32,33,33,34,34,35,35,37,37,39,39,40,40,43,43,44,44,46,46,47,47,48,48],"right_children":[2,4,6,8,10,12,14,-1,16,18,20,22,24,26,28,30,-1,32,34,36,-1,38,40,42,44,46,48,-1,-1,-1,-1,50,52,54,56,58,-1,60,-1,62,64,-1,-1,66,68,-1,70,72,74,-1,-1,-1,-1,-1,-1,-1,-1,-1,-1,-1,-1,-1,-1,-1,-1,-1,-1,-1,-1,-1,-1,-1,-1,-1,-1],"split_conditions":[-2.2243759E-1,-4.6987945E-1,1.8650466E-1,1.6E-1,3.5E0,8.9120924E-1,1.0918493E0,7.1999994E-3,-4.425213E-2,3.2189682E-2,1.0790293E0,-6.468032E-2,2E-2,-4.3854836E-1,1.16856985E-1,-1.6555056E-1,4.22069E-2,4.135897E-2,6.471327E-1,-9.232111E-2,-2.0322582E-2,5.9898407E-3,4.431031E-1,9.417861E-1,2E0,-1.6928834E-1,5.9632206E-1,-7.6634543E-10,-2.1272728E-2,2.88E-2,-7.6634543E-10,-1.0310088E-1,-8.0192477E-1,8.725855E-2,6.208492E-1,5.9546256E-1,-1.7027028E-2,-2E-2,-1.2857144E-2,-3.9050862E-1,9.455983E-2,-1.8000001E-2,7.1999994E-3,1.1505644E0,3.14028E-2,-1.2857144E-2,7.3242195E-2,4.4951838E-1,1E0,-4.390245E-3,-2.110048E-2,-1.0728837E-9,-1.6211182E-2,-2.0642202E-2,-9.753487E-10,2.88E-2,-1.2857144E-2,3.5121948E-2,7.826086E-3,-6.2068976E-3,3.1846937E-2,-1.5517242E-2,2.9708736E-2,4.005124E-2,5.999999E-3,2.4686825E-2,-8.181819E-3,-1.6363636E-2,1.4210525E-2,3.4838706E-2,1.1886791E-2,7.1999994E-3,2.88E-2,-8.709678E-3,1.2413792E-2],"split_indices":[88,6,195,116,52,0,109,0,3,152,79,41,135,54,224,3,0,165,54,81,0,2,155,10,67,9,221,0,0,0,0,119,4,10,1,10,0,146,0,90,156,0,0,140,162,0,97,3,58,0,0,0,0,0,0,0,0,0,0,0,0,0,0,0,0,0,0,0,0,0,0,0,0,0,0],"split_type":[0,0,0,0,0,0,0,0,0,0,0,0,0,0,0,0,0,0,0,0,0,0,0,0,0,0,0,0,0,0,0,0,0,0,0,0,0,0,0,0,0,0,0,0,0,0,0,0,0,0,0,0,0,0,0,0,0,0,0,0,0,0,0,0,0,0,0,0,0,0,0,0,0,0,0],"sum_hessian":[1.5062222E3,5.706666E2,9.355555E2,1.9999998E1,5.506666E2,8.8622217E2,4.9333332E1,1.7777777E0,1.8222221E1,5.2799994E2,2.2666666E1,7.164444E2,1.6977777E2,3.0666664E1,1.8666666E1,3.111111E0,1.5111111E1,5.1111108E2,1.6888887E1,1.3333332E1,9.333333E0,3.9599997E2,3.2044443E2,5.7777777E0,1.6399998E2,1.5555554E1,1.5111111E1,1.3333333E0,1.7333332E1,1.7777777E0,1.3333333E0,4.902222E2,2.0888887E1,1.3777777E1,3.111111E0,1.0222221E1,3.111111E0,3.9466666E2,1.3333333E0,3.5555553E1,2.848889E2,3.9999998E0,1.7777777E0,1.5599998E2,7.9999995E0,1.3333333E0,1.4222221E1,3.5555553E0,1.1555555E1,3.5555553E0,4.8666663E2,3.9999998E0,1.6888887E1,1.1111111E1,2.6666665E0,1.7777777E0,1.3333333E0,3.5555553E0,6.666666E0,2.222222E0,3.9244443E2,2.222222E0,3.3333332E1,2.808889E2,3.9999998E0,1.5333333E2,2.6666665E0,2.6666665E0,5.333333E0,9.333333E0,4.8888884E0,1.7777777E0,1.7777777E0,9.333333E0,2.222222E0],"tree_param":{"num_deleted":"0","num_feature":"231","num_nodes":"75","size_leaf_vector":"1"}},{"base_weights":[-2.2145931E-1,2.75896E-1,-5.401944E-1,-6.574099E-1,3.0886418E-1,-6.052145E-1,-3.802064E-1,-2.1112593E-2,1.377495E-4,1.4838503E-1,3.910356E-1,-6.105279E-1,2.0387083E-1,-4.246545E-1,-1.4724297E-4,-2.8481355E-1,1.9373134E-1,2.2705832E-1,4.8939493E-1,-1.5411152E-1,-6.1532336E-1,2.190448E-2,-1.4370681E-2,-4.7431144E-1,-1.1675379E-1,-3.457984E-1,3.1444228E-1,6.0909722E-2,-2.0015772E-2,-1.4459227E-1,2.6374653E-1,-1.9025156E-2,3.511482E-1,3.9155143E-1,7.126623E-1,5.56886E-1,-1.8164126E-2,-6.1907595E-1,-1.0321812E-1,4.054247E-1,-4.898104E-1,-2.9684156E-1,3.9725438E-1,4.5336764E-2,-1.9596562E-2,-3.233044E-1,4.9739322E-1,-1.2011148E-2,1.176273E-2,1.5900807E-2,-9.670051E-3,2.188503E-2,5.737377E-3,9.733574E-3,-8.146665E-3,3.5851644E-3,1.792696E-2,6.6110846E-3,1.5438759E-2,2.9043958E-2,1.0524536E-2,2.30333E-4,2.597144E-2,-1.7666914E-2,-2.0689415E-2,1.3144851E-2,-1.0746255E-2,-8.48557E-6,1.8010356E-2,1.2857426E-2,-1.4940542E-2,-1.7310904E-2,4.7713686E-3,-4.4856328E-3,3.4160417E-2,-1.1973258E-2,2.1561107E-2,9.8668555E-5,-1.4416657E-2,6.9682617E-3,3.2239527E-2],"categories":[],"categories_nodes":[],"categories_segments":[],"categories_sizes":[],"default_left":[0,0,0,0,0,0,0,0,0,0,0,0,0,0,0,0,0,0,0,0,0,0,0,0,0,0,0,0,0,0,0,0,0,0,0,0,0,0,0,0,0,0,0,0,0,0,0,0,0,0,0,0,0,0,0,0,0,0,0,0,0,0,0,0,0,0,0,0,0,0,0,0,0,0,0,0,0,0,0,0,0],"id":3,"left_children":[1,3,5,7,9,11,13,-1,-1,15,17,19,21,23,25,27,29,31,33,35,37,-1,-1,39,41,43,45,47,-1,49,51,53,55,57,59,61,-1,63,65,67,69,71,73,75,-1,77,79,-1,-1,-1,-1,-1,-1,-1,-1,-1,-1,-1,-1,-1,-1,-1,-1,-1,-1,-1,-1,-1,-1,-1,-1,-1,-1,-1,-1,-1,-1,-1,-1,-1,-1],"loss_changes":[2.383566E2,1.828141E1,9.299652E0,6.280432E-1,7.4344177E0,2.917511E0,4.5173798E0,0E0,0E0,3.8664927E0,5.939686E0,1.3184509E0,2.1425807E0,3.6051445E0,3.2621648E0,2.5246124E0,4.2126307E0,4.3589077E0,4.824711E0,2.9198785E0,1.1634216E0,0E0,0E0,3.0052109E0,3.3185177E0,1.7483896E0,1.9933307E0,1.8044713E0,0E0,3.871574E0,4.802931E0,4.3145432E0,5.3398066E0,3.3557205E0,6.1283264E0,6.117592E-1,0E0,9.437561E-1,9.6397287E-1,3.2525337E-1,1.7415848E0,3.435538E0,3.980421E0,2.4493065E0,0E0,2.1251777E-1,1.6785145E0,0E0,0E0,0E0,0E0,0E0,0E0,0E0,0E0,0E0,0E0,0E0,0E0,0E0,0E0,0E0,0E0,0E0,0E0,0E0,0E0,0E0,0E0,0E0,0E0,0E0,0E0,0E0,0E0,0E0,0E0,0E0,0E0,0E0,0E0],"parents":[2147483647,0,0,1,1,2,2,3,3,4,4,5,5,6,6,9,9,10,10,11,11,12,12,13,13,14,14,15,15,16,16,17,17,18,18,19,19,20,20,23,23,24,24,25,25,26,26,27,27,29,29,30,30,31,31,32,32,33,33,34,34,35,35,37,37,38,38,39,39,40,40,41,41,42,42,43,43,45,45,46,46],"right_children":[2,4,6,8,10,12,14,-1,-1,16,18,20,22,24,26,28,30,32,34,36,38,-1,-1,40,42,44,46,48,-1,50,52,54,56,58,60,62,-1,64,66,68,70,72,74,76,-1,78,80,-1,-1,-1,-1,-1,-1,-1,-1,-1,-1,-1,-1,-1,-1,-1,-1,-1,-1,-1,-1,-1,-1,-1,-1,-1,-1,-1,-1,-1,-1,-1,-1,-1,-1],"split_conditions":[-2.2243759E-1,-3.8004482E-1,6.816057E-1,-4.7200865E-1,-2.4517555E-2,4.8989794E-1,1.6668699E0,-2.1112593E-2,1.377495E-4,7.411652E-3,5.1767313E-1,-9.896665E-1,-6.276055E-2,1E0,4.5122057E-1,1.015E0,-3.1293154E-1,5.0529844E-1,1.8073478E-1,1.3066511E-2,3.894497E-2,2.190448E-2,-1.4370681E-2,-2.1192293E0,3.6660606E-1,5.1747598E-2,2.9732138E-1,0E0,-2.0015772E-2,-8.2736194E-1,-2.5387332E-1,3.4256053E-1,4.935585E-1,3.2397628E-2,-4.8794672E-1,4.364894E-2,-1.8164126E-2,3.958115E-1,-6.816915E-1,1.1209894E0,-7.25162E-1,4.0494124E-3,3.1387217E-2,5E-1,-1.9596562E-2,9.1264886E-1,1.2408507E-1,-1.2011148E-2,1.176273E-2,1.5900807E-2,-9.670051E-3,2.188503E-2,5.737377E-3,9.733574E-3,-8.146665E-3,3.5851644E-3,1.792696E-2,6.6110846E-3,1.5438759E-2,2.9043958E-2,1.0524536E-2,2.30333E-4,2.597144E-2,-1.7666914E-2,-2.0689415E-2,1.3144851E-2,-1.0746255E-2,-8.48557E-6,1.8010356E-2,1.2857426E-2,-1.4940542E-2,-1.7310904E-2,4.7713686E-3,-4.4856328E-3,3.4160417E-2,-1.1973258E-2,2.1561107E-2,9.8668555E-5,-1.4416657E-2,6.9682617E-3,3.2239527E-2],"split_indices":[88,65,77,6,77,211,208,0,0,160,155,4,81,38,207,144,54,208,1,88,152,0,0,3,179,4,206,69,0,54,81,154,203,188,8,3,0,61,1,4,63,90,170,69,0,164,156,0,0,0,0,0,0,0,0,0,0,0,0,0,0,0,0,0,0,0,0,0,0,0,0,0,0,0,0,0,0,0,0,0,0],"split_type":[0,0,0,0,0,0,0,0,0,0,0,0,0,0,0,0,0,0,0,0,0,0,0,0,0,0,0,0,0,0,0,0,0,0,0,0,0,0,0,0,0,0,0,0,0,0,0,0,0,0,0,0,0,0,0,0,0,0,0,0,0,0,0,0,0,0,0,0,0,0,0,0,0,0,0,0,0,0,0,0,0],"sum_hessian":[1.5016539E3,5.865436E2,9.151103E2,1.9365961E1,5.671776E2,6.4869415E2,2.6641617E2,1.8040009E1,1.3259525E0,1.9301973E2,3.741579E2,6.447057E2,3.9884858E0,2.3841594E2,2.8000208E1,1.7789898E1,1.7522983E2,1.4152559E2,2.3263231E2,7.047916E0,6.376577E2,2.2134612E0,1.7750247E0,2.048398E2,3.357615E1,1.3294188E1,1.4706021E1,9.784274E0,8.005625E0,2.9862885E1,1.4536694E2,4.772617E1,9.3799416E1,1.6366318E2,6.896914E1,2.6460173E0,4.401899E0,6.3281177E2,4.8459916E0,3.1107807E0,2.0172902E2,2.5177471E1,8.398676E0,6.2256866E0,7.0685015E0,3.107267E0,1.1598754E1,4.001675E0,5.7825985E0,5.813994E0,2.404889E1,1.8359688E1,1.2700726E2,2.0101048E1,2.7625124E1,4.911457E1,4.4684845E1,6.962004E1,9.404314E1,3.944477E1,2.9524368E1,1.3212398E0,1.3247775E0,4.4980377E2,1.8300798E2,1.321634E0,3.5243576E0,1.3335916E0,1.7771891E0,1.333212E0,2.0039581E2,1.5429041E1,9.74843E0,5.293351E0,3.105325E0,3.995688E0,2.2299984E0,1.3280766E0,1.7791903E0,8.909332E0,2.6894221E0],"tree_param":{"num_deleted":"0","num_feature":"231","num_nodes":"81","size_leaf_vector":"1"}},{"base_weights":[-1.7869633E-1,3.4187725E-1,-4.545115E-1,3.804397E-1,4.996963E-2,-5.0578076E-1,1.6221736E-1,7.306123E-1,3.3800983E-1,1.5035371E-1,-4.1727436E-1,-5.309895E-1,-1.7813681E-1,-2.7084062E-1,3.876575E-1,7.72186E-1,-1.2887488E-2,2.7911028E-1,5.7929534E-1,5.7495376E-3,4.6868005E-1,1.2248903E-2,-2.0015633E-2,-5.384615E-1,2.2124313E-1,-3.024432E-1,2.2960046E-1,5.872326E-1,-4.492185E-1,7.450514E-1,1.7640409E-1,-6.3256472E-3,8.2519794E-1,5.9943255E-2,3.5200205E-1,1.24001205E-1,6.996703E-1,2.7279133E-1,-2.7481508E-1,-5.265789E-2,7.648742E-1,-5.77675E-1,-4.0569463E-1,6.671881E-1,-3.6320797E-1,1.243443E-2,-3.4329027E-1,9.81258E-1,-2.8736722E-1,2.8357126E-2,2.897407E-3,-4.7058597E-2,-5.835991E-1,8.877062E-1,-6.1941897E-3,3.2435413E-2,6.1153464E-2,2.9896079E-2,1.1093905E-2,7.481002E-3,-5.0497567E-3,1.8881798E-2,7.6536196E-3,1.5893824E-2,-1.0094613E-2,1.4625579E-2,2.9251812E-2,-1.279769E-2,1.0451071E-2,8.822586E-3,-1.29328435E-2,2.541795E-2,-1.2895174E-2,2.8891595E-2,-3.6656759E-3,-1.7596466E-2,3.3949506E-3,-1.5226162E-2,-5.2724425E-3,2.6468715E-2,1.4987261E-5,1.389393E-4,-1.548586E-2,2.8065383E-3,-1.2562033E-2,-1.1498907E-4,3.6727313E-2,-1.5933076E-2,1.239269E-2,-1.1982221E-2,1.816399E-2,-1.9011451E-2,5.8328907E-5,-2.7001067E-4,2.907905E-2,-1.1628446E-2,8.347688E-3],"categories":[],"categories_nodes":[],"categories_segments":[],"categories_sizes":[],"default_left":[0,0,0,0,0,0,0,0,0,0,0,0,0,0,0,0,0,0,0,0,0,0,0,0,0,0,0,0,0,0,0,0,0,0,0,0,0,0,0,0,0,0,0,0,0,0,0,0,0,0,0,0,0,0,0,0,0,0,0,0,0,0,0,0,0,0,0,0,0,0,0,0,0,0,0,0,0,0,0,0,0,0,0,0,0,0,0,0,0,0,0,0,0,0,0,0,0],"id":4,"left_children":[1,3,5,7,9,11,13,15,17,19,21,23,25,27,29,31,-1,33,35,37,39,-1,-1,41,43,45,47,49,51,53,55,-1,57,59,61,63,65,67,69,71,73,75,77,79,81,-1,83,85,87,-1,-1,89,91,93,-1,-1,95,-1,-1,-1,-1,-1,-1,-1,-1,-1,-1,-1,-1,-1,-1,-1,-1,-1,-1,-1,-1,-1,-1,-1,-1,-1,-1,-1,-1,-1,-1,-1,-1,-1,-1,-1,-1,-1,-1,-1,-1],"loss_changes":[2.1624542E2,5.854702E0,3.1201538E1,6.598892E0,2.972642E0,7.4124756E0,7.5535455E0,2.6920204E0,5.705208E0,2.3818762E0,2.5907412E0,4.85997E0,3.4368625E0,4.3518476E0,3.68786E0,2.654541E0,0E0,5.310768E0,4.3015976E0,2.8196802E0,2.5370803E0,0E0,0E0,4.1152344E0,2.589216E0,1.6459694E0,6.5347605E0,7.922741E-1,1.1981382E0,2.692109E0,3.3857875E0,0E0,3.1713905E0,3.6958368E0,6.564659E0,3.5340562E0,3.2119236E0,1.1672395E0,1.7593776E0,2.6702127E0,1.9416528E0,4.0058136E0,4.450571E0,7.8255415E-1,2.5813657E-1,0E0,1.658257E0,1.6284685E0,1.9791536E0,0E0,0E0,1.7978343E0,4.9748087E-1,1.1985416E0,0E0,0E0,3.0719526E0,0E0,0E0,0E0,0E0,0E0,0E0,0E0,0E0,0E0,0E0,0E0,0E0,0E0,0E0,0E0,0E0,0E0,0E0,0E0,0E0,0E0,0E0,0E0,0E0,0E0,0E0,0E0,0E0,0E0,0E0,0E0,0E0,0E0,0E0,0E0,0E0,0E0,0E0,0E0,0E0],"parents":[2147483647,0,0,1,1,2,2,3,3,4,4,5,5,6,6,7,7,8,8,9,9,10,10,11,11,12,12,13,13,14,14,15,15,17,17,18,18,19,19,20,20,23,23,24,24,25,25,26,26,27,27,28,28,29,29,30,30,32,32,33,33,34,34,35,35,36,36,37,37,38,38,39,39,40,40,41,41,42,42,43,43,44,44,46,46,47,47,48,48,51,51,52,52,53,53,56,56],"right_children":[2,4,6,8,10,12,14,16,18,20,22,24,26,28,30,32,-1,34,36,38,40,-1,-1,42,44,46,48,50,52,54,56,-1,58,60,62,64,66,68,70,72,74,76,78,80,82,-1,84,86,88,-1,-1,90,92,94,-1,-1,96,-1,-1,-1,-1,-1,-1,-1,-1,-1,-1,-1,-1,-1,-1,-1,-1,-1,-1,-1,-1,-1,-1,-1,-1,-1,-1,-1,-1,-1,-1,-1,-1,-1,-1,-1,-1,-1,-1,-1,-1],"split_conditions":[-2.8183547E-1,2.3687793E-1,1.4110632E0,1.796408E-2,1.565302E-1,1.5011512E-1,1.6E-1,1.0742428E0,1.24331325E-1,7.8863615E-1,4E-1,3E0,6.0060537E-1,2.7907979E-2,2.3165697E-2,-1.2068951E0,-1.2887488E-2,-3.2703906E-1,9.37983E-2,5E-1,-4.837992E-1,1.2248903E-2,-2.0015633E-2,9.112119E-3,4.9638695E-1,-2.3675454E0,8.6972064E-1,1.1907047E-1,5.003993E-2,1.095945E0,-9.1422385E-1,-6.3256472E-3,8.708031E-1,-3.3333334E-1,-1.9591679E-1,7.484367E-2,3.8690273E-2,6.963476E-1,5.146825E-1,-6.004821E-1,3.791989E-1,8.9997816E-1,1.4E-1,8.85E-1,-1.3631213E-1,1.243443E-2,1.5272701E-1,5.880695E-1,5.8898073E-1,2.8357126E-2,2.897407E-3,4.8911717E-2,7.42332E-1,7.416367E-1,-6.1941897E-3,3.2435413E-2,-3.5389864E-1,2.9896079E-2,1.1093905E-2,7.481002E-3,-5.0497567E-3,1.8881798E-2,7.6536196E-3,1.5893824E-2,-1.0094613E-2,1.4625579E-2,2.9251812E-2,-1.279769E-2,1.0451071E-2,8.822586E-3,-1.29328435E-2,2.541795E-2,-1.2895174E-2,2.8891595E-2,-3.6656759E-3,-1.7596466E-2,3.3949506E-3,-1.5226162E-2,-5.2724425E-3,2.6468715E-2,1.4987261E-5,1.389393E-4,-1.548586E-2,2.8065383E-3,-1.2562033E-2,-1.1498907E-4,3.6727313E-2,-1.5933076E-2,1.239269E-2,-1.1982221E-2,1.816399E-2,-1.9011451E-2,5.8328907E-5,-2.7001067E-4,2.907905E-2,-1.1628446E-2,8.347688E-3],"split_indices":[85,201,109,171,1,216,130,42,201,64,125,67,3,163,175,54,0,10,217,67,10,0,0,92,202,131,66,224,156,1,10,0,1,147,54,217,10,223,138,1,10,105,134,144,3,0,217,63,78,0,0,156,80,221,0,0,10,0,0,0,0,0,0,0,0,0,0,0,0,0,0,0,0,0,0,0,0,0,0,0,0,0,0,0,0,0,0,0,0,0,0,0,0,0,0,0,0],"split_type":[0,0,0,0,0,0,0,0,0,0,0,0,0,0,0,0,0,0,0,0,0,0,0,0,0,0,0,0,0,0,0,0,0,0,0,0,0,0,0,0,0,0,0,0,0,0,0,0,0,0,0,0,0,0,0,0,0,0,0,0,0,0,0,0,0,0,0,0,0,0,0,0,0,0,0,0,0,0,0,0,0,0,0,0,0,0,0,0,0,0,0,0,0,0,0,0,0],"sum_hessian":[1.503993E3,5.2079846E2,9.831946E2,4.597587E2,6.103974E1,9.0789984E2,7.529474E1,4.7934803E1,4.118239E2,5.0803234E1,1.0236506E1,8.4246075E2,6.543907E1,2.5708588E1,4.958615E1,4.6599422E1,1.3353791E0,3.3275317E2,7.9070724E1,3.5634037E1,1.5169197E1,2.231419E0,8.005087E0,8.344562E2,8.004569E0,5.0347828E1,1.5091246E1,4.030089E0,2.16785E1,1.748262E1,3.210353E1,2.232013E0,4.436741E1,8.350305E1,2.4925012E2,1.695855E1,6.2112175E1,1.8271194E1,1.7362843E1,5.793735E0,9.375462E0,6.4160394E2,1.9285228E2,4.4599767E0,3.5445926E0,2.22089E0,4.8126938E1,5.783738E0,9.3075075E0,1.7943487E0,2.2357402E0,5.767706E0,1.5910793E1,1.5261631E1,2.2209902E0,2.6803432E0,2.9423187E1,3.1374826E1,1.2992582E1,4.558387E1,3.7919178E1,6.3096214E1,1.8615392E2,8.934636E0,8.023912E0,3.6649197E1,2.546298E1,1.3289515E0,1.6942244E1,3.5517387E0,1.3811104E1,1.343042E0,4.4506927E0,7.593364E0,1.7820983E0,6.33616E2,7.98787E0,1.3281906E2,6.0033222E1,3.127514E0,1.3324628E0,1.3260343E0,2.2185583E0,7.052293E0,4.1074646E1,1.339101E0,4.4446373E0,7.0842166E0,2.223291E0,3.9972084E0,1.7704977E0,1.4580589E1,1.330204E0,1.347105E0,1.3914526E1,9.337158E0,2.008603E1],"tree_param":{"num_deleted":"0","num_feature":"231","num_nodes":"97","size_leaf_vector":"1"}},{"base_weights":[3.846884E-1,-5.827203E-1,9.8656803E-1,1.2165266E0,-6.423782E-1,1.0410556E0,6.68372E-2,-2.3151144E-4,1.3098376E0,-6.784765E-1,-1.324496E-1,1.1100849E0,7.3631305E-1,-5.8810776E-1,5.776165E-1,4.074852E-2,1.2440934E-2,-6.8333447E-1,-2.8052264E-1,1.3035226E-1,-6.1650914E-1,1.0449893E0,1.2701769E0,-4.247059E-1,7.706469E-1,-6.6639555E-1,1.2433555E-2,9.0263855E-1,7.1808085E-2,-6.851137E-1,3.1992025E-4,-1.8216392E-2,2.8087342E-1,-3.689201E-1,4.1277075E-1,-2.0489402E-2,1.0862557E-4,6.5545565E-1,1.0693386E0,-1.4343225E-2,1.287923E0,-1.6933871E-2,1.13986294E-4,8.0548054E-1,-2.8639615E-1,1.3462578E-4,-2.125387E-2,-2.2978851E-4,9.743856E-1,-1.70557E-1,6.3449E-1,2.6242947E-4,-2.0606926E-2,9.0503985E-5,1.3158436E-2,7.986649E-3,-1.927889E-2,3.7926994E-2,-2.5486397E-3,2.5753077E-2,-9.765286E-3,3.2595165E-2,1.7757846E-2,6.598791E-3,3.8894817E-2,2.5762107E-2,9.191011E-3,-1.7037129E-2,6.921975E-3,-1.0892558E-4,3.171926E-2,3.5307037E-3,-1.2851228E-2,-1.7264453E-4,2.8317165E-2],"categories":[],"categories_nodes":[],"categories_segments":[],"categories_sizes":[],"default_left":[0,0,0,0,0,0,0,0,0,0,0,0,0,0,0,0,0,0,0,0,0,0,0,0,0,0,0,0,0,0,0,0,0,0,0,0,0,0,0,0,0,0,0,0,0,0,0,0,0,0,0,0,0,0,0,0,0,0,0,0,0,0,0,0,0,0,0,0,0,0,0,0,0,0,0],"id":5,"left_children":[1,3,5,7,9,11,13,-1,15,17,19,21,23,25,27,-1,-1,29,31,33,35,37,39,41,43,45,-1,47,49,51,-1,-1,53,55,57,-1,-1,59,61,-1,63,-1,-1,65,67,-1,-1,-1,69,71,73,-1,-1,-1,-1,-1,-1,-1,-1,-1,-1,-1,-1,-1,-1,-1,-1,-1,-1,-1,-1,-1,-1,-1,-1],"loss_changes":[8.855627E2,6.3421402E1,4.6904114E1,2.189043E0,1.031955E1,1.7796387E1,1.8235004E1,0E0,2.0557213E-1,8.2881165E-1,4.9942946E0,6.170288E0,6.959839E0,2.1547613E0,4.959053E0,0E0,0E0,6.5037537E-1,1.6492503E0,3.7988076E0,5.6994724E-1,4.2039795E0,6.924286E0,3.2695556E-1,6.1942444E0,6.4055157E-1,0E0,1.2168865E0,1.8866985E0,6.489868E-1,0E0,0E0,1.5863773E-1,1.8871859E0,7.3075523E0,0E0,0E0,6.8516016E0,3.3327637E0,0E0,1.559845E0,0E0,0E0,3.9116516E0,9.906169E-1,0E0,0E0,0E0,1.396553E0,7.8637046E-1,8.251755E-1,0E0,0E0,0E0,0E0,0E0,0E0,0E0,0E0,0E0,0E0,0E0,0E0,0E0,0E0,0E0,0E0,0E0,0E0,0E0,0E0,0E0,0E0,0E0,0E0],"parents":[2147483647,0,0,1,1,2,2,3,3,4,4,5,5,6,6,8,8,9,9,10,10,11,11,12,12,13,13,14,14,17,17,18,18,19,19,20,20,21,21,22,22,23,23,24,24,25,25,27,27,28,28,29,29,32,32,33,33,34,34,37,37,38,38,40,40,43,43,44,44,48,48,49,49,50,50],"right_children":[2,4,6,8,10,12,14,-1,16,18,20,22,24,26,28,-1,-1,30,32,34,36,38,40,42,44,46,-1,48,50,52,-1,-1,54,56,58,-1,-1,60,62,-1,64,-1,-1,66,68,-1,-1,-1,70,72,74,-1,-1,-1,-1,-1,-1,-1,-1,-1,-1,-1,-1,-1,-1,-1,-1,-1,-1,-1,-1,-1,-1,-1,-1],"split_conditions":[-2.2243759E-1,-4.6987945E-1,1.8261099E-1,5.5090766E-2,7E-1,9.154494E-1,-8.313312E-2,-2.3151144E-4,8.429709E-1,4E-1,1.1147399E-1,4.2247885E-1,2E-2,5.5844545E-1,5.528048E-1,4.074852E-2,1.2440934E-2,8.991601E-1,5E-1,0E0,1.3004415E0,5.193329E-3,4.160413E-1,1E0,2E0,1.1590226E-1,1.2433555E-2,-8.3167577E-1,4.48119E-1,-4.402901E0,3.1992025E-4,-1.8216392E-2,1.1560177E0,3.66421E-1,5E-1,-2.0489402E-2,1.0862557E-4,4.2461395E-1,3.6E-1,-1.4343225E-2,-1.1964936E-1,-1.6933871E-2,1.13986294E-4,1.1474274E0,-1.0100156E-1,1.3462578E-4,-2.125387E-2,-2.2978851E-4,-6.2463075E-1,2.0913408E0,2.1574333E0,2.6242947E-4,-2.0606926E-2,9.0503985E-5,1.3158436E-2,7.986649E-3,-1.927889E-2,3.7926994E-2,-2.5486397E-3,2.5753077E-2,-9.765286E-3,3.2595165E-2,1.7757846E-2,6.598791E-3,3.8894817E-2,2.5762107E-2,9.191011E-3,-1.7037129E-2,6.921975E-3,-1.0892558E-4,3.171926E-2,3.5307037E-3,-1.2851228E-2,-1.7264453E-4,2.8317165E-2],"split_indices":[88,6,198,217,125,0,86,0,221,134,198,66,135,13,3,0,0,224,69,69,0,165,155,69,67,224,0,4,119,54,0,0,3,13,69,0,0,157,134,0,9,0,0,120,80,0,0,0,63,0,0,0,0,0,0,0,0,0,0,0,0,0,0,0,0,0,0,0,0,0,0,0,0,0,0],"split_type":[0,0,0,0,0,0,0,0,0,0,0,0,0,0,0,0,0,0,0,0,0,0,0,0,0,0,0,0,0,0,0,0,0,0,0,0,0,0,0,0,0,0,0,0,0,0,0,0,0,0,0,0,0,0,0,0,0,0,0,0,0,0,0,0,0,0,0,0,0,0,0,0,0,0,0],"sum_hessian":[1.5189093E3,5.8256964E2,9.3633966E2,1.8074093E1,5.6449554E2,8.838461E2,5.2493492E1,1.344996E0,1.6729097E1,5.2686755E2,3.7627964E1,7.1845996E2,1.6538618E2,2.2934464E1,2.9559029E1,1.5379341E1,1.3497553E0,5.19805E2,7.0625863E0,2.4861216E1,1.2766748E1,5.1612427E2,2.0233571E2,4.423783E0,1.609624E2,2.1584297E1,1.350167E0,1.7517864E1,1.2041164E1,5.184885E2,1.316458E0,4.412961E0,2.6496253E0,8.871493E0,1.5989721E1,1.143924E1,1.3275071E0,3.200666E1,4.841176E2,1.7725132E0,2.005632E2,3.0965614E0,1.3272215E0,1.560577E2,4.9047065E0,1.3262677E0,2.025803E1,1.3450933E0,1.6172771E1,8.903171E0,3.1379943E0,1.31953E0,5.17169E2,1.3285488E0,1.3210765E0,2.6799772E0,6.191516E0,5.3306017E0,1.0659121E1,2.6622805E1,5.383856E0,4.6608206E2,1.8035551E1,1.8090847E0,1.987541E2,1.4036044E2,1.5697255E1,3.112289E0,1.7924173E0,1.3388015E0,1.4833969E1,4.46013E0,4.44304E0,1.342169E0,1.7958252E0],"tree_param":{"num_deleted":"0","num_feature":"231","num_nodes":"75","size_leaf_vector":"1"}},{"base_weights":[-2.0825548E-1,2.835061E-1,-5.2296996E-1,-4.6342462E-1,3.2036123E-1,-5.783436E-1,-3.520705E-1,-5.5852056E-1,1.7603325E-2,1.2746201E-1,3.9867824E-1,-3.823389E-1,-6.0446924E-1,1.11881375E-1,-4.115416E-1,1.251794E-2,-6.2876946E-1,1.7348097E-1,-2.0105338E-2,3.600091E-1,7.3341167E-1,1.793577E-2,-4.1108018E-1,-6.1020315E-1,2.0642121E-1,6.518265E-1,-1.6160803E-1,-5.7639813E-1,-3.032229E-1,-2.1159707E-2,2.8504706E-3,5.844979E-1,1.1157718E-1,2.7022162E-1,5.3086996E-1,1.0576587E-1,8.1019205E-1,1.283752E-2,-4.39723E-1,1.3114026E-2,-6.13253E-1,-1.4132787E-2,2.160857E-2,-1.2810453E-2,8.9263684E-1,-3.5415703E-1,4.8661578E-1,-5.981602E-1,3.733696E-3,-3.8097912E-1,-1.4016754E-2,4.2594695E-3,3.014132E-2,1.5984302E-2,1.7134118E-3,9.225304E-3,-1.3242292E-2,2.1688983E-2,7.958497E-3,-1.5741404E-2,2.1068504E-2,4.1932384E-3,2.6150024E-2,-1.4168379E-2,4.509069E-4,-1.848736E-2,7.773594E-3,3.2502297E-2,-2.2882123E-4,-1.5471392E-2,8.149503E-3,2.6818314E-3,2.480956E-2,-2.0915333E-2,-1.3835186E-2,4.462399E-3,-1.3529124E-2,-8.181677E-3,1.4935927E-2],"categories":[],"categories_nodes":[],"categories_segments":[],"categories_sizes":[],"default_left":[0,0,0,0,0,0,0,0,0,0,0,0,0,0,0,0,0,0,0,0,0,0,0,0,0,0,0,0,0,0,0,0,0,0,0,0,0,0,0,0,0,0,0,0,0,0,0,0,0,0,0,0,0,0,0,0,0,0,0,0,0,0,0,0,0,0,0,0,0,0,0,0,0,0,0,0,0,0,0],"id":6,"left_children":[1,3,5,7,9,11,13,15,-1,17,19,21,23,25,27,-1,29,31,-1,33,35,-1,37,39,41,43,45,47,49,-1,-1,51,53,55,57,59,61,-1,63,-1,65,-1,-1,-1,67,69,71,73,-1,75,77,-1,-1,-1,-1,-1,-1,-1,-1,-1,-1,-1,-1,-1,-1,-1,-1,-1,-1,-1,-1,-1,-1,-1,-1,-1,-1,-1,-1],"loss_changes":[2.308317E2,1.6178432E1,8.400742E0,3.1031222E0,8.341587E0,3.2774963E0,6.255953E0,2.0442638E0,0E0,6.0584364E0,4.8440857E0,2.5927067E0,2.9290009E0,3.9975996E0,3.3913841E0,0E0,1.4327383E0,3.8491979E0,0E0,5.313896E0,1.8373184E0,0E0,2.1473532E0,2.181015E0,2.0731854E0,2.7350855E0,2.4561157E0,1.2652798E0,2.7522936E0,0E0,0E0,3.5581722E0,3.065453E0,6.3776627E0,6.007183E0,2.4368408E0,1.3373299E0,0E0,1.1815596E0,0E0,1.7195892E0,0E0,0E0,0E0,1.3360043E0,1.6248652E0,5.49567E-1,7.079735E-1,0E0,3.6489153E0,3.7142491E0,0E0,0E0,0E0,0E0,0E0,0E0,0E0,0E0,0E0,0E0,0E0,0E0,0E0,0E0,0E0,0E0,0E0,0E0,0E0,0E0,0E0,0E0,0E0,0E0,0E0,0E0,0E0,0E0],"parents":[2147483647,0,0,1,1,2,2,3,3,4,4,5,5,6,6,7,7,9,9,10,10,11,11,12,12,13,13,14,14,16,16,17,17,19,19,20,20,22,22,23,23,24,24,25,25,26,26,27,27,28,28,31,31,32,32,33,33,34,34,35,35,36,36,38,38,40,40,44,44,45,45,46,46,47,47,49,49,50,50],"right_children":[2,4,6,8,10,12,14,16,-1,18,20,22,24,26,28,-1,30,32,-1,34,36,-1,38,40,42,44,46,48,50,-1,-1,52,54,56,58,60,62,-1,64,-1,66,-1,-1,-1,68,70,72,74,-1,76,78,-1,-1,-1,-1,-1,-1,-1,-1,-1,-1,-1,-1,-1,-1,-1,-1,-1,-1,-1,-1,-1,-1,-1,-1,-1,-1,-1,-1],"split_conditions":[-2.2243759E-1,-1.3525159E-2,8.825506E-1,1.9475755E-1,-1.6673408E-1,8.326673E-17,-9.3089294E-1,1.1756795E-1,1.7603325E-2,-1.8452136E-1,1.0052173E0,3.7096602E-1,2.2031738E-1,-1.2434573E-1,-2.3639746E-1,1.251794E-2,1.2499388E0,-2.5788477E-1,-2.0105338E-2,2.7880734E-1,-1.7870007E0,1.793577E-2,-5.991795E-1,-9.896665E-1,2.846489E-1,1.05547905E-1,7.016728E-1,2.8074136E0,3.6982503E-2,-2.1159707E-2,2.8504706E-3,-1.828912E-1,1E-2,8E-1,7.2960013E-1,-5.2183956E-1,-1.0769848E0,1.283752E-2,5.312176E-1,1.3114026E-2,2.8324335E0,-1.4132787E-2,2.160857E-2,-1.2810453E-2,7.788371E-1,-6.1785106E-2,-1.0417747E-1,3.4268375E-2,3.733696E-3,4.187492E-1,1E0,4.2594695E-3,3.014132E-2,1.5984302E-2,1.7134118E-3,9.225304E-3,-1.3242292E-2,2.1688983E-2,7.958497E-3,-1.5741404E-2,2.1068504E-2,4.1932384E-3,2.6150024E-2,-1.4168379E-2,4.509069E-4,-1.848736E-2,7.773594E-3,3.2502297E-2,-2.2882123E-4,-1.5471392E-2,8.149503E-3,2.6818314E-3,2.480956E-2,-2.0915333E-2,-1.3835186E-2,4.462399E-3,-1.3529124E-2,-8.181677E-3,1.4935927E-2],"split_indices":[88,83,77,90,0,189,131,224,0,0,112,158,199,8,1,0,1,81,0,1,131,0,0,4,206,194,6,0,90,0,0,54,130,126,54,54,1,0,149,0,4,0,0,0,155,8,9,160,0,155,38,0,0,0,0,0,0,0,0,0,0,0,0,0,0,0,0,0,0,0,0,0,0,0,0,0,0,0,0],"split_type":[0,0,0,0,0,0,0,0,0,0,0,0,0,0,0,0,0,0,0,0,0,0,0,0,0,0,0,0,0,0,0,0,0,0,0,0,0,0,0,0,0,0,0,0,0,0,0,0,0,0,0,0,0,0,0,0,0,0,0,0,0,0,0,0,0,0,0,0,0,0,0,0,0,0,0,0,0,0,0],"sum_hessian":[1.4895449E3,5.8130994E2,9.08235E2,2.67901E1,5.545199E2,6.8417084E2,2.2406413E2,2.499498E1,1.7951198E0,1.6088313E2,3.9363672E2,8.230714E1,6.018637E2,2.5357948E1,1.9870618E2,1.3468537E0,2.3648127E1,1.5284729E2,8.03585E0,3.5473273E2,3.8904E1,1.780576E0,8.0526566E1,5.978835E2,3.980214E0,8.060628E0,1.7297321E1,7.707698E1,1.21629196E2,2.14092E1,2.2389252E0,1.8902178E1,1.3394511E2,2.3422752E2,1.205052E2,4.499566E0,3.4404434E1,2.1981857E0,7.832838E1,1.3227006E0,5.965608E2,1.7526438E0,2.2275703E0,1.3298035E0,6.730825E0,1.3685744E1,3.6115766E0,7.489787E1,2.179114E0,9.56069E1,2.6022291E1,9.858411E0,9.043767E0,1.433008E1,1.1961503E2,2.23105E2,1.1122524E1,6.8928085E1,5.157712E1,2.246032E0,2.2535338E0,3.164775E0,3.1239658E1,7.305943E1,5.2689466E0,5.948141E2,1.7467148E0,5.3860435E0,1.344781E0,1.1017445E1,2.6682994E0,2.2492611E0,1.3623153E0,4.1100292E1,3.3797577E1,1.1026748E1,8.458016E1,1.7596298E1,8.425994E0],"tree_param":{"num_deleted":"0","num_feature":"231","num_nodes":"79","size_leaf_vector":"1"}},{"base_weights":[-1.8222533E-1,3.085482E-1,-4.543217E-1,4.6028534E-1,2.193689E-1,-4.9746105E-1,1.7182168E-1,4.1871914E-1,1.0840781E0,1.07773624E-1,4.0813786E-1,-5.370651E-1,-2.7816853E-1,-3.6175007E-1,4.139058E-1,6.7535967E-1,3.4529236E-1,3.901739E-2,2.577723E-1,2.4778003E-1,-6.6716366E-2,4.9884143E-1,1.7702441E-1,-3.6162058E-1,-5.843127E-1,1.8742648E-1,-3.2963967E-1,7.467052E-3,-4.330943E-1,7.754401E-1,1.4327629E-1,7.9492164E-1,2.1328451E-2,-3.9382422E-1,3.8294062E-1,-1.3046805E-2,2.519069E-2,3.5156292E-1,-1.11240394E-1,8.33016E-1,-1.19444795E-1,3.837942E-1,8.662014E-1,-2.3783655E-1,3.8524997E-1,-1.1641876E-1,-4.5211262E-1,-5.9616554E-1,-2.2088905E-1,-4.874638E-2,3.158929E-2,-3.58134E-1,5.2469426E-1,1.2419692E-2,-5.545092E-1,9.354419E-1,-1.4356251E-2,3.936286E-1,-5.2206725E-1,2.617976E-2,-6.589245E-3,1.4464612E-2,-1.6743165E-2,1.2571383E-2,-1.8971166E-2,1.0083006E-2,2.9880391E-2,1.7568928E-3,1.7194033E-2,1.39067415E-2,-8.098333E-3,6.722011E-3,3.2080684E-2,-5.0710775E-3,2.314244E-2,1.7035514E-2,4.287859E-3,2.932111E-2,-1.2892439E-2,4.539329E-3,-1.5834196E-2,1.5176015E-2,-6.0596196E-3,-6.5519456E-3,2.0829009E-2,-1.6227147E-2,-3.840298E-3,-1.8165767E-2,-8.780163E-3,-1.1326016E-2,7.3110666E-3,-1.818692E-2,9.869301E-3,-1.19023975E-2,9.642203E-3,-1.2647913E-2,3.13388E-2,-1.2603422E-2,8.5130595E-3,3.361605E-3,-2.0455854E-2,6.3858624E-3,3.0256854E-2,1.7150577E-2,-1.6370347E-2,-3.5097767E-4,-1.888245E-2],"categories":[],"categories_nodes":[],"categories_segments":[],"categories_sizes":[],"default_left":[0,0,0,0,0,0,0,0,0,0,0,0,0,0,0,0,0,0,0,0,0,0,0,0,0,0,0,0,0,0,0,0,0,0,0,0,0,0,0,0,0,0,0,0,0,0,0,0,0,0,0,0,0,0,0,0,0,0,0,0,0,0,0,0,0,0,0,0,0,0,0,0,0,0,0,0,0,0,0,0,0,0,0,0,0,0,0,0,0,0,0,0,0,0,0,0,0,0,0,0,0,0,0,0,0,0,0],"id":7,"left_children":[1,3,5,7,9,11,13,15,17,19,21,23,25,27,29,31,33,-1,35,37,39,41,43,45,47,49,51,-1,53,55,57,59,61,63,65,-1,-1,67,69,71,73,75,77,79,81,83,85,87,89,91,-1,93,95,97,99,101,-1,103,105,-1,-1,-1,-1,-1,-1,-1,-1,-1,-1,-1,-1,-1,-1,-1,-1,-1,-1,-1,-1,-1,-1,-1,-1,-1,-1,-1,-1,-1,-1,-1,-1,-1,-1,-1,-1,-1,-1,-1,-1,-1,-1,-1,-1,-1,-1,-1,-1],"loss_changes":[2.0208272E2,7.2058983E0,2.637497E1,4.7051353E0,7.160618E0,7.7607574E0,8.348962E0,3.3127403E0,1.7758656E0,5.3006363E0,2.5678444E0,6.174774E0,3.450427E0,9.941511E-1,4.206836E0,3.1746101E0,4.2790337E0,0E0,1.8554223E0,4.518508E0,4.705059E0,3.4901161E0,3.3105302E0,3.6323795E0,2.4757843E0,3.0590057E0,3.2963114E0,0E0,1.0119991E0,4.1928215E0,4.6138844E0,2.9109745E0,2.2278237E0,1.754894E0,3.733593E0,0E0,0E0,6.0365496E0,2.6537104E0,5.5190635E-1,4.2204223E0,3.0518818E0,3.4129696E0,1.5547873E0,1.8865254E0,3.9642856E0,3.4117203E0,1.4863434E0,1.5989928E0,2.8347747E0,0E0,3.3853617E0,2.667708E0,7.010717E-1,1.31781E0,6.77825E-1,0E0,3.6235178E0,4.1261053E-1,0E0,0E0,0E0,0E0,0E0,0E0,0E0,0E0,0E0,0E0,0E0,0E0,0E0,0E0,0E0,0E0,0E0,0E0,0E0,0E0,0E0,0E0,0E0,0E0,0E0,0E0,0E0,0E0,0E0,0E0,0E0,0E0,0E0,0E0,0E0,0E0,0E0,0E0,0E0,0E0,0E0,0E0,0E0,0E0,0E0,0E0,0E0,0E0],"parents":[2147483647,0,0,1,1,2,2,3,3,4,4,5,5,6,6,7,7,8,8,9,9,10,10,11,11,12,12,13,13,14,14,15,15,16,16,18,18,19,19,20,20,21,21,22,22,23,23,24,24,25,25,26,26,28,28,29,29,30,30,31,31,32,32,33,33,34,34,37,37,38,38,39,39,40,40,41,41,42,42,43,43,44,44,45,45,46,46,47,47,48,48,49,49,51,51,52,52,53,53,54,54,55,55,57,57,58,58],"right_children":[2,4,6,8,10,12,14,16,18,20,22,24,26,28,30,32,34,-1,36,38,40,42,44,46,48,50,52,-1,54,56,58,60,62,64,66,-1,-1,68,70,72,74,76,78,80,82,84,86,88,90,92,-1,94,96,98,100,102,-1,104,106,-1,-1,-1,-1,-1,-1,-1,-1,-1,-1,-1,-1,-1,-1,-1,-1,-1,-1,-1,-1,-1,-1,-1,-1,-1,-1,-1,-1,-1,-1,-1,-1,-1,-1,-1,-1,-1,-1,-1,-1,-1,-1,-1,-1,-1,-1,-1,-1],"split_conditions":[-2.5761256E-1,-1.9465394E-2,1.1229645E0,9.993904E0,4.6861497E-1,1.2637691E0,7.213493E-2,1.954049E-2,6.094422E-2,-9.791807E-2,2.910108E-1,-4.4929487E-1,-2.0274023E-2,3.689068E-1,6.7375326E-1,4.9339224E-2,-3.3598495E-1,3.901739E-2,5.6844793E-2,1E0,-8.252819E-1,1.0643509E-1,3.288437E-1,8.978808E-3,2.1101859E-1,7.6045215E-1,1.3819761E0,7.467052E-3,0E0,1.095945E0,1.5970336E0,5E-1,4.2687497E-1,-5.509683E-1,2E0,-1.3046805E-2,2.519069E-2,4.7876456E-1,8E-2,-8.242383E-2,7.6555145E-1,3.8223162E-1,3.8E-1,-5.069221E-2,-1.2E-1,5.2E-1,8.7E-1,1.5652429E-1,1.6310518E-30,1E0,3.158929E-2,2.2956067E-1,6.7407507E-1,-5E-1,8.834069E-2,2.145233E-2,-1.4356251E-2,1.4103515E0,-6.2004524E-1,2.617976E-2,-6.589245E-3,1.4464612E-2,-1.6743165E-2,1.2571383E-2,-1.8971166E-2,1.0083006E-2,2.9880391E-2,1.7568928E-3,1.7194033E-2,1.39067415E-2,-8.098333E-3,6.722011E-3,3.2080684E-2,-5.0710775E-3,2.314244E-2,1.7035514E-2,4.287859E-3,2.932111E-2,-1.2892439E-2,4.539329E-3,-1.5834196E-2,1.5176015E-2,-6.0596196E-3,-6.5519456E-3,2.0829009E-2,-1.6227147E-2,-3.840298E-3,-1.8165767E-2,-8.780163E-3,-1.1326016E-2,7.3110666E-3,-1.818692E-2,9.869301E-3,-1.19023975E-2,9.642203E-3,-1.2647913E-2,3.13388E-2,-1.2603422E-2,8.5130595E-3,3.361605E-3,-2.0455854E-2,6.3858624E-3,3.0256854E-2,1.7150577E-2,-1.6370347E-2,-3.5097767E-4,-1.888245E-2],"split_indices":[88,77,32,148,168,0,159,171,0,54,1,95,109,208,158,197,81,0,196,52,10,90,105,160,189,1,10,0,12,1,208,209,10,4,67,0,0,94,134,3,81,106,91,21,84,126,144,216,16,67,0,219,40,69,217,40,0,4,1,0,0,0,0,0,0,0,0,0,0,0,0,0,0,0,0,0,0,0,0,0,0,0,0,0,0,0,0,0,0,0,0,0,0,0,0,0,0,0,0,0,0,0,0,0,0,0,0],"split_type":[0,0,0,0,0,0,0,0,0,0,0,0,0,0,0,0,0,0,0,0,0,0,0,0,0,0,0,0,0,0,0,0,0,0,0,0,0,0,0,0,0,0,0,0,0,0,0,0,0,0,0,0,0,0,0,0,0,0,0,0,0,0,0,0,0,0,0,0,0,0,0,0,0,0,0,0,0,0,0,0,0,0,0,0,0,0,0,0,0,0,0,0,0,0,0,0,0,0,0,0,0,0,0,0,0,0,0],"sum_hessian":[1.5112511E3,5.3897723E2,9.722738E2,1.9797118E2,3.4100604E2,9.097972E2,6.2476646E1,1.871704E2,1.0800779E1,2.1529826E2,1.2570779E2,7.6939575E2,1.4040141E2,1.9344841E1,4.313181E1,3.9814262E1,1.4735612E2,8.103579E0,2.6972008E0,1.192195E2,9.6078766E1,8.944534E1,3.6262444E1,1.6507518E2,6.0432056E2,1.3713268E1,1.2668815E2,1.7633318E0,1.7581509E1,1.7666195E1,2.5465612E1,3.347868E1,6.3355813E0,6.683522E0,1.406726E2,1.3467712E0,1.3504297E0,9.250083E1,2.6718666E1,4.4997077E0,9.157906E1,6.9671E1,1.9774343E1,1.20708065E1,2.4191637E1,4.511521E1,1.1995996E2,5.8461334E2,1.9707249E1,1.1514985E1,2.198283E0,1.23161194E2,3.5269551E0,3.9575567E0,1.3623952E1,1.5892425E1,1.7737713E0,1.8800014E1,6.6655974E0,3.1225975E1,2.2527046E0,3.6224923E0,2.7130892E0,1.3447003E0,5.338822E0,1.3212604E2,8.546574E0,4.037474E1,5.212609E1,5.365362E0,2.1353304E1,1.8027787E0,2.6969287E0,8.751751E1,4.061548E0,3.8723263E1,3.0947739E1,1.8438482E1,1.3358617E0,5.358175E0,6.7126317E0,2.0184376E1,4.0072613E0,4.0723286E1,4.391924E0,9.3637726E1,2.632224E1,5.6615717E2,1.8456165E1,1.4878197E1,4.829052E0,4.406475E0,7.10851E0,1.1693303E2,6.2281656E0,1.3177483E0,2.209207E0,1.3143011E0,2.6432557E0,2.2046988E0,1.1419253E1,1.8198252E0,1.4072599E1,1.613315E1,2.6668644E0,1.3510814E0,5.314516E0],"tree_param":{"num_deleted":"0","num_feature":"231","num_nodes":"107","size_leaf_vector":"1"}},{"base_weights":[3.8482592E-1,-5.528997E-1,9.60996E-1,1.1050653E0,-6.356187E-1,1.0041969E0,1.0189104E-1,-3.9998917E-3,1.1951958E0,-6.6450995E-1,-2.2490084E-1,1.0576556E0,7.730436E-1,4.463014E-1,-6.2339276E-1,6.8362528E-3,1.2569638E0,-6.662522E-1,3.569538E-4,-4.2671707E-1,5.6878376E-1,9.887163E-1,1.2133101E0,8.247726E-1,1.0514352E-1,5.6721246E-1,-2.4784859E-1,-2.0512642E-2,4.1160925E-4,1.2918249E0,1.17042335E-2,-3.9288026E-1,-6.7234737E-1,4.432045E-2,-5.803285E-1,7.1201086E-2,2.821563E-2,9.930694E-1,-4.3648505E-3,1.2287349E0,-1.6901141E-2,-1.3267111E-2,8.3838904E-1,-3.9241144E-1,6.4122814E-1,6.436587E-1,-6.297379E-3,-1.6385157E-2,7.010597E-3,3.9923083E-2,1.1770739E-2,2.8167998E-3,-1.7070152E-2,-1.0524574E-2,-2.031862E-2,1.1858122E-2,-1.6109485E-2,-1.8483156E-2,3.2218342E-4,1.2293469E-2,-1.2842832E-2,2.2162378E-2,3.059503E-2,6.1163087E-3,3.7095666E-2,-1.2996504E-2,1.2091929E-2,-1.3184058E-2,2.556462E-2,1.2727072E-2,-1.8962877E-2,-4.2995657E-3,2.8493306E-2,2.1216666E-2,-3.7646971E-3],"categories":[],"categories_nodes":[],"categories_segments":[],"categories_sizes":[],"default_left":[0,0,0,0,0,0,0,0,0,0,0,0,0,0,0,0,0,0,0,0,0,0,0,0,0,0,0,0,0,0,0,0,0,0,0,0,0,0,0,0,0,0,0,0,0,0,0,0,0,0,0,0,0,0,0,0,0,0,0,0,0,0,0,0,0,0,0,0,0,0,0,0,0,0,0],"id":8,"left_children":[1,3,5,7,9,11,13,-1,15,17,19,21,23,25,27,-1,29,31,-1,33,35,37,39,41,43,45,47,-1,-1,49,-1,51,53,55,57,59,-1,61,-1,63,65,-1,67,69,71,73,-1,-1,-1,-1,-1,-1,-1,-1,-1,-1,-1,-1,-1,-1,-1,-1,-1,-1,-1,-1,-1,-1,-1,-1,-1,-1,-1,-1,-1],"loss_changes":[8.266043E2,8.059387E1,3.5059998E1,3.2899551E0,6.442032E0,1.032782E1,1.1887068E1,0E0,1.2817078E0,6.18927E-1,6.332424E0,6.631775E0,5.894806E0,2.8341727E0,6.008682E-1,0E0,2.3479462E-1,5.9754944E-1,0E0,2.2602615E0,1.4379559E0,2.668457E0,4.1881104E0,3.1403809E0,3.8767781E0,1.7769394E0,9.1151994E-1,0E0,0E0,2.8601074E-1,0E0,1.226666E0,5.6365967E-1,1.9511223E0,5.0057125E-1,9.46476E-1,0E0,2.7138672E0,0E0,1.4790344E0,8.225489E-1,0E0,3.174324E0,1.7693043E0,1.8116982E0,1.3308983E0,0E0,0E0,0E0,0E0,0E0,0E0,0E0,0E0,0E0,0E0,0E0,0E0,0E0,0E0,0E0,0E0,0E0,0E0,0E0,0E0,0E0,0E0,0E0,0E0,0E0,0E0,0E0,0E0,0E0],"parents":[2147483647,0,0,1,1,2,2,3,3,4,4,5,5,6,6,8,8,9,9,10,10,11,11,12,12,13,13,14,14,16,16,17,17,19,19,20,20,21,21,22,22,23,23,24,24,25,25,26,26,29,29,31,31,32,32,33,33,34,34,35,35,37,37,39,39,40,40,42,42,43,43,44,44,45,45],"right_children":[2,4,6,8,10,12,14,-1,16,18,20,22,24,26,28,-1,30,32,-1,34,36,38,40,42,44,46,48,-1,-1,50,-1,52,54,56,58,60,-1,62,-1,64,66,-1,68,70,72,74,-1,-1,-1,-1,-1,-1,-1,-1,-1,-1,-1,-1,-1,-1,-1,-1,-1,-1,-1,-1,-1,-1,-1,-1,-1,-1,-1,-1,-1],"split_conditions":[-2.0774326E-1,-5.336757E-1,1.8650466E-1,1.1967549E-1,7E-1,8.9120924E-1,1.0918493E0,-3.9998917E-3,1.6E-1,8.9960486E-1,2.375337E0,3.9211345E-1,1.6668699E0,4.8485228E-1,7.241768E-1,6.8362528E-3,4.9959984E-1,-8.966788E-2,3.569538E-4,6.209822E-2,4.15E-1,4.8137525E-1,1.1060463E0,3.1365746E-1,4.01961E-2,9.1264886E-1,8.7675625E-1,-2.0512642E-2,4.1160925E-4,6.633136E-2,1.17042335E-2,1.4807874E-2,8.891332E-3,-2.595642E-1,1E-2,1.3452932E0,2.821563E-2,1.3877788E-17,-4.3648505E-3,-7.142073E-1,7.707989E-1,-1.3267111E-2,1.2E-1,1.0494333E-1,-8.026893E-1,1.5871242E0,-6.297379E-3,-1.6385157E-2,7.010597E-3,3.9923083E-2,1.1770739E-2,2.8167998E-3,-1.7070152E-2,-1.0524574E-2,-2.031862E-2,1.1858122E-2,-1.6109485E-2,-1.8483156E-2,3.2218342E-4,1.2293469E-2,-1.2842832E-2,2.2162378E-2,3.059503E-2,6.1163087E-3,3.7095666E-2,-1.2996504E-2,1.2091929E-2,-1.3184058E-2,2.556462E-2,1.2727072E-2,-1.8962877E-2,-4.2995657E-3,2.8493306E-2,2.1216666E-2,-3.7646971E-3],"split_indices":[88,138,195,224,125,0,109,0,116,224,206,63,208,85,6,0,209,119,0,219,144,74,63,208,163,164,208,0,0,156,0,165,156,0,146,3,0,189,0,80,1,0,126,216,1,3,0,0,0,0,0,0,0,0,0,0,0,0,0,0,0,0,0,0,0,0,0,0,0,0,0,0,0,0,0],"split_type":[0,0,0,0,0,0,0,0,0,0,0,0,0,0,0,0,0,0,0,0,0,0,0,0,0,0,0,0,0,0,0,0,0,0,0,0,0,0,0,0,0,0,0,0,0,0,0,0,0,0,0,0,0,0,0,0,0,0,0,0,0,0,0,0,0,0,0,0,0,0,0,0,0,0,0],"sum_hessian":[1.5279454E3,5.8153253E2,9.4641284E2,2.704765E1,5.544849E2,9.009394E2,4.5473446E1,1.802464E0,2.5245186E1,5.174666E2,3.7018314E1,7.288119E2,1.7212753E2,3.1093128E1,1.4380319E1,1.7967228E0,2.3448462E1,5.1615216E2,1.3144599E0,2.9882278E1,7.136035E0,5.101979E2,2.1861397E2,1.5953651E2,1.2591015E1,2.6636324E1,4.456803E0,1.3068923E1,1.3113961E0,2.207055E1,1.3779116E0,1.2684828E1,5.0346732E2,7.523507E0,2.2358772E1,3.5610232E0,3.5750117E0,5.0837122E2,1.8266848E0,2.1590805E2,2.7059102E0,1.3615952E0,1.5817491E2,6.669174E0,5.92184E0,2.4407125E1,2.229199E0,2.6690361E0,1.7877665E0,2.0695004E1,1.3755467E0,3.4942677E0,9.19056E0,8.707972E0,4.9475934E2,4.8908067E0,2.6327004E0,2.104272E1,1.316051E0,2.2288673E0,1.332156E0,5.112998E1,4.5724124E2,1.8331732E0,2.1407487E2,1.3430142E0,1.362896E0,1.356102E0,1.5681882E2,1.338544E0,5.3306303E0,1.822719E0,4.099121E0,2.261842E1,1.7887056E0],"tree_param":{"num_deleted":"0","num_feature":"231","num_nodes":"75","size_leaf_vector":"1"}},{"base_weights":[-1.9496354E-1,2.871354E-1,-5.0706124E-1,-4.9587753E-1,3.2588726E-1,-5.731327E-1,-3.339876E-1,1.268124E-2,-5.579236E-1,1.7517668E-1,4.017469E-1,-5.329159E-1,-6.7854065E-1,1.5742111E-1,-3.8646445E-1,-6.259716E-1,1.2291485E-2,3.221157E-1,5.665087E-2,-1.1583705E-1,4.2501888E-1,-5.365849E-1,1.3795143E-2,-3.768059E-1,-6.9918185E-1,4.9682444E-1,-1.3358955E-1,-4.0281847E-1,4.9747488E-1,-2.0970043E-2,-8.165163E-3,2.614385E-1,8.8526964E-1,8.3411866E-1,1.384508E-2,-1.8158399E-2,8.704551E-2,3.8711986E-1,8.00091E-1,-5.4290485E-1,6.1898377E-2,-4.956092E-1,8.245612E-3,-7.0509857E-1,7.9632155E-4,-1.2887541E-2,6.566658E-1,-3.9891836E-1,1.7856826E-1,-4.166572E-1,5.425892E-1,2.8573603E-3,2.5202785E-2,1.253081E-2,-1.2950692E-2,2.0422531E-2,5.059679E-3,3.227321E-2,-3.221946E-4,3.189452E-2,6.939605E-3,-7.1818666E-3,5.3608147E-3,1.7303096E-2,-6.278007E-3,1.19480975E-2,-1.7181963E-2,2.7805557E-3,2.7458686E-2,-4.3253787E-3,-1.6594267E-2,1.6099999E-2,-1.519179E-2,-1.9209137E-2,-3.3896666E-3,-5.5374154E-3,-2.132894E-2,-1.2737121E-2,2.5817659E-2,-1.8855019E-3,-1.7799156E-2,-9.626713E-3,1.886888E-2,4.4146623E-3,-1.3220295E-2,1.1413329E-4,2.5379874E-2],"categories":[],"categories_nodes":[],"categories_segments":[],"categories_sizes":[],"default_left":[0,0,0,0,0,0,0,0,0,0,0,0,0,0,0,0,0,0,0,0,0,0,0,0,0,0,0,0,0,0,0,0,0,0,0,0,0,0,0,0,0,0,0,0,0,0,0,0,0,0,0,0,0,0,0,0,0,0,0,0,0,0,0,0,0,0,0,0,0,0,0,0,0,0,0,0,0,0,0,0,0,0,0,0,0,0,0],"id":9,"left_children":[1,3,5,7,9,11,13,-1,15,17,19,21,23,25,27,29,-1,31,33,35,37,39,-1,41,43,45,47,49,51,-1,53,55,57,59,61,-1,63,65,67,69,71,73,-1,75,-1,-1,77,79,81,83,85,-1,-1,-1,-1,-1,-1,-1,-1,-1,-1,-1,-1,-1,-1,-1,-1,-1,-1,-1,-1,-1,-1,-1,-1,-1,-1,-1,-1,-1,-1,-1,-1,-1,-1,-1,-1],"loss_changes":[2.2398221E2,1.7919949E1,1.01392975E1,1.8314104E0,6.3120575E0,2.404129E0,6.5591316E0,0E0,2.0115852E0,3.2679272E0,4.5127945E0,1.9838104E0,8.359299E-1,2.538006E0,3.495903E0,1.1357479E0,0E0,2.6399822E0,3.5046399E0,1.714029E0,4.73423E0,1.8325348E0,0E0,1.1791352E0,7.2312164E-1,2.024017E0,1.2523638E0,3.1616974E0,5.523362E-1,0E0,8.451722E-1,2.891667E0,1.3351665E0,5.129423E-1,4.265746E0,0E0,1.9639145E0,3.6979332E0,2.4924812E0,1.8417511E0,1.8548691E0,5.7820225E-1,0E0,3.657303E-1,0E0,0E0,2.6646366E0,4.8648775E-1,1.8311427E0,3.067318E0,5.969516E-1,0E0,0E0,0E0,0E0,0E0,0E0,0E0,0E0,0E0,0E0,0E0,0E0,0E0,0E0,0E0,0E0,0E0,0E0,0E0,0E0,0E0,0E0,0E0,0E0,0E0,0E0,0E0,0E0,0E0,0E0,0E0,0E0,0E0,0E0,0E0,0E0],"parents":[2147483647,0,0,1,1,2,2,3,3,4,4,5,5,6,6,8,8,9,9,10,10,11,11,12,12,13,13,14,14,15,15,17,17,18,18,19,19,20,20,21,21,23,23,24,24,25,25,26,26,27,27,28,28,30,30,31,31,32,32,33,33,34,34,36,36,37,37,38,38,39,39,40,40,41,41,43,43,46,46,47,47,48,48,49,49,50,50],"right_children":[2,4,6,8,10,12,14,-1,16,18,20,22,24,26,28,30,-1,32,34,36,38,40,-1,42,44,46,48,50,52,-1,54,56,58,60,62,-1,64,66,68,70,72,74,-1,76,-1,-1,78,80,82,84,86,-1,-1,-1,-1,-1,-1,-1,-1,-1,-1,-1,-1,-1,-1,-1,-1,-1,-1,-1,-1,-1,-1,-1,-1,-1,-1,-1,-1,-1,-1,-1,-1,-1,-1,-1,-1],"split_conditions":[-2.2243759E-1,-1.3525159E-2,6.816057E-1,5.1473226E-2,-1.3014854E-2,3.9986998E-1,-9.7944486E-1,1.268124E-2,1.9475755E-1,6.951084E-2,-1.7870007E0,5.2270794E-1,-1.5763998E0,-1.251935E-1,1.1505644E0,1.2216147E0,1.2291485E-2,2.1524043E-1,-1.25E0,-3.980962E-1,1.011077E0,4E-1,1.3795143E-2,5.390714E-1,3E-1,-7.307237E-1,2.4688032E-1,1.2829492E0,1E0,-2.0970043E-2,1E0,-1E-2,1.1307344E0,2.3348606E-1,5.428242E-1,-1.8158399E-2,-2.5647426E-1,4.4E-1,5.149403E-1,1.11753695E-1,-6.276055E-2,5.7349956E-1,8.245612E-3,-1.1964936E-1,7.9632155E-4,-1.2887541E-2,1.05547905E-1,1.20231256E-1,-4.6038988E-1,-6.4E-1,5.979251E-1,2.8573603E-3,2.5202785E-2,1.253081E-2,-1.2950692E-2,2.0422531E-2,5.059679E-3,3.227321E-2,-3.221946E-4,3.189452E-2,6.939605E-3,-7.1818666E-3,5.3608147E-3,1.7303096E-2,-6.278007E-3,1.19480975E-2,-1.7181963E-2,2.7805557E-3,2.7458686E-2,-4.3253787E-3,-1.6594267E-2,1.6099999E-2,-1.519179E-2,-1.9209137E-2,-3.3896666E-3,-5.5374154E-3,-2.132894E-2,-1.2737121E-2,2.5817659E-2,-1.8855019E-3,-1.7799156E-2,-9.626713E-3,1.886888E-2,4.4146623E-3,-1.3220295E-2,1.1413329E-4,2.5379874E-2],"split_indices":[88,83,77,215,77,65,131,0,90,10,131,88,13,9,140,1,0,0,52,1,111,134,0,10,116,64,2,172,48,0,48,130,2,87,155,0,1,134,157,224,81,66,0,9,0,0,194,224,1,91,0,0,0,0,0,0,0,0,0,0,0,0,0,0,0,0,0,0,0,0,0,0,0,0,0,0,0,0,0,0,0,0,0,0,0,0,0],"split_type":[0,0,0,0,0,0,0,0,0,0,0,0,0,0,0,0,0,0,0,0,0,0,0,0,0,0,0,0,0,0,0,0,0,0,0,0,0,0,0,0,0,0,0,0,0,0,0,0,0,0,0,0,0,0,0,0,0,0,0,0,0,0,0,0,0,0,0,0,0,0,0,0,0,0,0,0,0,0,0,0,0,0,0,0,0,0,0],"sum_hessian":[1.4866624E3,5.842493E2,9.0241296E2,2.6995113E1,5.572542E2,6.5141986E2,2.509931E2,1.340238E0,2.5654877E1,1.8768636E2,3.6956787E2,4.7590228E2,1.7551756E2,2.4024153E1,2.2696895E2,2.4299164E1,1.3557119E0,8.303204E1,1.04654305E2,1.5730629E1,3.5383725E2,4.7460773E2,1.2945569E0,1.2470994E1,1.6304657E2,1.0763515E1,1.3260637E1,2.2338042E2,3.5885365E0,2.1612915E1,2.6862493E0,7.627772E1,6.7543273E0,4.4966674E0,1.0015764E2,4.0285573E0,1.1702071E1,3.232107E2,3.0626556E1,4.6974017E2,4.8675528E0,1.0750542E1,1.7204524E0,1.6175623E2,1.2903394E0,1.3355219E0,9.427994E0,7.0177402E0,6.2428975E0,2.20709E2,2.6714196E0,2.2385259E0,1.3500106E0,1.3462985E0,1.3399508E0,1.2672002E1,6.3605717E1,5.4046054E0,1.3497221E0,2.705157E0,1.7915101E0,3.931292E1,6.084472E1,4.054532E0,7.647539E0,3.200776E2,3.1330845E0,4.5416946E0,2.6084862E1,1.2136357E1,4.5760382E2,2.6823137E0,2.185239E0,7.311923E0,3.4386191E0,2.1644475E0,1.5959178E2,1.3242993E0,8.103695E0,3.056608E0,3.961132E0,3.0965528E0,3.146345E0,8.808878E0,2.1190012E2,1.3271775E0,1.3442421E0],"tree_param":{"num_deleted":"0","num_feature":"231","num_nodes":"87","size_leaf_vector":"1"}},{"base_weights":[-1.651652E-1,3.3126694E-1,-4.4746804E-1,4.972594E-1,2.3651958E-1,-4.926737E-1,1.8903641E-1,7.343529E-1,3.7295103E-1,2.7186802E-1,-4.2431274E-1,-5.313885E-1,-2.444958E-1,4.060672E-1,-2.736476E-1,1.2383584E-1,8.4148735E-1,-1.3719776E-1,4.3999228E-1,-5.3882456E-1,2.917062E-1,-2.005917E-2,-1.3409102E-1,-3.824291E-1,-5.564689E-1,-2.8862396E-1,5.3806293E-1,7.775833E-1,1.3990596E-1,2.512922E-2,-3.9412713E-1,5.0437236E-1,-4.1759586E-1,1.7264305E-1,8.9100534E-1,-3.1493145E-1,5.2863616E-1,5.171193E-1,6.984048E-4,-1.9262036E-2,-3.2719312E-4,7.521464E-1,2.5184643E-1,1.2438172E-2,-3.6173096E-1,3.380595E-1,-4.1443396E-1,-5.689817E-1,-2.0895353E-1,2.7184558E-1,-3.536933E-1,-1.2647228E-2,8.463169E-1,1.078948E0,2.9468617E-1,4.799067E-1,-1.6124845E-1,-6.062513E-1,5.0113373E-2,-1.3239312E-2,2.448844E-2,-1.6825998E-2,-4.096398E-4,-6.775771E-3,1.7234148E-2,8.260156E-3,2.8741378E-2,-1.3060998E-2,1.2724562E-2,-1.923541E-4,2.5101066E-2,1.338631E-2,2.5538959E-2,-1.5332495E-2,9.407406E-3,2.8865216E-2,-3.0174284E-4,9.971401E-3,2.014528E-3,-1.6852891E-2,-2.2017618E-3,-1.243212E-2,2.0473609E-2,-1.694359E-2,-6.00128E-3,-1.7190013E-2,5.7471716E-3,2.2570597E-2,-1.0164334E-2,1.7303535E-4,3.1152705E-2,-1.2204632E-2,8.65317E-3,3.345882E-2,1.1806708E-4,3.6491297E-2,1.5018523E-2,-1.4599513E-2,1.7611109E-2,2.2778934E-2,1.0978584E-3,-8.857745E-3,1.2345987E-2,-2.0242782E-2,1.4914466E-4,-1.5664699E-2,1.2396472E-2],"categories":[],"categories_nodes":[],"categories_segments":[],"categories_sizes":[],"default_left":[0,0,0,0,0,0,0,0,0,0,0,0,0,0,0,0,0,0,0,0,0,0,0,0,0,0,0,0,0,0,0,0,0,0,0,0,0,0,0,0,0,0,0,0,0,0,0,0,0,0,0,0,0,0,0,0,0,0,0,0,0,0,0,0,0,0,0,0,0,0,0,0,0,0,0,0,0,0,0,0,0,0,0,0,0,0,0,0,0,0,0,0,0,0,0,0,0,0,0,0,0,0,0,0,0,0,0],"id":10,"left_children":[1,3,5,7,9,11,13,15,17,19,21,23,25,27,29,31,33,35,37,39,41,-1,43,45,47,49,51,53,55,-1,57,59,61,63,65,67,69,71,73,-1,-1,75,77,-1,79,81,83,85,87,89,91,-1,93,95,97,99,101,103,105,-1,-1,-1,-1,-1,-1,-1,-1,-1,-1,-1,-1,-1,-1,-1,-1,-1,-1,-1,-1,-1,-1,-1,-1,-1,-1,-1,-1,-1,-1,-1,-1,-1,-1,-1,-1,-1,-1,-1,-1,-1,-1,-1,-1,-1,-1,-1,-1],"loss_changes":[2.0715105E2,8.312782E0,2.7198898E1,5.4401855E0,8.131313E0,8.323746E0,6.45656E0,4.1900597E0,4.4799004E0,5.405655E0,1.1735306E0,2.6275024E0,4.319377E0,4.1844206E0,3.1115336E0,2.4715881E0,1.6902962E0,2.0329146E0,3.87739E0,4.370048E-1,5.6688156E0,0E0,1.3232406E0,2.7401714E0,2.701065E0,4.2827377E0,2.3641067E0,2.287365E0,2.792275E0,0E0,1.8606191E0,2.3947155E0,2.8612727E-1,9.429631E-1,1.8660698E0,1.348517E0,6.146263E-1,1.927124E0,3.0576794E0,0E0,0E0,4.000184E0,4.3695774E0,0E0,3.7248683E-1,1.6683195E0,3.3815327E0,2.0212402E0,3.265781E0,2.545011E0,3.6411057E0,0E0,1.2346745E0,2.3730946E-1,2.1713378E0,1.5458834E0,1.2582198E0,5.569968E-1,1.7119813E0,0E0,0E0,0E0,0E0,0E0,0E0,0E0,0E0,0E0,0E0,0E0,0E0,0E0,0E0,0E0,0E0,0E0,0E0,0E0,0E0,0E0,0E0,0E0,0E0,0E0,0E0,0E0,0E0,0E0,0E0,0E0,0E0,0E0,0E0,0E0,0E0,0E0,0E0,0E0,0E0,0E0,0E0,0E0,0E0,0E0,0E0,0E0,0E0],"parents":[2147483647,0,0,1,1,2,2,3,3,4,4,5,5,6,6,7,7,8,8,9,9,10,10,11,11,12,12,13,13,14,14,15,15,16,16,17,17,18,18,19,19,20,20,22,22,23,23,24,24,25,25,26,26,27,27,28,28,30,30,31,31,32,32,33,33,34,34,35,35,36,36,37,37,38,38,41,41,42,42,44,44,45,45,46,46,47,47,48,48,49,49,50,50,52,52,53,53,54,54,55,55,56,56,57,57,58,58],"right_children":[2,4,6,8,10,12,14,16,18,20,22,24,26,28,30,32,34,36,38,40,42,-1,44,46,48,50,52,54,56,-1,58,60,62,64,66,68,70,72,74,-1,-1,76,78,-1,80,82,84,86,88,90,92,-1,94,96,98,100,102,104,106,-1,-1,-1,-1,-1,-1,-1,-1,-1,-1,-1,-1,-1,-1,-1,-1,-1,-1,-1,-1,-1,-1,-1,-1,-1,-1,-1,-1,-1,-1,-1,-1,-1,-1,-1,-1,-1,-1,-1,-1,-1,-1,-1,-1,-1,-1,-1,-1],"split_conditions":[-2.5761256E-1,-2.4517555E-2,1.1229645E0,-8.799716E-1,1.75E0,1.4804541E0,-8.383967E-1,-2.3304105E-2,-8.672125E-1,-3.357352E-11,3.66421E-1,-4.932779E-1,2.5040646E0,6.9184065E-1,-7.861247E-1,1.887917E-1,-3.4257218E-1,1E0,1.2836607E0,-5.690792E-3,-1.0615405E0,-2.005917E-2,4.508338E-1,-3.774418E-1,7.674763E-1,-7.311177E-2,5.6975436E-1,5E-1,-2.3545371E-1,2.512922E-2,1.4248003E-1,-4.264021E-1,1E0,5E-1,1.1590226E-1,-8.542529E-1,5E-1,1.0549048E0,1.1340137E0,-1.9262036E-2,-3.2719312E-4,6.6590434E-1,2.7880734E-1,1.2438172E-2,4.935699E0,-7.229567E-1,3.9554466E-2,7E-1,-6.119213E-1,7.922025E-2,2.6E-1,-1.2647228E-2,8.090829E-1,3.689432E-1,9.929389E-2,3.1368408E-1,8.035072E-1,1.048362E0,-5.977922E-1,-1.3239312E-2,2.448844E-2,-1.6825998E-2,-4.096398E-4,-6.775771E-3,1.7234148E-2,8.260156E-3,2.8741378E-2,-1.3060998E-2,1.2724562E-2,-1.923541E-4,2.5101066E-2,1.338631E-2,2.5538959E-2,-1.5332495E-2,9.407406E-3,2.8865216E-2,-3.0174284E-4,9.971401E-3,2.014528E-3,-1.6852891E-2,-2.2017618E-3,-1.243212E-2,2.0473609E-2,-1.694359E-2,-6.00128E-3,-1.7190013E-2,5.7471716E-3,2.2570597E-2,-1.0164334E-2,1.7303535E-4,3.1152705E-2,-1.2204632E-2,8.65317E-3,3.345882E-2,1.1806708E-4,3.6491297E-2,1.5018523E-2,-1.4599513E-2,1.7611109E-2,2.2778934E-2,1.0978584E-3,-8.857745E-3,1.2345987E-2,-2.0242782E-2,1.4914466E-4,-1.5664699E-2,1.2396472E-2],"split_indices":[88,77,32,86,52,0,80,143,86,76,13,83,77,158,10,10,10,58,61,1,80,0,13,81,98,109,65,69,88,0,195,3,58,69,224,88,69,61,17,0,0,62,1,0,0,138,186,114,13,215,116,0,2,3,40,154,62,6,131,0,0,0,0,0,0,0,0,0,0,0,0,0,0,0,0,0,0,0,0,0,0,0,0,0,0,0,0,0,0,0,0,0,0,0,0,0,0,0,0,0,0,0,0,0,0,0,0],"split_type":[0,0,0,0,0,0,0,0,0,0,0,0,0,0,0,0,0,0,0,0,0,0,0,0,0,0,0,0,0,0,0,0,0,0,0,0,0,0,0,0,0,0,0,0,0,0,0,0,0,0,0,0,0,0,0,0,0,0,0,0,0,0,0,0,0,0,0,0,0,0,0,0,0,0,0,0,0,0,0,0,0,0,0,0,0,0,0,0,0,0,0,0,0,0,0,0,0,0,0,0,0,0,0,0,0,0,0],"sum_hessian":[1.4760701E3,5.350342E2,9.410359E2,1.928764E2,3.4215778E2,8.788448E2,6.219111E1,6.465409E1,1.282223E2,3.2534348E2,1.681428E1,7.5926166E2,1.1958311E2,4.241698E1,1.977413E1,9.973715E0,5.4680374E1,1.4771612E1,1.134507E2,7.1463256E0,3.1819717E2,8.421044E0,8.393236E0,1.11756516E2,6.475051E2,1.1379731E2,5.785802E0,1.6902489E1,2.5514492E1,1.351892E0,1.8422237E1,5.897323E0,4.076391E0,4.0784726E0,5.0601902E1,1.2075313E1,2.6962996E0,9.635624E1,1.7094461E1,5.796496E0,1.3498296E0,2.3927607E1,2.9426956E2,2.220261E0,6.172975E0,4.3464785E0,1.07410034E2,6.243859E2,2.3119219E1,1.1506784E1,1.0229053E2,1.3172865E0,4.4685154E0,9.647431E0,7.2550564E0,1.1705512E1,1.380898E1,1.2221702E1,6.200536E0,1.3597628E0,4.5375605E0,2.72234E0,1.3540514E0,2.2675836E0,1.8108892E0,5.470517E0,4.5131382E1,1.0736686E1,1.3386278E0,1.342989E0,1.3533106E0,8.141597E1,1.4940268E1,6.2453895E0,1.08490715E1,1.855294E1,5.3746676E0,2.0436136E2,8.99082E1,3.0847137E0,3.0882614E0,1.3008906E0,3.045588E0,6.2173462E1,4.5236572E1,6.2134937E2,3.0365775E0,2.1808915E0,2.0938328E1,9.289827E0,2.2169573E0,9.481252E1,7.478E0,3.1414535E0,1.3270618E0,6.903661E0,2.7437706E0,1.7944906E0,5.460566E0,6.7430243E0,4.9624877E0,1.1583408E1,2.2255716E0,1.0896439E1,1.3252637E0,2.236943E0,3.9635925E0],"tree_param":{"num_deleted":"0","num_feature":"231","num_nodes":"107","size_leaf_vector":"1"}},{"base_weights":[3.7734306E-1,-5.5869985E-1,9.287971E-1,1.1211077E0,-6.268599E-1,9.8019E-1,1.6283899E-3,6.5889773E-3,1.1897286E0,-6.6192645E-1,-1.4140171E-1,1.0023568E0,5.323592E-1,-6.096105E-1,4.5295107E-1,5.793943E-1,3.810929E-2,-6.6368186E-1,-2.7931079E-3,1.5789218E-1,-6.156997E-1,1.0376102E0,6.515501E-1,-3.9103672E-1,6.944425E-1,-1.4401506E-1,-2.0708695E-2,6.842318E-1,1.1085049E-2,2.6430361E-2,-8.5227046E-4,-6.6543484E-1,-2.9383013E-3,-1.9834378E-1,4.9616218E-1,4.7499686E-4,-2.033427E-2,8.065916E-1,1.0764453E0,7.374357E-1,2.586819E-1,1.16208885E-2,-1.9081743E-2,9.7690064E-1,1.6699323E-1,-1.4419176E-2,7.3911934E-3,-1.2839722E-2,7.8800297E-1,-3.0000007E-1,6.201861E-1,-1.2056442E-2,-2.010487E-2,-1.6315877E-2,1.5677586E-2,2.9242648E-2,4.6692626E-3,2.9650604E-2,2.0125253E-2,3.2445367E-2,-1.49536375E-2,2.3077583E-2,-1.3396653E-2,1.4092409E-2,-1.702088E-2,-7.084316E-3,3.3303816E-2,-3.4402905E-3,3.0246774E-2,3.239082E-2,1.03035765E-2,-1.853447E-2,7.4841725E-3,2.802154E-2,-4.9296545E-4],"categories":[],"categories_nodes":[],"categories_segments":[],"categories_sizes":[],"default_left":[0,0,0,0,0,0,0,0,0,0,0,0,0,0,0,0,0,0,0,0,0,0,0,0,0,0,0,0,0,0,0,0,0,0,0,0,0,0,0,0,0,0,0,0,0,0,0,0,0,0,0,0,0,0,0,0,0,0,0,0,0,0,0,0,0,0,0,0,0,0,0,0,0,0,0],"id":11,"left_children":[1,3,5,7,9,11,13,-1,15,17,19,21,23,25,27,29,-1,31,-1,33,35,37,39,41,43,45,-1,47,49,-1,-1,51,-1,53,55,-1,-1,57,59,61,63,-1,-1,65,67,-1,-1,-1,69,71,73,-1,-1,-1,-1,-1,-1,-1,-1,-1,-1,-1,-1,-1,-1,-1,-1,-1,-1,-1,-1,-1,-1,-1,-1],"loss_changes":[7.859113E2,6.535814E1,4.563916E1,1.1230202E0,9.155518E0,8.475525E0,1.4429722E1,0E0,2.7560043E-1,4.4389343E-1,5.473565E0,1.0004028E1,6.996876E0,7.3520184E-1,3.067215E0,8.018725E-1,0E0,4.3537903E-1,0E0,2.9925213E0,5.934849E-1,6.1570435E0,2.5607948E0,1.6481093E0,5.5854588E0,7.157045E-1,0E0,2.6148396E0,2.3374357E0,0E0,0E0,3.5739136E-1,0E0,3.3760142E0,1.9024644E0,0E0,0E0,2.2159271E0,5.864685E0,2.8440514E0,3.0856533E0,0E0,0E0,4.289894E0,3.5900364E0,0E0,0E0,0E0,2.0153227E0,1.5842774E0,8.4745455E-1,0E0,0E0,0E0,0E0,0E0,0E0,0E0,0E0,0E0,0E0,0E0,0E0,0E0,0E0,0E0,0E0,0E0,0E0,0E0,0E0,0E0,0E0,0E0,0E0],"parents":[2147483647,0,0,1,1,2,2,3,3,4,4,5,5,6,6,8,8,9,9,10,10,11,11,12,12,13,13,14,14,15,15,17,17,19,19,20,20,21,21,22,22,23,23,24,24,25,25,27,27,28,28,31,31,33,33,34,34,37,37,38,38,39,39,40,40,43,43,44,44,48,48,49,49,50,50],"right_children":[2,4,6,8,10,12,14,-1,16,18,20,22,24,26,28,30,-1,32,-1,34,36,38,40,42,44,46,-1,48,50,-1,-1,52,-1,54,56,-1,-1,58,60,62,64,-1,-1,66,68,-1,-1,-1,70,72,74,-1,-1,-1,-1,-1,-1,-1,-1,-1,-1,-1,-1,-1,-1,-1,-1,-1,-1,-1,-1,-1,-1,-1,-1],"split_conditions":[-2.2243759E-1,-4.6987945E-1,1.8261099E-1,5.701022E-2,7E-1,9.963796E-1,-9.01364E-2,6.5889773E-3,-4.425213E-2,4.58466E0,1.0067518E-1,2.912989E-2,3.1843367E-1,-5.644403E-1,5.640942E-1,1E0,3.810929E-2,4.921529E-2,-2.7931079E-3,-3.5097467E-24,3.05E-1,-4.6477613E-1,7.194953E-2,-2.2063169E-1,1.139646E0,-5.5067587E-1,-2.0708695E-2,-2.385933E0,9.07468E-1,2.6430361E-2,-8.5227046E-4,9.977598E-2,-2.9383013E-3,1.2220202E-1,1.18368536E-1,4.7499686E-4,-2.033427E-2,0E0,1.1066328E0,1.6344382E-1,1E0,1.16208885E-2,-1.9081743E-2,9.2930205E-2,4.970161E-1,-1.4419176E-2,7.3911934E-3,-1.2839722E-2,5E-1,5E-1,7.226588E-1,-1.2056442E-2,-2.010487E-2,-1.6315877E-2,1.5677586E-2,2.9242648E-2,4.6692626E-3,2.9650604E-2,2.0125253E-2,3.2445367E-2,-1.49536375E-2,2.3077583E-2,-1.3396653E-2,1.4092409E-2,-1.702088E-2,-7.084316E-3,3.3303816E-2,-3.4402905E-3,3.0246774E-2,3.239082E-2,1.03035765E-2,-1.853447E-2,7.4841725E-3,2.802154E-2,-4.9296545E-4],"split_indices":[88,6,194,197,125,157,85,0,3,225,194,92,206,78,62,49,0,152,0,92,144,95,182,87,208,62,0,3,65,0,0,167,0,224,224,0,0,69,143,227,38,0,0,195,206,0,0,0,69,69,2,0,0,0,0,0,0,0,0,0,0,0,0,0,0,0,0,0,0,0,0,0,0,0,0],"split_type":[0,0,0,0,0,0,0,0,0,0,0,0,0,0,0,0,0,0,0,0,0,0,0,0,0,0,0,0,0,0,0,0,0,0,0,0,0,0,0,0,0,0,0,0,0,0,0,0,0,0,0,0,0,0,0,0,0,0,0,0,0,0,0,0,0,0,0,0,0,0,0,0,0,0,0],"sum_hessian":[1.5205337E3,5.636968E2,9.56837E2,2.137834E1,5.423185E2,9.065309E2,5.0306065E1,1.8093612E0,1.956898E1,5.054447E2,3.6873764E1,8.6259564E2,4.3935215E1,2.1218515E1,2.908755E1,3.2375393E0,1.633144E1,5.0372345E2,1.7212516E0,2.3016733E1,1.3857032E1,7.820481E2,8.05476E1,6.3494673E0,3.7585747E1,3.545083E0,1.7673433E1,1.8733559E1,1.03539915E1,1.8633597E0,1.3741797E0,5.0199176E2,1.7316784E0,1.1412136E1,1.1604598E1,1.3074849E0,1.2549547E1,1.15678856E2,6.663692E2,6.537811E1,1.5169484E1,1.3810679E0,4.9683995E0,2.3922644E1,1.3663105E1,1.779485E0,1.765598E0,1.332066E0,1.7401491E1,7.1895537E0,3.1644375E0,1.0361525E1,4.9163025E2,7.8807526E0,3.5313835E0,4.049947E0,7.554651E0,4.6772354E1,6.8906494E1,6.6454443E2,1.8247743E0,6.400832E1,1.3697908E0,1.2425849E1,2.743636E0,2.2909312E0,2.1631712E1,1.0882876E1,2.7802289E0,9.644523E0,7.756969E0,4.4761586E0,2.7133954E0,1.80656E0,1.3578775E0],"tree_param":{"num_deleted":"0","num_feature":"231","num_nodes":"75","size_leaf_vector":"1"}},{"base_weights":[-2.0310993E-1,2.5642303E-1,-5.160806E-1,-5.594831E-1,2.9621398E-1,-5.7664317E-1,-3.5030976E-1,-6.218724E-1,7.211316E-3,3.4627083E-1,9.7482845E-2,-3.9641652E-1,-5.9686905E-1,-4.043817E-1,1.4876755E-1,-1.838721E-1,-2.0690653E-2,1.6293156E-1,4.2129824E-1,-1.5111162E-2,3.2218614E-1,5.333477E-1,-4.4267586E-1,-6.000112E-1,1.34714525E-2,1.3466666E-2,-4.320571E-1,-1.5063193E-1,4.5488986E-1,-1.5966833E-2,1.3134882E-2,2.308235E-1,-3.4585097E-1,2.3324186E-1,4.859694E-1,-2.1837805E-1,1.4061677E-1,-2.9098837E-2,5.1001614E-1,2.5438376E-2,-2.4465358E-4,1.3201241E-2,-4.6765402E-1,-6.0427386E-1,-2.5731478E-2,-2.0962715E-1,5.6091064E-1,-4.753941E-1,-1.5004733E-1,2.3547615E-1,-4.977616E-1,-2.5869057E-1,6.777507E-1,3.7682701E-3,1.815835E-2,-1.50449285E-2,1.756713E-2,4.2508245E-3,2.1549493E-2,5.044784E-3,1.5951704E-2,-8.5916305E-3,2.5184212E-2,7.304558E-3,-1.1858397E-2,1.3106222E-2,-1.0624463E-2,2.5979271E-2,-1.2984592E-4,8.036369E-3,-1.4769646E-2,-9.2810666E-4,-1.8257113E-2,-1.4896747E-2,1.3568777E-2,9.6132215E-3,-1.4979045E-2,2.324237E-2,7.0125E-4,-1.7083007E-4,-1.5196522E-2,-8.943574E-3,1.828626E-2,2.5578354E-2,-1.6144102E-2,-1.8338304E-2,-9.04127E-5,-1.2646766E-2,5.1638176E-4,2.6449211E-2,-3.9145183E-3],"categories":[],"categories_nodes":[],"categories_segments":[],"categories_sizes":[],"default_left":[0,0,0,0,0,0,0,0,0,0,0,0,0,0,0,0,0,0,0,0,0,0,0,0,0,0,0,0,0,0,0,0,0,0,0,0,0,0,0,0,0,0,0,0,0,0,0,0,0,0,0,0,0,0,0,0,0,0,0,0,0,0,0,0,0,0,0,0,0,0,0,0,0,0,0,0,0,0,0,0,0,0,0,0,0,0,0,0,0,0,0],"id":12,"left_children":[1,3,5,7,9,11,13,15,-1,17,19,21,23,25,27,29,-1,31,33,35,37,39,41,43,-1,45,47,49,51,-1,-1,53,55,57,59,61,63,65,67,-1,-1,-1,69,71,73,75,77,79,81,83,85,87,89,-1,-1,-1,-1,-1,-1,-1,-1,-1,-1,-1,-1,-1,-1,-1,-1,-1,-1,-1,-1,-1,-1,-1,-1,-1,-1,-1,-1,-1,-1,-1,-1,-1,-1,-1,-1,-1,-1],"loss_changes":[2.1409508E2,1.9755383E1,8.686111E0,1.5669622E0,5.6961136E0,2.121399E0,6.521723E0,6.6413784E-1,0E0,6.254856E0,2.9721508E0,3.1714516E0,2.1743622E0,2.507183E0,2.2807536E0,1.3015187E0,0E0,4.7473774E0,3.846325E0,2.5341704E0,2.601015E0,6.3522065E-1,1.6512861E0,1.4001007E0,0E0,1.8770449E0,2.408371E0,1.853399E0,2.1128297E0,0E0,0E0,4.6445355E0,2.6579697E0,3.6833792E0,3.4200096E0,2.7368011E0,2.5983737E0,2.3663747E0,4.68954E0,0E0,0E0,0E0,1.2974424E0,1.3952026E0,1.4186555E0,1.8433636E0,4.9259913E-1,2.5641098E0,3.3858263E0,3.7107632E0,3.9928162E-1,1.7006892E-1,1.690454E0,0E0,0E0,0E0,0E0,0E0,0E0,0E0,0E0,0E0,0E0,0E0,0E0,0E0,0E0,0E0,0E0,0E0,0E0,0E0,0E0,0E0,0E0,0E0,0E0,0E0,0E0,0E0,0E0,0E0,0E0,0E0,0E0,0E0,0E0,0E0,0E0,0E0,0E0],"parents":[2147483647,0,0,1,1,2,2,3,3,4,4,5,5,6,6,7,7,9,9,10,10,11,11,12,12,13,13,14,14,15,15,17,17,18,18,19,19,20,20,21,21,22,22,23,23,25,25,26,26,27,27,28,28,31,31,32,32,33,33,34,34,35,35,36,36,37,37,38,38,42,42,43,43,44,44,45,45,46,46,47,47,48,48,49,49,50,50,51,51,52,52],"right_children":[2,4,6,8,10,12,14,16,-1,18,20,22,24,26,28,30,-1,32,34,36,38,40,42,44,-1,46,48,50,52,-1,-1,54,56,58,60,62,64,66,68,-1,-1,-1,70,72,74,76,78,80,82,84,86,88,90,-1,-1,-1,-1,-1,-1,-1,-1,-1,-1,-1,-1,-1,-1,-1,-1,-1,-1,-1,-1,-1,-1,-1,-1,-1,-1,-1,-1,-1,-1,-1,-1,-1,-1,-1,-1,-1,-1],"split_conditions":[-2.0509703E-1,-4.7051853E-1,7.608384E-1,4.9839744E-1,5.141984E-1,8.326673E-17,1.7087278E0,1.1967549E-1,7.211316E-3,2E-2,2.7907979E-2,3.7096602E-1,2.8324335E0,3.60598E-1,1E0,1E0,-2.0690653E-2,1E0,5.271453E-2,-4.495701E-2,-4.6692795E-1,1E0,1.1100551E-1,3.894497E-2,1.34714525E-2,5.290537E-1,1E0,-2.6302323E-1,5.442278E-1,-1.5966833E-2,1.3134882E-2,7.111183E-1,7.780558E-1,5.495927E-1,-9.4610023E-1,7.068734E-2,2E0,-7.618726E-2,5E-1,2.5438376E-2,-2.4465358E-4,1.3201241E-2,1.5665624E-2,-1.7150657E0,3.8978797E-1,-1.8735191E-1,3.1734076E-1,2.93428E-1,5E-1,7.176398E-1,4.5825756E-1,3.689432E-1,7.788371E-1,3.7682701E-3,1.815835E-2,-1.50449285E-2,1.756713E-2,4.2508245E-3,2.1549493E-2,5.044784E-3,1.5951704E-2,-8.5916305E-3,2.5184212E-2,7.304558E-3,-1.1858397E-2,1.3106222E-2,-1.0624463E-2,2.5979271E-2,-1.2984592E-4,8.036369E-3,-1.4769646E-2,-9.2810666E-4,-1.8257113E-2,-1.4896747E-2,1.3568777E-2,9.6132215E-3,-1.4979045E-2,2.324237E-2,7.0125E-4,-1.7083007E-4,-1.5196522E-2,-8.943574E-3,1.828626E-2,2.5578354E-2,-1.6144102E-2,-1.8338304E-2,-9.04127E-5,-1.2646766E-2,5.1638176E-4,2.6449211E-2,-3.9145183E-3],"split_indices":[88,79,77,166,168,189,208,224,0,114,163,158,4,208,48,36,0,36,201,87,4,48,224,152,0,155,38,10,0,0,0,157,10,87,10,156,67,0,69,0,0,0,163,1,208,1,13,206,70,3,168,3,155,0,0,0,0,0,0,0,0,0,0,0,0,0,0,0,0,0,0,0,0,0,0,0,0,0,0,0,0,0,0,0,0,0,0,0,0,0,0],"split_type":[0,0,0,0,0,0,0,0,0,0,0,0,0,0,0,0,0,0,0,0,0,0,0,0,0,0,0,0,0,0,0,0,0,0,0,0,0,0,0,0,0,0,0,0,0,0,0,0,0,0,0,0,0,0,0,0,0,0,0,0,0,0,0,0,0,0,0,0,0,0,0,0,0,0,0,0,0,0,0,0,0,0,0,0,0,0,0,0,0,0,0],"sum_hessian":[1.4867085E3,6.023955E2,8.84313E2,2.7404799E1,5.7499066E2,6.4587213E2,2.3844083E2,2.5628305E1,1.7764921E0,4.5870795E2,1.1628275E2,6.7247665E1,5.786245E2,2.1530374E2,2.3137081E1,3.9336371E0,2.169467E1,1.3412578E2,3.2458215E2,7.808752E1,3.8195232E1,2.6881971E0,6.455946E1,5.773164E2,1.3080767E0,1.3406314E1,2.0189743E2,1.1953768E1,1.1183313E1,2.6132705E0,1.3203666E0,1.1881713E2,1.5308638E1,8.423702E1,2.4034514E2,3.3698975E1,4.4388542E1,1.3601815E1,2.4593418E1,1.3423923E0,1.3458048E0,1.3192914E0,6.3240173E1,5.7301105E2,4.3053913E0,9.963201E0,3.443113E0,1.744098E2,2.7487625E1,5.8114314E0,6.142337E0,2.6232216E0,8.560091E0,9.3797356E1,2.5019777E1,1.3512234E1,1.7964034E0,7.195006E1,1.2286963E1,3.0835522E1,2.0950961E2,3.2348553E1,1.3504237E0,3.7697865E1,6.690676E0,5.44794E0,8.153875E0,1.41305275E1,1.0462891E1,1.7321324E0,6.150804E1,4.3232465E0,5.686878E2,2.149491E0,2.1559002E0,3.483189E0,6.4800115E0,2.1475234E0,1.2955897E0,1.0923031E1,1.6348677E2,2.3511833E1,3.9757915E0,3.1758435E0,2.635588E0,4.8044653E0,1.3378713E0,1.3175416E0,1.30568E0,6.763158E0,1.7969334E0],"tree_param":{"num_deleted":"0","num_feature":"231","num_nodes":"91","size_leaf_vector":"1"}},{"base_weights":[-1.617263E-1,3.0507013E-1,-4.3247798E-1,2.8507566E-1,8.2008135E-1,-4.7645333E-1,1.8025991E-1,-2.7165267E-1,2.996579E-1,1.0170579E0,-2.997941E-1,-5.149842E-1,-2.2682184E-1,-2.7315882E-1,3.9456615E-1,2.001369E-1,-4.8093563E-1,3.8502043E-1,1.8032064E-1,1.1575929E0,2.1572616E-3,-1.3413145E-2,-7.848495E-4,-3.8637513E-1,-5.5302924E-1,-2.6048872E-1,5.8980995E-1,-3.4240168E-1,1.2859141E-2,5.81588E-1,1.0881039E-2,-1.42508065E-2,2.1453785E-2,-1.9136813E-2,-1.5838468E-1,5.8419257E-2,4.521036E-1,-5.5080354E-1,2.0960097E-1,5.0989807E-1,3.7843682E-2,4.26624E-1,-4.0733618E-1,-5.7332E-1,-3.0950636E-1,2.1305066E-1,-3.2444224E-1,3.030115E-2,-3.5016332E-3,8.046916E-2,-4.8390153E-1,7.532343E-1,5.1830567E-2,-3.7094164E-1,5.953016E-1,6.6869156E-3,-1.454457E-2,2.5782133E-2,-1.3494921E-3,3.093296E-3,1.4995994E-2,-1.9549707E-2,-2.3646697E-5,9.874826E-3,2.694839E-4,-7.6499395E-4,2.4961647E-2,-1.3996287E-2,3.179829E-2,-5.9075505E-3,-1.4946659E-2,-1.729888E-2,1.3139685E-2,-1.2318242E-2,1.9427234E-2,-3.989663E-3,2.1784857E-2,2.578596E-2,-1.0460497E-2,-1.0355281E-2,2.5894761E-2,-1.7909748E-2,3.5327657E-3,1.3583568E-3,2.670686E-2,-1.3793227E-2,2.8364845E-2,-1.9775506E-2,2.4720816E-2,-4.170055E-3,2.740469E-2],"categories":[],"categories_nodes":[],"categories_segments":[],"categories_sizes":[],"default_left":[0,0,0,0,0,0,0,0,0,0,0,0,0,0,0,0,0,0,0,0,0,0,0,0,0,0,0,0,0,0,0,0,0,0,0,0,0,0,0,0,0,0,0,0,0,0,0,0,0,0,0,0,0,0,0,0,0,0,0,0,0,0,0,0,0,0,0,0,0,0,0,0,0,0,0,0,0,0,0,0,0,0,0,0,0,0,0,0,0,0,0],"id":13,"left_children":[1,3,5,7,9,11,13,15,17,19,21,23,25,27,29,31,33,35,37,39,-1,-1,-1,41,43,45,47,49,-1,51,53,-1,-1,-1,55,57,59,61,63,65,-1,67,69,71,73,75,77,-1,-1,79,81,83,85,87,89,-1,-1,-1,-1,-1,-1,-1,-1,-1,-1,-1,-1,-1,-1,-1,-1,-1,-1,-1,-1,-1,-1,-1,-1,-1,-1,-1,-1,-1,-1,-1,-1,-1,-1,-1,-1],"loss_changes":[1.8778755E2,5.3849373E0,2.5418213E1,4.35804E0,4.68565E0,8.323029E0,6.2955666E0,1.4756463E0,5.1647797E0,2.1902637E0,1.3917625E-1,3.5017242E0,3.428491E0,1.1686542E0,3.1259437E0,2.077867E0,4.0378428E-1,6.517212E0,4.7426724E0,3.547287E-1,0E0,0E0,0E0,3.1844196E0,2.706665E0,3.5546079E0,1.6091156E0,1.2174921E0,0E0,2.627717E0,3.64019E0,0E0,0E0,0E0,6.798775E-1,4.3488684E0,4.07613E0,4.7646546E-1,4.9993076E0,6.64324E-1,0E0,3.2825594E0,3.2053356E0,2.051834E0,4.82009E0,2.635233E0,3.2212543E0,0E0,0E0,2.2287717E0,1.0841675E0,2.1007977E0,4.207013E0,3.9477518E0,1.6314683E0,0E0,0E0,0E0,0E0,0E0,0E0,0E0,0E0,0E0,0E0,0E0,0E0,0E0,0E0,0E0,0E0,0E0,0E0,0E0,0E0,0E0,0E0,0E0,0E0,0E0,0E0,0E0,0E0,0E0,0E0,0E0,0E0,0E0,0E0,0E0,0E0],"parents":[2147483647,0,0,1,1,2,2,3,3,4,4,5,5,6,6,7,7,8,8,9,9,10,10,11,11,12,12,13,13,14,14,15,15,16,16,17,17,18,18,19,19,23,23,24,24,25,25,26,26,27,27,29,29,30,30,34,34,35,35,36,36,37,37,38,38,39,39,41,41,42,42,43,43,44,44,45,45,46,46,49,49,50,50,51,51,52,52,53,53,54,54],"right_children":[2,4,6,8,10,12,14,16,18,20,22,24,26,28,30,32,34,36,38,40,-1,-1,-1,42,44,46,48,50,-1,52,54,-1,-1,-1,56,58,60,62,64,66,-1,68,70,72,74,76,78,-1,-1,80,82,84,86,88,90,-1,-1,-1,-1,-1,-1,-1,-1,-1,-1,-1,-1,-1,-1,-1,-1,-1,-1,-1,-1,-1,-1,-1,-1,-1,-1,-1,-1,-1,-1,-1,-1,-1,-1,-1,-1],"split_conditions":[-2.5761256E-1,1.025E0,1.1229645E0,2.7131548E-2,1.17047E0,1.4474536E0,7.1558505E-2,2.2360023E-2,4.8989794E-1,8.6037993E-1,5.127477E-1,-4.4201538E-1,2.5040646E0,1.9332454E-1,6.927389E-1,-6.2600744E-1,0E0,-6.666667E-1,-1.4494748E0,3.658596E-2,2.1572616E-3,-1.3413145E-2,-7.848495E-4,-3.774418E-1,4.9839744E-1,8.52965E-1,2.1250365E0,5.003993E-2,1.2859141E-2,2.9275137E-1,8.199837E-1,-1.42508065E-2,2.1453785E-2,-1.9136813E-2,5.3698283E-1,-3.7386227E-1,-3.031149E-1,7.946096E-1,2.2318143E-1,2.8519052E-1,3.7843682E-2,1.0257193E0,1.2018504E-1,4.8137525E-1,9.8E-1,-4.1191587E-1,3.2496154E-1,3.030115E-2,-3.5016332E-3,4.8911717E-2,-3.1583495E-2,6.0903877E-2,9.0244114E-1,8.2966274E-1,7.3155326E-1,6.6869156E-3,-1.454457E-2,2.5782133E-2,-1.3494921E-3,3.093296E-3,1.4995994E-2,-1.9549707E-2,-2.3646697E-5,9.874826E-3,2.694839E-4,-7.6499395E-4,2.4961647E-2,-1.3996287E-2,3.179829E-2,-5.9075505E-3,-1.4946659E-2,-1.729888E-2,1.3139685E-2,-1.2318242E-2,1.9427234E-2,-3.989663E-3,2.1784857E-2,2.578596E-2,-1.0460497E-2,-1.0355281E-2,2.5894761E-2,-1.7909748E-2,3.5327657E-3,1.3583568E-3,2.670686E-2,-1.3793227E-2,2.8364845E-2,-1.9775506E-2,2.4720816E-2,-4.170055E-3,2.740469E-2],"split_indices":[88,144,32,197,221,0,156,160,203,10,3,95,77,13,65,13,69,70,54,196,0,0,0,81,161,77,0,156,0,87,0,0,0,0,1,87,87,164,54,81,0,221,224,74,129,1,203,0,0,156,131,196,206,61,61,0,0,0,0,0,0,0,0,0,0,0,0,0,0,0,0,0,0,0,0,0,0,0,0,0,0,0,0,0,0,0,0,0,0,0,0],"split_type":[0,0,0,0,0,0,0,0,0,0,0,0,0,0,0,0,0,0,0,0,0,0,0,0,0,0,0,0,0,0,0,0,0,0,0,0,0,0,0,0,0,0,0,0,0,0,0,0,0,0,0,0,0,0,0,0,0,0,0,0,0,0,0,0,0,0,0,0,0,0,0,0,0,0,0,0,0,0,0,0,0,0,0,0,0,0,0,0,0,0,0],"sum_hessian":[1.4837826E3,5.4464557E2,9.39137E2,5.257863E2,1.885927E1,8.7645734E2,6.2679714E1,1.2970304E1,5.12816E2,1.6116352E1,2.742918E0,7.583434E2,1.1811393E2,2.0028906E1,4.2650806E1,3.999001E0,8.971303E0,2.9766696E2,2.1514902E2,1.3834515E1,2.2818377E0,1.3709191E0,1.371999E0,1.7566708E2,5.8267633E2,1.1409136E2,4.0225677E0,1.8696337E1,1.332569E0,2.8327284E1,1.43235235E1,1.763979E0,2.235022E0,5.377082E0,3.5942206E0,5.1040752E1,2.4662622E2,7.5987353E0,2.0755028E2,2.7285426E0,1.1105972E1,3.9288485E0,1.7173824E2,5.3661066E2,4.6065636E1,1.329775E1,1.0079361E2,2.2529757E0,1.7695922E0,4.795712E0,1.3900625E1,2.1076464E1,7.2508197E0,8.884348E0,5.4391756E0,1.804133E0,1.7900877E0,4.999771E0,4.604098E1,3.006994E1,2.1655627E2,6.2651334E0,1.3336021E0,1.2964603E2,7.790424E1,1.3709631E0,1.3575796E0,1.7392826E0,2.189566E0,5.2758663E1,1.18979576E2,5.352888E2,1.3218395E0,4.2180824E1,3.8848145E0,8.384266E0,4.9134846E0,1.3309281E0,9.9462685E1,3.4684653E0,1.3272467E0,1.1707756E1,2.1928697E0,3.632913E0,1.7443552E1,4.919832E0,2.3309872E0,7.519028E0,1.3653194E0,1.8146152E0,3.6245606E0],"tree_param":{"num_deleted":"0","num_feature":"231","num_nodes":"91","size_leaf_vector":"1"}},{"base_weights":[3.6273402E-1,-5.4486156E-1,8.7843215E-1,1.1258163E0,-6.1484444E-1,9.2700136E-1,1.5039132E-2,1.1590503E0,1.0921911E-2,-6.4595705E-1,-1.8849595E-1,9.830184E-1,6.595168E-1,-5.45142E-1,5.1807594E-1,1.1946845E0,1.1334535E-2,-2.2371979E-1,-6.5103364E-1,-4.5358703E-1,5.064573E-1,9.181513E-1,1.134647E0,7.090487E-1,4.534855E-2,-6.153807E-1,1.219431E-2,8.047945E-1,1.4191028E-2,3.7061144E-2,1.1391801E-2,-4.4505054E-1,1.4106781E-2,-1.6806531E-1,-6.545332E-1,-5.140973E-1,1.2780775E-2,-3.7259124E-3,6.43963E-1,4.355751E-1,9.311487E-1,-1.655788E-2,1.1576377E0,6.123041E-1,1.0405354E0,-1.7859733E-2,3.836047E-1,4.5224398E-4,-6.5208405E-1,9.143513E-1,1.3370903E-3,3.6148626E-1,-3.1659693E-1,9.798267E-4,-1.7326081E-2,-1.5716605E-2,1.3799303E-2,1.1260756E-3,-1.9692749E-2,3.4035128E-3,-1.7269347E-2,3.1371396E-2,9.216794E-3,1.7924443E-2,-1.5488453E-2,2.8412154E-2,1.5376226E-2,3.514161E-2,1.8493634E-2,2.0688258E-2,7.31136E-3,3.414257E-2,6.6890526E-3,2.0267945E-2,-1.531488E-2,-2.0765726E-2,-1.0232926E-4,3.6274448E-2,1.3953312E-2,-4.052526E-3,1.8241271E-2,1.3069589E-2,-1.8070573E-2],"categories":[],"categories_nodes":[],"categories_segments":[],"categories_sizes":[],"default_left":[0,0,0,0,0,0,0,0,0,0,0,0,0,0,0,0,0,0,0,0,0,0,0,0,0,0,0,0,0,0,0,0,0,0,0,0,0,0,0,0,0,0,0,0,0,0,0,0,0,0,0,0,0,0,0,0,0,0,0,0,0,0,0,0,0,0,0,0,0,0,0,0,0,0,0,0,0,0,0,0,0,0,0],"id":14,"left_children":[1,3,5,7,9,11,13,15,-1,17,19,21,23,25,27,29,-1,31,33,35,37,39,41,43,45,47,-1,49,51,-1,-1,53,-1,55,57,59,-1,-1,61,63,65,-1,67,69,71,-1,73,-1,75,77,-1,79,81,-1,-1,-1,-1,-1,-1,-1,-1,-1,-1,-1,-1,-1,-1,-1,-1,-1,-1,-1,-1,-1,-1,-1,-1,-1,-1,-1,-1,-1,-1],"loss_changes":[7.1652716E2,6.5574066E1,4.0911316E1,1.5179443E-1,6.951935E0,1.3195801E1,1.5215406E1,1.404419E-1,0E0,9.187927E-1,7.1714168E0,6.4522095E0,4.927292E0,1.958559E0,4.0964293E0,1.897049E-1,0E0,1.3494008E0,7.184601E-1,1.698874E0,1.0232072E0,2.9743042E0,9.326508E0,4.198723E0,3.0965605E0,5.698261E-1,0E0,1.4670734E0,1.4159924E0,0E0,0E0,4.075774E-1,0E0,1.3296418E0,6.613312E-1,1.087573E0,0E0,0E0,9.086697E-1,2.7760906E0,3.0064697E0,0E0,9.250183E-1,3.2271423E0,2.349144E0,0E0,2.7650232E0,0E0,5.9319687E-1,1.5264034E0,0E0,8.159672E-1,1.6243489E0,0E0,0E0,0E0,0E0,0E0,0E0,0E0,0E0,0E0,0E0,0E0,0E0,0E0,0E0,0E0,0E0,0E0,0E0,0E0,0E0,0E0,0E0,0E0,0E0,0E0,0E0,0E0,0E0,0E0,0E0],"parents":[2147483647,0,0,1,1,2,2,3,3,4,4,5,5,6,6,7,7,9,9,10,10,11,11,12,12,13,13,14,14,15,15,17,17,18,18,19,19,20,20,21,21,22,22,23,23,24,24,25,25,27,27,28,28,31,31,33,33,34,34,35,35,38,38,39,39,40,40,42,42,43,43,44,44,46,46,48,48,49,49,51,51,52,52],"right_children":[2,4,6,8,10,12,14,16,-1,18,20,22,24,26,28,30,-1,32,34,36,38,40,42,44,46,48,-1,50,52,-1,-1,54,-1,56,58,60,-1,-1,62,64,66,-1,68,70,72,-1,74,-1,76,78,-1,80,82,-1,-1,-1,-1,-1,-1,-1,-1,-1,-1,-1,-1,-1,-1,-1,-1,-1,-1,-1,-1,-1,-1,-1,-1,-1,-1,-1,-1,-1,-1],"split_conditions":[-2.2243759E-1,-3.8053507E-1,1.8650466E-1,4.9959984E-1,7E-1,9.5503134E-1,-8.313312E-2,-5.385363E-1,1.0921911E-2,8.891332E-3,3E-1,4.2247885E-1,1.6668699E0,5.6504946E-2,6.3270545E-1,9.249388E-2,1.1334535E-2,1E0,-1.0310088E-1,2.2589721E-1,0E0,1.11753695E-1,4.187492E-1,4.1533118E-1,-1.7407489E-1,1.1590226E-1,1.219431E-2,7.9975E-1,1.1417869E-1,3.7061144E-2,1.1391801E-2,1.0892337E-1,1.4106781E-2,6.300899E-2,-2.9759591E-2,3.3027548E-1,1.2780775E-2,-3.7259124E-3,5E-1,5.4E-1,3.6E-1,-1.655788E-2,9.5695846E-2,1E0,4.9839744E-1,-1.7859733E-2,8.3882815E-1,4.5224398E-4,5.783204E-1,5.2619433E-1,1.3370903E-3,7.4838346E-1,4.5661047E-1,9.798267E-4,-1.7326081E-2,-1.5716605E-2,1.3799303E-2,1.1260756E-3,-1.9692749E-2,3.4035128E-3,-1.7269347E-2,3.1371396E-2,9.216794E-3,1.7924443E-2,-1.5488453E-2,2.8412154E-2,1.5376226E-2,3.514161E-2,1.8493634E-2,2.0688258E-2,7.31136E-3,3.414257E-2,6.6890526E-3,2.0267945E-2,-1.531488E-2,-2.0765726E-2,-1.0232926E-4,3.6274448E-2,1.3953312E-2,-4.052526E-3,1.8241271E-2,1.3069589E-2,-1.8070573E-2],"split_indices":[88,64,195,209,125,0,86,138,0,156,116,66,208,163,3,92,0,38,123,172,69,224,155,207,10,224,0,207,1,0,0,3,0,4,93,155,0,0,69,113,134,0,182,38,209,0,10,0,13,63,0,81,138,0,0,0,0,0,0,0,0,0,0,0,0,0,0,0,0,0,0,0,0,0,0,0,0,0,0,0,0,0,0],"split_type":[0,0,0,0,0,0,0,0,0,0,0,0,0,0,0,0,0,0,0,0,0,0,0,0,0,0,0,0,0,0,0,0,0,0,0,0,0,0,0,0,0,0,0,0,0,0,0,0,0,0,0,0,0,0,0,0,0,0,0,0,0,0,0,0,0,0,0,0,0,0,0,0,0,0,0,0,0,0,0,0,0,0,0],"sum_hessian":[1.5288699E3,5.539308E2,9.749391E2,2.1664093E1,5.322667E2,9.229461E2,5.1992977E1,2.0258684E1,1.4054096E0,4.9558636E2,3.6680336E1,7.6091846E2,1.6202768E2,2.4559664E1,2.7433311E1,1.8868793E1,1.3898897E0,6.4231067E0,4.8916327E2,2.6803434E1,9.876902E0,5.3787115E2,2.2304732E2,1.4979262E2,1.2235062E1,2.320057E1,1.359093E0,1.7103798E1,1.03295145E1,1.7480219E1,1.3885746E0,5.1418157E0,1.281291E0,3.871623E0,4.8529166E2,2.5467049E1,1.3363864E0,1.7853543E0,8.091547E0,1.5011909E1,5.2285925E2,2.6902037E0,2.2035712E2,1.18155914E2,3.1636705E1,3.9650636E0,8.269999E0,1.3087845E0,2.1891787E1,1.4772221E1,2.3315773E0,4.993754E0,5.33576E0,1.2799816E0,3.861834E0,2.5772855E0,1.2943376E0,1.2716079E0,4.8402005E2,2.199309E0,2.326774E1,2.7295582E0,5.3619885E0,1.3147825E1,1.8640838E0,5.024832E2,2.0376032E1,2.137618E2,6.5953135E0,9.695144E1,2.1204473E1,2.791403E1,3.7226744E0,6.4183044E0,1.8516937E0,2.0553873E1,1.3379135E0,7.897955E0,6.874266E0,1.8068424E0,3.1869113E0,1.3244877E0,4.0112724E0],"tree_param":{"num_deleted":"0","num_feature":"231","num_nodes":"83","size_leaf_vector":"1"}},{"base_weights":[-1.9169009E-1,2.62389E-1,-4.9799532E-1,-4.5190826E-1,2.970976E-1,-5.660356E-1,-3.350076E-1,-5.4423654E-1,1.6903656E-2,2.6550102E-1,7.193544E-1,1.7686585E-1,-5.714472E-1,-3.9755905E-1,1.03945315E-1,7.3000267E-3,-6.113647E-1,2.1915245E-1,5.0505453E-1,4.398861E-1,1.0762923E0,-2.3621832E-1,1.960822E-2,-5.330986E-1,-6.6915464E-1,-6.4139694E-1,-3.5427314E-1,-6.1586812E-2,7.041395E-1,3.1818438E-3,-2.0634169E-2,2.3902154E-1,-2.9606077E-1,2.916692E-1,7.262437E-1,-3.9210752E-1,6.121358E-1,1.1187613E0,1.091159E-2,1.0166188E-3,-1.2089537E-2,1.246662E-2,-5.3689516E-1,-6.801671E-1,-1.4635403E-1,-6.693264E-1,1.0327682E-3,-3.7375778E-1,2.2536138E-1,2.151133E-1,-4.3048063E-1,3.7502274E-3,3.303102E-2,7.722137E-3,-1.1573915E-2,5.6477366E-3,-1.3829051E-2,1.843297E-2,3.0715286E-3,-5.0241123E-3,2.5953319E-2,-6.2724925E-4,-1.6188815E-2,2.7253164E-2,9.633521E-3,3.5085198E-2,1.0973681E-2,-1.6309544E-2,4.5248886E-5,-2.0576986E-2,-2.2365393E-3,-1.5339283E-2,1.4604748E-2,-2.0977937E-2,7.678066E-4,-1.2607657E-2,-3.3063397E-3,2.5906201E-2,-1.0223141E-2,-8.343422E-3,1.8727109E-2,-1.656247E-2,-1.8596975E-4,-1.2492835E-2,1.2446244E-2],"categories":[],"categories_nodes":[],"categories_segments":[],"categories_sizes":[],"default_left":[0,0,0,0,0,0,0,0,0,0,0,0,0,0,0,0,0,0,0,0,0,0,0,0,0,0,0,0,0,0,0,0,0,0,0,0,0,0,0,0,0,0,0,0,0,0,0,0,0,0,0,0,0,0,0,0,0,0,0,0,0,0,0,0,0,0,0,0,0,0,0,0,0,0,0,0,0,0,0,0,0,0,0,0,0],"id":15,"left_children":[1,3,5,7,9,11,13,15,-1,17,19,21,23,25,27,-1,29,31,33,35,37,39,-1,41,43,45,47,49,51,-1,-1,53,55,57,59,61,63,65,-1,-1,-1,-1,67,69,71,73,-1,75,77,79,81,83,-1,-1,-1,-1,-1,-1,-1,-1,-1,-1,-1,-1,-1,-1,-1,-1,-1,-1,-1,-1,-1,-1,-1,-1,-1,-1,-1,-1,-1,-1,-1,-1,-1],"loss_changes":[2.0555135E2,1.4900627E1,9.5950775E0,2.931252E0,7.3952904E0,2.5977325E0,7.2434196E0,1.5324206E0,0E0,5.7806168E0,3.4169712E0,1.1892151E0,1.9542389E0,2.1981888E0,3.3725522E0,0E0,1.4111147E0,4.6400146E0,3.8119392E0,3.6171746E0,9.045601E-2,1.7355572E-1,0E0,1.8360748E0,8.7874603E-1,6.5365505E-1,2.3134918E0,2.8674417E0,2.031895E0,0E0,0E0,5.042145E0,1.446217E0,2.6901505E0,5.2567806E0,2.4343014E-1,1.4254403E0,1.4646721E-1,0E0,0E0,0E0,0E0,1.625E0,5.2565765E-1,1.353401E0,6.863947E-1,0E0,2.2984295E0,2.8389454E0,3.4426825E0,6.14902E-1,8.037491E-1,0E0,0E0,0E0,0E0,0E0,0E0,0E0,0E0,0E0,0E0,0E0,0E0,0E0,0E0,0E0,0E0,0E0,0E0,0E0,0E0,0E0,0E0,0E0,0E0,0E0,0E0,0E0,0E0,0E0,0E0,0E0,0E0,0E0],"parents":[2147483647,0,0,1,1,2,2,3,3,4,4,5,5,6,6,7,7,9,9,10,10,11,11,12,12,13,13,14,14,16,16,17,17,18,18,19,19,20,20,21,21,23,23,24,24,25,25,26,26,27,27,28,28,31,31,32,32,33,33,34,34,35,35,36,36,37,37,42,42,43,43,44,44,45,45,47,47,48,48,49,49,50,50,51,51],"right_children":[2,4,6,8,10,12,14,16,-1,18,20,22,24,26,28,-1,30,32,34,36,38,40,-1,42,44,46,48,50,52,-1,-1,54,56,58,60,62,64,66,-1,-1,-1,-1,68,70,72,74,-1,76,78,80,82,84,-1,-1,-1,-1,-1,-1,-1,-1,-1,-1,-1,-1,-1,-1,-1,-1,-1,-1,-1,-1,-1,-1,-1,-1,-1,-1,-1,-1,-1,-1,-1,-1,-1],"split_conditions":[-2.2243759E-1,-1.3525159E-2,6.816057E-1,1.9475755E-1,1.0052173E0,4.3063965E-3,1.5357969E0,7.145103E-1,1.6903656E-2,1E0,7.9340535E-1,3.7968252E-3,4.0063646E-1,6.0284626E-2,1E0,7.3000267E-3,2.3567866E-1,8E-2,7.611354E-2,-8.679404E-1,1.2622322E0,3.4786577E-3,1.960822E-2,3.2771853E-1,8.825531E-1,1.5474163E-1,4.4E-1,-2.6302323E-1,1.2183778E-1,3.1818438E-3,-2.0634169E-2,2E0,4.9701497E-2,-3.602689E-1,-8.4E-1,1.1400912E0,6.9378406E-1,1.04E0,1.091159E-2,1.0166188E-3,-1.2089537E-2,1.246662E-2,5.604524E-1,8.15E-1,-7.861247E-1,5.4543E-1,1.0327682E-3,1E0,-4.3587053E-1,1.15E-1,1.25E0,4.9574038E-1,3.303102E-2,7.722137E-3,-1.1573915E-2,5.6477366E-3,-1.3829051E-2,1.843297E-2,3.0715286E-3,-5.0241123E-3,2.5953319E-2,-6.2724925E-4,-1.6188815E-2,2.7253164E-2,9.633521E-3,3.5085198E-2,1.0973681E-2,-1.6309544E-2,4.5248886E-5,-2.0576986E-2,-2.2365393E-3,-1.5339283E-2,1.4604748E-2,-2.0977937E-2,7.678066E-4,-1.2607657E-2,-3.3063397E-3,2.5906201E-2,-1.0223141E-2,-8.343422E-3,1.8727109E-2,-1.656247E-2,-1.8596975E-4,-1.2492835E-2,1.2446244E-2],"split_indices":[88,83,77,90,112,165,208,221,0,37,164,165,66,199,67,0,167,103,87,10,42,165,0,208,207,200,91,10,224,0,0,67,194,10,147,98,0,130,0,0,0,0,6,144,10,1,0,38,63,144,52,4,0,0,0,0,0,0,0,0,0,0,0,0,0,0,0,0,0,0,0,0,0,0,0,0,0,0,0,0,0,0,0,0,0],"split_type":[0,0,0,0,0,0,0,0,0,0,0,0,0,0,0,0,0,0,0,0,0,0,0,0,0,0,0,0,0,0,0,0,0,0,0,0,0,0,0,0,0,0,0,0,0,0,0,0,0,0,0,0,0,0,0,0,0,0,0,0,0,0,0,0,0,0,0,0,0,0,0,0,0,0,0,0,0,0,0,0,0,0,0,0,0],"sum_hessian":[1.4759246E3,5.946037E2,8.8132086E2,2.6996677E1,5.67607E2,6.200175E2,2.613033E2,2.5171774E1,1.8249034E0,5.2960645E2,3.800058E1,4.2546496E0,6.157629E2,2.2879413E2,3.25092E1,1.7708334E0,2.340094E1,4.4535455E2,8.425187E1,2.2565258E1,1.543532E1,2.5498154E0,1.7048342E0,4.4684106E2,1.6892181E2,3.240919E1,1.9638493E2,2.6184866E1,6.324336E0,2.2159483E0,2.1184992E1,4.2933347E2,1.6021074E1,4.406254E1,4.018933E1,3.651507E0,1.8913752E1,1.4029155E1,1.4061649E0,1.2774963E0,1.2723192E0,1.348857E0,4.4549222E2,1.651422E2,3.779612E0,3.1132212E1,1.2769786E0,1.903417E2,6.0432305E0,1.5200292E1,1.0984574E1,2.652677E0,3.6716588E0,4.1763412E2,1.1699347E1,4.0334883E0,1.1987587E1,1.54579735E1,2.8604565E1,5.377173E0,3.4812157E1,1.3631605E0,2.2883463E0,8.320538E0,1.0593214E1,1.2625118E1,1.404037E0,4.3996143E2,5.5307813E0,1.6346237E2,1.6798276E0,2.5197413E0,1.2598706E0,2.9840391E1,1.2918191E0,1.6129062E2,2.9051086E1,2.5939002E0,3.4493306E0,7.036961E0,8.16333E0,8.303519E0,2.6810553E0,1.3055145E0,1.3471627E0],"tree_param":{"num_deleted":"0","num_feature":"231","num_nodes":"85","size_leaf_vector":"1"}},{"base_weights":[-1.7160958E-1,2.8470024E-1,-4.3462822E-1,2.64419E-1,7.968977E-1,-4.7460964E-1,9.236661E-2,2.8689283E-1,-1.3437124E-1,9.0055203E-1,-4.492679E-3,-4.9540344E-1,-1.310322E-1,-2.9366338E-1,2.7851748E-1,4.3783695E-1,2.2395876E-1,-2.9664785E-1,2.9898927E-1,-4.3299E-3,1.0257534E0,-3.450549E-1,-5.408993E-1,5.749036E-1,-2.5868234E-1,-3.599735E-1,1.2691923E-2,3.940088E-1,-2.3072256E-1,2.4749683E-1,6.3471615E-1,-3.741954E-1,2.4990195E-1,-5.066882E-1,1.7608383E-1,7.6278317E-1,-3.3908144E-1,1.1621335E0,3.5616055E-1,-4.1223916E-1,-9.376378E-2,2.5493717E-2,-5.4523903E-1,9.34575E-1,-1.4054086E-2,4.0140784E-1,-3.8700944E-1,7.6934067E-3,-4.2989558E-1,4.6488026E-1,-1.5324026E-2,2.5672498E-1,-1.819488E-2,2.039357E-3,2.142527E-2,2.4388446E-2,1.0341761E-2,1.1904171E-2,-1.626813E-2,9.3586E-3,6.898393E-6,7.279564E-3,-2.08254E-2,1.8945172E-2,-9.761656E-3,3.0119926E-2,6.3953E-3,-4.3240908E-4,-1.47226285E-2,1.1089884E-2,3.67497E-2,-4.466899E-3,2.4221063E-2,-1.2966127E-2,1.2480226E-2,1.4695837E-2,-6.7042913E-3,-1.6988432E-2,-8.563311E-3,4.2301723E-5,3.5424538E-2,1.9134387E-2,-1.255182E-2,-5.6771077E-3,-1.8711735E-2,-1.5236747E-2,3.547169E-3,-1.3983026E-2,1.5810339E-2,2.0048972E-2,-1.2991097E-2],"categories":[],"categories_nodes":[],"categories_segments":[],"categories_sizes":[],"default_left":[0,0,0,0,0,0,0,0,0,0,0,0,0,0,0,0,0,0,0,0,0,0,0,0,0,0,0,0,0,0,0,0,0,0,0,0,0,0,0,0,0,0,0,0,0,0,0,0,0,0,0,0,0,0,0,0,0,0,0,0,0,0,0,0,0,0,0,0,0,0,0,0,0,0,0,0,0,0,0,0,0,0,0,0,0,0,0,0,0,0,0],"id":16,"left_children":[1,3,5,7,9,11,13,15,17,19,-1,21,23,25,27,29,31,33,35,-1,37,39,41,43,45,47,-1,49,51,53,55,57,59,61,63,65,67,69,71,73,75,-1,77,79,-1,81,83,-1,85,87,-1,89,-1,-1,-1,-1,-1,-1,-1,-1,-1,-1,-1,-1,-1,-1,-1,-1,-1,-1,-1,-1,-1,-1,-1,-1,-1,-1,-1,-1,-1,-1,-1,-1,-1,-1,-1,-1,-1,-1,-1],"loss_changes":[1.7682205E2,5.387699E0,1.9730286E1,4.6980667E0,2.100338E0,6.140686E0,4.8765326E0,4.5802994E0,2.0870948E0,2.5284834E0,0E0,5.4133453E0,4.7380877E0,1.2071052E0,2.7686079E0,5.2341805E0,5.518862E0,2.1919346E0,2.6971369E0,0E0,1.0812187E0,3.21883E0,4.2458496E0,3.4810085E0,3.8672194E0,1.0091305E0,0E0,2.640986E0,1.8129264E0,6.2169394E0,3.3418636E0,2.1503763E0,5.200487E0,2.2646592E0,1.8627899E0,4.5935965E-1,1.9780943E-1,2.0270157E-1,1.0801435E0,2.6924324E0,3.2888448E0,0E0,3.2571716E0,1.460773E0,0E0,1.7442794E0,1.6233559E0,0E0,8.767972E-1,2.2864923E0,0E0,1.6069508E0,0E0,0E0,0E0,0E0,0E0,0E0,0E0,0E0,0E0,0E0,0E0,0E0,0E0,0E0,0E0,0E0,0E0,0E0,0E0,0E0,0E0,0E0,0E0,0E0,0E0,0E0,0E0,0E0,0E0,0E0,0E0,0E0,0E0,0E0,0E0,0E0,0E0,0E0,0E0],"parents":[2147483647,0,0,1,1,2,2,3,3,4,4,5,5,6,6,7,7,8,8,9,9,11,11,12,12,13,13,14,14,15,15,16,16,17,17,18,18,20,20,21,21,22,22,23,23,24,24,25,25,27,27,28,28,29,29,30,30,31,31,32,32,33,33,34,34,35,35,36,36,37,37,38,38,39,39,40,40,42,42,43,43,45,45,46,46,48,48,49,49,51,51],"right_children":[2,4,6,8,10,12,14,16,18,20,-1,22,24,26,28,30,32,34,36,-1,38,40,42,44,46,48,-1,50,52,54,56,58,60,62,64,66,68,70,72,74,76,-1,78,80,-1,82,84,-1,86,88,-1,90,-1,-1,-1,-1,-1,-1,-1,-1,-1,-1,-1,-1,-1,-1,-1,-1,-1,-1,-1,-1,-1,-1,-1,-1,-1,-1,-1,-1,-1,-1,-1,-1,-1,-1,-1,-1,-1,-1,-1],"split_conditions":[-2.5761256E-1,1.025E0,1.1688721E0,1.5998242E0,1.17047E0,9.6048445E-1,7.213493E-2,-3.6366853E-1,5.4243124E-1,3.335219E-2,-4.492679E-3,-4.4201538E-1,1.0191446E-1,4.3619175E-2,1E0,3.2572994E-1,3.041048E-2,4.9959984E-1,9.7282094E-1,-4.3299E-3,4.9959984E-1,-1.2E-1,1.2E-1,1.086182E-1,8E-2,3.689068E-1,1.2691923E-2,4.9959984E-1,5.271801E-1,4.8E-1,9.746794E-1,1.9445366E-1,4.8989794E-1,0E0,3.4190643E-1,1.1542093E0,-3.1505077E0,-3.2877243E-1,5E-1,1.3106201E0,5.7024788E-2,2.5493717E-2,7.2076946E-1,-1.0579181E0,-1.4054086E-2,1E0,5E-1,7.6934067E-3,2.5748664E-1,1.7645413E-2,-1.5324026E-2,5E-1,-1.819488E-2,2.039357E-3,2.142527E-2,2.4388446E-2,1.0341761E-2,1.1904171E-2,-1.626813E-2,9.3586E-3,6.898393E-6,7.279564E-3,-2.08254E-2,1.8945172E-2,-9.761656E-3,3.0119926E-2,6.3953E-3,-4.3240908E-4,-1.47226285E-2,1.1089884E-2,3.67497E-2,-4.466899E-3,2.4221063E-2,-1.2966127E-2,1.2480226E-2,1.4695837E-2,-6.7042913E-3,-1.6988432E-2,-8.563311E-3,4.2301723E-5,3.5424538E-2,1.9134387E-2,-1.255182E-2,-5.6771077E-3,-1.8711735E-2,-1.5236747E-2,3.547169E-3,-1.3983026E-2,1.5810339E-2,2.0048972E-2,-1.2991097E-2],"split_indices":[88,144,33,17,221,157,156,54,4,61,0,95,219,162,67,207,196,203,4,0,191,89,126,196,114,208,0,166,164,210,221,131,166,146,207,80,54,4,191,221,219,0,83,3,0,58,69,0,87,172,0,52,0,0,0,0,0,0,0,0,0,0,0,0,0,0,0,0,0,0,0,0,0,0,0,0,0,0,0,0,0,0,0,0,0,0,0,0,0,0,0],"split_type":[0,0,0,0,0,0,0,0,0,0,0,0,0,0,0,0,0,0,0,0,0,0,0,0,0,0,0,0,0,0,0,0,0,0,0,0,0,0,0,0,0,0,0,0,0,0,0,0,0,0,0,0,0,0,0,0,0,0,0,0,0,0,0,0,0,0,0,0,0,0,0,0,0,0,0,0,0,0,0,0,0,0,0,0,0,0,0,0,0,0,0],"sum_hessian":[1.4712653E3,5.3793024E2,9.333351E2,5.1889984E2,1.9030392E1,8.676116E2,6.572355E1,4.914829E2,2.7416935E1,1.7196188E1,1.8342048E0,8.176824E2,4.992917E1,2.1194317E1,4.452923E1,1.4286687E2,3.4861603E2,2.0176931E1,7.240003E0,1.8236794E0,1.5372508E1,1.9194678E2,6.257356E2,7.109299E0,4.281987E1,1.9855118E1,1.3391995E0,3.648176E1,8.04747E0,7.378735E1,6.907951E1,1.3933657E1,3.3468237E2,1.3920193E1,6.256739E0,4.079377E0,3.160626E0,1.2160186E1,3.2123222E0,1.5094908E2,4.0997684E1,1.3405442E0,6.243951E2,5.36437E0,1.7449293E0,6.623231E0,3.619664E1,1.7510011E0,1.8104116E1,3.4282692E1,2.1990652E0,3.6411004E0,4.40637E0,5.411608E1,1.9671276E1,4.1667046E1,2.741247E1,2.2502718E0,1.1683385E1,2.67861E2,6.682139E1,2.727022E0,1.1193171E1,3.1430306E0,3.1137085E0,2.260513E0,1.8188639E0,1.3550549E0,1.8055711E0,1.3993084E0,1.0760878E1,1.831853E0,1.3804693E0,1.4786299E2,3.0861015E0,6.9500995E0,3.404759E1,5.7652026E2,4.787479E1,1.3299818E0,4.034388E0,5.3130937E0,1.3101375E0,2.0700802E1,1.5495837E1,1.5913191E1,2.1909254E0,1.7380221E0,3.254467E1,2.2998924E0,1.3412081E0],"tree_param":{"num_deleted":"0","num_feature":"231","num_nodes":"91","size_leaf_vector":"1"}},{"base_weights":[3.4496647E-1,-5.4238784E-1,8.51167E-1,9.579698E-1,-6.115775E-1,9.004309E-1,-1.847635E-2,3.2461056E-1,1.0395035E0,-6.3972354E-1,-1.8391035E-1,9.44702E-1,6.3756585E-1,-5.862781E-1,5.5510694E-1,2.5740076E-2,-1.3718281E-2,5.1997276E-3,1.1135746E0,-4.2495713E-1,-6.5206355E-1,-1.9796604E-2,6.1305605E-2,8.8414955E-1,1.0993181E0,-1.6607607E-2,6.691712E-1,-6.5454745E-1,1.2054825E-2,9.479528E-1,2.5091085E-1,1.1554338E0,1.0256745E-2,-5.33165E-1,1.8463203E-1,-1.5336148E-1,-6.558431E-1,-3.8288283E-1,2.7037048E-1,4.003096E-1,8.9485437E-1,4.2511362E-1,1.1228824E0,5.1231486E-1,8.7816423E-1,-1.19396675E-4,-2.0706145E-2,-8.7688124E-4,1.0860606E0,4.4972885E-1,-3.6664054E-1,3.5962686E-2,1.1135906E-2,-1.8031232E-2,4.240979E-3,3.0960253E-2,-1.5421771E-2,1.4382956E-2,-1.54704945E-2,-1.973456E-2,8.8484224E-4,-1.7540611E-2,4.5432878E-4,-1.14811035E-2,1.513786E-2,-1.9522624E-3,2.144907E-2,2.7099269E-2,8.510205E-3,2.1982085E-2,-1.4897486E-2,3.3935957E-2,4.4485163E-3,1.2603008E-4,1.8307323E-2,2.8504549E-2,4.457886E-3,1.084968E-2,3.489609E-2,-1.322969E-2,1.7790148E-2,-1.5668105E-2,2.5120683E-4],"categories":[],"categories_nodes":[],"categories_segments":[],"categories_sizes":[],"default_left":[0,0,0,0,0,0,0,0,0,0,0,0,0,0,0,0,0,0,0,0,0,0,0,0,0,0,0,0,0,0,0,0,0,0,0,0,0,0,0,0,0,0,0,0,0,0,0,0,0,0,0,0,0,0,0,0,0,0,0,0,0,0,0,0,0,0,0,0,0,0,0,0,0,0,0,0,0,0,0,0,0,0,0],"id":17,"left_children":[1,3,5,7,9,11,13,15,17,19,21,23,25,27,29,-1,-1,-1,31,33,35,-1,37,39,41,-1,43,45,-1,47,49,51,-1,53,55,57,59,61,63,65,67,69,71,73,75,-1,-1,-1,77,79,81,-1,-1,-1,-1,-1,-1,-1,-1,-1,-1,-1,-1,-1,-1,-1,-1,-1,-1,-1,-1,-1,-1,-1,-1,-1,-1,-1,-1,-1,-1,-1,-1],"loss_changes":[6.814822E2,5.7820175E1,4.1393616E1,9.3777466E-1,6.2337036E0,1.0034668E1,1.7507725E1,2.173342E0,1.1815128E0,1.0338593E0,4.0070996E0,6.3327637E0,5.4462852E0,2.0842896E0,2.9599056E0,0E0,0E0,0E0,2.3652649E-1,2.0607548E0,7.775879E-1,0E0,2.2714067E0,2.572113E0,2.9456482E0,0E0,3.8706093E0,5.9191036E-1,0E0,1.5591726E0,2.1835275E0,1.7083931E-1,0E0,1.2534614E0,3.6254444E0,1.3499697E0,6.4508057E-1,6.422087E-1,2.7108805E0,2.104814E0,2.599762E0,2.883203E0,1.5146484E0,3.863186E0,2.7529907E0,0E0,0E0,0E0,1.3493729E-1,1.9060202E0,2.702142E-1,0E0,0E0,0E0,0E0,0E0,0E0,0E0,0E0,0E0,0E0,0E0,0E0,0E0,0E0,0E0,0E0,0E0,0E0,0E0,0E0,0E0,0E0,0E0,0E0,0E0,0E0,0E0,0E0,0E0,0E0,0E0,0E0],"parents":[2147483647,0,0,1,1,2,2,3,3,4,4,5,5,6,6,7,7,8,8,9,9,10,10,11,11,12,12,13,13,14,14,18,18,19,19,20,20,22,22,23,23,24,24,26,26,27,27,29,29,30,30,31,31,33,33,34,34,35,35,36,36,37,37,38,38,39,39,40,40,41,41,42,42,43,43,44,44,48,48,49,49,50,50],"right_children":[2,4,6,8,10,12,14,16,18,20,22,24,26,28,30,-1,-1,-1,32,34,36,-1,38,40,42,-1,44,46,-1,48,50,52,-1,54,56,58,60,62,64,66,68,70,72,74,76,-1,-1,-1,78,80,82,-1,-1,-1,-1,-1,-1,-1,-1,-1,-1,-1,-1,-1,-1,-1,-1,-1,-1,-1,-1,-1,-1,-1,-1,-1,-1,-1,-1,-1,-1,-1,-1],"split_conditions":[-2.1228118E-1,-5.1383746E-1,1.8650466E-1,1.20231256E-1,7E-1,1.2312834E0,-1.029142E-1,1.1930353E-1,1.7292852E-2,-7.926247E-1,1.0147562E0,4.1536257E-1,4.440892E-16,5.6504946E-2,5.2619433E-1,2.5740076E-2,-1.3718281E-2,