{"learner":{"attributes":{"scikit_learn":"{\"_estimator_type\": \"classifier\"}"},"feature_names":[],"feature_types":[],"gradient_booster":{"model":{"gbtree_model_param":{"num_parallel_tree":"1","num_trees":"600"},"iteration_indptr":[0,3,6,9,12,15,18,21,24,27,30,33,36,39,42,45,48,51,54,57,60,63,66,69,72,75,78,81,84,87,90,93,96,99,102,105,108,111,114,117,120,123,126,129,132,135,138,141,144,147,150,153,156,159,162,165,168,171,174,177,180,183,186,189,192,195,198,201,204,207,210,213,216,219,222,225,228,231,234,237,240,243,246,249,252,255,258,261,264,267,270,273,276,279,282,285,288,291,294,297,300,303,306,309,312,315,318,321,324,327,330,333,336,339,342,345,348,351,354,357,360,363,366,369,372,375,378,381,384,387,390,393,396,399,402,405,408,411,414,417,420,423,426,429,432,435,438,441,444,447,450,453,456,459,462,465,468,471,474,477,480,483,486,489,492,495,498,501,504,507,510,513,516,519,522,525,528,531,534,537,540,543,546,549,552,555,558,561,564,567,570,573,576,579,582,585,588,591,594,597,600],"tree_info":[0,1,2,0,1,2,0,1,2,0,1,2,0,1,2,0,1,2,0,1,2,0,1,2,0,1,2,0,1,2,0,1,2,0,1,2,0,1,2,0,1,2,0,1,2,0,1,2,0,1,2,0,1,2,0,1,2,0,1,2,0,1,2,0,1,2,0,1,2,0,1,2,0,1,2,0,1,2,0,1,2,0,1,2,0,1,2,0,1,2,0,1,2,0,1,2,0,1,2,0,1,2,0,1,2,0,1,2,0,1,2,0,1,2,0,1,2,0,1,2,0,1,2,0,1,2,0,1,2,0,1,2,0,1,2,0,1,2,0,1,2,0,1,2,0,1,2,0,1,2,0,1,2,0,1,2,0,1,2,0,1,2,0,1,2,0,1,2,0,1,2,0,1,2,0,1,2,0,1,2,0,1,2,0,1,2,0,1,2,0,1,2,0,1,2,0,1,2,0,1,2,0,1,2,0,1,2,0,1,2,0,1,2,0,1,2,0,1,2,0,1,2,0,1,2,0,1,2,0,1,2,0,1,2,0,1,2,0,1,2,0,1,2,0,1,2,0,1,2,0,1,2,0,1,2,0,1,2,0,1,2,0,1,2,0,1,2,0,1,2,0,1,2,0,1,2,0,1,2,0,1,2,0,1,2,0,1,2,0,1,2,0,1,2,0,1,2,0,1,2,0,1,2,0,1,2,0,1,2,0,1,2,0,1,2,0,1,2,0,1,2,0,1,2,0,1,2,0,1,2,0,1,2,0,1,2,0,1,2,0,1,2,0,1,2,0,1,2,0,1,2,0,1,2,0,1,2,0,1,2,0,1,2,0,1,2,0,1,2,0,1,2,0,1,2,0,1,2,0,1,2,0,1,2,0,1,2,0,1,2,0,1,2,0,1,2,0,1,2,0,1,2,0,1,2,0,1,2,0,1,2,0,1,2,0,1,2,0,1,2,0,1,2,0,1,2,0,1,2,0,1,2,0,1,2,0,1,2,0,1,2,0,1,2,0,1,2,0,1,2,0,1,2,0,1,2,0,1,2,0,1,2,0,1,2,0,1,2,0,1,2,0,1,2,0,1,2,0,1,2,0,1,2,0,1,2,0,1,2,0,1,2,0,1,2,0,1,2,0,1,2,0,1,2,0,1,2,0,1,2,0,1,2,0,1,2,0,1,2,0,1,2,0,1,2,0,1,2,0,1,2,0,1,2,0,1,2,0,1,2,0,1,2,0,1,2,0,1,2,0,1,2,0,1,2,0,1,2,0,1,2,0,1,2,0,1,2,0,1,2,0,1,2,0,1,2,0,1,2,0,1,2,0,1,2,0,1,2,0,1,2,0,1,2,0,1,2,0,1,2],"trees":[{"base_weights":[-2.5872454E-2,3.926856E-2,-3.837598E-1,-1.8116157E-1,1.06341764E-1,-4.2140874E-1,1.2435229E-1,-3.4609866E-1,6.95148E-2,6.1260206E-1,6.501279E-2,7.317073E-1,-4.3893597E-1,3.834586E-1,-3.913044E-1,-4.4784516E-1,-1.2072478E-2,-2.8639663E-2,9.924812E-1,1.2875494E-2,8.246445E-1,6.943231E-1,5.0965883E-2,2.88E-2,7.1999994E-3,-4.6278593E-1,2.823529E-1,-1.3043483E-1,8.219178E-1,1.2857142E-2,-1.8947368E-2,-5.4777676E-1,-2.4954797E-1,5.375722E-1,-2.9729736E-1,6.338028E-1,-1.6239321E-1,1.1652893E0,-1.2857144E-2,6.637168E-1,-5.5813956E-1,-3.4426233E-1,9.345955E-1,9.637306E-1,-1.8000001E-2,1.8192398E-3,2.4697334E-1,-4.9180335E-1,-1.9108323E-2,-1.8367348E-2,3.6E-2,2.926829E-1,-1.7027028E-2,3.2264147E-2,3.1034474E-3,-4.736843E-3,-1.7942123E-2,-1.300465E-9,-1.5622642E-2,-1.2857144E-2,2.5714286E-2,2.4545453E-2,-1.2233011E-2,-2.903227E-3,3.348837E-2,2.435294E-2,-7.3694997E-3,-7.6634543E-10,3.880734E-2,-1.475411E-3,3.8360655E-2,-2.0769233E-2,1.2857142E-2,-1.8367348E-2,1.2857142E-2,3.0562852E-2,-1.1293512E-9,-6.2068976E-3,3.3294797E-2,-6.3529424E-3,1.8225369E-3,-4.958691E-4,1.6081218E-2,6.7924517E-3,-1.5210124E-2,-7.920002E-3,2.1951217E-2,1.8E-2,-3.6000006E-3],"categories":[],"categories_nodes":[],"categories_segments":[],"categories_sizes":[],"default_left":[0,0,0,0,0,0,0,0,0,0,0,0,0,0,0,0,0,0,0,0,0,0,0,0,0,0,0,0,0,0,0,0,0,0,0,0,0,0,0,0,0,0,0,0,0,0,0,0,0,0,0,0,0,0,0,0,0,0,0,0,0,0,0,0,0,0,0,0,0,0,0,0,0,0,0,0,0,0,0,0,0,0,0,0,0,0,0,0,0],"id":0,"left_children":[1,3,5,7,9,11,13,15,17,19,21,23,25,27,29,31,33,35,37,39,41,43,45,-1,-1,47,49,51,53,-1,-1,55,57,59,61,63,65,67,-1,69,71,73,75,77,-1,79,81,83,85,-1,-1,87,-1,-1,-1,-1,-1,-1,-1,-1,-1,-1,-1,-1,-1,-1,-1,-1,-1,-1,-1,-1,-1,-1,-1,-1,-1,-1,-1,-1,-1,-1,-1,-1,-1,-1,-1,-1,-1],"loss_changes":[4.536949E1,2.4366798E1,5.784996E0,1.5923829E1,2.639085E1,5.9645157E0,3.0152392E0,7.8831196E0,1.3929459E1,1.2098553E1,1.0298412E1,2.8097534E-1,4.872883E0,3.4369547E0,1.7809744E0,3.3883781E0,8.817136E0,1.2477954E1,4.128379E0,9.991798E0,9.36116E0,9.450725E0,1.1025178E1,0E0,0E0,3.4309235E0,8.487875E0,1.5841334E0,1.3663521E0,0E0,0E0,2.2085E0,4.158504E0,6.302229E0,4.893013E0,8.450198E0,9.6887245E0,2.0098553E0,0E0,5.567386E0,2.1942244E0,1.6661092E0,5.078026E0,3.8971329E0,0E0,1.1543891E1,1.7485617E1,2.8526535E0,3.400655E0,0E0,0E0,6.497562E-1,0E0,0E0,0E0,0E0,0E0,0E0,0E0,0E0,0E0,0E0,0E0,0E0,0E0,0E0,0E0,0E0,0E0,0E0,0E0,0E0,0E0,0E0,0E0,0E0,0E0,0E0,0E0,0E0,0E0,0E0,0E0,0E0,0E0,0E0,0E0,0E0,0E0],"parents":[2147483647,0,0,1,1,2,2,3,3,4,4,5,5,6,6,7,7,8,8,9,9,10,10,11,11,12,12,13,13,14,14,15,15,16,16,17,17,18,18,19,19,20,20,21,21,22,22,25,25,26,26,27,27,28,28,31,31,32,32,33,33,34,34,35,35,36,36,37,37,39,39,40,40,41,41,42,42,43,43,45,45,46,46,47,47,48,48,51,51],"right_children":[2,4,6,8,10,12,14,16,18,20,22,24,26,28,30,32,34,36,38,40,42,44,46,-1,-1,48,50,52,54,-1,-1,56,58,60,62,64,66,68,-1,70,72,74,76,78,-1,80,82,84,86,-1,-1,88,-1,-1,-1,-1,-1,-1,-1,-1,-1,-1,-1,-1,-1,-1,-1,-1,-1,-1,-1,-1,-1,-1,-1,-1,-1,-1,-1,-1,-1,-1,-1,-1,-1,-1,-1,-1,-1],"split_conditions":[6.172289E-1,8.360893E-3,0E0,8E-2,-1.0988405E0,-7.451122E-1,2.4577485E-2,7.8714675E-1,1.0373821E-2,1.1053257E-2,-5.48E-1,3.6944032E-1,7.307102E-1,6.665286E-2,2E-1,3.1125847E-1,3.71881E-2,2.0687807E-1,1.6930461E-1,8.973555E-3,4E-2,7.841556E-1,1E0,2.88E-2,7.1999994E-3,9.260992E-2,1.8750052E-1,1.7899789E-1,-6E-2,1.2857142E-2,-1.8947368E-2,2E-2,-3E-2,-1.1871463E-1,-5.916529E-1,5.2E-1,7.8231574E-4,1.2E-1,-1.2857144E-2,6.2543774E-1,7.137459E-1,4.0199503E-1,4.2E-1,-4.8530674E-1,-1.8000001E-2,-4E-2,2.1704613E-1,3.876E1,5.782291E-1,-1.8367348E-2,3.6E-2,1.0478708E0,-1.7027028E-2,3.2264147E-2,3.1034474E-3,-4.736843E-3,-1.7942123E-2,-1.300465E-9,-1.5622642E-2,-1.2857144E-2,2.5714286E-2,2.4545453E-2,-1.2233011E-2,-2.903227E-3,3.348837E-2,2.435294E-2,-7.3694997E-3,-7.6634543E-10,3.880734E-2,-1.475411E-3,3.8360655E-2,-2.0769233E-2,1.2857142E-2,-1.8367348E-2,1.2857142E-2,3.0562852E-2,-1.1293512E-9,-6.2068976E-3,3.3294797E-2,-6.3529424E-3,1.8225369E-3,-4.958691E-4,1.6081218E-2,6.7924517E-3,-1.5210124E-2,-7.920002E-3,2.1951217E-2,1.8E-2,-3.6000006E-3],"split_indices":[51,191,119,132,51,0,142,199,150,168,129,4,141,139,114,74,140,138,1,161,105,199,36,0,0,140,4,137,132,0,0,105,132,10,3,115,136,115,0,141,141,158,147,2,0,132,74,96,40,0,0,1,0,0,0,0,0,0,0,0,0,0,0,0,0,0,0,0,0,0,0,0,0,0,0,0,0,0,0,0,0,0,0,0,0,0,0,0,0],"split_type":[0,0,0,0,0,0,0,0,0,0,0,0,0,0,0,0,0,0,0,0,0,0,0,0,0,0,0,0,0,0,0,0,0,0,0,0,0,0,0,0,0,0,0,0,0,0,0,0,0,0,0,0,0,0,0,0,0,0,0,0,0,0,0,0,0,0,0,0,0,0,0,0,0,0,0,0,0,0,0,0,0,0,0,0,0,0,0,0,0],"sum_hessian":[1.9444443E3,1.6457777E3,2.9866666E2,3.8355554E2,1.2622222E3,2.782222E2,2.0444443E1,2.311111E2,1.5244444E2,9.422221E1,1.1679999E3,3.5555553E0,2.7466666E2,1.3777777E1,6.666666E0,1.7688889E2,5.4222218E1,1.3866666E2,1.3777777E1,2.4888887E1,6.933333E1,2.4444443E1,1.1435555E3,1.7777777E0,1.7777777E0,2.662222E2,8.444444E0,6.666666E0,7.1111107E0,1.3333333E0,5.333333E0,1.16444435E2,6.0444443E1,1.8222221E1,3.5999996E1,2.2666666E1,1.1599999E2,1.2444444E1,1.3333333E0,1.1555555E1,1.3333332E1,5.7777777E0,6.3555553E1,2.0444443E1,3.9999998E0,9.151111E2,2.2844443E2,2.4977776E2,1.6444443E1,4.444444E0,3.9999998E0,3.5555553E0,3.111111E0,4.8888884E0,2.222222E0,1.3777777E1,1.02666664E2,3.1999998E1,2.8444443E1,4.444444E0,1.3777777E1,2.6666665E0,3.3333332E1,9.333333E0,1.3333332E1,8.444444E0,1.0755555E2,1.3333333E0,1.1111111E1,5.7777777E0,5.7777777E0,1.1999999E1,1.3333333E0,4.444444E0,1.3333333E0,5.8222218E1,5.333333E0,2.222222E0,1.8222221E1,1.9733333E2,7.177777E2,1.1999999E2,1.08444435E2,4.8888884E0,2.4488887E2,1.2888888E1,3.5555553E0,1.7777777E0,1.7777777E0],"tree_param":{"num_deleted":"0","num_feature":"201","num_nodes":"89","size_leaf_vector":"1"}},{"base_weights":[7.231602E-2,-8.351552E-2,2.2651175E-1,-1.5186761E-1,2.75664E-1,7.9006207E-1,1.6944267E-1,-1.6581461E-1,1.111111E0,1.6653058E-1,1.0169492E0,8.4217334E-1,-3.658537E-1,8.681948E-1,1.3734463E-1,-7.5638643E-3,-2.887307E-1,-7.6634543E-10,3.9130434E-2,5.398457E-1,-7.100636E-3,1.1925466E0,-1.4400001E-2,1.1260053E0,5.6479216E-1,-1.5517242E-2,-7.6634543E-10,-3.4426233E-1,1.0909091E0,-2.622659E-1,2.0572475E-1,6.363636E-1,-7.38302E-2,-3.1606743E-1,7.714285E-1,-4.5283023E-1,6.7826086E-1,1.8718377E-1,-4.4827592E-1,7.1999994E-3,1.2827586E0,1.2100841E0,-1.4400001E-2,-3.1578952E-1,6.897507E-1,-1.8367348E-2,1.2857142E-2,-3.658537E-1,1.2792453E0,-3.933866E-1,2.0158099E-1,9.35378E-2,3.7894735E-1,4.598539E-3,2.9822484E-2,2.711863E-3,-8.232131E-3,-1.047506E-2,1.005076E-2,-1.4400001E-2,3.1348314E-2,-7.6634543E-10,-1.7560976E-2,-1.097561E-2,2.3865813E-2,-7.302245E-4,3.385321E-2,2.5714284E-2,-1.6265063E-2,1.2857142E-2,3.992481E-2,3.7565216E-2,-7.6634543E-10,-1.7027028E-2,3.1034474E-3,2.3768544E-2,-1.6363636E-2,-1.5517242E-2,-7.6634543E-10,7.1999994E-3,4.0120482E-2,-1.3127189E-2,3.103448E-2,-4.6632136E-3,3.521739E-2,9.538228E-3,-5.4033904E-4,9.755895E-3,3.55414E-2],"categories":[],"categories_nodes":[],"categories_segments":[],"categories_sizes":[],"default_left":[0,0,0,0,0,0,0,0,0,0,0,0,0,0,0,0,0,0,0,0,0,0,0,0,0,0,0,0,0,0,0,0,0,0,0,0,0,0,0,0,0,0,0,0,0,0,0,0,0,0,0,0,0,0,0,0,0,0,0,0,0,0,0,0,0,0,0,0,0,0,0,0,0,0,0,0,0,0,0,0,0,0,0,0,0,0,0,0,0],"id":1,"left_children":[1,3,5,7,9,11,13,15,17,19,21,23,25,27,29,31,33,-1,-1,35,37,39,-1,41,43,-1,-1,45,47,49,51,53,55,57,59,61,63,65,67,-1,69,71,-1,73,75,-1,-1,77,79,81,83,85,87,-1,-1,-1,-1,-1,-1,-1,-1,-1,-1,-1,-1,-1,-1,-1,-1,-1,-1,-1,-1,-1,-1,-1,-1,-1,-1,-1,-1,-1,-1,-1,-1,-1,-1,-1,-1],"loss_changes":[4.6647663E1,2.3755083E1,3.1244843E1,1.44893875E1,1.2352011E1,5.6959076E0,1.9779884E1,1.5639032E1,1.9323673E0,8.826441E0,5.742012E0,6.126045E0,2.5231284E-1,1.0846781E1,2.3265371E1,1.5090778E1,1.3359463E1,0E0,0E0,6.2459307E0,8.131453E0,1.2293491E0,0E0,6.1771164E0,5.2183475E0,0E0,0E0,1.6661092E0,9.5219345E0,7.6547613E0,1.407098E1,5.5502424E0,1.0583718E1,9.640568E0,4.4948964E0,3.5342836E-1,4.984558E0,1.3145872E1,4.01923E0,0E0,9.116173E-2,2.0203133E0,0E0,7.272281E-1,5.5122585E0,0E0,0E0,2.5231284E-1,1.4570236E0,6.600663E0,9.94106E0,1.1067074E1,1.1958256E1,0E0,0E0,0E0,0E0,0E0,0E0,0E0,0E0,0E0,0E0,0E0,0E0,0E0,0E0,0E0,0E0,0E0,0E0,0E0,0E0,0E0,0E0,0E0,0E0,0E0,0E0,0E0,0E0,0E0,0E0,0E0,0E0,0E0,0E0,0E0,0E0],"parents":[2147483647,0,0,1,1,2,2,3,3,4,4,5,5,6,6,7,7,8,8,9,9,10,10,11,11,12,12,13,13,14,14,15,15,16,16,19,19,20,20,21,21,23,23,24,24,27,27,28,28,29,29,30,30,31,31,32,32,33,33,34,34,35,35,36,36,37,37,38,38,40,40,41,41,43,43,44,44,47,47,48,48,49,49,50,50,51,51,52,52],"right_children":[2,4,6,8,10,12,14,16,18,20,22,24,26,28,30,32,34,-1,-1,36,38,40,-1,42,44,-1,-1,46,48,50,52,54,56,58,60,62,64,66,68,-1,70,72,-1,74,76,-1,-1,78,80,82,84,86,88,-1,-1,-1,-1,-1,-1,-1,-1,-1,-1,-1,-1,-1,-1,-1,-1,-1,-1,-1,-1,-1,-1,-1,-1,-1,-1,-1,-1,-1,-1,-1,-1,-1,-1,-1,-1],"split_conditions":[5.616256E-4,6.750592E-1,2.2267431E-3,1.1414307E0,4.778807E-1,9E-1,2E-2,3E-1,-5.820189E-1,2.48E-1,7.81025E-1,1.3891937E-1,-4.647616E-1,1.2E-1,8E-2,-5.600698E-1,5.416212E-1,-7.6634543E-10,3.9130434E-2,1.3805592E-1,1.538336E-2,1.439854E-1,-1.4400001E-2,6.434953E-1,-4.8E-1,-1.5517242E-2,-7.6634543E-10,-6.4749926E-1,3.5708474E-3,2.1020027E-2,1.9280557E-2,7.902524E-2,6E-2,8.2130216E-2,2.5541216E-1,-7.1968997E-1,-7.8E-1,9.2233665E-2,-8.2138516E-2,7.1999994E-3,-3.7462527E-1,3.65676E-1,-1.4400001E-2,1.0377418E0,3.08104E-2,-1.8367348E-2,1.2857142E-2,-3.654919E-2,4.42786E-3,1.4962713E-1,7.0957686E-3,2.0712315E-1,8.636205E-1,4.598539E-3,2.9822484E-2,2.711863E-3,-8.232131E-3,-1.047506E-2,1.005076E-2,-1.4400001E-2,3.1348314E-2,-7.6634543E-10,-1.7560976E-2,-1.097561E-2,2.3865813E-2,-7.302245E-4,3.385321E-2,2.5714284E-2,-1.6265063E-2,1.2857142E-2,3.992481E-2,3.7565216E-2,-7.6634543E-10,-1.7027028E-2,3.1034474E-3,2.3768544E-2,-1.6363636E-2,-1.5517242E-2,-7.6634543E-10,7.1999994E-3,4.0120482E-2,-1.3127189E-2,3.103448E-2,-4.6632136E-3,3.521739E-2,9.538228E-3,-5.4033904E-4,9.755895E-3,3.55414E-2],"split_indices":[166,10,150,196,4,114,89,170,1,129,199,118,27,114,102,10,68,0,0,77,195,134,0,141,119,0,0,68,161,174,165,75,132,168,82,0,119,71,0,0,7,82,0,1,175,0,0,1,151,140,175,147,138,0,0,0,0,0,0,0,0,0,0,0,0,0,0,0,0,0,0,0,0,0,0,0,0,0,0,0,0,0,0,0,0,0,0,0,0],"split_type":[0,0,0,0,0,0,0,0,0,0,0,0,0,0,0,0,0,0,0,0,0,0,0,0,0,0,0,0,0,0,0,0,0,0,0,0,0,0,0,0,0,0,0,0,0,0,0,0,0,0,0,0,0,0,0,0,0,0,0,0,0,0,0,0,0,0,0,0,0,0,0,0,0,0,0,0,0,0,0,0,0,0,0,0,0,0,0,0,0],"sum_hessian":[1.9395554E3,9.6488885E2,9.746666E2,8.111111E2,1.5377777E2,8.844444E1,8.8622217E2,8.031111E2,7.9999995E0,1.351111E2,1.8666666E1,8.4888885E1,3.5555553E0,3.7777775E1,8.484444E2,3.5155554E2,4.5155554E2,1.3333333E0,6.666666E0,4.222222E1,9.2888885E1,1.6888887E1,1.7777777E0,4.0444443E1,4.4444443E1,2.222222E0,1.3333333E0,5.7777777E0,3.1999998E1,1.2355555E2,7.2488885E2,3.1999998E1,3.1955554E2,4.4088885E2,1.0666666E1,4.8888884E0,3.7333332E1,6.4888885E1,2.7999998E1,1.7777777E0,1.5111111E1,3.8666664E1,1.7777777E0,5.333333E0,3.9111107E1,4.444444E0,1.3333333E0,3.5555553E0,2.8444443E1,9.6444435E1,2.7111109E1,4.4088885E2,2.8399997E2,1.4222221E1,1.7777777E1,1.7599998E2,1.4355554E2,4.1999997E2,2.0888887E1,1.7777777E0,8.888888E0,1.3333333E0,3.5555553E0,3.5555553E0,3.3777775E1,5.3777775E1,1.1111111E1,1.3333333E0,2.6666664E1,1.3333333E0,1.3777777E1,3.7333332E1,1.3333333E0,3.111111E0,2.222222E0,3.6444443E1,2.6666665E0,2.222222E0,1.3333333E0,1.7777777E0,2.6666664E1,9.422221E1,2.222222E0,2.0444443E1,6.666666E0,1.4577777E2,2.9511108E2,2.6755554E2,1.6444443E1],"tree_param":{"num_deleted":"0","num_feature":"201","num_nodes":"89","size_leaf_vector":"1"}},{"base_weights":[-5.923409E-2,1.6518895E-1,-1.8795186E-1,3.4285712E-1,1.8680964E-2,5.060914E-2,-2.830401E-1,6.720686E-1,1.5603213E-1,-8.5170016E-2,3.3988437E-1,-2.2195709E-1,2.2580642E-1,3.6734693E-2,-2.919855E-1,4.1035116E-1,9.3423593E-1,4.2449462E-1,-6.389163E-2,2.120137E-2,-3.8297877E-1,6.514285E-1,-1.3753587E-1,9.005624E-2,-4.4611192E-1,-4.5762718E-1,2.9243693E-1,-3.3887494E-1,-3.6144625E-2,7.076412E-1,3.6144536E-2,9.8802394E-1,-1.4400001E-2,2.2167484E-1,9.2116183E-1,-1.6612382E-1,7.1900827E-1,5.8761206E-2,-2.049505E-2,2.4545453E-2,-4.361234E-1,9.212598E-1,-5.8823574E-2,7.317073E-1,-2.4605684E-1,5.801105E-1,-1.5789479E-1,7.317073E-1,-5.092725E-1,1.9999997E-1,-6.382979E-1,-2.5104648E-2,5.013927E-1,-3.0194324E-1,-6.4137936E-1,4.2295077E-1,-1.8335095E-1,-6.000001E-3,2.5132075E-2,2.9508194E-2,-7.7664987E-3,3.1247402E-2,-6.2068976E-3,1.810852E-4,3.272727E-2,3.1690143E-2,-2.4324334E-3,-1.1314287E-2,3.333332E-3,2.969072E-2,-8.181819E-3,5.6396853E-3,-4.2056087E-3,-1.5376885E-2,2.9032244E-3,-1.2000001E-2,3.2086954E-2,8.709676E-3,-1.5652176E-2,-7.6634543E-10,3.103448E-2,-1.1710038E-2,1.4210525E-2,2.4893615E-2,-7.34694E-3,-8.278933E-3,3.272727E-2,3.103448E-2,-7.6634543E-10,-1.7581398E-2,9.692307E-3,-1.2857144E-2,1.6363634E-2,-2.0930232E-2,-7.6634543E-10,1.0344827E-2,-6.9677434E-3,1.9123767E-2,-7.283238E-3,2.3999998E-2,-9.293234E-3,-1.99439E-2,1.2857142E-2,3.0959997E-2,-1.2772424E-9,-1.1161697E-2,5.8878493E-3],"categories":[],"categories_nodes":[],"categories_segments":[],"categories_sizes":[],"default_left":[0,0,0,0,0,0,0,0,0,0,0,0,0,0,0,0,0,0,0,0,0,0,0,0,0,0,0,0,0,0,0,0,0,0,0,0,0,0,0,0,0,0,0,0,0,0,0,0,0,0,0,0,0,0,0,0,0,0,0,0,0,0,0,0,0,0,0,0,0,0,0,0,0,0,0,0,0,0,0,0,0,0,0,0,0,0,0,0,0,0,0,0,0,0,0,0,0,0,0,0,0,0,0,0,0,0,0],"id":2,"left_children":[1,3,5,7,9,11,13,15,17,19,21,23,25,-1,27,29,31,33,35,37,39,41,43,45,47,49,51,53,55,57,59,61,-1,63,65,67,69,71,-1,-1,73,75,77,79,81,83,85,87,89,91,93,95,97,99,101,103,105,-1,-1,-1,-1,-1,-1,-1,-1,-1,-1,-1,-1,-1,-1,-1,-1,-1,-1,-1,-1,-1,-1,-1,-1,-1,-1,-1,-1,-1,-1,-1,-1,-1,-1,-1,-1,-1,-1,-1,-1,-1,-1,-1,-1,-1,-1,-1,-1,-1,-1],"loss_changes":[5.660188E1,1.8587553E1,2.8256336E1,1.9747555E1,1.3123534E1,1.703422E1,1.2364067E1,7.613949E0,1.22617855E1,9.430663E0,1.4384922E1,9.808363E0,1.00154705E1,0E0,1.0615082E1,6.6616573E0,4.8439903E0,9.208826E0,9.305979E0,5.863406E0,5.357254E0,1.1233669E1,3.8379922E0,7.287656E0,6.4314327E0,2.4643345E0,1.3172432E1,8.169197E0,9.426357E0,4.116642E0,7.9882374E0,3.7779007E0,0E0,1.2676888E1,3.7134876E0,6.028595E0,3.8790154E0,5.4225416E0,0E0,0E0,3.1318417E0,8.723038E0,2.8991008E0,1.0092514E0,3.8424637E0,4.345808E0,6.2152686E0,1.0092514E0,5.1666584E0,1.3194804E0,5.9376574E-1,6.185163E0,1.22717285E1,6.0210075E0,2.3032646E0,8.729704E0,7.6265364E0,0E0,0E0,0E0,0E0,0E0,0E0,0E0,0E0,0E0,0E0,0E0,0E0,0E0,0E0,0E0,0E0,0E0,0E0,0E0,0E0,0E0,0E0,0E0,0E0,0E0,0E0,0E0,0E0,0E0,0E0,0E0,0E0,0E0,0E0,0E0,0E0,0E0,0E0,0E0,0E0,0E0,0E0,0E0,0E0,0E0,0E0,0E0,0E0,0E0,0E0],"parents":[2147483647,0,0,1,1,2,2,3,3,4,4,5,5,6,6,7,7,8,8,9,9,10,10,11,11,12,12,14,14,15,15,16,16,17,17,18,18,19,19,20,20,21,21,22,22,23,23,24,24,25,25,26,26,27,27,28,28,29,29,30,30,31,31,33,33,34,34,35,35,36,36,37,37,40,40,41,41,42,42,43,43,44,44,45,45,46,46,47,47,48,48,49,49,50,50,51,51,52,52,53,53,54,54,55,55,56,56],"right_children":[2,4,6,8,10,12,14,16,18,20,22,24,26,-1,28,30,32,34,36,38,40,42,44,46,48,50,52,54,56,58,60,62,-1,64,66,68,70,72,-1,-1,74,76,78,80,82,84,86,88,90,92,94,96,98,100,102,104,106,-1,-1,-1,-1,-1,-1,-1,-1,-1,-1,-1,-1,-1,-1,-1,-1,-1,-1,-1,-1,-1,-1,-1,-1,-1,-1,-1,-1,-1,-1,-1,-1,-1,-1,-1,-1,-1,-1,-1,-1,-1,-1,-1,-1,-1,-1,-1,-1,-1,-1],"split_conditions":[-2.0572732E-1,-2.7369788E-1,6.938894E-17,-5.5885357E-1,2.6627055E-1,-5.857082E-1,-5.1984173E-1,-7.0337784E-1,3.8E-1,6.215899E-1,1.037372E-1,1.8704379E-2,-7.4E-1,3.6734693E-2,5.246078E-1,7E-2,1.3314261E0,1.3399396E-2,7.6E-1,1.5032467E0,-6.539452E-1,3.8E-1,2.9137605E-1,4.6674874E-1,-9.4E-1,5.4591657E-3,9.635205E-3,5.4866934E-1,2.653918E-1,4.540576E0,1.7096562E-2,1.0520492E-2,-1.4400001E-2,-2.857528E-1,3.732543E-2,6E-1,-1.7331121E-2,8.1808555E-1,-2.049505E-2,2.4545453E-2,1.2E0,-7.6489055E-1,4.2708313E-1,5.9239155E-1,-7.215759E-2,4.9638695E-1,4.0080532E-2,-7.2013235E-1,1.4380316E0,2.220446E-16,1.1460726E0,4.489989E-1,4E-2,-9.4E-1,8.409767E-1,5.039869E-3,4.935585E-1,-6.000001E-3,2.5132075E-2,2.9508194E-2,-7.7664987E-3,3.1247402E-2,-6.2068976E-3,1.810852E-4,3.272727E-2,3.1690143E-2,-2.4324334E-3,-1.1314287E-2,3.333332E-3,2.969072E-2,-8.181819E-3,5.6396853E-3,-4.2056087E-3,-1.5376885E-2,2.9032244E-3,-1.2000001E-2,3.2086954E-2,8.709676E-3,-1.5652176E-2,-7.6634543E-10,3.103448E-2,-1.1710038E-2,1.4210525E-2,2.4893615E-2,-7.34694E-3,-8.278933E-3,3.272727E-2,3.103448E-2,-7.6634543E-10,-1.7581398E-2,9.692307E-3,-1.2857144E-2,1.6363634E-2,-2.0930232E-2,-7.6634543E-10,1.0344827E-2,-6.9677434E-3,1.9123767E-2,-7.283238E-3,2.3999998E-2,-9.293234E-3,-1.99439E-2,1.2857142E-2,3.0959997E-2,-1.2772424E-9,-1.1161697E-2,5.8878493E-3],"split_indices":[67,7,166,67,147,3,56,67,114,141,10,39,119,0,75,132,4,162,114,4,10,103,147,71,119,154,192,134,138,149,142,151,0,67,175,62,71,196,0,0,62,68,143,10,70,146,100,68,10,150,7,181,93,119,68,178,143,0,0,0,0,0,0,0,0,0,0,0,0,0,0,0,0,0,0,0,0,0,0,0,0,0,0,0,0,0,0,0,0,0,0,0,0,0,0,0,0,0,0,0,0,0,0,0,0,0,0],"split_type":[0,0,0,0,0,0,0,0,0,0,0,0,0,0,0,0,0,0,0,0,0,0,0,0,0,0,0,0,0,0,0,0,0,0,0,0,0,0,0,0,0,0,0,0,0,0,0,0,0,0,0,0,0,0,0,0,0,0,0,0,0,0,0,0,0,0,0,0,0,0,0,0,0,0,0,0,0,0,0,0,0,0,0,0,0,0,0,0,0,0,0,0,0,0,0,0,0,0,0,0,0,0,0,0,0,0,0],"sum_hessian":[1.9573333E3,7.133333E2,1.2439999E3,3.2177777E2,3.9155554E2,3.5466666E2,8.8933325E2,1.1555555E2,2.0622221E2,2.9644443E2,9.511111E1,1.3866666E2,2.1599998E2,4.444444E0,8.8488885E2,5.9111107E1,5.6444443E1,9.244444E1,1.1377777E2,2.191111E2,7.733333E1,5.733333E1,3.7777775E1,5.8222218E1,8.044444E1,1.8666666E1,1.9733333E2,7.475555E2,1.3733333E2,3.2444443E1,2.6666664E1,5.4666664E1,1.7777777E0,6.6666664E1,2.5777777E1,1.0133333E2,1.2444444E1,2.0888887E2,1.0222221E1,2.6666665E0,7.4666664E1,4.1333332E1,1.5999999E1,3.5555553E0,3.422222E1,1.911111E1,3.9111107E1,3.5555553E0,7.6888885E1,3.9999998E0,1.4666666E1,7.8666664E1,1.1866666E2,6.6799994E2,7.955555E1,3.2888885E1,1.04444435E2,3.9999998E0,2.8444443E1,5.7777777E0,2.0888887E1,5.2444443E1,2.222222E0,5.4222218E1,1.2444444E1,2.2666666E1,3.111111E0,5.733333E1,4.3999996E1,9.777777E0,2.6666665E0,1.2666666E2,8.222221E1,6.533333E1,9.333333E0,3.9999998E0,3.7333332E1,9.333333E0,6.666666E0,1.3333333E0,2.222222E0,2.8888887E1,5.333333E0,1.4666666E1,4.444444E0,3.6444443E1,2.6666665E0,2.222222E0,1.3333333E0,7.0666664E1,6.222222E0,1.3333333E0,2.6666665E0,1.3333332E1,1.3333333E0,2.7999998E1,5.0666664E1,1.00444435E2,1.8222221E1,3.9999998E0,6.6399994E2,7.822221E1,1.3333333E0,1.2888888E1,1.9999998E1,6.977777E1,3.4666664E1],"tree_param":{"num_deleted":"0","num_feature":"201","num_nodes":"107","size_leaf_vector":"1"}},{"base_weights":[-3.1009436E-2,2.8411295E-2,-3.5734755E-1,-1.7537232E-1,9.129613E-2,7.265458E-1,-3.776762E-1,-3.2046494E-1,4.4140495E-2,5.4500854E-1,5.422366E-2,-3.7002286E-3,3.3712108E-2,1.5204638E-1,-4.2280906E-1,-3.5720617E-1,6.002985E-1,6.911229E-1,-9.223385E-2,2.2914273E-1,9.24616E-1,9.8688996E-1,4.2293463E-2,4.095147E-1,-3.2869002E-1,5.1473063E-1,-4.4815266E-1,-5.3445244E-1,-1.8330048E-1,-1.625362E-2,3.378515E-2,-1.9809853E-1,1.0400215E0,-1.4801535E-1,3.6291216E-2,5.843059E-1,-2.7828845E-1,-1.4983343E-1,1.0250186E0,1.0847569E0,-2.3501518E-5,-4.177485E-1,6.320152E-2,-1.6440548E-1,8.7936896E-1,-1.9430546E-2,2.5563665E-2,-1.4408735E-2,8.951339E-1,-4.8819214E-1,3.6775723E-2,-1.8832011E-2,-1.021206E-2,-1.1544048E-2,3.9288173E-3,-1.5274611E-2,2.5384653E-2,3.3449713E-2,-2.65268E-5,2.4072273E-2,-6.364109E-3,-1.7460361E-2,2.2509046E-2,1.3410096E-2,-1.7434454E-2,-1.5469023E-2,1.244065E-2,3.474211E-2,4.437825E-3,-2.1041244E-5,3.612317E-2,-1.547105E-2,1.4739476E-2,5.158471E-3,-1.195157E-3,5.9642317E-3,-1.7005177E-2,3.673308E-2,4.9755014E-3,3.3766493E-2,6.996035E-3,-1.5580546E-2,6.3871086E-4,-9.001135E-3,3.594256E-2],"categories":[],"categories_nodes":[],"categories_segments":[],"categories_sizes":[],"default_left":[0,0,0,0,0,0,0,0,0,0,0,0,0,0,0,0,0,0,0,0,0,0,0,0,0,0,0,0,0,0,0,0,0,0,0,0,0,0,0,0,0,0,0,0,0,0,0,0,0,0,0,0,0,0,0,0,0,0,0,0,0,0,0,0,0,0,0,0,0,0,0,0,0,0,0,0,0,0,0,0,0,0,0,0,0],"id":3,"left_children":[1,3,5,7,9,11,13,15,17,19,21,-1,-1,23,25,27,29,31,33,35,37,39,41,43,45,47,49,51,53,-1,-1,55,57,59,-1,61,63,65,67,69,-1,71,73,75,77,-1,-1,-1,79,81,83,-1,-1,-1,-1,-1,-1,-1,-1,-1,-1,-1,-1,-1,-1,-1,-1,-1,-1,-1,-1,-1,-1,-1,-1,-1,-1,-1,-1,-1,-1,-1,-1,-1,-1],"loss_changes":[3.8097366E1,2.132106E1,6.942417E0,1.2511731E1,2.1351152E1,2.1347368E0,7.1818886E0,8.21059E0,1.3918723E1,1.1287853E1,1.3045959E1,0E0,0E0,3.1187003E0,6.755352E0,6.92749E0,6.281392E0,8.723867E0,9.661917E0,9.836501E0,4.8170166E0,1.4324741E0,1.1207157E1,4.498407E0,3.9281955E0,3.3418188E0,5.2197075E0,1.8200684E0,7.431839E0,0E0,0E0,3.2167172E0,1.5521927E0,7.8551493E0,0E0,6.6125097E0,5.263379E0,1.1568841E0,4.4572067E0,1.7466745E0,0E0,4.7648067E0,1.2475576E1,1.2981933E0,2.0215106E0,0E0,0E0,0E0,6.3960886E-1,3.940853E0,8.715615E0,0E0,0E0,0E0,0E0,0E0,0E0,0E0,0E0,0E0,0E0,0E0,0E0,0E0,0E0,0E0,0E0,0E0,0E0,0E0,0E0,0E0,0E0,0E0,0E0,0E0,0E0,0E0,0E0,0E0,0E0,0E0,0E0,0E0,0E0],"parents":[2147483647,0,0,1,1,2,2,3,3,4,4,5,5,6,6,7,7,8,8,9,9,10,10,13,13,14,14,15,15,16,16,17,17,18,18,19,19,20,20,21,21,22,22,23,23,24,24,25,25,26,26,27,27,28,28,31,31,32,32,33,33,35,35,36,36,37,37,38,38,39,39,41,41,42,42,43,43,44,44,48,48,49,49,50,50],"right_children":[2,4,6,8,10,12,14,16,18,20,22,-1,-1,24,26,28,30,32,34,36,38,40,42,44,46,48,50,52,54,-1,-1,56,58,60,-1,62,64,66,68,70,-1,72,74,76,78,-1,-1,-1,80,82,84,-1,-1,-1,-1,-1,-1,-1,-1,-1,-1,-1,-1,-1,-1,-1,-1,-1,-1,-1,-1,-1,-1,-1,-1,-1,-1,-1,-1,-1,-1,-1,-1,-1,-1],"split_conditions":[6.172289E-1,8.360893E-3,-7.451122E-1,8E-2,-9.848034E-1,-5.4077387E-1,2E-2,4.6E-1,2.0687807E-1,1.7648896E-2,-5.887688E-1,-3.7002286E-3,3.3712108E-2,2.6323989E-2,3.876E1,2E-1,7E-2,7.867429E-2,3.4944463E-1,-2.126397E-1,4.769612E0,-5.2609193E-1,-1.3E-1,1.0205369E0,7E-2,-5.4765906E-2,7.152271E-1,3.1125847E-1,7.841556E-1,-1.625362E-2,3.378515E-2,2.0177417E-1,8.124097E-2,7.8231574E-4,3.6291216E-2,3.2453403E-1,1.1626619E-2,5.728954E-1,1E0,9E-2,-2.3501518E-5,2.948232E-1,4.3284795E-1,6.62255E-1,2.4977287E-2,-1.9430546E-2,2.5563665E-2,-1.4408735E-2,1.5413152E-1,9.260992E-2,5.763346E-1,-1.8832011E-2,-1.021206E-2,-1.1544048E-2,3.9288173E-3,-1.5274611E-2,2.5384653E-2,3.3449713E-2,-2.65268E-5,2.4072273E-2,-6.364109E-3,-1.7460361E-2,2.2509046E-2,1.3410096E-2,-1.7434454E-2,-1.5469023E-2,1.244065E-2,3.474211E-2,4.437825E-3,-2.1041244E-5,3.612317E-2,-1.547105E-2,1.4739476E-2,5.158471E-3,-1.195157E-3,5.9642317E-3,-1.7005177E-2,3.673308E-2,4.9755014E-3,3.3766493E-2,6.996035E-3,-1.5580546E-2,6.3871086E-4,-9.001135E-3,3.594256E-2],"split_indices":[51,191,0,132,51,83,120,122,138,176,98,0,0,142,96,121,80,77,137,71,149,109,132,71,132,0,135,74,199,0,0,138,71,136,0,141,142,69,23,132,0,74,138,68,190,0,0,0,68,140,77,0,0,0,0,0,0,0,0,0,0,0,0,0,0,0,0,0,0,0,0,0,0,0,0,0,0,0,0,0,0,0,0,0,0],"split_type":[0,0,0,0,0,0,0,0,0,0,0,0,0,0,0,0,0,0,0,0,0,0,0,0,0,0,0,0,0,0,0,0,0,0,0,0,0,0,0,0,0,0,0,0,0,0,0,0,0,0,0,0,0,0,0,0,0,0,0,0,0,0,0,0,0,0,0,0,0,0,0,0,0,0,0,0,0,0,0,0,0,0,0,0,0],"sum_hessian":[1.9631445E3,1.661522E3,3.0162253E2,3.9139258E2,1.2701294E3,4.913289E0,2.9670923E2,2.3536328E2,1.5602928E2,9.490696E1,1.1752224E3,1.7844634E0,3.1288254E0,2.3109161E1,2.7360007E2,2.2692053E2,8.442755E0,2.6454924E1,1.2957436E2,5.2677994E1,4.2228966E1,1.3810844E1,1.1614116E3,1.5145712E1,7.963448E0,6.693052E0,2.66907E2,1.1135414E2,1.1556639E2,2.652286E0,5.790468E0,7.5767198E0,1.8878204E1,1.25100746E2,4.4736133E0,3.0899323E1,2.1778671E1,3.5668066E0,3.866216E1,1.24762945E1,1.3345504E0,4.9664246E1,1.1117473E3,7.11047E0,8.035243E0,6.6251616E0,1.3382866E0,1.7784839E0,4.914568E0,2.4654373E2,2.03633E1,7.3694046E1,3.76601E1,7.0279434E1,4.5286953E1,6.232614E0,1.3441055E0,1.75435E1,1.3347032E0,7.1789513E0,1.179218E2,3.537558E0,2.7361765E1,6.27509E0,1.550358E1,2.2168956E0,1.349911E0,3.3291584E1,5.3705735E0,1.3343868E0,1.1141908E1,4.5224E1,4.440247E0,5.405682E2,5.7117914E2,4.003306E0,3.1071637E0,4.9333553E0,3.1018877E0,3.1260166E0,1.7885516E0,2.3231615E2,1.42275715E1,1.636005E1,4.0032516E0],"tree_param":{"num_deleted":"0","num_feature":"201","num_nodes":"85","size_leaf_vector":"1"}},{"base_weights":[7.349918E-2,-1.9217605E-2,5.8223504E-1,-1.03485174E-1,1.4198415E-1,4.6098137E-1,9.164429E-1,7.511502E-3,-2.67246E-1,2.7419765E-2,5.248391E-1,6.5595865E-1,1.7267713E-1,9.7449183E-1,-1.639333E-2,1.566711E-1,-2.3144895E-1,-3.3694234E-1,5.58182E-2,2.8751E-1,-1.1479276E-1,-4.058854E-1,6.5408117E-1,3.5075912E-1,8.9756656E-1,-2.804887E-1,4.5019948E-1,-3.672125E-1,1.0448278E0,4.6210122E-1,1.5565839E-2,-2.532193E-1,3.3963293E-2,-3.5363087E-1,7.295174E-1,1.0060537E0,-2.2162217E-1,1.50562E-1,7.973097E-1,-1.6657574E-1,6.422888E-1,1.2742201E-2,-5.065114E-1,7.468565E-1,-4.6257165E-1,5.245849E-1,-9.22785E-2,9.2794156E-1,-1.2848934E-2,1.2630662E-1,-4.7387618E-1,-4.154443E-1,7.218595E-1,-1.5545499E-2,-4.5570123E-5,-3.7924633E-3,1.0759896E0,1.7993908E-2,-1.149144E-2,-1.0729016E-2,3.784064E-3,1.314363E-2,-8.886509E-3,-1.1112581E-2,1.9137861E-2,3.052036E-3,3.244717E-2,-6.135733E-3,3.5662316E-2,3.7703633E-2,-1.193112E-2,6.866655E-4,2.7052345E-2,-1.6318237E-2,2.8024457E-2,-8.894189E-3,7.1532046E-3,-8.322338E-3,2.4490656E-2,2.9519706E-3,-1.8530171E-2,-1.6340319E-2,2.3551181E-2,1.2859109E-2,-1.9832358E-2,7.7355844E-3,2.7606782E-2,2.1652257E-2,-1.0388158E-2,2.915614E-2,1.9734057E-3,-1.3026131E-2,1.5215306E-2,8.628023E-3,-1.8585816E-2,-2.0442769E-2,1.2410895E-2,2.7376726E-2,5.314837E-3,3.3474233E-2,4.695181E-3],"categories":[],"categories_nodes":[],"categories_segments":[],"categories_sizes":[],"default_left":[0,0,0,0,0,0,0,0,0,0,0,0,0,0,0,0,0,0,0,0,0,0,0,0,0,0,0,0,0,0,0,0,0,0,0,0,0,0,0,0,0,0,0,0,0,0,0,0,0,0,0,0,0,0,0,0,0,0,0,0,0,0,0,0,0,0,0,0,0,0,0,0,0,0,0,0,0,0,0,0,0,0,0,0,0,0,0,0,0,0,0,0,0,0,0,0,0,0,0,0,0],"id":4,"left_children":[1,3,5,7,9,11,13,15,17,19,21,23,25,27,-1,29,31,33,35,37,39,41,43,45,47,49,51,53,55,57,59,61,-1,63,65,67,69,71,73,75,77,-1,79,81,83,85,87,89,-1,91,93,95,97,-1,-1,-1,99,-1,-1,-1,-1,-1,-1,-1,-1,-1,-1,-1,-1,-1,-1,-1,-1,-1,-1,-1,-1,-1,-1,-1,-1,-1,-1,-1,-1,-1,-1,-1,-1,-1,-1,-1,-1,-1,-1,-1,-1,-1,-1,-1,-1],"loss_changes":[9.239737E1,2.2532763E1,1.1814423E1,1.9800137E1,2.4964298E1,1.245528E1,7.273201E0,2.3209785E1,9.92691E0,1.628488E1,1.6036335E1,9.494312E0,1.1641574E1,7.622589E0,0E0,1.7270126E1,7.715851E0,6.702423E0,2.1035255E1,1.0743681E1,1.1271345E1,1.602869E0,1.2311562E1,4.7013736E0,3.3618088E0,2.8441617E0,1.3744125E1,2.5101423E-1,2.805725E0,1.4967905E1,1.140281E1,7.476557E0,0E0,6.1823654E0,1.195152E0,4.228649E0,1.6619709E1,1.186101E1,6.5127296E0,1.4135523E1,3.1780453E0,0E0,1.0872476E0,5.7055817E0,1.9601164E0,4.357849E0,3.9458694E0,2.67342E0,0E0,2.8233254E0,2.862092E0,3.433497E0,4.396246E0,0E0,0E0,0E0,2.4378738E0,0E0,0E0,0E0,0E0,0E0,0E0,0E0,0E0,0E0,0E0,0E0,0E0,0E0,0E0,0E0,0E0,0E0,0E0,0E0,0E0,0E0,0E0,0E0,0E0,0E0,0E0,0E0,0E0,0E0,0E0,0E0,0E0,0E0,0E0,0E0,0E0,0E0,0E0,0E0,0E0,0E0,0E0,0E0,0E0],"parents":[2147483647,0,0,1,1,2,2,3,3,4,4,5,5,6,6,7,7,8,8,9,9,10,10,11,11,12,12,13,13,15,15,16,16,17,17,18,18,19,19,20,20,21,21,22,22,23,23,24,24,25,25,26,26,27,27,28,28,29,29,30,30,31,31,33,33,34,34,35,35,36,36,37,37,38,38,39,39,40,40,42,42,43,43,44,44,45,45,46,46,47,47,49,49,50,50,51,51,52,52,56,56],"right_children":[2,4,6,8,10,12,14,16,18,20,22,24,26,28,-1,30,32,34,36,38,40,42,44,46,48,50,52,54,56,58,60,62,-1,64,66,68,70,72,74,76,78,-1,80,82,84,86,88,90,-1,92,94,96,98,-1,-1,-1,100,-1,-1,-1,-1,-1,-1,-1,-1,-1,-1,-1,-1,-1,-1,-1,-1,-1,-1,-1,-1,-1,-1,-1,-1,-1,-1,-1,-1,-1,-1,-1,-1,-1,-1,-1,-1,-1,-1,-1,-1,-1,-1,-1,-1],"split_conditions":[6.4440125E-1,1.5099671E-1,1.3087419E-1,7.451343E-4,1.04002E3,2.852862E-1,2.3136618E-2,1.4283437E-1,3.634125E-3,2.6443923E-2,5.162151E-3,2.72E-1,4.8236314E-2,-9.275687E-1,-1.639333E-2,0E0,1.1321452E0,2.5816927E-2,1.1867907E-1,4.9965316E-1,3.8190622E-2,4.1422173E-3,1.4E-1,3.8E-1,4.031129E-1,5.0413343E-3,4.086721E-3,1.2623544E0,1.0767619E-1,9.9690163E-1,-5.768788E-1,3.9643006E-4,3.3963293E-2,3.6590412E-2,6.9531E-1,-1.933292E-1,-8.4E-1,2.9988024E-2,-6.8E-1,6.032994E-1,3.7526202E-1,1.2742201E-2,-1E-2,1.2994012E-3,2.3410603E-2,2.3962809E-2,-3.984703E-2,1E0,-1.2848934E-2,8.881784E-16,4.95124E-1,4.0569663E-1,3.024187E-2,-1.5545499E-2,-4.5570123E-5,-3.7924633E-3,6.483478E-1,1.7993908E-2,-1.149144E-2,-1.0729016E-2,3.784064E-3,1.314363E-2,-8.886509E-3,-1.1112581E-2,1.9137861E-2,3.052036E-3,3.244717E-2,-6.135733E-3,3.5662316E-2,3.7703633E-2,-1.193112E-2,6.866655E-4,2.7052345E-2,-1.6318237E-2,2.8024457E-2,-8.894189E-3,7.1532046E-3,-8.322338E-3,2.4490656E-2,2.9519706E-3,-1.8530171E-2,-1.6340319E-2,2.3551181E-2,1.2859109E-2,-1.9832358E-2,7.7355844E-3,2.7606782E-2,2.1652257E-2,-1.0388158E-2,2.915614E-2,1.9734057E-3,-1.3026131E-2,1.5215306E-2,8.628023E-3,-1.8585816E-2,-2.0442769E-2,1.2410895E-2,2.7376726E-2,5.314837E-3,3.3474233E-2,4.695181E-3],"split_indices":[51,67,108,168,96,82,176,51,166,17,151,129,140,8,0,132,72,173,137,144,165,173,104,120,147,150,145,1,99,10,4,173,0,150,196,77,91,174,91,108,138,0,80,145,161,173,72,49,0,200,185,144,166,0,0,0,141,0,0,0,0,0,0,0,0,0,0,0,0,0,0,0,0,0,0,0,0,0,0,0,0,0,0,0,0,0,0,0,0,0,0,0,0,0,0,0,0,0,0,0,0],"split_type":[0,0,0,0,0,0,0,0,0,0,0,0,0,0,0,0,0,0,0,0,0,0,0,0,0,0,0,0,0,0,0,0,0,0,0,0,0,0,0,0,0,0,0,0,0,0,0,0,0,0,0,0,0,0,0,0,0,0,0,0,0,0,0,0,0,0,0,0,0,0,0,0,0,0,0,0,0,0,0,0,0,0,0,0,0,0,0,0,0,0,0,0,0,0,0,0,0,0,0,0,0],"sum_hessian":[1.9576477E3,1.6566809E3,3.0096683E2,1.0881913E3,5.6848956E2,2.2258888E2,7.837794E1,6.491519E2,4.390394E2,4.383813E2,1.301083E2,1.3202588E2,9.056301E1,7.5707634E1,2.670304E0,3.9988635E2,2.4926553E2,3.610954E2,7.7943985E1,1.5460498E2,2.837763E2,1.5603151E1,1.1450515E2,5.9419212E1,7.260667E1,3.4392635E1,5.6170376E1,3.5608733E0,7.214676E1,1.2564531E2,2.7424106E2,2.4614984E2,3.1156964E0,3.5618997E2,4.9054413E0,1.7020939E1,6.0923046E1,1.2288862E2,3.171636E1,2.6633917E2,1.7437134E1,1.337951E0,1.4265201E1,1.0602721E2,8.477941E0,4.2543293E1,1.6875917E1,7.127393E1,1.332732E0,1.1193566E1,2.319907E1,1.3290609E1,4.2879765E1,2.225233E0,1.3356403E0,1.7905455E0,7.035622E1,1.08292145E2,1.7353167E1,6.2169437E1,2.1207161E2,1.3874732E1,2.3227512E2,3.5087558E2,5.314388E0,2.2256484E0,2.6797931E0,2.2161736E0,1.4804765E1,5.830635E0,5.509241E1,1.0591712E2,1.69715E1,2.6608186E0,2.905554E1,2.0186482E2,6.447435E1,2.6805298E0,1.4756603E1,2.2323134E0,1.20328865E1,2.6636713E0,1.0336354E2,1.3331925E0,7.1447477E0,2.639807E1,1.6145224E1,3.5754445E0,1.3300473E1,6.7697296E1,3.5766356E0,4.4721117E0,6.721455E0,3.5684254E0,1.9630646E1,1.0197494E1,3.093115E0,3.1260254E1,1.1619511E1,6.723125E1,3.1249645E0],"tree_param":{"num_deleted":"0","num_feature":"201","num_nodes":"101","size_leaf_vector":"1"}},{"base_weights":[-4.740124E-2,2.4524759E-1,-1.634656E-1,3.9531294E-1,-3.51401E-3,6.0870282E-2,-2.4401839E-1,9.5146465E-1,3.1509095E-1,-8.13143E-2,9.892591E-1,6.7834806E-1,-1.1596428E-2,-6.486025E-2,-3.194528E-1,1.0255722E0,-1.4586944E-2,2.624101E-1,1.156721E0,-2.2831081E-1,5.4193807E-1,-1.6618488E-4,1.0850726E0,8.214979E-1,-1.7528001E-2,-2.4493997E-1,1.24393396E-1,-5.736178E-1,9.371231E-3,-3.410622E-1,2.6694262E-1,1.1219933E0,-2.723856E-1,1.2176806E-2,4.5708373E-1,-2.5629762E-4,1.2536156E0,-2.650086E-1,8.5337573E-1,-5.0806344E-1,7.662839E-1,6.860214E-3,1.1924304E0,-1.640173E-2,9.4991505E-1,-3.0690077E-1,9.3887055E-1,2.227648E-2,5.3934085E-1,1.3016665E-2,-6.2057346E-1,-3.0053286E-2,8.108249E-1,-3.9982444E-1,-1.5657578E-1,-1.7011705E-1,9.524377E-1,8.808854E-3,3.6656607E-2,-1.2881196E-2,5.3570577E-5,5.2601416E-3,-1.2509371E-2,-1.1694651E-2,1.5349917E-2,3.8964145E-2,1.2822769E-2,1.0193002E-2,-9.618617E-3,7.1106837E-3,3.264349E-2,3.788191E-5,-1.8700132E-2,3.351782E-2,2.4081543E-3,4.0062428E-2,6.9603897E-3,1.4462499E-3,3.323331E-2,-1.0713104E-2,1.8883059E-2,3.5754625E-2,-1.3296466E-4,-6.9164066E-3,6.7915306E-3,2.8495943E-2,2.782902E-3,-1.9299924E-2,9.233695E-6,1.9303959E-2,-2.3267742E-3,2.984213E-2,-1.2828315E-2,-1.3170075E-2,3.2902867E-4,1.3455685E-2,-7.500995E-3,-1.3383426E-2,1.4902063E-2,2.7692402E-3,3.5337027E-2],"categories":[],"categories_nodes":[],"categories_segments":[],"categories_sizes":[],"default_left":[0,0,0,0,0,0,0,0,0,0,0,0,0,0,0,0,0,0,0,0,0,0,0,0,0,0,0,0,0,0,0,0,0,0,0,0,0,0,0,0,0,0,0,0,0,0,0,0,0,0,0,0,0,0,0,0,0,0,0,0,0,0,0,0,0,0,0,0,0,0,0,0,0,0,0,0,0,0,0,0,0,0,0,0,0,0,0,0,0,0,0,0,0,0,0,0,0,0,0,0,0],"id":5,"left_children":[1,3,5,7,9,11,13,15,17,19,21,23,25,27,29,31,-1,33,35,37,39,-1,41,43,-1,45,47,49,51,53,55,57,59,61,63,-1,65,67,69,71,73,-1,75,-1,77,79,81,83,85,-1,87,89,91,93,95,97,99,-1,-1,-1,-1,-1,-1,-1,-1,-1,-1,-1,-1,-1,-1,-1,-1,-1,-1,-1,-1,-1,-1,-1,-1,-1,-1,-1,-1,-1,-1,-1,-1,-1,-1,-1,-1,-1,-1,-1,-1,-1,-1,-1,-1],"loss_changes":[6.640719E1,2.0729706E1,2.5307884E1,1.51526375E1,1.6294172E1,1.6590733E1,1.3900238E1,5.097706E0,1.3183147E1,1.8042694E1,1.4672985E0,7.518366E0,1.0586352E1,1.1578955E1,9.27298E0,5.4832573E0,0E0,1.4002373E1,2.0006886E0,6.5363474E0,9.25192E0,0E0,1.0135117E0,6.7377567E0,0E0,9.297048E0,8.921633E0,2.116023E0,8.505598E0,7.5182953E0,8.045908E0,2.8440628E0,1.5853426E-1,8.955374E0,7.674164E0,0E0,5.261612E-2,5.3055916E0,5.310633E-1,4.2496812E-1,7.4701977E0,0E0,1.3646584E0,0E0,4.6041546E0,5.7464476E0,1.5216618E0,8.837007E0,7.537533E0,0E0,5.330286E-1,8.266464E0,3.2998743E0,8.530106E0,9.758225E0,3.3352685E0,1.9075222E0,0E0,0E0,0E0,0E0,0E0,0E0,0E0,0E0,0E0,0E0,0E0,0E0,0E0,0E0,0E0,0E0,0E0,0E0,0E0,0E0,0E0,0E0,0E0,0E0,0E0,0E0,0E0,0E0,0E0,0E0,0E0,0E0,0E0,0E0,0E0,0E0,0E0,0E0,0E0,0E0,0E0,0E0,0E0,0E0],"parents":[2147483647,0,0,1,1,2,2,3,3,4,4,5,5,6,6,7,7,8,8,9,9,10,10,11,11,12,12,13,13,14,14,15,15,17,17,18,18,19,19,20,20,22,22,23,23,25,25,26,26,27,27,28,28,29,29,30,30,31,31,32,32,33,33,34,34,36,36,37,37,38,38,39,39,40,40,42,42,44,44,45,45,46,46,47,47,48,48,50,50,51,51,52,52,53,53,54,54,55,55,56,56],"right_children":[2,4,6,8,10,12,14,16,18,20,22,24,26,28,30,32,-1,34,36,38,40,-1,42,44,-1,46,48,50,52,54,56,58,60,62,64,-1,66,68,70,72,74,-1,76,-1,78,80,82,84,86,-1,88,90,92,94,96,98,100,-1,-1,-1,-1,-1,-1,-1,-1,-1,-1,-1,-1,-1,-1,-1,-1,-1,-1,-1,-1,-1,-1,-1,-1,-1,-1,-1,-1,-1,-1,-1,-1,-1,-1,-1,-1,-1,-1,-1,-1,-1,-1,-1,-1],"split_conditions":[-4.507505E-1,9.844394E-3,6.938894E-17,3.4698704E-1,4E-1,6.6249526E-1,-6.666667E-1,5.307478E-1,6.6782147E-1,3.436568E-1,-2.094423E-2,4.8076153E-1,-4.4610384E-1,2.6775703E-3,1.2580454E0,2.2001415E-1,-1.4586944E-2,-5.3623784E-1,-4.4866434E-1,1.0478708E0,3.500444E-2,-1.6618488E-4,1.0474876E0,6.1248965E-3,-1.7528001E-2,5.3749454E-1,4.8538643E-1,-1.0975487E-1,1E-1,7.81025E-1,5.2122872E-2,5.9282235E-3,-1.4667048E-1,1.6133088E-1,2.2267431E-3,-2.5629762E-4,7.798983E-1,-8.326711E-2,-1.17710136E-1,2.6E-1,1.2993297E-1,6.860214E-3,2.5376592E0,-1.640173E-2,3.6660606E-1,6.376427E-1,5.2667207E-1,3.8974725E-3,4.573344E-2,1.3016665E-2,7.016694E-2,-3.4090325E-1,6.794342E-1,4.935585E-1,-2.1326968E-1,4.9839744E-1,1.8420003E-1,8.808854E-3,3.6656607E-2,-1.2881196E-2,5.3570577E-5,5.2601416E-3,-1.2509371E-2,-1.1694651E-2,1.5349917E-2,3.8964145E-2,1.2822769E-2,1.0193002E-2,-9.618617E-3,7.1106837E-3,3.264349E-2,3.788191E-5,-1.8700132E-2,3.351782E-2,2.4081543E-3,4.0062428E-2,6.9603897E-3,1.4462499E-3,3.323331E-2,-1.0713104E-2,1.8883059E-2,3.5754625E-2,-1.3296466E-4,-6.9164066E-3,6.7915306E-3,2.8495943E-2,2.782902E-3,-1.9299924E-2,9.233695E-6,1.9303959E-2,-2.3267742E-3,2.984213E-2,-1.2828315E-2,-1.3170075E-2,3.2902867E-4,1.3455685E-2,-7.500995E-3,-1.3383426E-2,1.4902063E-2,2.7692402E-3,3.5337027E-2],"split_indices":[39,154,166,186,80,199,66,68,77,147,3,71,68,154,77,8,0,94,4,1,139,0,185,151,0,1,143,3,105,199,95,150,71,68,150,0,74,74,3,122,139,0,15,0,181,75,138,31,139,0,176,118,77,170,20,181,68,0,0,0,0,0,0,0,0,0,0,0,0,0,0,0,0,0,0,0,0,0,0,0,0,0,0,0,0,0,0,0,0,0,0,0,0,0,0,0,0,0,0,0,0],"split_type":[0,0,0,0,0,0,0,0,0,0,0,0,0,0,0,0,0,0,0,0,0,0,0,0,0,0,0,0,0,0,0,0,0,0,0,0,0,0,0,0,0,0,0,0,0,0,0,0,0,0,0,0,0,0,0,0,0,0,0,0,0,0,0,0,0,0,0,0,0,0,0,0,0,0,0,0,0,0,0,0,0,0,0,0,0,0,0,0,0,0,0,0,0,0,0,0,0,0,0,0,0],"sum_hessian":[1.9529216E3,5.54265E2,1.3986566E3,3.4534604E2,2.0891899E2,3.6959512E2,1.0290614E3,4.2165627E1,3.0318042E2,1.9458789E2,1.4331104E1,3.7941402E1,3.3165372E2,3.054564E2,7.2360504E2,4.0371304E1,1.7943234E0,2.865556E2,1.662482E1,1.5796492E2,3.6622963E1,1.3418041E0,1.2989301E1,3.4391598E1,3.5498044E0,1.2182106E2,2.0983267E2,3.8036896E1,2.674195E2,6.982906E2,2.5314495E1,3.770583E1,2.665476E0,1.25850296E2,1.6070529E2,1.3462692E0,1.5278552E1,1.5351181E2,4.453109E0,6.22475E0,3.0398214E1,1.7956116E0,1.1193689E1,2.6714277E0,3.1720171E1,1.16465965E2,5.3550925E0,1.6923764E2,4.0595024E1,1.3268516E0,3.6710045E1,2.5579892E2,1.162057E1,5.287173E2,1.6957329E2,1.5917566E1,9.396929E0,4.481609E0,3.322422E1,1.3349953E0,1.3304808E0,9.1611755E1,3.423854E1,9.357974E0,1.5134732E2,1.3943839E1,1.3347132E0,1.2497117E1,1.410147E2,1.7825167E0,2.670592E0,1.3313556E0,4.8933945E0,1.9693842E1,1.0704372E1,9.403302E0,1.7903864E0,4.9203787E0,2.6799793E1,1.1112642E2,5.339549E0,4.015E0,1.340093E0,7.553937E1,9.369828E1,2.056412E1,2.0030905E1,3.5377193E1,1.3328494E0,1.602718E1,2.3977173E2,1.0289339E1,1.3312317E0,4.8262018E2,4.6097095E1,2.2178339E1,1.4739496E2,1.1492189E1,4.425377E0,2.244334E0,7.152595E0],"tree_param":{"num_deleted":"0","num_feature":"201","num_nodes":"101","size_leaf_vector":"1"}},{"base_weights":[-2.7615659E-2,-1.4092359E-1,7.584007E-2,-1.9039962E-1,1.9705239E-1,1.3876859E-2,4.3295142E-1,2.4063778E-1,-2.1685433E-1,-1.9039901E-2,6.5402204E-1,1.5329824E-1,-1.0115534E-1,2.1749993E-1,1.1198642E0,4.6658006E-1,-2.0037666E-2,-2.4319121E-1,2.138132E-1,1.4632249E-1,-5.986528E-1,8.889166E-1,-3.933352E-1,-3.531875E-1,2.3096164E-1,4.7360635E-1,-1.6522694E-1,3.9918423E-1,-5.0515133E-1,1.9746056E-1,1.3450133E0,9.4466597E-1,-1.5622853E-2,-4.3784328E-2,-2.934885E-1,-8.504346E-2,7.6947135E-1,-4.9377117E-1,3.3553377E-1,1.2271673E-2,-2.1103814E-2,-1.4456718E-2,9.875057E-1,-1.8952142E-2,1.2541991E-2,-5.08305E-1,4.978334E-1,3.6849013E-1,-6.768509E-2,-1.2048999E-1,8.269167E-1,5.593388E-1,-1.9664828E-1,6.3767844E-1,-1.0409227E-1,4.14396E-1,-6.6380715E-1,2.779427E-2,-1.751048E-2,4.2206626E-2,6.40148E-1,9.246681E-3,3.5020452E-2,3.2096174E-2,-7.3596216E-3,1.4103144E-2,-4.745188E-3,-2.4284911E-3,-1.0384411E-2,3.4915946E-2,-8.978117E-3,3.78931E-2,-8.222226E-3,-1.805856E-2,3.461776E-4,1.7961528E-3,2.1712394E-2,-1.2874837E-2,3.208068E-2,-1.7998682E-2,2.7842838E-3,-1.557864E-2,2.8070983E-2,1.5119167E-2,3.2315138E-3,-7.8116455E-3,1.498326E-2,3.3879787E-2,-1.328296E-2,4.908395E-5,3.011851E-2,-3.8329123E-3,2.9152265E-2,-9.917446E-3,-6.760109E-4,4.2161444E-4,2.8395243E-2,-1.3551216E-2,1.3944307E-2,-3.2295864E-3,2.5547614E-2,-2.1306632E-2,1.4560165E-4,2.852068E-2,-1.1112673E-4],"categories":[],"categories_nodes":[],"categories_segments":[],"categories_sizes":[],"default_left":[0,0,0,0,0,0,0,0,0,0,0,0,0,0,0,0,0,0,0,0,0,0,0,0,0,0,0,0,0,0,0,0,0,0,0,0,0,0,0,0,0,0,0,0,0,0,0,0,0,0,0,0,0,0,0,0,0,0,0,0,0,0,0,0,0,0,0,0,0,0,0,0,0,0,0,0,0,0,0,0,0,0,0,0,0,0,0,0,0,0,0,0,0,0,0,0,0,0,0,0,0,0,0,0,0],"id":6,"left_children":[1,3,5,7,9,11,13,15,17,19,21,23,25,27,29,31,-1,33,35,37,39,41,43,45,47,49,51,53,55,57,59,61,63,65,67,69,71,73,75,-1,-1,-1,77,-1,-1,79,81,83,85,87,89,91,93,95,97,99,101,-1,-1,-1,103,-1,-1,-1,-1,-1,-1,-1,-1,-1,-1,-1,-1,-1,-1,-1,-1,-1,-1,-1,-1,-1,-1,-1,-1,-1,-1,-1,-1,-1,-1,-1,-1,-1,-1,-1,-1,-1,-1,-1,-1,-1,-1,-1,-1],"loss_changes":[2.2739834E1,1.55178795E1,2.2435818E1,9.266428E0,1.1734557E1,1.3892667E1,2.194444E1,1.0001017E1,8.69331E0,7.9055095E0,9.732891E0,1.5483934E1,1.7559704E1,1.5348776E1,7.118412E0,8.864707E0,0E0,7.192623E0,7.4448156E0,7.9490447E0,2.220726E0,4.7276173E0,1.7497612E0,7.177472E0,1.3994104E1,1.0147372E1,9.85047E0,1.1198839E1,3.720921E0,5.180733E0,3.383026E-1,2.3744907E0,5.273083E0,8.649907E0,6.3909645E0,8.320349E0,8.403297E0,8.305912E-1,5.3286543E0,0E0,0E0,0E0,3.900158E0,0E0,0E0,2.5272684E0,4.312531E0,8.178574E0,1.1942193E1,8.041906E0,4.4025784E0,5.2367167E0,9.572156E0,1.2133265E1,6.2772384E0,1.0254285E0,6.405363E-1,0E0,0E0,0E0,8.287432E-1,0E0,0E0,0E0,0E0,0E0,0E0,0E0,0E0,0E0,0E0,0E0,0E0,0E0,0E0,0E0,0E0,0E0,0E0,0E0,0E0,0E0,0E0,0E0,0E0,0E0,0E0,0E0,0E0,0E0,0E0,0E0,0E0,0E0,0E0,0E0,0E0,0E0,0E0,0E0,0E0,0E0,0E0,0E0,0E0],"parents":[2147483647,0,0,1,1,2,2,3,3,4,4,5,5,6,6,7,7,8,8,9,9,10,10,11,11,12,12,13,13,14,14,15,15,17,17,18,18,19,19,20,20,21,21,22,22,23,23,24,24,25,25,26,26,27,27,28,28,29,29,30,30,31,31,32,32,33,33,34,34,35,35,36,36,37,37,38,38,42,42,45,45,46,46,47,47,48,48,49,49,50,50,51,51,52,52,53,53,54,54,55,55,56,56,60,60],"right_children":[2,4,6,8,10,12,14,16,18,20,22,24,26,28,30,32,-1,34,36,38,40,42,44,46,48,50,52,54,56,58,60,62,64,66,68,70,72,74,76,-1,-1,-1,78,-1,-1,80,82,84,86,88,90,92,94,96,98,100,102,-1,-1,-1,104,-1,-1,-1,-1,-1,-1,-1,-1,-1,-1,-1,-1,-1,-1,-1,-1,-1,-1,-1,-1,-1,-1,-1,-1,-1,-1,-1,-1,-1,-1,-1,-1,-1,-1,-1,-1,-1,-1,-1,-1,-1,-1,-1,-1],"split_conditions":[1.0094716E-2,1.6440786E-2,1.6E-1,4.641379E-1,1.1445357E-2,4.2751464E-1,5.48803E-1,8.252732E-3,3.883697E-1,7.68E-1,9.2E-1,-4.2255563E-1,-1.6180561E-1,1.768165E-2,9.521222E-3,-7.3699005E-2,-2.0037666E-2,-4.4188982E-1,8E-2,3.1609433E-3,-9.961606E-1,-1.3619162E0,-5.2980745E-1,8E-2,3.4920868E-1,3.1479143E-2,1.4E-1,5.8178675E-1,1.1286712E-2,-1.5160856E-2,1E0,4.103657E-1,3.1729928E-1,4.489989E-1,2.4526846E-1,2.5966E-1,1.5063494E-1,8.8119835E-1,4E-1,1.2271673E-2,-2.1103814E-2,-1.4456718E-2,2.8491084E-2,-1.8952142E-2,1.2541991E-2,5.5576057E0,-3.5934248E0,2.4291995E-1,6.381876E-1,2.1087271E-1,7.467262E-1,-1.0193257E0,2.2E-1,1.9078784E-1,2.5212927E-2,-4.5851564E-1,6.3519186E-1,2.779427E-2,-1.751048E-2,4.2206626E-2,1.418324E-1,9.246681E-3,3.5020452E-2,3.2096174E-2,-7.3596216E-3,1.4103144E-2,-4.745188E-3,-2.4284911E-3,-1.0384411E-2,3.4915946E-2,-8.978117E-3,3.78931E-2,-8.222226E-3,-1.805856E-2,3.461776E-4,1.7961528E-3,2.1712394E-2,-1.2874837E-2,3.208068E-2,-1.7998682E-2,2.7842838E-3,-1.557864E-2,2.8070983E-2,1.5119167E-2,3.2315138E-3,-7.8116455E-3,1.498326E-2,3.3879787E-2,-1.328296E-2,4.908395E-5,3.011851E-2,-3.8329123E-3,2.9152265E-2,-9.917446E-3,-6.760109E-4,4.2161444E-4,2.8395243E-2,-1.3551216E-2,1.3944307E-2,-3.2295864E-3,2.5547614E-2,-2.1306632E-2,1.4560165E-4,2.852068E-2,-1.1112673E-4],"split_indices":[150,167,132,196,173,138,7,154,70,129,120,71,71,166,151,118,0,71,104,151,1,3,3,132,8,139,181,135,150,118,54,196,135,186,138,135,134,82,189,0,0,0,140,0,0,149,15,4,3,137,199,70,102,147,150,2,82,0,0,0,83,0,0,0,0,0,0,0,0,0,0,0,0,0,0,0,0,0,0,0,0,0,0,0,0,0,0,0,0,0,0,0,0,0,0,0,0,0,0,0,0,0,0,0,0],"split_type":[0,0,0,0,0,0,0,0,0,0,0,0,0,0,0,0,0,0,0,0,0,0,0,0,0,0,0,0,0,0,0,0,0,0,0,0,0,0,0,0,0,0,0,0,0,0,0,0,0,0,0,0,0,0,0,0,0,0,0,0,0,0,0,0,0,0,0,0,0,0,0,0,0,0,0,0,0,0,0,0,0,0,0,0,0,0,0,0,0,0,0,0,0,0,0,0,0,0,0,0,0,0,0,0,0],"sum_hessian":[1.9379574E3,9.247644E2,1.013193E3,8.070567E2,1.1770771E2,8.642703E2,1.4892267E2,4.62003E1,7.6085645E2,8.05673E1,3.714041E1,3.9056494E2,4.7370538E2,1.1436767E2,3.4555E1,3.738884E1,8.81146E0,7.1741895E2,4.3437447E1,6.326537E1,1.7301931E1,3.0460258E1,6.6801553E0,5.1454453E1,3.391105E2,4.6869072E1,4.268363E2,9.1748474E1,2.2619196E1,7.1479344E0,2.7407064E1,1.829298E1,1.909586E1,1.4488467E2,5.725343E2,2.8796442E1,1.46410055E1,1.4067155E1,4.9198215E1,1.3564994E0,1.5945431E1,1.7828727E0,2.8677385E1,5.334281E0,1.3458742E0,4.3862286E1,7.592168E0,2.3202693E2,1.07083565E2,1.7724329E1,2.9144743E1,1.7042425E1,4.0979388E2,6.2068302E1,2.968017E1,3.0911875E0,1.952801E1,3.6010978E0,3.5468364E0,2.4279776E1,3.127288E0,5.359438E0,1.2933542E1,2.6962605E0,1.63996E1,2.5812534E1,1.1907214E2,1.141883E2,4.5834598E2,3.56723E0,2.5229212E1,9.796524E0,4.844481E0,1.1429076E1,2.638079E0,2.9444498E1,1.9753717E1,1.3346152E0,2.734277E1,3.8061092E1,5.8011956E0,2.2288375E0,5.3633304E0,1.5208171E2,7.994522E1,8.032944E1,2.6754131E1,3.1200876E0,1.4604241E1,5.3259444E0,2.3818798E1,6.651163E0,1.0391262E1,2.3111546E2,1.7867842E2,2.0903349E1,4.116495E1,1.8551004E1,1.1129166E1,1.7524062E0,1.3387814E0,1.8202368E1,1.3256416E0,1.788229E0,1.3390591E0],"tree_param":{"num_deleted":"0","num_feature":"201","num_nodes":"105","size_leaf_vector":"1"}},{"base_weights":[9.165874E-2,2.0413604E-3,5.664587E-1,-1.2737808E-2,9.486638E-1,2.5172737E-1,7.204523E-1,3.881564E-2,-1.9970942E-1,1.0620725E0,-1.2441718E-2,9.527697E-2,9.489316E-1,7.551152E-1,-1.8574895E-2,8.4336114E-1,2.0971026E-2,-2.5024706E-1,9.718974E-1,1.5534973E-1,1.1972109E0,-1.3024787E-2,1.2406804E-2,2.7882406E-1,-4.7922054E-1,1.0798584E0,-1.3200154E-2,4.3835402E-1,9.141564E-1,1.0287138E0,-2.0675744E-1,-1.1751803E-1,1.1157681E-1,-2.9237685E-1,8.5338765E-1,-1.44366305E-2,1.2058539E0,2.5134925E-2,-1.4374203E-2,1.28409E0,-7.726185E-5,8.5905105E-2,8.0440354E-1,1.7482636E-2,-6.066133E-1,1.1697103E0,-2.6051188E-4,5.913404E-1,-2.5378972E-1,9.4604653E-1,-3.3202663E-1,3.6977112E-2,1.7909356E-4,1.242164E-2,-1.6430087E-2,-4.849348E-3,1.4419E-2,-1.0915636E-2,4.5569655E-3,2.5825484E-3,-1.1234158E-2,-1.3084156E-2,3.1298228E-2,7.2194706E-3,4.007444E-2,4.1327205E-2,1.603824E-2,-6.3230544E-3,1.6327055E-2,2.7945029E-2,-1.29088685E-2,3.2344656E-3,-2.1115681E-2,1.5653787E-2,3.77909E-2,2.195603E-2,-9.327773E-3,-2.0045862E-2,1.418472E-2,2.9151058E-2,8.679168E-3,-1.4651058E-2,-8.277921E-5],"categories":[],"categories_nodes":[],"categories_segments":[],"categories_sizes":[],"default_left":[0,0,0,0,0,0,0,0,0,0,0,0,0,0,0,0,0,0,0,0,0,0,0,0,0,0,0,0,0,0,0,0,0,0,0,0,0,0,0,0,0,0,0,0,0,0,0,0,0,0,0,0,0,0,0,0,0,0,0,0,0,0,0,0,0,0,0,0,0,0,0,0,0,0,0,0,0,0,0,0,0,0,0],"id":7,"left_children":[1,3,5,7,9,11,13,15,17,19,21,23,25,27,-1,29,31,33,35,37,39,-1,-1,41,43,45,-1,47,49,51,53,55,57,59,61,-1,63,-1,-1,65,-1,67,69,-1,71,73,-1,75,77,79,81,-1,-1,-1,-1,-1,-1,-1,-1,-1,-1,-1,-1,-1,-1,-1,-1,-1,-1,-1,-1,-1,-1,-1,-1,-1,-1,-1,-1,-1,-1,-1,-1],"loss_changes":[8.431497E1,2.3347E1,1.50675125E1,1.5847405E1,2.8094044E0,1.1352236E1,1.0252426E1,1.848752E1,2.128254E1,2.6270847E0,8.435497E-1,9.285316E0,3.9510422E0,9.970024E0,0E0,5.651537E0,1.5848668E1,1.6124804E1,5.645216E0,2.188503E0,2.0703907E0,0E0,0E0,6.664181E0,3.2462745E0,1.7469368E0,0E0,7.6397038E0,5.7239227E0,4.9793777E0,1.2902231E0,1.3264538E1,1.4689989E1,1.02736225E1,3.59165E0,0E0,1.3239841E0,0E0,0E0,5.592804E-1,0E0,6.8721013E0,3.1801405E0,0E0,1.4363084E0,2.994938E-1,0E0,7.6104183E0,4.382031E0,1.95961E0,2.1160895E-1,0E0,0E0,0E0,0E0,0E0,0E0,0E0,0E0,0E0,0E0,0E0,0E0,0E0,0E0,0E0,0E0,0E0,0E0,0E0,0E0,0E0,0E0,0E0,0E0,0E0,0E0,0E0,0E0,0E0,0E0,0E0,0E0],"parents":[2147483647,0,0,1,1,2,2,3,3,4,4,5,5,6,6,7,7,8,8,9,9,10,10,11,11,12,12,13,13,15,15,16,16,17,17,18,18,19,19,20,20,23,23,24,24,25,25,27,27,28,28,29,29,30,30,31,31,32,32,33,33,34,34,36,36,39,39,41,41,42,42,44,44,45,45,47,47,48,48,49,49,50,50],"right_children":[2,4,6,8,10,12,14,16,18,20,22,24,26,28,-1,30,32,34,36,38,40,-1,-1,42,44,46,-1,48,50,52,54,56,58,60,62,-1,64,-1,-1,66,-1,68,70,-1,72,74,-1,76,78,80,82,-1,-1,-1,-1,-1,-1,-1,-1,-1,-1,-1,-1,-1,-1,-1,-1,-1,-1,-1,-1,-1,-1,-1,-1,-1,-1,-1,-1,-1,-1,-1,-1],"split_conditions":[6.4440125E-1,1E0,-2.2918023E-1,1E0,5.4024E4,8.280148E-1,2.6879774E-2,-1.0803276E0,5.307478E-1,2.3400912E-2,0E0,6.8E-1,1.8367554E0,2.7979858E3,-1.8574895E-2,6.051151E-1,6.5453365E-3,2.2027237E0,-6.666667E-2,5.0586513E-3,4.9839744E-1,-1.3024787E-2,1.2406804E-2,7.72593E-1,4.8470604E-3,1.2167651E1,-1.3200154E-2,9.44582E-3,5.9320027E-1,3.544009E-1,6.6444415E-1,2.8246481E-2,-1.3999764E0,2.4787008E-3,4.937523E-1,-1.44366305E-2,9.001574E-2,2.5134925E-2,-1.4374203E-2,9.844308E-1,-7.726185E-5,6.155183E-2,-4.1259113E-1,1.7482636E-2,2.5503982E-2,3.1900883E-3,-2.6051188E-4,4.8899505E-2,7.81089E-1,3.8E-1,-9.553625E-3,3.6977112E-2,1.7909356E-4,1.242164E-2,-1.6430087E-2,-4.849348E-3,1.4419E-2,-1.0915636E-2,4.5569655E-3,2.5825484E-3,-1.1234158E-2,-1.3084156E-2,3.1298228E-2,7.2194706E-3,4.007444E-2,4.1327205E-2,1.603824E-2,-6.3230544E-3,1.6327055E-2,2.7945029E-2,-1.29088685E-2,3.2344656E-3,-2.1115681E-2,1.5653787E-2,3.77909E-2,2.195603E-2,-9.327773E-3,-2.0045862E-2,1.418472E-2,2.9151058E-2,8.679168E-3,-1.4651058E-2,-8.277921E-5],"split_indices":[51,25,95,36,29,10,179,73,68,140,65,76,185,163,0,56,179,0,133,151,146,0,0,199,150,15,0,150,99,147,185,174,51,150,138,0,134,0,0,196,0,140,2,0,134,194,0,85,199,147,4,0,0,0,0,0,0,0,0,0,0,0,0,0,0,0,0,0,0,0,0,0,0,0,0,0,0,0,0,0,0,0,0],"split_type":[0,0,0,0,0,0,0,0,0,0,0,0,0,0,0,0,0,0,0,0,0,0,0,0,0,0,0,0,0,0,0,0,0,0,0,0,0,0,0,0,0,0,0,0,0,0,0,0,0,0,0,0,0,0,0,0,0,0,0,0,0,0,0,0,0,0,0,0,0,0,0,0,0,0,0,0,0,0,0,0,0,0,0],"sum_hessian":[1.9805625E3,1.6669364E3,3.1362607E2,1.6422828E3,2.4653643E1,1.0390345E2,2.0972261E2,1.2879503E3,3.5433252E2,2.1957628E1,2.696015E0,8.578926E1,1.8114185E1,2.0485818E2,4.8644385E0,2.694276E1,1.2610074E3,3.404342E2,1.3898332E1,3.1269097E0,1.8830717E1,1.3451965E0,1.3508184E0,6.540696E1,2.0382307E1,1.6757118E1,1.357066E0,6.973122E1,1.3512695E2,2.2917973E1,4.024787E0,4.9860425E2,7.6240326E2,3.2862448E2,1.1809728E1,1.7807986E0,1.2117533E1,1.3520811E0,1.7748288E0,1.7493694E1,1.337023E0,4.8696056E1,1.6710903E1,1.8002802E0,1.8582026E1,1.5410518E1,1.3466008E0,5.7227673E1,1.2503548E1,1.3199014E2,3.1368186E0,1.8938025E1,3.9799473E0,1.3506535E0,2.6741333E0,4.650279E2,3.3576363E1,5.8978043E1,7.034252E2,5.856924E1,2.7005524E2,1.3493577E0,1.046037E1,1.7763647E0,1.0341168E1,1.4808577E1,2.6851182E0,2.9889164E1,1.880689E1,1.5373908E1,1.3369944E0,2.2132046E0,1.6368822E1,2.708368E0,1.270215E1,4.9679054E1,7.548618E0,8.013596E0,4.4899526E0,1.2656629E2,5.423848E0,1.7992868E0,1.3375317E0],"tree_param":{"num_deleted":"0","num_feature":"201","num_nodes":"83","size_leaf_vector":"1"}},{"base_weights":[-4.3120194E-2,1.8902916E-1,-1.6832992E-1,3.0123568E-1,-6.737854E-2,5.219549E-2,-2.4269211E-1,5.656387E-1,1.5566474E-1,-2.6102942E-1,3.1076124E-1,4.6801537E-1,-6.7211494E-2,9.029512E-1,-2.5845402E-1,6.2732965E-1,-3.9953065E-1,1.8558089E-2,5.359925E-1,5.007012E-1,-3.839732E-1,-5.270592E-1,4.806906E-1,7.120467E-1,1.8907404E-1,-1.2086286E-1,6.4826405E-1,1.1469766E0,-6.1289095E-3,-1.8974769E-1,-4.145104E-1,6.9290674E-1,7.2032295E-2,2.9779826E-3,-5.4173565E-1,-1.9575262E-1,2.275924E-1,7.247408E-1,-6.07059E-1,-4.7024384E-1,8.9073324E-1,-5.385754E-1,8.7486655E-2,-1.4464486E-1,-1.9875625E-2,-1.3873424E-1,7.937369E-1,8.0451953E-1,-1.5713869E-2,1.1708931E-2,8.589595E-1,3.5084248E-2,-1.4876471E-1,1.0318755E0,-2.8662708E-1,1.2096124E0,1.2223092E-2,-2.2527371E-1,2.0666474E-1,-3.3758304E-1,-6.147167E-1,1.1913E-2,2.4189893E-2,-5.351516E-3,3.2899823E-2,-1.930423E-2,2.062415E-4,4.4035385E-3,-1.0180419E-2,1.0606966E-2,-1.329228E-2,2.5651308E-2,-4.945441E-3,-4.365872E-5,-2.0455573E-2,-1.7925182E-2,1.4146954E-4,-6.1526885E-3,3.3196248E-2,-1.7045015E-2,1.8136734E-2,1.5502345E-2,-1.8205076E-2,1.291016E-2,-1.54845975E-2,-1.4711364E-2,1.7807065E-2,2.8089033E-2,-1.1843348E-2,-8.0737285E-3,2.6973447E-2,-8.716639E-3,9.354248E-3,3.161868E-2,-1.0233704E-4,-1.6755457E-3,-1.4636985E-2,3.888613E-2,8.433274E-3,1.2593613E-2,-1.7603308E-2,1.2298852E-2,3.8760625E-2,-4.3273843E-3,-1.25265885E-2,2.3290593E-2,-2.808892E-3,-1.0817364E-2,2.6875218E-2,1.2767698E-2,-1.9151658E-2],"categories":[],"categories_nodes":[],"categories_segments":[],"categories_sizes":[],"default_left":[0,0,0,0,0,0,0,0,0,0,0,0,0,0,0,0,0,0,0,0,0,0,0,0,0,0,0,0,0,0,0,0,0,0,0,0,0,0,0,0,0,0,0,0,0,0,0,0,0,0,0,0,0,0,0,0,0,0,0,0,0,0,0,0,0,0,0,0,0,0,0,0,0,0,0,0,0,0,0,0,0,0,0,0,0,0,0,0,0,0,0,0,0,0,0,0,0,0,0,0,0,0,0,0,0,0,0,0,0,0,0],"id":8,"left_children":[1,3,5,7,9,11,13,15,17,19,21,23,25,27,29,31,33,35,37,39,41,43,45,47,49,51,53,55,-1,57,59,61,63,-1,65,67,69,71,73,75,77,79,81,83,-1,85,87,89,-1,91,93,-1,95,97,99,101,-1,103,105,107,109,-1,-1,-1,-1,-1,-1,-1,-1,-1,-1,-1,-1,-1,-1,-1,-1,-1,-1,-1,-1,-1,-1,-1,-1,-1,-1,-1,-1,-1,-1,-1,-1,-1,-1,-1,-1,-1,-1,-1,-1,-1,-1,-1,-1,-1,-1,-1,-1,-1,-1],"loss_changes":[5.6796192E1,1.9719631E1,2.08252E1,1.8250679E1,1.5403272E1,1.5963077E1,1.7375141E1,1.0301315E1,1.60854E1,1.3202147E1,1.0407385E1,4.746681E0,9.680945E0,3.7754402E0,9.96986E0,5.741768E0,8.164245E-1,1.0254568E1,1.8077803E1,7.894344E0,8.806917E0,5.518763E-1,1.1709327E1,4.751171E0,4.12741E0,8.582439E0,6.6103053E0,1.1609077E-2,0E0,9.236301E0,4.1916733E0,4.4485474E0,4.7922397E0,0E0,4.800496E-1,5.6114664E0,9.943378E0,8.327084E0,5.484557E-1,3.8431752E-1,3.6390543E0,3.4096832E0,9.415258E0,1.1940157E0,0E0,5.6815643E0,7.1277046E0,3.86199E0,0E0,2.6800594E0,1.2271376E0,0E0,7.204125E0,2.1562939E0,1.4984279E0,9.845352E-2,0E0,9.27762E0,9.343527E0,6.2387238E0,2.1942348E0,0E0,0E0,0E0,0E0,0E0,0E0,0E0,0E0,0E0,0E0,0E0,0E0,0E0,0E0,0E0,0E0,0E0,0E0,0E0,0E0,0E0,0E0,0E0,0E0,0E0,0E0,0E0,0E0,0E0,0E0,0E0,0E0,0E0,0E0,0E0,0E0,0E0,0E0,0E0,0E0,0E0,0E0,0E0,0E0,0E0,0E0,0E0,0E0,0E0,0E0],"parents":[2147483647,0,0,1,1,2,2,3,3,4,4,5,5,6,6,7,7,8,8,9,9,10,10,11,11,12,12,13,13,14,14,15,15,16,16,17,17,18,18,19,19,20,20,21,21,22,22,23,23,24,24,25,25,26,26,27,27,29,29,30,30,31,31,32,32,34,34,35,35,36,36,37,37,38,38,39,39,40,40,41,41,42,42,43,43,45,45,46,46,47,47,49,49,50,50,52,52,53,53,54,54,55,55,57,57,58,58,59,59,60,60],"right_children":[2,4,6,8,10,12,14,16,18,20,22,24,26,28,30,32,34,36,38,40,42,44,46,48,50,52,54,56,-1,58,60,62,64,-1,66,68,70,72,74,76,78,80,82,84,-1,86,88,90,-1,92,94,-1,96,98,100,102,-1,104,106,108,110,-1,-1,-1,-1,-1,-1,-1,-1,-1,-1,-1,-1,-1,-1,-1,-1,-1,-1,-1,-1,-1,-1,-1,-1,-1,-1,-1,-1,-1,-1,-1,-1,-1,-1,-1,-1,-1,-1,-1,-1,-1,-1,-1,-1,-1,-1,-1,-1,-1,-1],"split_conditions":[-2.7314436E-1,1.0870068E-2,6.938894E-17,-3.2806498E-1,7.81025E-1,6.829348E-1,-4.9843735E-1,4.9742356E-2,9.306685E-3,2.0816682E-17,-8.379059E-1,1.2362451E-2,2E-2,2.1925686E-2,2.5627178E-1,-3.715809E-1,6.1341697E-1,1.4005431E-3,1.6712977E0,4.3615648E-1,3.238827E-1,1.1194009E-1,1.4207107E-2,6.6205096E-1,7.185903E-1,1.2994012E-3,5.528123E-1,3.3682016E-1,-6.1289095E-3,6.295758E-1,4.7900242E-1,-7.0337784E-1,-5.6364473E-2,2.9779826E-3,-2.2144157E-1,-6.877473E-1,4.9839744E-1,4E-2,-7.461809E-1,1.1307187E0,1.8330303E-1,1.1073644E0,4.6E-1,-6.617045E-1,-1.9875625E-2,5.112436E-2,2.4E-1,6.1248965E-3,-1.5713869E-2,4.1735515E-1,5.671425E-1,3.5084248E-2,3E-1,4.8989794E-1,2.1354157E-1,-1.3601512E-1,1.2223092E-2,8.4700614E-2,2.2E-1,5.4568972E-2,2.7245615E-2,1.1913E-2,2.4189893E-2,-5.351516E-3,3.2899823E-2,-1.930423E-2,2.062415E-4,4.4035385E-3,-1.0180419E-2,1.0606966E-2,-1.329228E-2,2.5651308E-2,-4.945441E-3,-4.365872E-5,-2.0455573E-2,-1.7925182E-2,1.4146954E-4,-6.1526885E-3,3.3196248E-2,-1.7045015E-2,1.8136734E-2,1.5502345E-2,-1.8205076E-2,1.291016E-2,-1.54845975E-2,-1.4711364E-2,1.7807065E-2,2.8089033E-2,-1.1843348E-2,-8.0737285E-3,2.6973447E-2,-8.716639E-3,9.354248E-3,3.161868E-2,-1.0233704E-4,-1.6755457E-3,-1.4636985E-2,3.888613E-2,8.433274E-3,1.2593613E-2,-1.7603308E-2,1.2298852E-2,3.8760625E-2,-4.3273843E-3,-1.25265885E-2,2.3290593E-2,-2.808892E-3,-1.0817364E-2,2.6875218E-2,1.2767698E-2,-1.9151658E-2],"split_indices":[0,154,166,7,199,199,67,142,192,166,51,151,89,162,108,0,185,167,185,141,147,134,142,141,141,136,10,71,0,67,134,67,2,0,4,0,186,89,67,185,147,196,115,70,0,139,102,151,0,71,2,0,121,186,147,5,0,67,122,150,139,0,0,0,0,0,0,0,0,0,0,0,0,0,0,0,0,0,0,0,0,0,0,0,0,0,0,0,0,0,0,0,0,0,0,0,0,0,0,0,0,0,0,0,0,0,0,0,0,0,0],"split_type":[0,0,0,0,0,0,0,0,0,0,0,0,0,0,0,0,0,0,0,0,0,0,0,0,0,0,0,0,0,0,0,0,0,0,0,0,0,0,0,0,0,0,0,0,0,0,0,0,0,0,0,0,0,0,0,0,0,0,0,0,0,0,0,0,0,0,0,0,0,0,0,0,0,0,0,0,0,0,0,0,0,0,0,0,0,0,0,0,0,0,0,0,0,0,0,0,0,0,0,0,0,0,0,0,0,0,0,0,0,0,0],"sum_hessian":[1.9518564E3,6.8370337E2,1.2681531E3,4.754618E2,2.0824156E2,3.1986694E2,9.482861E2,1.677993E2,3.0766248E2,1.3792029E2,7.032128E1,7.070972E1,2.4915723E2,1.21057005E1,9.361804E2,1.580474E2,9.751914E0,2.2691083E2,8.0751656E1,1.873987E1,1.1918041E2,1.1503374E1,5.881791E1,3.688674E1,3.382297E1,2.3255008E2,1.6607157E1,9.890141E0,2.2155595E0,6.5154364E2,2.8463675E2,1.411327E2,1.6914684E1,2.230431E0,7.5214825E0,1.1207272E2,1.148381E2,6.9621284E1,1.1130374E1,5.3115797E0,1.3428289E1,8.9642334E1,2.9538078E1,3.5498316E0,7.953542E0,1.9933098E1,3.888481E1,3.4643524E1,2.243217E0,2.7546883E1,6.27609E0,4.0561724E0,2.284939E2,1.1701835E1,4.905322E0,8.531899E0,1.3582417E0,5.983518E2,5.319188E1,2.0756718E2,7.706956E1,4.036419E1,1.0076852E2,1.4256372E1,2.6583114E0,6.1989775E0,1.322505E0,3.309772E1,7.8975E1,9.707677E1,1.7761332E1,6.0760242E1,8.861041E0,1.3355849E0,9.794788E0,3.9856386E0,1.3259408E0,2.217587E0,1.1210703E1,8.7870636E1,1.7716986E0,1.8411255E1,1.1126822E1,1.3311914E0,2.2186403E0,1.368977E1,6.243329E0,3.4909565E1,3.9752479E0,2.6557825E0,3.1987741E1,1.37397995E1,1.3807082E1,4.937481E0,1.3386092E0,1.8026984E2,4.8224068E1,8.1173725E0,3.584462E0,1.3438735E0,3.5614488E0,1.3553191E0,7.17658E0,4.2218906E2,1.761627E2,1.7813189E1,3.5378693E1,2.0446286E2,3.104317E0,1.336931E0,7.573263E1],"tree_param":{"num_deleted":"0","num_feature":"201","num_nodes":"111","size_leaf_vector":"1"}},{"base_weights":[-3.0752847E-2,2.7970731E-2,-3.5094666E-1,-3.0675668E-1,6.8920895E-2,-4.0484273E-1,6.909242E-2,6.1773056E-1,-3.715388E-1,-1.3976527E-2,2.070858E-1,-4.5143634E-1,1.197112E-1,-3.1415787E-1,5.6861305E-1,9.168965E-1,-1.53086465E-2,-4.0902826E-1,7.408629E-1,-2.0892495E-1,6.78061E-2,-4.4140953E-1,2.4678645E-1,2.4514954E-1,-4.7195742E-1,-2.4522576E-1,4.5589307E-1,4.239623E-1,-4.672501E-1,8.50284E-2,3.320773E-2,-3.9090862E-4,3.191949E-2,-4.4287488E-1,6.483537E-1,3.2947352E-3,3.2734398E-2,-2.5722092E-1,5.489973E-1,5.171403E-1,2.4187801E-2,-5.216468E-1,1.7883709E-2,9.195834E-1,2.1115781E-1,-1.629896E-2,7.651593E-1,-5.0278926E-1,-6.310241E-3,-4.719125E-1,2.5394429E-2,-1.5286224E-2,7.1925855E-1,1.8437825E-2,3.967437E-4,7.7564414E-3,-5.6373763E-1,6.7710495E-1,-3.097763E-1,-1.4197367E-2,1.7568724E-2,-2.412049E-4,2.5878053E-2,3.5793476E-3,-1.0413052E-2,-1.6198434E-2,2.378561E-2,-1.8602122E-2,1.9289246E-2,-3.3789978E-4,1.362862E-2,-8.060857E-3,-2.0986116E-2,-1.4119264E-2,3.1190181E-2,1.1039467E-2,1.2246519E-3,3.1522583E-2,-3.666072E-4,-7.991946E-3,-1.650353E-2,-7.44011E-3,3.0477976E-2,1.436076E-4,-1.9203354E-2,4.7575724E-3,2.8528472E-2,5.5843685E-4,-1.851874E-2,2.9499482E-2,5.347627E-4,-1.775985E-2,1.2546333E-2],"categories":[],"categories_nodes":[],"categories_segments":[],"categories_sizes":[],"default_left":[0,0,0,0,0,0,0,0,0,0,0,0,0,0,0,0,0,0,0,0,0,0,0,0,0,0,0,0,0,0,0,0,0,0,0,0,0,0,0,0,0,0,0,0,0,0,0,0,0,0,0,0,0,0,0,0,0,0,0,0,0,0,0,0,0,0,0,0,0,0,0,0,0,0,0,0,0,0,0,0,0,0,0,0,0,0,0,0,0,0,0,0,0],"id":9,"left_children":[1,3,5,7,9,11,13,15,17,19,21,23,25,27,29,31,-1,33,35,37,39,41,43,45,47,49,51,53,55,57,-1,-1,-1,59,61,-1,-1,63,65,67,69,71,-1,73,75,-1,77,79,81,83,-1,-1,85,-1,-1,-1,87,89,91,-1,-1,-1,-1,-1,-1,-1,-1,-1,-1,-1,-1,-1,-1,-1,-1,-1,-1,-1,-1,-1,-1,-1,-1,-1,-1,-1,-1,-1,-1,-1,-1,-1,-1],"loss_changes":[3.6797825E1,2.2695728E1,6.8939285E0,1.1039631E1,1.6893599E1,6.6272507E0,6.9449706E0,4.583435E0,7.36355E0,1.472421E1,1.4348255E1,3.6495285E0,2.9004948E0,2.5308564E0,3.9929814E0,1.3812017E0,0E0,6.171816E0,1.1788883E0,1.0131134E1,1.2741226E1,2.996941E0,1.2314077E1,3.5860395E0,3.4493484E0,3.2576509E0,3.463694E0,3.1058866E-1,1.3764222E0,2.396243E0,0E0,0E0,0E0,5.2725067E0,7.8123736E-1,0E0,0E0,8.747417E0,4.8541703E0,8.631227E0,9.065154E0,1.1836443E0,0E0,4.8209057E0,1.32577E1,0E0,1.1394875E0,2.3767166E0,4.191917E0,8.2135487E-1,0E0,0E0,1.1462774E0,0E0,0E0,0E0,5.050483E-1,8.012736E-1,1.5414901E0,0E0,0E0,0E0,0E0,0E0,0E0,0E0,0E0,0E0,0E0,0E0,0E0,0E0,0E0,0E0,0E0,0E0,0E0,0E0,0E0,0E0,0E0,0E0,0E0,0E0,0E0,0E0,0E0,0E0,0E0,0E0,0E0,0E0,0E0],"parents":[2147483647,0,0,1,1,2,2,3,3,4,4,5,5,6,6,7,7,8,8,9,9,10,10,11,11,12,12,13,13,14,14,15,15,17,17,18,18,19,19,20,20,21,21,22,22,23,23,24,24,25,25,26,26,27,27,28,28,29,29,33,33,34,34,37,37,38,38,39,39,40,40,41,41,43,43,44,44,46,46,47,47,48,48,49,49,52,52,56,56,57,57,58,58],"right_children":[2,4,6,8,10,12,14,16,18,20,22,24,26,28,30,32,-1,34,36,38,40,42,44,46,48,50,52,54,56,58,-1,-1,-1,60,62,-1,-1,64,66,68,70,72,-1,74,76,-1,78,80,82,84,-1,-1,86,-1,-1,-1,88,90,92,-1,-1,-1,-1,-1,-1,-1,-1,-1,-1,-1,-1,-1,-1,-1,-1,-1,-1,-1,-1,-1,-1,-1,-1,-1,-1,-1,-1,-1,-1,-1,-1,-1,-1],"split_conditions":[6.172289E-1,-6.2777156E-1,6.8900967E-1,7.8231574E-4,1E-1,0E0,-4.8942262E-1,-5.37577E-1,-4.5722434E-1,1.0770582E-2,3.330669E-16,3.876E1,4.9638695E-1,-2.3559381E-1,4.935585E-1,-2.6209465E-1,-1.53086465E-2,1.2085869E-2,2.4919872E-1,2.046191E-2,-1.0988405E0,5.9159763E-2,-5.166244E-1,2.0859617E-1,5.782291E-1,7E-2,2.9316695E-2,2.2E-1,3.7175864E-2,5.333415E-1,3.320773E-2,-3.9090862E-4,3.191949E-2,1.3496143E0,-7.4387383E-1,3.2947352E-3,3.2734398E-2,-3E-1,6.749815E-1,-5.004108E-1,1.0148326E0,6.759172E-3,1.7883709E-2,-1.9113813E-1,4.7370878E-1,-1.629896E-2,1.4086859E-1,6.749815E-1,7E-2,-1.6529839E-1,2.5394429E-2,-1.5286224E-2,8E-2,1.8437825E-2,3.967437E-4,7.7564414E-3,1.3877788E-17,6.3704646E-1,7.743384E-1,-1.4197367E-2,1.7568724E-2,-2.412049E-4,2.5878053E-2,3.5793476E-3,-1.0413052E-2,-1.6198434E-2,2.378561E-2,-1.8602122E-2,1.9289246E-2,-3.3789978E-4,1.362862E-2,-8.060857E-3,-2.0986116E-2,-1.4119264E-2,3.1190181E-2,1.1039467E-2,1.2246519E-3,3.1522583E-2,-3.666072E-4,-7.991946E-3,-1.650353E-2,-7.44011E-3,3.0477976E-2,1.436076E-4,-1.9203354E-2,4.7575724E-3,2.8528472E-2,5.5843685E-4,-1.851874E-2,2.9499482E-2,5.347627E-4,-1.775985E-2,1.2546333E-2],"split_indices":[51,0,135,145,132,119,70,67,67,195,173,96,181,72,187,70,0,162,147,162,51,142,31,0,40,132,161,114,139,141,0,0,0,10,67,0,0,80,199,41,70,7,0,10,182,0,68,199,132,74,0,0,104,0,0,0,176,10,199,0,0,0,0,0,0,0,0,0,0,0,0,0,0,0,0,0,0,0,0,0,0,0,0,0,0,0,0,0,0,0,0,0,0],"split_type":[0,0,0,0,0,0,0,0,0,0,0,0,0,0,0,0,0,0,0,0,0,0,0,0,0,0,0,0,0,0,0,0,0,0,0,0,0,0,0,0,0,0,0,0,0,0,0,0,0,0,0,0,0,0,0,0,0,0,0,0,0,0,0,0,0,0,0,0,0,0,0,0,0,0,0,0,0,0,0,0,0,0,0,0,0,0,0,0,0,0,0,0,0],"sum_hessian":[1.9555043E3,1.6532168E3,3.0228748E2,1.7949886E2,1.4737179E3,2.6794333E2,3.434416E1,1.1195502E1,1.6830336E2,9.2164185E2,5.520761E2,2.462128E2,2.173052E1,1.9643805E1,1.4700356E1,8.9966345E0,2.1988683E0,1.6342792E2,4.875444E0,2.7191437E2,6.497275E2,3.1264439E1,5.2081165E2,6.7324967E0,2.394803E2,1.0549372E1,1.1181149E1,3.0704732E0,1.657333E1,8.353793E0,6.346563E0,1.3531308E0,7.643503E0,1.5892201E2,4.5059066E0,2.2091591E0,2.6662846E0,2.5624658E2,1.5667801E1,5.652976E1,5.931977E2,2.9481707E1,1.7827328E0,2.4945244E1,4.9586642E2,2.6578422E0,4.074654E0,2.2453352E2,1.4946784E1,9.205608E0,1.3437632E0,2.1960897E0,8.985059E0,1.7581571E0,1.312316E0,1.7476404E0,1.482569E1,3.0559063E0,5.297887E0,1.5488815E2,4.033851E0,1.345662E0,3.1602445E0,4.931723E1,2.0692934E2,2.6445057E0,1.3023295E1,5.240635E0,5.1289124E1,5.489261E2,4.4271645E1,1.32092495E1,1.6272457E1,1.7513593E0,2.3193884E1,2.575687E2,2.3829774E2,2.7227218E0,1.3519325E0,3.8561108E1,1.8597241E2,1.27011795E1,2.245604E0,2.6543534E0,6.5512547E0,3.1198177E0,5.8652415E0,1.3035088E0,1.35221815E1,1.7510886E0,1.3048176E0,3.9524481E0,1.3454385E0],"tree_param":{"num_deleted":"0","num_feature":"201","num_nodes":"93","size_leaf_vector":"1"}},{"base_weights":[8.686733E-2,2.835376E-3,5.56807E-1,-7.18506E-2,1.368757E-1,2.576366E-1,6.9592226E-1,-1.07092865E-1,2.1871649E-1,8.1345834E-2,5.593407E-1,9.5274135E-2,9.103645E-1,7.615831E-1,-3.1747263E-2,-1.614544E-1,1.2124749E-1,5.327704E-1,-5.0029236E-1,-3.9575398E-1,1.23123884E-1,8.185888E-1,-4.3318358E-1,2.81339E-1,-4.552061E-1,1.0690986E0,-2.2642193E-2,7.963108E-1,-4.4040915E-1,-3.391881E-1,2.6781147E-2,-2.0196408E-1,3.2664043E-1,4.2448986E-1,-2.6861286E-1,1.033058E-1,9.459241E-1,-6.288723E-1,5.0977635E-1,-5.7517105E-1,3.346318E-1,2.0960094E-1,-9.921323E-2,9.0041316E-1,-1.6597273E-2,-6.185006E-1,1.7592128E-2,3.431662E-2,2.0386381E-1,1.2059889E-2,-5.865745E-1,3.8476687E-2,2.6207992E-1,1.2058283E-2,-1.317757E-2,8.2522833E-1,-2.6365706E-1,-1.7246988E-2,3.3630157E-4,-5.152565E-1,1.1933693E-2,-9.672873E-3,-2.4088428E-3,2.4510734E-2,-2.3760206E-4,1.9473065E-2,-3.0024357E-3,-1.3598884E-3,-1.730162E-2,-5.77442E-3,3.2220215E-2,-1.6501172E-2,3.1957302E-2,-2.0652274E-2,7.459924E-3,3.0519194E-3,2.5651421E-2,-1.8806487E-2,7.1516726E-3,2.6811615E-2,-1.6784891E-2,7.6522627E-3,-1.1043713E-2,-8.3083995E-3,2.2829195E-2,-1.5859248E-2,2.9278306E-2,-2.064131E-2,-2.381976E-4,-1.6444808E-2,1.0079407E-2,-2.0608302E-2,-5.7281293E-3,-1.4675521E-2,2.7402254E-2,2.5377817E-2,-1.5817933E-2,-1.7363723E-2,1.2059483E-2,-2.0108484E-2,6.1644004E-3],"categories":[],"categories_nodes":[],"categories_segments":[],"categories_sizes":[],"default_left":[0,0,0,0,0,0,0,0,0,0,0,0,0,0,0,0,0,0,0,0,0,0,0,0,0,0,0,0,0,0,0,0,0,0,0,0,0,0,0,0,0,0,0,0,0,0,0,0,0,0,0,0,0,0,0,0,0,0,0,0,0,0,0,0,0,0,0,0,0,0,0,0,0,0,0,0,0,0,0,0,0,0,0,0,0,0,0,0,0,0,0,0,0,0,0,0,0,0,0,0,0],"id":10,"left_children":[1,3,5,7,9,11,13,15,17,19,21,23,25,27,29,31,33,35,37,39,41,43,45,47,49,51,53,55,57,59,-1,61,63,65,67,69,71,73,75,77,79,81,83,85,-1,87,-1,-1,89,-1,91,-1,93,-1,-1,95,97,-1,-1,99,-1,-1,-1,-1,-1,-1,-1,-1,-1,-1,-1,-1,-1,-1,-1,-1,-1,-1,-1,-1,-1,-1,-1,-1,-1,-1,-1,-1,-1,-1,-1,-1,-1,-1,-1,-1,-1,-1,-1,-1,-1],"loss_changes":[7.6799484E1,1.6536085E1,1.2098579E1,1.0886099E1,1.3819889E1,1.0005053E1,9.617355E0,1.1771034E1,2.6250635E1,1.048418E1,1.7978298E1,8.053033E0,2.8161125E0,8.039787E0,5.298661E0,1.5193853E1,2.170338E1,1.4198919E1,4.9308586E0,5.7475557E0,9.291193E0,6.632908E0,3.166472E0,3.672482E0,2.4798675E0,2.4427166E0,8.3460367E-1,5.7160645E0,3.5972345E-1,2.010634E0,0E0,1.03377E1,9.688691E0,1.2213545E1,5.5125647E0,1.1872353E1,7.894367E0,1.8397589E0,5.55575E-1,1.5966425E0,4.995059E0,9.222215E0,2.0956478E1,6.12405E0,0E0,5.483637E-1,0E0,0E0,5.633315E0,0E0,5.71157E-1,0E0,2.7129037E0,0E0,0E0,5.3414E0,1.3909543E0,0E0,0E0,1.4414155E0,0E0,0E0,0E0,0E0,0E0,0E0,0E0,0E0,0E0,0E0,0E0,0E0,0E0,0E0,0E0,0E0,0E0,0E0,0E0,0E0,0E0,0E0,0E0,0E0,0E0,0E0,0E0,0E0,0E0,0E0,0E0,0E0,0E0,0E0,0E0,0E0,0E0,0E0,0E0,0E0,0E0],"parents":[2147483647,0,0,1,1,2,2,3,3,4,4,5,5,6,6,7,7,8,8,9,9,10,10,11,11,12,12,13,13,14,14,15,15,16,16,17,17,18,18,19,19,20,20,21,21,22,22,23,23,24,24,25,25,26,26,27,27,28,28,29,29,31,31,32,32,33,33,34,34,35,35,36,36,37,37,38,38,39,39,40,40,41,41,42,42,43,43,45,45,48,48,50,50,52,52,55,55,56,56,59,59],"right_children":[2,4,6,8,10,12,14,16,18,20,22,24,26,28,30,32,34,36,38,40,42,44,46,48,50,52,54,56,58,60,-1,62,64,66,68,70,72,74,76,78,80,82,84,86,-1,88,-1,-1,90,-1,92,-1,94,-1,-1,96,98,-1,-1,100,-1,-1,-1,-1,-1,-1,-1,-1,-1,-1,-1,-1,-1,-1,-1,-1,-1,-1,-1,-1,-1,-1,-1,-1,-1,-1,-1,-1,-1,-1,-1,-1,-1,-1,-1,-1,-1,-1,-1,-1,-1],"split_conditions":[6.910625E-1,7.397897E-3,-2.2918023E-1,3.6E-1,9.00995E3,8.280148E-1,6.712488E-1,6.750592E-1,7.81025E-1,-1.0349483E0,5.9403497E-1,6.8E-1,1.0797795E1,2.6879774E-2,7.777532E-1,4E-2,1E0,1.8331653E-2,5.6497335E-1,4.5062177E-2,2.5108078E-1,1.114234E0,-3.4808153E-1,6.638465E-3,5.130983E-3,9.9395996E-1,2.1707262E-1,4E-1,7.9622567E-1,1E0,2.6781147E-2,4.7370878E-1,1.4780976E-1,4.489989E-1,2.4677925E-1,1.7505926E-1,1.5077139E-3,7E-1,5.4519258E0,6.3988864E-1,-1.1711067E0,6.1619395E-1,1E0,1.5313534E-2,-1.6597273E-2,9.725758E0,1.7592128E-2,3.431662E-2,9.57907E-3,1.2059889E-2,3.2566983E-1,3.8476687E-2,1.7969368E0,1.2058283E-2,-1.317757E-2,1E0,5.9286547E-1,-1.7246988E-2,3.3630157E-4,9.883612E-1,1.1933693E-2,-9.672873E-3,-2.4088428E-3,2.4510734E-2,-2.3760206E-4,1.9473065E-2,-3.0024357E-3,-1.3598884E-3,-1.730162E-2,-5.77442E-3,3.2220215E-2,-1.6501172E-2,3.1957302E-2,-2.0652274E-2,7.459924E-3,3.0519194E-3,2.5651421E-2,-1.8806487E-2,7.1516726E-3,2.6811615E-2,-1.6784891E-2,7.6522627E-3,-1.1043713E-2,-8.3083995E-3,2.2829195E-2,-1.5859248E-2,2.9278306E-2,-2.064131E-2,-2.381976E-4,-1.6444808E-2,1.0079407E-2,-2.0608302E-2,-5.7281293E-3,-1.4675521E-2,2.7402254E-2,2.5377817E-2,-1.5817933E-2,-1.7363723E-2,1.2059483E-2,-2.0108484E-2,6.1644004E-3],"split_indices":[51,136,95,121,163,10,141,10,199,1,56,76,149,175,199,92,47,142,74,142,51,7,10,195,154,185,0,147,71,37,0,181,1,189,147,1,136,103,149,137,1,87,35,190,0,149,0,0,192,0,5,0,15,0,0,48,141,0,0,4,0,0,0,0,0,0,0,0,0,0,0,0,0,0,0,0,0,0,0,0,0,0,0,0,0,0,0,0,0,0,0,0,0,0,0,0,0,0,0,0,0],"split_type":[0,0,0,0,0,0,0,0,0,0,0,0,0,0,0,0,0,0,0,0,0,0,0,0,0,0,0,0,0,0,0,0,0,0,0,0,0,0,0,0,0,0,0,0,0,0,0,0,0,0,0,0,0,0,0,0,0,0,0,0,0,0,0,0,0,0,0,0,0,0,0,0,0,0,0,0,0,0,0,0,0,0,0,0,0,0,0,0,0,0,0,0,0,0,0,0,0,0,0,0,0],"sum_hessian":[1.9438256E3,1.6498201E3,2.9400546E2,1.0597831E3,5.900369E2,9.422483E1,1.9978062E2,9.4571124E2,1.1407188E2,5.2254486E2,6.749207E1,7.6373344E1,1.7851488E1,1.832028E2,1.6577812E1,7.640944E2,1.8161682E2,7.957399E1,3.4497887E1,4.139111E1,4.8115378E2,5.365309E1,1.3838983E1,5.7445442E1,1.8927902E1,1.5131309E1,2.7201803E0,1.7838641E2,4.8163934E0,1.2915617E1,3.662195E0,7.060792E2,5.8015205E1,1.02106895E2,7.9509926E1,3.9629745E1,3.9944244E1,3.093705E1,3.5608342E0,3.3399208E1,7.9919033E0,3.464578E2,1.3469597E2,5.095733E1,2.6957636E0,1.2043396E1,1.7955868E0,3.600104E0,5.3845337E1,2.2415187E0,1.6686384E1,1.1500227E1,3.6310813E0,1.3646324E0,1.355548E0,1.7386458E2,4.521834E0,3.5008729E0,1.3155205E0,1.0667855E1,2.2477617E0,3.5396643E2,3.521128E2,2.2943521E1,3.5071686E1,7.132806E1,3.077884E1,4.6766064E1,3.274386E1,3.0988745E1,8.641001E0,2.6839914E0,3.7260254E1,2.9173294E1,1.7637568E0,2.2254312E0,1.3354031E0,3.1618889E1,1.7803167E0,4.9174995E0,3.0744038E0,3.216947E2,2.4763086E1,1.12192566E2,2.250341E1,2.2569125E0,4.8700417E1,1.0697986E1,1.3454102E0,7.575503E0,4.6269833E1,1.2722516E1,3.9638674E0,1.8017858E0,1.8292955E0,1.716127E2,2.251871E0,3.1574686E0,1.3643651E0,8.837058E0,1.8307971E0],"tree_param":{"num_deleted":"0","num_feature":"201","num_nodes":"101","size_leaf_vector":"1"}},{"base_weights":[-5.867593E-2,1.2160675E-1,-2.1920328E-1,1.9310781E-1,-1.8133025E-1,-9.388152E-4,-3.1721544E-1,3.4129772E-1,4.300673E-2,-2.9253206E-1,3.116188E-1,-2.2580136E-1,1.967911E-1,-3.5756078E-1,1.5824741E-1,6.057412E-1,2.1434973E-1,-3.9050918E-2,4.6194354E-1,-3.7887567E-1,4.1015533E-1,9.218571E-1,-1.4452642E-1,-2.6229692E-1,3.3615455E-2,3.7577575E-1,-1.387206E-1,-3.0410483E-1,-6.2543625E-1,-4.9209452E-1,4.7140002E-1,7.0149803E-1,-2.3381768E-1,2.7562018E-2,4.2789432E-1,-3.7397262E-1,4.7959734E-2,-3.355894E-2,7.528795E-1,-4.1720748E-1,2.5846144E-2,9.193714E-1,-1.0241382E-1,1.1723886E0,-1.4889336E-2,-3.4440196E-1,2.4355263E-2,2.457118E-2,-4.4467992E-1,1.8444863E-1,7.1386594E-1,-3.1217137E-1,4.7522897E-1,2.4586987E-1,-3.3531508E-1,-6.51211E-1,1.2209587E-2,1.8341247E-2,-6.4317787E-1,1.3946155E-1,9.89066E-1,-1.0068915E-2,2.2076132E-2,-1.2114411E-2,1.21661145E-2,-1.3346595E-3,2.4941515E-2,1.881983E-2,5.1097753E-3,-1.2421221E-2,2.5804881E-2,2.2161426E-2,-4.3969968E-4,-8.77549E-3,2.836934E-2,2.7401095E-2,-5.5920493E-5,-1.7588064E-2,-8.271273E-3,2.9781873E-3,3.628196E-2,1.6698359E-2,-1.4036447E-2,3.9540663E-2,-2.1260798E-4,2.8631726E-2,-1.6837938E-2,-2.7437669E-3,3.160221E-2,5.9987684E-3,-1.5089022E-2,-3.5484955E-3,1.5807793E-2,2.5332399E-2,-7.6741674E-3,-1.3552637E-2,2.4810309E-2,2.3473646E-2,-1.6662579E-2,-9.704302E-3,2.0639878E-2,-1.0744417E-2,2.6870666E-3,-2.0335753E-2,5.3123785E-3,5.8677262E-5,-2.0950422E-2,-1.9299269E-2,1.3188817E-2,-1.2852435E-2,3.4836292E-2],"categories":[],"categories_nodes":[],"categories_segments":[],"categories_sizes":[],"default_left":[0,0,0,0,0,0,0,0,0,0,0,0,0,0,0,0,0,0,0,0,0,0,0,0,0,0,0,0,0,0,0,0,0,0,0,0,0,0,0,0,0,0,0,0,0,0,0,0,0,0,0,0,0,0,0,0,0,0,0,0,0,0,0,0,0,0,0,0,0,0,0,0,0,0,0,0,0,0,0,0,0,0,0,0,0,0,0,0,0,0,0,0,0,0,0,0,0,0,0,0,0,0,0,0,0,0,0,0,0,0,0],"id":11,"left_children":[1,3,5,7,9,11,13,15,17,19,21,23,25,27,29,31,33,35,37,39,41,43,45,47,-1,49,51,53,55,57,59,61,63,65,67,69,71,73,75,77,-1,79,81,83,-1,85,-1,87,89,91,93,95,97,99,101,103,-1,-1,105,107,109,-1,-1,-1,-1,-1,-1,-1,-1,-1,-1,-1,-1,-1,-1,-1,-1,-1,-1,-1,-1,-1,-1,-1,-1,-1,-1,-1,-1,-1,-1,-1,-1,-1,-1,-1,-1,-1,-1,-1,-1,-1,-1,-1,-1,-1,-1,-1,-1,-1,-1],"loss_changes":[5.6039925E1,1.9795412E1,2.1909775E1,1.6413536E1,9.668856E0,1.4200855E1,1.3614876E1,1.2341747E1,1.2670826E1,8.836295E0,9.2199335E0,7.636625E0,1.0258004E1,9.143562E0,1.1632103E1,9.807205E0,1.0061958E1,9.013928E0,8.727067E0,6.442669E0,4.306095E0,5.5911846E0,4.015722E0,7.665704E0,0E0,7.0548134E0,6.522196E0,9.44297E0,3.12537E0,3.5079536E0,6.442322E0,4.094223E0,1.5800027E0,7.9011445E0,5.9426365E0,3.5096846E0,1.0647693E1,6.1817603E0,4.6136265E0,2.8233166E0,0E0,1.8291974E0,2.4141037E0,2.1186352E0,0E0,5.2868385E0,0E0,6.99778E0,3.4632835E0,7.557971E0,5.2544155E0,7.890461E0,4.734982E0,7.739454E0,5.042362E0,2.443203E0,0E0,0E0,6.035867E-1,6.038662E0,4.108199E0,0E0,0E0,0E0,0E0,0E0,0E0,0E0,0E0,0E0,0E0,0E0,0E0,0E0,0E0,0E0,0E0,0E0,0E0,0E0,0E0,0E0,0E0,0E0,0E0,0E0,0E0,0E0,0E0,0E0,0E0,0E0,0E0,0E0,0E0,0E0,0E0,0E0,0E0,0E0,0E0,0E0,0E0,0E0,0E0,0E0,0E0,0E0,0E0,0E0,0E0],"parents":[2147483647,0,0,1,1,2,2,3,3,4,4,5,5,6,6,7,7,8,8,9,9,10,10,11,11,12,12,13,13,14,14,15,15,16,16,17,17,18,18,19,19,20,20,21,21,22,22,23,23,25,25,26,26,27,27,28,28,29,29,30,30,31,31,32,32,33,33,34,34,35,35,36,36,37,37,38,38,39,39,41,41,42,42,43,43,45,45,47,47,48,48,49,49,50,50,51,51,52,52,53,53,54,54,55,55,58,58,59,59,60,60],"right_children":[2,4,6,8,10,12,14,16,18,20,22,24,26,28,30,32,34,36,38,40,42,44,46,48,-1,50,52,54,56,58,60,62,64,66,68,70,72,74,76,78,-1,80,82,84,-1,86,-1,88,90,92,94,96,98,100,102,104,-1,-1,106,108,110,-1,-1,-1,-1,-1,-1,-1,-1,-1,-1,-1,-1,-1,-1,-1,-1,-1,-1,-1,-1,-1,-1,-1,-1,-1,-1,-1,-1,-1,-1,-1,-1,-1,-1,-1,-1,-1,-1,-1,-1,-1,-1,-1,-1,-1,-1,-1,-1,-1,-1],"split_conditions":[-1.2849216E-1,7.397897E-3,1.110223E-16,-1.1943148E-1,7.851114E-1,-3.393565E-1,8.5738313E-1,-5.5885357E-1,5E-2,1.0070207E0,2.5668398E-1,6.34226E-1,7.8409183E-1,4.9548632E-1,7.096478E-1,1E-1,2.3919E3,-2.0847066E-1,3.0265492E-1,3.2496154E-1,1.8982105E-2,3.875089E-2,3.6823905E-1,2.4082842E-3,3.3615455E-2,5.3774875E-1,2.4305746E-1,-2.4446274E-1,8.409767E-1,1.4566744E-2,1.68E-1,-1.2345265E0,5.170066E-1,-1.5670896E-1,7.735632E-1,3.5983863E-1,-5.8600193E-1,2.99581E-2,1.9280557E-2,-2.4446274E-1,2.5846144E-2,1.1523743E-2,-2.0860466E-1,6.6E-1,-1.4889336E-2,7.8714675E-1,2.4355263E-2,1.723464E-2,9.184274E-3,3.943121E-1,9.0095514E-1,4.9959984E-1,-2.2090487E-1,4.5574847E-1,1.1376773E0,7.0212704E-1,1.2209587E-2,1.8341247E-2,5.077828E-1,3.345005E-1,7.1220644E-2,-1.0068915E-2,2.2076132E-2,-1.2114411E-2,1.21661145E-2,-1.3346595E-3,2.4941515E-2,1.881983E-2,5.1097753E-3,-1.2421221E-2,2.5804881E-2,2.2161426E-2,-4.3969968E-4,-8.77549E-3,2.836934E-2,2.7401095E-2,-5.5920493E-5,-1.7588064E-2,-8.271273E-3,2.9781873E-3,3.628196E-2,1.6698359E-2,-1.4036447E-2,3.9540663E-2,-2.1260798E-4,2.8631726E-2,-1.6837938E-2,-2.7437669E-3,3.160221E-2,5.9987684E-3,-1.5089022E-2,-3.5484955E-3,1.5807793E-2,2.5332399E-2,-7.6741674E-3,-1.3552637E-2,2.4810309E-2,2.3473646E-2,-1.6662579E-2,-9.704302E-3,2.0639878E-2,-1.0744417E-2,2.6870666E-3,-2.0335753E-2,5.3123785E-3,5.8677262E-5,-2.0950422E-2,-1.9299269E-2,1.3188817E-2,-1.2852435E-2,3.4836292E-2],"split_indices":[67,136,166,7,199,51,8,67,200,1,144,28,196,134,199,105,163,73,147,146,192,176,158,43,0,8,84,0,68,190,129,118,138,7,196,0,10,142,165,0,0,154,74,114,0,199,0,84,190,138,73,189,3,74,77,144,0,0,138,70,70,0,0,0,0,0,0,0,0,0,0,0,0,0,0,0,0,0,0,0,0,0,0,0,0,0,0,0,0,0,0,0,0,0,0,0,0,0,0,0,0,0,0,0,0,0,0,0,0,0,0],"split_type":[0,0,0,0,0,0,0,0,0,0,0,0,0,0,0,0,0,0,0,0,0,0,0,0,0,0,0,0,0,0,0,0,0,0,0,0,0,0,0,0,0,0,0,0,0,0,0,0,0,0,0,0,0,0,0,0,0,0,0,0,0,0,0,0,0,0,0,0,0,0,0,0,0,0,0,0,0,0,0,0,0,0,0,0,0,0,0,0,0,0,0,0,0,0,0,0,0,0,0,0,0,0,0,0,0,0,0,0,0,0,0],"sum_hessian":[1.9344762E3,9.112855E2,1.0231907E3,7.375637E2,1.7372182E2,3.1739328E2,7.0579736E2,3.7050375E2,3.6706E2,1.4207779E2,3.1644022E1,1.4844106E2,1.6895222E2,6.5082007E2,5.4977306E1,1.1894972E2,2.5155403E2,3.0769766E2,5.936232E1,1.2694062E2,1.5137175E1,1.3099E1,1.8545021E1,1.4530728E2,3.1337705E0,1.1009831E2,5.8853905E1,5.443312E2,1.06488914E2,1.7682867E1,3.7294437E1,1.0691936E2,1.2030363E1,1.347858E2,1.1676823E2,6.277312E1,2.4492455E2,2.2287836E1,3.7074482E1,1.237792E2,3.1614223E0,7.195295E0,7.9418793E0,1.127966E1,1.8193395E0,1.58684845E1,2.6765368E0,5.6812637E1,8.849465E1,7.1296684E1,3.880163E1,4.627266E1,1.2581244E1,2.886181E1,5.1546936E2,1.0425538E2,2.2335334E0,1.7626164E0,1.592025E1,2.349704E1,1.37973995E1,3.148744E0,1.03770615E2,9.794531E0,2.2358325E0,1.2456505E2,1.0220751E1,6.500205E1,5.1766174E1,6.14428E1,1.3303236E0,1.9459463E1,2.2546507E2,1.818101E1,4.106827E0,3.039999E1,6.674494E0,5.496458E1,6.881462E1,2.2304964E0,4.9647985E0,2.6465335E0,5.2953453E0,9.935435E0,1.3442249E0,1.7838845E0,1.40846E1,5.1873547E1,4.9390917E0,7.13654E0,8.135811E1,3.819182E1,3.3104866E1,3.431144E1,4.49019E0,4.1759354E1,4.513308E0,9.877634E0,2.703611E0,1.2733125E1,1.6128685E1,4.8933102E2,2.6138308E1,1.0118182E2,3.073558E0,1.3301749E0,1.4590075E1,6.1959896E0,1.730105E1,1.3329347E0,1.2464464E1],"tree_param":{"num_deleted":"0","num_feature":"201","num_nodes":"111","size_leaf_vector":"1"}},{"base_weights":[-4.2527426E-2,1.390184E-2,-3.3993936E-1,-1.856565E-1,7.5347185E-2,-3.847958E-1,1.6758153E-1,5.2331054E-1,-2.2556923E-1,4.7105637E-1,4.5148235E-2,-4.4666725E-1,1.4113374E-2,3.5028103E-1,-4.6143246E-1,-3.1474277E-2,1.017336E0,-2.4462622E-1,8.0421484E-1,-9.858223E-2,7.1196556E-1,3.2979524E-1,1.2513197E-2,8.51887E-3,-4.7801468E-1,7.728083E-1,-2.686094E-1,-1.4449994E-1,1.0427657E0,-1.7605564E-2,3.8180882E-5,-2.4281186E-1,2.4655165E-2,-4.2288998E-4,1.1629882E0,-4.8709437E-2,-3.416066E-1,3.3897337E-2,2.7644762E-3,4.2313632E-1,-6.143886E-1,1.156463E0,5.2016234E-1,7.444266E-1,1.8192373E-1,-1.1607994E-2,4.7596782E-1,7.1094686E-1,-3.4233466E-1,-5.074447E-1,-8.091454E-3,1.0649244E0,-1.4244378E-2,-4.141893E-1,3.140676E-2,1.761279E-2,-3.1555235E-1,3.704259E-2,-1.8481219E-4,4.0503046E-3,-1.8052207E-2,1.219158E-2,3.7129913E-2,-4.080563E-3,2.8897123E-2,-1.1150922E-2,5.38042E-3,-5.8832457E-3,2.6264524E-2,1.7060363E-4,-2.0375175E-2,3.0706583E-3,3.8953416E-2,8.952228E-3,2.87065E-2,-1.7405672E-2,2.8049681E-2,1.5348655E-3,2.4916608E-2,-4.296627E-3,1.8944457E-3,-2.1430112E-3,2.295256E-2,-1.2666517E-2,3.3744067E-2,3.8735312E-3,-1.910644E-2,-1.5559001E-2,8.92743E-3,2.0656656E-2,-1.1273533E-2,7.83426E-3,3.656528E-2,-1.5364232E-2,2.4962123E-2,1.2451331E-2,-1.6342593E-2],"categories":[],"categories_nodes":[],"categories_segments":[],"categories_sizes":[],"default_left":[0,0,0,0,0,0,0,0,0,0,0,0,0,0,0,0,0,0,0,0,0,0,0,0,0,0,0,0,0,0,0,0,0,0,0,0,0,0,0,0,0,0,0,0,0,0,0,0,0,0,0,0,0,0,0,0,0,0,0,0,0,0,0,0,0,0,0,0,0,0,0,0,0,0,0,0,0,0,0,0,0,0,0,0,0,0,0,0,0,0,0,0,0,0,0,0,0],"id":12,"left_children":[1,3,5,7,9,11,13,15,17,19,21,23,25,27,29,31,33,35,37,39,41,43,45,47,49,51,53,55,57,-1,-1,59,-1,-1,61,63,65,-1,-1,67,69,71,73,75,77,79,81,83,85,87,89,91,-1,93,-1,-1,95,-1,-1,-1,-1,-1,-1,-1,-1,-1,-1,-1,-1,-1,-1,-1,-1,-1,-1,-1,-1,-1,-1,-1,-1,-1,-1,-1,-1,-1,-1,-1,-1,-1,-1,-1,-1,-1,-1,-1,-1],"loss_changes":[3.261647E1,2.0052967E1,7.1202087E0,1.1012921E1,1.4918888E1,7.041996E0,3.134026E0,5.7387414E0,7.3636227E0,1.2220739E1,1.0796558E1,3.5258942E0,8.625961E0,7.2128096E0,3.6363173E-1,2.1431618E0,1.67552E0,6.8106785E0,1.4888625E0,7.578104E0,4.713869E0,7.1945477E0,1.1677928E1,4.4046764E0,3.189659E0,4.482703E0,6.0513725E0,1.7996043E0,1.7619133E0,0E0,0E0,1.3573642E0,0E0,0E0,4.4472694E-2,1.0745977E1,3.8318233E0,0E0,0E0,4.124606E0,5.695677E-1,2.5574932E0,4.10837E0,8.393948E0,7.544051E0,9.783484E0,8.233487E0,3.2650223E0,1.7396517E0,2.1116486E0,4.0053663E0,8.1378937E-1,0E0,3.7377043E0,0E0,0E0,2.0858407E0,0E0,0E0,0E0,0E0,0E0,0E0,0E0,0E0,0E0,0E0,0E0,0E0,0E0,0E0,0E0,0E0,0E0,0E0,0E0,0E0,0E0,0E0,0E0,0E0,0E0,0E0,0E0,0E0,0E0,0E0,0E0,0E0,0E0,0E0,0E0,0E0,0E0,0E0,0E0,0E0],"parents":[2147483647,0,0,1,1,2,2,3,3,4,4,5,5,6,6,7,7,8,8,9,9,10,10,11,11,12,12,13,13,14,14,15,15,16,16,17,17,18,18,19,19,20,20,21,21,22,22,23,23,24,24,25,25,26,26,27,27,28,28,31,31,34,34,35,35,36,36,39,39,40,40,41,41,42,42,43,43,44,44,45,45,46,46,47,47,48,48,49,49,50,50,51,51,53,53,56,56],"right_children":[2,4,6,8,10,12,14,16,18,20,22,24,26,28,30,32,34,36,38,40,42,44,46,48,50,52,54,56,58,-1,-1,60,-1,-1,62,64,66,-1,-1,68,70,72,74,76,78,80,82,84,86,88,90,92,-1,94,-1,-1,96,-1,-1,-1,-1,-1,-1,-1,-1,-1,-1,-1,-1,-1,-1,-1,-1,-1,-1,-1,-1,-1,-1,-1,-1,-1,-1,-1,-1,-1,-1,-1,-1,-1,-1,-1,-1,-1,-1,-1,-1],"split_conditions":[6.124542E-1,8.360893E-3,0E0,-5.6224185E-1,-1.0988405E0,6.8479943E-1,2.531856E-2,-3.464715E-1,6.0183865E-1,1.1053257E-2,-4.3896702E-1,3.9522E2,1.618485E-1,1.2E-1,1.0070207E0,2.4259044E-1,2.7151117E-1,4.579788E-3,7.6045413E-3,-4.4403574E-1,-1.6658494E0,-1.1471807E-2,1.2155318E0,1.0656855E-1,9.260992E-2,4.935585E-1,3.5040715E-1,3.8418746E-1,2.1225376E0,-1.7605564E-2,3.8180882E-5,6.614199E-3,2.4655165E-2,-4.2288998E-4,-5.534818E-1,1.2534802E-1,3.5614032E-2,3.3897337E-2,2.7644762E-3,6.434953E-1,7.8274E2,6.977822E-1,4.2198795E-1,-4.4646266E-1,4.8989794E-1,-2.2204687E-1,1.0377704E-2,7.1220644E-2,6.749815E-1,1.5922842E0,2.6457512E-1,6.483478E-1,-1.4244378E-2,5.763346E-1,3.140676E-2,1.761279E-2,2.796077E-2,3.704259E-2,-1.8481219E-4,4.0503046E-3,-1.8052207E-2,1.219158E-2,3.7129913E-2,-4.080563E-3,2.8897123E-2,-1.1150922E-2,5.38042E-3,-5.8832457E-3,2.6264524E-2,1.7060363E-4,-2.0375175E-2,3.0706583E-3,3.8953416E-2,8.952228E-3,2.87065E-2,-1.7405672E-2,2.8049681E-2,1.5348655E-3,2.4916608E-2,-4.296627E-3,1.8944457E-3,-2.1430112E-3,2.295256E-2,-1.2666517E-2,3.3744067E-2,3.8735312E-3,-1.910644E-2,-1.5559001E-2,8.92743E-3,2.0656656E-2,-1.1273533E-2,7.83426E-3,3.656528E-2,-1.5364232E-2,2.4962123E-2,1.2451331E-2,-1.6342593E-2],"split_indices":[51,191,119,70,51,135,191,118,72,168,77,163,71,104,1,67,10,151,191,10,15,4,7,77,140,146,68,181,82,0,0,192,0,0,82,139,175,0,0,141,163,199,7,61,170,10,154,70,199,10,158,141,0,77,0,0,139,0,0,0,0,0,0,0,0,0,0,0,0,0,0,0,0,0,0,0,0,0,0,0,0,0,0,0,0,0,0,0,0,0,0,0,0,0,0,0,0],"split_type":[0,0,0,0,0,0,0,0,0,0,0,0,0,0,0,0,0,0,0,0,0,0,0,0,0,0,0,0,0,0,0,0,0,0,0,0,0,0,0,0,0,0,0,0,0,0,0,0,0,0,0,0,0,0,0,0,0,0,0,0,0,0,0,0,0,0,0,0,0,0,0,0,0,0,0,0,0,0,0,0,0,0,0,0,0,0,0,0,0,0,0,0,0,0,0,0,0],"sum_hessian":[1.9421722E3,1.6332432E3,3.089291E2,3.840213E2,1.2492218E3,2.840643E2,2.4864786E1,1.9821533E1,3.6419977E2,8.754079E1,1.161681E3,2.4581786E2,3.8246452E1,1.9611639E1,5.253148E0,9.777644E0,1.0043888E1,3.5833102E2,5.8687553E0,2.6194265E1,6.134652E1,1.1855176E2,1.0431293E3,1.5884989E1,2.2993286E2,9.912504E0,2.8333948E1,1.1900239E1,7.7114005E0,3.9218063E0,1.3313416E0,8.410171E0,1.3674743E0,1.3545921E0,8.689297E0,1.191434E2,2.3918762E2,3.6242342E0,2.244521E0,1.3111818E1,1.3082447E1,1.6975933E1,4.4370586E1,3.0104507E1,8.844725E1,9.924506E2,5.0678627E1,4.9494944E0,1.0935494E1,2.1630634E2,1.3626535E1,8.150577E0,1.7619281E0,2.6127678E1,2.206271E0,1.7941974E0,1.0106041E1,6.368584E0,1.342816E0,4.401174E0,4.008996E0,1.3592799E0,7.330016E0,1.1047717E2,8.666226E0,2.2639722E2,1.2790418E1,5.7739706E0,7.337848E0,1.3238189E0,1.1758628E1,2.2194397E0,1.47564945E1,3.0544323E1,1.3826262E1,3.5290713E0,2.6575436E1,7.450598E1,1.3941272E1,3.591786E2,6.3327203E2,1.777576E1,3.2902866E1,1.3186731E0,3.6308215E0,4.420949E0,6.514546E0,2.136921E2,2.614242E0,4.4060364E0,9.220498E0,1.7433246E0,6.407252E0,2.4769907E1,1.3577714E0,2.2197068E0,7.8863344E0],"tree_param":{"num_deleted":"0","num_feature":"201","num_nodes":"97","size_leaf_vector":"1"}},{"base_weights":[6.588109E-2,-2.2258278E-2,5.2632064E-1,-7.973964E-2,1.5928584E-1,2.7723023E-1,6.6451955E-1,-1.6134726E-2,-2.8315496E-1,7.2027676E-2,9.26518E-1,9.5971966E-1,1.5965816E-1,7.0662624E-1,-5.0996834E-1,2.2225769E-1,-1.4032769E-1,-3.4760988E-1,3.1731233E-1,-1.2996479E-2,5.7816917E-1,2.0250721E-1,1.101872E0,1.1067747E0,-4.3939254E-3,-4.7045663E-2,6.8350816E-1,7.7597934E-1,8.849613E-2,3.3125456E-4,-1.8640317E-2,3.7374815E-1,-8.412888E-2,-3.8514006E-1,-4.0301066E-2,3.451328E-1,-3.981648E-1,-1.7291547E-1,8.904318E-1,-7.647737E-2,4.5263964E-1,8.558399E-1,6.898698E-2,3.1559844E-2,-3.247572E-1,1.1819818E0,-4.46476E-3,-2.605741E-4,1.219377E0,3.3016503E-2,-1.1616754E-1,8.787462E-1,-5.372116E-2,-9.9335E-2,8.166175E-1,6.1952466E-1,-5.690829E-1,-1.1172897E-2,1.3171027E-2,-1.1607027E-2,5.6318627E-3,-1.4329928E-2,1.2476659E-2,-1.8634937E-3,3.3441164E-2,2.6160862E-2,-9.951854E-3,-1.4671178E-2,-1.8888965E-3,-1.4203764E-2,6.9289505E-3,-1.2768755E-2,3.196902E-2,1.7095294E-2,-3.8956134E-3,2.2035887E-2,-9.130796E-3,3.4983303E-2,-3.2652216E-3,-9.910262E-3,2.7571619E-2,-1.5767314E-2,-2.6474101E-3,3.720836E-2,-8.736673E-4,3.8523003E-2,1.1474446E-2,-5.9135505E-3,1.8812051E-2,2.9246304E-2,-4.000636E-3,-1.6856546E-2,1.5609543E-2,-1.4551963E-2,2.0506326E-2,2.5014253E-2,-1.474538E-2,-1.0078295E-2,2.990458E-2,-1.965553E-2,-5.6913623E-4],"categories":[],"categories_nodes":[],"categories_segments":[],"categories_sizes":[],"default_left":[0,0,0,0,0,0,0,0,0,0,0,0,0,0,0,0,0,0,0,0,0,0,0,0,0,0,0,0,0,0,0,0,0,0,0,0,0,0,0,0,0,0,0,0,0,0,0,0,0,0,0,0,0,0,0,0,0,0,0,0,0,0,0,0,0,0,0,0,0,0,0,0,0,0,0,0,0,0,0,0,0,0,0,0,0,0,0,0,0,0,0,0,0,0,0,0,0,0,0,0,0],"id":13,"left_children":[1,3,5,7,9,11,13,15,17,19,21,23,25,27,29,31,33,35,37,39,41,43,45,47,-1,49,51,53,55,-1,-1,57,59,61,63,65,67,69,71,73,75,77,79,-1,81,83,-1,-1,85,-1,87,89,91,93,95,97,99,-1,-1,-1,-1,-1,-1,-1,-1,-1,-1,-1,-1,-1,-1,-1,-1,-1,-1,-1,-1,-1,-1,-1,-1,-1,-1,-1,-1,-1,-1,-1,-1,-1,-1,-1,-1,-1,-1,-1,-1,-1,-1,-1,-1],"loss_changes":[7.958571E1,1.719671E1,1.0661957E1,1.6185883E1,2.6466896E1,9.006078E0,1.0346558E1,2.8286257E1,1.164452E1,1.5368495E1,4.9045067E0,2.858306E0,1.0705681E1,8.306267E0,4.4611204E-1,1.5221607E1,1.5364684E1,9.579475E0,8.417396E0,9.097048E0,7.202471E0,4.417538E0,3.411003E0,1.8628254E0,0E0,5.8088202E0,4.0708303E0,6.324692E0,7.6285496E0,0E0,0E0,1.084067E1,9.052354E0,1.3692553E1,1.1332501E1,7.019995E0,7.6373444E0,2.1351833E0,3.617525E0,9.411314E0,8.103535E0,1.0048475E1,6.8252172E0,0E0,2.5659484E-1,2.1864738E0,0E0,0E0,2.3477554E-1,0E0,4.242135E0,2.2859383E0,2.2746243E0,2.9524565E0,4.184311E0,4.663059E0,4.5318532E-1,0E0,0E0,0E0,0E0,0E0,0E0,0E0,0E0,0E0,0E0,0E0,0E0,0E0,0E0,0E0,0E0,0E0,0E0,0E0,0E0,0E0,0E0,0E0,0E0,0E0,0E0,0E0,0E0,0E0,0E0,0E0,0E0,0E0,0E0,0E0,0E0,0E0,0E0,0E0,0E0,0E0,0E0,0E0,0E0],"parents":[2147483647,0,0,1,1,2,2,3,3,4,4,5,5,6,6,7,7,8,8,9,9,10,10,11,11,12,12,13,13,14,14,15,15,16,16,17,17,18,18,19,19,20,20,21,21,22,22,23,23,25,25,26,26,27,27,28,28,31,31,32,32,33,33,34,34,35,35,36,36,37,37,38,38,39,39,40,40,41,41,42,42,44,44,45,45,48,48,50,50,51,51,52,52,53,53,54,54,55,55,56,56],"right_children":[2,4,6,8,10,12,14,16,18,20,22,24,26,28,30,32,34,36,38,40,42,44,46,48,-1,50,52,54,56,-1,-1,58,60,62,64,66,68,70,72,74,76,78,80,-1,82,84,-1,-1,86,-1,88,90,92,94,96,98,100,-1,-1,-1,-1,-1,-1,-1,-1,-1,-1,-1,-1,-1,-1,-1,-1,-1,-1,-1,-1,-1,-1,-1,-1,-1,-1,-1,-1,-1,-1,-1,-1,-1,-1,-1,-1,-1,-1,-1,-1,-1,-1,-1,-1],"split_conditions":[6.4440125E-1,1E0,-2.1187367E-1,2.6487434E-1,2.889843E-2,8.470743E-1,2.6879774E-2,3.330669E-16,3.3583265E-2,3.5557595E-1,-5.4436934E-1,8.310616E-2,5.2E-1,6.689954E-1,4.3969955E-2,3.0305453E-2,-4.843039E-1,1.1880712E-3,4E-1,5.6335914E-1,3.65676E-1,-7.595763E-2,3.2519E4,3.7938687E-3,-4.3939254E-3,-5.9263384E-1,4.9452E2,6.910625E-1,-8E-2,3.3125456E-4,-1.8640317E-2,-6.666667E-1,9.01283E-3,1.0670356E1,1.2809378E0,3.7691362E-2,7E-1,4.8769155E-1,-2.3E-1,2.0619505E-3,2.1253934E-2,5.3601205E-1,2.5E-1,3.1559844E-2,-5.808353E-1,4.9839744E-1,-4.46476E-3,-2.605741E-4,8.145107E-1,3.3016503E-2,4.1454974E-1,7.238097E-2,8.413135E-1,5.134638E-1,1E0,-2.1E-1,4.9499473E-1,-1.1172897E-2,1.3171027E-2,-1.1607027E-2,5.6318627E-3,-1.4329928E-2,1.2476659E-2,-1.8634937E-3,3.3441164E-2,2.6160862E-2,-9.951854E-3,-1.4671178E-2,-1.8888965E-3,-1.4203764E-2,6.9289505E-3,-1.2768755E-2,3.196902E-2,1.7095294E-2,-3.8956134E-3,2.2035887E-2,-9.130796E-3,3.4983303E-2,-3.2652216E-3,-9.910262E-3,2.7571619E-2,-1.5767314E-2,-2.6474101E-3,3.720836E-2,-8.736673E-4,3.8523003E-2,1.1474446E-2,-5.9135505E-3,1.8812051E-2,2.9246304E-2,-4.000636E-3,-1.6856546E-2,1.5609543E-2,-1.4551963E-2,2.0506326E-2,2.5014253E-2,-1.474538E-2,-1.0078295E-2,2.990458E-2,-1.965553E-2,-5.6913623E-4],"split_indices":[51,35,124,51,151,51,175,167,191,51,10,140,115,141,140,17,99,173,129,144,82,74,29,173,0,10,96,51,80,0,0,66,136,149,77,82,76,51,80,150,180,135,80,0,10,158,0,0,68,0,137,68,185,141,48,80,74,0,0,0,0,0,0,0,0,0,0,0,0,0,0,0,0,0,0,0,0,0,0,0,0,0,0,0,0,0,0,0,0,0,0,0,0,0,0,0,0,0,0,0,0],"split_type":[0,0,0,0,0,0,0,0,0,0,0,0,0,0,0,0,0,0,0,0,0,0,0,0,0,0,0,0,0,0,0,0,0,0,0,0,0,0,0,0,0,0,0,0,0,0,0,0,0,0,0,0,0,0,0,0,0,0,0,0,0,0,0,0,0,0,0,0,0,0,0,0,0,0,0,0,0,0,0,0,0,0,0,0,0,0,0,0,0,0,0,0,0,0,0,0,0,0,0,0,0],"sum_hessian":[1.959779E3,1.645703E3,3.1407608E2,1.2503667E3,3.9533624E2,1.1314643E2,2.0092964E2,9.533484E2,2.9701834E2,3.5594778E2,3.938846E1,1.5574695E1,9.757174E1,1.9435997E2,6.5696683E0,3.26271E2,6.2707733E2,2.6860687E2,2.8411493E1,3.0558792E2,5.035985E1,8.099919E0,3.1288538E1,1.3746688E1,1.828006E0,7.061733E1,2.695441E1,1.7452339E2,1.9836569E1,1.3157071E0,5.253961E0,2.1817581E2,1.08095184E2,1.8106804E2,4.460093E2,1.7872824E1,2.5073404E2,1.5689498E1,1.2721996E1,2.6966046E2,3.592747E1,3.2147915E1,1.8211935E1,2.7209466E0,5.3789725E0,2.9456713E1,1.8318249E0,1.3450662E0,1.2401622E1,3.164065E0,6.745326E1,2.1158987E1,5.7954235E0,7.6790185E0,1.6684438E2,1.1006296E1,8.830273E0,1.7174763E1,2.0100105E2,5.0939693E1,5.715549E1,1.6268097E2,1.838707E1,4.3867007E2,7.3392396E0,9.887588E0,7.9852366E0,1.9689587E2,5.3838173E1,8.89678E0,6.792718E0,1.3267298E0,1.1395267E1,1.9832932E1,2.4982753E2,2.6200619E1,9.726851E0,2.4166454E1,7.981462E0,1.2807059E1,5.4048758E0,2.2479925E0,3.1309798E0,2.8080938E1,1.3757743E0,1.1015363E1,1.3862588E0,6.1490685E1,5.9625797E0,1.9357195E1,1.8017923E0,3.0853314E0,2.710092E0,5.3992004E0,2.279818E0,1.650381E2,1.8062761E0,3.1468234E0,7.8594723E0,7.4700813E0,1.3601921E0],"tree_param":{"num_deleted":"0","num_feature":"201","num_nodes":"101","size_leaf_vector":"1"}},{"base_weights":[-4.1313253E-2,1.9268888E-1,-1.6501383E-1,2.999142E-1,-4.2209927E-2,4.0991284E-2,-2.3412573E-1,-2.9791948E-1,3.5120988E-1,-3.18594E-1,1.5468672E-1,-2.0763287E-1,1.9299696E-1,8.784726E-1,-2.4943447E-1,-4.05962E-1,2.3630861E-2,3.9856887E-1,-3.542924E-1,-4.031178E-1,3.26692E-1,-4.2675924E-2,7.3438877E-1,2.3033065E-1,-4.022347E-1,9.1908716E-2,6.993112E-1,1.046957E0,-3.8194074E-3,-1.7526692E-1,-4.144948E-1,-5.043257E-1,2.0679941E-2,2.9711273E-1,6.854613E-1,-4.6456608E-1,3.1064388E-1,-5.1408863E-1,-1.1346768E-1,3.285809E-2,-1.333822E-1,-1.6793656E-1,9.088185E-1,5.4982003E-2,1.229334E0,9.378664E-1,-1.1767824E-1,-4.515218E-1,2.462872E-2,-1.9443564E-2,5.589854E-1,8.267992E-1,-1.6476292E-2,1.1816245E0,6.4485795E-3,4.5900887E-1,-2.0307785E-1,-3.377668E-1,-6.083006E-1,-1.8260626E-2,3.6573536E-3,2.432516E-2,7.3193004E-3,-9.224342E-3,2.4536088E-2,1.2735433E-2,-1.7221773E-2,-1.2558223E-2,2.2211852E-2,-1.6303675E-2,7.984692E-3,2.8280336E-2,-7.3874877E-3,1.715472E-2,-1.3469374E-2,-8.030933E-3,1.7647283E-2,3.6693715E-2,-6.7134365E-3,-1.1703503E-2,2.84057E-2,1.1633203E-2,3.8247697E-2,-3.9109783E-3,3.3740617E-2,-1.0930283E-2,1.7785357E-2,1.6310865E-2,-1.474497E-2,6.9880993E-3,-9.717999E-3,2.7541514E-2,-3.4753194E-3,2.9801976E-2,-6.3708206E-3,1.2337139E-2,3.7738185E-2,2.2208178E-2,-1.1526121E-2,1.9463E-2,-6.6988845E-3,-1.3580836E-2,1.70642E-3,-1.9257315E-2,1.2170795E-2],"categories":[],"categories_nodes":[],"categories_segments":[],"categories_sizes":[],"default_left":[0,0,0,0,0,0,0,0,0,0,0,0,0,0,0,0,0,0,0,0,0,0,0,0,0,0,0,0,0,0,0,0,0,0,0,0,0,0,0,0,0,0,0,0,0,0,0,0,0,0,0,0,0,0,0,0,0,0,0,0,0,0,0,0,0,0,0,0,0,0,0,0,0,0,0,0,0,0,0,0,0,0,0,0,0,0,0,0,0,0,0,0,0,0,0,0,0,0,0,0,0,0,0,0,0],"id":14,"left_children":[1,3,5,7,9,11,13,15,17,19,21,23,25,27,29,31,-1,33,35,37,39,41,43,45,47,49,51,53,-1,55,57,59,-1,61,63,65,67,69,71,-1,73,75,77,79,81,83,85,87,-1,89,91,93,-1,95,-1,97,99,101,103,-1,-1,-1,-1,-1,-1,-1,-1,-1,-1,-1,-1,-1,-1,-1,-1,-1,-1,-1,-1,-1,-1,-1,-1,-1,-1,-1,-1,-1,-1,-1,-1,-1,-1,-1,-1,-1,-1,-1,-1,-1,-1,-1,-1,-1,-1],"loss_changes":[5.6644073E1,1.7059462E1,1.8233036E1,1.4358681E1,1.1640279E1,1.2223959E1,1.6546074E1,4.691448E0,1.4459534E1,4.98256E0,1.4339294E1,1.0558899E1,1.0202337E1,2.375515E0,1.1512642E1,4.0708084E0,0E0,1.1498909E1,2.1597877E0,2.4836817E0,3.9836807E0,1.1384533E1,1.0631647E1,9.569157E0,5.5184917E0,8.767101E0,5.7436867E0,1.0279646E0,0E0,1.1641712E1,4.1465187E0,2.184373E0,0E0,7.9581337E0,1.39604E1,2.577869E0,1.7231302E0,1.4483318E0,3.484177E0,0E0,1.9660896E0,6.503297E0,4.2318745E0,6.1082916E0,2.1005058E-1,2.6964312E0,4.884601E0,3.5585365E0,0E0,1.0596829E1,7.9676914E0,5.500286E0,0E0,4.8578262E-2,0E0,6.879203E0,1.0958708E1,9.636976E0,3.0466614E0,0E0,0E0,0E0,0E0,0E0,0E0,0E0,0E0,0E0,0E0,0E0,0E0,0E0,0E0,0E0,0E0,0E0,0E0,0E0,0E0,0E0,0E0,0E0,0E0,0E0,0E0,0E0,0E0,0E0,0E0,0E0,0E0,0E0,0E0,0E0,0E0,0E0,0E0,0E0,0E0,0E0,0E0,0E0,0E0,0E0,0E0],"parents":[2147483647,0,0,1,1,2,2,3,3,4,4,5,5,6,6,7,7,8,8,9,9,10,10,11,11,12,12,13,13,14,14,15,15,17,17,18,18,19,19,20,20,21,21,22,22,23,23,24,24,25,25,26,26,27,27,29,29,30,30,31,31,33,33,34,34,35,35,36,36,37,37,38,38,40,40,41,41,42,42,43,43,44,44,45,45,46,46,47,47,49,49,50,50,51,51,53,53,55,55,56,56,57,57,58,58],"right_children":[2,4,6,8,10,12,14,16,18,20,22,24,26,28,30,32,-1,34,36,38,40,42,44,46,48,50,52,54,-1,56,58,60,-1,62,64,66,68,70,72,-1,74,76,78,80,82,84,86,88,-1,90,92,94,-1,96,-1,98,100,102,104,-1,-1,-1,-1,-1,-1,-1,-1,-1,-1,-1,-1,-1,-1,-1,-1,-1,-1,-1,-1,-1,-1,-1,-1,-1,-1,-1,-1,-1,-1,-1,-1,-1,-1,-1,-1,-1,-1,-1,-1,-1,-1,-1,-1,-1,-1],"split_conditions":[-2.7314436E-1,1.0870068E-2,6.938894E-17,2.1370617E-3,4.3921176E-1,-5.857082E-1,-4.9843735E-1,4.2421535E-1,4.9742356E-2,1.1375343E1,4.8E-1,1.7662318E-3,3.6069378E-1,1.4142486E0,2.5627178E-1,-5.5278596E-2,2.3630861E-2,9.362764E-3,1.2366416E-2,-3.630323E-1,1.1194009E-1,3.4117445E-1,9.186083E-2,1.0211869E-2,8.4781444E-1,2.215039E-2,2.956848E-2,8.710748E0,-3.8194074E-3,1.4E-1,4.7900242E-1,1.1722208E-1,2.0679941E-2,-6.14158E-1,-7.862246E-1,6.578586E-2,-2.2144157E-1,2.3313434E-1,1.5837753E-1,3.285809E-2,2.904255E-3,-3.8448665E-2,7.201457E-2,1.13268964E-1,-2.2521076E-1,-1.3307515E0,2.787001E-2,-9.4E-1,2.462872E-2,2.495978E-1,4.8538643E-1,1.8915582E-2,-1.6476292E-2,7.2590853E-3,6.4485795E-3,6.9380397E-1,-2.4176679E0,8.90843E-2,8.409767E-1,-1.8260626E-2,3.6573536E-3,2.432516E-2,7.3193004E-3,-9.224342E-3,2.4536088E-2,1.2735433E-2,-1.7221773E-2,-1.2558223E-2,2.2211852E-2,-1.6303675E-2,7.984692E-3,2.8280336E-2,-7.3874877E-3,1.715472E-2,-1.3469374E-2,-8.030933E-3,1.7647283E-2,3.6693715E-2,-6.7134365E-3,-1.1703503E-2,2.84057E-2,1.1633203E-2,3.8247697E-2,-3.9109783E-3,3.3740617E-2,-1.0930283E-2,1.7785357E-2,1.6310865E-2,-1.474497E-2,6.9880993E-3,-9.717999E-3,2.7541514E-2,-3.4753194E-3,2.9801976E-2,-6.3708206E-3,1.2337139E-2,3.7738185E-2,2.2208178E-2,-1.1526121E-2,1.9463E-2,-6.6988845E-3,-1.3580836E-2,1.70642E-3,-1.9257315E-2,1.2170795E-2],"split_indices":[0,154,166,150,138,3,67,144,142,149,186,39,147,51,108,58,0,192,192,84,134,147,118,174,144,151,68,15,0,114,134,3,0,68,3,140,4,67,138,0,136,17,140,67,72,82,192,119,0,137,181,192,0,193,0,71,82,140,68,0,0,0,0,0,0,0,0,0,0,0,0,0,0,0,0,0,0,0,0,0,0,0,0,0,0,0,0,0,0,0,0,0,0,0,0,0,0,0,0,0,0,0,0,0,0],"split_type":[0,0,0,0,0,0,0,0,0,0,0,0,0,0,0,0,0,0,0,0,0,0,0,0,0,0,0,0,0,0,0,0,0,0,0,0,0,0,0,0,0,0,0,0,0,0,0,0,0,0,0,0,0,0,0,0,0,0,0,0,0,0,0,0,0,0,0,0,0,0,0,0,0,0,0,0,0,0,0,0,0,0,0,0,0,0,0,0,0,0,0,0,0,0,0,0,0,0,0,0,0,0,0,0,0],"sum_hessian":[1.9547756E3,6.7580676E2,1.278969E3,4.638117E2,2.1199503E2,3.2139087E2,9.5757806E2,3.6271526E1,4.275402E2,8.793811E1,1.2405692E2,1.2180223E2,1.9958862E2,1.2231629E1,9.4534644E2,3.355784E1,2.7136884E0,4.010533E2,2.6486862E1,7.808527E1,9.852832E0,9.323944E1,3.081748E1,3.7414646E1,8.438758E1,1.6735655E2,3.2232075E1,1.0441574E1,1.7900554E0,6.536844E2,2.9166205E2,3.1287586E1,2.270254E0,2.9778186E2,1.03271454E2,2.2977577E1,3.5092866E0,5.589566E1,2.2189617E1,3.1724513E0,6.680381E0,8.312045E1,1.0118991E1,1.3456691E1,1.7360788E1,1.1776643E1,2.5638004E1,8.172542E1,2.662165E0,1.3591293E2,3.1443619E1,2.9552237E1,2.6798391E0,8.62528E0,1.8162941E0,2.6806717E1,6.268777E2,2.1090662E2,8.075544E1,2.6842356E1,4.445229E0,2.6576572E1,2.712053E2,1.1995343E1,9.1276115E1,2.2040071E0,2.077357E1,1.3108374E0,2.1984491E0,5.4160614E1,1.7350439E0,1.796984E0,2.0392632E1,1.8143367E0,4.866044E0,7.400333E1,9.117124E0,7.858319E0,2.2606716E0,9.352048E0,4.1046433E0,1.3806318E0,1.5980157E1,1.797994E0,9.978649E0,1.939283E1,6.245174E0,2.6694837E0,7.905594E1,7.444403E1,6.1468895E1,2.0288197E1,1.1155421E1,2.5506952E1,4.0452843E0,1.3532419E0,7.2720385E0,2.0193134E1,6.6135817E0,1.3813055E1,6.1306464E2,1.6322557E2,4.768103E1,7.851977E1,2.2356706E0],"tree_param":{"num_deleted":"0","num_feature":"201","num_nodes":"105","size_leaf_vector":"1"}},{"base_weights":[-3.222889E-2,2.0167824E-2,-3.1383577E-1,3.8632092E-3,7.728788E-1,-3.5688123E-1,2.222745E-1,-1.0531035E-1,9.600035E-2,-3.984866E-1,9.377821E-1,4.5802703E-1,-3.8412598E-1,3.902909E-1,-1.7123077E-2,-1.326492E-1,4.2961016E-1,3.0111648E-2,3.8176462E-1,-1.6301222E-2,-2.405979E-5,1.1651254E0,5.307612E-1,-3.1874496E-1,8.754879E-1,-4.3895558E-1,6.97758E-2,-4.9306326E-2,8.5547614E-1,-2.025221E-1,7.506035E-2,7.54493E-1,-2.744476E-1,6.3609487E-1,-4.0760594E-3,4.3648556E-2,6.878715E-1,6.552282E-3,1.2526375E0,7.424103E-1,-1.4756557E-2,-1.4280086E-2,1.706194E-4,3.231534E-2,6.7233434E-3,-1.2650578E-1,-4.9300674E-1,-3.646173E-1,3.739745E-1,-1.6822714E-2,2.504443E-1,3.445785E-2,2.7978185E-1,-7.310989E-3,9.623371E-3,1.3380829E-2,-3.5662334E-3,-1.714681E-2,2.9137682E-2,5.522931E-5,-1.8375821E-2,2.3864692E-2,-1.3325081E-2,-5.6289076E-3,2.4052197E-3,2.296351E-2,-4.769373E-3,2.4044687E-2,-6.213746E-3,1.1533348E-2,3.9137296E-2,-6.52456E-3,3.0361082E-2,1.3635477E-2,-1.0341432E-2,2.9738415E-3,-1.52169205E-2,9.261058E-3,-1.6836388E-2,2.7774287E-2,1.1195744E-3,2.1333745E-2,-9.758128E-3,-1.2917123E-2,2.1138346E-2],"categories":[],"categories_nodes":[],"categories_segments":[],"categories_sizes":[],"default_left":[0,0,0,0,0,0,0,0,0,0,0,0,0,0,0,0,0,0,0,0,0,0,0,0,0,0,0,0,0,0,0,0,0,0,0,0,0,0,0,0,0,0,0,0,0,0,0,0,0,0,0,0,0,0,0,0,0,0,0,0,0,0,0,0,0,0,0,0,0,0,0,0,0,0,0,0,0,0,0,0,0,0,0,0,0],"id":15,"left_children":[1,3,5,7,9,11,13,15,17,19,21,23,25,27,-1,29,31,33,35,-1,-1,37,39,41,43,45,47,49,51,53,55,57,59,61,63,65,67,-1,69,71,-1,-1,-1,-1,-1,73,75,77,79,-1,81,-1,83,-1,-1,-1,-1,-1,-1,-1,-1,-1,-1,-1,-1,-1,-1,-1,-1,-1,-1,-1,-1,-1,-1,-1,-1,-1,-1,-1,-1,-1,-1,-1,-1],"loss_changes":[2.8690804E1,2.0124031E1,7.118473E0,1.6167E1,7.089142E0,6.453327E0,3.3256538E0,1.08148155E1,1.6399532E1,2.8720683E-1,2.2292023E0,3.3930848E0,6.853142E0,4.093196E0,0E0,1.0183463E1,8.442547E0,1.4698834E1,1.6863672E1,0E0,0E0,1.2929554E0,3.1497931E0,2.1137753E-1,6.142616E-1,4.0706673E0,4.1545944E0,1.846844E0,1.3120027E0,1.1380869E1,1.27934065E1,7.7131815E0,1.1314933E0,6.877528E0,1.041465E1,1.1621156E1,8.870438E0,0E0,2.6943016E-1,3.082007E0,0E0,0E0,0E0,0E0,0E0,4.9031425E0,1.8046112E0,1.8981136E0,3.3796887E0,0E0,2.2758813E0,0E0,1.687835E0,0E0,0E0,0E0,0E0,0E0,0E0,0E0,0E0,0E0,0E0,0E0,0E0,0E0,0E0,0E0,0E0,0E0,0E0,0E0,0E0,0E0,0E0,0E0,0E0,0E0,0E0,0E0,0E0,0E0,0E0,0E0,0E0],"parents":[2147483647,0,0,1,1,2,2,3,3,4,4,5,5,6,6,7,7,8,8,9,9,10,10,11,11,12,12,13,13,15,15,16,16,17,17,18,18,21,21,22,22,23,23,24,24,25,25,26,26,27,27,28,28,29,29,30,30,31,31,32,32,33,33,34,34,35,35,36,36,38,38,39,39,45,45,46,46,47,47,48,48,50,50,52,52],"right_children":[2,4,6,8,10,12,14,16,18,20,22,24,26,28,-1,30,32,34,36,-1,-1,38,40,42,44,46,48,50,52,54,56,58,60,62,64,66,68,-1,70,72,-1,-1,-1,-1,-1,74,76,78,80,-1,82,-1,84,-1,-1,-1,-1,-1,-1,-1,-1,-1,-1,-1,-1,-1,-1,-1,-1,-1,-1,-1,-1,-1,-1,-1,-1,-1,-1,-1,-1,-1,-1,-1,-1],