{"learner":{"attributes":{"scikit_learn":"{\"_estimator_type\": \"classifier\"}"},"feature_names":[],"feature_types":[],"gradient_booster":{"model":{"gbtree_model_param":{"num_parallel_tree":"1","num_trees":"600"},"iteration_indptr":[0,3,6,9,12,15,18,21,24,27,30,33,36,39,42,45,48,51,54,57,60,63,66,69,72,75,78,81,84,87,90,93,96,99,102,105,108,111,114,117,120,123,126,129,132,135,138,141,144,147,150,153,156,159,162,165,168,171,174,177,180,183,186,189,192,195,198,201,204,207,210,213,216,219,222,225,228,231,234,237,240,243,246,249,252,255,258,261,264,267,270,273,276,279,282,285,288,291,294,297,300,303,306,309,312,315,318,321,324,327,330,333,336,339,342,345,348,351,354,357,360,363,366,369,372,375,378,381,384,387,390,393,396,399,402,405,408,411,414,417,420,423,426,429,432,435,438,441,444,447,450,453,456,459,462,465,468,471,474,477,480,483,486,489,492,495,498,501,504,507,510,513,516,519,522,525,528,531,534,537,540,543,546,549,552,555,558,561,564,567,570,573,576,579,582,585,588,591,594,597,600],"tree_info":[0,1,2,0,1,2,0,1,2,0,1,2,0,1,2,0,1,2,0,1,2,0,1,2,0,1,2,0,1,2,0,1,2,0,1,2,0,1,2,0,1,2,0,1,2,0,1,2,0,1,2,0,1,2,0,1,2,0,1,2,0,1,2,0,1,2,0,1,2,0,1,2,0,1,2,0,1,2,0,1,2,0,1,2,0,1,2,0,1,2,0,1,2,0,1,2,0,1,2,0,1,2,0,1,2,0,1,2,0,1,2,0,1,2,0,1,2,0,1,2,0,1,2,0,1,2,0,1,2,0,1,2,0,1,2,0,1,2,0,1,2,0,1,2,0,1,2,0,1,2,0,1,2,0,1,2,0,1,2,0,1,2,0,1,2,0,1,2,0,1,2,0,1,2,0,1,2,0,1,2,0,1,2,0,1,2,0,1,2,0,1,2,0,1,2,0,1,2,0,1,2,0,1,2,0,1,2,0,1,2,0,1,2,0,1,2,0,1,2,0,1,2,0,1,2,0,1,2,0,1,2,0,1,2,0,1,2,0,1,2,0,1,2,0,1,2,0,1,2,0,1,2,0,1,2,0,1,2,0,1,2,0,1,2,0,1,2,0,1,2,0,1,2,0,1,2,0,1,2,0,1,2,0,1,2,0,1,2,0,1,2,0,1,2,0,1,2,0,1,2,0,1,2,0,1,2,0,1,2,0,1,2,0,1,2,0,1,2,0,1,2,0,1,2,0,1,2,0,1,2,0,1,2,0,1,2,0,1,2,0,1,2,0,1,2,0,1,2,0,1,2,0,1,2,0,1,2,0,1,2,0,1,2,0,1,2,0,1,2,0,1,2,0,1,2,0,1,2,0,1,2,0,1,2,0,1,2,0,1,2,0,1,2,0,1,2,0,1,2,0,1,2,0,1,2,0,1,2,0,1,2,0,1,2,0,1,2,0,1,2,0,1,2,0,1,2,0,1,2,0,1,2,0,1,2,0,1,2,0,1,2,0,1,2,0,1,2,0,1,2,0,1,2,0,1,2,0,1,2,0,1,2,0,1,2,0,1,2,0,1,2,0,1,2,0,1,2,0,1,2,0,1,2,0,1,2,0,1,2,0,1,2,0,1,2,0,1,2,0,1,2,0,1,2,0,1,2,0,1,2,0,1,2,0,1,2,0,1,2,0,1,2,0,1,2,0,1,2,0,1,2,0,1,2,0,1,2,0,1,2,0,1,2,0,1,2,0,1,2,0,1,2,0,1,2,0,1,2,0,1,2,0,1,2,0,1,2,0,1,2,0,1,2,0,1,2,0,1,2,0,1,2,0,1,2,0,1,2,0,1,2,0,1,2,0,1,2,0,1,2],"trees":[{"base_weights":[-5.94863E-2,-7.475926E-2,7.4399996E-1,-2.6891997E-1,-2.3704035E-2,9.6330273E-1,-1.4400001E-2,2.0158099E-1,-3.7332144E-1,-1.10003605E-1,7.78568E-2,1.247191E0,-6.2068976E-3,8.5714287E-1,-8.108112E-2,4.137927E-2,-4.3119273E-1,1.8004457E-2,-2.2424248E-1,4.1876426E-1,1.5297873E-3,3.9740257E-2,1.2857142E-2,2.7272725E-1,3.2264147E-2,-2.1818186E-1,2.1724137E-2,4.8387095E-1,-1.918033E-2,-8.2758665E-2,-4.863906E-1,-8.7967694E-2,3.1444755E-1,2.0134224E-1,-2.6988852E-1,5.8252424E-1,2.1897769E-2,6.9230765E-1,-4.2093948E-2,2.5714284E-2,-1.2857144E-2,6.666666E-3,-1.7419355E-2,-1.8367358E-3,2.7169809E-2,-8.2568815E-3,1.1999999E-2,1.2857142E-2,-1.5126051E-2,-9.2126E-3,1.4586697E-3,-1.7027028E-2,1.2184614E-2,1.5132742E-2,-1.8000001E-2,1.7786548E-3,-1.0299729E-2,-1.475411E-3,2.1361867E-2,-7.128714E-3,1.8E-2,-3.6000006E-3,2.4950495E-2,-4.4824914E-3,5.9272083E-3],"categories":[],"categories_nodes":[],"categories_segments":[],"categories_sizes":[],"default_left":[0,0,0,0,0,0,0,0,0,0,0,0,0,0,0,0,0,0,0,0,0,0,0,0,0,0,0,0,0,0,0,0,0,0,0,0,0,0,0,0,0,0,0,0,0,0,0,0,0,0,0,0,0,0,0,0,0,0,0,0,0,0,0,0,0],"id":0,"left_children":[1,3,5,7,9,11,-1,13,15,17,19,21,-1,23,25,27,29,31,33,35,37,-1,-1,39,-1,41,-1,43,-1,45,47,49,51,53,55,57,59,61,63,-1,-1,-1,-1,-1,-1,-1,-1,-1,-1,-1,-1,-1,-1,-1,-1,-1,-1,-1,-1,-1,-1,-1,-1,-1,-1],"loss_changes":[9.132522E0,7.1981134E0,4.1905317E0,7.50344E0,5.0618763E0,4.2814226E0,0E0,5.278557E0,2.996416E0,4.568193E0,6.9063435E0,5.9535027E-2,0E0,7.983341E-1,2.4272475E0,5.1622605E0,2.0561237E0,4.6805286E0,3.2596722E0,3.14291E0,6.5950737E0,0E0,0E0,1.8701298E0,0E0,3.055588E0,0E0,2.431242E0,0E0,1.6070864E0,1.7461529E0,3.3038464E0,3.4030607E0,4.3235493E0,3.6329317E0,2.8445082E0,2.426364E0,1.5716071E0,5.3253345E0,0E0,0E0,0E0,0E0,0E0,0E0,0E0,0E0,0E0,0E0,0E0,0E0,0E0,0E0,0E0,0E0,0E0,0E0,0E0,0E0,0E0,0E0,0E0,0E0,0E0,0E0],"parents":[2147483647,0,0,1,1,2,2,3,3,4,4,5,5,7,7,8,8,9,9,10,10,11,11,13,13,14,14,15,15,16,16,17,17,18,18,19,19,20,20,23,23,25,25,27,27,29,29,30,30,31,31,32,32,33,33,34,34,35,35,36,36,37,37,38,38],"right_children":[2,4,6,8,10,12,-1,14,16,18,20,22,-1,24,26,28,30,32,34,36,38,-1,-1,40,-1,42,-1,44,-1,46,48,50,52,54,56,58,60,62,64,-1,-1,-1,-1,-1,-1,-1,-1,-1,-1,-1,-1,-1,-1,-1,-1,-1,-1,-1,-1,-1,-1,-1,-1,-1,-1],"split_conditions":[1E0,4.2369165E-2,2.75E0,-4.0064473E-2,-4.5879185E-3,6.2E-1,-1.4400001E-2,2.1720942E1,1.72998E-13,3.0139814E3,4.142463E-1,5.5750614E-1,-6.2068976E-3,-4.98378E-1,5.0728124E-1,3.756392E-2,-9.684149E-1,4.9959984E-1,-1.0944612E3,1.0177909E9,-8.8E-1,3.9740257E-2,1.2857142E-2,-6.236701E-1,3.2264147E-2,-4.6400523E-1,2.1724137E-2,-8.5185313E-1,-1.918033E-2,2.6742285E-2,1.6653345E-16,-2.2687775E-1,1.0173675E-2,4.935585E-1,4.474153E-2,-2.0225796E-1,1E0,-4.8680174E-1,2.4931246E-1,2.5714284E-2,-1.2857144E-2,6.666666E-3,-1.7419355E-2,-1.8367358E-3,2.7169809E-2,-8.2568815E-3,1.1999999E-2,1.2857142E-2,-1.5126051E-2,-9.2126E-3,1.4586697E-3,-1.7027028E-2,1.2184614E-2,1.5132742E-2,-1.8000001E-2,1.7786548E-3,-1.0299729E-2,-1.475411E-3,2.1361867E-2,-7.128714E-3,1.8E-2,-3.6000006E-3,2.4950495E-2,-4.4824914E-3,5.9272083E-3],"split_indices":[27,163,67,13,54,132,0,170,228,229,213,0,0,0,62,163,117,168,74,229,91,0,0,0,0,63,0,1,0,163,196,63,165,166,219,0,58,62,90,0,0,0,0,0,0,0,0,0,0,0,0,0,0,0,0,0,0,0,0,0,0,0,0,0,0],"split_type":[0,0,0,0,0,0,0,0,0,0,0,0,0,0,0,0,0,0,0,0,0,0,0,0,0,0,0,0,0,0,0,0,0,0,0,0,0,0,0,0,0,0,0,0,0,0,0,0,0,0,0,0,0,0,0,0,0,0,0,0,0,0,0,0,0],"sum_hessian":[7.386666E2,7.257777E2,1.2888888E1,1.5022221E2,5.7555554E2,1.1111111E1,1.7777777E0,2.7111109E1,1.2311111E2,3.1111108E2,2.6444443E2,8.888888E0,2.222222E0,7.5555553E0,1.9555553E1,1.5111111E1,1.0799999E2,1.471111E2,1.6399998E2,4.7555553E1,2.1688887E2,7.5555553E0,1.3333333E0,2.6666665E0,4.8888884E0,1.7333332E1,2.222222E0,9.333333E0,5.7777777E0,1.5111111E1,9.2888885E1,1.08888885E2,3.822222E1,1.5555554E1,1.4844444E2,3.3333332E1,1.4222221E1,1.1999999E1,2.0488887E2,1.3333333E0,1.3333333E0,7.9999995E0,9.333333E0,4.444444E0,4.8888884E0,1.1111111E1,3.9999998E0,1.3333333E0,9.155555E1,4.1333332E1,6.755555E1,3.111111E0,3.511111E1,1.1555555E1,3.9999998E0,2.7111109E1,1.2133333E2,5.7777777E0,2.7555553E1,1.0222221E1,3.9999998E0,1.7777777E0,1.0222221E1,1.4177777E2,6.3111107E1],"tree_param":{"num_deleted":"0","num_feature":"231","num_nodes":"65","size_leaf_vector":"1"}},{"base_weights":[-6.1584953E-2,-4.129098E-2,-4.6964863E-1,2.9515065E-2,-1.8777297E-1,-5.1827246E-1,1.2857142E-2,-6.726949E-2,2.0621279E-1,-3.3189288E-1,-3.2859151E-3,-6.000001E-1,-2.4705887E-1,-1.5332203E-1,8.2921974E-2,-1.971095E-2,4.2969772E-1,-3.6923084E-1,3.934426E-1,2.2518156E-1,-1.8860516E-1,-6.6839385E-1,-1.463415E-1,5.454545E-1,-1.918033E-2,7.317073E-1,-1.7351075E-1,2.8938863E-2,6.404494E-1,2.7027023E-1,-2.4027465E-1,9.486162E-2,5.8607346E-1,-5.202594E-1,-1.7505035E-1,-3.2432437E-1,3.272727E-2,-2.6966298E-1,3.5135132E-1,5.4298602E-2,-3.636364E-1,-7.6634543E-10,-2.1381216E-2,-1.5517242E-2,1.2857142E-2,2.5714284E-2,-7.6634543E-10,2.88E-2,7.1999994E-3,-3.1924543E-3,-1.1549639E-2,3.6662275E-3,-1.0939227E-2,-1.0728837E-9,3.2264147E-2,3.993173E-3,3.122449E-2,2.1951217E-2,-1.0000001E-2,1.8947367E-2,-1.7560988E-3,1.9325152E-2,-9.729731E-3,-1.7076924E-2,8.780486E-3,-9.071619E-3,6.2790685E-3,-7.6634543E-10,-1.4400001E-2,-1.6027398E-2,1.8E-2,1.35737695E-2,-1.7027028E-2,8.181817E-3,-1.523077E-2,-1.5854923E-2,-1.5929216E-3],"categories":[],"categories_nodes":[],"categories_segments":[],"categories_sizes":[],"default_left":[0,0,0,0,0,0,0,0,0,0,0,0,0,0,0,0,0,0,0,0,0,0,0,0,0,0,0,0,0,0,0,0,0,0,0,0,0,0,0,0,0,0,0,0,0,0,0,0,0,0,0,0,0,0,0,0,0,0,0,0,0,0,0,0,0,0,0,0,0,0,0,0,0,0,0,0,0],"id":1,"left_children":[1,3,5,7,9,11,-1,13,15,17,19,21,23,25,27,29,31,33,35,37,39,41,43,45,-1,47,49,51,53,55,57,59,61,63,65,67,-1,69,71,73,75,-1,-1,-1,-1,-1,-1,-1,-1,-1,-1,-1,-1,-1,-1,-1,-1,-1,-1,-1,-1,-1,-1,-1,-1,-1,-1,-1,-1,-1,-1,-1,-1,-1,-1,-1,-1],"loss_changes":[6.076515E0,7.29001E0,1.7410345E0,8.125735E0,6.0876207E0,5.930805E-1,0E0,3.9833632E0,8.496491E0,3.6268826E0,4.3375688E0,6.7787266E-1,3.2849302E0,3.6230555E0,3.3690574E0,5.473055E0,4.3717537E0,3.5096073E0,3.7468886E0,2.9597926E0,2.424247E0,6.351576E-1,1.1930795E0,6.233767E-1,0E0,2.8097534E-1,2.6849332E0,3.8500283E0,2.7551417E0,3.772048E0,4.6358213E0,2.3514001E0,3.247303E0,2.8958645E0,2.7659926E0,2.0756751E-1,0E0,2.5959673E0,3.6944618E0,3.1527765E0,1.6613994E0,0E0,0E0,0E0,0E0,0E0,0E0,0E0,0E0,0E0,0E0,0E0,0E0,0E0,0E0,0E0,0E0,0E0,0E0,0E0,0E0,0E0,0E0,0E0,0E0,0E0,0E0,0E0,0E0,0E0,0E0,0E0,0E0,0E0,0E0,0E0,0E0],"parents":[2147483647,0,0,1,1,2,2,3,3,4,4,5,5,7,7,8,8,9,9,10,10,11,11,12,12,13,13,14,14,15,15,16,16,17,17,18,18,19,19,20,20,21,21,22,22,23,23,25,25,26,26,27,27,28,28,29,29,30,30,31,31,32,32,33,33,34,34,35,35,37,37,38,38,39,39,40,40],"right_children":[2,4,6,8,10,12,-1,14,16,18,20,22,24,26,28,30,32,34,36,38,40,42,44,46,-1,48,50,52,54,56,58,60,62,64,66,68,-1,70,72,74,76,-1,-1,-1,-1,-1,-1,-1,-1,-1,-1,-1,-1,-1,-1,-1,-1,-1,-1,-1,-1,-1,-1,-1,-1,-1,-1,-1,-1,-1,-1,-1,-1,-1,-1,-1,-1],"split_conditions":[6.6647863E-1,3.7760866E-1,1.6792744E1,1.1515791E-1,7.100097E-1,1.53919325E1,1.2857142E-2,5.5371666E-1,1.6513765E-2,1E0,4.9976595E-2,1E0,1.6214678E1,-2.609967E0,5.618537E-1,6.267198E-3,1.23681045E4,6.581901E-1,6.7E-1,-6.6E-1,9.303083E-1,5.3286153E-1,-9.6717125E-1,-4.782977E-2,-1.918033E-2,-6.452921E-1,-1.4513099E-2,1.1E0,7.5E-1,1E0,-6.9531494E-1,-7.713451E-1,4.3545753E-1,5.8E-1,6.8E-1,-2.696716E-1,3.272727E-2,4.9273767E-2,6.818229E-1,9.863713E-1,9.165151E-1,-7.6634543E-10,-2.1381216E-2,-1.5517242E-2,1.2857142E-2,2.5714284E-2,-7.6634543E-10,2.88E-2,7.1999994E-3,-3.1924543E-3,-1.1549639E-2,3.6662275E-3,-1.0939227E-2,-1.0728837E-9,3.2264147E-2,3.993173E-3,3.122449E-2,2.1951217E-2,-1.0000001E-2,1.8947367E-2,-1.7560988E-3,1.9325152E-2,-9.729731E-3,-1.7076924E-2,8.780486E-3,-9.071619E-3,6.2790685E-3,-7.6634543E-10,-1.4400001E-2,-1.6027398E-2,1.8E-2,1.35737695E-2,-1.7027028E-2,8.181817E-3,-1.523077E-2,-1.5854923E-2,-1.5929216E-3],"split_indices":[83,54,149,163,54,72,0,158,160,50,183,39,72,13,79,160,229,157,102,89,167,154,1,0,0,1,54,130,67,39,112,66,105,113,146,0,0,183,78,1,223,0,0,0,0,0,0,0,0,0,0,0,0,0,0,0,0,0,0,0,0,0,0,0,0,0,0,0,0,0,0,0,0,0,0,0,0],"split_type":[0,0,0,0,0,0,0,0,0,0,0,0,0,0,0,0,0,0,0,0,0,0,0,0,0,0,0,0,0,0,0,0,0,0,0,0,0,0,0,0,0,0,0,0,0,0,0,0,0,0,0,0,0,0,0,0,0,0,0,0,0,0,0,0,0,0,0,0,0,0,0,0,0,0,0,0,0],"sum_hessian":[7.351111E2,7.013333E2,3.3777775E1,4.733333E2,2.2799998E2,3.2444443E1,1.3333333E0,3.062222E2,1.671111E2,1.2755555E2,1.00444435E2,2.3999998E1,8.444444E0,1.9466666E2,1.1155555E2,8.355555E1,8.355555E1,1.2177777E2,5.7777777E0,4.4888885E1,5.5555553E1,2.0444443E1,3.5555553E0,2.6666665E0,5.7777777E0,3.5555553E0,1.911111E2,1.02666664E2,8.888888E0,3.5999996E1,4.7555553E1,2.7111109E1,5.6444443E1,6.755555E1,5.4222218E1,3.111111E0,2.6666665E0,8.888888E0,3.5999996E1,2.3555553E1,3.1999998E1,1.3333333E0,1.911111E1,2.222222E0,1.3333333E0,1.3333333E0,1.3333333E0,1.7777777E0,1.7777777E0,1.4622221E2,4.4888885E1,8.355555E1,1.911111E1,3.9999998E0,4.8888884E0,3.1555553E1,4.444444E0,3.5555553E0,4.3999996E1,5.333333E0,2.1777777E1,5.333333E1,3.111111E0,6.3999996E1,3.5555553E0,4.0888885E1,1.3333332E1,1.3333333E0,1.7777777E0,7.1111107E0,1.7777777E0,3.2888885E1,3.111111E0,1.7333332E1,6.222222E0,2.0444443E1,1.1555555E1],"tree_param":{"num_deleted":"0","num_feature":"231","num_nodes":"77","size_leaf_vector":"1"}},{"base_weights":[6.1233774E-2,3.327297E-1,-7.628871E-2,4.162436E-1,-6.741617E-3,1.14068E-2,-2.4713036E-1,6.0507756E-1,2.879776E-1,-3.658537E-1,2.891566E-1,-8.2568854E-2,3.6215332E-1,-2.7950317E-1,2.8536584E-2,3.660477E-1,8.533724E-1,5.314285E-1,5.3859923E-2,-4.7027034E-1,1.2413792E-2,-2.6086962E-1,4.7619045E-1,-1.1786208E-1,6.330275E-1,-4.7430873E-2,6.3414633E-1,-3.4827867E-1,1.4354064E-1,6.338028E-1,1.7341E-2,1.8461534E-1,9.7894734E-1,7.4754095E-1,2.2270739E-1,-6.198348E-1,2.3595501E-1,-5.454546E-1,3.1034474E-3,7.1999994E-3,-4.5283023E-1,-1.5517242E-2,6.213018E-1,-1.5310548E-1,4.9586773E-1,2.7272725E-1,3.5121948E-2,-2.3414639E-1,6.315789E-1,1.8633537E-1,9.4009215E-1,-4.243043E-8,-4.0240523E-1,5.9999996E-1,-1.5789478E-1,-1.4400001E-2,2.2385785E-2,7.443608E-3,-1.8367348E-2,2.4545453E-2,-1.097561E-2,1.872483E-2,3.8482755E-2,2.5578946E-2,-1.5517242E-2,1.4904457E-2,-1.0000001E-2,-2.0642202E-2,-7.6634543E-10,2.7169809E-2,4.264338E-3,-4.390245E-3,-1.8947368E-2,-7.6634543E-10,-1.7560976E-2,2.1783438E-2,-1.2857144E-2,-5.811025E-3,8.453038E-3,2.1340204E-2,-8.181819E-3,2.020408E-2,-9.729731E-3,-1.0259069E-2,2.5714284E-2,2.8536584E-2,-3.6000006E-3,2.3999998E-2,-1.4400012E-3,3.0895522E-2,-3.6000006E-3,-1.0285716E-2,1.3333332E-2,-1.4494384E-2,-4.9827E-3,3.3157893E-2,-9.729731E-3,-1.2857145E-2,1.9459458E-2],"categories":[],"categories_nodes":[],"categories_segments":[],"categories_sizes":[],"default_left":[0,0,0,0,0,0,0,0,0,0,0,0,0,0,0,0,0,0,0,0,0,0,0,0,0,0,0,0,0,0,0,0,0,0,0,0,0,0,0,0,0,0,0,0,0,0,0,0,0,0,0,0,0,0,0,0,0,0,0,0,0,0,0,0,0,0,0,0,0,0,0,0,0,0,0,0,0,0,0,0,0,0,0,0,0,0,0,0,0,0,0,0,0,0,0,0,0,0,0],"id":2,"left_children":[1,3,5,7,9,11,13,15,17,19,21,23,25,27,-1,29,31,33,35,37,-1,39,41,43,45,47,49,51,53,55,57,59,61,63,65,67,69,71,-1,-1,73,-1,75,77,79,81,-1,83,85,87,89,91,93,95,97,-1,-1,-1,-1,-1,-1,-1,-1,-1,-1,-1,-1,-1,-1,-1,-1,-1,-1,-1,-1,-1,-1,-1,-1,-1,-1,-1,-1,-1,-1,-1,-1,-1,-1,-1,-1,-1,-1,-1,-1,-1,-1,-1,-1],"loss_changes":[2.7260498E1,6.961298E0,7.2691116E0,4.5972824E0,5.3597865E0,1.06252365E1,6.649624E0,4.363077E0,6.7665873E0,2.0488899E0,2.9703913E0,6.4979773E0,7.6179304E0,4.734295E0,0E0,3.9000902E0,3.0011444E0,3.7254276E0,7.7385645E0,9.4308233E-1,0E0,8.458081E-1,3.3486848E0,5.336799E0,2.0270548E0,3.7118552E0,5.44207E0,2.6161175E0,3.289952E0,3.320776E0,2.9448104E0,2.8181477E0,2.6126404E0,4.9454174E0,4.0437236E0,5.6865597E-1,2.9776294E0,5.3775215E-1,0E0,0E0,3.5342836E-1,0E0,2.3775034E0,4.128692E0,2.4205508E0,2.2654562E0,0E0,2.9732776E0,1.6356351E0,2.6108818E0,2.4178123E0,3.1492062E0,2.2115097E0,4.7692738E0,3.504166E0,0E0,0E0,0E0,0E0,0E0,0E0,0E0,0E0,0E0,0E0,0E0,0E0,0E0,0E0,0E0,0E0,0E0,0E0,0E0,0E0,0E0,0E0,0E0,0E0,0E0,0E0,0E0,0E0,0E0,0E0,0E0,0E0,0E0,0E0,0E0,0E0,0E0,0E0,0E0,0E0,0E0,0E0,0E0,0E0],"parents":[2147483647,0,0,1,1,2,2,3,3,4,4,5,5,6,6,7,7,8,8,9,9,10,10,11,11,12,12,13,13,15,15,16,16,17,17,18,18,19,19,21,21,22,22,23,23,24,24,25,25,26,26,27,27,28,28,29,29,30,30,31,31,32,32,33,33,34,34,35,35,36,36,37,37,40,40,42,42,43,43,44,44,45,45,47,47,48,48,49,49,50,50,51,51,52,52,53,53,54,54],"right_children":[2,4,6,8,10,12,14,16,18,20,22,24,26,28,-1,30,32,34,36,38,-1,40,42,44,46,48,50,52,54,56,58,60,62,64,66,68,70,72,-1,-1,74,-1,76,78,80,82,-1,84,86,88,90,92,94,96,98,-1,-1,-1,-1,-1,-1,-1,-1,-1,-1,-1,-1,-1,-1,-1,-1,-1,-1,-1,-1,-1,-1,-1,-1,-1,-1,-1,-1,-1,-1,-1,-1,-1,-1,-1,-1,-1,-1,-1,-1,-1,-1,-1,-1],"split_conditions":[2.1354157E-1,1.3808472E-1,1.264015E-1,4.25E-1,8.147536E-2,4.8414874E-1,1.0656846E0,1.45E-1,8.001703E-1,6.9793465E1,8.7626976E-1,4.8989794E-1,-4.225997E-2,7.2663075E-1,2.8536584E-2,4.142463E-1,-1.1524725E0,4.9638695E-1,8.584993E-1,1.1661904E0,1.2413792E-2,8.078941E-2,-4.6357498E-1,1.7285538E-1,5.7E-1,4.236553E0,3.2932505E-2,6.009289E-7,7.492287E-1,-7.168918E-1,5.6104686E-2,7.813119E-2,7.818726E-1,3.4698704E-1,5.1436126E-2,5.3987384E-1,-5.085921E-1,2E-2,3.1034474E-3,7.1999994E-3,-4.225997E-2,-1.5517242E-2,7.524524E-1,1.3971591E-1,2.4494897E-1,1.1698711E-1,3.5121948E-2,4.9959984E-1,1E0,-2.420162E1,1.10016346E-1,3.254379E-1,2.6309568E1,1.0257586E2,1.0606436E-1,-1.4400001E-2,2.2385785E-2,7.443608E-3,-1.8367348E-2,2.4545453E-2,-1.097561E-2,1.872483E-2,3.8482755E-2,2.5578946E-2,-1.5517242E-2,1.4904457E-2,-1.0000001E-2,-2.0642202E-2,-7.6634543E-10,2.7169809E-2,4.264338E-3,-4.390245E-3,-1.8947368E-2,-7.6634543E-10,-1.7560976E-2,2.1783438E-2,-1.2857144E-2,-5.811025E-3,8.453038E-3,2.1340204E-2,-8.181819E-3,2.020408E-2,-9.729731E-3,-1.0259069E-2,2.5714284E-2,2.8536584E-2,-3.6000006E-3,2.3999998E-2,-1.4400012E-3,3.0895522E-2,-3.6000006E-3,-1.0285716E-2,1.3333332E-2,-1.4494384E-2,-4.9827E-3,3.3157893E-2,-9.729731E-3,-1.2857145E-2,1.9459458E-2],"split_indices":[223,172,163,144,227,223,85,144,167,16,208,179,1,155,0,168,1,213,167,221,0,171,13,186,102,15,197,228,155,1,183,172,167,224,2,0,54,135,0,0,1,0,81,188,223,80,0,191,57,93,215,54,74,170,197,0,0,0,0,0,0,0,0,0,0,0,0,0,0,0,0,0,0,0,0,0,0,0,0,0,0,0,0,0,0,0,0,0,0,0,0,0,0,0,0,0,0,0,0],"split_type":[0,0,0,0,0,0,0,0,0,0,0,0,0,0,0,0,0,0,0,0,0,0,0,0,0,0,0,0,0,0,0,0,0,0,0,0,0,0,0,0,0,0,0,0,0,0,0,0,0,0,0,0,0,0,0,0,0,0,0,0,0,0,0,0,0,0,0,0,0,0,0,0,0,0,0,0,0,0,0,0,0,0,0,0,0,0,0,0,0,0,0,0,0,0,0,0,0,0,0],"sum_hessian":[7.284444E2,2.4444443E2,4.8399997E2,1.9599998E2,4.8444443E1,3.2044443E2,1.6355554E2,7.777777E1,1.1822221E2,2.1777777E1,2.6666664E1,2.5333331E2,6.711111E1,1.5999998E2,3.5555553E0,4.0888885E1,3.6888885E1,5.733333E1,6.0888885E1,1.9555553E1,2.222222E0,6.666666E0,1.9999998E1,2.4222221E2,1.1111111E1,2.7111109E1,3.9999996E1,1.3777777E2,2.2222221E1,2.2666666E1,1.8222221E1,6.222222E0,3.0666664E1,3.2888885E1,2.4444443E1,1.2444444E1,4.8444443E1,1.7333332E1,2.222222E0,1.7777777E0,4.8888884E0,2.222222E0,1.7777777E1,2.2977777E2,1.2444444E1,7.5555553E0,3.5555553E0,2.1777777E1,5.333333E0,1.6888887E1,2.311111E1,1.8666666E1,1.1911111E2,8.444444E0,1.3777777E1,1.7777777E0,2.0888887E1,1.3777777E1,4.444444E0,2.6666665E0,3.5555553E0,1.5555554E1,1.5111111E1,3.0666664E1,2.222222E0,1.6444443E1,7.9999995E0,1.1111111E1,1.3333333E0,4.8888884E0,4.3555553E1,3.5555553E0,1.3777777E1,1.3333333E0,3.5555553E0,1.6444443E1,1.3333333E0,2.1066666E2,1.911111E1,9.777777E0,2.6666665E0,4.444444E0,3.111111E0,2.0444443E1,1.3333333E0,3.5555553E0,1.7777777E0,3.9999998E0,1.2888888E1,2.1333332E1,1.7777777E0,1.0666666E1,7.9999995E0,8.799999E1,3.1111109E1,5.333333E0,3.111111E0,1.0666666E1,3.111111E0],"tree_param":{"num_deleted":"0","num_feature":"231","num_nodes":"99","size_leaf_vector":"1"}},{"base_weights":[-3.5296608E-2,-5.0190527E-2,7.746559E-1,-1.9176394E-1,2.0921495E-2,-1.5563305E-2,1.0747881E0,-2.2103938E-1,6.893207E-1,-1.4316171E-2,3.0836284E-1,3.8975067E-2,3.1693657E-3,-2.3708306E-1,3.0442957E-2,-1.2823307E-2,9.701349E-1,-1.583616E-1,6.0797203E-2,6.7843515E-1,1.3832128E-1,-3.4013307E-1,-7.523691E-2,3.4824222E-2,1.20591475E-2,-5.949974E-2,-4.292118E-1,1.739843E-1,-8.583722E-2,2.1868375E-1,1.0824232E0,5.2284485E-1,-1.4016293E-2,3.1747126E-3,-1.1792893E-2,2.6264183E-2,-3.542483E-3,-4.090925E-3,9.154211E-3,-1.4697739E-2,1.25268325E-2,6.561596E-3,-1.982214E-2,-5.7351077E-3,1.43636335E-2,2.1761231E-2,-7.38551E-3,1.239539E-2,3.7542004E-2,-1.2813421E-2,2.104531E-2,5.5181077E-3,-9.850139E-3],"categories":[],"categories_nodes":[],"categories_segments":[],"categories_sizes":[],"default_left":[0,0,0,0,0,0,0,0,0,0,0,0,0,0,0,0,0,0,0,0,0,0,0,0,0,0,0,0,0,0,0,0,0,0,0,0,0,0,0,0,0,0,0,0,0,0,0,0,0,0,0,0,0],"id":3,"left_children":[1,3,5,7,9,-1,11,13,15,17,19,-1,-1,21,-1,-1,23,25,27,29,31,33,35,-1,-1,37,39,41,43,45,47,49,51,-1,-1,-1,-1,-1,-1,-1,-1,-1,-1,-1,-1,-1,-1,-1,-1,-1,-1,-1,-1],"loss_changes":[9.0527E0,7.4001865E0,5.818801E0,6.4908113E0,4.9667115E0,0E0,2.325634E0,4.97101E0,2.9690003E0,4.7419195E0,3.275651E0,0E0,0E0,3.9161415E0,0E0,0E0,2.716074E-1,3.995832E0,4.798135E0,2.8467321E0,2.2299943E0,3.4454975E0,3.900803E0,0E0,0E0,3.1578445E0,2.2608652E0,6.230385E0,7.5981154E0,2.3027053E0,4.5361614E-1,2.131461E0,1.811984E0,0E0,0E0,0E0,0E0,0E0,0E0,0E0,0E0,0E0,0E0,0E0,0E0,0E0,0E0,0E0,0E0,0E0,0E0,0E0,0E0],"parents":[2147483647,0,0,1,1,2,2,3,3,4,4,6,6,7,7,8,8,9,9,10,10,13,13,16,16,17,17,18,18,19,19,20,20,21,21,22,22,25,25,26,26,27,27,28,28,29,29,30,30,31,31,32,32],"right_children":[2,4,6,8,10,-1,12,14,16,18,20,-1,-1,22,-1,-1,24,26,28,30,32,34,36,-1,-1,38,40,42,44,46,48,50,52,-1,-1,-1,-1,-1,-1,-1,-1,-1,-1,-1,-1,-1,-1,-1,-1,-1,-1,-1,-1],"split_conditions":[1E0,2.1354157E-1,-7.2647655E-1,2.4E0,7.4E-1,-1.5563305E-2,6.2E-1,1.1914353E0,7.2061276E-1,-3.0696535E-1,-1.5674599E-1,3.8975067E-2,3.1693657E-3,-5.2861582E-2,3.0442957E-2,-1.2823307E-2,-3.4220102E-1,1.6921476E-1,5.73886E-1,-3.9850417E-1,1.9875613E-1,9.284276E-3,7.9384927E-19,3.4824222E-2,1.20591475E-2,5.769993E-1,8.3951265E-1,1.6E-1,5E-1,-1.1957453E-1,-8.2089883E-1,3.455474E-3,6.635068E1,3.1747126E-3,-1.1792893E-2,2.6264183E-2,-3.542483E-3,-4.090925E-3,9.154211E-3,-1.4697739E-2,1.25268325E-2,6.561596E-3,-1.982214E-2,-5.7351077E-3,1.43636335E-2,2.1761231E-2,-7.38551E-3,1.239539E-2,3.7542004E-2,-1.2813421E-2,2.104531E-2,5.5181077E-3,-9.850139E-3],"split_indices":[27,223,54,130,126,0,132,80,155,4,4,0,0,71,0,0,4,78,157,4,206,160,228,0,0,54,62,116,168,1,71,4,170,0,0,0,0,0,0,0,0,0,0,0,0,0,0,0,0,0,0,0,0],"split_type":[0,0,0,0,0,0,0,0,0,0,0,0,0,0,0,0,0,0,0,0,0,0,0,0,0,0,0,0,0,0,0,0,0,0,0,0,0,0,0,0,0,0,0,0,0,0,0,0,0,0,0,0,0],"sum_hessian":[7.4620605E2,7.336532E2,1.2552847E1,2.447319E2,4.8892133E2,2.227E0,1.0325847E1,2.3758684E2,7.1450753E0,4.3637585E2,5.254547E1,8.108087E0,2.2177606E0,2.3533972E2,2.2471137E0,1.3307374E0,5.8143377E0,1.4918138E2,2.8719446E2,1.56013775E1,3.694409E1,1.4311472E2,9.2225E1,3.572379E0,2.2419589E0,1.10183464E2,3.8997913E1,1.6197751E2,1.2521695E2,8.017976E0,7.583402E0,9.792972E0,2.7151121E1,1.5086529E1,1.2802818E2,3.1390622E0,8.908594E1,9.1517944E1,1.8665524E1,3.6782093E1,2.2158208E0,1.544386E2,7.5389085E0,1.0608736E2,1.9129597E1,3.5682774E0,4.449698E0,2.2232528E0,5.3601494E0,1.3301305E0,8.462841E0,1.6913908E1,1.0237213E1],"tree_param":{"num_deleted":"0","num_feature":"231","num_nodes":"53","size_leaf_vector":"1"}},{"base_weights":[-5.1967178E-2,-8.402028E-2,2.334778E-1,-2.324705E-1,-1.5032831E-2,-4.5780274E-1,3.2809997E-1,3.035612E-1,-2.6376477E-1,-2.9951515E-2,9.7205555E-1,-1.914323E-2,-2.2434842E-4,-3.4470746E-1,3.9787078E-1,3.1031212E-2,3.456701E-2,-2.8345975E-1,4.9312818E-1,-8.744731E-2,1.6305965E-1,-6.0704584E-5,3.6308363E-2,-1.2816714E-2,1.2770919E-2,-1.838604E-2,1.2888251E-2,3.2976988E-1,3.484945E-2,-1.6295632E-2,3.2225302E-1,-3.1773853E-1,1.3127851E-1,-6.083704E-3,3.1006971E-2,-2.5887805E-1,-1.0394235E-2,3.4212962E-1,-2.8994832E-2,6.888878E-1,2.0401782E-1,1.6901324E-2,-1.2797568E-2,3.4769585E-3,-1.0623297E-2,1.9007543E-2,-5.6970194E-3,6.2599045E-4,-1.0796265E-2,1.08522335E-2,-2.0798936E-3,2.1877218E-2,4.271959E-3,-3.6685402E-3,2.8275825E-2,-1.2834256E-2,2.5065674E-2,7.005691E-4,1.4930855E-2],"categories":[],"categories_nodes":[],"categories_segments":[],"categories_sizes":[],"default_left":[0,0,0,0,0,0,0,0,0,0,0,0,0,0,0,0,0,0,0,0,0,0,0,0,0,0,0,0,0,0,0,0,0,0,0,0,0,0,0,0,0,0,0,0,0,0,0,0,0,0,0,0,0,0,0,0,0,0,0],"id":4,"left_children":[1,3,5,7,9,11,13,15,17,19,21,-1,23,25,27,-1,29,31,33,35,37,-1,-1,-1,-1,-1,-1,39,-1,-1,41,43,45,-1,-1,47,49,51,53,55,57,-1,-1,-1,-1,-1,-1,-1,-1,-1,-1,-1,-1,-1,-1,-1,-1,-1,-1],"loss_changes":[6.783141E0,6.810363E0,5.0490537E0,3.6199636E0,6.7340684E0,7.7825093E-1,3.2569008E0,2.3439593E0,3.1199942E0,5.002544E0,1.5824523E0,0E0,8.4880936E-1,1.6711297E0,2.7730846E0,0E0,1.817716E0,2.8208685E0,2.2537677E0,4.5807276E0,3.570029E0,0E0,0E0,0E0,0E0,0E0,0E0,2.4384465E0,0E0,0E0,1.5449665E0,2.8934631E0,2.6421237E0,0E0,0E0,3.0463338E0,5.298177E0,4.0441184E0,4.725766E0,2.713811E0,2.307928E0,0E0,0E0,0E0,0E0,0E0,0E0,0E0,0E0,0E0,0E0,0E0,0E0,0E0,0E0,0E0,0E0,0E0,0E0],"parents":[2147483647,0,0,1,1,2,2,3,3,4,4,5,5,6,6,7,7,8,8,9,9,10,10,12,12,13,13,14,14,16,16,17,17,18,18,19,19,20,20,27,27,30,30,31,31,32,32,35,35,36,36,37,37,38,38,39,39,40,40],"right_children":[2,4,6,8,10,12,14,16,18,20,22,-1,24,26,28,-1,30,32,34,36,38,-1,-1,-1,-1,-1,-1,40,-1,-1,42,44,46,-1,-1,48,50,52,54,56,58,-1,-1,-1,-1,-1,-1,-1,-1,-1,-1,-1,-1,-1,-1,-1,-1,-1,-1],"split_conditions":[1.4690809E-1,2.1354157E-1,6.982836E-1,5.551115E-17,1E0,2.3710802E-1,-6.772748E1,3.7651546E-2,4.2E-1,8.82835E7,4.1128106E-2,-1.914323E-2,-5.486962E-1,3.103696E-1,1.0186665E0,3.1031212E-2,0E0,1.53197E2,-3.9390642E-2,2.1703456E-1,-1.6278377E-2,-6.0704584E-5,3.6308363E-2,-1.2816714E-2,1.2770919E-2,-1.838604E-2,1.2888251E-2,-5.874776E-1,3.484945E-2,-1.6295632E-2,-7.120533E-1,1E-1,-1.7073913E-1,-6.083704E-3,3.1006971E-2,-6.969312E-1,-3.0880532E-1,-3.5781658E-1,1.7053412E2,8.063305E-2,7E-1,1.6901324E-2,-1.2797568E-2,3.4769585E-3,-1.0623297E-2,1.9007543E-2,-5.6970194E-3,6.2599045E-4,-1.0796265E-2,1.08522335E-2,-2.0798936E-3,2.1877218E-2,4.271959E-3,-3.6685402E-3,2.8275825E-2,-1.2834256E-2,2.5065674E-2,7.005691E-4,1.4930855E-2],"split_indices":[172,223,221,189,26,4,15,201,134,152,162,0,3,2,158,0,67,15,11,206,131,0,0,0,0,0,0,54,0,0,71,223,86,0,0,6,78,54,15,77,130,0,0,0,0,0,0,0,0,0,0,0,0,0,0,0,0,0,0],"split_type":[0,0,0,0,0,0,0,0,0,0,0,0,0,0,0,0,0,0,0,0,0,0,0,0,0,0,0,0,0,0,0,0,0,0,0,0,0,0,0,0,0,0,0,0,0,0,0,0,0,0,0,0,0,0,0,0,0,0,0],"sum_hessian":[7.382317E2,6.6433777E2,7.389396E1,2.1002563E2,4.5431213E2,8.434666E0,6.54593E1,1.11053095E1,1.9892032E2,4.4850317E2,5.8089433E0,5.7674994E0,2.667166E0,5.7801456E0,5.967915E1,2.2223136E0,8.882996E0,1.9448515E2,4.435173E0,3.4598514E2,1.02518036E2,1.3363208E0,4.4726224E0,1.3303711E0,1.3367949E0,4.448164E0,1.3319817E0,5.6108128E1,3.5710206E0,2.657619E0,6.2253766E0,1.7985384E2,1.4631318E1,2.2118077E0,2.2233653E0,1.065558E2,2.3942934E2,5.2648033E1,4.9870003E1,1.3390348E1,4.271778E1,4.8964086E0,1.328968E0,1.3748687E1,1.6610515E2,5.3271966E0,9.304121E0,2.8475975E1,7.807983E1,3.2032074E1,2.0739726E2,1.7016394E1,3.563164E1,4.6298363E1,3.571641E0,1.3316505E0,1.2058698E1,2.7115984E1,1.5601795E1],"tree_param":{"num_deleted":"0","num_feature":"231","num_nodes":"59","size_leaf_vector":"1"}},{"base_weights":[9.121543E-2,2.7932838E-1,1.6935952E-2,5.876524E-1,1.9630992E-1,9.643682E-2,-1.5240149E-1,8.506109E-1,1.8619496E-1,1.7212205E-1,3.3422712E-2,-2.4715053E-2,2.1231279E-1,3.7549615E-1,-2.2443798E-1,1.0516468E0,1.7235303E-1,2.6167486E-2,-6.375953E-3,7.433717E-2,3.7937206E-1,1.9034843E-1,-2.0435192E-1,-1.613382E-1,3.0205867E-1,-3.4211734E-1,6.683566E-1,-3.1020278E-1,9.101804E-3,2.6067865E-1,1.1576656E0,3.8181794E-1,-1.2965064E-2,2.4032395E-1,-4.5688877E-1,5.5739033E-1,-8.289083E-3,2.748857E-1,3.301207E-2,5.3103287E-2,5.4549754E-1,-3.3166975E-1,2.8053677E-1,4.6612242E-1,-2.8239933E-1,4.3576634E-1,1.0142704E-1,1.0787664E-3,-1.6959285E-2,9.4916433E-1,-3.2534823E-1,1.8009791E-2,-3.3044982E-1,-2.5650498E-1,4.1297984E-1,-1.3001947E-2,2.527297E-2,3.7452597E-2,6.88335E-3,2.4120836E-2,-6.4778384E-3,-2.538136E-3,3.0946983E-2,-1.19023905E-4,-1.7661478E-2,4.6878364E-3,2.6244652E-2,2.6224367E-3,-1.4093444E-2,-7.452618E-3,1.1844166E-2,8.0882255E-3,-5.9775454E-3,-4.4601783E-3,2.0433985E-2,-4.019316E-3,-1.6260907E-2,1.848964E-2,-1.1662759E-2,2.824626E-2,-1.44687705E-2,-1.8951388E-2,1.1169886E-3,-1.1739562E-2,1.5182261E-2,2.0376695E-4,1.7115347E-2,-1.2827463E-2,1.2868937E-2,3.3420652E-2,7.974673E-3,-4.80153E-6,-1.4436742E-2,-1.0950263E-2,7.454977E-3,1.8062692E-2,-1.0342648E-2,5.095477E-3,3.3966035E-2],"categories":[],"categories_nodes":[],"categories_segments":[],"categories_sizes":[],"default_left":[0,0,0,0,0,0,0,0,0,0,0,0,0,0,0,0,0,0,0,0,0,0,0,0,0,0,0,0,0,0,0,0,0,0,0,0,0,0,0,0,0,0,0,0,0,0,0,0,0,0,0,0,0,0,0,0,0,0,0,0,0,0,0,0,0,0,0,0,0,0,0,0,0,0,0,0,0,0,0,0,0,0,0,0,0,0,0,0,0,0,0,0,0,0,0,0,0,0,0],"id":5,"left_children":[1,3,5,7,9,11,13,15,17,19,-1,21,23,25,27,29,31,-1,33,35,37,39,41,43,45,47,49,51,53,55,57,59,-1,61,63,65,67,69,-1,71,73,75,77,79,81,83,85,87,-1,89,91,-1,93,95,97,-1,-1,-1,-1,-1,-1,-1,-1,-1,-1,-1,-1,-1,-1,-1,-1,-1,-1,-1,-1,-1,-1,-1,-1,-1,-1,-1,-1,-1,-1,-1,-1,-1,-1,-1,-1,-1,-1,-1,-1,-1,-1,-1,-1],"loss_changes":[1.0460278E1,5.309883E0,7.257464E0,4.5352554E0,3.5485902E0,5.1535587E0,6.635381E0,3.4436493E0,2.499465E0,3.3227024E0,0E0,6.999741E0,6.3379154E0,4.6545076E0,3.0515466E0,1.4013958E0,1.0861018E0,0E0,1.8583151E0,4.538138E0,3.6724463E0,3.9932802E0,6.1836205E0,2.9402387E0,4.021929E0,5.1879686E-1,4.576565E0,2.2512903E0,4.59587E0,1.8555424E0,1.1977959E0,1.6709926E0,0E0,2.8693094E0,3.506168E-1,1.9777002E0,4.368491E0,3.0736804E0,0E0,3.366145E0,2.2567377E0,3.1960049E0,4.9723744E0,3.3205547E0,3.553621E0,5.4697E0,2.7448754E0,8.554444E-1,0E0,1.0759869E0,2.0848268E-1,0E0,2.2831478E0,2.1675277E0,2.7783933E0,0E0,0E0,0E0,0E0,0E0,0E0,0E0,0E0,0E0,0E0,0E0,0E0,0E0,0E0,0E0,0E0,0E0,0E0,0E0,0E0,0E0,0E0,0E0,0E0,0E0,0E0,0E0,0E0,0E0,0E0,0E0,0E0,0E0,0E0,0E0,0E0,0E0,0E0,0E0,0E0,0E0,0E0,0E0,0E0],"parents":[2147483647,0,0,1,1,2,2,3,3,4,4,5,5,6,6,7,7,8,8,9,9,11,11,12,12,13,13,14,14,15,15,16,16,18,18,19,19,20,20,21,21,22,22,23,23,24,24,25,25,26,26,27,27,28,28,29,29,30,30,31,31,33,33,34,34,35,35,36,36,37,37,39,39,40,40,41,41,42,42,43,43,44,44,45,45,46,46,47,47,49,49,50,50,52,52,53,53,54,54],"right_children":[2,4,6,8,10,12,14,16,18,20,-1,22,24,26,28,30,32,-1,34,36,38,40,42,44,46,48,50,52,54,56,58,60,-1,62,64,66,68,70,-1,72,74,76,78,80,82,84,86,88,-1,90,92,-1,94,96,98,-1,-1,-1,-1,-1,-1,-1,-1,-1,-1,-1,-1,-1,-1,-1,-1,-1,-1,-1,-1,-1,-1,-1,-1,-1,-1,-1,-1,-1,-1,-1,-1,-1,-1,-1,-1,-1,-1,-1,-1,-1,-1,-1,-1],"split_conditions":[4.8930533E-2,-1.04E-1,3.471613E-1,1.1104616E0,3.389886E1,6.643649E-2,7.2496366E-3,7.880602E-2,3.7363082E-1,4.8817554E-1,3.3422712E-2,1.8746074E-9,-7.1632797E-1,-6.4707005E-1,6.0827625E-1,2.3000065E-2,5.460152E-1,2.6167486E-2,4.9387507E-2,-5.53576E-1,4.935585E-1,9.3137294E-2,1.68E0,3.584715E-1,8.069171E-2,1.6717198E0,8.9004713E-1,1.6929114E-1,8.951583E-2,-7.073123E-1,6.010733E-1,1.1572803E-1,-1.2965064E-2,3.454346E-2,-2.0225796E-1,-5.898115E-2,3.8609347E-1,-7.175536E-1,3.301207E-2,2.1509232E-2,8.013894E-1,7.3529524E-1,1.0081667E0,-6.439535E-1,7.089767E-2,1.6960166E-2,1.22823276E-1,-7.8850645E-1,-1.6959285E-2,8.738421E-1,-1.3199391E0,1.8009791E-2,1.2401806E-1,6.289674E-1,-1.5751468E-3,-1.3001947E-2,2.527297E-2,3.7452597E-2,6.88335E-3,2.4120836E-2,-6.4778384E-3,-2.538136E-3,3.0946983E-2,-1.19023905E-4,-1.7661478E-2,4.6878364E-3,2.6244652E-2,2.6224367E-3,-1.4093444E-2,-7.452618E-3,1.1844166E-2,8.0882255E-3,-5.9775454E-3,-4.4601783E-3,2.0433985E-2,-4.019316E-3,-1.6260907E-2,1.848964E-2,-1.1662759E-2,2.824626E-2,-1.44687705E-2,-1.8951388E-2,1.1169886E-3,-1.1739562E-2,1.5182261E-2,2.0376695E-4,1.7115347E-2,-1.2827463E-2,1.2868937E-2,3.3420652E-2,7.974673E-3,-4.80153E-6,-1.4436742E-2,-1.0950263E-2,7.454977E-3,1.8062692E-2,-1.0342648E-2,5.095477E-3,3.3966035E-2],"split_indices":[163,129,13,221,149,225,199,182,207,4,0,75,98,4,207,163,79,0,197,4,191,183,130,157,95,226,4,157,225,0,0,182,0,196,0,1,131,54,0,199,221,208,221,4,216,172,196,0,0,221,1,0,156,207,1,0,0,0,0,0,0,0,0,0,0,0,0,0,0,0,0,0,0,0,0,0,0,0,0,0,0,0,0,0,0,0,0,0,0,0,0,0,0,0,0,0,0,0,0],"split_type":[0,0,0,0,0,0,0,0,0,0,0,0,0,0,0,0,0,0,0,0,0,0,0,0,0,0,0,0,0,0,0,0,0,0,0,0,0,0,0,0,0,0,0,0,0,0,0,0,0,0,0,0,0,0,0,0,0,0,0,0,0,0,0,0,0,0,0,0,0,0,0,0,0,0,0,0,0,0,0,0,0,0,0,0,0,0,0,0,0,0,0,0,0,0,0,0,0,0,0],"sum_hessian":[7.479486E2,2.109519E2,5.369967E2,4.3461346E1,1.6749055E2,3.6572565E2,1.7127107E2,2.5584463E1,1.7876883E1,1.6434677E2,3.143777E0,1.7917714E2,1.865485E2,2.005938E1,1.512117E2,1.9310354E1,6.274108E0,3.144558E0,1.4732325E1,1.1258535E2,5.1761425E1,8.152035E1,9.76568E1,3.5974277E1,1.5057422E2,5.76496E0,1.429442E1,1.1035634E2,4.0855354E1,2.6911862E0,1.661917E1,4.933175E0,1.3409328E0,9.820949E0,4.9113765E0,1.5605556E1,9.69798E1,4.641635E1,5.3450727E0,5.9627285E1,2.1893063E1,7.7597824E1,2.005897E1,5.3572598E0,3.0617018E1,8.965388E1,6.0920338E1,2.6639102E0,3.1010497E0,1.117994E1,3.1144798E0,1.777346E0,1.08578995E2,2.4866814E1,1.5988542E1,1.3434094E0,1.3477767E0,1.4824758E1,1.794411E0,2.688845E0,2.24433E0,7.5950627E0,2.2258856E0,1.3394606E0,3.5719159E0,7.553136E0,8.05242E0,8.0993965E1,1.5985832E1,8.453853E0,3.79625E1,3.20565E1,2.7570786E1,3.5628042E0,1.833026E1,4.0847275E1,3.675055E1,1.3410226E1,6.648743E0,3.5732927E0,1.7839669E0,1.4162739E1,1.6454279E1,6.6664867E0,8.298739E1,5.1537464E1,9.3828745E0,1.3311044E0,1.3328058E0,8.49923E0,2.68071E0,1.333523E0,1.7809567E0,1.0281145E2,5.767547E0,1.7750075E0,2.3091805E1,1.2873015E1,3.115527E0],"tree_param":{"num_deleted":"0","num_feature":"231","num_nodes":"99","size_leaf_vector":"1"}},{"base_weights":[-2.4462076E-2,-7.195087E-2,1.7553589E-1,-8.013939E-2,3.380612E-2,2.632709E-2,3.285399E-1,-5.2786425E-2,-3.655921E-1,1.6481192E-1,-2.6186982E-1,4.4754264E-1,-1.8743813E-1,-1.011462E-1,1.7861348E-1,5.455366E-1,-4.260766E-1,-3.3032247E-1,2.6676244E-1,-4.3487057E-1,2.4323834E-1,5.0502235E-1,-1.6146384E-2,2.8851938E-2,-4.363198E-1,-3.5382283E-1,-4.9961105E-2,-2.7409312E-1,3.7318334E-1,-2.9107741E-5,2.5764298E-2,-5.2070916E-1,2.4059644E-1,-5.0602984E-1,7.4082785E-3,-1.3306247E-1,4.2305413E-1,-4.2398542E-2,-2.0423245E-2,-1.5493454E-2,7.2537076E-1,5.725822E-1,-3.6426398E-1,1.2966037E-2,-5.8410025E-1,-1.3226226E-2,4.2406553E-3,-2.281292E-3,1.4637274E-2,1.2188326E-2,-1.1149644E-2,2.6167829E-2,3.7083947E-3,-1.7384157E-2,8.251418E-3,-6.32634E-3,1.522432E-2,7.445831E-5,-1.8642986E-2,-1.5135922E-2,9.251539E-3,1.8250119E-2,-4.876886E-3,1.2149719E-2,-1.2042054E-2,-7.084306E-5,3.0815609E-2,3.2719683E-2,1.3498703E-2,-1.5491011E-2,6.810354E-5,1.2455804E-4,-2.002517E-2],"categories":[],"categories_nodes":[],"categories_segments":[],"categories_sizes":[],"default_left":[0,0,0,0,0,0,0,0,0,0,0,0,0,0,0,0,0,0,0,0,0,0,0,0,0,0,0,0,0,0,0,0,0,0,0,0,0,0,0,0,0,0,0,0,0,0,0,0,0,0,0,0,0,0,0,0,0,0,0,0,0,0,0,0,0,0,0,0,0,0,0,0,0],"id":6,"left_children":[1,3,5,7,-1,9,11,13,15,17,19,21,23,25,27,29,31,33,35,37,39,41,-1,-1,43,45,47,49,51,-1,-1,53,55,57,-1,59,61,63,-1,-1,65,67,69,-1,71,-1,-1,-1,-1,-1,-1,-1,-1,-1,-1,-1,-1,-1,-1,-1,-1,-1,-1,-1,-1,-1,-1,-1,-1,-1,-1,-1,-1],"loss_changes":[7.0329947E0,5.9610333E0,3.2360082E0,4.6258144E0,0E0,2.9583385E0,4.387186E0,6.1064024E0,3.0900326E0,2.6095119E0,2.2111225E0,3.5153065E0,4.377733E0,5.810778E0,8.418182E0,6.2855625E-1,3.228427E0,1.035338E0,2.6792011E0,1.7377656E0,2.8608425E0,3.4155064E0,0E0,0E0,1.8007979E0,3.327506E0,5.3106046E0,2.0730321E0,8.169325E0,0E0,0E0,2.1882763E0,9.261109E-1,4.2459214E-1,0E0,2.2147439E0,3.3992505E0,1.4663604E0,0E0,0E0,1.0058439E0,2.7528439E0,2.5478506E-1,0E0,5.294461E-1,0E0,0E0,0E0,0E0,0E0,0E0,0E0,0E0,0E0,0E0,0E0,0E0,0E0,0E0,0E0,0E0,0E0,0E0,0E0,0E0,0E0,0E0,0E0,0E0,0E0,0E0,0E0,0E0],"parents":[2147483647,0,0,1,1,2,2,3,3,5,5,6,6,7,7,8,8,9,9,10,10,11,11,12,12,13,13,14,14,15,15,16,16,17,17,18,18,19,19,20,20,21,21,24,24,25,25,26,26,27,27,28,28,31,31,32,32,33,33,35,35,36,36,37,37,40,40,41,41,42,42,44,44],"right_children":[2,4,6,8,-1,10,12,14,16,18,20,22,24,26,28,30,32,34,36,38,40,42,-1,-1,44,46,48,50,52,-1,-1,54,56,58,-1,60,62,64,-1,-1,66,68,70,-1,72,-1,-1,-1,-1,-1,-1,-1,-1,-1,-1,-1,-1,-1,-1,-1,-1,-1,-1,-1,-1,-1,-1,-1,-1,-1,-1,-1,-1],"split_conditions":[4.6647614E-1,1.553087E0,-2.6271987E-1,8.1E-1,3.380612E-2,2.9903847E-1,6.2E-1,3.8609347E-1,-1.5E1,-1.2165413E0,5.98938E-1,1.8E0,4.7370878E-1,2E-2,-2.882946E-1,1.3232288E-1,9.457272E-1,7.540733E-1,8.42694E-3,-6.452921E-1,-1.0365341E0,8.3E-1,-1.6146384E-2,2.8851938E-2,-4.205278E-2,2.3142357E-1,4.9959984E-1,-3.311204E-1,1.873639E-1,-2.9107741E-5,2.5764298E-2,3.4863615E-4,7.347752E-1,-1.2761612E-1,7.4082785E-3,3.969042E-2,3.476158E-1,3.455474E-3,-2.0423245E-2,-1.5493454E-2,-4.8231456E-1,3.9919592E-2,4E-1,1.2966037E-2,-3.8312445E2,-1.3226226E-2,4.2406553E-3,-2.281292E-3,1.4637274E-2,1.2188326E-2,-1.1149644E-2,2.6167829E-2,3.7083947E-3,-1.7384157E-2,8.251418E-3,-6.32634E-3,1.522432E-2,7.445831E-5,-1.8642986E-2,-1.5135922E-2,9.251539E-3,1.8250119E-2,-4.876886E-3,1.2149719E-2,-1.2042054E-2,-7.084306E-5,3.0815609E-2,3.2719683E-2,1.3498703E-2,-1.5491011E-2,6.810354E-5,1.2455804E-4,-2.002517E-2],"split_indices":[166,167,54,146,0,206,132,131,87,1,81,52,166,114,54,11,207,154,189,1,61,146,0,0,54,162,161,81,90,0,0,74,54,77,0,182,81,4,0,0,78,199,52,0,76,0,0,0,0,0,0,0,0,0,0,0,0,0,0,0,0,0,0,0,0,0,0,0,0,0,0,0,0],"split_type":[0,0,0,0,0,0,0,0,0,0,0,0,0,0,0,0,0,0,0,0,0,0,0,0,0,0,0,0,0,0,0,0,0,0,0,0,0,0,0,0,0,0,0,0,0,0,0,0,0,0,0,0,0,0,0,0,0,0,0,0,0,0,0,0,0,0,0,0,0,0,0,0,0],"sum_hessian":[7.3816766E2,5.9704236E2,1.4112532E2,5.9391876E2,3.1235957E0,7.204218E1,6.908313E1,5.430655E2,5.08533E1,4.8949173E1,2.3093008E1,5.624393E1,1.2839203E1,4.4965576E2,9.3409706E1,2.666477E0,4.818682E1,7.975451E0,4.097372E1,1.7305044E1,5.7879643E0,5.3605835E1,2.6380932E0,1.7757524E0,1.1063451E1,7.474793E1,3.7490784E2,2.7955889E1,6.545381E1,1.3348056E0,1.3316714E0,4.2388783E1,5.798038E0,6.2089715E0,1.7664795E0,1.15570755E1,2.9416647E1,7.1175675E0,1.0187476E1,2.2195253E0,3.5684392E0,5.0056805E1,3.5490317E0,1.3288783E0,9.734572E0,6.3665344E1,1.1082589E1,3.5838782E2,1.6520027E1,3.1091495E0,2.4846739E1,2.0988012E1,4.44658E1,3.972694E1,2.661842E0,2.232027E0,3.5660112E0,1.3294369E0,4.8795347E0,6.1983743E0,5.358701E0,2.2316986E1,7.0996604E0,3.1116893E0,4.0058784E0,1.3369623E0,2.2314768E0,8.069628E0,4.1987175E1,2.219294E0,1.3297378E0,1.3268213E0,8.407751E0],"tree_param":{"num_deleted":"0","num_feature":"231","num_nodes":"73","size_leaf_vector":"1"}},{"base_weights":[-5.3388417E-2,7.873562E-2,-1.323746E-1,-1.5609309E-2,4.0379208E-1,-7.8488484E-2,-3.5443336E-1,-7.18219E-2,4.7441706E-1,8.209181E-1,2.3675711E-1,-2.8286842E-1,-2.7527627E-2,1.8446569E-1,-3.9620414E-1,9.4337165E-2,-1.9706938E-1,-1.1647911E-1,6.453331E-1,-3.8191937E-3,9.3653816E-1,4.6912056E-1,-1.0219578E-1,-3.2934785E-1,5.08081E-1,-1.2855653E-1,9.880157E-2,-1.478061E-1,5.478415E-1,2.9422447E-1,-4.3004888E-1,-3.318235E-2,5.731987E-1,-3.0303508E-1,1.6797519E-1,2.5388215E-2,-1.7580273E-2,3.2200664E-1,3.6911443E-2,1.0817184E0,-3.8164333E-3,-3.2753614E-4,7.0805514E-1,-3.8508964E-1,3.908405E-1,-3.7834153E-1,3.982165E-1,2.9980887E-3,2.5644999E-2,-2.0133351E-1,1.7564027E-1,2.7201867E-1,-5.718919E-2,-1.4479551E-2,7.24319E-3,2.5809543E-2,2.1791684E-5,2.1773413E-2,-1.2836503E-2,1.1991117E-1,-4.6354395E-1,3.8133152E-3,-1.3452316E-2,3.9312887E-5,3.0994415E-2,1.7272642E-2,-1.0583697E-2,3.0867025E-2,1.2993679E-3,-3.597487E-3,1.848399E-2,1.1917646E-2,3.5367023E-2,-1.3504945E-2,1.4504115E-2,3.8081966E-2,1.04166055E-2,1.2929571E-2,-1.5450916E-2,3.269983E-2,-6.00585E-3,1.7913723E-2,-1.2414697E-2,-3.5700814E-3,2.158655E-2,1.6763343E-2,-7.016898E-3,-8.207256E-3,1.2429953E-2,3.5829588E-3,2.1570977E-2,-9.116865E-3,4.54111E-3,2.570676E-2,-9.8008E-3,-1.4507022E-2,7.374097E-3],"categories":[],"categories_nodes":[],"categories_segments":[],"categories_sizes":[],"default_left":[0,0,0,0,0,0,0,0,0,0,0,0,0,0,0,0,0,0,0,0,0,0,0,0,0,0,0,0,0,0,0,0,0,0,0,0,0,0,0,0,0,0,0,0,0,0,0,0,0,0,0,0,0,0,0,0,0,0,0,0,0,0,0,0,0,0,0,0,0,0,0,0,0,0,0,0,0,0,0,0,0,0,0,0,0,0,0,0,0,0,0,0,0,0,0,0,0],"id":7,"left_children":[1,3,5,7,9,11,13,15,17,19,21,23,25,27,29,31,33,35,37,-1,39,41,43,45,47,49,51,53,55,57,59,61,63,65,67,-1,-1,69,-1,71,-1,73,75,77,79,81,83,-1,-1,85,87,89,91,-1,-1,-1,-1,-1,-1,93,95,-1,-1,-1,-1,-1,-1,-1,-1,-1,-1,-1,-1,-1,-1,-1,-1,-1,-1,-1,-1,-1,-1,-1,-1,-1,-1,-1,-1,-1,-1,-1,-1,-1,-1,-1,-1],"loss_changes":[7.7920094E0,8.581211E0,5.5607357E0,6.0300403E0,4.190669E0,3.9200819E0,2.1196842E0,4.1005E0,2.3507519E0,2.0477486E0,3.6981041E0,2.930365E0,3.8794007E0,9.530275E-1,2.1056547E0,5.2081738E0,4.3896217E0,3.163985E0,2.938673E0,0E0,2.5774593E0,3.1044383E0,2.8940845E0,2.7026844E0,5.6059825E-1,3.7717555E0,3.6684427E0,7.109077E-1,6.254847E-1,1.7289476E0,1.5503435E0,4.586496E0,4.7137284E0,4.0196104E0,2.7327335E0,0E0,0E0,1.7258266E0,0E0,4.6335602E-1,0E0,2.4666607E0,3.2741804E0,1.6007848E0,3.3867717E0,2.5864487E0,9.173118E-1,0E0,0E0,3.5131655E0,3.6642594E0,4.295284E0,3.748484E0,0E0,0E0,0E0,0E0,0E0,0E0,2.0746806E0,1.2081566E0,0E0,0E0,0E0,0E0,0E0,0E0,0E0,0E0,0E0,0E0,0E0,0E0,0E0,0E0,0E0,0E0,0E0,0E0,0E0,0E0,0E0,0E0,0E0,0E0,0E0,0E0,0E0,0E0,0E0,0E0,0E0,0E0,0E0,0E0,0E0,0E0],"parents":[2147483647,0,0,1,1,2,2,3,3,4,4,5,5,6,6,7,7,8,8,9,9,10,10,11,11,12,12,13,13,14,14,15,15,16,16,17,17,18,18,20,20,21,21,22,22,23,23,24,24,25,25,26,26,27,27,28,28,29,29,30,30,31,31,32,32,33,33,34,34,37,37,39,39,41,41,42,42,43,43,44,44,45,45,46,46,49,49,50,50,51,51,52,52,59,59,60,60],"right_children":[2,4,6,8,10,12,14,16,18,20,22,24,26,28,30,32,34,36,38,-1,40,42,44,46,48,50,52,54,56,58,60,62,64,66,68,-1,-1,70,-1,72,-1,74,76,78,80,82,84,-1,-1,86,88,90,92,-1,-1,-1,-1,-1,-1,94,96,-1,-1,-1,-1,-1,-1,-1,-1,-1,-1,-1,-1,-1,-1,-1,-1,-1,-1,-1,-1,-1,-1,-1,-1,-1,-1,-1,-1,-1,-1,-1,-1,-1,-1,-1,-1],"split_conditions":[-3.1558213E-1,1.7467795E-1,1.2E-1,6.1754134E-2,2.1877584E-1,3.6832277E-2,2.4244709E-2,5.271038E-1,-5.0338304E-1,-1.0989002E0,5.1741436E-2,4.8E-1,5.2787166E-2,-3.2143593E-2,1E-1,6.742889E-2,8.149816E-1,3.14149E-1,1E0,-3.8191937E-3,8.735695E-1,6.120834E-1,9.06973E-1,1.0990249E0,4.8E-1,5.2979656E-2,3.7760866E-1,2.5E-1,8.3978754E-1,9.954927E-2,-9.7470576E-1,3.9971687E-2,-7.51339E-1,-1.081632E0,1.0240013E-2,2.5388215E-2,-1.7580273E-2,3.269779E-1,3.6911443E-2,6.795035E-1,-3.8164333E-3,8E-1,8E-2,-1.737169E1,8.9321174E-2,-8.77486E-1,1.9769903E-2,2.9980887E-3,2.5644999E-2,-1.4999982E0,1.1513482E-1,2.6466668E-1,6.9564086E-1,-1.4479551E-2,7.24319E-3,2.5809543E-2,2.1791684E-5,2.1773413E-2,-1.2836503E-2,-1.4318117E-1,2.6278335E-1,3.8133152E-3,-1.3452316E-2,3.9312887E-5,3.0994415E-2,1.7272642E-2,-1.0583697E-2,3.0867025E-2,1.2993679E-3,-3.597487E-3,1.848399E-2,1.1917646E-2,3.5367023E-2,-1.3504945E-2,1.4504115E-2,3.8081966E-2,1.04166055E-2,1.2929571E-2,-1.5450916E-2,3.269983E-2,-6.00585E-3,1.7913723E-2,-1.2414697E-2,-3.5700814E-3,2.158655E-2,1.6763343E-2,-7.016898E-3,-8.207256E-3,1.2429953E-2,3.5829588E-3,2.1570977E-2,-9.116865E-3,4.54111E-3,2.570676E-2,-9.8008E-3,-1.4507022E-2,7.374097E-3],"split_indices":[54,77,116,3,77,162,171,154,1,64,71,206,13,1,223,217,155,158,49,0,0,167,221,167,203,159,54,223,1,194,90,194,54,148,160,0,0,1,0,221,0,126,91,16,215,4,195,0,0,85,1,1,54,0,0,0,0,0,0,0,163,0,0,0,0,0,0,0,0,0,0,0,0,0,0,0,0,0,0,0,0,0,0,0,0,0,0,0,0,0,0,0,0,0,0,0,0],"split_type":[0,0,0,0,0,0,0,0,0,0,0,0,0,0,0,0,0,0,0,0,0,0,0,0,0,0,0,0,0,0,0,0,0,0,0,0,0,0,0,0,0,0,0,0,0,0,0,0,0,0,0,0,0,0,0,0,0,0,0,0,0,0,0,0,0,0,0,0,0,0,0,0,0,0,0,0,0,0,0,0,0,0,0,0,0,0,0,0,0,0,0,0,0,0,0,0,0],"sum_hessian":[7.446503E2,2.7860962E2,4.6604068E2,2.1667381E2,6.193579E1,3.761221E2,8.9918594E1,1.9514186E2,2.1531956E1,1.6590563E1,4.534523E1,7.4158134E1,3.0196396E2,6.222598E0,8.369599E1,8.397868E1,1.11163185E2,4.9022493E0,1.6629705E1,1.7921002E0,1.4798463E1,2.6674765E1,1.8670464E1,7.059338E1,3.5647519E0,1.6777338E2,1.341906E2,3.560296E0,2.662302E0,3.5515459E0,8.014445E1,6.705328E1,1.69254E1,8.628586E1,2.4877327E1,1.3440145E0,3.558235E0,1.17090845E1,4.9206214E0,1.3006461E1,1.7920022E0,9.334124E0,1.7340641E1,1.2002579E1,6.6678853E0,6.6589294E1,4.004088E0,2.2291446E0,1.3356073E0,1.3565662E2,3.2116756E1,6.323198E1,7.095861E1,1.784891E0,1.775405E0,1.3301463E0,1.3321557E0,2.2198205E0,1.3317254E0,4.452832E0,7.569161E1,4.887837E1,1.8174911E1,7.991643E0,8.933756E0,4.0570345E0,8.222882E1,2.2291675E0,2.2648159E1,4.9156504E0,6.7934337E0,2.2496595E0,1.0756802E1,4.8728485E0,4.4612746E0,5.799902E0,1.1540739E1,1.3304015E0,1.0672177E1,2.6678238E0,4.0000615E0,1.7815553E0,6.480774E1,1.7756593E0,2.2284286E0,4.9089313E0,1.3074768E2,1.1093233E1,2.1023521E1,4.8085373E1,1.5146604E1,3.2297085E1,3.866153E1,1.3335476E0,3.1192846E0,7.39232E1,1.768413E0],"tree_param":{"num_deleted":"0","num_feature":"231","num_nodes":"97","size_leaf_vector":"1"}},{"base_weights":[1.00372806E-1,3.3608255E-1,-2.2420146E-2,2.8331834E-1,7.057173E-1,-9.843983E-2,1.9146721E-1,2.4534148E-1,8.6990637E-1,-1.7910304E-2,9.183253E-1,-1.3636598E-1,3.7161502E-1,6.4283335E-1,-6.0357247E-2,2.771973E-1,-2.474954E-1,1.0252271E0,2.405024E-3,-2.82972E-1,1.062003E0,-1.7657326E-1,2.3721616E-1,6.608164E-2,9.792192E-1,-1.5218917E-1,7.495385E-1,6.336337E-2,-2.0738551E-2,3.7995914E-1,1.0911381E-1,-4.2701998E-1,1.7724514E-2,1.1769019E0,-7.379036E-4,-2.6629248E-4,-1.3089369E-2,1.1902249E0,1.460734E-1,-1.0667155E-1,-3.578877E-1,4.7369245E-1,-3.6788622E-1,-5.2195036E-1,4.189018E-1,6.694325E-3,3.4084145E-2,-3.9524552E-1,1.2986412E-2,-1.30402E-2,8.007423E-1,3.0564569E-2,-1.6616723E-2,3.1933777E-2,9.773144E-3,-6.2025855E-3,7.2295256E-3,-3.413197E-3,-1.9108498E-2,3.7647847E-2,1.2142734E-2,1.5808545E-2,3.773748E-2,-1.3073232E-2,1.7449744E-2,-4.277211E-3,1.4959177E-2,2.7557274E-3,-1.3508994E-2,2.0400848E-2,-8.515417E-3,-1.9276278E-2,8.110077E-3,3.305099E-5,-1.896123E-2,3.242629E-3,2.8193083E-2,-1.6304856E-2,2.7349335E-4,2.6165819E-2,1.918287E-3,-8.395E-3,9.623934E-3],"categories":[],"categories_nodes":[],"categories_segments":[],"categories_sizes":[],"default_left":[0,0,0,0,0,0,0,0,0,0,0,0,0,0,0,0,0,0,0,0,0,0,0,0,0,0,0,0,0,0,0,0,0,0,0,0,0,0,0,0,0,0,0,0,0,0,0,0,0,0,0,0,0,0,0,0,0,0,0,0,0,0,0,0,0,0,0,0,0,0,0,0,0,0,0,0,0,0,0,0,0,0,0],"id":8,"left_children":[1,3,5,7,9,11,13,15,17,-1,19,21,23,25,27,29,31,33,-1,35,37,39,41,43,45,47,49,51,-1,53,55,57,-1,59,-1,-1,-1,61,63,65,67,69,71,73,75,-1,-1,77,-1,-1,79,-1,81,-1,-1,-1,-1,-1,-1,-1,-1,-1,-1,-1,-1,-1,-1,-1,-1,-1,-1,-1,-1,-1,-1,-1,-1,-1,-1,-1,-1,-1,-1],"loss_changes":[2.1557554E1,4.775095E0,7.993722E0,4.796427E0,9.187864E0,6.5134373E0,1.4696033E1,3.4065132E0,1.5469885E0,0E0,4.997076E0,5.0916257E0,5.0097265E0,4.038904E0,6.5762067E0,3.4160433E0,2.2744565E0,1.7827396E0,0E0,1.5148675E-1,2.7051563E0,3.815937E0,4.9096622E0,4.214655E0,8.2299614E-1,1.0678381E0,2.831684E0,5.4335427E0,0E0,4.2459755E0,3.2717524E0,6.9344187E-1,0E0,7.3093414E-2,0E0,0E0,0E0,2.9633713E-1,1.3053299E0,4.8717213E0,3.5404568E0,3.9805918E0,1.9023931E0,4.4224477E-1,1.9370918E0,0E0,0E0,3.033626E-1,0E0,0E0,2.029707E0,0E0,5.986138E0,0E0,0E0,0E0,0E0,0E0,0E0,0E0,0E0,0E0,0E0,0E0,0E0,0E0,0E0,0E0,0E0,0E0,0E0,0E0,0E0,0E0,0E0,0E0,0E0,0E0,0E0,0E0,0E0,0E0,0E0],"parents":[2147483647,0,0,1,1,2,2,3,3,4,4,5,5,6,6,7,7,8,8,10,10,11,11,12,12,13,13,14,14,15,15,16,16,17,17,19,19,20,20,21,21,22,22,23,23,24,24,25,25,26,26,27,27,29,29,30,30,31,31,33,33,37,37,38,38,39,39,40,40,41,41,42,42,43,43,44,44,47,47,50,50,52,52],"right_children":[2,4,6,8,10,12,14,16,18,-1,20,22,24,26,28,30,32,34,-1,36,38,40,42,44,46,48,50,52,-1,54,56,58,-1,60,-1,-1,-1,62,64,66,68,70,72,74,76,-1,-1,78,-1,-1,80,-1,82,-1,-1,-1,-1,-1,-1,-1,-1,-1,-1,-1,-1,-1,-1,-1,-1,-1,-1,-1,-1,-1,-1,-1,-1,-1,-1,-1,-1,-1,-1],"split_conditions":[2.1354157E-1,1.0392305E0,5.425864E-1,6.936703E-1,4.824225E-2,2.8E-1,8.5416627E-1,7E-1,8.334098E-1,-1.7910304E-2,1.356466E-1,5.6700814E-1,6.3705035E-2,-1.282214E-1,4.9959984E-1,1.00246586E-1,2.0712315E-1,-3.9077133E-1,2.405024E-3,-4.5438284E-1,3.0989613E-2,2.4268897E-1,1.4126676E-1,-4.2E-1,-5.1366824E-1,2.1644218E-1,-8.7E-1,4.3922424E-2,-2.0738551E-2,2.2144783E-2,1.356466E-1,9.476545E-2,1.7724514E-2,2.4282964E-1,-7.379036E-4,-2.6629248E-4,-1.3089369E-2,-1.4415418E0,2.986264E-1,8.6E-1,1.48055E-2,2.902007E1,5.8E-1,2.8E-1,5.1081132E-2,6.694325E-3,3.4084145E-2,1.245E0,1.2986412E-2,-1.30402E-2,-6.2600374E-9,3.0564569E-2,6.580496E-2,3.1933777E-2,9.773144E-3,-6.2025855E-3,7.2295256E-3,-3.413197E-3,-1.9108498E-2,3.7647847E-2,1.2142734E-2,1.5808545E-2,3.773748E-2,-1.3073232E-2,1.7449744E-2,-4.277211E-3,1.4959177E-2,2.7557274E-3,-1.3508994E-2,2.0400848E-2,-8.515417E-3,-1.9276278E-2,8.110077E-3,3.305099E-5,-1.896123E-2,3.242629E-3,2.8193083E-2,-1.6304856E-2,2.7349335E-4,2.6165819E-2,1.918287E-3,-8.395E-3,9.623934E-3],"split_indices":[223,207,223,95,215,135,223,125,61,0,223,2,197,78,203,197,223,71,0,0,150,63,1,89,73,3,146,217,0,163,223,61,0,4,0,0,0,3,1,146,172,72,144,207,217,0,0,144,0,0,74,0,216,0,0,0,0,0,0,0,0,0,0,0,0,0,0,0,0,0,0,0,0,0,0,0,0,0,0,0,0,0,0],"split_type":[0,0,0,0,0,0,0,0,0,0,0,0,0,0,0,0,0,0,0,0,0,0,0,0,0,0,0,0,0,0,0,0,0,0,0,0,0,0,0,0,0,0,0,0,0,0,0,0,0,0,0,0,0,0,0,0,0,0,0,0,0,0,0,0,0,0,0,0,0,0,0,0,0,0,0,0,0,0,0,0,0,0,0],"sum_hessian":[7.435548E2,2.5408455E2,4.8947025E2,2.2389125E2,3.0193298E1,3.6151913E2,1.2795111E2,2.1160948E2,1.2281761E1,3.9825723E0,2.6210726E1,3.351848E2,2.6334328E1,4.5265408E1,8.26857E1,1.9917296E2,1.243652E1,1.0014073E1,2.267687E0,2.6964083E0,2.3514318E1,3.0309152E2,3.209329E1,1.8260704E1,8.073626E0,5.3059998E0,3.9959408E1,6.988191E1,1.2803791E1,1.2282216E2,7.63508E1,1.0647069E1,1.7894499E0,8.64415E0,1.3699238E0,1.346833E0,1.3495753E0,2.036406E1,3.1502585E0,2.1990167E2,8.318985E1,2.32315E1,8.861789E0,6.6680126E0,1.159269E1,1.8039206E0,6.2697043E0,3.9779012E0,1.3280987E0,1.3457866E0,3.861362E1,4.491175E0,6.539073E1,7.6421695E0,1.1517999E2,2.2320078E1,5.4030724E1,4.8909707E0,5.7560987E0,7.2829466E0,1.3612032E0,2.6993241E0,1.7664736E1,1.3485069E0,1.8017516E0,2.0831082E2,1.1590859E1,1.4180952E1,6.9008896E1,1.8338774E1,4.8927274E0,6.1908226E0,2.6709657E0,1.3315719E0,5.3364406E0,8.016542E0,3.5761483E0,2.6589715E0,1.3189297E0,3.5032555E1,3.581067E0,3.68302E1,2.8560535E1],"tree_param":{"num_deleted":"0","num_feature":"231","num_nodes":"83","size_leaf_vector":"1"}},{"base_weights":[-5.0975796E-2,-8.466982E-2,1.7339507E-1,1.3574721E-1,-1.2069242E-1,-3.158829E-1,2.8185397E-1,-8.7626465E-2,3.3797923E-1,-3.686097E-1,-8.667775E-2,-5.7632506E-1,3.273429E-2,1.6683525E-1,1.1017857E0,-1.5990274E-1,6.421598E-1,4.03121E-2,6.095866E-1,6.1586946E-1,-4.283048E-1,-3.833502E-2,-2.8105146E-1,2.2579738E-4,-1.9897396E-2,2.3903455E-1,-1.4487157E-2,-9.264021E-2,3.6842123E-1,3.817042E-2,6.979437E-3,6.971695E-2,-4.7030538E-1,2.8174348E-2,2.1872454E-4,3.0984545E-1,-3.1075403E-1,8.1707036E-1,8.3306484E-2,2.7722575E-2,-4.3210978E-4,-2.7790293E-1,-6.0696274E-1,-5.664127E-2,6.033934E-1,2.5485609E-2,-3.060152E-1,-2.6825944E-1,6.2801105E-1,9.360844E-2,-4.2225432E-1,5.1910466E-1,-2.8659979E-1,5.7109795E-3,-1.6955214E-2,-2.0632278E-2,6.174174E-3,2.6542604E-2,1.8366291E-3,-1.3811007E-2,1.2867893E-2,3.2116883E-2,9.28595E-3,-4.7753653E-3,1.8264951E-2,-1.0333221E-2,6.0722777E-3,1.2859251E-2,-2.026067E-2,-2.0245442E-3,3.1614747E-2,2.384238E-2,-1.296504E-2,-9.950152E-3,2.5435504E-2,1.9719852E-4,-1.2814013E-2,2.8252685E-2,-3.6953297E-4,-7.231768E-3,1.0062663E-2,4.938555E-3,-1.9686995E-2,2.2559559E-2,3.8163667E-3,-1.8527942E-2,1.1950028E-2],"categories":[],"categories_nodes":[],"categories_segments":[],"categories_sizes":[],"default_left":[0,0,0,0,0,0,0,0,0,0,0,0,0,0,0,0,0,0,0,0,0,0,0,0,0,0,0,0,0,0,0,0,0,0,0,0,0,0,0,0,0,0,0,0,0,0,0,0,0,0,0,0,0,0,0,0,0,0,0,0,0,0,0,0,0,0,0,0,0,0,0,0,0,0,0,0,0,0,0,0,0,0,0,0,0,0,0],"id":9,"left_children":[1,3,5,7,9,11,13,15,17,19,21,23,25,27,29,31,33,35,37,39,41,43,45,-1,-1,47,-1,49,51,-1,-1,53,55,-1,-1,57,59,61,63,-1,-1,65,67,69,71,-1,73,75,77,79,81,83,85,-1,-1,-1,-1,-1,-1,-1,-1,-1,-1,-1,-1,-1,-1,-1,-1,-1,-1,-1,-1,-1,-1,-1,-1,-1,-1,-1,-1,-1,-1,-1,-1,-1,-1],"loss_changes":[5.5477214E0,5.074172E0,5.177394E0,4.0930247E0,4.5896587E0,1.6413704E0,7.2680187E0,2.39903E0,3.8089275E0,4.1315727E0,4.5299788E0,5.2681136E-1,1.028965E0,3.7203927E0,1.1185474E0,2.9132242E0,7.70437E-1,2.338254E0,2.6314802E0,8.2391036E-1,1.5145245E0,4.5939755E0,2.9719424E0,0E0,0E0,1.5107996E0,0E0,1.9801852E0,4.083212E0,0E0,0E0,1.9536453E0,2.6867533E0,0E0,0E0,1.9331968E0,1.3915086E0,1.9353333E0,1.1296471E0,0E0,0E0,1.2155926E0,2.257556E0,4.6263094E0,2.4936993E0,0E0,3.0861816E0,1.6231146E-1,8.452606E-1,1.7817155E0,1.7001648E0,2.8944159E0,2.0822308E0,0E0,0E0,0E0,0E0,0E0,0E0,0E0,0E0,0E0,0E0,0E0,0E0,0E0,0E0,0E0,0E0,0E0,0E0,0E0,0E0,0E0,0E0,0E0,0E0,0E0,0E0,0E0,0E0,0E0,0E0,0E0,0E0,0E0,0E0],"parents":[2147483647,0,0,1,1,2,2,3,3,4,4,5,5,6,6,7,7,8,8,9,9,10,10,11,11,12,12,13,13,14,14,15,15,16,16,17,17,18,18,19,19,20,20,21,21,22,22,25,25,27,27,28,28,31,31,32,32,35,35,36,36,37,37,38,38,41,41,42,42,43,43,44,44,46,46,47,47,48,48,49,49,50,50,51,51,52,52],"right_children":[2,4,6,8,10,12,14,16,18,20,22,24,26,28,30,32,34,36,38,40,42,44,46,-1,-1,48,-1,50,52,-1,-1,54,56,-1,-1,58,60,62,64,-1,-1,66,68,70,72,-1,74,76,78,80,82,84,86,-1,-1,-1,-1,-1,-1,-1,-1,-1,-1,-1,-1,-1,-1,-1,-1,-1,-1,-1,-1,-1,-1,-1,-1,-1,-1,-1,-1,-1,-1,-1,-1,-1,-1],"split_conditions":[5.6603885E-1,1.7998045E-2,4.7464442E-1,-1.9444686E-1,2.2E-1,3.844892E-1,2.1831012E0,1.1766053E0,-8.383449E-1,1.1648618E-4,1E0,3.4869936E-1,1.1614486E-1,4.9152824E-1,1.0193317E-1,-8E0,2.8468114E-1,7.10154E-1,1.5141367E-4,1E0,-8.075371E-2,5E-1,-1.6385884E0,2.2579738E-4,-1.9897396E-2,-2.4270956E-1,-1.4487157E-2,6.527066E-2,1.16E0,3.817042E-2,6.979437E-3,3.3963636E-1,5.2329034E-1,2.8174348E-2,2.1872454E-4,-6.149795E-1,4.9959984E-1,2.765791E-1,1.1739721E-1,2.7722575E-2,-4.3210978E-4,1E0,4.9695555E-2,8.028785E-1,1.1617873E-1,2.5485609E-2,2.38E0,-4.7182682E-1,2.0207912E-1,-7.120878E-1,4.8754895E-10,3.7E-1,7.740794E1,5.7109795E-3,-1.6955214E-2,-2.0632278E-2,6.174174E-3,2.6542604E-2,1.8366291E-3,-1.3811007E-2,1.2867893E-2,3.2116883E-2,9.28595E-3,-4.7753653E-3,1.8264951E-2,-1.0333221E-2,6.0722777E-3,1.2859251E-2,-2.026067E-2,-2.0245442E-3,3.1614747E-2,2.384238E-2,-1.296504E-2,-9.950152E-3,2.5435504E-2,1.9719852E-4,-1.2814013E-2,2.8252685E-2,-3.6953297E-4,-7.231768E-3,1.0062663E-2,4.938555E-3,-1.9686995E-2,2.2559559E-2,3.8163667E-3,-1.8527942E-2,1.1950028E-2],"split_indices":[168,172,154,81,126,111,226,207,1,169,57,157,77,207,217,87,74,0,75,48,109,202,80,0,0,0,0,219,144,0,0,73,63,0,0,90,191,206,194,0,0,38,217,88,195,0,130,0,1,66,152,146,15,0,0,0,0,0,0,0,0,0,0,0,0,0,0,0,0,0,0,0,0,0,0,0,0,0,0,0,0,0,0,0,0,0,0],"split_type":[0,0,0,0,0,0,0,0,0,0,0,0,0,0,0,0,0,0,0,0,0,0,0,0,0,0,0,0,0,0,0,0,0,0,0,0,0,0,0,0,0,0,0,0,0,0,0,0,0,0,0,0,0,0,0,0,0,0,0,0,0,0,0,0,0,0,0,0,0,0,0,0,0,0,0,0,0,0,0,0,0,0,0,0,0,0,0],"sum_hessian":[7.308879E2,6.3600146E2,9.4886406E1,8.8951546E1,5.470499E2,1.6870052E1,7.801636E1,4.2535748E1,4.6415802E1,6.481396E1,4.8223596E2,9.282317E0,7.587736E0,6.947411E1,8.542244E0,3.9413246E1,3.1225019E0,2.2693436E1,2.3722366E1,3.1727476E0,6.1641212E1,3.87146E2,9.508996E1,1.3212028E0,7.961114E0,5.802619E0,1.7851169E0,3.061187E1,3.8862244E1,6.7530837E0,1.7891607E0,2.3100267E1,1.6312977E1,1.8008224E0,1.3216796E0,1.2903841E1,9.789595E0,1.661818E1,7.104187E0,1.817692E0,1.3550557E0,3.485461E1,2.6786598E1,3.7729483E2,9.851153E0,1.3407158E0,9.374924E1,2.6529932E0,3.1496258E0,2.0017164E1,1.0594705E1,3.1762888E1,7.0993533E0,1.9999836E1,3.1004326E0,1.2330338E1,3.9826388E0,3.1232305E0,9.78061E0,8.456707E0,1.3328875E0,1.0343001E1,6.2751775E0,5.3381763E0,1.7660106E0,3.086215E1,3.992462E0,1.3331249E0,2.5453474E1,3.745764E2,2.7184541E0,8.511021E0,1.3401334E0,9.24071E1,1.3421427E0,1.322998E0,1.3299952E0,1.7979412E0,1.3516846E0,8.39781E0,1.1619354E1,3.104455E0,7.4902496E0,1.9347094E1,1.2415795E1,4.8526115E0,2.246742E0],"tree_param":{"num_deleted":"0","num_feature":"231","num_nodes":"87","size_leaf_vector":"1"}},{"base_weights":[-5.1988266E-2,-3.1080905E-2,-4.3231186E-1,5.4037612E-2,-1.2086844E-1,-6.667817E-2,-5.6850344E-1,4.386636E-1,9.28554E-3,-1.4235176E-1,5.767271E-1,7.4591035E-1,-5.1928806E-1,-6.2805295E-1,-6.89498E-2,5.449763E-1,-1.6846525E-2,-1.6915202E-1,9.5357895E-2,-4.0821484E-1,-9.473939E-2,3.263507E-2,-1.9397987E-1,3.1325325E-2,3.183165E-4,-1.8750267E-2,2.313963E-4,-6.646976E-1,3.9626262E-4,1.3125816E-2,-1.4135744E-2,6.339631E-1,-1.5417359E-2,-1.4248779E-2,-3.190142E-1,4.4937247E-1,2.0493222E-2,-4.80068E-1,1.6445096E-1,-2.2615543E-2,-2.9405233E-1,-1.6216256E-2,1.2960459E-2,-2.1162372E-2,2.2675957E-4,1.4269504E-2,3.108938E-2,2.4883372E-3,-1.6029928E-2,-1.09618185E-2,2.5526162E-2,1.7831484E-2,-4.8327525E-3,8.591886E-3,-3.1627868E-3,-3.1439087E-3,-1.6761662E-2,-1.5294646E-2,1.9467557E-2,3.1184482E-3,-5.593775E-3,-3.1824145E-3,-1.822488E-2],"categories":[],"categories_nodes":[],"categories_segments":[],"categories_sizes":[],"default_left":[0,0,0,0,0,0,0,0,0,0,0,0,0,0,0,0,0,0,0,0,0,0,0,0,0,0,0,0,0,0,0,0,0,0,0,0,0,0,0,0,0,0,0,0,0,0,0,0,0,0,0,0,0,0,0,0,0,0,0,0,0,0,0],"id":10,"left_children":[1,3,5,7,9,11,13,15,17,19,21,23,25,27,29,31,-1,33,35,37,39,-1,41,-1,-1,-1,-1,43,-1,-1,-1,45,-1,47,49,51,53,55,57,59,61,-1,-1,-1,-1,-1,-1,-1,-1,-1,-1,-1,-1,-1,-1,-1,-1,-1,-1,-1,-1,-1,-1],"loss_changes":[5.8302846E0,5.3387394E0,1.8651805E0,6.1727777E0,5.175247E0,4.618647E0,7.8109837E-1,4.280834E0,4.9688315E0,4.1448417E0,4.2885246E0,9.8157716E-1,4.4935226E-1,5.8773804E-1,1.0363376E0,3.5574093E0,0E0,2.439763E0,5.7732077E0,2.132021E0,4.041396E0,0E0,1.3130683E0,0E0,0E0,0E0,0E0,6.437664E-1,0E0,0E0,0E0,1.5507994E0,0E0,2.7144403E0,3.2121925E0,3.4629369E0,6.095222E0,1.2575254E0,2.3911998E0,4.3296704E0,4.3391757E0,0E0,0E0,0E0,0E0,0E0,0E0,0E0,0E0,0E0,0E0,0E0,0E0,0E0,0E0,0E0,0E0,0E0,0E0,0E0,0E0,0E0,0E0],"parents":[2147483647,0,0,1,1,2,2,3,3,4,4,5,5,6,6,7,7,8,8,9,9,10,10,11,11,12,12,13,13,14,14,15,15,17,17,18,18,19,19,20,20,22,22,27,27,31,31,33,33,34,34,35,35,36,36,37,37,38,38,39,39,40,40],"right_children":[2,4,6,8,10,12,14,16,18,20,22,24,26,28,30,32,-1,34,36,38,40,-1,42,-1,-1,-1,-1,44,-1,-1,-1,46,-1,48,50,52,54,56,58,60,62,-1,-1,-1,-1,-1,-1,-1,-1,-1,-1,-1,-1,-1,-1,-1,-1,-1,-1,-1,-1,-1,-1],"split_conditions":[6.6647863E-1,1E0,1.1858934E-1,2.8E-1,2.4839943E2,7.003444E-1,1E0,1E0,2.0712315E-1,2.3748684E-1,3.455474E-3,7.1046996E-1,6.2801826E-1,-3.0860303E-2,3.1881392E-2,9.967949E-1,-1.6846525E-2,1.9209373E1,-3.108764E-1,8.2E-1,9.783916E-1,3.263507E-2,4.8E-2,3.1325325E-2,3.183165E-4,-1.8750267E-2,2.313963E-4,2.03172E-2,3.9626262E-4,1.3125816E-2,-1.4135744E-2,2.36E-1,-1.5417359E-2,1.1E0,1E0,3.6040232E-1,-1.0147312E0,8.185505E-1,4.334466E-3,8.491353E-3,1.1874342E1,-1.6216256E-2,1.2960459E-2,-2.1162372E-2,2.2675957E-4,1.4269504E-2,3.108938E-2,2.4883372E-3,-1.6029928E-2,-1.09618185E-2,2.5526162E-2,1.7831484E-2,-4.8327525E-3,8.591886E-3,-3.1627868E-3,-3.1439087E-3,-1.6761662E-2,-1.5294646E-2,1.9467557E-2,3.1184482E-3,-5.593775E-3,-3.1824145E-3,-1.822488E-2],"split_indices":[83,59,227,126,76,157,39,14,223,192,4,2,0,77,196,223,0,164,0,146,208,0,129,0,0,0,0,160,0,0,0,129,0,130,39,66,3,221,194,188,164,0,0,0,0,0,0,0,0,0,0,0,0,0,0,0,0,0,0,0,0,0,0],"split_type":[0,0,0,0,0,0,0,0,0,0,0,0,0,0,0,0,0,0,0,0,0,0,0,0,0,0,0,0,0,0,0,0,0,0,0,0,0,0,0,0,0,0,0,0,0,0,0,0,0,0,0,0,0,0,0,0,0,0,0,0,0,0,0],"sum_hessian":[7.3391473E2,6.966972E2,3.721751E1,3.5785196E2,3.3884525E2,1.0504813E1,2.6712696E1,3.637984E1,3.2147214E2,3.29494E2,9.351238E0,3.5261521E0,6.9786606E0,2.3637724E1,3.0749724E0,3.329596E1,3.0838823E0,1.0429395E2,2.1717818E2,4.8895023E1,2.8059897E2,5.3751388E0,3.9761E0,2.2097273E0,1.3164246E0,5.6577053E0,1.3209554E0,2.23254E1,1.3123232E0,1.3222976E0,1.7526748E0,3.1084936E1,2.211022E0,5.1822906E1,5.2471046E1,3.703715E1,1.8014102E2,4.3587708E1,5.307315E0,2.0685825E2,7.374074E1,2.647117E0,1.3289831E0,2.1003984E1,1.3214154E0,2.387356E1,7.2113767E0,4.4371284E1,7.4516234E0,5.1131615E1,1.3394302E0,2.9949303E1,7.0878477E0,5.7482117E1,1.2265891E2,7.9568224E0,3.5630886E1,2.1971002E0,3.1102147E0,1.16912636E2,8.994561E1,4.6933315E1,2.6807423E1],"tree_param":{"num_deleted":"0","num_feature":"231","num_nodes":"63","size_leaf_vector":"1"}},{"base_weights":[1.0338853E-1,3.4809545E-1,-2.0688593E-2,-5.2509737E-1,3.74294E-1,1.7984796E-1,-1.023111E-1,-3.5867633E-4,-1.8978126E-2,2.890265E-1,7.3492134E-1,5.42966E-1,-7.841532E-2,-1.541367E-1,2.6396495E-1,2.0946018E-1,6.798011E-1,7.807195E-1,-1.3214444E-2,-1.2398919E-1,6.2878513E-1,5.7348E-2,-2.0708406E-2,-2.612819E-1,-4.043657E-2,5.2044195E-1,-1.7411403E-1,3.696862E-1,5.5785928E-2,7.6222885E-1,-1.4592575E-2,1.951492E-1,9.0648955E-1,-4.2177573E-1,1.2439117E-2,-3.3416307E-1,6.9626135E-1,2.0138186E-1,-4.4442517E-1,1.5607996E-1,-2.9645437E-1,2.58314E-1,-2.0639414E-1,6.6498315E-1,-3.669218E-1,3.071117E-1,-3.6927918E-1,3.2256644E-2,7.000366E-3,6.1327782E-3,-9.624484E-3,-1.3196084E-2,2.4942007E-2,-1.1425347E-2,1.9224675E-2,2.9433403E-2,-4.7378812E-4,-1.688222E-2,2.5540142E-4,-2.7572105E-4,-1.4621263E-2,2.3214662E-2,-2.161661E-3,-1.8955862E-4,2.0884821E-2,1.3377629E-2,-1.6642833E-2,1.162984E-2,-1.6250666E-2,-1.0084435E-2,1.4266915E-3,-1.0971996E-3,1.9559646E-2,-9.886378E-3,2.6755065E-3,8.131385E-3,3.3603426E-2,-1.553849E-2,-3.8596558E-5,-3.6533459E-3,1.6473204E-2,-1.5065991E-2,1.2740738E-2],"categories":[],"categories_nodes":[],"categories_segments":[],"categories_sizes":[],"default_left":[0,0,0,0,0,0,0,0,0,0,0,0,0,0,0,0,0,0,0,0,0,0,0,0,0,0,0,0,0,0,0,0,0,0,0,0,0,0,0,0,0,0,0,0,0,0,0,0,0,0,0,0,0,0,0,0,0,0,0,0,0,0,0,0,0,0,0,0,0,0,0,0,0,0,0,0,0,0,0,0,0,0,0],"id":11,"left_children":[1,3,5,7,9,11,13,-1,-1,15,17,19,21,23,25,27,29,31,-1,33,35,37,-1,39,41,43,45,47,49,51,-1,53,55,57,-1,59,61,63,65,67,69,71,73,75,77,79,81,-1,-1,-1,-1,-1,-1,-1,-1,-1,-1,-1,-1,-1,-1,-1,-1,-1,-1,-1,-1,-1,-1,-1,-1,-1,-1,-1,-1,-1,-1,-1,-1,-1,-1,-1,-1],"loss_changes":[2.2541115E1,5.910057E0,8.094613E0,4.1674018E-1,7.261772E0,1.3461962E1,6.7094526E0,0E0,0E0,6.021139E0,2.811119E0,3.4893265E0,7.0584116E0,3.7464485E0,5.0248194E0,4.070252E0,3.5515776E0,3.0985107E0,0E0,1.3986921E0,3.6744576E0,5.1539063E0,0E0,2.374342E0,7.530188E0,3.8288174E0,1.706815E0,7.5561275E0,4.878756E0,2.9678516E0,0E0,2.5897558E0,2.5163364E0,3.3288908E-1,0E0,2.018694E-1,3.0249424E0,5.670246E0,1.8133171E0,2.3076563E0,2.01795E0,6.327478E0,3.5786533E0,4.069379E0,2.511074E-1,6.3161355E-1,1.5350596E0,0E0,0E0,0E0,0E0,0E0,0E0,0E0,0E0,0E0,0E0,0E0,0E0,0E0,0E0,0E0,0E0,0E0,0E0,0E0,0E0,0E0,0E0,0E0,0E0,0E0,0E0,0E0,0E0,0E0,0E0,0E0,0E0,0E0,0E0,0E0,0E0],"parents":[2147483647,0,0,1,1,2,2,3,3,4,4,5,5,6,6,9,9,10,10,11,11,12,12,13,13,14,14,15,15,16,16,17,17,19,19,20,20,21,21,23,23,24,24,25,25,26,26,27,27,28,28,29,29,31,31,32,32,33,33,35,35,36,36,37,37,38,38,39,39,40,40,41,41,42,42,43,43,44,44,45,45,46,46],"right_children":[2,4,6,8,10,12,14,-1,-1,16,18,20,22,24,26,28,30,32,-1,34,36,38,-1,40,42,44,46,48,50,52,-1,54,56,58,-1,60,62,64,66,68,70,72,74,76,78,80,82,-1,-1,-1,-1,-1,-1,-1,-1,-1,-1,-1,-1,-1,-1,-1,-1,-1,-1,-1,-1,-1,-1,-1,-1,-1,-1,-1,-1,-1,-1,-1,-1,-1,-1,-1,-1],"split_conditions":[2.1354157E-1,3.7685775E-3,-5E-1,-2.4716206E0,7.5238657E-1,8.717798E-1,6.239168E-1,-3.5867633E-4,-1.8978126E-2,9.031365E-2,4.9959984E-1,-1.282214E-1,4.9959984E-1,5.8177423E-1,2.4494897E-1,5.4005694E-2,1.0911326E-1,1.356466E-1,-1.3214444E-2,2.4591021E-1,2.2542365E-1,2.1469632E-1,-2.0708406E-2,3.8273272E-1,2.5047156E-1,1.8300529E0,-5.036323E-1,3.7363082E-1,1.8E-1,-9.078367E-1,-1.4592575E-2,-4.4138545E-1,1.1348568E0,5E-1,1.2439117E-2,-4.514466E-1,-6.2600374E-9,2.66516E-1,-6.3591087E-1,5.854019E-2,6.6E-1,6.151356E-1,1.184191E-1,6E-2,-3.9954382E-1,1.7672893E-1,5.3851646E-1,3.2256644E-2,7.000366E-3,6.1327782E-3,-9.624484E-3,-1.3196084E-2,2.4942007E-2,-1.1425347E-2,1.9224675E-2,2.9433403E-2,-4.7378812E-4,-1.688222E-2,2.5540142E-4,-2.7572105E-4,-1.4621263E-2,2.3214662E-2,-2.161661E-3,-1.8955862E-4,2.0884821E-2,1.3377629E-2,-1.6642833E-2,1.162984E-2,-1.6250666E-2,-1.0084435E-2,1.4266915E-3,-1.0971996E-3,1.9559646E-2,-9.886378E-3,2.6755065E-3,8.131385E-3,3.3603426E-2,-1.553849E-2,-3.8596558E-5,-3.6533459E-3,1.6473204E-2,-1.5065991E-2,1.2740738E-2],"split_indices":[223,165,69,3,154,223,42,0,0,225,203,78,203,154,223,163,165,223,0,3,157,163,0,208,206,13,13,207,135,71,0,8,221,191,0,1,74,162,1,173,125,155,196,116,54,131,207,0,0,0,0,0,0,0,0,0,0,0,0,0,0,0,0,0,0,0,0,0,0,0,0,0,0,0,0,0,0,0,0,0,0,0,0],"split_type":[0,0,0,0,0,0,0,0,0,0,0,0,0,0,0,0,0,0,0,0,0,0,0,0,0,0,0,0,0,0,0,0,0,0,0,0,0,0,0,0,0,0,0,0,0,0,0,0,0,0,0,0,0,0,0,0,0,0,0,0,0,0,0,0,0,0,0,0,0,0,0,0,0,0,0,0,0,0,0,0,0,0,0],"sum_hessian":[7.411618E2,2.487559E2,4.9240588E2,6.6913595E0,2.4206454E2,1.4209424E2,3.5031165E2,1.3515384E0,5.339821E0,1.9723204E2,4.4832516E1,5.860012E1,8.349412E1,3.073963E2,4.291534E1,1.6514299E2,3.208905E1,4.3474373E1,1.3581415E0,6.6299314E0,5.197019E1,6.907395E1,1.4420165E1,1.5759183E2,1.4980447E2,2.6949512E1,1.5965827E1,8.01599E1,8.4983086E1,3.029428E1,1.7947702E0,8.137725E0,3.533665E1,4.409194E0,2.2207375E0,3.1443973E0,4.8825794E1,5.4133583E1,1.4940371E1,1.1981376E1,1.4561044E2,5.3299755E1,9.650472E1,2.339014E1,3.5593724E0,4.4412584E0,1.1524569E1,1.1866559E1,6.8293335E1,6.1261242E1,2.3721848E1,1.3567538E0,2.8937527E1,3.6133044E0,4.5244203E0,3.2632496E1,2.7041545E0,3.0893025E0,1.3198913E0,1.3471022E0,1.7972952E0,4.4342316E1,4.483478E0,3.8823368E1,1.5310215E1,1.3119798E0,1.362839E1,9.329462E0,2.6519136E0,1.3056781E2,1.5042641E1,3.099191E1,2.2307842E1,6.8040764E1,2.8463959E1,1.3393222E1,9.996918E0,2.2241135E0,1.3352587E0,1.7811992E0,2.6600592E0,1.0186676E1,1.337893E0],"tree_param":{"num_deleted":"0","num_feature":"231","num_nodes":"83","size_leaf_vector":"1"}},{"base_weights":[-2.5103373E-2,-7.4750766E-2,1.7657779E-1,-2.6833605E-2,-3.1240135E-1,2.3277548E-1,-2.7812552E-1,7.4002403E-3,-3.4790164E-1,2.2478113E-1,-3.8249472E-1,-1.2593254E-1,3.0941933E-1,-4.323434E-1,2.4804385E-2,-2.0780837E-2,4.6335587E-1,-1.3372746E-1,-5.739895E-1,-1.0300758E-1,2.6411802E-2,-4.1145644E-1,2.5796013E-2,2.8094396E-1,-3.7068686E-1,6.703123E-1,1.8204142E-1,1.2993268E-2,-5.470208E-1,-6.592032E-2,1.9836028E-1,-2.6183985E-3,8.6262167E-1,-2.702915E-1,6.5130067E-1,3.6648877E-3,-6.535281E-1,-3.3793446E-1,1.2684434E-2,-5.382271E-1,-2.0810598E-1,-1.527515E-2,5.9015197E-1,-4.770118E-1,1.23816775E-2,7.7023774E-1,-1.47274565E-2,1.1135593E-1,7.9506016E-1,-1.5061325E-1,-2.0117106E-2,1.2415879E-3,-6.7304927E-3,-1.629079E-2,1.11438995E-2,1.15001565E-2,-1.4165326E-2,3.0491648E-2,-3.7085745E-3,1.9369004E-2,-1.3491984E-2,8.92588E-5,2.8808624E-2,-5.9734825E-3,-2.0909647E-2,-1.8186659E-2,1.2858573E-2,7.448183E-3,-1.7108146E-2,7.5042727E-3,-1.1866899E-2,2.6627747E-2,-1.2710954E-2,-1.790105E-2,3.0621493E-3,-1.2822847E-2,2.5575567E-2,7.7372394E-3,-6.889732E-3,3.1235814E-2,2.8740927E-3,-1.5448061E-2,1.2329916E-2],"categories":[],"categories_nodes":[],"categories_segments":[],"categories_sizes":[],"default_left":[0,0,0,0,0,0,0,0,0,0,0,0,0,0,0,0,0,0,0,0,0,0,0,0,0,0,0,0,0,0,0,0,0,0,0,0,0,0,0,0,0,0,0,0,0,0,0,0,0,0,0,0,0,0,0,0,0,0,0,0,0,0,0,0,0,0,0,0,0,0,0,0,0,0,0,0,0,0,0,0,0,0,0],"id":12,"left_children":[1,3,5,7,9,11,13,15,17,19,21,23,25,27,-1,29,31,33,35,37,-1,39,-1,41,43,45,47,-1,49,51,53,55,57,59,61,-1,63,65,-1,67,69,-1,71,73,-1,75,-1,77,79,81,-1,-1,-1,-1,-1,-1,-1,-1,-1,-1,-1,-1,-1,-1,-1,-1,-1,-1,-1,-1,-1,-1,-1,-1,-1,-1,-1,-1,-1,-1,-1,-1,-1],"loss_changes":[7.38601E0,6.72822E0,3.7891693E0,5.425797E0,3.8200283E0,3.620274E0,3.167022E0,5.751284E0,2.2262607E0,2.6859207E0,3.5235014E0,2.4586942E0,4.825241E0,1.7380557E0,0E0,4.185405E0,4.849411E0,2.934239E0,1.3441424E0,1.2480166E0,0E0,2.1246538E0,0E0,2.6090956E0,1.4624887E0,3.5926218E0,3.417739E0,0E0,5.7474136E-1,5.967963E0,9.479405E0,2.540485E0,2.2539148E0,4.008422E0,8.1961584E-1,0E0,2.69022E-1,1.6458361E0,0E0,1.4726744E0,3.1011057E0,0E0,2.5638218E0,1.0203245E0,0E0,2.9164057E0,0E0,3.7432055E0,1.3120503E0,1.146306E0,0E0,0E0,0E0,0E0,0E0,0E0,0E0,0E0,0E0,0E0,0E0,0E0,0E0,0E0,0E0,0E0,0E0,0E0,0E0,0E0,0E0,0E0,0E0,0E0,0E0,0E0,0E0,0E0,0E0,0E0,0E0,0E0,0E0],"parents":[2147483647,0,0,1,1,2,2,3,3,4,4,5,5,6,6,7,7,8,8,9,9,10,10,11,11,12,12,13,13,15,15,16,16,17,17,18,18,19,19,21,21,23,23,24,24,25,25,26,26,28,28,29,29,30,30,31,31,32,32,33,33,34,34,36,36,37,37,39,39,40,40,42,42,43,43,45,45,47,47,48,48,49,49],"right_children":[2,4,6,8,10,12,14,16,18,20,22,24,26,28,-1,30,32,34,36,38,-1,40,-1,42,44,46,48,-1,50,52,54,56,58,60,62,-1,64,66,-1,68,70,-1,72,74,-1,76,-1,78,80,82,-1,-1,-1,-1,-1,-1,-1,-1,-1,-1,-1,-1,-1,-1,-1,-1,-1,-1,-1,-1,-1,-1,-1,-1,-1,-1,-1,-1,-1,-1,-1,-1,-1],"split_conditions":[4.6647614E-1,1E0,7.704544E-1,8.1E-1,5.618439E-16,-1.1502662E0,9.1564184E-1,4.9959984E-1,6.798601E-2,-6.213179E-1,6.7094263E3,5.129803E-1,3.455983E6,-2.0773375E0,2.4804385E-2,3.5721508E-1,2.1539685E-1,6.749075E-2,2.8667446E-2,-1.0415044E-3,2.6411802E-2,8.704159E-3,2.5796013E-2,4.6923363E-1,1.4176203E0,2.4970868E-1,7.3633784E-1,1.2993268E-2,1.4E-1,5.2E-1,4.0596955E-2,3.210025E-1,1.1022548E-1,-3.108764E-1,-2.635123E-2,3.6648877E-3,-2.9931598E0,5.8436376E-1,1.2684434E-2,-4.7117287E-1,-3.8455665E-1,-1.527515E-2,6.8214464E-1,4.9839744E-1,1.23816775E-2,-8.1E-1,-1.47274565E-2,4.463973E-1,1E0,8.398525E-2,-2.0117106E-2,1.2415879E-3,-6.7304927E-3,-1.629079E-2,1.11438995E-2,1.15001565E-2,-1.4165326E-2,3.0491648E-2,-3.7085745E-3,1.9369004E-2,-1.3491984E-2,8.92588E-5,2.8808624E-2,-5.9734825E-3,-2.0909647E-2,-1.8186659E-2,1.2858573E-2,7.448183E-3,-1.7108146E-2,7.5042727E-3,-1.1866899E-2,2.6627747E-2,-1.2710954E-2,-1.790105E-2,3.0621493E-3,-1.2822847E-2,2.5575567E-2,7.7372394E-3,-6.889732E-3,3.1235814E-2,2.8740927E-3,-1.5448061E-2,1.2329916E-2],"split_indices":[166,57,168,146,228,3,168,161,217,1,151,0,229,15,0,131,131,217,195,77,0,4,0,208,0,71,154,0,115,132,163,1,171,0,1,0,15,118,0,81,86,0,155,166,0,146,0,28,39,77,0,0,0,0,0,0,0,0,0,0,0,0,0,0,0,0,0,0,0,0,0,0,0,0,0,0,0,0,0,0,0,0,0],"split_type":[0,0,0,0,0,0,0,0,0,0,0,0,0,0,0,0,0,0,0,0,0,0,0,0,0,0,0,0,0,0,0,0,0,0,0,0,0,0,0,0,0,0,0,0,0,0,0,0,0,0,0,0,0,0,0,0,0,0,0,0,0,0,0,0,0,0,0,0,0,0,0,0,0,0,0,0,0,0,0,0,0,0,0],"sum_hessian":[7.3532806E2,5.9057654E2,1.4475151E2,4.9240625E2,9.817027E1,1.2926364E2,1.5487879E1,4.4584503E2,4.6561226E1,1.1076344E1,8.709393E1,2.2643692E1,1.0661994E2,1.4125132E1,1.3627479E0,4.2079172E2,2.5053291E1,2.4727873E1,2.1833353E1,7.946292E0,3.1300514E0,8.576344E1,1.3304925E0,8.449495E0,1.4194196E1,2.6702576E1,7.9917366E1,1.3277855E0,1.2797346E1,3.494997E2,7.129204E1,1.2019288E1,1.3034003E1,2.1622158E1,3.1057138E0,2.1838212E0,1.9649532E1,5.739374E0,2.2069173E0,5.1814804E1,3.3948635E1,2.1947021E0,6.2547936E0,1.2842333E1,1.3518634E0,2.4896866E1,1.8057102E0,7.271451E1,7.202857E0,3.5681164E0,9.229229E0,2.0880902E2,1.4069066E2,1.30903015E1,5.8201736E1,6.697696E0,5.321592E0,1.1249504E1,1.7844998E0,3.1165066E0,1.8505653E1,1.3282883E0,1.7774254E0,2.2024677E0,1.7447065E1,4.4063478E0,1.3330266E0,1.7642932E0,5.005051E1,9.758679E0,2.4189955E1,4.932306E0,1.3224875E0,1.0617412E1,2.224921E0,1.3308334E0,2.3566032E1,5.10285E1,2.168601E1,4.965896E0,2.2369611E0,2.2145958E0,1.3535205E0],"tree_param":{"num_deleted":"0","num_feature":"231","num_nodes":"83","size_leaf_vector":"1"}},{"base_weights":[-6.63114E-2,-1.3806894E-1,4.7241937E-2,-1.5365006E-1,6.421697E-1,1.5792655E-2,5.6912744E-1,-7.258117E-2,-2.3126715E-1,-1.5084623E-1,3.5442922E-2,4.879477E-1,-2.4605986E-2,4.7090344E-2,7.9007787E-1,-1.3452989E-1,3.1608403E-1,-2.8055882E-1,5.1175646E-2,-1.5532154E-2,1.2525375E-2,-7.536429E-2,7.966054E-1,-3.6113086E-1,4.577363E-2,3.9592808E-1,-1.4574782E-2,2.3960287E-3,9.5736825E-1,6.403857E-1,-1.5683913E-1,8.9024156E-1,9.777301E-2,-4.2974615E-1,-1.9452277E-1,6.0637283E-1,-1.9299763E-1,1.7832832E-2,-3.4041014E-1,1.0902275E0,2.1328813E-1,3.2167372E-1,-4.830908E-1,2.4830927E-1,-6.8059795E-2,-3.7722264E-3,2.5441919E-2,3.591743E-2,3.8194323E-1,-4.0016063E-3,3.1536385E-2,-1.2573413E-2,-2.9984126E-3,6.336292E-3,3.1464543E-2,1.8231148E-2,-2.7191967E-3,-1.6217338E-2,-1.4178068E-3,-4.7109765E-4,-1.0019449E-2,2.7858224E-2,-8.2502E-3,2.5361832E-2,-8.650888E-3,7.2656404E-3,-1.7896634E-2,7.384609E-3,3.7825685E-2,1.8921856E-2,-1.4512924E-2,-5.9098224E-3,3.0634863E-2,3.6445933E-3,-1.8561257E-2,1.7942844E-2,3.2969797E-3,-9.566082E-3,1.5689164E-3,-5.104131E-4,1.7445186E-2],"categories":[],"categories_nodes":[],"categories_segments":[],"categories_sizes":[],"default_left":[0,0,0,0,0,0,0,0,0,0,0,0,0,0,0,0,0,0,0,0,0,0,0,0,0,0,0,0,0,0,0,0,0,0,0,0,0,0,0,0,0,0,0,0,0,0,0,0,0,0,0,0,0,0,0,0,0,0,0,0,0,0,0,0,0,0,0,0,0,0,0,0,0,0,0,0,0,0,0,0,0],"id":13,"left_children":[1,3,5,7,9,11,13,15,17,19,-1,21,23,25,27,29,31,33,35,-1,-1,37,39,41,43,45,-1,-1,47,49,51,53,55,57,59,61,63,-1,65,67,69,71,73,75,77,-1,-1,-1,79,-1,-1,-1,-1,-1,-1,-1,-1,-1,-1,-1,-1,-1,-1,-1,-1,-1,-1,-1,-1,-1,-1,-1,-1,-1,-1,-1,-1,-1,-1,-1,-1],"loss_changes":[6.051712E0,5.6284895E0,4.7183857E0,2.7944317E0,4.0692434E0,5.21333E0,1.8477244E0,5.3391113E0,3.1856136E0,1.1690571E0,0E0,3.8053207E0,5.9884596E0,1.2934666E0,1.2802029E0,3.3927524E0,3.7411084E0,2.4076967E0,4.820018E0,0E0,0E0,1.7181475E0,2.1656876E0,3.7965364E0,4.845163E0,1.080948E0,0E0,0E0,8.0582047E-1,1.8968549E0,2.7322216E0,6.7114735E-1,2.2889693E0,2.9488811E0,3.1102223E0,3.3335776E0,2.7049475E0,0E0,1.1522986E0,9.960213E-1,2.031062E0,2.8229897E0,3.149662E0,3.5927672E0,4.0874567E0,0E0,0E0,0E0,3.411646E-1,0E0,0E0,0E0,0E0,0E0,0E0,0E0,0E0,0E0,0E0,0E0,0E0,0E0,0E0,0E0,0E0,0E0,0E0,0E0,0E0,0E0,0E0,0E0,0E0,0E0,0E0,0E0,0E0,0E0,0E0,0E0,0E0],"parents":[2147483647,0,0,1,1,2,2,3,3,4,4,5,5,6,6,7,7,8,8,9,9,11,11,12,12,13,13,14,14,15,15,16,16,17,17,18,18,21,21,22,22,23,23,24,24,25,25,28,28,29,29,30,30,31,31,32,32,33,33,34,34,35,35,36,36,38,38,39,39,40,40,41,41,42,42,43,43,44,44,48,48],"right_children":[2,4,6,8,10,12,14,16,18,20,-1,22,24,26,28,30,32,34,36,-1,-1,38,40,42,44,46,-1,-1,48,50,52,54,56,58,60,62,64,-1,66,68,70,72,74,76,78,-1,-1,-1,80,-1,-1,-1,-1,-1,-1,-1,-1,-1,-1,-1,-1,-1,-1,-1,-1,-1,-1,-1,-1,-1,-1,-1,-1,-1,-1,-1,-1,-1,-1,-1,-1],"split_conditions":[2.9257646E-1,1E0,5.1958594E-2,-4.205278E-2,2.1931712E-1,-1.2697897E0,4.5692287E-2,4.2381445E-1,1E0,5.4665882E-2,3.5442922E-2,1.1499144E-2,1.9160807E-2,4.4877786E-2,-6.213179E-1,-2.717495E0,-5.984175E-1,-5E0,3.8857806E-16,-1.5532154E-2,1.2525375E-2,-9.334356E-1,5.6515276E-2,5.2535844E-1,-2.882946E-1,-1.1468931E0,-1.4574782E-2,2.3960287E-3,6.39103E-1,1.1325971E-1,4.5828357E-1,5.563975E-2,3.482682E-2,4.8E-1,1.00198425E-1,4.6718013E-2,-1.6E1,1.7832832E-2,4.5700794E-8,-1.2686005E0,8.423776E-1,6.1197416E-3,7.6918793E-4,2.712932E-1,6.6181034E-2,-3.7722264E-3,2.5441919E-2,3.591743E-2,5.723369E-2,-4.0016063E-3,3.1536385E-2,-1.2573413E-2,-2.9984126E-3,6.336292E-3,3.1464543E-2,1.8231148E-2,-2.7191967E-3,-1.6217338E-2,-1.4178068E-3,-4.7109765E-4,-1.0019449E-2,2.7858224E-2,-8.2502E-3,2.5361832E-2,-8.650888E-3,7.2656404E-3,-1.7896634E-2,7.384609E-3,3.7825685E-2,1.8921856E-2,-1.4512924E-2,-5.9098224E-3,3.0634863E-2,3.6445933E-3,-1.8561257E-2,1.7942844E-2,3.2969797E-3,-9.566082E-3,1.5689164E-3,-5.104131E-4,1.7445186E-2],"split_indices":[0,26,160,54,223,1,215,80,36,162,0,172,194,219,1,13,150,87,189,0,0,80,194,154,54,62,0,0,1,2,154,215,162,179,131,217,87,0,229,131,221,183,225,161,227,0,0,0,217,0,0,0,0,0,0,0,0,0,0,0,0,0,0,0,0,0,0,0,0,0,0,0,0,0,0,0,0,0,0,0,0],"split_type":[0,0,0,0,0,0,0,0,0,0,0,0,0,0,0,0,0,0,0,0,0,0,0,0,0,0,0,0,0,0,0,0,0,0,0,0,0,0,0,0,0,0,0,0,0,0,0,0,0,0,0,0,0,0,0,0,0,0,0,0,0,0,0,0,0,0,0,0,0,0,0,0,0,0,0,0,0,0,0,0,0],"sum_hessian":[7.40895E2,4.538675E2,2.8702753E2,4.457687E2,8.098787E0,2.7168576E2,1.53417635E1,2.189826E2,2.2678609E2,3.5696597E0,4.529127E0,2.0540651E1,2.5114511E2,4.9231105E0,1.04186535E1,1.8944168E2,2.9540932E1,1.9309415E2,3.369194E1,2.2234325E0,1.346227E0,7.5384774E0,1.3002173E1,4.2724384E1,2.0842073E2,3.1307986E0,1.7923118E0,2.2679176E0,8.150736E0,4.525982E0,1.849157E2,7.2901073E0,2.2250824E1,6.916552E1,1.23928635E2,9.838331E0,2.3853607E1,1.7849728E0,5.7535043E0,8.070663E0,4.9315104E0,6.226602E0,3.6497784E1,7.4567245E1,1.3385349E2,1.788799E0,1.3419995E0,4.9899325E0,3.1608033E0,1.8038471E0,2.7221348E0,3.1826664E1,1.5308904E2,1.8216468E0,5.4684606E0,5.4028473E0,1.6847977E1,5.3305897E1,1.5859622E1,5.478886E1,6.913977E1,7.16515E0,2.673181E0,1.3448882E0,2.250872E1,1.7737074E0,3.9797971E0,1.767876E0,6.3027873E0,3.1438918E0,1.7876189E0,3.9879372E0,2.2386649E0,6.7061806E0,2.9791603E1,2.019921E1,5.4368034E1,4.2869408E1,9.098408E1,1.3588996E0,1.8019037E0],"tree_param":{"num_deleted":"0","num_feature":"231","num_nodes":"81","size_leaf_vector":"1"}},{"base_weights":[1.03411235E-1,3.2367098E-1,-1.4701887E-2,2.7140757E-1,6.976857E-1,-9.477508E-2,2.0826025E-1,3.4156924E-1,-3.9827935E-2,2.2296976E-1,9.7777903E-1,-1.374703E-1,4.1212302E-1,6.311794E-1,-4.726572E-2,2.764794E-1,9.0625155E-1,5.3867054E-1,-2.2078772E-1,-1.6609082E-2,4.8392266E-1,-4.046279E-5,1.0507286E0,-3.0314815E-1,-3.1201774E-2,7.2407544E-1,1.2279309E-1,7.107707E-1,-2.0072502E-1,-1.5425868E-1,6.174683E-1,3.147467E-1,-2.6380453E-1,1.24103785E-1,1.0579121E0,7.7627796E-1,-6.804658E-3,2.503372E-2,-2.913083E-1,6.75755E-1,-1.3151435E-2,4.7894698E-1,1.1240121E0,-3.7954E-1,1.60804E-2,3.1063256E-1,-1.2278727E-1,-3.802911E-3,8.6812955E-1,-1.24791496E-1,5.52598E-1,2.548964E-1,8.130767E-1,-1.5509203E-2,7.128177E-3,1.8514916E-1,-3.49766E-1,2.260083E-3,7.444088E-1,7.99031E-3,2.6587106E-2,-1.6699057E-2,1.5508377E-2,1.6366614E-2,-1.3163593E-2,3.6322623E-2,7.2862366E-3,2.4702023E-3,3.0725518E-2,-1.2721094E-2,9.489083E-3,2.9854782E-2,-7.7015406E-4,2.3855135E-2,-1.1477155E-3,3.8050693E-2,2.076561E-2,1.7776545E-2,-1.207062E-2,1.591002E-2,-9.866778E-3,3.419515E-3,1.7593605E-2,-1.1967177E-4,-1.0463776E-2,3.0960878E-2,7.452631E-3,-1.7430464E-2,5.3281244E-3,4.494394E-3,2.859004E-2,1.7847762E-2,-1.0046097E-2,-7.6259655E-4,2.648946E-2,1.494355E-2,-7.6420647E-3,-1.2245898E-2,5.99561E-3,2.8341092E-2,2.7197008E-3],"categories":[],"categories_nodes":[],"categories_segments":[],"categories_sizes":[],"default_left":[0,0,0,0,0,0,0,0,0,0,0,0,0,0,0,0,0,0,0,0,0,0,0,0,0,0,0,0,0,0,0,0,0,0,0,0,0,0,0,0,0,0,0,0,0,0,0,0,0,0,0,0,0,0,0,0,0,0,0,0,0,0,0,0,0,0,0,0,0,0,0,0,0,0,0,0,0,0,0,0,0,0,0,0,0,0,0,0,0,0,0,0,0,0,0,0,0,0,0,0,0],"id":14,"left_children":[1,3,5,7,9,11,13,15,17,19,21,23,25,27,29,31,33,35,37,-1,39,-1,41,43,45,47,49,51,53,55,57,59,61,63,65,67,-1,-1,69,71,-1,73,75,77,79,81,83,-1,85,87,89,91,93,-1,-1,95,97,-1,99,-1,-1,-1,-1,-1,-1,-1,-1,-1,-1,-1,-1,-1,-1,-1,-1,-1,-1,-1,-1,-1,-1,-1,-1,-1,-1,-1,-1,-1,-1,-1,-1,-1,-1,-1,-1,-1,-1,-1,-1,-1,-1],"loss_changes":[1.930619E1,4.87376E0,8.658937E0,5.012026E0,3.91986E0,7.77689E0,1.3881514E1,6.6187916E0,4.620777E0,2.8707259E0,1.3782921E0,5.7964153E0,2.434874E0,3.3437462E0,5.844131E0,3.577507E0,2.1079721E0,2.0926943E0,2.7335312E0,0E0,2.0914848E0,0E0,2.1343994E-1,3.1457558E0,6.362626E0,1.7341623E0,1.7408495E0,1.8609066E0,8.16123E-1,4.737929E0,7.288933E-1,4.1426706E0,2.9680498E0,1.2354646E0,1.6590614E0,1.3379416E0,0E0,0E0,2.7237942E0,1.9955611E0,0E0,6.4876884E-1,6.70414E-2,2.5432262E0,4.7548704E0,2.2638826E0,4.2956285E0,0E0,9.0757656E-1,1.591041E0,8.1306183E-1,2.1212332E0,2.118534E0,0E0,0E0,3.7605124E0,1.5277443E0,0E0,1.1098299E0,0E0,0E0,0E0,0E0,0E0,0E0,0E0,0E0,0E0,0E0,0E0,0E0,0E0,0E0,0E0,0E0,0E0,0E0,0E0,0E0,0E0,0E0,0E0,0E0,0E0,0E0,0E0,0E0,0E0,0E0,0E0,0E0,0E0,0E0,0E0,0E0,0E0,0E0,0E0,0E0,0E0,0E0],"parents":[2147483647,0,0,1,1,2,2,3,3,4,4,5,5,6,6,7,7,8,8,9,9,10,10,11,11,12,12,13,13,14,14,15,15,16,16,17,17,18,18,20,20,22,22,23,23,24,24,25,25,26,26,27,27,28,28,29,29,30,30,31,31,32,32,33,33,34,34,35,35,38,38,39,39,41,41,42,42,43,43,44,44,45,45,46,46,48,48,49,49,50,50,51,51,52,52,55,55,56,56,58,58],"right_children":[2,4,6,8,10,12,14,16,18,20,22,24,26,28,30,32,34,36,38,-1,40,-1,42,44,46,48,50,52,54,56,58,60,62,64,66,68,-1,-1,70,72,-1,74,76,78,80,82,84,-1,86,88,90,92,94,-1,-1,96,98,-1,100,-1,-1,-1,-1,-1,-1,-1,-1,-1,-1,-1,-1,-1,-1,-1,-1,-1,-1,-1,-1,-1,-1,-1,-1,-1,-1,-1,-1,-1,-1,-1,-1,-1,-1,-1,-1,-1,-1,-1,-1,-1,-1],"split_conditions":[2.1354157E-1,4.153098E-1,5.425864E-1,2.8336728E-1,-1.2727553E-1,2.8E-1,8.717798E-1,1.0392305E0,-6.46861E-1,4.3807003E-1,1E-1,5.3286153E-1,1.0067672E-1,4.560664E3,2.6356086E3,2.2063046E2,-7.7880013E-1,1E0,-2.7161192E1,-1.6609082E-2,-2.6204836E-1,-4.046279E-5,1.4062716E-1,4.8176724E-1,4.8651725E-2,5.4319628E-2,6.293122E-2,-4.973646E-1,-7.7890225E-2,-1.5E-1,5.0431967E-1,4.9839744E-1,2.0132096E-2,3.5843834E-1,1.1457298E-1,-8.6363184E-1,-6.804658E-3,2.503372E-2,5.0713617E-1,3.8236808E-2,-1.3151435E-2,2.4268965E-1,5.96E-1,1.0173675E-2,5.2480304E-1,4.3863425E-1,2.7325237E-1,-3.802911E-3,2.5E0,-4.2E-1,1.0842552E-1,-7.034537E-1,6.8381286E-1,-1.5509203E-2,7.128177E-3,5.482606E-2,1E0,2.260083E-3,4.966749E-1,7.99031E-3,2.6587106E-2,-1.6699057E-2,1.5508377E-2,1.6366614E-2,-1.3163593E-2,3.6322623E-2,7.2862366E-3,2.4702023E-3,3.0725518E-2,-1.2721094E-2,9.489083E-3,2.9854782E-2,-7.7015406E-4,2.3855135E-2,-1.1477155E-3,3.8050693E-2,2.076561E-2,1.7776545E-2,-1.207062E-2,1.591002E-2,-9.866778E-3,3.419515E-3,1.7593605E-2,-1.1967177E-4,-1.0463776E-2,3.0960878E-2,7.452631E-3,-1.7430464E-2,5.3281244E-3,4.494394E-3,2.859004E-2,1.7847762E-2,-1.0046097E-2,-7.6259655E-4,2.648946E-2,1.494355E-2,-7.6420647E-3,-1.2245898E-2,5.99561E-3,2.8341092E-2,2.7197008E-3],"split_indices":[223,109,223,131,1,135,223,207,2,21,223,154,162,228,228,170,0,48,92,0,1,0,206,62,163,227,196,1,3,146,208,191,1,2,182,1,0,0,4,163,0,1,129,165,62,161,1,0,67,89,95,1,221,0,0,225,38,0,63,0,0,0,0,0,0,0,0,0,0,0,0,0,0,0,0,0,0,0,0,0,0,0,0,0,0,0,0,0,0,0,0,0,0,0,0,0,0,0,0,0,0],"split_type":[0,0,0,0,0,0,0,0,0,0,0,0,0,0,0,0,0,0,0,0,0,0,0,0,0,0,0,0,0,0,0,0,0,0,0,0,0,0,0,0,0,0,0,0,0,0,0,0,0,0,0,0,0,0,0,0,0,0,0,0,0,0,0,0,0,0,0,0,0,0,0,0,0,0,0,0,0,0,0,0,0,0,0,0,0,0,0,0,0,0,0,0,0,0,0,0,0,0,0,0,0],"sum_hessian":[7.4091864E2,2.5801907E2,4.8289954E2,2.27899E2,3.0120079E1,3.5572256E2,1.27176994E2,1.8589525E2,4.2003742E1,1.1843385E1,1.8276695E1,3.2876038E2,2.6962164E1,4.7345573E1,7.983142E1,1.6801778E2,1.7877474E1,9.537427E0,3.2466316E1,2.6966014E0,9.146783E0,1.3353362E0,1.6941359E1,1.2774578E2,2.0101462E2,1.2250843E1,1.471132E1,4.3344276E1,4.001297E0,6.942499E1,1.0406432E1,1.5729436E2,1.0723424E1,3.1988053E0,1.4678668E1,7.267514E0,2.2699122E0,1.3551732E0,3.1111143E1,7.7931786E0,1.3536048E0,2.7807314E0,1.4160626E1,1.0292642E2,2.4819359E1,4.1970795E1,1.5904382E2,1.7912223E0,1.045962E1,9.784638E0,4.926682E0,8.584288E0,3.4759987E1,2.220111E0,1.7811863E0,2.5393654E1,4.4031334E1,2.2766948E0,8.129738E0,1.4636395E2,1.0930411E1,8.00725E0,2.7161734E0,1.8468336E0,1.3519717E0,1.1951847E1,2.7268212E0,2.263546E0,5.0039682E0,2.5781492E1,5.329651E0,5.0670586E0,2.72612E0,1.3921279E0,1.3886037E0,9.161163E0,4.999463E0,1.7875365E0,1.01138885E2,9.749055E0,1.5070304E1,2.5326979E1,1.6643816E1,1.0491407E2,5.412975E1,7.7457013E0,2.7139194E0,3.533012E0,6.251626E0,3.1410775E0,1.7856045E0,5.439439E0,3.144849E0,2.7239003E0,3.2036087E1,1.4759896E1,1.0633758E1,4.0032722E1,3.998611E0,5.8824463E0,2.2472913E0],"tree_param":{"num_deleted":"0","num_feature":"231","num_nodes":"101","size_leaf_vector":"1"}},{"base_weights":[-4.7232017E-2,-6.3008934E-2,6.9712394E-1,-1.0152361E-1,1.1948837E-1,-1.4476757E-2,8.8541025E-1,1.3410747E-1,-1.2932654E-1,-5.416206E-1,1.9741903E-1,-1.4382197E-2,1.1278849E0,6.0486823E-1,-3.1846534E-3,-2.3715372E-1,-6.101068E-2,-2.0372074E-2,1.2303977E-2,-3.3399135E-2,3.22226E-1,3.793824E-2,3.3720644E-4,9.234757E-1,3.1424174E-1,1.8479219E-1,-3.337645E-1,-4.7701836E-1,-1.7018604E-1,-9.3082756E-2,4.1482735E-1,6.823263E-1,-1.5163974E-1,-2.325472E-1,4.1332024E-1,6.9915242E-3,3.42303E-2,9.508737E-4,2.809502E-2,-6.7008976E-3,1.2809696E-2,-1.2485319E-2,1.2576832E-2,4.324036E-3,-1.6417202E-2,-2.0072522E-2,-4.049462E-3,-1.5137186E-3,-1.0997568E-2,1.8279292E-2,-4.320645E-3,-8.628372E-4,2.6964914E-2,-8.036189E-3,1.1767268E-2,-1.8089356E-2,2.8646898E-3,3.3559084E-2,9.31421E-3],"categories":[],"categories_nodes":[],"categories_segments":[],"categories_sizes":[],"default_left":[0,0,0,0,0,0,0,0,0,0,0,0,0,0,0,0,0,0,0,0,0,0,0,0,0,0,0,0,0,0,0,0,0,0,0,0,0,0,0,0,0,0,0,0,0,0,0,0,0,0,0,0,0,0,0,0,0,0,0],"id":15,"left_children":[1,3,5,7,9,-1,11,13,15,17,19,-1,21,23,25,27,29,-1,-1,31,33,-1,-1,35,37,39,41,43,45,47,49,51,53,55,57,-1,-1,-1,-1,-1,-1,-1,-1,-1,-1,-1,-1,-1,-1,-1,-1,-1,-1,-1,-1,-1,-1,-1,-1],"loss_changes":[8.78298E0,5.140527E0,3.8763375E0,3.967845E0,6.681337E0,0E0,5.088931E0,4.146987E0,3.9624739E0,2.073729E0,3.320312E0,0E0,1.8130312E0,1.0511408E0,3.2089868E0,3.276721E0,5.1028514E0,0E0,0E0,3.59223E0,3.8691506E0,0E0,0E0,6.9448614E-1,1.5687402E0,3.350791E0,1.3359241E0,2.0447626E0,2.8071432E0,3.6153843E0,2.38509E0,9.536867E-1,2.3934093E0,1.4149061E0,4.3307085E0,0E0,0E0,0E0,0E0,0E0,0E0,0E0,0E0,0E0,0E0,0E0,0E0,0E0,0E0,0E0,0E0,0E0,0E0,0E0,0E0,0E0,0E0,0E0,0E0],"parents":[2147483647,0,0,1,1,2,2,3,3,4,4,6,6,7,7,8,8,9,9,10,10,12,12,13,13,14,14,15,15,16,16,19,19,20,20,23,23,24,24,25,25,26,26,27,27,28,28,29,29,30,30,31,31,32,32,33,33,34,34],"right_children":[2,4,6,8,10,-1,12,14,16,18,20,-1,22,24,26,28,30,-1,-1,32,34,-1,-1,36,38,40,42,44,46,48,50,52,54,56,58,-1,-1,-1,-1,-1,-1,-1,-1,-1,-1,-1,-1,-1,-1,-1,-1,-1,-1,-1,-1,-1,-1,-1,-1],"split_conditions":[1E0,4.7370878E-1,1.5556201E-12,2.0049006E-10,2.6E-1,-1.4476757E-2,-7.2647655E-1,5.75E-1,-1.7372735E-1,2E-1,-3.8E-1,-1.4382197E-2,4E-1,9.77848E-1,1.5633914E-1,-3.6448956E-1,1.6028987E-1,-2.0372074E-2,1.2303977E-2,4.0009595E-2,-1.118243E0,3.793824E-2,3.3720644E-4,2.8801138E-2,1.1466078E0,-6.785648E-1,7.4067765E-1,-7.4011177E-1,-8.8E-1,3.6803517E-2,6.2E-1,-9.093914E-1,3.4697503E-1,4.935585E-1,8E-2,6.9915242E-3,3.42303E-2,9.508737E-4,2.809502E-2,-6.7008976E-3,1.2809696E-2,-1.2485319E-2,1.2576832E-2,4.324036E-3,-1.6417202E-2,-2.0072522E-2,-4.049462E-3,-1.5137186E-3,-1.0997568E-2,1.8279292E-2,-4.320645E-3,-8.628372E-4,2.6964914E-2,-8.036189E-3,1.1767268E-2,-1.8089356E-2,2.8646898E-3,3.3559084E-2,9.31421E-3],"split_indices":[27,166,169,169,126,0,54,144,54,134,91,0,212,167,163,4,174,0,0,162,1,0,0,163,4,63,158,0,146,160,130,13,77,166,134,0,0,0,0,0,0,0,0,0,0,0,0,0,0,0,0,0,0,0,0,0,0,0,0],"split_type":[0,0,0,0,0,0,0,0,0,0,0,0,0,0,0,0,0,0,0,0,0,0,0,0,0,0,0,0,0,0,0,0,0,0,0,0,0,0,0,0,0,0,0,0,0,0,0,0,0,0,0,0,0,0,0,0,0,0,0],"sum_hessian":[7.4315173E2,7.286236E2,1.4528118E1,6.0201636E2,1.26607285E2,1.7845244E0,1.2743594E1,6.3133514E1,5.388828E2,1.2723133E1,1.1388415E2,1.7750773E0,1.0968516E1,1.3485929E1,4.9647583E1,2.0804344E2,3.308394E2,1.1367928E1,1.3552055E0,4.0224777E1,7.365937E1,9.653968E0,1.3145487E0,5.394511E0,8.091417E0,3.1931473E1,1.7716112E1,4.4070126E1,1.6397333E2,3.1070206E2,2.0137321E1,5.0267234E0,3.519805E1,1.0170034E1,6.3489338E1,1.7887108E0,3.6058002E0,6.2874455E0,1.8039718E0,1.1920543E1,2.001093E1,1.6371592E1,1.3445213E0,4.3692183E0,3.970091E1,9.621067E0,1.5435225E2,2.69833E2,4.0869038E1,1.4871623E1,5.265699E0,1.3756588E0,3.6510644E0,2.9418495E1,5.779557E0,4.38274E0,5.787294E0,6.822727E0,5.666661E1],"tree_param":{"num_deleted":"0","num_feature":"231","num_nodes":"59","size_leaf_vector":"1"}},{"base_weights":[-4.7128543E-2,-3.5723045E-2,-2.0415368E-2,-1.823666E-2,-4.3926495E-1,1.0143072E-1,-8.879188E-2,-4.958124E-1,1.3242166E-2,6.308665E-1,4.782872E-2,-1.14158854E-1,3.1139022E-1,-5.5718416E-1,1.2746036E-2,8.416714E-3,8.026482E-1,-2.4937604E-1,1.1265414E-1,-1.328541E-1,5.53751E-1,-2.6408117E-2,5.641694E-1,1.896716E-4,-5.864739E-1,2.377768E-2,-1.1870971E-2,2.8912157E-2,-6.8936725E-3,-1.247516E-2,4.6009673E-3,-6.92594E-3,5.3036236E-3,-6.1336523E-3,1.5755156E-4,-7.36951E-3,3.3303652E-2,6.4802323E-3,-1.674112E-2,2.4248568E-2,-4.8005097E-3,-1.8594738E-2,6.7868375E-4],"categories":[],"categories_nodes":[],"categories_segments":[],"categories_sizes":[],"default_left":[0,0,0,0,0,0,0,0,0,0,0,0,0,0,0,0,0,0,0,0,0,0,0,0,0,0,0,0,0,0,0,0,0,0,0,0,0,0,0,0,0,0,0],"id":16,"left_children":[1,3,-1,5,7,9,11,13,-1,15,17,19,21,23,-1,25,27,29,31,33,35,37,39,-1,41,-1,-1,-1,-1,-1,-1,-1,-1,-1,-1,-1,-1,-1,-1,-1,-1,-1,-1],"loss_changes":[5.2234163E0,5.034767E0,0E0,5.80095E0,1.6947708E0,7.203797E0,4.4218235E0,1.8369112E0,0E0,2.490282E0,4.508584E0,5.156424E0,2.2371202E0,4.4905567E-1,0E0,2.234512E0,3.2636223E0,2.8763344E0,4.2619925E0,3.9246678E0,5.2883644E0,1.6792176E0,2.7688212E0,0E0,5.352783E-1,0E0,0E0,0E0,0E0,0E0,0E0,0E0,0E0,0E0,0E0,0E0,0E0,0E0,0E0,0E0,0E0,0E0,0E0],"parents":[2147483647,0,0,1,1,3,3,4,4,5,5,6,6,7,7,9,9,10,10,11,11,12,12,13,13,15,15,16,16,17,17,18,18,19,19,20,20,21,21,22,22,24,24],"right_children":[2,4,-1,6,8,10,12,14,-1,16,18,20,22,24,-1,26,28,30,32,34,36,38,40,-1,42,-1,-1,-1,-1,-1,-1,-1,-1,-1,-1,-1,-1,-1,-1,-1,-1,-1,-1],"split_conditions":[1E0,6.6647863E-1,-2.0415368E-2,-3.1558213E-1,9.9119586E-1,2.8E-1,1.9030349E-1,1.6792744E1,1.3242166E-2,2.8683397E-1,1.7349352E-1,1E0,4.49533E-1,1E-1,1.2746036E-2,-5.068172E-1,-4.408252E-1,6.121732E-2,1.4180909E-2,1.1872646E-1,-7.6314133E-1,4.6215016E-1,1.0826005E-1,1.896716E-4,2.7550575E-1,2.377768E-2,-1.1870971E-2,2.8912157E-2,-6.8936725E-3,-1.247516E-2,4.6009673E-3,-6.92594E-3,5.3036236E-3,-6.1336523E-3,1.5755156E-4,-7.36951E-3,3.3303652E-2,6.4802323E-3,-1.674112E-2,2.4248568E-2,-4.8005097E-3,-1.8594738E-2,6.7868375E-4],"split_indices":[27,83,0,54,81,126,196,149,0,157,223,50,154,223,0,4,54,171,195,163,94,54,194,0,131,0,0,0,0,0,0,0,0,0,0,0,0,0,0,0,0,0,0],"split_type":[0,0,0,0,0,0,0,0,0,0,0,0,0,0,0,0,0,0,0,0,0,0,0,0,0,0,0,0,0,0,0,0,0,0,0,0,0,0,0,0,0,0,0],"sum_hessian":[7.2542377E2,7.136297E2,1.1794106E1,6.849926E2,2.8637093E1,2.539074E2,4.310852E2,2.73199E1,1.3171921E0,2.2353064E1,2.3155434E2,4.0606033E2,2.5024862E1,2.5982725E1,1.3371739E0,5.061553E0,1.729151E1,4.0952545E1,1.9060179E2,3.9578317E2,1.0277146E1,1.1094455E1,1.3930408E1,1.3225346E0,2.466019E1,1.3944255E0,3.6671274E0,1.5015235E1,2.2762752E0,2.8953047E1,1.19995E1,2.957716E1,1.6102463E2,2.6033307E2,1.3545013E2,4.446635E0,5.830511E0,8.027643E0,3.0668116E0,1.0331597E1,3.5988102E0,2.3363333E1,1.2968589E0],"tree_param":{"num_deleted":"0","num_feature":"231","num_nodes":"43","size_leaf_vector":"1"}},{"base_weights":[8.635236E-2,2.9552418E-1,-1.9807639E-2,3.6775386E-1,7.0611737E-4,-9.642766E-2,1.9330536E-1,2.9374477E-1,7.5753933E-1,-3.032634E-1,3.268367E-1,2.804966E-2,-2.5932986E-1,5.62393E-1,-2.0532865E-2,4.950287E-1,1.5022658E-1,-6.062602E-4,9.6390045E-1,-4.3211934E-1,2.1178168E-1,4.7555256E-1,-9.451135E-2,-4.502393E-2,5.06849E-1,-1.12840876E-1,-3.9715496E-1,2.7087063E-1,7.7980316E-1,1.1583777E-1,-2.0404123E-2,-4.6527797E-1,5.7536906E-1,2.8967026E-1,-3.0737102E-1,2.5608083E-2,-3.157797E-1,2.3108737E-1,1.0458466E0,1.2419067E-2,-5.098747E-1,5.382736E-1,-6.654505E-3,5.518518E-1,-4.18993E-3,-1.5553554E-2,1.975817E-1,-2.2807372E-1,1.1986088E-1,8.463898E-1,1.6727427E-1,-1.5069067E-1,2.857093E-2,-4.4252533E-1,3.079706E-1,-4.886402E-2,8.4639096E-1,-8.937482E-2,9.6154386E-1,4.868083E-2,2.8879048E-2,-1.7967686E-2,-4.409098E-5,-7.910511E-3,1.9273428E-2,1.0433732E-2,-1.8311555E-2,-1.330617E-2,2.0485604E-2,-1.7581394E-2,7.2697136E-3,2.3995766E-2,-1.3269542E-2,5.760777E-3,3.3465467E-2,-4.35883E-3,-1.7389476E-2,4.709988E-5,2.5239704E-2,4.038935E-3,2.2328068E-2,1.2605705E-2,-3.863848E-3,-4.580855E-3,-1.8339915E-2,5.89058E-4,2.0266118E-2,2.7090954E-3,2.9721487E-2,-8.853431E-3,1.9007785E-2,1.0221057E-2,-6.6380105E-3,5.9579103E-3,-1.4431642E-2,-1.4427588E-2,2.4687063E-2,1.47185465E-2,-1.366537E-2,-5.4636656E-4,3.0891115E-2,1.1553718E-2,-1.6064176E-2,1.2070872E-2,3.4913745E-2,6.0325996E-3,-7.7959136E-3],"categories":[],"categories_nodes":[],"categories_segments":[],"categories_sizes":[],"default_left":[0,0,0,0,0,0,0,0,0,0,0,0,0,0,0,0,0,0,0,0,0,0,0,0,0,0,0,0,0,0,0,0,0,0,0,0,0,0,0,0,0,0,0,0,0,0,0,0,0,0,0,0,0,0,0,0,0,0,0,0,0,0,0,0,0,0,0,0,0,0,0,0,0,0,0,0,0,0,0,0,0,0,0,0,0,0,0,0,0,0,0,0,0,0,0,0,0,0,0,0,0,0,0,0,0,0,0],"id":17,"left_children":[1,3,5,7,9,11,13,15,17,19,21,23,25,27,29,31,33,35,37,39,41,43,45,47,49,51,53,55,57,59,-1,61,63,65,67,-1,69,71,73,-1,75,77,-1,79,-1,-1,81,83,85,87,89,91,-1,93,95,97,99,101,103,105,-1,-1,-1,-1,-1,-1,-1,-1,-1,-1,-1,-1,-1,-1,-1,-1,-1,-1,-1,-1,-1,-1,-1,-1,-1,-1,-1,-1,-1,-1,-1,-1,-1,-1,-1,-1,-1,-1,-1,-1,-1,-1,-1,-1,-1,-1,-1],"loss_changes":[1.6367186E1,5.283306E0,8.014663E0,5.5265217E0,5.038741E0,7.3246384E0,1.025852E1,4.8112097E0,4.8768578E0,1.8375471E0,1.5813324E0,7.211255E0,3.1129246E0,2.8095999E0,7.5599437E0,5.665098E0,6.4803686E0,2.333934E0,1.2295742E0,1.6171505E0,9.597317E-1,9.355407E-1,9.978045E-1,5.4350867E0,3.0044985E0,3.2566519E0,2.7016191E0,4.0699673E0,4.314535E0,3.9211223E0,0E0,3.68173E-1,3.8280258E0,4.255175E0,3.5226572E0,0E0,1.0969915E0,1.7892383E0,1.0797215E0,0E0,4.2511272E-1,5.969051E-1,0E0,1.2222152E0,0E0,0E0,4.1775835E-1,2.3695474E0,5.2729974E0,1.372509E0,3.3972902E0,2.691311E0,0E0,1.9667177E0,2.604502E0,3.5184438E0,1.2666497E0,1.379799E0,2.0452213E0,3.1417885E0,0E0,0E0,0E0,0E0,0E0,0E0,0E0,0E0,0E0,0E0,0E0,0E0,0E0,0E0,0E0,0E0,0E0,0E0,0E0,0E0,0E0,0E0,0E0,0E0,0E0,0E0,0E0,0E0,0E0,0E0,0E0,0E0,0E0,0E0,0E0,0E0,0E0,0E0,0E0,0E0,0E0,0E0,0E0,0E0,0E0,0E0,0E0],"parents":[2147483647,0,0,1,1,2,2,3,3,4,4,5,5,6,6,7,7,8,8,9,9,10,10,11,11,12,12,13,13,14,14,15,15,16,16,17,17,18,18,19,19,20,20,21,21,22,22,23,23,24,24,25,25,26,26,27,27,28,28,29,29,31,31,32,32,33,33,34,34,36,36,37,37,38,38,40,40,41,41,43,43,46,46,47,47,48,48,49,49,50,50,51,51,53,53,54,54,55,55,56,56,57,57,58,58,59,59],"right_children":[2,4,6,8,10,12,14,16,18,20,22,24,26,28,30,32,34,36,38,40,42,44,46,48,50,52,54,56,58,60,-1,62,64,66,68,-1,70,72,74,-1,76,78,-1,80,-1,-1,82,84,86,88,90,92,-1,94,96,98,100,102,104,106,-1,-1,-1,-1,-1,-1,-1,-1,-1,-1,-1,-1,-1,-1,-1,-1,-1,-1,-1,-1,-1,-1,-1,-1,-1,-1,-1,-1,-1,-1,-1,-1,-1,-1,-1,-1,-1,-1,-1,-1,-1,-1,-1,-1,-1,-1,-1],"split_conditions":[2.1354157E-1,1.391165E-1,4.8E-1,4E-2,8.508226E-2,2.4494897E-1,8.5416627E-1,4.3E-1,4.8472203E-2,1.07787445E-1,2E-2,5.46087E-1,-2.9095054E-1,5.21908E-2,4.9959984E-1,-1.6215011E-1,6.063779E-1,3.8197897E-2,-5.628592E-1,3.8140422E-1,5.0783104E-1,7.524524E-1,6.339388E-1,5.830461E-1,-3.047351E-1,1.7992494E-1,1.0624665E0,7.6E-1,6.1422884E-1,1.21135734E-1,-2.0404123E-2,6.405279E-2,4.2525142E-2,2.1792402E1,6.3211405E-1,2.5608083E-2,3.4E-1,-4.280229E-1,-3.899432E-1,1.2419067E-2,7.8768146E-1,1E0,-6.654505E-3,1.356466E-1,-4.18993E-3,-1.5553554E-2,1.371738E0,2.6E-1,1.2674185E2,1.4462039E-2,5.4005694E-2,4.257794E-1,2.857093E-2,-2.4356088E-1,6.1352664E-1,4.2819284E-2,-8.194697E-1,7.978329E-2,3.4622233E-2,5.212724E-2,2.8879048E-2,-1.7967686E-2,-4.409098E-5,-7.910511E-3,1.9273428E-2,1.0433732E-2,-1.8311555E-2,-1.330617E-2,2.0485604E-2,-1.7581394E-2,7.2697136E-3,2.3995766E-2,-1.3269542E-2,5.760777E-3,3.3465467E-2,-4.35883E-3,-1.7389476E-2,4.709988E-5,2.5239704E-2,4.038935E-3,2.2328068E-2,1.2605705E-2,-3.863848E-3,-4.580855E-3,-1.8339915E-2,5.89058E-4,2.0266118E-2,2.7090954E-3,2.9721487E-2,-8.853431E-3,1.9007785E-2,1.0221057E-2,-6.6380105E-3,5.9579103E-3,-1.4431642E-2,-1.4427588E-2,2.4687063E-2,1.47185465E-2,-1.366537E-2,-5.4636656E-4,3.0891115E-2,1.1553718E-2,-1.6064176E-2,1.2070872E-2,3.4913745E-2,6.0325996E-3,-7.7959136E-3],"split_indices":[223,172,223,100,227,223,223,144,216,171,91,2,54,1,203,81,157,215,54,158,1,81,83,154,73,172,4,132,167,215,0,172,215,72,95,0,126,1,81,0,208,48,0,223,0,0,4,91,230,172,163,208,0,77,13,175,1,163,197,195,0,0,0,0,0,0,0,0,0,0,0,0,0,0,0,0,0,0,0,0,0,0,0,0,0,0,0,0,0,0,0,0,0,0,0,0,0,0,0,0,0,0,0,0,0,0,0],"split_type":[0,0,0,0,0,0,0,0,0,0,0,0,0,0,0,0,0,0,0,0,0,0,0,0,0,0,0,0,0,0,0,0,0,0,0,0,0,0,0,0,0,0,0,0,0,0,0,0,0,0,0,0,0,0,0,0,0,0,0,0,0,0,0,0,0,0,0,0,0,0,0,0,0,0,0,0,0,0,0,0,0,0,0,0,0,0,0,0,0,0,0,0,0,0,0,0,0,0,0,0,0,0,0,0,0,0,0],"sum_hessian":[7.358083E2,2.4711758E2,4.8869067E2,1.9828972E2,4.882787E1,3.5985898E2,1.2883171E2,1.6812181E2,3.016791E1,2.5308882E1,2.3518988E1,2.0445671E2,1.5540225E2,4.666218E1,8.216954E1,6.895847E1,9.916334E1,6.667904E0,2.3500006E1,2.0372913E1,4.935968E0,1.7288368E1,6.2306194E0,1.7817058E2,2.6286142E1,7.6215E1,7.9187256E1,2.0892971E1,2.5769209E1,6.877497E1,1.3394569E1,4.953851E0,6.400462E1,7.6284225E1,2.2879112E1,1.3367028E0,5.331201E0,2.747766E0,2.075224E1,1.3507578E0,1.9022156E1,2.678041E0,2.2579267E0,1.5472468E1,1.8158995E0,2.2255409E0,4.0050783E0,8.425271E1,9.391786E1,1.2397442E1,1.38887005E1,7.442886E1,1.7861373E0,7.4749985E1,4.437271E0,1.4019454E1,6.873517E0,4.544291E0,2.1224918E1,6.47012E1,4.0737696E0,3.619568E0,1.3342831E0,4.521126E0,5.9483498E1,7.223337E1,4.0508575E0,2.059863E1,2.2804813E0,3.5580935E0,1.7731076E0,1.3878113E0,1.3599547E0,1.8489465E0,1.8903292E1,3.5508554E0,1.54713E1,1.3291998E0,1.3488412E0,5.419968E0,1.0052501E1,2.21017E0,1.7949083E0,7.157402E1,1.2678691E1,8.04438E1,1.3474062E1,2.247756E0,1.0149686E1,7.158083E0,6.7306175E0,8.866666E0,6.5562195E1,4.0020595E0,7.0747925E1,1.7785426E0,2.6587286E0,5.9368315E0,8.082623E0,1.3599416E0,5.5135756E0,2.2682812E0,2.2760098E0,6.431721E0,1.4793197E1,4.3541916E1,2.1159285E1],"tree_param":{"num_deleted":"0","num_feature":"231","num_nodes":"107","size_leaf_vector":"1"}},{"base_weights":[-4.143079E-2,-8.397423E-2,1.3556653E-1,-1.2615186E-1,1.1982287E-1,-2.5912618E-2,2.9466584E-1,-9.251632E-2,-4.357608E-1,2.4054936E-1,-4.3237573E-1,-3.1174472E-1,9.920157E-2,4.4010526E-1,-1.3472946E-1,5.3803083E-2,-1.8483919E-1,-1.7594628E-2,-5.5882794E-1,-1.8282826E-1,4.2353153E-1,2.8535765E-1,-5.667337E-1,3.7656474E-1,-4.456676E-1,-1.7969063E-1,4.097641E-1,3.2292035E-1,8.927464E-1,-5.257441E-1,1.3546222E-1,7.300978E-1,1.0281961E-2,-3.434158E-1,-1.0399113E-1,-3.011791E-1,5.145602E-1,-6.315279E-1,2.9002315E-1,-2.8765464E-1,1.6401574E-2,8.970797E-1,2.1693064E-1,-1.2427562E-2,2.555196E-2,-2.0391796E-2,-5.8295842E-2,-3.962398E-3,2.4560157E-2,-5.729163E-1,1.5494609E-1,4.598178E-2,-5.696864E-1,-2.772024E-1,6.8710864E-1,1.6796869E-1,5.9193975E-1,1.0318942E0,-8.085734E-4,-1.9023728E-2,5.912545E-4,-1.5890156E-1,2.9061869E-2,-3.8707794E-3,2.7644254E-2,1.4647805E-2,-1.2957308E-3,-1.10453805E-2,1.7472744E-2,-3.7511103E-3,1.6423179E-2,1.2971624E-2,-1.8768445E-2,2.5514934E-2,3.2816613E-3,-2.050876E-2,-2.2510788E-3,1.1889777E-4,1.359254E-2,8.84378E-3,-1.2136801E-2,3.0247256E-2,2.643322E-3,1.0038934E-2,-1.4255198E-2,-1.2509157E-2,7.961143E-3,2.5526976E-4,-1.8774632E-2,2.5098257E-2,-1.4370888E-2,-2.6827622E-3,2.118768E-2,1.1982978E-4,-1.9677972E-2,2.3919161E-2,-1.9114127E-2,2.975322E-2,-3.4338795E-4,-2.2792683E-3,1.2378487E-2,7.6163467E-3,3.153801E-2,6.6360557E-3,3.5959333E-2,-1.3891597E-2,8.8481475E-3],"categories":[],"categories_nodes":[],"categories_segments":[],"categories_sizes":[],"default_left":[0,0,0,0,0,0,0,0,0,0,0,0,0,0,0,0,0,0,0,0,0,0,0,0,0,0,0,0,0,0,0,0,0,0,0,0,0,0,0,0,0,0,0,0,0,0,0,0,0,0,0,0,0,0,0,0,0,0,0,0,0,0,0,0,0,0,0,0,0,0,0,0,0,0,0,0,0,0,0,0,0,0,0,0,0,0,0,0,0,0,0,0,0,0,0,0,0,0,0,0,0,0,0,0,0,0,0],"id":18,"left_children":[1,3,5,7,9,11,13,15,17,19,21,23,25,27,29,31,33,35,37,39,41,43,45,47,49,51,53,55,57,59,61,63,65,67,69,71,73,75,77,79,-1,81,83,-1,-1,-1,85,-1,-1,87,89,91,93,95,97,99,101,103,-1,-1,-1,105,-1,-1,-1,-1,-1,-1,-1,-1,-1,-1,-1,-1,-1,-1,-1,-1,-1,-1,-1,-1,-1,-1,-1,-1,-1,-1,-1,-1,-1,-1,-1,-1,-1,-1,-1,-1,-1,-1,-1,-1,-1,-1,-1,-1,-1],"loss_changes":[5.592871E0,5.1571026E0,3.7076874E0,5.12619E0,6.9763756E0,2.619877E0,4.594826E0,6.072229E0,2.4782019E0,6.6807175E0,1.9796848E0,2.2218068E0,4.500654E0,2.601737E0,2.0934062E0,5.1253166E0,3.494852E0,1.9697803E0,2.4862814E0,2.1777804E0,5.6574984E0,1.7942395E0,8.9188623E-1,1.0461504E0,1.5493693E0,2.4574592E0,4.8560715E0,1.7700067E0,1.3892145E0,4.869883E-1,3.1253576E0,1.8501301E0,4.23473E0,2.3364687E0,2.5886955E0,2.2877192E0,5.262532E-1,9.544697E-1,1.6750279E-1,1.7368534E0,0E0,1.516408E0,3.6589923E0,0E0,0E0,0E0,5.7989657E-1,0E0,0E0,4.969573E-1,2.1847913E0,1.7103766E0,5.073118E-1,3.5074558E0,3.7852726E0,1.8129531E0,2.2167072E0,9.874058E-1,0E0,0E0,0E0,1.490838E0,0E0,0E0,0E0,0E0,0E0,0E0,0E0,0E0,0E0,0E0,0E0,0E0,0E0,0E0,0E0,0E0,0E0,0E0,0E0,0E0,0E0,0E0,0E0,0E0,0E0,0E0,0E0,0E0,0E0,0E0,0E0,0E0,0E0,0E0,0E0,0E0,0E0,0E0,0E0,0E0,0E0,0E0,0E0,0E0,0E0],"parents":[2147483647,0,0,1,1,2,2,3,3,4,4,5,5,6,6,7,7,8,8,9,9,10,10,11,11,12,12,13,13,14,14,15,15,16,16,17,17,18,18,19,19,20,20,21,21,22,22,23,23,24,24,25,25,26,26,27,27,28,28,29,29,30,30,31,31,32,32,33,33,34,34,35,35,36,36,37,37,38,38,39,39,41,41,42,42,46,46,49,49,50,50,51,51,52,52,53,53,54,54,55,55,56,56,57,57,61,61],"right_children":[2,4,6,8,10,12,14,16,18,20,22,24,26,28,30,32,34,36,38,40,42,44,46,48,50,52,54,56,58,60,62,64,66,68,70,72,74,76,78,80,-1,82,84,-1,-1,-1,86,-1,-1,88,90,92,94,96,98,100,102,104,-1,-1,-1,106,-1,-1,-1,-1,-1,-1,-1,-1,-1,-1,-1,-1,-1,-1,-1,-1,-1,-1,-1,-1,-1,-1,-1,-1,-1,-1,-1,-1,-1,-1,-1,-1,-1,-1,-1,-1,-1,-1,-1,-1,-1,-1,-1,-1,-1],"split_conditions":[4.6647614E-1,3.8609347E-1,-2.574496E-1,9.6020746E-1,2.2E-1,8.42694E-3,6.4E-1,3.6E-1,-8.7807184E-1,-2.882946E-1,5.8705067E-5,2.8125114E1,-8.383449E-1,6.390618E-1,1.07246526E-1,2.453331E-10,4.6E-1,1.08250804E-1,7.296899E-2,1.3266499E0,1.3500868E-1,-2.3497188E-1,2.8081834E-6,5.713143E-1,4.9959984E-1,4.2387106E-2,-5.7701796E-1,5.556979E-1,5E-1,2.174225E0,-4.4145232E-1,-8.631198E-1,4.4096973E-2,6.974238E-1,1.6142143E9,2.8683397E-1,1.05281785E-1,4E-2,-6.3089883E-1,3.9915332E-1,1.6401574E-2,9.0946876E-2,4.2550677E-1,-1.2427562E-2,2.555196E-2,-2.0391796E-2,6.530672E-1,-3.962398E-3,2.4560157E-2,-1.1919193E0,2.5598744E-1,9.540447E-2,3.7251946E-2,-8.2565314E-1,6.9281586E-2,4.7370878E-1,2.5723076E-1,-4.1506106E-1,-8.085734E-4,-1.9023728E-2,5.912545E-4,8.1876755E-1,2.9061869E-2,-3.8707794E-3,2.7644254E-2,1.4647805E-2,-1.2957308E-3,-1.10453805E-2,1.7472744E-2,-3.7511103E-3,1.6423179E-2,1.2971624E-2,-1.8768445E-2,2.5514934E-2,3.2816613E-3,-2.050876E-2,-2.2510788E-3,1.1889777E-4,1.359254E-2,8.84378E-3,-1.2136801E-2,3.0247256E-2,2.643322E-3,1.0038934E-2,-1.4255198E-2,-1.2509157E-2,7.961143E-3,2.5526976E-4,-1.8774632E-2,2.5098257E-2,-1.4370888E-2,-2.6827622E-3,2.118768E-2,1.1982978E-4,-1.9677972E-2,2.3919161E-2,-1.9114127E-2,2.975322E-2,-3.4338795E-4,-2.2792683E-3,1.2378487E-2,7.6163467E-3,3.153801E-2,6.6360557E-3,3.5959333E-2,-1.3891597E-2,8.8481475E-3],"split_indices":[166,131,54,0,135,189,125,125,54,54,151,169,1,168,61,170,125,215,78,207,90,0,15,168,202,171,90,13,203,54,4,71,215,168,229,157,201,100,71,154,0,220,206,0,0,0,3,0,0,61,61,195,201,61,188,207,54,0,0,0,0,62,0,0,0,0,0,0,0,0,0,0,0,0,0,0,0,0,0,0,0,0,0,0,0,0,0,0,0,0,0,0,0,0,0,0,0,0,0,0,0,0,0,0,0,0,0],"split_type":[0,0,0,0,0,0,0,0,0,0,0,0,0,0,0,0,0,0,0,0,0,0,0,0,0,0,0,0,0,0,0,0,0,0,0,0,0,0,0,0,0,0,0,0,0,0,0,0,0,0,0,0,0,0,0,0,0,0,0,0,0,0,0,0,0,0,0,0,0,0,0,0,0,0,0,0,0,0,0,0,0,0,0,0,0,0,0,0,0,0,0,0,0,0,0,0,0,0,0,0,0,0,0,0,0,0,0],"sum_hessian":[7.402261E2,5.97206E2,1.4302008E2,4.951179E2,1.0208809E2,7.139464E1,7.162544E1,4.4777136E2,4.7346527E1,8.4236046E1,1.7852045E1,2.1282227E1,5.0112415E1,5.34848E1,1.8140644E1,1.7338947E2,2.743819E2,1.1025679E1,3.632085E1,2.5420301E1,5.8815742E1,2.6377046E0,1.5214339E1,3.1712873E0,1.8110939E1,2.6624454E1,2.348796E1,4.384668E1,9.638117E0,7.0263977E0,1.1114245E1,9.529558E0,1.6385991E2,9.1555626E1,