{"learner":{"attributes":{"scikit_learn":"{\"_estimator_type\": \"classifier\"}"},"feature_names":[],"feature_types":[],"gradient_booster":{"model":{"gbtree_model_param":{"num_parallel_tree":"1","num_trees":"600"},"iteration_indptr":[0,3,6,9,12,15,18,21,24,27,30,33,36,39,42,45,48,51,54,57,60,63,66,69,72,75,78,81,84,87,90,93,96,99,102,105,108,111,114,117,120,123,126,129,132,135,138,141,144,147,150,153,156,159,162,165,168,171,174,177,180,183,186,189,192,195,198,201,204,207,210,213,216,219,222,225,228,231,234,237,240,243,246,249,252,255,258,261,264,267,270,273,276,279,282,285,288,291,294,297,300,303,306,309,312,315,318,321,324,327,330,333,336,339,342,345,348,351,354,357,360,363,366,369,372,375,378,381,384,387,390,393,396,399,402,405,408,411,414,417,420,423,426,429,432,435,438,441,444,447,450,453,456,459,462,465,468,471,474,477,480,483,486,489,492,495,498,501,504,507,510,513,516,519,522,525,528,531,534,537,540,543,546,549,552,555,558,561,564,567,570,573,576,579,582,585,588,591,594,597,600],"tree_info":[0,1,2,0,1,2,0,1,2,0,1,2,0,1,2,0,1,2,0,1,2,0,1,2,0,1,2,0,1,2,0,1,2,0,1,2,0,1,2,0,1,2,0,1,2,0,1,2,0,1,2,0,1,2,0,1,2,0,1,2,0,1,2,0,1,2,0,1,2,0,1,2,0,1,2,0,1,2,0,1,2,0,1,2,0,1,2,0,1,2,0,1,2,0,1,2,0,1,2,0,1,2,0,1,2,0,1,2,0,1,2,0,1,2,0,1,2,0,1,2,0,1,2,0,1,2,0,1,2,0,1,2,0,1,2,0,1,2,0,1,2,0,1,2,0,1,2,0,1,2,0,1,2,0,1,2,0,1,2,0,1,2,0,1,2,0,1,2,0,1,2,0,1,2,0,1,2,0,1,2,0,1,2,0,1,2,0,1,2,0,1,2,0,1,2,0,1,2,0,1,2,0,1,2,0,1,2,0,1,2,0,1,2,0,1,2,0,1,2,0,1,2,0,1,2,0,1,2,0,1,2,0,1,2,0,1,2,0,1,2,0,1,2,0,1,2,0,1,2,0,1,2,0,1,2,0,1,2,0,1,2,0,1,2,0,1,2,0,1,2,0,1,2,0,1,2,0,1,2,0,1,2,0,1,2,0,1,2,0,1,2,0,1,2,0,1,2,0,1,2,0,1,2,0,1,2,0,1,2,0,1,2,0,1,2,0,1,2,0,1,2,0,1,2,0,1,2,0,1,2,0,1,2,0,1,2,0,1,2,0,1,2,0,1,2,0,1,2,0,1,2,0,1,2,0,1,2,0,1,2,0,1,2,0,1,2,0,1,2,0,1,2,0,1,2,0,1,2,0,1,2,0,1,2,0,1,2,0,1,2,0,1,2,0,1,2,0,1,2,0,1,2,0,1,2,0,1,2,0,1,2,0,1,2,0,1,2,0,1,2,0,1,2,0,1,2,0,1,2,0,1,2,0,1,2,0,1,2,0,1,2,0,1,2,0,1,2,0,1,2,0,1,2,0,1,2,0,1,2,0,1,2,0,1,2,0,1,2,0,1,2,0,1,2,0,1,2,0,1,2,0,1,2,0,1,2,0,1,2,0,1,2,0,1,2,0,1,2,0,1,2,0,1,2,0,1,2,0,1,2,0,1,2,0,1,2,0,1,2,0,1,2,0,1,2,0,1,2,0,1,2,0,1,2,0,1,2,0,1,2,0,1,2,0,1,2,0,1,2,0,1,2,0,1,2,0,1,2,0,1,2,0,1,2,0,1,2,0,1,2,0,1,2,0,1,2,0,1,2,0,1,2,0,1,2,0,1,2,0,1,2,0,1,2,0,1,2,0,1,2],"trees":[{"base_weights":[3.839479E-2,-9.156199E-2,2.0782258E-1,-2.7207643E-1,-1.0542444E-2,3.1415161E-1,7.3579594E-2,-2.9904565E-1,4.2477873E-1,-6.61017E-1,7.527006E-3,1.4171334E-1,3.898184E-1,-7.8274004E-2,3.1770408E-1,-3.7924257E-1,-9.316775E-2,9.1304344E-1,-2.8301892E-1,-2.1272728E-2,-7.6634543E-10,7.301658E-2,-1.2494089E-1,8.041237E-1,8.527128E-2,-4.285715E-1,4.1152862E-1,-1.2635179E-1,2.6938772E-1,2.7688396E-1,1.0153846E0,-7.947025E-2,-4.625551E-1,5.2577317E-1,-1.7573227E-1,3.6734693E-2,3.1034474E-3,-1.7560976E-2,1.2857142E-2,5.314815E-2,8.5714287E-1,-3.3236158E-1,7.136318E-2,1.9999997E-1,3.3934426E-2,1.452991E-1,-4.6153852E-1,-1.918033E-2,7.1999994E-3,4.4252646E-1,-4.270184E-8,-3.7137336E-1,-2.401926E-2,-3.1578952E-1,4.263959E-1,-1.2000004E-1,3.2112673E-1,3.735849E-2,-7.6634543E-10,-1.0072203E-2,9.2432415E-3,4.9655163E-3,-1.5671028E-2,-4.390245E-3,2.6307693E-2,-7.4414993E-3,1.1647058E-2,2.463877E-3,-1.2697097E-2,3.6233764E-2,-2.4324334E-3,-2.6946121E-3,-1.659218E-2,-6.5299696E-3,5.617833E-3,-1.5517242E-2,2.88E-2,1.1642936E-3,1.2768165E-2,8.181817E-3,-2.0322582E-2,1.361584E-2,-1.6363636E-2,-1.5652176E-2,7.6595736E-3,3.719007E-3,-1.5333334E-2,1.0829874E-2,-3.4513287E-3,3.1034474E-3,-1.7027028E-2,-1.0588248E-3,2.1570247E-2,6.164382E-3,-1.4754099E-2,7.3572216E-3,2.0386739E-2],"categories":[],"categories_nodes":[],"categories_segments":[],"categories_sizes":[],"default_left":[0,0,0,0,0,0,0,0,0,0,0,0,0,0,0,0,0,0,0,0,0,0,0,0,0,0,0,0,0,0,0,0,0,0,0,0,0,0,0,0,0,0,0,0,0,0,0,0,0,0,0,0,0,0,0,0,0,0,0,0,0,0,0,0,0,0,0,0,0,0,0,0,0,0,0,0,0,0,0,0,0,0,0,0,0,0,0,0,0,0,0,0,0,0,0,0,0],"id":0,"left_children":[1,3,5,7,9,11,13,15,17,19,21,23,25,27,29,31,33,35,37,-1,-1,39,41,43,45,47,49,51,53,55,57,59,61,63,65,-1,-1,-1,-1,67,69,71,73,75,-1,77,79,-1,-1,81,83,85,87,89,91,93,95,-1,-1,-1,-1,-1,-1,-1,-1,-1,-1,-1,-1,-1,-1,-1,-1,-1,-1,-1,-1,-1,-1,-1,-1,-1,-1,-1,-1,-1,-1,-1,-1,-1,-1,-1,-1,-1,-1,-1,-1],"loss_changes":[4.092656E1,1.5384464E1,1.1492771E1,6.251667E0,8.55254E0,5.814846E0,1.3292232E1,5.1545525E0,4.597516E0,6.2496185E-1,6.1560297E0,5.1200275E0,5.721775E0,3.7354379E0,3.633192E0,5.6047707E0,4.663235E0,1.8064432E0,1.5178488E0,0E0,0E0,7.3511744E0,9.583287E0,1.9030585E0,4.3013315E0,1.359063E0,3.8850632E0,4.8860188E0,2.6357644E0,2.342698E0,1.6859221E0,5.1027846E0,6.7190437E0,2.6720257E0,3.3454933E0,0E0,0E0,0E0,0E0,6.4423456E0,3.9361181E0,6.0707617E0,4.108887E0,3.222069E0,0E0,3.4758894E0,2.245432E0,0E0,0E0,3.4192696E0,3.1082332E0,4.0395374E0,4.9051375E0,7.272281E-1,2.982482E0,1.7818099E0,3.052001E0,0E0,0E0,0E0,0E0,0E0,0E0,0E0,0E0,0E0,0E0,0E0,0E0,0E0,0E0,0E0,0E0,0E0,0E0,0E0,0E0,0E0,0E0,0E0,0E0,0E0,0E0,0E0,0E0,0E0,0E0,0E0,0E0,0E0,0E0,0E0,0E0,0E0,0E0,0E0,0E0],"parents":[2147483647,0,0,1,1,2,2,3,3,4,4,5,5,6,6,7,7,8,8,9,9,10,10,11,11,12,12,13,13,14,14,15,15,16,16,17,17,18,18,21,21,22,22,23,23,24,24,25,25,26,26,27,27,28,28,29,29,30,30,31,31,32,32,33,33,34,34,39,39,40,40,41,41,42,42,43,43,45,45,46,46,49,49,50,50,51,51,52,52,53,53,54,54,55,55,56,56],"right_children":[2,4,6,8,10,12,14,16,18,20,22,24,26,28,30,32,34,36,38,-1,-1,40,42,44,46,48,50,52,54,56,58,60,62,64,66,-1,-1,-1,-1,68,70,72,74,76,-1,78,80,-1,-1,82,84,86,88,90,92,94,96,-1,-1,-1,-1,-1,-1,-1,-1,-1,-1,-1,-1,-1,-1,-1,-1,-1,-1,-1,-1,-1,-1,-1,-1,-1,-1,-1,-1,-1,-1,-1,-1,-1,-1,-1,-1,-1,-1,-1,-1],"split_conditions":[2.6749657E-2,-7.740746E-1,1.1956659E-2,8.7445855E-1,-8.1666666E-1,4E-1,4.6384253E-2,1.3176975E-1,8.818872E-1,6.718512E0,7.002462E-3,1.4E-1,1.110223E-16,3.8E-1,7.6785974E-2,-5.075582E-14,-9.639468E-1,4.552908E-2,1.28E0,-2.1272728E-2,-7.6634543E-10,3.6913473E-2,-6.0780272E-2,1.263153E-1,7.1414286E-1,1.2614216E-2,1.6818814E0,-1.3854909E-2,6.994313E-1,3.458528E-2,1.6405463E-1,2.5150585E-3,3.7454545E-1,8.170984E-3,2E-1,3.6734693E-2,3.1034474E-3,-1.7560976E-2,1.2857142E-2,3.6E-1,1.238727E-1,-1.4374253E-1,8.842512E-3,2.5E-1,3.3934426E-2,2.5E-1,-6.15E-1,-1.918033E-2,7.1999994E-3,6E-2,3.2590684E-2,3.2230705E-2,1.8E-1,4.0419854E-2,-9.954785E-2,4.627628E-1,4.1355217E-1,3.735849E-2,-7.6634543E-10,-1.0072203E-2,9.2432415E-3,4.9655163E-3,-1.5671028E-2,-4.390245E-3,2.6307693E-2,-7.4414993E-3,1.1647058E-2,2.463877E-3,-1.2697097E-2,3.6233764E-2,-2.4324334E-3,-2.6946121E-3,-1.659218E-2,-6.5299696E-3,5.617833E-3,-1.5517242E-2,2.88E-2,1.1642936E-3,1.2768165E-2,8.181817E-3,-2.0322582E-2,1.361584E-2,-1.6363636E-2,-1.5652176E-2,7.6595736E-3,3.719007E-3,-1.5333334E-2,1.0829874E-2,-3.4513287E-3,3.1034474E-3,-1.7027028E-2,-1.0588248E-3,2.1570247E-2,6.164382E-3,-1.4754099E-2,7.3572216E-3,2.0386739E-2],"split_indices":[220,0,160,224,147,213,215,78,221,149,160,210,173,115,186,93,94,1,130,0,0,186,83,224,223,156,54,62,208,196,61,189,129,196,134,0,0,0,0,116,224,61,175,67,0,67,144,0,0,103,217,217,115,197,54,78,54,0,0,0,0,0,0,0,0,0,0,0,0,0,0,0,0,0,0,0,0,0,0,0,0,0,0,0,0,0,0,0,0,0,0,0,0,0,0,0,0],"split_type":[0,0,0,0,0,0,0,0,0,0,0,0,0,0,0,0,0,0,0,0,0,0,0,0,0,0,0,0,0,0,0,0,0,0,0,0,0,0,0,0,0,0,0,0,0,0,0,0,0,0,0,0,0,0,0,0,0,0,0,0,0,0,0,0,0,0,0,0,0,0,0,0,0,0,0,0,0,0,0,0,0,0,0,0,0,0,0,0,0,0,0,0,0,0,0,0,0],"sum_hessian":[1.8568888E3,1.0511111E3,8.057777E2,3.2488885E2,7.2622217E2,4.4888885E2,3.5688885E2,3.133333E2,1.1555555E1,1.8666666E1,7.0755554E2,1.3777777E2,3.1111108E2,2.2044443E2,1.3644444E2,2.2488887E2,8.844444E1,6.666666E0,4.8888884E0,1.7333332E1,1.3333333E0,4.7377774E2,2.3377777E2,9.777777E0,1.2799999E2,7.5555553E0,3.0355554E2,1.9422221E2,2.6222221E1,1.3022221E2,6.222222E0,4.9333332E1,1.7555554E2,9.777777E0,7.8666664E1,4.444444E0,2.222222E0,3.5555553E0,1.3333333E0,4.6311108E2,1.0666666E1,1.1333333E2,1.20444435E2,3.9999998E0,5.7777777E0,1.1599999E2,1.1999999E1,5.7777777E0,1.7777777E0,2.822222E2,2.1333332E1,5.6444443E1,1.3777777E2,5.333333E0,2.0888887E1,1.2888888E1,1.1733333E2,4.8888884E0,1.3333333E0,2.9777777E1,1.9555553E1,1.5111111E1,1.6044443E2,3.5555553E0,6.222222E0,7.022222E1,8.444444E0,4.373333E2,2.5777777E1,7.5555553E0,3.111111E0,5.4666664E1,5.8666664E1,3.422222E1,8.622221E1,2.222222E0,1.7777777E0,8.4888885E1,3.1111109E1,2.6666665E0,9.333333E0,2.7955554E2,2.6666665E0,6.666666E0,1.4666666E1,1.2444444E1,4.3999996E1,2.5777777E1,1.1199999E2,2.222222E0,3.111111E0,8.444444E0,1.2444444E1,7.1111107E0,5.7777777E0,9.822221E1,1.911111E1],"tree_param":{"num_deleted":"0","num_feature":"231","num_nodes":"97","size_leaf_vector":"1"}},{"base_weights":[7.91319E-2,-3.157214E-2,2.1557604E-1,-2.4777842E-1,2.5023887E-2,5.705951E-1,1.6935845E-1,1.2923072E-1,-3.2310587E-1,-1.0371306E-2,3.766816E-1,-8.5714325E-2,6.544021E-1,-2.2365044E-1,1.9359484E-1,8.3168316E-1,-1.8025756E-1,-3.6570668E-1,2.654867E-1,1.9255011E-1,-8.2367346E-2,5.009174E-1,-1.5789478E-1,5.121951E-1,-4.1095895E-1,2.926829E-1,7.752212E-1,2.88E-2,-2.975872E-1,2.4210098E-1,4.6692165E-3,-1.4400001E-2,1.1294117E0,-4.2038223E-1,2.823529E-1,4.897959E-1,-3.9229187E-1,8.5714287E-1,-1.643836E-1,2.8701591E-1,-9.610989E-2,-1.3728946E-1,1.485774E-1,-1.9672136E-1,5.780933E-1,2.222222E-1,-1.918033E-2,-3.6000006E-3,2.88E-2,-1.8367348E-2,-3.2511625E-8,-4.9180332E-1,5.8823526E-1,8.0831826E-1,-1.2857144E-2,-1.5613388E-1,-6.1061954E-1,2.2476776E-1,8.5714287E-1,-5.806452E-1,4.9958326E-2,3.876923E-2,1.2413792E-2,-1.5517242E-2,1.2857142E-2,3.122449E-2,-1.8000001E-2,-9.753487E-10,2.88E-2,-7.73196E-3,-1.7572157E-2,3.272727E-2,7.1999994E-3,2.5714284E-2,-1.4754099E-2,5.005054E-3,1.8961424E-2,1.3146067E-2,-6.806724E-3,-8.808759E-3,-1.1097424E-3,1.0615384E-2,-5.3083124E-3,1.2857142E-2,-1.2857144E-2,2.2426227E-2,8.680202E-3,1.6229507E-2,-1.5517242E-2,-1.2857144E-2,1.2857142E-2,-1.8367348E-2,-7.6634543E-10,-6.2068976E-3,2.1654135E-2,-1.2857144E-2,2.5286505E-2,1.5365853E-2,-7.974684E-3,-2.0412372E-2,-3.6000006E-3,7.916366E-3,-3.8961173E-4,-3.6000006E-3,3E-2,-2.0000001E-2,-7.6634543E-10,7.358489E-3,-2.33288E-3],"categories":[],"categories_nodes":[],"categories_segments":[],"categories_sizes":[],"default_left":[0,0,0,0,0,0,0,0,0,0,0,0,0,0,0,0,0,0,0,0,0,0,0,0,0,0,0,0,0,0,0,0,0,0,0,0,0,0,0,0,0,0,0,0,0,0,0,0,0,0,0,0,0,0,0,0,0,0,0,0,0,0,0,0,0,0,0,0,0,0,0,0,0,0,0,0,0,0,0,0,0,0,0,0,0,0,0,0,0,0,0,0,0,0,0,0,0,0,0,0,0,0,0,0,0,0,0,0,0],"id":1,"left_children":[1,3,5,7,9,11,13,15,17,19,21,23,25,27,29,31,33,35,37,39,41,43,45,47,49,51,53,-1,55,57,59,-1,61,63,65,67,69,71,73,75,77,79,81,83,85,87,-1,-1,-1,-1,89,91,93,95,-1,97,99,101,103,105,107,-1,-1,-1,-1,-1,-1,-1,-1,-1,-1,-1,-1,-1,-1,-1,-1,-1,-1,-1,-1,-1,-1,-1,-1,-1,-1,-1,-1,-1,-1,-1,-1,-1,-1,-1,-1,-1,-1,-1,-1,-1,-1,-1,-1,-1,-1,-1,-1],"loss_changes":[2.8002926E1,1.2537648E1,1.3527576E1,6.0781527E0,1.0117779E1,5.2936287E0,7.054842E0,8.000502E0,4.546423E0,1.0815555E1,5.015831E0,2.4792707E0,3.4684029E0,4.0682874E0,6.357704E0,4.9246826E0,2.9945424E0,3.9650707E0,3.3342223E0,5.314643E0,6.950076E0,3.3740883E0,2.846515E0,1.4048779E0,6.709533E-1,5.5704775E0,2.8476105E0,0E0,1.739799E0,5.693207E0,3.813814E0,0E0,5.662041E-1,1.6561131E0,6.945018E0,1.2538774E0,4.0514584E0,5.236361E-1,3.1344519E0,5.962432E0,3.4923806E0,6.9180355E0,7.1083336E0,1.1662762E0,2.4639034E0,2.401231E0,0E0,0E0,0E0,0E0,8.5714287E-1,4.014721E-1,1.9548268E0,2.9881935E0,0E0,2.3272567E0,3.4827518E-1,5.009304E0,2.1828575E0,5.16129E-1,3.34812E0,0E0,0E0,0E0,0E0,0E0,0E0,0E0,0E0,0E0,0E0,0E0,0E0,0E0,0E0,0E0,0E0,0E0,0E0,0E0,0E0,0E0,0E0,0E0,0E0,0E0,0E0,0E0,0E0,0E0,0E0,0E0,0E0,0E0,0E0,0E0,0E0,0E0,0E0,0E0,0E0,0E0,0E0,0E0,0E0,0E0,0E0,0E0,0E0],"parents":[2147483647,0,0,1,1,2,2,3,3,4,4,5,5,6,6,7,7,8,8,9,9,10,10,11,11,12,12,13,13,14,14,15,15,16,16,17,17,18,18,19,19,20,20,21,21,22,22,23,23,24,24,25,25,26,26,28,28,29,29,30,30,32,32,33,33,34,34,35,35,36,36,37,37,38,38,39,39,40,40,41,41,42,42,43,43,44,44,45,45,50,50,51,51,52,52,53,53,55,55,56,56,57,57,58,58,59,59,60,60],"right_children":[2,4,6,8,10,12,14,16,18,20,22,24,26,28,30,32,34,36,38,40,42,44,46,48,50,52,54,-1,56,58,60,-1,62,64,66,68,70,72,74,76,78,80,82,84,86,88,-1,-1,-1,-1,90,92,94,96,-1,98,100,102,104,106,108,-1,-1,-1,-1,-1,-1,-1,-1,-1,-1,-1,-1,-1,-1,-1,-1,-1,-1,-1,-1,-1,-1,-1,-1,-1,-1,-1,-1,-1,-1,-1,-1,-1,-1,-1,-1,-1,-1,-1,-1,-1,-1,-1,-1,-1,-1,-1,-1],"split_conditions":[-5.0565045E-2,-8.456182E-1,1.810034E-2,4.6647614E-1,7.2953564E-1,3.6394496E-3,3.723662E-1,-4.9316996E-1,8.3493465E-1,0E0,1.6E-1,0E0,4.488222E-1,-4.348588E-1,3.246E1,-2.0589258E-1,1.0345454E0,-9.639303E-1,0E0,9.399518E-1,7.5E-1,3.268528E-1,4.9445014E-3,-4.8E-1,1.9450178E0,1.3217735E-1,1.6229842E0,2.88E-2,1.7735358E-37,1.9850881E0,2.3196904E-2,-1.4400001E-2,5E-1,6.558714E-1,5.726578E-1,-9.6202534E-1,1.6E-1,4.079792E-1,-9.408317E-1,-2.2290768E-1,1.9005173E-3,1.2274635E-1,-2.711148E-1,1.6033697E-1,4.8132893E-1,4.1808423E-1,-1.918033E-2,-3.6000006E-3,2.88E-2,-1.8367348E-2,0E0,7.934791E-1,-5E-1,-8.1241626E-1,-1.2857144E-2,-2.5929892E-1,6E-2,1E0,-5.1272726E-1,3.393879E-2,-4.7686282E-1,3.876923E-2,1.2413792E-2,-1.5517242E-2,1.2857142E-2,3.122449E-2,-1.8000001E-2,-9.753487E-10,2.88E-2,-7.73196E-3,-1.7572157E-2,3.272727E-2,7.1999994E-3,2.5714284E-2,-1.4754099E-2,5.005054E-3,1.8961424E-2,1.3146067E-2,-6.806724E-3,-8.808759E-3,-1.1097424E-3,1.0615384E-2,-5.3083124E-3,1.2857142E-2,-1.2857144E-2,2.2426227E-2,8.680202E-3,1.6229507E-2,-1.5517242E-2,-1.2857144E-2,1.2857142E-2,-1.8367348E-2,-7.6634543E-10,-6.2068976E-3,2.1654135E-2,-1.2857144E-2,2.5286505E-2,1.5365853E-2,-7.974684E-3,-2.0412372E-2,-3.6000006E-3,7.916366E-3,-3.8961173E-4,-3.6000006E-3,3E-2,-2.0000001E-2,-7.6634543E-10,7.358489E-3,-2.33288E-3],"split_indices":[0,0,197,192,224,172,157,4,155,146,113,69,158,9,107,81,129,63,69,13,67,158,171,102,3,77,1,0,169,4,197,0,69,158,155,9,134,4,0,77,160,224,0,54,54,81,0,0,0,0,48,3,69,4,0,9,103,37,129,4,1,0,0,0,0,0,0,0,0,0,0,0,0,0,0,0,0,0,0,0,0,0,0,0,0,0,0,0,0,0,0,0,0,0,0,0,0,0,0,0,0,0,0,0,0,0,0,0,0],"split_type":[0,0,0,0,0,0,0,0,0,0,0,0,0,0,0,0,0,0,0,0,0,0,0,0,0,0,0,0,0,0,0,0,0,0,0,0,0,0,0,0,0,0,0,0,0,0,0,0,0,0,0,0,0,0,0,0,0,0,0,0,0,0,0,0,0,0,0,0,0,0,0,0,0,0,0,0,0,0,0,0,0,0,0,0,0,0,0,0,0,0,0,0,0,0,0,0,0,0,0,0,0,0,0,0,0,0,0,0,0],"sum_hessian":[1.8524443E3,1.023111E3,8.293333E2,2.1155554E2,8.115555E2,9.422221E1,7.351111E2,3.511111E1,1.7644443E2,7.3822217E2,7.333333E1,1.0666666E1,8.355555E1,4.222222E1,6.9288885E2,1.0222221E1,2.4888887E1,1.6488889E2,1.1555555E1,1.9288887E2,5.453333E2,5.9555553E1,1.3777777E1,3.5555553E0,7.1111107E0,2.1777777E1,6.1777775E1,1.7777777E0,4.0444443E1,5.511111E2,1.4177777E2,1.7777777E0,8.444444E0,1.6444443E1,8.444444E0,4.444444E0,1.6044443E2,4.444444E0,7.1111107E0,1.4533333E2,4.7555553E1,4.4088885E2,1.04444435E2,5.7777777E0,5.3777775E1,7.9999995E0,5.7777777E0,1.7777777E0,1.7777777E0,4.444444E0,2.6666665E0,5.7777777E0,1.5999999E1,6.0444443E1,1.3333333E0,2.8888887E1,1.1555555E1,5.373333E2,1.3777777E1,9.333333E0,1.3244444E2,6.222222E0,2.222222E0,1.5111111E1,1.3333333E0,4.444444E0,3.9999998E0,2.6666665E0,1.7777777E0,9.599999E1,6.444444E1,2.6666665E0,1.7777777E0,1.3333333E0,5.7777777E0,1.08888885E2,3.6444443E1,8.888888E0,3.8666664E1,1.7155554E2,2.693333E2,6.3999996E1,4.0444443E1,1.3333333E0,4.444444E0,3.2888885E1,2.0888887E1,5.7777777E0,2.222222E0,1.3333333E0,1.3333333E0,4.444444E0,1.3333333E0,2.222222E0,1.3777777E1,1.3333333E0,5.9111107E1,3.5555553E0,2.5333332E1,9.777777E0,1.7777777E0,4.613333E2,7.599999E1,1.7777777E0,1.1999999E1,7.9999995E0,1.3333333E0,5.1999996E1,8.044444E1],"tree_param":{"num_deleted":"0","num_feature":"231","num_nodes":"109","size_leaf_vector":"1"}},{"base_weights":[-1.3692358E-1,4.1278437E-1,-2.4521187E-1,-3.2357518E-2,5.467355E-1,-9.203571E-2,-3.8120216E-1,9.026548E-1,-2.2568813E-1,5.9999996E-1,-4.5132747E-1,-2.7486533E-1,-1.0468965E-2,-1.6812344E-1,-4.5591715E-1,-6.2068976E-3,1.1612903E0,9.0566033E-1,-3.4131742E-1,4.584654E-1,1.0765864E0,-5.9405947E-1,1.2857142E-2,-3.7009352E-1,7.415726E-2,3.5042733E-1,-1.1776339E-1,4.6489102E-1,-3.3679435E-1,-4.9047333E-1,-1.8124011E-1,7.1999994E-3,3.9740257E-2,3.5121948E-2,-7.6634543E-10,5.121951E-1,-4.0938172E-1,5.748642E-1,-6.0606107E-2,1.2E0,9.836062E-2,-2.022472E-2,-7.6634543E-10,-4.241593E-1,1.528662E-1,-4.143647E-1,3.9560437E-1,8.2822084E-1,-6.2827274E-2,1.238628E-1,-2.8005663E-1,-3.5294122E-1,6.587537E-1,-4.1710043E-1,2.0487802E-1,-3.540913E-1,-5.428898E-1,-2.9142863E-1,3.451327E-1,3.103448E-2,-1.2857144E-2,-1.7602526E-2,-1.1180136E-3,3.4225352E-2,1.3769584E-2,-1.6153846E-2,7.1428563E-3,9.8630125E-3,4.064516E-2,2.88E-2,-1.2000001E-2,-1.4912574E-2,-2.37736E-3,2.2153845E-2,-7.128714E-3,3.9130426E-3,-2.0826448E-2,2.5116278E-2,-1.262216E-9,1.0180995E-2,3.574007E-2,9.539169E-3,-8.630139E-3,-1.4106596E-3,1.3846152E-2,1.42574245E-2,-9.492363E-3,1.2413792E-2,-1.9384617E-2,2.4631578E-2,-5.9016407E-3,2.1951217E-2,-1.3503429E-2,3.3934426E-2,-5.294119E-3,-6.9015557E-3,-1.884706E-2,-1.9944943E-2,-1.3641648E-2,2.5714284E-2,-1.0000001E-2,-9.729731E-3,1.8E-2],"categories":[],"categories_nodes":[],"categories_segments":[],"categories_sizes":[],"default_left":[0,0,0,0,0,0,0,0,0,0,0,0,0,0,0,0,0,0,0,0,0,0,0,0,0,0,0,0,0,0,0,0,0,0,0,0,0,0,0,0,0,0,0,0,0,0,0,0,0,0,0,0,0,0,0,0,0,0,0,0,0,0,0,0,0,0,0,0,0,0,0,0,0,0,0,0,0,0,0,0,0,0,0,0,0,0,0,0,0,0,0,0,0,0,0,0,0,0,0,0,0,0,0],"id":2,"left_children":[1,3,5,7,9,11,13,15,17,19,21,23,25,27,29,-1,31,33,35,37,39,41,-1,43,45,47,49,51,53,55,57,-1,-1,-1,-1,59,61,63,65,67,69,-1,-1,71,73,75,77,79,81,83,85,87,89,91,93,95,97,99,101,-1,-1,-1,-1,-1,-1,-1,-1,-1,-1,-1,-1,-1,-1,-1,-1,-1,-1,-1,-1,-1,-1,-1,-1,-1,-1,-1,-1,-1,-1,-1,-1,-1,-1,-1,-1,-1,-1,-1,-1,-1,-1,-1,-1],"loss_changes":[1.1125122E2,1.8363018E1,3.2472008E1,1.3238991E1,1.284639E1,1.0961355E1,1.3078743E1,3.8433266E0,8.230815E0,1.4683456E1,1.8314455E0,7.56481E0,1.9768057E1,2.3230995E1,5.7126923E0,0E0,1.2375021E0,1.4137135E0,3.4435682E0,1.0621643E1,6.0121803E0,5.3398585E-1,0E0,5.107073E0,7.928381E0,2.3153725E1,1.5463336E1,7.508054E0,7.5335503E0,3.684723E0,4.1541533E0,0E0,0E0,0E0,0E0,2.6817253E0,3.417552E0,8.86956E0,4.838495E0,5.625099E0,3.294426E0,0E0,0E0,4.0326633E0,4.164481E0,3.1567347E0,5.29926E0,9.240421E0,5.5426435E0,9.183756E0,6.621645E0,2.3906384E0,5.360405E0,5.9972687E0,8.245445E0,5.073303E0,3.889534E0,3.0933337E0,2.3368568E0,0E0,0E0,0E0,0E0,0E0,0E0,0E0,0E0,0E0,0E0,0E0,0E0,0E0,0E0,0E0,0E0,0E0,0E0,0E0,0E0,0E0,0E0,0E0,0E0,0E0,0E0,0E0,0E0,0E0,0E0,0E0,0E0,0E0,0E0,0E0,0E0,0E0,0E0,0E0,0E0,0E0,0E0,0E0,0E0],"parents":[2147483647,0,0,1,1,2,2,3,3,4,4,5,5,6,6,7,7,8,8,9,9,10,10,11,11,12,12,13,13,14,14,16,16,17,17,18,18,19,19,20,20,21,21,23,23,24,24,25,25,26,26,27,27,28,28,29,29,30,30,35,35,36,36,37,37,38,38,39,39,40,40,43,43,44,44,45,45,46,46,47,47,48,48,49,49,50,50,51,51,52,52,53,53,54,54,55,55,56,56,57,57,58,58],"right_children":[2,4,6,8,10,12,14,16,18,20,22,24,26,28,30,-1,32,34,36,38,40,42,-1,44,46,48,50,52,54,56,58,-1,-1,-1,-1,60,62,64,66,68,70,-1,-1,72,74,76,78,80,82,84,86,88,90,92,94,96,98,100,102,-1,-1,-1,-1,-1,-1,-1,-1,-1,-1,-1,-1,-1,-1,-1,-1,-1,-1,-1,-1,-1,-1,-1,-1,-1,-1,-1,-1,-1,-1,-1,-1,-1,-1,-1,-1,-1,-1,-1,-1,-1,-1,-1,-1],"split_conditions":[-7.826816E-1,-3.7810043E-4,2.6624056E-2,-1.3394989E0,8.5002613E-1,1.2539386E-2,1.6653345E-16,5.6764134E-3,-8.21015E-2,3.085479E-1,4.8132893E-1,1.0909091E0,3.441127E-1,-1.13874026E-1,8E-1,-6.2068976E-3,-3.00289E-1,5.2142787E-1,2.0176011E-1,2.2409575E-1,-8.5368806E-1,-7.764033E-1,1.2857142E-2,1.499094E0,1.590838E-1,-7.790143E-2,-3.6148703E-1,-1.6835056E-1,3.6363637E-1,1.0773959E-2,7.010865E-1,7.1999994E-3,3.9740257E-2,3.5121948E-2,-7.6634543E-10,5E-3,6.552918E-2,6.9317676E-4,2.706193E-1,-9.5929897E-1,1.2206556E-1,-2.022472E-2,-7.6634543E-10,6.322295E-2,-3.3333334E-1,2.8E-1,7.041987E-3,-1.4883938E-1,1.6E-1,5.8680438E-3,6.351378E-1,-2.3278245E-1,1.207728E-1,-4.636914E-1,2.8039547E-2,1.3506247E-1,2.8854614E-1,3.011803E-3,1.238727E-1,3.103448E-2,-1.2857144E-2,-1.7602526E-2,-1.1180136E-3,3.4225352E-2,1.3769584E-2,-1.6153846E-2,7.1428563E-3,9.8630125E-3,4.064516E-2,2.88E-2,-1.2000001E-2,-1.4912574E-2,-2.37736E-3,2.2153845E-2,-7.128714E-3,3.9130426E-3,-2.0826448E-2,2.5116278E-2,-1.262216E-9,1.0180995E-2,3.574007E-2,9.539169E-3,-8.630139E-3,-1.4106596E-3,1.3846152E-2,1.42574245E-2,-9.492363E-3,1.2413792E-2,-1.9384617E-2,2.4631578E-2,-5.9016407E-3,2.1951217E-2,-1.3503429E-2,3.3934426E-2,-5.294119E-3,-6.9015557E-3,-1.884706E-2,-1.9944943E-2,-1.3641648E-2,2.5714284E-2,-1.0000001E-2,-9.729731E-3,1.8E-2],"split_indices":[0,93,217,13,224,197,189,162,81,90,54,52,158,6,133,0,3,1,167,90,0,2,0,208,157,83,0,20,52,182,77,0,0,0,0,144,3,160,90,9,224,0,0,97,70,116,172,41,113,160,221,13,13,0,196,228,167,175,224,0,0,0,0,0,0,0,0,0,0,0,0,0,0,0,0,0,0,0,0,0,0,0,0,0,0,0,0,0,0,0,0,0,0,0,0,0,0,0,0,0,0,0,0],"split_type":[0,0,0,0,0,0,0,0,0,0,0,0,0,0,0,0,0,0,0,0,0,0,0,0,0,0,0,0,0,0,0,0,0,0,0,0,0,0,0,0,0,0,0,0,0,0,0,0,0,0,0,0,0,0,0,0,0,0,0,0,0,0,0,0,0,0,0,0,0,0,0,0,0,0,0,0,0,0,0,0,0,0,0,0,0,0,0,0,0,0,0,0,0,0,0,0,0,0,0,0,0,0,0],"sum_hessian":[1.8662222E3,3.0666666E2,1.5595554E3,7.111111E1,2.3555554E2,7.3422217E2,8.253333E2,1.1555555E1,5.9555553E1,2.2399998E2,1.1555555E1,2.2577777E2,5.0844443E2,2.151111E2,6.1022217E2,2.222222E0,9.333333E0,4.8888884E0,5.4666664E1,1.7422221E2,4.9777775E1,1.0222221E1,1.3333333E0,1.7733333E2,4.8444443E1,1.1599999E2,3.9244443E2,4.4888885E1,1.7022221E2,5.413333E2,6.8888885E1,1.7777777E0,7.5555553E0,3.5555553E0,1.3333333E0,3.5555553E0,5.1111107E1,1.4222221E2,3.1999998E1,4.3999996E1,5.7777777E0,8.888888E0,1.3333333E0,1.6088889E2,1.6444443E1,1.911111E1,2.9333332E1,5.333333E1,6.2666664E1,1.5777777E2,2.3466666E2,8.444444E0,3.6444443E1,1.4844444E2,2.1777777E1,1.5244444E2,3.8888885E2,5.733333E1,1.1555555E1,2.222222E0,1.3333333E0,3.422222E1,1.6888887E1,2.2666666E1,1.1955555E2,1.1999999E1,1.9999998E1,7.1111107E0,3.6888885E1,1.7777777E0,3.9999998E0,1.3244444E2,2.8444443E1,6.222222E0,1.0222221E1,6.666666E0,1.2444444E1,1.3333332E1,1.5999999E1,2.3555553E1,2.9777777E1,2.311111E1,3.9555553E1,1.0533333E2,5.2444443E1,1.0222221E1,2.2444443E2,2.222222E0,6.222222E0,3.0666664E1,5.7777777E0,3.5555553E0,1.4488889E2,5.7777777E0,1.5999999E1,1.0622221E2,4.622222E1,1.6044443E2,2.2844443E2,1.3333333E0,5.5999996E1,3.111111E0,8.444444E0],"tree_param":{"num_deleted":"0","num_feature":"231","num_nodes":"103","size_leaf_vector":"1"}},{"base_weights":[4.1062552E-2,-8.338755E-2,2.0897625E-1,-1.681039E-1,6.495513E-2,1.9545811E-1,1.1006846E0,6.660317E-1,-1.8333629E-1,3.6369707E-2,4.7170963E-2,2.9742074E-1,8.703926E-2,-1.5647688E-4,1.2440194E0,-7.827655E-2,9.190025E-1,-6.783053E-1,-1.6315241E-1,2.5107086E-1,-4.7749322E-2,1.4532286E-1,4.2228138E-1,-2.7875258E-2,2.8395545E-1,1.26253925E-2,3.9590873E-2,1.2941856E-2,-1.4348269E-2,-1.8992507E-5,1.0704811E0,-2.1444991E-2,6.1719E-5,-1.3598345E-1,-5.413024E-1,9.47735E-1,1.34734E-1,1.3922344E-1,-1.2851974E-1,-7.504835E-3,3.0396318E-1,-5.2053772E-2,4.847968E-1,-9.894401E-2,3.3272478E-1,-1.00960374E-1,3.7259954E-1,1.248909E-2,3.7387155E-2,-1.0772687E-2,-2.5052407E-3,-1.8102868E-2,1.2703055E-2,-3.60695E-3,3.2285526E-2,8.622496E-3,-4.5227683E-3,-6.2419656E-3,9.312324E-3,1.943842E-2,-4.8317E-3,-1.7106095E-2,2.9607397E-3,1.5788663E-2,2.442459E-3,-4.857624E-3,2.8642219E-2,1.922172E-2,7.4239215E-3,-8.389761E-3,1.2313179E-3,4.537333E-3,2.287596E-2,8.927449E-3,-1.1841553E-2,1.3588977E-2,-4.4540386E-3],"categories":[],"categories_nodes":[],"categories_segments":[],"categories_sizes":[],"default_left":[0,0,0,0,0,0,0,0,0,0,0,0,0,0,0,0,0,0,0,0,0,0,0,0,0,0,0,0,0,0,0,0,0,0,0,0,0,0,0,0,0,0,0,0,0,0,0,0,0,0,0,0,0,0,0,0,0,0,0,0,0,0,0,0,0,0,0,0,0,0,0,0,0,0,0,0,0],"id":3,"left_children":[1,3,5,7,9,11,13,15,17,-1,19,21,23,-1,25,27,29,31,33,35,37,39,41,43,45,-1,-1,-1,-1,-1,47,-1,-1,49,51,53,55,57,59,61,63,65,67,69,71,73,75,-1,-1,-1,-1,-1,-1,-1,-1,-1,-1,-1,-1,-1,-1,-1,-1,-1,-1,-1,-1,-1,-1,-1,-1,-1,-1,-1,-1,-1,-1],"loss_changes":[3.9264877E1,1.3575726E1,9.425293E0,8.855068E0,7.9635763E0,8.696548E0,1.8654041E0,2.433455E0,6.640585E0,0E0,7.5237384E0,7.6529236E0,8.693207E0,0E0,9.159279E-2,1.0427842E0,1.3155923E0,6.516113E-1,6.610758E0,9.877317E0,4.0300555E0,4.4791527E0,6.624645E0,6.2677364E0,4.866804E0,0E0,0E0,0E0,0E0,0E0,4.130516E-1,0E0,0E0,7.092185E0,2.8492851E0,2.529872E0,4.7051315E0,4.8579206E0,4.8046274E0,5.7346835E0,4.4412584E0,3.1211302E0,7.1218987E0,5.1723413E0,3.0268345E0,3.3112574E0,4.893631E0,0E0,0E0,0E0,0E0,0E0,0E0,0E0,0E0,0E0,0E0,0E0,0E0,0E0,0E0,0E0,0E0,0E0,0E0,0E0,0E0,0E0,0E0,0E0,0E0,0E0,0E0,0E0,0E0,0E0,0E0],"parents":[2147483647,0,0,1,1,2,2,3,3,4,4,5,5,6,6,7,7,8,8,10,10,11,11,12,12,14,14,15,15,16,16,17,17,18,18,19,19,20,20,21,21,22,22,23,23,24,24,30,30,33,33,34,34,35,35,36,36,37,37,38,38,39,39,40,40,41,41,42,42,43,43,44,44,45,45,46,46],"right_children":[2,4,6,8,10,12,14,16,18,-1,20,22,24,-1,26,28,30,32,34,36,38,40,42,44,46,-1,-1,-1,-1,-1,48,-1,-1,50,52,54,56,58,60,62,64,66,68,70,72,74,76,-1,-1,-1,-1,-1,-1,-1,-1,-1,-1,-1,-1,-1,-1,-1,-1,-1,-1,-1,-1,-1,-1,-1,-1,-1,-1,-1,-1,-1,-1],"split_conditions":[2.6964063E-2,-7.790143E-2,1E0,2.8E-1,-9.355594E-2,1.1179648E-2,-9.8E-1,6.9577295E-1,-8.1E-1,3.6369707E-2,-5.3415143E-1,4.8989794E-1,6.590635E-1,-1.5647688E-4,-3.969391E-2,6.925316E-1,4.816853E-1,2.3235004E-1,-1.3298637E-1,4.129348E-1,-4.0986207E-3,2E-2,3.6660606E-1,3.8E-1,3.726827E-2,1.26253925E-2,3.9590873E-2,1.2941856E-2,-1.4348269E-2,-1.8992507E-5,1.515706E-1,-2.1444991E-2,6.1719E-5,4.9453294E-3,2.7645268E-2,-1.8744504E0,4.9959984E-1,8E-2,1.1820232E-2,1.2614216E-2,4.8538643E-1,2.847995E-1,4.6967987E-2,0E0,-8E-2,-2.8329715E-1,5.519241E-1,1.248909E-2,3.7387155E-2,-1.0772687E-2,-2.5052407E-3,-1.8102868E-2,1.2703055E-2,-3.60695E-3,3.2285526E-2,8.622496E-3,-4.5227683E-3,-6.2419656E-3,9.312324E-3,1.943842E-2,-4.8317E-3,-1.7106095E-2,2.9607397E-3,1.5788663E-2,2.442459E-3,-4.857624E-3,2.8642219E-2,1.922172E-2,7.4239215E-3,-8.389761E-3,1.2313179E-3,4.537333E-3,2.287596E-2,8.927449E-3,-1.1841553E-2,1.3588977E-2,-4.4540386E-3],"split_indices":[163,83,27,126,110,160,89,223,147,0,4,203,77,0,92,223,4,81,63,155,98,146,209,115,195,0,0,0,0,0,80,0,0,195,61,90,207,113,163,156,202,206,139,106,132,80,98,0,0,0,0,0,0,0,0,0,0,0,0,0,0,0,0,0,0,0,0,0,0,0,0,0,0,0,0,0,0],"split_type":[0,0,0,0,0,0,0,0,0,0,0,0,0,0,0,0,0,0,0,0,0,0,0,0,0,0,0,0,0,0,0,0,0,0,0,0,0,0,0,0,0,0,0,0,0,0,0,0,0,0,0,0,0,0,0,0,0,0,0,0,0,0,0,0,0,0,0,0,0,0,0,0,0,0,0,0,0],"sum_hessian":[1.8771489E3,1.0783947E3,7.987543E2,6.863162E2,3.920784E2,7.880271E2,1.0727158E1,1.1542042E1,6.747742E2,4.9592204E0,3.8711917E2,4.0520676E2,3.8282037E2,1.3413746E0,9.385783E0,3.1029363E0,8.439105E0,2.5160376E1,6.496138E2,1.2244592E2,2.6467325E2,1.8365408E2,2.2155267E2,2.4228714E2,1.4053323E2,1.3426113E0,8.043172E0,1.3299047E0,1.7730315E0,1.3343012E0,7.104804E0,2.3830296E1,1.33008E0,6.0733795E2,4.227583E1,1.649884E1,1.0594708E2,7.962599E1,1.8504727E2,9.4025955E1,8.962812E1,2.5818947E1,1.9573373E2,2.030038E2,3.9283333E1,2.6279938E1,1.14253296E2,2.2179835E0,4.8868203E0,1.1453488E2,4.9280307E2,4.0069946E1,2.2058835E0,1.7782118E0,1.472063E1,6.902536E1,3.692172E1,2.6219297E1,5.3406693E1,6.681624E0,1.7836565E2,1.4234214E1,7.979174E1,4.4153694E1,4.547443E1,2.4035257E1,1.7836895E0,1.1709971E2,7.863402E1,8.817643E1,1.1482738E2,2.8571352E1,1.071198E1,1.114563E1,1.5134307E1,9.909948E1,1.5153817E1],"tree_param":{"num_deleted":"0","num_feature":"231","num_nodes":"77","size_leaf_vector":"1"}},{"base_weights":[7.2492935E-2,-2.9300195E-1,1.1080727E-1,-3.5373637E-1,2.2649805E-1,7.444676E-2,3.7142837E-1,1.7904274E-1,-4.2770305E-1,6.135067E-2,3.0665794E-2,9.875858E-3,1.8014117E-1,2.3521009E-1,6.2599987E-1,-2.4561475E-1,8.9301765E-1,-4.8381737E-1,2.1562915E-2,-3.043099E-1,5.949663E-1,-3.0273035E-2,2.1630341E-1,2.6481876E-1,-2.75462E-2,2.0045328E-1,3.0962165E-2,8.93459E-1,3.1242162E-1,-5.513046E-1,3.0098188E-1,3.2553315E-2,-2.8448616E-4,-5.035501E-1,1.2599256E-2,2.993801E-1,-4.7354677E-1,-4.538731E-1,1.2857194E-2,-6.161394E-3,2.9684626E-2,9.643092E-1,-4.1370403E-2,-5.3404486E-1,2.571975E-1,3.4029567E-1,2.6008515E-2,4.1334778E-1,-1.1115901E-1,5.8085394E-1,1.3412198E-1,6.9673926E-2,9.765244E-1,-2.2723521E-1,4.849641E-1,2.7125654E-5,-1.9435622E-2,1.9214334E-2,-1.2853683E-2,1.2356915E-2,-1.5716912E-2,2.587997E-2,-5.890909E-3,1.09144305E-4,-1.8025896E-2,-1.9434577E-2,7.3013236E-3,6.9628656E-3,3.368936E-2,-1.8770138E-3,1.0432101E-2,7.670232E-6,-1.9175492E-2,9.9437535E-3,-5.742694E-3,1.1355419E-2,-4.44373E-3,-5.7301507E-3,7.3744166E-3,2.2128928E-2,1.4164965E-3,-1.3375472E-2,-3.1307605E-4,2.3479262E-2,2.8280255E-3,2.54268E-3,2.1819275E-2,1.2265768E-2,-1.2881974E-2,2.0161059E-2,3.580239E-2,-1.9032724E-2,1.612003E-2,2.405383E-2,1.421504E-3],"categories":[],"categories_nodes":[],"categories_segments":[],"categories_sizes":[],"default_left":[0,0,0,0,0,0,0,0,0,0,0,0,0,0,0,0,0,0,0,0,0,0,0,0,0,0,0,0,0,0,0,0,0,0,0,0,0,0,0,0,0,0,0,0,0,0,0,0,0,0,0,0,0,0,0,0,0,0,0,0,0,0,0,0,0,0,0,0,0,0,0,0,0,0,0,0,0,0,0,0,0,0,0,0,0,0,0,0,0,0,0,0,0,0,0],"id":4,"left_children":[1,3,5,7,9,11,13,15,17,19,-1,21,23,25,27,29,31,33,35,37,39,41,43,45,47,49,-1,51,53,55,57,-1,-1,59,-1,61,63,65,-1,-1,-1,67,69,71,73,75,77,79,81,83,85,87,89,91,93,-1,-1,-1,-1,-1,-1,-1,-1,-1,-1,-1,-1,-1,-1,-1,-1,-1,-1,-1,-1,-1,-1,-1,-1,-1,-1,-1,-1,-1,-1,-1,-1,-1,-1,-1,-1,-1,-1,-1,-1],"loss_changes":[2.6217632E1,5.6865864E0,1.6017488E1,6.3614826E0,2.4614973E0,1.0147571E1,7.032749E0,6.3278275E0,3.5483456E0,3.4925382E0,0E0,7.666285E0,9.9246025E0,3.573154E0,5.7234383E0,2.4078383E0,1.3503323E0,2.4371433E0,2.4167652E0,1.3708899E0,2.4890308E0,8.58941E0,4.758742E0,7.2133446E0,6.1002955E0,3.2532387E0,0E0,2.538248E0,3.3209987E0,4.7819424E-1,1.6263621E0,0E0,0E0,2.4991322E0,0E0,3.2989612E0,3.868878E-1,1.4286588E0,0E0,0E0,0E0,7.3719406E-1,6.347959E0,4.5569015E-1,4.8441257E0,5.737728E0,4.6886215E0,3.0987797E0,4.675798E0,1.8214331E0,3.2683375E0,9.484197E-1,1.4778442E0,3.1536884E0,3.6286721E0,0E0,0E0,0E0,0E0,0E0,0E0,0E0,0E0,0E0,0E0,0E0,0E0,0E0,0E0,0E0,0E0,0E0,0E0,0E0,0E0,0E0,0E0,0E0,0E0,0E0,0E0,0E0,0E0,0E0,0E0,0E0,0E0,0E0,0E0,0E0,0E0,0E0,0E0,0E0,0E0],"parents":[2147483647,0,0,1,1,2,2,3,3,4,4,5,5,6,6,7,7,8,8,9,9,11,11,12,12,13,13,14,14,15,15,16,16,17,17,18,18,19,19,20,20,21,21,22,22,23,23,24,24,25,25,27,27,28,28,29,29,30,30,33,33,35,35,36,36,37,37,41,41,42,42,43,43,44,44,45,45,46,46,47,47,48,48,49,49,50,50,51,51,52,52,53,53,54,54],"right_children":[2,4,6,8,10,12,14,16,18,20,-1,22,24,26,28,30,32,34,36,38,40,42,44,46,48,50,-1,52,54,56,58,-1,-1,60,-1,62,64,66,-1,-1,-1,68,70,72,74,76,78,80,82,84,86,88,90,92,94,-1,-1,-1,-1,-1,-1,-1,-1,-1,-1,-1,-1,-1,-1,-1,-1,-1,-1,-1,-1,-1,-1,-1,-1,-1,-1,-1,-1,-1,-1,-1,-1,-1,-1,-1,-1,-1,-1,-1,-1],"split_conditions":[-9.219165E-1,7.546081E-1,3.1627324E-1,4.6647614E-1,9.0341216E-1,1.3217735E-1,1.2132925E-2,-6.5E-2,6.2194085E-1,6.2E-1,3.0665794E-2,7.5E-1,6.832E1,1E0,5.6E-1,-9.3618345E-1,0E0,4.3748211E-4,4.935585E-1,3.266781E-1,-7.639523E-1,5.31147E-3,-1.0086336E0,4.914067E-2,1.1967549E-1,-3.6727273E-1,3.0962165E-2,1.3619971E-1,2.8646028E-1,-5E-1,2.0735632E-1,3.2553315E-2,-2.8448616E-4,-6.275757E-1,1.2599256E-2,2E-2,0E0,7.341547E-1,1.2857194E-2,-6.161394E-3,2.9684626E-2,-1.16E-43,4.83361E-2,-4.4E-1,1.974391E-1,3.8E-1,1.7244954E-1,4.9839744E-1,3E-1,3.7300363E-1,7.1756536E-1,4E-2,7.045566E-1,5.2757615E-1,7.5396234E-1,2.7125654E-5,-1.9435622E-2,1.9214334E-2,-1.2853683E-2,1.2356915E-2,-1.5716912E-2,2.587997E-2,-5.890909E-3,1.09144305E-4,-1.8025896E-2,-1.9434577E-2,7.3013236E-3,6.9628656E-3,3.368936E-2,-1.8770138E-3,1.0432101E-2,7.670232E-6,-1.9175492E-2,9.9437535E-3,-5.742694E-3,1.1355419E-2,-4.44373E-3,-5.7301507E-3,7.3744166E-3,2.2128928E-2,1.4164965E-3,-1.3375472E-2,-3.1307605E-4,2.3479262E-2,2.8280255E-3,2.54268E-3,2.1819275E-2,1.2265768E-2,-1.2881974E-2,2.0161059E-2,3.580239E-2,-1.9032724E-2,1.612003E-2,2.405383E-2,1.421504E-3],"split_indices":[94,224,169,203,4,77,160,144,131,126,0,67,184,26,130,117,144,15,203,54,54,218,1,194,224,129,0,154,154,70,3,0,0,131,0,146,25,4,0,0,0,15,201,130,154,114,206,202,130,154,223,146,223,4,3,0,0,0,0,0,0,0,0,0,0,0,0,0,0,0,0,0,0,0,0,0,0,0,0,0,0,0,0,0,0,0,0,0,0,0,0,0,0,0,0],"split_type":[0,0,0,0,0,0,0,0,0,0,0,0,0,0,0,0,0,0,0,0,0,0,0,0,0,0,0,0,0,0,0,0,0,0,0,0,0,0,0,0,0,0,0,0,0,0,0,0,0,0,0,0,0,0,0,0,0,0,0,0,0,0,0,0,0,0,0,0,0,0,0,0,0,0,0,0,0,0,0,0,0,0,0,0,0,0,0,0,0,0,0,0,0,0,0],"sum_hessian":[1.8688755E3,1.7669243E2,1.6921831E3,1.5848334E2,1.82091E1,1.4861313E3,2.0605173E2,1.914708E1,1.3933626E2,1.5971336E1,2.2377648E0,9.232142E2,5.629172E2,1.3548123E2,7.05705E1,1.2417436E1,6.7296443E0,1.23796844E2,1.5539404E1,9.732116E0,6.2392206E0,7.736059E2,1.4960826E2,3.996842E2,1.63233E2,1.3101816E2,4.4630775E0,3.7087963E1,3.348254E1,7.9581466E0,4.459289E0,5.381813E0,1.3478312E0,1.215851E2,2.2117507E0,1.0207226E1,5.332178E0,8.398827E0,1.3332896E0,2.2183604E0,4.0208597E0,7.588678E0,7.660172E2,7.109001E0,1.4249925E2,3.0337607E2,9.630813E1,2.5392681E1,1.3784032E2,1.8301987E1,1.1271617E2,3.5656E0,3.352236E1,8.034924E0,2.5447615E1,1.3317763E0,6.6263704E0,3.1262314E0,1.3330576E0,2.2252135E0,1.19359886E2,4.431649E0,5.7755766E0,1.3276267E0,4.0045514E0,6.626503E0,1.772323E0,1.7901975E0,5.79848E0,7.272398E2,3.877741E1,1.3329036E0,5.7760973E0,1.2248523E2,2.001403E1,2.8156866E2,2.1807392E1,4.8527763E1,4.7780365E1,1.2927822E1,1.246486E1,3.1093643E1,1.0674667E2,1.2506916E1,5.79507E0,1.051115E2,7.604665E0,2.2304695E0,1.3351305E0,1.5649964E1,1.7872398E1,5.3538365E0,2.681087E0,1.4277591E1,1.1170024E1],"tree_param":{"num_deleted":"0","num_feature":"231","num_nodes":"95","size_leaf_vector":"1"}},{"base_weights":[-1.0859163E-1,1.8936156E-1,-2.980745E-1,4.9371687E-1,3.166831E-2,3.2064658E-2,-3.6438167E-1,3.3333915E-1,9.6091455E-1,-1.6572304E-1,1.8160637E-1,4.434313E-1,-2.822284E-1,-2.1406683E-1,-4.2824906E-1,9.1191426E-2,6.500552E-1,1.1338739E0,-1.3706076E-1,-2.9364076E-1,2.625345E-1,-5.6393646E-2,3.191368E-1,-3.650843E-1,1.036713E0,1.939575E-1,-3.5812607E-1,-2.7254575E-1,6.476529E-1,-4.646368E-1,-1.3411573E-1,-2.0945497E-1,3.6460775E-1,2.4069074E-1,8.888002E-1,-1.3116997E-2,1.1823165E0,-4.6943423E-1,4.0647596E-1,4.420844E-1,-3.3537126E-1,3.6793005E-2,8.9731973E-1,9.8955914E-2,-4.694844E-1,-9.779177E-2,4.5852736E-1,2.0625067E-1,-5.128839E-1,2.5174942E-2,1.2259974E0,3.0064536E-2,-1.6932037E-1,-5.757661E-1,-1.9809043E-1,5.4908353E-3,-3.4589446E-1,1.043196E0,-1.9019592E-1,-4.9018213E-1,-2.1696514E-3,-1.8756822E-1,7.260479E-1,8.711721E-3,-1.0689938E-2,1.76221E-2,-5.3918324E-3,1.9689975E-2,-2.9070477E-3,2.9303547E-2,-9.915171E-3,3.7810035E-2,2.282816E-3,1.04793886E-4,-1.7887982E-2,2.5697017E-2,-3.5575754E-3,2.4942536E-2,-1.549403E-2,-1.152203E-2,1.007556E-2,-5.659719E-3,1.6837865E-2,3.669297E-2,-2.2837913E-3,1.0152755E-2,-5.0254846E-3,8.999944E-3,-1.8914692E-2,-1.0317413E-2,2.8638333E-2,2.4780916E-2,8.202304E-3,1.697116E-2,-1.5475326E-2,-1.896837E-2,1.9048738E-3,-1.1242997E-2,1.1532594E-2,6.673872E-3,3.80073E-2,-1.5636714E-2,1.2164656E-2,-1.9007243E-2,-6.8788882E-3,1.168609E-2,-8.93714E-3,3.0023005E-2,-4.1314047E-3,-1.0891723E-2,1.5442303E-2,3.506541E-2,-2.2271962E-4,5.067171E-3,-1.6229501E-2,6.1979925E-4,-1.5182528E-2,1.680361E-2,-9.800585E-3,2.5422327E-2,-6.590834E-3,-1.17681586E-4,3.0905584E-2],"categories":[],"categories_nodes":[],"categories_segments":[],"categories_sizes":[],"default_left":[0,0,0,0,0,0,0,0,0,0,0,0,0,0,0,0,0,0,0,0,0,0,0,0,0,0,0,0,0,0,0,0,0,0,0,0,0,0,0,0,0,0,0,0,0,0,0,0,0,0,0,0,0,0,0,0,0,0,0,0,0,0,0,0,0,0,0,0,0,0,0,0,0,0,0,0,0,0,0,0,0,0,0,0,0,0,0,0,0,0,0,0,0,0,0,0,0,0,0,0,0,0,0,0,0,0,0,0,0,0,0,0,0,0,0,0,0,0,0,0,0,0,0],"id":5,"left_children":[1,3,5,7,9,11,13,15,17,19,21,23,25,27,29,31,33,35,37,39,41,43,45,47,49,51,53,55,57,59,61,63,65,67,69,-1,71,73,75,77,79,81,83,85,87,89,91,93,95,97,99,-1,101,103,105,107,109,111,113,115,117,119,121,-1,-1,-1,-1,-1,-1,-1,-1,-1,-1,-1,-1,-1,-1,-1,-1,-1,-1,-1,-1,-1,-1,-1,-1,-1,-1,-1,-1,-1,-1,-1,-1,-1,-1,-1,-1,-1,-1,-1,-1,-1,-1,-1,-1,-1,-1,-1,-1,-1,-1,-1,-1,-1,-1,-1,-1,-1,-1,-1,-1],"loss_changes":[1.05168625E2,3.4749832E1,2.4932999E1,1.8198112E1,1.4183436E1,2.4862015E1,9.010498E0,1.4168718E1,1.2048817E1,1.1414755E1,8.9293375E0,4.0314575E1,4.011508E0,1.4524312E1,7.048645E0,8.814451E0,7.6263123E0,4.6430283E0,1.8917227E0,5.0554743E0,6.863594E0,6.499469E0,1.0081102E1,3.1437054E0,9.213253E0,4.76259E0,3.1749392E0,5.453745E0,6.2930546E0,6.9791336E0,3.5638719E0,3.86707E0,6.9014044E0,4.4025383E0,5.7188416E0,0E0,4.4663086E0,3.8036168E-1,1.0725461E0,3.7920895E0,5.0914764E0,4.42707E0,4.083418E0,4.7724338E0,3.6153536E0,1.1749554E1,8.590975E0,2.396107E0,2.0268126E0,1.3841885E0,1.3870888E0,0E0,2.5674417E0,6.456442E-1,3.3971555E0,8.231607E0,3.3116188E0,1.6782026E0,9.408401E-1,4.5589294E0,6.00983E0,2.5463817E0,1.0179725E0,0E0,0E0,0E0,0E0,0E0,0E0,0E0,0E0,0E0,0E0,0E0,0E0,0E0,0E0,0E0,0E0,0E0,0E0,0E0,0E0,0E0,0E0,0E0,0E0,0E0,0E0,0E0,0E0,0E0,0E0,0E0,0E0,0E0,0E0,0E0,0E0,0E0,0E0,0E0,0E0,0E0,0E0,0E0,0E0,0E0,0E0,0E0,0E0,0E0,0E0,0E0,0E0,0E0,0E0,0E0,0E0,0E0,0E0,0E0,0E0],"parents":[2147483647,0,0,1,1,2,2,3,3,4,4,5,5,6,6,7,7,8,8,9,9,10,10,11,11,12,12,13,13,14,14,15,15,16,16,17,17,18,18,19,19,20,20,21,21,22,22,23,23,24,24,25,25,26,26,27,27,28,28,29,29,30,30,31,31,32,32,33,33,34,34,36,36,37,37,38,38,39,39,40,40,41,41,42,42,43,43,44,44,45,45,46,46,47,47,48,48,49,49,50,50,52,52,53,53,54,54,55,55,56,56,57,57,58,58,59,59,60,60,61,61,62,62],"right_children":[2,4,6,8,10,12,14,16,18,20,22,24,26,28,30,32,34,36,38,40,42,44,46,48,50,52,54,56,58,60,62,64,66,68,70,-1,72,74,76,78,80,82,84,86,88,90,92,94,96,98,100,-1,102,104,106,108,110,112,114,116,118,120,122,-1,-1,-1,-1,-1,-1,-1,-1,-1,-1,-1,-1,-1,-1,-1,-1,-1,-1,-1,-1,-1,-1,-1,-1,-1,-1,-1,-1,-1,-1,-1,-1,-1,-1,-1,-1,-1,-1,-1,-1,-1,-1,-1,-1,-1,-1,-1,-1,-1,-1,-1,-1,-1,-1,-1,-1,-1,-1,-1,-1],"split_conditions":[-3.448102E-1,-8.2732964E-1,3.7605932E-1,3.085479E-1,-6.824016E-1,-7.790143E-2,1.110223E-16,1E0,8.3997357E-1,1E0,1.8022025E-1,-1.4883938E-1,9.815969E-2,6.666667E-1,8E-1,1E0,2.6146153E-3,2.8545454E-1,-2.4865773E-1,-7.6416904E-1,9.911609E-1,2.3408007E-2,1.1727694E-2,-2.9166132E-1,3.2E-1,1.3142575E-1,4.8538643E-1,-6.55E-1,5.0829347E-2,2.8831708E2,1.4E-1,5.581818E-1,8.142846E-3,-6.2E-1,1.0657706E0,-1.3116997E-2,-8.5368806E-1,-2.16159E0,-5E-1,4.8E-1,5.931512E0,6.773466E-1,2.5615725E-1,2.813542E-2,-7.7478117E-1,8.616264E-1,-8.18679E-2,1E0,8.027758E-1,4.1786873E-1,-8.9645416E-1,3.0064536E-2,4.935585E-1,2.8E-1,4.747623E-3,-7.5032696E-2,1.2403632E0,3E-2,-6.5803036E-2,-4.668548E-1,2.1147203E-2,3.011803E-3,-6.569555E-1,8.711721E-3,-1.0689938E-2,1.76221E-2,-5.3918324E-3,1.9689975E-2,-2.9070477E-3,2.9303547E-2,-9.915171E-3,3.7810035E-2,2.282816E-3,1.04793886E-4,-1.7887982E-2,2.5697017E-2,-3.5575754E-3,2.4942536E-2,-1.549403E-2,-1.152203E-2,1.007556E-2,-5.659719E-3,1.6837865E-2,3.669297E-2,-2.2837913E-3,1.0152755E-2,-5.0254846E-3,8.999944E-3,-1.8914692E-2,-1.0317413E-2,2.8638333E-2,2.4780916E-2,8.202304E-3,1.697116E-2,-1.5475326E-2,-1.896837E-2,1.9048738E-3,-1.1242997E-2,1.1532594E-2,6.673872E-3,3.80073E-2,-1.5636714E-2,1.2164656E-2,-1.9007243E-2,-6.8788882E-3,1.168609E-2,-8.93714E-3,3.0023005E-2,-4.1314047E-3,-1.0891723E-2,1.5442303E-2,3.506541E-2,-2.2271962E-4,5.067171E-3,-1.6229501E-2,6.1979925E-4,-1.5182528E-2,1.680361E-2,-9.800585E-3,2.5422327E-2,-6.590834E-3,-1.17681586E-4,3.0905584E-2],"split_indices":[0,0,158,90,77,83,189,38,224,39,206,41,154,70,133,39,182,129,1,4,207,218,196,87,126,206,202,144,163,184,144,129,216,89,1,0,0,54,69,209,54,155,206,111,110,207,13,39,208,131,3,0,202,135,172,6,158,146,65,77,182,175,1,0,0,0,0,0,0,0,0,0,0,0,0,0,0,0,0,0,0,0,0,0,0,0,0,0,0,0,0,0,0,0,0,0,0,0,0,0,0,0,0,0,0,0,0,0,0,0,0,0,0,0,0,0,0,0,0,0,0,0,0],"split_type":[0,0,0,0,0,0,0,0,0,0,0,0,0,0,0,0,0,0,0,0,0,0,0,0,0,0,0,0,0,0,0,0,0,0,0,0,0,0,0,0,0,0,0,0,0,0,0,0,0,0,0,0,0,0,0,0,0,0,0,0,0,0,0,0,0,0,0,0,0,0,0,0,0,0,0,0,0,0,0,0,0,0,0,0,0,0,0,0,0,0,0,0,0,0,0,0,0,0,0,0,0,0,0,0,0,0,0,0,0,0,0,0,0,0,0,0,0,0,0,0,0,0,0],"sum_hessian":[1.8608086E3,7.233595E2,1.1374491E3,2.461492E2,4.772103E2,1.90329E2,9.4712006E2,1.8452106E2,6.1628147E1,2.0596066E2,2.7124963E2,8.225612E1,1.0807288E2,2.8372116E2,6.6339886E2,1.053006E2,7.922046E1,5.3213028E1,8.415119E0,1.5883272E2,4.7127953E1,9.955575E1,1.7169388E2,3.4975986E1,4.728013E1,1.4643469E1,9.342941E1,2.6633087E2,1.7390303E1,5.898481E2,7.355081E1,5.0264305E1,5.5036293E1,2.992229E1,4.9298164E1,1.3516026E0,5.1861423E1,5.306513E0,3.108606E0,8.010508E0,1.508222E2,3.554533E1,1.1582623E1,7.2900696E1,2.6655054E1,4.3094162E1,1.2859972E2,7.107135E0,2.7868853E1,7.6313133E0,3.9648815E1,3.9956365E0,1.0647833E1,3.848886E1,5.494055E1,5.5787422E1,2.1054344E2,1.1646825E1,5.743479E0,5.5891534E2,3.0932756E1,6.9983795E1,3.5670106E0,1.1193562E1,3.9070744E1,3.8996124E1,1.6040167E1,1.2987722E1,1.693457E1,4.6165756E1,3.1324067E0,4.831465E1,3.546772E0,1.3278223E0,3.9786904E0,1.3338469E0,1.7747593E0,5.7910137E0,2.2194946E0,1.4101924E2,9.802962E0,2.5307041E1,1.0238291E1,8.486138E0,3.0964842E0,3.8253536E1,3.464716E1,4.4628353E0,2.2192217E1,3.5471718E1,7.6224437E0,4.1918663E1,8.668105E1,4.8896656E0,2.2174695E0,2.3006212E1,4.8626404E0,3.590671E0,4.0406423E0,1.8052698E0,3.7843544E1,6.66232E0,3.9855127E0,3.2275085E1,6.2137756E0,7.5557427E0,4.7384808E1,6.2639976E0,4.9523426E1,2.0699368E2,3.5497596E0,1.0302184E1,1.3446406E0,3.0943174E0,2.6491613E0,1.686433E1,5.4205096E2,1.1053806E1,1.987895E1,1.3429147E0,6.8640884E1,1.3393949E0,2.2276158E0],"tree_param":{"num_deleted":"0","num_feature":"231","num_nodes":"123","size_leaf_vector":"1"}},{"base_weights":[4.6116393E-2,-1.32499E-1,1.723803E-1,-3.3190104E-1,-7.195807E-2,1.6114566E-1,9.2005116E-1,5.2392226E-1,-3.6800393E-1,-6.6052413E-1,-4.912421E-2,1.7088816E-1,-6.199302E-1,-1.275241E-2,1.1115454E0,-1.2878109E-2,7.9302317E-1,2.453061E-1,-4.2293152E-1,-2.1108454E-2,2.7029347E-4,1.979003E-1,-9.410277E-2,-5.0313585E-2,2.0430927E-1,1.7009146E-4,-2.0662904E-2,1.2432153E-2,-1.3051209E-2,-2.2098837E-4,1.2390108E0,3.5146806E-2,-3.4749527E-3,-3.6509305E-1,7.2720796E-1,-4.7410142E-1,2.65495E-1,3.493842E-2,5.6144464E-1,5.7857543E-1,-1.1184669E-1,-4.0723655E-1,2.0891818E-1,3.5191533E-1,1.6023685E-1,3.9189447E-2,1.2356444E-2,1.2817387E-2,-1.8554607E-2,-3.6162748E-3,2.897414E-2,2.5759289E-2,-1.4761966E-2,-1.8169405E-2,2.6449695E-2,-7.7192364E-3,8.04626E-3,-1.6275678E-2,2.108125E-2,-6.297356E-3,2.3056807E-2,-4.5729666E-3,3.5694803E-3,-1.4379613E-2,2.4454148E-2,2.0975556E-2,1.5533104E-3,2.557525E-2,8.403746E-3,-6.425168E-4,6.5715555E-3],"categories":[],"categories_nodes":[],"categories_segments":[],"categories_sizes":[],"default_left":[0,0,0,0,0,0,0,0,0,0,0,0,0,0,0,0,0,0,0,0,0,0,0,0,0,0,0,0,0,0,0,0,0,0,0,0,0,0,0,0,0,0,0,0,0,0,0,0,0,0,0,0,0,0,0,0,0,0,0,0,0,0,0,0,0,0,0,0,0,0,0],"id":6,"left_children":[1,3,5,7,9,11,13,15,17,19,21,23,25,27,29,-1,31,33,35,-1,-1,37,39,41,43,-1,-1,-1,-1,-1,45,-1,-1,47,49,51,53,55,57,59,61,63,65,67,69,-1,-1,-1,-1,-1,-1,-1,-1,-1,-1,-1,-1,-1,-1,-1,-1,-1,-1,-1,-1,-1,-1,-1,-1,-1,-1],"loss_changes":[4.1911224E1,9.268874E0,8.99559E0,5.7236576E0,7.920535E0,8.276207E0,2.8548145E0,2.304806E0,5.90971E0,6.416521E-1,6.360148E0,7.85577E0,5.8279943E-1,8.47207E-1,1.8925209E0,0E0,2.3111846E0,4.6187863E0,5.7109814E0,0E0,0E0,5.20794E0,5.8359237E0,1.3047659E1,5.9424286E0,0E0,0E0,0E0,0E0,0E0,1.2223816E-1,0E0,0E0,1.7088096E0,1.8568473E0,3.9643593E0,6.7659845E0,4.2952404E0,4.6300526E0,2.0470777E0,4.4393015E0,5.6142044E0,6.266963E0,7.3508854E0,7.6111145E0,0E0,0E0,0E0,0E0,0E0,0E0,0E0,0E0,0E0,0E0,0E0,0E0,0E0,0E0,0E0,0E0,0E0,0E0,0E0,0E0,0E0,0E0,0E0,0E0,0E0,0E0],"parents":[2147483647,0,0,1,1,2,2,3,3,4,4,5,5,6,6,7,7,8,8,9,9,10,10,11,11,12,12,13,13,14,14,16,16,17,17,18,18,21,21,22,22,23,23,24,24,30,30,33,33,34,34,35,35,36,36,37,37,38,38,39,39,40,40,41,41,42,42,43,43,44,44],"right_children":[2,4,6,8,10,12,14,16,18,20,22,24,26,28,30,-1,32,34,36,-1,-1,38,40,42,44,-1,-1,-1,-1,-1,46,-1,-1,48,50,52,54,56,58,60,62,64,66,68,70,-1,-1,-1,-1,-1,-1,-1,-1,-1,-1,-1,-1,-1,-1,-1,-1,-1,-1,-1,-1,-1,-1,-1,-1,-1,-1],"split_conditions":[-2.8402478E-1,-8.649834E-1,1E0,4.5454547E-1,-8.1666666E-1,1E0,-6.6E-1,3.5636362E-1,-1.0159804E0,2.5500817E0,4.489989E-1,3.5586506E-1,2E-2,1.000545E-1,-6E-1,-1.2878109E-2,-3.0841208E-1,-9.6985096E-1,1.3983107E-2,-2.1108454E-2,2.7029347E-4,-5.734341E-2,1.4E-1,-7.790143E-2,1.2151817E-1,1.7009146E-4,-2.0662904E-2,1.2432153E-2,-1.3051209E-2,-2.2098837E-4,4.3333334E-1,3.5146806E-2,-3.4749527E-3,-3E-2,6.508456E-1,-8E-2,-9.413273E-1,2.0216504E-1,-1E-2,-1.337814E0,9.108001E-1,4E-1,5.17987E-3,1.9477628E-2,2.6749657E-2,3.9189447E-2,1.2356444E-2,1.2817387E-2,-1.8554607E-2,-3.6162748E-3,2.897414E-2,2.5759289E-2,-1.4761966E-2,-1.8169405E-2,2.6449695E-2,-7.7192364E-3,8.04626E-3,-1.6275678E-2,2.108125E-2,-6.297356E-3,2.3056807E-2,-4.5729666E-3,3.5694803E-3,-1.4379613E-2,2.4454148E-2,2.0975556E-2,1.5533104E-3,2.557525E-2,8.403746E-3,-6.425168E-4,6.5715555E-3],"split_indices":[0,0,27,52,147,26,132,129,54,226,202,158,114,0,130,0,1,1,175,0,0,90,115,83,224,0,0,0,0,0,147,0,0,146,221,146,40,81,146,1,226,113,117,163,220,0,0,0,0,0,0,0,0,0,0,0,0,0,0,0,0,0,0,0,0,0,0,0,0,0,0],"split_type":[0,0,0,0,0,0,0,0,0,0,0,0,0,0,0,0,0,0,0,0,0,0,0,0,0,0,0,0,0,0,0,0,0,0,0,0,0,0,0,0,0,0,0,0,0,0,0,0,0,0,0,0,0,0,0,0,0,0,0,0,0,0,0,0,0,0,0,0,0,0,0],"sum_hessian":[1.8563574E3,7.687787E2,1.0875787E3,1.7800525E2,5.9077344E2,1.072676E3,1.4902688E1,6.658272E0,1.7134697E2,2.1020527E1,5.697529E2,1.0602328E3,1.2443248E1,2.6972575E0,1.2205431E1,1.3348495E0,5.3234224E0,1.3799427E1,1.5754755E2,1.9701632E1,1.318895E0,8.723793E1,4.8251498E2,1.3909697E2,9.2113586E2,1.3243511E0,1.11188965E1,1.3501773E0,1.3470801E0,1.3445925E0,1.0860838E1,3.5540948E0,1.7693275E0,6.194976E0,7.6044507E0,1.4693721E2,1.0610337E1,6.0993275E1,2.6244656E1,1.1588387E1,4.709266E2,5.828138E1,8.081558E1,2.1018971E2,7.1094617E2,9.507842E0,1.3529958E0,1.3348688E0,4.860107E0,1.7788526E0,5.8255982E0,1.3318335E0,1.4560538E2,4.4027305E0,6.207607E0,2.7028414E1,3.396486E1,2.6550562E0,2.35896E1,2.2296908E0,9.358696E0,4.007963E2,7.0130295E1,5.560992E1,2.6714592E0,1.8778587E1,6.2037E1,2.4998796E1,1.8519092E2,1.740419E2,5.3690424E2],"tree_param":{"num_deleted":"0","num_feature":"231","num_nodes":"71","size_leaf_vector":"1"}},{"base_weights":[8.3343364E-2,-2.541659E-1,1.267713E-1,-1.4611794E-1,-5.5151933E-1,1.1414191E-1,9.186016E-1,2.0442365E-2,-4.3829012E-1,3.0886936E-1,-6.466249E-1,6.528965E-2,2.3683913E-1,1.0320396E0,-6.2177926E-3,-2.0667751E-1,3.4204158E-1,1.9954821E-1,-5.6436425E-1,-1.532871E-2,2.5984399E-2,-6.829194E-1,7.1139177E-3,2.3984693E-1,3.0500732E-2,2.5448027E-1,-5.050219E-1,2.857293E-1,1.1492234E0,-4.048846E-1,4.0891075E-1,-7.0746E-2,6.0052645E-1,2.6931146E-2,-2.261137E-1,3.4029817E-3,-5.9896207E-1,-7.019651E-1,3.7034872E-4,2.901683E-1,-4.180908E-1,4.3977663E-1,1.42618995E-2,7.4097E-2,3.1625256E-1,-1.999838E-2,3.08027E-3,2.853069E-2,-1.4482858E-2,1.2646995E0,3.9227104E-1,-1.8853797E-2,3.575844E-3,1.8143145E-2,-1.5437056E-2,2.4959492E-2,-5.977637E-3,2.3617605E-2,2.4603514E-3,8.333046E-3,-1.7464543E-2,-2.1559259E-2,-1.097121E-2,-2.1659954E-2,2.819236E-4,-2.0751727E-3,1.1170846E-2,-1.5903566E-2,7.119428E-3,2.3027133E-2,-3.0980704E-5,9.769597E-4,-7.851713E-3,-3.4814798E-3,7.840101E-3,1.132149E-2,1.3032318E-3,1.5986074E-2,4.091213E-2,2.837743E-2,-1.3031216E-2],"categories":[],"categories_nodes":[],"categories_segments":[],"categories_sizes":[],"default_left":[0,0,0,0,0,0,0,0,0,0,0,0,0,0,0,0,0,0,0,0,0,0,0,0,0,0,0,0,0,0,0,0,0,0,0,0,0,0,0,0,0,0,0,0,0,0,0,0,0,0,0,0,0,0,0,0,0,0,0,0,0,0,0,0,0,0,0,0,0,0,0,0,0,0,0,0,0,0,0,0,0],"id":7,"left_children":[1,3,5,7,9,11,13,15,17,19,21,23,25,27,-1,29,31,33,35,-1,-1,37,-1,39,41,43,45,47,49,51,53,55,57,-1,59,-1,61,63,-1,65,67,69,71,73,75,-1,-1,-1,-1,77,79,-1,-1,-1,-1,-1,-1,-1,-1,-1,-1,-1,-1,-1,-1,-1,-1,-1,-1,-1,-1,-1,-1,-1,-1,-1,-1,-1,-1,-1,-1],"loss_changes":[2.7687328E1,6.840866E0,1.6619164E1,7.7648005E0,4.868517E0,9.858114E0,3.548891E0,7.554742E0,4.7695665E0,3.3463774E0,1.8202591E0,7.1555686E0,6.262562E0,1.7609158E0,0E0,7.568867E0,4.6078277E0,3.2628388E0,1.2079821E0,0E0,0E0,6.6967773E-1,0E0,6.6061554E0,6.537958E0,5.0852814E0,1.1704001E0,2.7971363E0,1.2797794E0,5.5116806E0,3.0741599E0,2.1808968E0,2.493102E0,0E0,1.4525399E0,0E0,1.0328598E0,6.9945335E-1,0E0,5.417184E0,1.1776693E0,5.4257045E0,4.79793E0,4.2407875E0,5.674156E0,0E0,0E0,0E0,0E0,5.183506E-1,2.3050637E0,0E0,0E0,0E0,0E0,0E0,0E0,0E0,0E0,0E0,0E0,0E0,0E0,0E0,0E0,0E0,0E0,0E0,0E0,0E0,0E0,0E0,0E0,0E0,0E0,0E0,0E0,0E0,0E0,0E0,0E0],"parents":[2147483647,0,0,1,1,2,2,3,3,4,4,5,5,6,6,7,7,8,8,9,9,10,10,11,11,12,12,13,13,15,15,16,16,17,17,18,18,21,21,23,23,24,24,25,25,26,26,27,27,28,28,29,29,30,30,31,31,32,32,34,34,36,36,37,37,39,39,40,40,41,41,42,42,43,43,44,44,49,49,50,50],"right_children":[2,4,6,8,10,12,14,16,18,20,22,24,26,28,-1,30,32,34,36,-1,-1,38,-1,40,42,44,46,48,50,52,54,56,58,-1,60,-1,62,64,-1,66,68,70,72,74,76,-1,-1,-1,-1,78,80,-1,-1,-1,-1,-1,-1,-1,-1,-1,-1,-1,-1,-1,-1,-1,-1,-1,-1,-1,-1,-1,-1,-1,-1,-1,-1,-1,-1,-1,-1],"split_conditions":[-8.456182E-1,3.085479E-1,1E0,1.9296768E-1,1.4340603E-1,1.1103331E-1,1.1382114E0,6.1022177E-2,4.7370878E-1,-7.639523E-1,8.628512E-1,-6.666667E-1,1E0,-4.5049745E-1,-6.2177926E-3,1E0,4E-1,6.974238E-1,-1.3007411E0,-1.532871E-2,2.5984399E-2,3.8417393E-1,7.1139177E-3,3.589027E-1,5.892599E-3,-6.8E-1,1.8862078E-2,6.963476E-1,7.2E-1,7.8E-1,1E0,-9.549304E-1,5.418166E-1,2.6931146E-2,-8.762805E-1,3.4029817E-3,-1.7517497E-1,1.2510476E-1,3.7034872E-4,9.393201E-2,3.604205E-1,1E-2,4.489989E-1,2.2E-1,1.4083345E0,-1.999838E-2,3.08027E-3,2.853069E-2,-1.4482858E-2,2.2E-1,3.4696993E-1,-1.8853797E-2,3.575844E-3,1.8143145E-2,-1.5437056E-2,2.4959492E-2,-5.977637E-3,2.3617605E-2,2.4603514E-3,8.333046E-3,-1.7464543E-2,-2.1559259E-2,-1.097121E-2,-2.1659954E-2,2.819236E-4,-2.0751727E-3,1.1170846E-2,-1.5903566E-2,7.119428E-3,2.3027133E-2,-3.0980704E-5,9.769597E-4,-7.851713E-3,-3.4814798E-3,7.840101E-3,1.132149E-2,1.3032318E-3,1.5986074E-2,4.091213E-2,2.837743E-2,-1.3031216E-2],"split_indices":[0,90,26,131,206,18,221,154,203,54,4,70,27,54,0,36,107,223,13,0,0,167,0,154,194,84,160,223,207,133,69,64,1,0,0,0,13,187,0,154,1,146,212,116,3,0,0,0,0,133,167,0,0,0,0,0,0,0,0,0,0,0,0,0,0,0,0,0,0,0,0,0,0,0,0,0,0,0,0,0,0],"split_type":[0,0,0,0,0,0,0,0,0,0,0,0,0,0,0,0,0,0,0,0,0,0,0,0,0,0,0,0,0,0,0,0,0,0,0,0,0,0,0,0,0,0,0,0,0,0,0,0,0,0,0,0,0,0,0,0,0,0,0,0,0,0,0,0,0,0,0,0,0,0,0,0,0,0,0,0,0,0,0,0,0],"sum_hessian":[1.8857767E3,2.1443076E2,1.671346E3,1.5837439E2,5.6056374E1,1.6462333E3,2.5112638E1,1.01462875E2,5.6911507E1,5.3558774E0,5.0700497E1,1.1785302E3,4.677032E2,2.2889683E1,2.2229564E0,5.9675896E1,4.1786983E1,9.296348E0,4.7615158E1,2.2010174E0,3.1548603E0,4.891873E1,1.7817631E0,1.9486726E2,9.8366284E2,4.5748145E2,1.0221738E1,3.572941E0,1.9316742E1,4.5400215E1,1.4275681E1,1.6370464E1,2.5416517E1,3.101086E0,6.1952615E0,2.2017899E0,4.541337E1,4.760503E1,1.313704E0,1.8154132E2,1.3325941E1,3.6543972E1,9.471189E2,1.1726159E2,3.4021988E2,7.9980555E0,2.2236824E0,1.7877451E0,1.7851961E0,1.6177956E1,3.1387854E0,3.1684326E1,1.3715889E1,1.2062468E1,2.2132125E0,1.3578544E0,1.50126095E1,1.830592E1,7.1105986E0,2.6560812E0,3.5391803E0,2.8638449E1,1.677492E1,4.6286556E1,1.3184719E0,3.3824104E1,1.4771722E2,1.1543905E1,1.7820358E0,2.0533546E1,1.6010427E1,8.890396E2,5.807928E1,5.836786E1,5.889373E1,2.7762708E2,6.2592804E1,2.6889265E0,1.348903E1,1.7933875E0,1.345398E0],"tree_param":{"num_deleted":"0","num_feature":"231","num_nodes":"81","size_leaf_vector":"1"}},{"base_weights":[-1.24255955E-1,1.8490408E-1,-3.1242883E-1,5.279162E-1,4.191884E-2,1.9915441E-2,-3.82185E-1,7.5371873E-1,2.1004182E-1,8.7307805E-1,2.6077416E-3,4.5203474E-1,-3.00641E-1,-2.3204844E-1,-4.486722E-1,3.8340086E-1,1.0806968E0,5.497107E-2,9.580198E-1,1.2150483E0,2.7439743E-1,6.4505E-2,-3.2795998E-1,-3.836657E-1,1.0112325E0,-4.5497814E-1,-5.098739E-2,-3.0823585E-1,4.2931026E-1,-1.9006734E-1,-4.8094186E-1,2.1402104E-1,3.780641E-2,1.1582655E0,-3.248943E-1,7.0811456E-1,-6.360958E-2,-6.403231E-3,1.1805549E0,4.0353246E-2,-2.3432408E-4,-1.5565458E-2,5.892927E-1,-1.3256492E-1,1.9800393E-1,5.334941E-1,-4.0733165E-1,-5.2870554E-1,6.067492E-1,1.139575E-1,1.1422554E0,-6.920315E-1,-2.209253E-1,1.268273E-1,-4.718044E-1,-2.1343602E-1,-4.594206E-1,9.871781E-1,-1.8537115E-1,-4.2711323E-1,8.0406725E-2,-4.9588627E-1,1.7679986E-1,1.5069354E-2,-6.9394372E-3,3.7458923E-2,1.133084E-2,1.4027168E-5,-1.44291455E-2,-6.565909E-3,2.8809583E-2,-1.5280005E-2,6.147245E-3,3.9393425E-2,7.057459E-3,2.6452553E-2,4.6290564E-3,-1.1766444E-2,3.163751E-3,2.7093473E-3,1.7623823E-2,2.5368355E-2,-1.2831359E-2,7.8878775E-3,-1.4468395E-2,-2.1209968E-2,-3.6265056E-3,3.1139798E-2,-3.4277076E-3,-5.121052E-3,2.5190568E-2,2.480393E-3,3.588114E-2,-2.1590536E-2,3.9298186E-4,1.2059883E-2,-9.77246E-3,5.030015E-4,2.6812233E-2,5.045182E-3,-2.019325E-2,-7.7983323E-3,7.084651E-3,-1.5457044E-2,1.2045451E-3,3.59288E-2,-6.7731556E-3,1.7955743E-2,-9.891314E-3,-1.4716989E-2,1.8312534E-2,-1.004703E-2,1.2286842E-2,-9.309528E-3,-1.5902475E-2,3.4811907E-2,-8.39151E-3],"categories":[],"categories_nodes":[],"categories_segments":[],"categories_sizes":[],"default_left":[0,0,0,0,0,0,0,0,0,0,0,0,0,0,0,0,0,0,0,0,0,0,0,0,0,0,0,0,0,0,0,0,0,0,0,0,0,0,0,0,0,0,0,0,0,0,0,0,0,0,0,0,0,0,0,0,0,0,0,0,0,0,0,0,0,0,0,0,0,0,0,0,0,0,0,0,0,0,0,0,0,0,0,0,0,0,0,0,0,0,0,0,0,0,0,0,0,0,0,0,0,0,0,0,0,0,0,0,0,0,0,0,0,0,0,0,0],"id":8,"left_children":[1,3,5,7,9,11,13,15,17,19,21,23,25,27,29,31,33,35,37,39,41,43,45,47,49,51,53,55,57,59,61,63,-1,65,67,69,71,-1,73,-1,-1,-1,75,77,79,81,83,85,87,89,91,93,95,97,99,101,103,105,107,109,111,113,115,-1,-1,-1,-1,-1,-1,-1,-1,-1,-1,-1,-1,-1,-1,-1,-1,-1,-1,-1,-1,-1,-1,-1,-1,-1,-1,-1,-1,-1,-1,-1,-1,-1,-1,-1,-1,-1,-1,-1,-1,-1,-1,-1,-1,-1,-1,-1,-1,-1,-1,-1,-1,-1,-1],"loss_changes":[1.0847131E2,3.459097E1,2.6872772E1,1.4738766E1,1.6307981E1,2.8114332E1,9.45726E0,1.4232361E1,1.0106371E1,4.2813454E0,9.794349E0,4.0774807E1,4.468005E0,1.504983E1,5.4396057E0,8.384423E0,7.3204193E0,5.745881E0,4.156945E0,2.245779E0,2.6753197E0,1.0632536E1,5.379324E0,5.4017425E0,5.989193E0,3.8366203E0,3.4761813E0,3.7151508E0,1.0813303E1,4.8546853E0,5.8733826E0,6.5408583E0,0E0,3.8013535E0,2.090337E-1,2.8736281E0,7.670114E0,0E0,1.287674E0,0E0,0E0,0E0,7.873874E-1,1.0140483E1,1.0043935E1,2.402357E0,3.6278486E0,2.196723E0,1.6681952E0,1.7429407E0,2.4830818E0,6.9685745E-1,2.5894008E0,2.7605615E0,1.8876231E0,3.5196338E0,2.8555164E0,4.4590664E0,1.9614129E0,2.9477077E0,5.052514E0,3.4893188E0,6.527285E0,0E0,0E0,0E0,0E0,0E0,0E0,0E0,0E0,0E0,0E0,0E0,0E0,0E0,0E0,0E0,0E0,0E0,0E0,0E0,0E0,0E0,0E0,0E0,0E0,0E0,0E0,0E0,0E0,0E0,0E0,0E0,0E0,0E0,0E0,0E0,0E0,0E0,0E0,0E0,0E0,0E0,0E0,0E0,0E0,0E0,0E0,0E0,0E0,0E0,0E0,0E0,0E0,0E0,0E0],"parents":[2147483647,0,0,1,1,2,2,3,3,4,4,5,5,6,6,7,7,8,8,9,9,10,10,11,11,12,12,13,13,14,14,15,15,16,16,17,17,18,18,19,19,20,20,21,21,22,22,23,23,24,24,25,25,26,26,27,27,28,28,29,29,30,30,31,31,33,33,34,34,35,35,36,36,38,38,42,42,43,43,44,44,45,45,46,46,47,47,48,48,49,49,50,50,51,51,52,52,53,53,54,54,55,55,56,56,57,57,58,58,59,59,60,60,61,61,62,62],"right_children":[2,4,6,8,10,12,14,16,18,20,22,24,26,28,30,32,34,36,38,40,42,44,46,48,50,52,54,56,58,60,62,64,-1,66,68,70,72,-1,74,-1,-1,-1,76,78,80,82,84,86,88,90,92,94,96,98,100,102,104,106,108,110,112,114,116,-1,-1,-1,-1,-1,-1,-1,-1,-1,-1,-1,-1,-1,-1,-1,-1,-1,-1,-1,-1,-1,-1,-1,-1,-1,-1,-1,-1,-1,-1,-1,-1,-1,-1,-1,-1,-1,-1,-1,-1,-1,-1,-1,-1,-1,-1,-1,-1,-1,-1,-1,-1,-1,-1],"split_conditions":[-3.518048E-1,-8.5368806E-1,3.7605932E-1,-8.8460445E-1,-8.066667E-1,-7.790143E-2,1.110223E-16,-1.627026E-1,-7.764033E-1,7.754998E-1,-2.6E-1,-1.4883938E-1,2.1333334E-1,3.7666667E-1,-7.8E-1,5.6603885E-1,6.500208E-1,-4.8333332E-1,6.7158395E-1,-4.400239E-1,-2.565888E-1,-8.041807E-1,-7.0288223E-1,7.0710677E-1,3.2E-1,2.4E-1,-2.2691512E-1,1.9183386E-2,1.260954E-1,-2.4713004E-2,-2E-1,7.6E-1,3.780641E-2,9.167333E-1,5E-1,-3E-2,7.095503E-4,-6.403231E-3,-7.743471E-1,4.0353246E-2,-2.3432408E-4,-1.5565458E-2,2.4285059E-1,3.6E-1,4.8538643E-1,3.547514E-2,7.419129E-3,1.0998423E-2,4.9638695E-1,6.974238E-1,-8.9645416E-1,5.307691E-2,-6.2428962E-2,-3.2520282E-1,-1.8181819E-1,4.9188115E-2,4.2E-1,-1.0318884E-1,1.5771486E-2,3.1886846E-2,8.1948954E-1,8.559488E-3,-5.628043E-1,1.5069354E-2,-6.9394372E-3,3.7458923E-2,1.133084E-2,1.4027168E-5,-1.44291455E-2,-6.565909E-3,2.8809583E-2,-1.5280005E-2,6.147245E-3,3.9393425E-2,7.057459E-3,2.6452553E-2,4.6290564E-3,-1.1766444E-2,3.163751E-3,2.7093473E-3,1.7623823E-2,2.5368355E-2,-1.2831359E-2,7.8878775E-3,-1.4468395E-2,-2.1209968E-2,-3.6265056E-3,3.1139798E-2,-3.4277076E-3,-5.121052E-3,2.5190568E-2,2.480393E-3,3.588114E-2,-2.1590536E-2,3.9298186E-4,1.2059883E-2,-9.77246E-3,5.030015E-4,2.6812233E-2,5.045182E-3,-2.019325E-2,-7.7983323E-3,7.084651E-3,-1.5457044E-2,1.2045451E-3,3.59288E-2,-6.7731556E-3,1.7955743E-2,-9.891314E-3,-1.4716989E-2,1.8312534E-2,-1.004703E-2,1.2286842E-2,-9.309528E-3,-1.5902475E-2,3.4811907E-2,-8.39151E-3],"split_indices":[0,0,158,41,147,83,189,78,2,221,125,41,147,147,132,207,131,147,221,0,3,42,4,223,126,135,3,186,13,8,125,133,0,207,69,146,187,0,79,0,0,0,167,115,179,3,215,160,209,223,3,182,131,3,52,196,113,62,215,173,208,156,9,0,0,0,0,0,0,0,0,0,0,0,0,0,0,0,0,0,0,0,0,0,0,0,0,0,0,0,0,0,0,0,0,0,0,0,0,0,0,0,0,0,0,0,0,0,0,0,0,0,0,0,0,0,0],"split_type":[0,0,0,0,0,0,0,0,0,0,0,0,0,0,0,0,0,0,0,0,0,0,0,0,0,0,0,0,0,0,0,0,0,0,0,0,0,0,0,0,0,0,0,0,0,0,0,0,0,0,0,0,0,0,0,0,0,0,0,0,0,0,0,0,0,0,0,0,0,0,0,0,0,0,0,0,0,0,0,0,0,0,0,0,0,0,0,0,0,0,0,0,0,0,0,0,0,0,0,0,0,0,0,0,0,0,0,0,0,0,0,0,0,0,0,0,0],"sum_hessian":[1.8625592E3,7.04732E2,1.1578273E3,2.0654709E2,4.9818488E2,2.0098318E2,9.5684406E2,1.1996129E2,8.65858E1,2.1540571E1,4.7664432E2,8.542188E1,1.1556131E2,2.950573E2,6.6178674E2,5.7271366E1,6.2689926E1,7.2606514E1,1.3979285E1,1.3054317E1,8.486254E0,4.021487E2,7.44956E1,3.4370434E1,5.1051445E1,7.090502E1,4.465629E1,2.6505713E2,3.00002E1,7.418304E1,5.876037E2,4.9041733E1,8.229631E0,5.9578022E1,3.1119015E0,1.0392565E1,6.2213947E1,2.2381525E0,1.1741133E1,1.1709008E1,1.3453087E0,2.2274487E0,6.2588053E0,1.62409E2,2.3973972E2,5.8020487E0,6.869355E1,3.0386679E1,3.9837549E0,6.743076E0,4.430837E1,3.4254574E1,3.6650448E1,3.1882902E1,1.2773387E1,1.6438922E2,1.0066789E2,1.540922E1,1.45909815E1,3.9225945E1,3.4957096E1,5.747901E2,1.28136E1,2.9692299E1,1.9349434E1,5.2858994E1,6.7190285E0,1.3320615E0,1.7798399E0,2.2510471E0,8.141518E0,2.3052048E1,3.91619E1,9.955934E0,1.7851992E0,3.1284106E0,3.1303945E0,7.73659E1,8.50431E1,1.8877238E2,5.0967327E1,4.470629E0,1.3314195E0,6.6564884E0,6.2037064E1,2.0632763E1,9.753916E0,2.217682E0,1.766073E0,5.3926506E0,1.350425E0,2.2629554E0,4.2045414E1,3.294205E1,1.3125236E0,4.8707337E0,3.1779715E1,2.8775206E1,3.1076965E0,3.0958314E0,9.677555E0,1.4936032E2,1.5028897E1,9.052295E1,1.0144948E1,1.3141742E1,2.2674782E0,1.7795781E0,1.2811403E1,3.746203E1,1.7639148E0,1.544812E1,1.9508976E1,9.1007195E1,4.8378293E2,3.5731506E0,9.240449E0],"tree_param":{"num_deleted":"0","num_feature":"231","num_nodes":"117","size_leaf_vector":"1"}},{"base_weights":[4.6698105E-2,-1.481067E-1,1.6526838E-1,-2.7898052E-1,-6.0551755E-2,3.365771E-2,2.4346775E-1,-3.006497E-1,5.911062E-1,2.2468653E-1,-9.810008E-2,-1.130401E-1,2.1521099E-1,2.5413942E-1,-5.667746E-1,-3.6479354E-1,-1.2033811E-2,3.482161E-2,-1.51263885E-2,6.2589604E-1,-7.714826E-2,-1.2465921E-1,4.7419065E-1,5.0527155E-1,-1.814385E-1,1.6009854E-1,7.296043E-1,1.4254637E-1,3.3390966E-1,-1.9713622E-2,2.62269E-4,-8.900438E-2,-4.4844225E-1,-4.281903E-1,2.1374612E-1,7.494527E-1,-1.4389182E-2,5.075391E-1,-3.024454E-1,-2.6558125E-1,-3.4499023E-2,-3.15953E-2,9.760876E-1,1.1387249E0,1.9669074E-1,-6.32514E-2,-5.6449205E-1,6.989412E-1,1.0501259E-1,9.3741065E-1,-1.4369548E-2,1.0895051E-1,5.5396277E-1,9.6580434E-1,3.0902198E-1,1.7816093E-2,-4.663637E-3,-1.4009204E-2,1.6137896E-2,2.150709E-2,-1.888748E-2,1.3141275E-2,-3.9150105E-3,2.9289383E-2,1.5443278E-3,4.745946E-3,3.1110846E-2,1.792393E-2,-1.2362771E-2,-9.695755E-3,1.9044603E-3,5.328504E-4,-1.4819487E-2,1.18324915E-2,-1.2628975E-2,3.4598798E-2,1.6715477E-4,1.2044319E-2,3.699752E-2,1.333904E-2,-1.30071575E-2,1.2918612E-2,-3.4121538E-3,-1.9451642E-2,-2.6238076E-3,-1.2934678E-2,2.486895E-2,1.0400163E-4,9.670388E-3,2.6728713E-3,3.255871E-2,1.755776E-2,-1.5780088E-2,1.7511573E-2,2.1286237E-3,1.9119538E-2,-1.3097369E-2,3.1811778E-2,-3.7859712E-4,4.3420787E-3,1.1537138E-2],"categories":[],"categories_nodes":[],"categories_segments":[],"categories_sizes":[],"default_left":[0,0,0,0,0,0,0,0,0,0,0,0,0,0,0,0,0,0,0,0,0,0,0,0,0,0,0,0,0,0,0,0,0,0,0,0,0,0,0,0,0,0,0,0,0,0,0,0,0,0,0,0,0,0,0,0,0,0,0,0,0,0,0,0,0,0,0,0,0,0,0,0,0,0,0,0,0,0,0,0,0,0,0,0,0,0,0,0,0,0,0,0,0,0,0,0,0,0,0,0,0],"id":9,"left_children":[1,3,5,7,9,11,13,15,17,19,21,23,25,27,29,31,33,-1,-1,35,37,39,41,43,45,47,49,51,53,-1,-1,55,57,59,61,63,-1,65,67,69,71,73,75,77,79,81,83,85,87,89,91,93,95,97,99,-1,-1,-1,-1,-1,-1,-1,-1,-1,-1,-1,-1,-1,-1,-1,-1,-1,-1,-1,-1,-1,-1,-1,-1,-1,-1,-1,-1,-1,-1,-1,-1,-1,-1,-1,-1,-1,-1,-1,-1,-1,-1,-1,-1,-1,-1],"loss_changes":[4.3350822E1,8.1216E0,1.1997356E1,5.540165E0,4.593486E0,1.1634806E1,6.469677E0,5.145359E0,5.1075706E0,6.0978045E0,5.802639E0,1.0316435E1,5.4160776E0,6.3862076E0,5.163338E-1,5.209654E0,4.9412622E0,0E0,0E0,3.304039E0,4.0261064E0,4.5890794E0,4.3379545E0,4.5347953E0,9.852755E0,5.197101E0,2.8899555E0,4.128039E0,6.318062E0,0E0,0E0,2.5519638E0,3.4381065E0,4.7146616E0,2.6923132E0,3.0817537E0,0E0,1.4175599E0,2.401989E0,2.694561E0,5.3361287E0,1.7284932E0,1.4635983E0,4.6074867E-2,2.9398787E0,4.2391024E0,1.9994011E0,2.7513156E0,3.5800686E0,1.7296495E0,1.8562663E0,5.034791E0,2.146883E0,1.4452972E0,4.986641E0,0E0,0E0,0E0,0E0,0E0,0E0,0E0,0E0,0E0,0E0,0E0,0E0,0E0,0E0,0E0,0E0,0E0,0E0,0E0,0E0,0E0,0E0,0E0,0E0,0E0,0E0,0E0,0E0,0E0,0E0,0E0,0E0,0E0,0E0,0E0,0E0,0E0,0E0,0E0,0E0,0E0,0E0,0E0,0E0,0E0,0E0],"parents":[2147483647,0,0,1,1,2,2,3,3,4,4,5,5,6,6,7,7,8,8,9,9,10,10,11,11,12,12,13,13,14,14,15,15,16,16,19,19,20,20,21,21,22,22,23,23,24,24,25,25,26,26,27,27,28,28,31,31,32,32,33,33,34,34,35,35,37,37,38,38,39,39,40,40,41,41,42,42,43,43,44,44,45,45,46,46,47,47,48,48,49,49,50,50,51,51,52,52,53,53,54,54],"right_children":[2,4,6,8,10,12,14,16,18,20,22,24,26,28,30,32,34,-1,-1,36,38,40,42,44,46,48,50,52,54,-1,-1,56,58,60,62,64,-1,66,68,70,72,74,76,78,80,82,84,86,88,90,92,94,96,98,100,-1,-1,-1,-1,-1,-1,-1,-1,-1,-1,-1,-1,-1,-1,-1,-1,-1,-1,-1,-1,-1,-1,-1,-1,-1,-1,-1,-1,-1,-1,-1,-1,-1,-1,-1,-1,-1,-1,-1,-1,-1,-1,-1,-1,-1,-1],"split_conditions":[-3.448102E-1,-7.972056E-1,-2.77304E-2,8.782306E-1,3.2637708E-3,2.4238527E-1,1E0,3.453062E-1,0E0,8.9808635E-2,3.556877E-2,4.2947736E-3,7.738791E-1,2.3748684E-1,6.66033E-1,-8.717324E-6,-9.349145E-1,3.482161E-2,-1.51263885E-2,1.9084688E-2,6.928203E-1,-1.6666667E-1,3.7597515E-2,1.6830872E-1,4.142463E-1,1.5597975E-2,8.72697E-1,4.7579326E-2,2.7954635E-1,-1.9713622E-2,2.62269E-4,-1.8565328E-11,4.4601342E-1,-5.891867E-1,5.8862007E-1,1E0,-1.4389182E-2,6.891119E-1,1.9595918E-1,8.548489E-1,1.4545455E0,1.324913E-2,2.5E-1,-1E-2,7.116179E-1,1.9595918E-1,1E0,1.799369E-2,4.8538643E-1,-3E-2,4.5389426E-1,1.1874342E-1,4.532658E-22,1.5105464E-1,-9.258881E-2,1.7816093E-2,-4.663637E-3,-1.4009204E-2,1.6137896E-2,2.150709E-2,-1.888748E-2,1.3141275E-2,-3.9150105E-3,2.9289383E-2,1.5443278E-3,4.745946E-3,3.1110846E-2,1.792393E-2,-1.2362771E-2,-9.695755E-3,1.9044603E-3,5.328504E-4,-1.4819487E-2,1.18324915E-2,-1.2628975E-2,3.4598798E-2,1.6715477E-4,1.2044319E-2,3.699752E-2,1.333904E-2,-1.30071575E-2,1.2918612E-2,-3.4121538E-3,-1.9451642E-2,-2.6238076E-3,-1.2934678E-2,2.486895E-2,1.0400163E-4,9.670388E-3,2.6728713E-3,3.255871E-2,1.755776E-2,-1.5780088E-2,1.7511573E-2,2.1286237E-3,1.9119538E-2,-1.3097369E-2,3.1811778E-2,-3.7859712E-4,4.3420787E-3,1.1537138E-2],"split_indices":[0,0,13,224,172,35,26,206,7,154,187,172,224,191,207,151,0,0,0,9,223,70,78,154,212,0,207,159,158,0,0,15,78,131,155,69,0,1,212,224,52,196,67,146,223,207,57,163,209,146,155,224,15,154,77,0,0,0,0,0,0,0,0,0,0,0,0,0,0,0,0,0,0,0,0,0,0,0,0,0,0,0,0,0,0,0,0,0,0,0,0,0,0,0,0,0,0,0,0,0,0],"split_type":[0,0,0,0,0,0,0,0,0,0,0,0,0,0,0,0,0,0,0,0,0,0,0,0,0,0,0,0,0,0,0,0,0,0,0,0,0,0,0,0,0,0,0,0,0,0,0,0,0,0,0,0,0,0,0,0,0,0,0,0,0,0,0,0,0,0,0,0,0,0,0,0,0,0,0,0,0,0,0,0,0,0,0,0,0,0,0,0,0,0,0,0,0,0,0,0,0,0,0,0,0],"sum_hessian":[1.874757E3,7.092488E2,1.165508E3,2.8341876E2,4.2583002E2,4.3493564E2,7.3057245E2,2.771704E2,6.2483625E0,4.8955147E1,3.7687488E2,2.4076845E2,1.9416719E2,7.217526E2,8.819825E0,2.2655536E2,5.0615047E1,4.0713644E0,2.1769981E0,2.0556751E1,2.8398397E1,3.6090787E2,1.5967002E1,2.3345089E1,2.1742336E2,1.7656152E2,1.760568E1,3.0202612E2,4.1972653E2,7.500573E0,1.3192515E0,5.320452E1,1.7335085E2,1.7486858E1,3.312819E1,1.8779959E1,1.776792E0,7.5505595E0,2.0847837E1,1.4005447E2,2.2085341E2,8.419406E0,7.5475965E0,6.7658925E0,1.6579197E1,1.6704768E2,5.0375675E1,1.5291746E1,1.6126978E2,1.3558517E1,4.0471625E0,2.8039423E2,2.16319E1,1.447224E1,4.0525427E2,4.014323E0,4.91902E1,1.7067097E2,2.6798644E0,2.232634E0,1.5254225E1,1.9893778E1,1.323441E1,1.3872315E1,4.907643E0,5.3316646E0,2.2188952E0,1.7810634E0,1.9066774E1,1.1920293E2,2.085155E1,1.9916245E2,2.169096E1,4.0143414E0,4.405064E0,6.223012E0,1.3245845E0,1.3652211E0,5.4006715E0,1.2109766E1,4.46943E0,1.4794678E1,1.52253E2,4.253567E1,7.840004E0,1.3388871E0,1.3952859E1,1.10606514E2,5.066326E1,2.2505689E0,1.1307949E1,1.7970909E0,2.2500715E0,1.9713211E1,2.60681E2,2.0281765E1,1.3501364E0,1.3120092E1,1.3521484E0,1.2857558E2,2.766787E2],"tree_param":{"num_deleted":"0","num_feature":"231","num_nodes":"101","size_leaf_vector":"1"}},{"base_weights":[7.817398E-2,-2.795799E-1,1.1528161E-1,-3.2836843E-1,4.519915E-1,1.4393412E-1,-1.6403024E-1,5.76345E-2,-3.857151E-1,2.8119257E-2,-2.4599943E-1,1.3349171E-1,7.034638E-1,-3.096378E-1,1.2378167E-1,4.883475E-1,-2.4503164E-1,-1.5842225E-1,-5.0503564E-1,1.24096E-2,-1.6933575E-2,1.0667429E-1,3.151168E-1,1.1455945E-1,9.805564E-1,1.6833487E-1,-3.9207104E-1,7.745955E-1,1.4099079E-2,9.3131423E-1,-3.201992E-1,2.429553E-1,-5.393592E-1,6.316307E-1,-2.2380175E-1,8.988571E-2,-5.642153E-1,1.3676308E-1,-1.8935032E-1,8.976356E-2,4.8423794E-1,6.932415E-1,-3.238969E-1,1.1069959E0,-3.987649E-3,6.6779613E-1,-8.068684E-2,4.9586996E-1,-4.349767E-1,-3.6369339E-3,3.1943753E-2,-9.403321E-2,8.490547E-1,6.967081E-3,3.4606155E-2,-1.4355357E-2,2.0168595E-4,-5.877585E-3,1.6847357E-2,-1.914893E-2,5.497221E-4,2.8085647E-2,-1.1037134E-4,-1.3412318E-2,1.5445385E-3,2.4132418E-2,-1.7857505E-2,1.831735E-4,-1.8065384E-2,5.3292466E-3,-7.2685414E-4,4.590849E-3,-8.894649E-3,1.9247737E-2,-2.577965E-4,2.0146959E-2,8.591997E-3,2.9755574E-2,-4.763307E-4,-1.7214948E-2,2.866898E-3,3.7506647E-2,7.700722E-3,3.071959E-2,3.0896328E-3,-1.7744163E-2,7.7831363E-3,2.812323E-2,-3.77013E-3,-1.5260539E-2,1.7016488E-3,1.3587496E-2,-6.043392E-3,3.381793E-2,-1.2413868E-4],"categories":[],"categories_nodes":[],"categories_segments":[],"categories_sizes":[],"default_left":[0,0,0,0,0,0,0,0,0,0,0,0,0,0,0,0,0,0,0,0,0,0,0,0,0,0,0,0,0,0,0,0,0,0,0,0,0,0,0,0,0,0,0,0,0,0,0,0,0,0,0,0,0,0,0,0,0,0,0,0,0,0,0,0,0,0,0,0,0,0,0,0,0,0,0,0,0,0,0,0,0,0,0,0,0,0,0,0,0,0,0,0,0,0,0],"id":10,"left_children":[1,3,5,7,9,11,13,15,17,-1,19,21,23,25,27,29,31,33,35,-1,-1,37,39,41,43,45,47,49,51,53,55,57,59,61,63,65,67,69,71,73,75,77,79,81,-1,83,85,87,89,-1,-1,91,93,-1,-1,-1,-1,-1,-1,-1,-1,-1,-1,-1,-1,-1,-1,-1,-1,-1,-1,-1,-1,-1,-1,-1,-1,-1,-1,-1,-1,-1,-1,-1,-1,-1,-1,-1,-1,-1,-1,-1,-1,-1,-1],"loss_changes":[2.4679155E1,6.386259E0,1.349119E1,3.6618233E0,4.0744495E0,8.8268585E0,6.619252E0,3.0055518E0,3.80591E0,0E0,1.3775322E0,7.272688E0,4.413966E0,4.1859083E0,3.8059354E0,3.6900702E0,2.0940344E0,2.7643914E0,3.342619E0,0E0,0E0,1.168135E1,7.2922764E0,2.7637272E0,2.7841434E0,2.0539248E0,3.6248083E0,2.1290522E0,4.3031282E0,7.2234726E-1,2.1521452E-1,9.254636E-1,4.992237E-1,8.0502486E-1,2.9511187E0,5.042425E0,1.8479462E0,7.825365E0,4.489522E0,4.551018E0,3.8743305E0,9.9665976E-1,7.231961E-1,1.7406082E0,0E0,9.925418E-1,2.1726701E0,1.3780682E0,3.1417427E0,0E0,0E0,2.5771646E0,1.3014076E0,0E0,0E0,0E0,0E0,0E0,0E0,0E0,0E0,0E0,0E0,0E0,0E0,0E0,0E0,0E0,0E0,0E0,0E0,0E0,0E0,0E0,0E0,0E0,0E0,0E0,0E0,0E0,0E0,0E0,0E0,0E0,0E0,0E0,0E0,0E0,0E0,0E0,0E0,0E0,0E0,0E0,0E0],"parents":[2147483647,0,0,1,1,2,2,3,3,4,4,5,5,6,6,7,7,8,8,10,10,11,11,12,12,13,13,14,14,15,15,16,16,17,17,18,18,21,21,22,22,23,23,24,24,25,25,26,26,27,27,28,28,29,29,30,30,31,31,32,32,33,33,34,34,35,35,36,36,37,37,38,38,39,39,40,40,41,41,42,42,43,43,45,45,46,46,47,47,48,48,51,51,52,52],"right_children":[2,4,6,8,10,12,14,16,18,-1,20,22,24,26,28,30,32,34,36,-1,-1,38,40,42,44,46,48,50,52,54,56,58,60,62,64,66,68,70,72,74,76,78,80,82,-1,84,86,88,90,-1,-1,92,94,-1,-1,-1,-1,-1,-1,-1,-1,-1,-1,-1,-1,-1,-1,-1,-1,-1,-1,-1,-1,-1,-1,-1,-1,-1,-1,-1,-1,-1,-1,-1,-1,-1,-1,-1,-1,-1,-1,-1,-1,-1,-1],"split_conditions":[-9.228254E-1,7.2E-1,1.1818181E0,-2E-2,5E-1,1E0,1.2145455E0,4.7370878E-1,1.2E-1,2.8119257E-2,2.0102385E-1,3.1627324E-1,1.1020474E-1,-3.6401457E-1,-3.02768E-1,4.6647614E-1,3.6660606E-1,3.1208912E-2,-9.6985096E-1,1.24096E-2,-1.6933575E-2,2.6E-1,7.002462E-3,3.6559778E-3,1.9595918E-1,0E0,-7.9E-1,1.2364825E-1,1.0862013E0,-1.7676431E-1,1E0,5.635607E-1,4.887373E-1,6.928203E-1,4.552908E-2,3.7147906E-1,-9.490447E-1,1.2605257E-1,1.4130031E-2,6.946317E-3,7.5396234E-1,-3.5767384E-2,-1.02433264E-1,-1.8E-1,-3.987649E-3,5.8E-1,2.0224757E-3,1.24230966E-1,2.9953682E-1,-3.6369339E-3,3.1943753E-2,-1.5720972E-1,6.4812094E-2,6.967081E-3,3.4606155E-2,-1.4355357E-2,2.0168595E-4,-5.877585E-3,1.6847357E-2,-1.914893E-2,5.497221E-4,2.8085647E-2,-1.1037134E-4,-1.3412318E-2,1.5445385E-3,2.4132418E-2,-1.7857505E-2,1.831735E-4,-1.8065384E-2,5.3292466E-3,-7.2685414E-4,4.590849E-3,-8.894649E-3,1.9247737E-2,-2.577965E-4,2.0146959E-2,8.591997E-3,2.9755574E-2,-4.763307E-4,-1.7214948E-2,2.866898E-3,3.7506647E-2,7.700722E-3,3.071959E-2,3.0896328E-3,-1.7744163E-2,7.7831363E-3,2.812323E-2,-3.77013E-3,-1.5260539E-2,1.7016488E-3,1.3587496E-2,-6.043392E-3,3.381793E-2,-1.2413868E-4],"split_indices":[94,126,52,146,69,26,129,192,134,0,227,169,154,131,1,166,209,154,1,0,0,135,160,182,205,69,102,224,1,80,49,1,13,223,1,206,83,169,217,175,3,3,4,132,0,126,171,224,206,0,0,81,13,0,0,0,0,0,0,0,0,0,0,0,0,0,0,0,0,0,0,0,0,0,0,0,0,0,0,0,0,0,0,0,0,0,0,0,0,0,0,0,0,0,0],"split_type":[0,0,0,0,0,0,0,0,0,0,0,0,0,0,0,0,0,0,0,0,0,0,0,0,0,0,0,0,0,0,0,0,0,0,0,0,0,0,0,0,0,0,0,0,0,0,0,0,0,0,0,0,0,0,0,0,0,0,0,0,0,0,0,0,0,0,0,0,0,0,0,0,0,0,0,0,0,0,0,0,0,0,0,0,0,0,0,0,0,0,0,0,0,0,0],"sum_hessian":[1.8555864E3,1.737671E2,1.6818193E3,1.6341978E2,1.0347328E1,1.5257852E3,1.5603418E2,2.113748E1,1.422823E2,5.9012733E0,4.4460554E0,1.4990472E3,2.67379E1,1.0356403E2,5.247015E1,8.470267E0,1.2667212E1,4.9781525E1,9.250078E1,1.3502216E0,3.0958335E0,1.3075687E3,1.9147858E2,9.007567E0,1.7730333E1,1.5080522E1,8.8483505E1,6.6931934E0,4.577696E1,5.374165E0,3.0961027E0,4.8314095E0,7.8358016E0,3.1427844E0,4.663874E1,8.322046E0,8.4178734E1,1.1874144E3,1.2015422E2,8.274798E1,1.0873059E2,3.6323867E0,5.3751807E0,1.5927525E1,1.8028082E0,4.457821E0,1.0622701E1,3.5918694E0,8.489164E1,1.7801554E0,4.913038E0,4.131391E1,4.4630456E0,1.7895651E0,3.5846E0,1.7735629E0,1.3225398E0,2.1942015E0,2.6372082E0,6.5323467E0,1.3034549E0,1.804258E0,1.3385264E0,2.5407515E1,2.1231226E1,3.9884245E0,4.3336215E0,5.3061237E0,7.887261E1,9.4688184E2,2.4053264E2,2.8535526E1,9.16187E1,1.1682208E1,7.106577E1,5.4618916E1,5.4111675E1,2.2754722E0,1.3569146E0,3.1376143E0,2.2375665E0,1.3228921E1,2.6986034E0,2.2352223E0,2.2225983E0,3.950707E0,6.671994E0,1.8028147E0,1.7890546E0,7.379488E1,1.1096754E1,6.253648E0,3.5060265E1,3.1233513E0,1.3396945E0],"tree_param":{"num_deleted":"0","num_feature":"231","num_nodes":"95","size_leaf_vector":"1"}},{"base_weights":[-1.14011586E-1,2.0390384E-1,-2.690194E-1,5.5667365E-1,8.0988966E-2,4.1140784E-2,-3.4288433E-1,5.7264466E-2,7.042136E-1,6.6599596E-1,6.155771E-3,3.9570177E-1,-1.8629257E-1,-4.0727997E-1,-1.75434E-1,4.5629424E-1,-4.1423643E-1,7.738242E-1,-5.017351E-1,-1.7857466E-2,7.8517896E-1,1.0097173E0,-3.4492705E-2,-3.4656292E-1,9.860541E-1,7.354403E-2,-3.5843924E-1,-7.624578E-2,-4.5517412E-1,-4.2141414E-1,-8.3909035E-3,-9.14312E-2,1.0745239E0,8.709785E-2,-5.479594E-1,8.599518E-1,-2.607961E-1,-1.8526994E-2,1.7590716E-4,3.1279734E-1,1.0316414E0,3.8616445E-2,6.283568E-2,8.2269914E-2,-2.5525546E-1,3.8929558E-1,-4.95271E-1,-5.7734076E-2,1.153171E0,3.901008E-1,-1.9984154E-1,-5.3363776E-1,-9.7957484E-2,7.97279E-1,-4.2519605E-1,1.419413E-1,-4.6607542E-1,-4.6529245E-1,-1.2048125E-2,3.172636E-1,-9.79527E-2,-7.4881255E-3,1.1918438E-2,3.73532E-2,1.147918E-4,1.829756E-2,-1.4103035E-2,-2.4899938E-3,-2.0265726E-2,2.815792E-2,-7.939904E-3,1.7200237E-2,-1.5912957E-2,3.288753E-2,1.9158169E-3,4.264104E-3,3.3881202E-2,1.1939305E-2,-1.2901083E-2,-6.908238E-3,7.836776E-3,-4.2097475E-3,-1.7302202E-2,1.8860385E-2,-1.2850994E-2,-1.616248E-2,3.40463E-3,-9.773765E-3,1.7120553E-2,5.92965E-3,3.5672948E-2,2.507029E-2,-1.18936E-2,7.6466003E-3,-1.2180579E-2,-1.702437E-2,1.3458202E-2,2.474896E-3,-1.502614E-2,2.9046025E-2,-1.6337845E-2,2.5810158E-2,-1.3934544E-2,2.3747263E-2,-1.4639419E-2,-5.448764E-3,-1.4667219E-2,-6.5827896E-3,-1.7414404E-2,-9.6448E-3,2.0014614E-2,-1.0842364E-2,1.4032197E-2,-6.6670333E-3,5.2726245E-3],"categories":[],"categories_nodes":[],"categories_segments":[],"categories_sizes":[],"default_left":[0,0,0,0,0,0,0,0,0,0,0,0,0,0,0,0,0,0,0,0,0,0,0,0,0,0,0,0,0,0,0,0,0,0,0,0,0,0,0,0,0,0,0,0,0,0,0,0,0,0,0,0,0,0,0,0,0,0,0,0,0,0,0,0,0,0,0,0,0,0,0,0,0,0,0,0,0,0,0,0,0,0,0,0,0,0,0,0,0,0,0,0,0,0,0,0,0,0,0,0,0,0,0,0,0,0,0,0,0,0,0,0,0,0,0],"id":11,"left_children":[1,3,5,7,9,11,13,15,17,19,21,23,25,27,29,31,33,35,37,-1,39,41,43,45,47,49,51,53,55,57,59,61,63,65,67,69,71,-1,-1,73,75,-1,77,79,81,83,85,87,89,91,93,95,97,99,101,103,105,107,109,111,113,-1,-1,-1,-1,-1,-1,-1,-1,-1,-1,-1,-1,-1,-1,-1,-1,-1,-1,-1,-1,-1,-1,-1,-1,-1,-1,-1,-1,-1,-1,-1,-1,-1,-1,-1,-1,-1,-1,-1,-1,-1,-1,-1,-1,-1,-1,-1,-1,-1,-1,-1,-1,-1,-1],"loss_changes":[9.088726E1,2.6175552E1,2.841108E1,1.1460396E1,1.96796E1,1.9370941E1,1.0724564E1,7.0909038E0,1.0495445E1,8.1311245E0,1.6337553E1,4.146042E1,6.5778723E0,1.1417969E1,1.1494955E1,6.9874587E0,1.2101533E0,1.04025955E1,4.2561042E-1,0E0,5.1507263E0,4.0155354E0,9.946439E0,4.822651E0,9.229008E0,5.201048E0,3.9760313E0,2.8535353E1,4.1726227E0,2.0269833E0,4.9217477E0,1.0042961E0,1.7551403E0,1.6017103E0,7.6394844E-1,9.595161E0,2.4509451E0,0E0,0E0,3.3535318E0,2.4873543E0,0E0,9.284556E-1,1.4188771E1,4.8497524E0,1.7711259E0,1.0043688E0,1.5674895E0,1.3209343E0,1.0064396E1,3.1435924E0,2.0013437E0,2.711184E0,6.663069E0,3.770979E0,5.328548E0,3.9363556E0,2.7663727E0,2.73269E0,3.8868878E0,4.538723E0,0E0,0E0,0E0,0E0,0E0,0E0,0E0,0E0,0E0,0E0,0E0,0E0,0E0,0E0,0E0,0E0,0E0,0E0,0E0,0E0,0E0,0E0,0E0,0E0,0E0,0E0,0E0,0E0,0E0,0E0,0E0,0E0,0E0,0E0,0E0,0E0,0E0,0E0,0E0,0E0,0E0,0E0,0E0,0E0,0E0,0E0,0E0,0E0,0E0,0E0,0E0,0E0,0E0,0E0],"parents":[2147483647,0,0,1,1,2,2,3,3,4,4,5,5,6,6,7,7,8,8,9,9,10,10,11,11,12,12,13,13,14,14,15,15,16,16,17,17,18,18,20,20,21,21,22,22,23,23,24,24,25,25,26,26,27,27,28,28,29,29,30,30,31,31,32,32,33,33,34,34,35,35,36,36,39,39,40,40,42,42,43,43,44,44,45,45,46,46,47,47,48,48,49,49,50,50,51,51,52,52,53,53,54,54,55,55,56,56,57,57,58,58,59,59,60,60],"right_children":[2,4,6,8,10,12,14,16,18,20,22,24,26,28,30,32,34,36,38,-1,40,42,44,46,48,50,52,54,56,58,60,62,64,66,68,70,72,-1,-1,74,76,-1,78,80,82,84,86,88,90,92,94,96,98,100,102,104,106,108,110,112,114,-1,-1,-1,-1,-1,-1,-1,-1,-1,-1,-1,-1,-1,-1,-1,-1,-1,-1,-1,-1,-1,-1,-1,-1,-1,-1,-1,-1,-1,-1,-1,-1,-1,-1,-1,-1,-1,-1,-1,-1,-1,-1,-1,-1,-1,-1,-1,-1,-1,-1,-1,-1,-1,-1],"split_conditions":[-5.634767E-1,-8.8460445E-1,3.7605932E-1,3.2E-1,-1.3007411E0,-7.790143E-2,9.9747926E-1,1.07392035E-1,8.626683E-3,6.039113E-3,-8.1E-1,-1.4883938E-1,1.2101024E-1,-2.043973E-2,-2.9642377E-2,4.8453277E-3,4.876987E-2,1.6701007E0,-1.8E-1,-1.7857466E-2,5.281388E-1,7.754998E-1,1.6E-1,-2.7577645E-1,3.2E-1,3.6660606E-1,2.3E-1,-9.290218E-2,1.3829069E-2,-1.7263725E-2,-5E-1,3.1228298E-1,-9.228254E-1,-9.1136414E-1,-1.75E-1,8.4227866E-1,1.4658017E-1,-1.8526994E-2,1.7590716E-4,9.855361E-3,-3.00289E-1,3.8616445E-2,-6.4394516E-1,1.4E-1,2.3678546E0,2.758335E-2,5.4227207E-2,6.974238E-1,6.554966E-3,3.712879E-1,3.8753499E-3,1.8891438E0,-1.301557E-1,7.28011E-1,-6.4E-1,-2.0579089E-1,-7.8E-1,1.0639436E-1,1E0,3.9436248E-1,9.3333334E-2,-7.4881255E-3,1.1918438E-2,3.73532E-2,1.147918E-4,1.829756E-2,-1.4103035E-2,-2.4899938E-3,-2.0265726E-2,2.815792E-2,-7.939904E-3,1.7200237E-2,-1.5912957E-2,3.288753E-2,1.9158169E-3,4.264104E-3,3.3881202E-2,1.1939305E-2,-1.2901083E-2,-6.908238E-3,7.836776E-3,-4.2097475E-3,-1.7302202E-2,1.8860385E-2,-1.2850994E-2,-1.616248E-2,3.40463E-3,-9.773765E-3,1.7120553E-2,5.92965E-3,3.5672948E-2,2.507029E-2,-1.18936E-2,7.6466003E-3,-1.2180579E-2,-1.702437E-2,1.3458202E-2,2.474896E-3,-1.502614E-2,2.9046025E-2,-1.6337845E-2,2.5810158E-2,-1.3934544E-2,2.3747263E-2,-1.4639419E-2,-5.448764E-3,-1.4667219E-2,-6.5827896E-3,-1.7414404E-2,-9.6448E-3,2.0014614E-2,-1.0842364E-2,1.4032197E-2,-6.6670333E-3,5.2726245E-3],"split_indices":[119,45,158,115,13,83,90,157,194,217,147,45,154,92,34,197,154,206,132,0,155,221,135,80,126,190,147,62,162,94,69,206,94,8,144,224,1,0,0,195,3,0,13,191,227,183,175,223,172,78,187,54,3,207,125,1,132,154,69,208,147,0,0,0,0,0,0,0,0,0,0,0,0,0,0,0,0,0,0,0,0,0,0,0,0,0,0,0,0,0,0,0,0,0,0,0,0,0,0,0,0,0,0,0,0,0,0,0,0,0,0,0,0,0,0],"split_type":[0,0,0,0,0,0,0,0,0,0,0,0,0,0,0,0,0,0,0,0,0,0,0,0,0,0,0,0,0,0,0,0,0,0,0,0,0,0,0,0,0,0,0,0,0,0,0,0,0,0,0,0,0,0,0,0,0,0,0,0,0,0,0,0,0,0,0,0,0,0,0,0,0,0,0,0,0,0,0,0,0,0,0,0,0,0,0,0,0,0,0,0,0,0,0,0,0,0,0,0,0,0,0,0,0,0,0,0,0,0,0,0,0,0,0],"sum_hessian":[1.8422135E3,6.0371027E2,1.2385033E3,1.5508424E2,4.4862598E2,2.383039E2,1.00019934E3,3.5684296E1,1.19399956E2,4.9983246E1,3.9864273E2,9.283593E1,1.4546796E2,7.213577E2,2.788416E2,1.9344963E1,1.6339333E1,1.13222755E2,6.1771946E0,3.9705732E0,4.6012672E1,1.459012E1,3.840526E2,4.1309467E1,5.1526463E1,5.8197685E1,8.727028E1,9.150265E1,6.298551E2,1.1215881E2,1.666828E2,1.0709185E1,8.635779E0,3.5139644E0,1.2825368E1,1.0467763E2,8.54513E0,4.8530993E0,1.3240951E0,1.6553873E1,2.9458797E1,1.1005403E1,3.5847182E0,2.5160481E2,1.3244781E2,6.672719E0,3.463675E1,7.2014933E0,4.432497E1,2.6771587E1,3.14261E1,5.154963E1,3.5720646E1,2.57523E1,6.575034E1,1.1077339E1,6.187778E2,1.011774E2,1.09814205E1,3.540494E1,1.3127786E2,8.460261E0,2.2489228E0,7.308501E0,1.3272784E0,1.7640953E0,1.7498692E0,3.1165485E0,9.70882E0,9.799046E1,6.687169E0,1.8122995E0,6.7328305E0,3.170848E0,1.3383025E1,3.1592612E0,2.6299538E1,2.2483964E0,1.3363217E0,9.1505226E1,1.6009958E2,9.862569E1,3.382213E1,5.3403654E0,1.3323535E0,3.243519E1,2.2015593E0,5.385729E0,1.8157642E0,1.8418143E0,4.2483154E1,1.70503E1,9.721287E0,9.730058E0,2.1696041E1,5.0240944E1,1.3086855E0,2.5220385E1,1.0500263E1,2.3089708E1,2.6625926E0,1.3301396E0,6.4420204E1,5.3270073E0,5.7503314E0,4.664228E1,5.721355E2,3.3205597E1,6.7971794E1,7.9060674E0,3.0753534E0,6.1709657E0,2.9233976E1,9.0412445E1,4.086541E1],"tree_param":{"num_deleted":"0","num_feature":"231","num_nodes":"115","size_leaf_vector":"1"}},{"base_weights":[3.9215174E-2,-1.3144551E-1,1.4220197E-1,-1.6171606E-1,3.8250095E-1,3.1446002E-2,2.3962921E-1,2.3482344E-1,-1.939757E-1,5.611272E-1,-2.4469684E-1,-1.1228952E-1,1.4646399E-1,3.6800835E-1,1.4847772E-1,3.0803654E-1,-1.7331254E-2,-4.3159354E-1,-1.3767882E-1,-1.3898338E-2,6.375945E-1,-5.041698E-1,1.2272694E-2,9.7736046E-2,-4.0561244E-1,-1.7501542E-2,2.7838555E-1,8.219483E-1,3.3202362E-1,-6.758611E-2,2.7077645E-1,4.4174612E-1,-4.327249E-2,2.5865717E-2,-4.5384732E-1,-4.9610826E-1,-9.904083E-2,-2.6101288E-1,7.3629993E-1,-1.862666E-2,2.6878688E-4,-6.6657364E-2,3.9498666E-1,6.4070654E-1,-4.4529223E-1,1.02251075E-1,-3.095739E-1,3.9259958E-1,-1.5265593E-1,9.341223E-1,-3.8599938E-3,4.9348107E-1,1.665781E-1,3.0337153E-2,-9.404752E-2,-2.1020979E-1,3.23027E-1,-5.579791E-3,1.877521E-2,-1.2240734E-2,1.1997993E-2,-1.4272862E-2,1.8667432E-2,-1.5938798E-2,1.259802E-2,-8.581956E-4,-9.593366E-3,3.754968E-4,-1.2642922E-2,-6.184455E-3,2.4918355E-2,-7.0632435E-3,9.691641E-3,-9.7236E-3,1.588451E-2,2.5430938E-2,7.088779E-3,-1.4351198E-2,1.6112981E-2,1.1130486E-2,-1.6438109E-3,-1.3599119E-2,2.299511E-2,2.6308685E-3,1.6384944E-2,7.594817E-3,-1.0712982E-2,3.0621506E-2,-4.2832262E-4,3.2598933E-3,1.8343989E-2,3.0254498E-3,1.8529886E-2,-8.926317E-3,2.9329096E-3,1.4212145E-2,-1.1932008E-2,3.5966549E-3,1.2582363E-2],"categories":[],"categories_nodes":[],"categories_segments":[],"categories_sizes":[],"default_left":[0,0,0,0,0,0,0,0,0,0,0,0,0,0,0,0,0,0,0,0,0,0,0,0,0,0,0,0,0,0,0,0,0,0,0,0,0,0,0,0,0,0,0,0,0,0,0,0,0,0,0,0,0,0,0,0,0,0,0,0,0,0,0,0,0,0,0,0,0,0,0,0,0,0,0,0,0,0,0,0,0,0,0,0,0,0,0,0,0,0,0,0,0,0,0,0,0,0,0],"id":12,"left_children":[1,3,5,7,9,11,13,15,17,19,21,23,25,27,29,31,-1,33,35,-1,37,39,-1,41,43,45,47,49,51,53,55,57,59,-1,61,63,65,67,69,-1,-1,71,73,75,77,79,81,83,85,87,-1,89,91,-1,93,95,97,-1,-1,-1,-1,-1,-1,-1,-1,-1,-1,-1,-1,-1,-1,-1,-1,-1,-1,-1,-1,-1,-1,-1,-1,-1,-1,-1,-1,-1,-1,-1,-1,-1,-1,-1,-1,-1,-1,-1,-1,-1,-1],"loss_changes":[3.280809E1,1.099306E1,1.2552393E1,8.542854E0,4.549122E0,9.040901E0,7.189945E0,3.1776965E0,8.165245E0,2.7201014E0,1.8051932E0,1.5022711E1,6.573253E0,3.9149933E0,9.629218E0,2.2226439E0,0E0,3.7684727E0,6.8550415E0,0E0,2.7843227E0,4.365151E-1,0E0,6.991458E0,4.506632E0,4.7999463E0,8.347133E0,2.055932E0,6.308056E0,3.8708265E0,5.909849E0,4.0533185E0,2.4010336E0,0E0,3.030859E0,1.7786379E0,7.006999E0,1.6458523E-1,2.5349998E0,0E0,0E0,6.169226E0,5.0947204E0,1.4500022E-1,3.4596806E0,4.1330104E0,6.5171394E0,6.196018E0,3.0755844E0,1.3580065E0,0E0,5.407402E0,3.4856658E0,0E0,5.1037846E0,3.1874714E0,4.062771E0,0E0,0E0,0E0,0E0,0E0,0E0,0E0,0E0,0E0,0E0,0E0,0E0,0E0,0E0,0E0,0E0,0E0,0E0,0E0,0E0,0E0,0E0,0E0,0E0,0E0,0E0,0E0,0E0,0E0,0E0,0E0,0E0,0E0,0E0,0E0,0E0,0E0,0E0,0E0,0E0,0E0,0E0],"parents":[2147483647,0,0,1,1,2,2,3,3,4,4,5,5,6,6,7,7,8,8,9,9,10,10,11,11,12,12,13,13,14,14,15,15,17,17,18,18,20,20,21,21,23,23,24,24,25,25,26,26,27,27,28,28,29,29,30,30,31,31,32,32,34,34,35,35,36,36,37,37,38,38,41,41,42,42,43,43,44,44,45,45,46,46,47,47,48,48,49,49,51,51,52,52,54,54,55,55,56,56],"right_children":[2,4,6,8,10,12,14,16,18,20,22,24,26,28,30,32,-1,34,36,-1,38,40,-1,42,44,46,48,50,52,54,56,58,60,-1,62,64,66,68,70,-1,-1,72,74,76,78,80,82,84,86,88,-1,90,92,-1,94,96,98,-1,-1,-1,-1,-1,-1,-1,-1,-1,-1,-1,-1,-1,-1,-1,-1,-1,-1,-1,-1,-1,-1,-1,-1,-1,-1,-1,-1,-1,-1,-1,-1,-1,-1,-1,-1,-1,-1,-1,-1,-1,-1],"split_conditions":[-3.448102E-1,8.548489E-1,1.310357E-1,1.4E-1,2.013994E-2,1.23625256E-1,5.0444037E-1,7.527726E-1,-5E-1,3.1208912E-2,3.1195946E-2,-1.6835056E-1,2.5150585E-3,2E-2,6E-2,2.68008E-2,-1.7331254E-2,6.263746E-2,-1.3394989E0,-1.3898338E-2,-7E-1,5.4101425E-1,1.2272694E-2,5.86856E-1,4E-2,1.51566425E-2,7.9600877E-1,8.106253E-1,-7.021977E-2,-1.1308355E-26,-5.8627826E-1,1.1813266E-1,1.7E-1,2.5865717E-2,5E-1,1.9488683E-1,2.2E-1,-3.44302E-1,-6.95E-1,-1.862666E-2,2.6878688E-4,2.2604029E-1,4.935585E-1,1.927466E-2,5.307691E-2,1.2364825E-1,0E0,8.4047604E-1,1.166676E-2,4.5944834E-1,-3.8599938E-3,5.357627E-1,2.1527753E0,3.0337153E-2,1.4818431E-2,3.8071817E-1,0E0,-5.579791E-3,1.877521E-2,-1.2240734E-2,1.1997993E-2,-1.4272862E-2,1.8667432E-2,-1.5938798E-2,1.259802E-2,-8.581956E-4,-9.593366E-3,3.754968E-4,-1.2642922E-2,-6.184455E-3,2.4918355E-2,-7.0632435E-3,9.691641E-3,-9.7236E-3,1.588451E-2,2.5430938E-2,7.088779E-3,-1.4351198E-2,1.6112981E-2,1.1130486E-2,-1.6438109E-3,-1.3599119E-2,2.299511E-2,2.6308685E-3,1.6384944E-2,7.594817E-3,-1.0712982E-2,3.0621506E-2,-4.2832262E-4,3.2598933E-3,1.8343989E-2,3.0254498E-3,1.8529886E-2,-8.926317E-3,2.9329096E-3,1.4212145E-2,-1.1932008E-2,3.5966549E-3,1.2582363E-2],"split_indices":[0,224,13,161,172,85,13,224,70,154,182,18,189,134,114,175,0,167,13,0,132,4,0,207,134,182,77,1,80,15,87,81,147,0,193,80,134,131,144,0,0,206,203,172,182,224,84,221,156,13,0,158,0,0,156,167,146,0,0,0,0,0,0,0,0,0,0,0,0,0,0,0,0,0,0,0,0,0,0,0,0,0,0,0,0,0,0,0,0,0,0,0,0,0,0,0,0,0,0],"split_type":[0,0,0,0,0,0,0,0,0,0,0,0,0,0,0,0,0,0,0,0,0,0,0,0,0,0,0,0,0,0,0,0,0,0,0,0,0,0,0,0,0,0,0,0,0,0,0,0,0,0,0,0,0,0,0,0,0,0,0,0,0,0,0,0,0,0,0,0,0,0,0,0,0,0,0,0,0,0,0,0,0,0,0,0,0,0,0,0,0,0,0,0,0,0,0,0,0,0,0],"sum_hessian":[1.8645995E3,7.016351E2,1.1629644E3,6.632558E2,3.8379265E1,5.448724E2,6.1809204E2,4.9426003E1,6.1382983E2,2.9953762E1,8.425505E0,2.4221063E2,3.0266174E2,2.5537737E2,3.6271466E2,4.5910164E1,3.5158374E0,1.1629702E2,4.975328E2,1.7292408E0,2.822452E1,6.1954994E0,2.2300055E0,1.4153519E2,1.0067545E2,1.3532874E2,1.67333E2,1.7153088E1,2.3822427E2,1.3126234E2,2.3145233E2,3.3067223E1,1.284294E1,1.328315E0,1.14968704E2,4.7261993E1,4.502708E2,2.6306744E0,2.5593845E1,4.8763065E0,1.3191929E0,9.16334E1,4.990178E1,3.1250062E0,9.7550446E1,9.6438065E1,3.889067E1,1.3235245E2,3.4980545E1,1.5358151E1,1.794937E0,1.1956179E2,1.18662476E2,2.2515528E0,1.2901079E2,2.2383213E1,2.090691E2,7.4961042E0,2.557112E1,7.088546E0,5.7543945E0,1.1322083E2,1.7478694E0,4.5918293E1,1.3436999E0,3.4220706E2,1.0806373E2,1.3133125E0,1.3173617E0,2.2203467E0,2.3373499E1,6.4216934E1,2.7416464E1,7.6405687E0,4.2261208E1,1.3420098E0,1.7829965E0,9.486889E1,2.6815617E0,3.506523E1,6.1372837E1,3.481873E1,4.0719423E0,4.4857967E1,8.7494484E1,1.1639018E1,2.3341528E1,1.4003313E1,1.3548379E0,2.8506525E1,9.105527E1,1.0463864E2,1.4023837E1,6.2331158E1,6.667963E1,4.4880066E0,1.7895206E1,6.7999374E1,1.4106973E2],"tree_param":{"num_deleted":"0","num_feature":"231","num_nodes":"99","size_leaf_vector":"1"}},{"base_weights":[6.790965E-2,-2.9301733E-1,1.0181648E-1,2.4932157E-1,-3.6609802E-1,4.879917E-2,2.4371843E-1,6.787549E-1,-4.0968657E-1,6.2551713E-1,-3.930926E-1,3.617227E-2,7.3756933E-1,2.1690984E-1,7.0729643E-1,-4.071726E-3,8.3193046E-1,-1.8261028E-2,2.3206713E-2,2.7718209E-2,-6.203704E-5,-4.2562443E-1,4.779616E-1,6.6835366E-2,-1.6106665E-1,-2.8030038E-1,8.905207E-1,3.2759088E-1,1.0574075E-1,8.2181185E-1,-1.4720401E-2,-3.297936E-3,1.0338578E0,1.324969E-2,-1.2306337E-2,-4.7432566E-1,3.5854712E-2,2.4130046E-2,-3.7563308E-3,2.8640136E-1,3.4035377E-2,-2.8335282E-1,8.118064E-2,-1.2963015E-2,-2.7608278E-4,3.587838E-1,1.2008878E0,7.3848975E-1,2.748634E-1,4.3747578E-2,5.018882E-1,-1.0695166E-2,9.3177974E-1,3.689243E-2,-5.291181E-4,-1.5001593E-2,9.059989E-3,1.55067E-2,-1.4714577E-2,9.951515E-3,-1.5718972E-2,-2.8250408E-3,2.800713E-3,6.66599E-3,-1.0817272E-2,-1.9115712E-2,5.276875E-3,-1.1147594E-2,2.8278865E-2,3.7967484E-2,1.2040998E-2,8.318571E-3,3.3341948E-2,3.9854543E-3,1.2984985E-2,1.5034067E-2,-3.1077824E-4,2.036189E-3,2.2316532E-2,-1.3035829E-2,1.2528692E-2,4.3587093E-3,3.1992108E-2],"categories":[],"categories_nodes":[],"categories_segments":[],"categories_sizes":[],"default_left":[0,0,0,0,0,0,0,0,0,0,0,0,0,0,0,0,0,0,0,0,0,0,0,0,0,0,0,0,0,0,0,0,0,0,0,0,0,0,0,0,0,0,0,0,0,0,0,0,0,0,0,0,0,0,0,0,0,0,0,0,0,0,0,0,0,0,0,0,0,0,0,0,0,0,0,0,0,0,0,0,0,0,0],"id":13,"left_children":[1,3,5,7,9,11,13,15,17,19,21,23,25,27,29,-1,31,-1,33,-1,-1,35,37,39,41,43,45,47,49,51,-1,-1,53,-1,-1,55,57,-1,-1,59,61,63,65,-1,-1,67,69,71,73,75,77,79,81,-1,-1,-1,-1,-1,-1,-1,-1,-1,-1,-1,-1,-1,-1,-1,-1,-1,-1,-1,-1,-1,-1,-1,-1,-1,-1,-1,-1,-1,-1],"loss_changes":[2.291893E1,6.4675226E0,1.2856422E1,5.8528438E0,4.0517235E0,1.0813987E1,5.625433E0,1.6478457E0,7.374215E-1,7.798611E-1,4.1429386E0,7.420062E0,3.7351074E0,5.3917236E0,3.8298864E0,0E0,2.1098566E0,0E0,8.354223E-1,0E0,0E0,3.0409012E0,1.1787739E0,7.6310897E0,4.9145308E0,1.4768317E-1,2.820775E0,4.574625E0,5.4176927E0,2.131382E0,0E0,0E0,1.8217411E0,0E0,0E0,2.583187E0,3.7408042E0,0E0,0E0,5.2326603E0,7.037627E0,4.3727417E0,3.933886E0,0E0,0E0,4.054936E0,1.13521576E-1,3.9030933E0,4.3626556E0,4.7721605E0,3.0874372E0,8.517716E-1,2.0134945E0,0E0,0E0,0E0,0E0,0E0,0E0,0E0,0E0,0E0,0E0,0E0,0E0,0E0,0E0,0E0,0E0,0E0,0E0,0E0,0E0,0E0,0E0,0E0,0E0,0E0,0E0,0E0,0E0,0E0,0E0],"parents":[2147483647,0,0,1,1,2,2,3,3,4,4,5,5,6,6,7,7,8,8,9,9,10,10,11,11,12,12,13,13,14,14,16,16,18,18,21,21,22,22,23,23,24,24,25,25,26,26,27,27,28,28,29,29,32,32,35,35,36,36,39,39,40,40,41,41,42,42,45,45,46,46,47,47,48,48,49,49,50,50,51,51,52,52],"right_children":[2,4,6,8,10,12,14,16,18,20,22,24,26,28,30,-1,32,-1,34,-1,-1,36,38,40,42,44,46,48,50,52,-1,-1,54,-1,-1,56,58,-1,-1,60,62,64,66,-1,-1,68,70,72,74,76,78,80,82,-1,-1,-1,-1,-1,-1,-1,-1,-1,-1,-1,-1,-1,-1,-1,-1,-1,-1,-1,-1,-1,-1,-1,-1,-1,-1,-1,-1,-1,-1],"split_conditions":[-9.228254E-1,4.6647614E-1,1.1103331E-1,2.388419E-1,-6.275757E-1,1E0,7.1756536E-1,-1.5956008E-1,3.5164383E-1,4.9959984E-1,3.5154453E-1,1.1818181E0,-1.3748162E0,6.963476E-1,1.635051E0,-4.071726E-3,-2.1288915E-1,-1.8261028E-2,-9.563778E-1,2.7718209E-2,-6.203704E-5,1.01E-43,3.8549837E-1,-8.0861765E-1,1.2018182E0,0E0,1.6653345E-16,4.9860157E-2,7.519118E-2,-9.5924115E-1,-1.4720401E-2,-3.297936E-3,1.5614213E0,1.324969E-2,-1.2306337E-2,9.755369E-3,4.812466E-3,2.4130046E-2,-3.7563308E-3,2.7019318E-2,1.4E-1,-9.257699E-1,7.4750017E-3,-1.2963015E-2,-2.7608278E-4,-2.3E-1,4.489989E-1,5E-1,2.8904694E-1,1.33468155E-2,1.6E-1,2.4855685E-1,3.7412977E-1,3.689243E-2,-5.291181E-4,-1.5001593E-2,9.059989E-3,1.55067E-2,-1.4714577E-2,9.951515E-3,-1.5718972E-2,-2.8250408E-3,2.800713E-3,6.66599E-3,-1.0817272E-2,-1.9115712E-2,5.276875E-3,-1.1147594E-2,2.8278865E-2,3.7967484E-2,1.2040998E-2,8.318571E-3,3.3341948E-2,3.9854543E-3,1.2984985E-2,1.5034067E-2,-3.1077824E-4,2.036189E-3,2.2316532E-2,-1.3035829E-2,1.2528692E-2,4.3587093E-3,3.1992108E-2],"split_indices":[94,203,18,167,131,26,223,13,13,179,78,52,13,223,54,0,3,0,9,0,0,15,78,42,129,7,189,6,175,54,0,0,54,0,0,194,195,0,0,173,130,0,163,0,0,144,191,69,154,197,116,154,208,0,0,0,0,0,0,0,0,0,0,0,0,0,0,0,0,0,0,0,0,0,0,0,0,0,0,0,0,0,0],"split_type":[0,0,0,0,0,0,0,0,0,0,0,0,0,0,0,0,0,0,0,0,0,0,0,0,0,0,0,0,0,0,0,0,0,0,0,0,0,0,0,0,0,0,0,0,0,0,0,0,0,0,0,0,0,0,0,0,0,0,0,0,0,0,0,0,0,0,0,0,0,0,0,0,0,0,0,0,0,0,0,0,0,0,0],"sum_hessian":[1.8693467E3,1.5987616E2,1.7094706E3,1.8698818E1,1.4117734E2,1.2454792E3,4.639913E2,1.130325E1,7.3955684E0,3.1538112E0,1.3802353E2,1.2240911E3,2.1388166E1,4.4001337E2,2.397794E1,1.8072901E0,9.49596E0,4.7881737E0,2.6073945E0,1.8174024E0,1.3364089E0,1.3354723E2,4.476305E0,1.0599678E3,1.6412326E2,2.6852956E0,1.870287E1,2.1951517E2,2.204982E2,2.217246E1,1.8054805E0,1.7568717E0,7.7390885E0,1.3169339E0,1.2904606E0,1.2077378E2,1.2773447E1,2.6882184E0,1.7880865E0,1.3675906E2,9.2320874E2,1.0895381E2,5.5169456E1,1.340689E0,1.3446066E0,7.6877747E0,1.1015096E1,2.3485977E1,1.9602919E2,1.9162172E2,2.8876474E1,2.6924129E0,1.9480047E1,6.380838E0,1.3582504E0,1.1724418E2,3.5296023E0,6.683339E0,6.090108E0,1.3007587E2,6.683199E0,2.9186215E2,6.313466E2,1.4188575E1,9.4765236E1,5.759427E0,4.9410027E1,3.576832E0,4.1109424E0,9.651218E0,1.3638766E0,1.1279432E1,1.2206545E1,1.0419691E2,9.183229E1,1.9396128E1,1.7222559E2,1.0795477E1,1.8080997E1,1.3460064E0,1.3464067E0,3.1509628E0,1.6329084E1],"tree_param":{"num_deleted":"0","num_feature":"231","num_nodes":"83","size_leaf_vector":"1"}},{"base_weights":[-1.21120095E-1,1.5917987E-1,-2.950857E-1,4.35127E-1,1.8257523E-2,4.9787704E-2,-3.670786E-1,2.1357441E-1,7.173536E-1,8.3540994E-1,-1.7301286E-2,4.3072292E-1,-2.4485533E-1,-1.2833557E-1,-3.996193E-1,-1.4339401E-1,4.6273378E-1,7.8213817E-1,-3.43314E-1,9.8202384E-1,-6.429406E-3,5.099807E-2,-4.159135E-1,-3.610869E-1,9.1411316E-1,7.055313E-1,-2.826937E-1,-4.9052292E-1,4.9132958E-1,4.351811E-2,-4.128676E-1,6.373229E-2,-4.8076844E-1,6.03195E-1,-3.114433E-1,-1.5841508E-2,8.178751E-1,7.2300574E-3,-1.7978871E-2,6.1494563E-2,1.2151043E0,-1.3688475E-1,2.1135782E-1,1.693168E-2,-4.5226273E-1,-4.6889663E-1,2.308487E-1,9.9705744E-1,1.372725E-1,3.027096E-2,-4.1142048E-4,-4.5804143E-1,-3.0824082E-2,2.0498943E-1,-5.570679E-1,9.4512737E-1,-6.413549E-2,5.1713246E-1,-3.917017E-1,-5.192953E-1,-3.5682067E-1,-8.207054E-3,1.3946374E-2,-1.952035E-2,1.5572228E-2,2.0134557E-2,-1.1917015E-2,2.023642E-2,-1.7540168E-2,2.6746122E-2,1.4403142E-3,1.7389718E-2,-1.4475374E-2,3.814475E-2,1.205764E-2,-7.861361E-3,7.471268E-3,9.352892E-3,-2.5700983E-3,2.11576E-3,-1.4869633E-2,1.8976467E-3,-1.737625E-2,2.1420036E-2,-7.881892E-3,-4.5507997E-3,3.135073E-2,1.5692126E-2,-8.572951E-3,-2.1023022E-2,-8.587036E-3,9.932469E-3,-7.2819274E-3,-1.6588634E-2,2.7126387E-2,-2.066759E-2,-1.0057722E-2,3.45015E-2,-9.596805E-3,3.0498475E-2,-7.6441425E-3,3.0106176E-2,5.095369E-3,1.3218694E-2,-1.7626522E-2,-1.6041681E-2,1.6041847E-2,-6.675821E-3,-1.27863055E-2],"categories":[],"categories_nodes":[],"categories_segments":[],"categories_sizes":[],"default_left":[0,0,0,0,0,0,0,0,0,0,0,0,0,0,0,0,0,0,0,0,0,0,0,0,0,0,0,0,0,0,0,0,0,0,0,0,0,0,0,0,0,0,0,0,0,0,0,0,0,0,0,0,0,0,0,0,0,0,0,0,0,0,0,0,0,0,0,0,0,0,0,0,0,0,0,0,0,0,0,0,0,0,0,0,0,0,0,0,0,0,0,0,0,0,0,0,0,0,0,0,0,0,0,0,0,0,0,0,0],"id":14,"left_children":[1,3,5,7,9,11,13,15,17,19,21,23,25,27,29,31,33,35,37,39,-1,41,43,45,47,49,51,53,55,57,59,61,63,65,67,-1,69,-1,-1,71,73,75,77,-1,79,81,83,85,87,-1,-1,89,91,93,95,97,99,101,103,105,107,-1,-1,-1,-1,-1,-1,-1,-1,-1,-1,-1,-1,-1,-1,-1,-1,-1,-1,-1,-1,-1,-1,-1,-1,-1,-1,-1,-1,-1,-1,-1,-1,-1,-1,-1,-1,-1,-1,-1,-1,-1,-1,-1,-1,-1,-1,-1,-1],"loss_changes":[9.070913E1,2.7705784E1,2.8511047E1,1.4908173E1,1.3752505E1,2.244895E1,7.3253937E0,1.2195032E1,7.518486E0,3.2479658E0,1.23829975E1,3.3699764E1,4.2589436E0,2.6133726E1,4.9209595E0,4.0011096E0,8.946699E0,5.1018906E0,1.1567981E0,3.6793346E0,0E0,1.1734953E1,2.6258898E0,2.2630324E0,3.3695145E0,1.0198057E0,4.812088E0,3.5072613E0,1.0913923E1,5.3862143E0,4.652298E0,5.0101748E0,4.0294547E0,4.9248676E0,3.904451E0,0E0,5.485489E0,0E0,0E0,1.5730973E0,1.2670135E-1,8.736557E0,6.2899504E0,0E0,1.5027733E0,1.7327347E0,1.5879858E0,2.8589973E0,1.1955361E0,0E0,0E0,2.4830732E0,3.6023023E0,4.2801614E0,1.7337551E0,6.527403E0,4.441409E0,1.9366543E0,2.4879162E0,4.799385E0,4.88533E0,0E0,0E0,0E0,0E0,0E0,0E0,0E0,0E0,0E0,0E0,0E0,0E0,0E0,0E0,0E0,0E0,0E0,0E0,0E0,0E0,0E0,0E0,0E0,0E0,0E0,0E0,0E0,0E0,0E0,0E0,0E0,0E0,0E0,0E0,0E0,0E0,0E0,0E0,0E0,0E0,0E0,0E0,0E0,0E0,0E0,0E0,0E0,0E0],"parents":[2147483647,0,0,1,1,2,2,3,3,4,4,5,5,6,6,7,7,8,8,9,9,10,10,11,11,12,12,13,13,14,14,15,15,16,16,17,17,18,18,19,19,21,21,22,22,23,23,24,24,25,25,26,26,27,27,28,28,29,29,30,30,31,31,32,32,33,33,34,34,36,36,39,39,40,40,41,41,42,42,44,44,45,45,46,46,47,47,48,48,51,51,52,52,53,53,54,54,55,55,56,56,57,57,58,58,59,59,60,60],"right_children":[2,4,6,8,10,12,14,16,18,20,22,24,26,28,30,32,34,36,38,40,-1,42,44,46,48,50,52,54,56,58,60,62,64,66,68,-1,70,-1,-1,72,74,76,78,-1,80,82,84,86,88,-1,-1,90,92,94,96,98,100,102,104,106,108,-1,-1,-1,-1,-1,-1,-1,-1,-1,-1,-1,-1,-1,-1,-1,-1,-1,-1,-1,-1,-1,-1,-1,-1,-1,-1,-1,-1,-1,-1,-1,-1,-1,-1,-1,-1,-1,-1,-1,-1,-1,-1,-1,-1,-1,-1,-1,-1],"split_conditions":[-3.518048E-1,-8.2732964E-1,3.7605932E-1,1E0,-8.066667E-1,-7.790143E-2,-2.043973E-2,1E0,1.029679E-1,1.1813266E-1,-2.6E-1,-1.3840896E-1,-7.7666664E-1,-2.7019225E-2,1.3829069E-2,-9.0539044E-1,9.141957E-3,-9.639303E-1,-2.835683E-1,-2.4706498E-2,-6.429406E-3,1.2047704E-2,-7.750052E-1,7.0710677E-1,3.6075525E-2,4.1963305E-2,2.1333334E-1,7.394131E-2,-1.0318884E-1,-3.0689856E-1,2.9727715E-1,5E-1,-7.8543633E-1,8.4227866E-1,2.712932E-1,-1.5841508E-2,5.2E-1,7.2300574E-3,-1.7978871E-2,-8.063501E-1,1E0,5.5036014E-1,1.6E-1,1.693168E-2,3.667623E-3,-3.2922786E-1,4.9638695E-1,-8.9645416E-1,2.621397E-1,3.027096E-2,-4.1142048E-4,2E-1,-5.982682E-1,-1.6462131E-1,6.963476E-1,7.28011E-1,3.9340225E-1,-2.4257225E-1,-2E-2,5.4E-1,1E-1,-8.207054E-3,1.3946374E-2,-1.952035E-2,1.5572228E-2,2.0134557E-2,-1.1917015E-2,2.023642E-2,-1.7540168E-2,2.6746122E-2,1.4403142E-3,1.7389718E-2,-1.4475374E-2,3.814475E-2,1.205764E-2,-7.861361E-3,7.471268E-3,9.352892E-3,-2.5700983E-3,2.11576E-3,-1.4869633E-2,1.8976467E-3,-1.737625E-2,2.1420036E-2,-7.881892E-3,-4.5507997E-3,3.135073E-2,1.5692126E-2,-8.572951E-3,-2.1023022E-2,-8.587036E-3,9.932469E-3,-7.2819274E-3,-1.6588634E-2,2.7126387E-2,-2.066759E-2,-1.0057722E-2,3.45015E-2,-9.596805E-3,3.0498475E-2,-7.6441425E-3,3.0106176E-2,5.095369E-3,1.3218694E-2,-1.7626522E-2,-1.6041681E-2,1.6041847E-2,-6.675821E-3,-1.27863055E-2],"split_indices":[0,0,158,38,147,83,92,39,154,81,125,86,147,92,162,86,197,63,4,80,0,197,4,223,196,40,147,154,62,4,167,69,29,224,209,0,147,0,0,0,36,167,113,0,156,41,209,3,54,0,0,135,3,131,223,207,81,1,146,115,135,0,0,0,0,0,0,0,0,0,0,0,0,0,0,0,0,0,0,0,0,0,0,0,0,0,0,0,0,0,0,0,0,0,0,0,0,0,0,0,0,0,0,0,0,0,0,0,0],"split_type":[0,0,0,0,0,0,0,0,0,0,0,0,0,0,0,0,0,0,0,0,0,0,0,0,0,0,0,0,0,0,0,0,0,0,0,0,0,0,0,0,0,0,0,0,0,0,0,0,0,0,0,0,0,0,0,0,0,0,0,0,0,0,0,0,0,0,0,0,0,0,0,0,0,0,0,0,0,0,0,0,0,0,0,0,0,0,0,0,0,0,0,0,0,0,0,0,0,0,0,0,0,0,0,0,0,0,0,0,0],"sum_hessian":[1.8582578E3,7.1167126E2,1.1465867E3,2.3987407E2,4.7179718E2,1.98069E2,9.4851764E2,1.3536613E2,1.0450793E2,1.8736347E1,4.5306082E2,8.618331E1,1.1188569E2,1.14368515E2,8.341491E2,5.58191E1,7.954704E1,9.87396E1,5.7683234E0,1.6496754E1,2.2395933E0,3.8753204E2,6.5528786E1,3.2765427E1,5.3417885E1,3.60837E0,1.0827732E2,7.23116E1,4.2056915E1,2.414794E1,8.1000116E2,3.5088253E1,2.0730846E1,6.751792E1,1.2029122E1,2.2559447E0,9.648366E1,1.775044E0,3.9932795E0,3.5884287E0,1.2908326E1,1.7851929E2,2.0901276E2,1.823517E0,6.370527E1,2.7893093E1,4.8723326E0,4.800848E1,5.4094043E0,2.2542415E0,1.3541286E0,6.3353226E1,4.4924095E1,6.1327753E0,6.6178825E1,2.2760656E1,1.9296259E1,1.1473765E1,1.2674175E1,2.7656525E2,5.334359E2,1.9233755E1,1.5854497E1,1.8018127E1,2.7127197E0,6.3531506E1,3.9864166E0,2.2914088E0,9.737714E0,8.7913826E1,8.569834E0,1.8043069E0,1.7841219E0,1.1544232E1,1.3640938E0,1.3504396E2,4.3475334E1,1.5617186E2,5.2840893E1,4.834413E0,5.8870857E1,4.8625207E0,2.3030573E1,2.236497E0,2.6358356E0,1.8376076E0,4.617087E1,2.7055523E0,2.703852E0,2.4981276E1,3.8371952E1,1.6382591E1,2.8541502E1,3.0431983E0,3.089577E0,4.018536E1,2.5993464E1,1.966584E1,3.094815E0,2.2441487E0,1.705211E1,3.992396E0,7.481369E0,2.1761408E0,1.04980345E1,2.7306122E2,3.5040424E0,1.8316118E2,3.5027472E2],"tree_param":{"num_deleted":"0","num_feature":"231","num_nodes":"109","size_leaf_vector":"1"}},{"base_weights":[4.4801008E-2,-1.2897661E-1,1.5084846E-1,-1.59495E-1,4.3159428E-1,1.6269372E-1,-2.075183E-2,-3.974741E-1,-1.0227629E-1,5.40863E-1,-3.855173E-1,6.1853223E-2,2.578012E-1,-4.5963058E-1,3.0390236E-1,-3.2110184E-2,-2.9080608E-1,8.0213404E-1,7.858998E-2,-1.5961263E-2,2.848026E-4,-8.043352E-2,1.7327683E-1,1.7141353E-1,4.0548843E-1,-4.8089123E-1,1.855154E-2,6.839425E-1,-4.564737E-2,-7.932635E-2,4.282362E-1,-3.6578873E-1,1.5651894E-1,-6.42329E-3,9.354977E-1,-2.5649273E-1,4.6951815E-1,1.4400627E-1,-4.0025243E-1,8.0536716E-2,3.7497756E-1,3.1686974E-1,6.976143E-2,5.0074965E-1,9.667516E-2,1.7689556E-2,-1.5074227E-2,3.0952055E-2,3.547208E-3,-1.52797755E-2,8.665977E-3,-2.795173E-3,2.4953485E-2,2.1071177E-2,1.8560349E-3,2.5054121E-2,-1.1945031E-2,-1.1611015E-2,1.258066E-2,1.1032143E-2,3.679966E-2,7.601743E-3,-1.3554161E-2,2.1755176E-2,-3.6001592E-3,-4.3203222E-4,1.1866942E-2,-9.560772E-4,-1.535327E-2,8.445903E-4,1.2687758E-2,1.7204534E-2,4.004288E-3,1.2567813E-2,1.3682218E-3,2.4023037E-2,1.040926E-3,3.1375702E-2,1.258944E-2,-1.9263477E-3,1.952709E-2],"categories":[],"categories_nodes":[],"categories_segments":[],"categories_sizes":[],"default_left":[0,0,0,0,0,0,0,0,0,0,0,0,0,0,0,0,0,0,0,0,0,0,0,0,0,0,0,0,0,0,0,0,0,0,0,0,0,0,0,0,0,0,0,0,0,0,0,0,0,0,0,0,0,0,0,0,0,0,0,0,0,0,0,0,0,0,0,0,0,0,0,0,0,0,0,0,0,0,0,0,0],"id":15,"left_children":[1,3,5,7,9,11,-1,13,15,17,19,21,23,25,27,29,31,33,35,-1,-1,37,39,41,43,45,-1,47,49,51,53,55,57,-1,59,61,63,65,67,69,71,73,75,77,79,-1,-1,-1,-1,-1,-1,-1,-1,-1,-1,-1,-1,-1,-1,-1,-1,-1,-1,-1,-1,-1,-1,-1,-1,-1,-1,-1,-1,-1,-1,-1,-1,-1,-1,-1,-1],"loss_changes":[3.4408783E1,1.2176668E1,1.1683338E1,9.108917E0,3.495174E0,1.0956511E1,0E0,5.8024616E0,7.1741447E0,3.9087906E0,2.9015017E-1,8.838584E0,7.438244E0,3.0412426E0,1.5159063E0,8.660288E0,4.9933453E0,3.0331173E0,1.8211716E0,0E0,0E0,1.7653496E1,5.8149805E0,5.49325E0,6.31892E0,3.0219498E0,0E0,9.438174E-1,1.195507E0,4.629052E0,3.6802092E0,5.245075E0,3.2806487E0,0E0,2.6340904E0,8.751059E-1,1.0434062E0,5.7751017E0,4.1476E0,3.850196E0,4.628663E0,4.2211103E0,5.6330466E0,6.8634644E0,4.70227E0,0E0,0E0,0E0,0E0,0E0,0E0,0E0,0E0,0E0,0E0,0E0,0E0,0E0,0E0,0E0,0E0,0E0,0E0,0E0,0E0,0E0,0E0,0E0,0E0,0E0,0E0,0E0,0E0,0E0,0E0,0E0,0E0,0E0,0E0,0E0,0E0],"parents":[2147483647,0,0,1,1,2,2,3,3,4,4,5,5,7,7,8,8,9,9,10,10,11,11,12,12,13,13,14,14,15,15,16,16,17,17,18,18,21,21,22,22,23,23,24,24,25,25,27,27,28,28,29,29,30,30,31,31,32,32,34,34,35,35,36,36,37,37,38,38,39,39,40,40,41,41,42,42,43,43,44,44],"right_children":[2,4,6,8,10,12,-1,14,16,18,20,22,24,26,28,30,32,34,36,-1,-1,38,40,42,44,46,-1,48,50,52,54,56,58,-1,60,62,64,66,68,70,72,74,76,78,80,-1,-1,-1,-1,-1,-1,-1,-1,-1,-1,-1,-1,-1,-1,-1,-1,-1,-1,-1,-1,-1,-1,-1,-1,-1,-1,-1,-1,-1,-1,-1,-1,-1,-1,-1,-1],"split_conditions":[-3.448102E-1,8.659548E-1,1E0,-5E-1,6E-1,1.4738576E-1,-2.075183E-2,1.6E0,2E-1,-6.756573E-1,-4.1284433E-1,1.2447537E-1,4.2708313E-1,9.6906E-2,-5.3061223E-1,-1.4602281E-3,1.20976344E-1,-1.25E0,-5.666667E-2,-1.5961263E-2,2.848026E-4,-2.0744328E-1,9.330193E-1,5.698406E-1,7.4837863E-1,6.263746E-2,1.855154E-2,-6.3E-1,1.1781402E0,3.960718E-2,2.68008E-2,1.15662344E-1,4.3589406E-2,-6.42329E-3,0E0,9.339941E-2,5E-1,-3.1434926E-1,-3E-1,4.943473E-1,3.9691024E-2,1.8586148E-2,-9.156614E-1,1.3032557E-2,9.470375E-3,1.7689556E-2,-1.5074227E-2,3.0952055E-2,3.547208E-3,-1.52797755E-2,8.665977E-3,-2.795173E-3,2.4953485E-2,2.1071177E-2,1.8560349E-3,2.5054121E-2,