{"learner":{"attributes":{"scikit_learn":"{\"_estimator_type\": \"classifier\"}"},"feature_names":[],"feature_types":[],"gradient_booster":{"model":{"gbtree_model_param":{"num_parallel_tree":"1","num_trees":"600"},"iteration_indptr":[0,3,6,9,12,15,18,21,24,27,30,33,36,39,42,45,48,51,54,57,60,63,66,69,72,75,78,81,84,87,90,93,96,99,102,105,108,111,114,117,120,123,126,129,132,135,138,141,144,147,150,153,156,159,162,165,168,171,174,177,180,183,186,189,192,195,198,201,204,207,210,213,216,219,222,225,228,231,234,237,240,243,246,249,252,255,258,261,264,267,270,273,276,279,282,285,288,291,294,297,300,303,306,309,312,315,318,321,324,327,330,333,336,339,342,345,348,351,354,357,360,363,366,369,372,375,378,381,384,387,390,393,396,399,402,405,408,411,414,417,420,423,426,429,432,435,438,441,444,447,450,453,456,459,462,465,468,471,474,477,480,483,486,489,492,495,498,501,504,507,510,513,516,519,522,525,528,531,534,537,540,543,546,549,552,555,558,561,564,567,570,573,576,579,582,585,588,591,594,597,600],"tree_info":[0,1,2,0,1,2,0,1,2,0,1,2,0,1,2,0,1,2,0,1,2,0,1,2,0,1,2,0,1,2,0,1,2,0,1,2,0,1,2,0,1,2,0,1,2,0,1,2,0,1,2,0,1,2,0,1,2,0,1,2,0,1,2,0,1,2,0,1,2,0,1,2,0,1,2,0,1,2,0,1,2,0,1,2,0,1,2,0,1,2,0,1,2,0,1,2,0,1,2,0,1,2,0,1,2,0,1,2,0,1,2,0,1,2,0,1,2,0,1,2,0,1,2,0,1,2,0,1,2,0,1,2,0,1,2,0,1,2,0,1,2,0,1,2,0,1,2,0,1,2,0,1,2,0,1,2,0,1,2,0,1,2,0,1,2,0,1,2,0,1,2,0,1,2,0,1,2,0,1,2,0,1,2,0,1,2,0,1,2,0,1,2,0,1,2,0,1,2,0,1,2,0,1,2,0,1,2,0,1,2,0,1,2,0,1,2,0,1,2,0,1,2,0,1,2,0,1,2,0,1,2,0,1,2,0,1,2,0,1,2,0,1,2,0,1,2,0,1,2,0,1,2,0,1,2,0,1,2,0,1,2,0,1,2,0,1,2,0,1,2,0,1,2,0,1,2,0,1,2,0,1,2,0,1,2,0,1,2,0,1,2,0,1,2,0,1,2,0,1,2,0,1,2,0,1,2,0,1,2,0,1,2,0,1,2,0,1,2,0,1,2,0,1,2,0,1,2,0,1,2,0,1,2,0,1,2,0,1,2,0,1,2,0,1,2,0,1,2,0,1,2,0,1,2,0,1,2,0,1,2,0,1,2,0,1,2,0,1,2,0,1,2,0,1,2,0,1,2,0,1,2,0,1,2,0,1,2,0,1,2,0,1,2,0,1,2,0,1,2,0,1,2,0,1,2,0,1,2,0,1,2,0,1,2,0,1,2,0,1,2,0,1,2,0,1,2,0,1,2,0,1,2,0,1,2,0,1,2,0,1,2,0,1,2,0,1,2,0,1,2,0,1,2,0,1,2,0,1,2,0,1,2,0,1,2,0,1,2,0,1,2,0,1,2,0,1,2,0,1,2,0,1,2,0,1,2,0,1,2,0,1,2,0,1,2,0,1,2,0,1,2,0,1,2,0,1,2,0,1,2,0,1,2,0,1,2,0,1,2,0,1,2,0,1,2,0,1,2,0,1,2,0,1,2,0,1,2,0,1,2,0,1,2,0,1,2,0,1,2,0,1,2,0,1,2,0,1,2,0,1,2,0,1,2,0,1,2,0,1,2,0,1,2,0,1,2,0,1,2,0,1,2,0,1,2,0,1,2,0,1,2,0,1,2,0,1,2,0,1,2],"trees":[{"base_weights":[-2.0513971E-1,-3.0760506E-1,-5.7220753E-2,-3.185841E-1,3.191489E-1,-1.430264E-1,7.861484E-2,-4.0016577E-1,-2.4731188E-1,9.7402596E-1,-4.1095895E-1,-4.2331293E-1,-9.527101E-2,3.9520955E-1,-1.8237127E-2,-4.130983E-1,4.736842E-1,-3.0083314E-1,-6.295912E-2,3.7894733E-2,3.1034474E-3,-1.918033E-2,1.2857142E-2,-5.63077E-1,-1.3872837E-1,-1.3362244E-1,1.7073166E-1,9.767442E-1,1.8897633E-1,-7.708784E-2,3.0830035E-1,-4.195451E-1,2.5714284E-2,2.8536584E-2,-1.4400001E-2,6.624602E-2,-3.395841E-1,-3.1707323E-1,9.612138E-2,-6.098361E-1,3.1034474E-3,2.2018345E-1,-1.9726029E-2,2.3999996E-1,-1.6932362E-1,5.405401E-2,3E-2,1.1752577E0,2.926829E-1,-1.428572E-1,4.925373E-1,-1.170293E-1,6.233766E-1,-4.2857146E-1,4.647887E-1,-1.3114661E-2,2.8799989E-3,1.7419353E-2,-4.2489283E-3,-1.0593719E-2,1.8E-2,-1.2996391E-2,8.9108787E-4,2.347826E-2,1.6885423E-4,-7.826089E-3,-2.0571431E-2,-2.0224731E-3,3.103448E-2,2.435294E-2,-3.0201355E-3,-5.6921733E-3,1.5652174E-2,1.0650886E-2,-7.283238E-3,1.2413792E-2,3.9740257E-2,2.88E-2,-1.4400001E-2,2.1724137E-2,-8.520712E-3,-2.7692318E-3,2.1724137E-2,-6.8167876E-3,5.4246564E-3,3.4054056E-2,3.6734683E-3,-7.6634543E-10,-1.7027028E-2,-6.000001E-3,1.8305084E-2],"categories":[],"categories_nodes":[],"categories_segments":[],"categories_sizes":[],"default_left":[0,0,0,0,0,0,0,0,0,0,0,0,0,0,0,0,0,0,0,0,0,0,0,0,0,0,0,0,0,0,0,0,0,0,0,0,0,0,0,0,0,0,0,0,0,0,0,0,0,0,0,0,0,0,0,0,0,0,0,0,0,0,0,0,0,0,0,0,0,0,0,0,0,0,0,0,0,0,0,0,0,0,0,0,0,0,0,0,0,0,0],"id":0,"left_children":[1,3,5,7,9,11,13,15,17,19,21,23,25,27,29,31,33,35,37,-1,-1,-1,-1,39,41,43,45,47,49,51,53,55,-1,-1,-1,57,59,61,63,65,-1,67,-1,69,71,73,-1,75,77,79,81,83,85,87,89,-1,-1,-1,-1,-1,-1,-1,-1,-1,-1,-1,-1,-1,-1,-1,-1,-1,-1,-1,-1,-1,-1,-1,-1,-1,-1,-1,-1,-1,-1,-1,-1,-1,-1,-1,-1],"loss_changes":[2.2590942E1,6.163994E0,7.1405005E0,4.9383316E0,7.8910017E0,4.982092E0,7.287924E0,4.742485E0,4.5691166E0,2.0228634E0,1.8292003E0,2.0829763E0,3.306589E0,6.491619E0,3.5362E0,3.6106567E0,3.340898E0,5.1449623E0,4.310993E0,0E0,0E0,0E0,0E0,1.1885319E0,3.7240632E0,3.800685E0,3.9129858E0,1.6024237E0,4.334671E0,4.428129E0,3.4407387E0,3.6341782E0,0E0,0E0,0E0,3.84861E0,4.3577843E0,1.6641226E0,4.08876E0,7.184591E-1,0E0,2.9060636E0,0E0,4.9513144E0,3.737389E0,3.3917036E0,0E0,6.7811203E-1,2.809756E0,2.7758765E0,3.0919037E0,4.902433E0,2.0542548E0,3.2432437E-1,2.409358E0,0E0,0E0,0E0,0E0,0E0,0E0,0E0,0E0,0E0,0E0,0E0,0E0,0E0,0E0,0E0,0E0,0E0,0E0,0E0,0E0,0E0,0E0,0E0,0E0,0E0,0E0,0E0,0E0,0E0,0E0,0E0,0E0,0E0,0E0,0E0,0E0],"parents":[2147483647,0,0,1,1,2,2,3,3,4,4,5,5,6,6,7,7,8,8,9,9,10,10,11,11,12,12,13,13,14,14,15,15,16,16,17,17,18,18,23,23,24,24,25,25,26,26,27,27,28,28,29,29,30,30,31,31,35,35,36,36,37,37,38,38,39,39,41,41,43,43,44,44,45,45,47,47,48,48,49,49,50,50,51,51,52,52,53,53,54,54],"right_children":[2,4,6,8,10,12,14,16,18,20,22,24,26,28,30,32,34,36,38,-1,-1,-1,-1,40,42,44,46,48,50,52,54,56,-1,-1,-1,58,60,62,64,66,-1,68,-1,70,72,74,-1,76,78,80,82,84,86,88,90,-1,-1,-1,-1,-1,-1,-1,-1,-1,-1,-1,-1,-1,-1,-1,-1,-1,-1,-1,-1,-1,-1,-1,-1,-1,-1,-1,-1,-1,-1,-1,-1,-1,-1,-1,-1],"split_conditions":[2.5573754E-1,1E0,1.15643956E-1,2.7700257E-2,3.4685005E-2,1.5378147E-4,6.4319205E-1,4.138579E-1,4.478399E-1,9.790843E-2,2.7126223E-1,8.072174E-1,1E0,5.223344E-2,4.5478734E-1,3.5667252E2,5.58311E-2,-3.04E-1,2.4490314E-2,3.7894733E-2,3.1034474E-3,-1.918033E-2,1.2857142E-2,2.14E0,7.3898055E-2,-2.3854892E0,6E-2,8E-1,-4.1704556E-1,1.0276219E0,-1.60269E-1,1.0695869E0,2.5714284E-2,2.8536584E-2,-1.4400001E-2,9.0519944E-4,9.0750974E-1,9.369875E-2,2.596664E-2,-7.6699835E-1,3.1034474E-3,8.3678134E-2,-1.9726029E-2,-6.2E-1,1.1811137E0,-3.8E-1,3E-2,5.4E-1,4.6258774E-2,-2.283597E1,0E0,2.3439641E2,6.601453E-2,3.683287E-1,4.3671107E-1,-1.3114661E-2,2.8799989E-3,1.7419353E-2,-4.2489283E-3,-1.0593719E-2,1.8E-2,-1.2996391E-2,8.9108787E-4,2.347826E-2,1.6885423E-4,-7.826089E-3,-2.0571431E-2,-2.0224731E-3,3.103448E-2,2.435294E-2,-3.0201355E-3,-5.6921733E-3,1.5652174E-2,1.0650886E-2,-7.283238E-3,1.2413792E-2,3.9740257E-2,2.88E-2,-1.4400001E-2,2.1724137E-2,-8.520712E-3,-2.7692318E-3,2.1724137E-2,-6.8167876E-3,5.4246564E-3,3.4054056E-2,3.6734683E-3,-7.6634543E-10,-1.7027028E-2,-6.000001E-3,1.8305084E-2],"split_indices":[0,27,90,163,217,228,221,90,119,2,1,207,58,197,61,152,165,129,215,0,0,0,0,130,172,54,100,67,1,1,81,221,0,0,0,172,81,54,217,16,0,196,0,132,1,130,0,221,78,15,67,229,216,0,155,0,0,0,0,0,0,0,0,0,0,0,0,0,0,0,0,0,0,0,0,0,0,0,0,0,0,0,0,0,0,0,0,0,0,0,0],"split_type":[0,0,0,0,0,0,0,0,0,0,0,0,0,0,0,0,0,0,0,0,0,0,0,0,0,0,0,0,0,0,0,0,0,0,0,0,0,0,0,0,0,0,0,0,0,0,0,0,0,0,0,0,0,0,0,0,0,0,0,0,0,0,0,0,0,0,0,0,0,0,0,0,0,0,0,0,0,0,0,0,0,0,0,0,0,0,0,0,0,0,0],"sum_hessian":[1.4906666E3,8.7999994E2,6.106666E2,8.6533325E2,1.4666666E1,3.742222E2,2.3644443E2,4.013333E2,4.6399997E2,7.5555553E0,7.1111107E0,5.333333E1,3.2088885E2,5.4666664E1,1.8177777E2,3.9599997E2,5.333333E0,3.5911108E2,1.04888885E2,5.333333E0,2.222222E0,5.7777777E0,1.3333333E0,3.511111E1,1.8222221E1,2.808889E2,3.9999996E1,1.3333332E1,4.1333332E1,1.5466666E2,2.7111109E1,3.9466666E2,1.3333333E0,3.5555553E0,1.7777777E0,3.422222E1,3.2488885E2,3.9999996E1,6.4888885E1,3.2888885E1,2.222222E0,1.1111111E1,7.1111107E0,2.3999998E1,2.568889E2,3.5999996E1,3.9999998E0,9.777777E0,3.5555553E0,1.9999998E1,2.1333332E1,1.471111E2,7.5555553E0,4.444444E0,2.2666666E1,3.8177774E2,1.2888888E1,9.333333E0,2.4888887E1,3.2088885E2,3.9999998E0,2.9777777E1,1.0222221E1,6.666666E0,5.8222218E1,6.666666E0,2.6222221E1,8.888888E0,2.222222E0,8.444444E0,1.5555554E1,2.5022221E2,6.666666E0,1.7777777E1,1.8222221E1,2.222222E0,7.5555553E0,1.7777777E0,1.7777777E0,2.222222E0,1.7777777E1,6.222222E0,1.5111111E1,1.0755555E2,3.9555553E1,3.111111E0,4.444444E0,1.3333333E0,3.111111E0,3.9999998E0,1.8666666E1],"tree_param":{"num_deleted":"0","num_feature":"231","num_nodes":"91","size_leaf_vector":"1"}},{"base_weights":[-1.9493619E-1,-3.4301177E-1,-9.0156674E-2,1.1418681E-1,-3.6752144E-1,2.1105523E-1,-1.1479702E-1,-2.2702707E-1,6.637168E-1,-4.3751895E-1,-2.4834947E-1,-7.570983E-2,5.190311E-1,-1.4445642E-1,1.4342625E-1,2.6086953E-1,-4.8000005E-1,5.6603737E-2,1.0434783E0,-2.976502E-1,-5.099308E-1,7.317073E-1,-2.6794016E-1,6.315789E-1,-2.2304837E-1,6.7346936E-1,-2.8301892E-1,-1.995254E-2,-2.0338988E-1,4.958634E-3,6.687898E-1,4.736842E-1,-1.2857144E-2,-6.000001E-1,3.1034474E-3,-1.5517242E-2,5.454545E-1,7.1999994E-3,3.735849E-2,-1.3694726E-1,-5.382933E-1,2.926829E-1,-5.2320683E-1,3.103448E-2,-7.6634543E-10,-3.2432437E-1,7.4733056E-2,1.6216213E-1,3.103448E-2,-3.183674E-1,5.454545E-1,8.1566817E-1,-3.2432437E-1,7.1999994E-3,-1.7027028E-2,-9.871728E-2,4.2056072E-1,1.0153842E-1,-2.270626E-1,1.11984245E-1,-5.1428574E-1,8.1021893E-1,-6.2068976E-3,2.6756756E-2,-6.2068976E-3,-7.6634543E-10,-2.0322582E-2,2.5714284E-2,-7.6634543E-10,2.7169809E-2,-6.5753437E-3,-1.7191011E-2,1.2857142E-2,2.88E-2,-1.4400001E-2,-1.6094422E-2,5.999999E-3,5.039999E-3,-1.08650755E-2,2.2207791E-2,-5.0704237E-3,1.2857142E-2,-3.6000006E-3,5.999999E-3,-1.2488039E-2,-7.6634543E-10,2.5714284E-2,3.0745339E-2,5.5384603E-3,-1.4400001E-2,-7.6634543E-10,4.082473E-3,-5.535309E-3,2.2385785E-2,-2.7067682E-3,1.005076E-2,-7.2262785E-3,-8.721863E-3,-3.426855E-3,8.7257605E-3,-9.171976E-3,-9.753487E-10,-2.0000001E-2,2.8264461E-2,-3.6000006E-3],"categories":[],"categories_nodes":[],"categories_segments":[],"categories_sizes":[],"default_left":[0,0,0,0,0,0,0,0,0,0,0,0,0,0,0,0,0,0,0,0,0,0,0,0,0,0,0,0,0,0,0,0,0,0,0,0,0,0,0,0,0,0,0,0,0,0,0,0,0,0,0,0,0,0,0,0,0,0,0,0,0,0,0,0,0,0,0,0,0,0,0,0,0,0,0,0,0,0,0,0,0,0,0,0,0,0,0,0,0,0,0,0,0,0,0,0,0,0,0,0,0,0,0,0,0],"id":1,"left_children":[1,3,5,7,9,11,13,15,17,19,21,23,25,27,29,31,33,35,37,39,41,43,45,47,49,51,53,55,57,59,61,63,-1,65,-1,-1,67,-1,-1,69,71,73,75,-1,-1,77,79,81,-1,83,85,87,89,-1,-1,91,93,95,97,99,101,103,-1,-1,-1,-1,-1,-1,-1,-1,-1,-1,-1,-1,-1,-1,-1,-1,-1,-1,-1,-1,-1,-1,-1,-1,-1,-1,-1,-1,-1,-1,-1,-1,-1,-1,-1,-1,-1,-1,-1,-1,-1,-1,-1],"loss_changes":[2.3050652E1,6.9459763E0,6.5003057E0,6.171748E0,4.771263E0,5.8976374E0,6.2030296E0,2.6622796E0,2.8357205E0,3.567505E0,4.3965855E0,3.8114119E0,4.1681175E0,5.3123302E0,6.083085E0,1.3278849E0,1.0344832E0,1.93411E0,9.4424915E-1,4.863413E0,2.7163773E0,1.0092514E0,4.182625E0,1.0300682E0,2.3631039E0,4.1269665E0,1.0126262E0,8.156739E0,3.5721397E0,3.7932951E0,2.3280835E0,1.9871488E0,0E0,5.4193544E-1,0E0,0E0,6.233767E-1,0E0,0E0,6.8762674E0,1.9511776E0,2.809756E0,2.3824463E0,0E0,0E0,3.5077496E0,5.189991E0,3.6046332E-1,0E0,1.4647398E0,6.233767E-1,2.9934998E0,2.0756751E-1,0E0,0E0,4.038276E0,5.9997077E0,2.9677567E0,3.2465553E0,4.3146915E0,9.1428566E-1,1.981184E0,0E0,0E0,0E0,0E0,0E0,0E0,0E0,0E0,0E0,0E0,0E0,0E0,0E0,0E0,0E0,0E0,0E0,0E0,0E0,0E0,0E0,0E0,0E0,0E0,0E0,0E0,0E0,0E0,0E0,0E0,0E0,0E0,0E0,0E0,0E0,0E0,0E0,0E0,0E0,0E0,0E0,0E0,0E0],"parents":[2147483647,0,0,1,1,2,2,3,3,4,4,5,5,6,6,7,7,8,8,9,9,10,10,11,11,12,12,13,13,14,14,15,15,16,16,17,17,18,18,19,19,20,20,21,21,22,22,23,23,24,24,25,25,26,26,27,27,28,28,29,29,30,30,31,31,33,33,36,36,39,39,40,40,41,41,42,42,45,45,46,46,47,47,49,49,50,50,51,51,52,52,55,55,56,56,57,57,58,58,59,59,60,60,61,61],"right_children":[2,4,6,8,10,12,14,16,18,20,22,24,26,28,30,32,34,36,38,40,42,44,46,48,50,52,54,56,58,60,62,64,-1,66,-1,-1,68,-1,-1,70,72,74,76,-1,-1,78,80,82,-1,84,86,88,90,-1,-1,92,94,96,98,100,102,104,-1,-1,-1,-1,-1,-1,-1,-1,-1,-1,-1,-1,-1,-1,-1,-1,-1,-1,-1,-1,-1,-1,-1,-1,-1,-1,-1,-1,-1,-1,-1,-1,-1,-1,-1,-1,-1,-1,-1,-1,-1,-1,-1],"split_conditions":[-1.5113401E-1,2.1767536E-1,-1.9982471E0,3.9921656E-2,6.2012874E-2,-1.4103168E0,6E-2,6.7491037E-1,2.4551384E-2,4.5825756E-1,-1.1076468E1,-1.0443571E0,3.6E-1,4.2554906E-1,5.830253E-1,1E0,1E0,1E0,1.2040502E-2,7.44043E-1,-5.8159816E-1,9.929555E-2,4.5403305E-1,-1.0636127E0,4.7276726E-1,3.6676854E-2,-1.428758E0,2.3685439E-1,-8.509669E-1,1E0,5.628483E-1,5.6236315E-1,-1.2857144E-2,-6.267235E-1,3.1034474E-3,-1.5517242E-2,-2.5894362E-1,7.1999994E-3,3.735849E-2,2.4836339E-1,1E0,5.949474E-2,3.6660606E-1,3.103448E-2,-7.6634543E-10,3.2496154E-1,5.033784E-1,-1.0921419E0,3.103448E-2,-2.544204E-1,8.347809E-1,-5.523041E-1,4.4325444E-1,7.1999994E-3,-1.7027028E-2,-3.087497E-1,5.6E-1,4.1900632E-1,5.0774273E-2,6.053419E-1,-4.7939572E-1,9.111764E-1,-6.2068976E-3,2.6756756E-2,-6.2068976E-3,-7.6634543E-10,-2.0322582E-2,2.5714284E-2,-7.6634543E-10,2.7169809E-2,-6.5753437E-3,-1.7191011E-2,1.2857142E-2,2.88E-2,-1.4400001E-2,-1.6094422E-2,5.999999E-3,5.039999E-3,-1.08650755E-2,2.2207791E-2,-5.0704237E-3,1.2857142E-2,-3.6000006E-3,5.999999E-3,-1.2488039E-2,-7.6634543E-10,2.5714284E-2,3.0745339E-2,5.5384603E-3,-1.4400001E-2,-7.6634543E-10,4.082473E-3,-5.535309E-3,2.2385785E-2,-2.7067682E-3,1.005076E-2,-7.2262785E-3,-8.721863E-3,-3.426855E-3,8.7257605E-3,-9.171976E-3,-9.753487E-10,-2.0000001E-2,2.8264461E-2,-3.6000006E-3],"split_indices":[0,154,3,197,163,54,103,221,171,202,92,66,114,158,155,37,58,48,81,207,78,15,118,61,81,160,1,223,110,58,131,155,0,4,0,0,15,0,0,157,50,216,192,0,0,207,66,42,0,77,0,1,0,0,0,1,126,54,165,1,4,1,0,0,0,0,0,0,0,0,0,0,0,0,0,0,0,0,0,0,0,0,0,0,0,0,0,0,0,0,0,0,0,0,0,0,0,0,0,0,0,0,0,0,0],"split_type":[0,0,0,0,0,0,0,0,0,0,0,0,0,0,0,0,0,0,0,0,0,0,0,0,0,0,0,0,0,0,0,0,0,0,0,0,0,0,0,0,0,0,0,0,0,0,0,0,0,0,0,0,0,0,0,0,0,0,0,0,0,0,0,0,0,0,0,0,0,0,0,0,0,0,0,0,0,0,0,0,0,0,0,0,0,0,0,0,0,0,0,0,0,0,0,0,0,0,0,0,0,0,0,0,0],"sum_hessian":[1.4866666E3,6.151111E2,8.715555E2,3.1111109E1,5.8399994E2,6.533333E1,8.0622217E2,1.9555553E1,1.1555555E1,3.662222E2,2.1777777E2,3.422222E1,3.1111109E1,7.2355554E2,8.2666664E1,6.666666E0,1.2888888E1,4.8888884E0,6.666666E0,1.2666666E2,2.3955554E2,3.5555553E0,2.1422221E2,5.333333E0,2.8888887E1,2.6222221E1,4.8888884E0,2.3288887E2,4.9066663E2,6.622222E1,1.6444443E1,5.333333E0,1.3333333E0,1.0666666E1,2.222222E0,2.222222E0,2.6666665E0,1.7777777E0,4.8888884E0,7.6888885E1,4.9777775E1,3.5555553E0,2.3599998E2,2.222222E0,1.3333333E0,1.8399998E2,3.0222221E1,3.111111E0,2.222222E0,2.6222221E1,2.6666665E0,2.311111E1,3.111111E0,1.7777777E0,3.111111E0,1.9822221E2,3.4666664E1,3.511111E1,4.5555554E2,5.5555553E1,1.0666666E1,1.4222221E1,2.222222E0,3.111111E0,2.222222E0,1.3333333E0,9.333333E0,1.3333333E0,1.3333333E0,4.8888884E0,7.199999E1,4.8444443E1,1.3333333E0,1.7777777E0,1.7777777E0,2.3199998E2,3.9999998E0,1.2888888E1,1.711111E2,7.5555553E0,2.2666666E1,1.3333333E0,1.7777777E0,3.9999998E0,2.2222221E1,1.3333333E0,1.3333333E0,1.6888887E1,6.222222E0,1.7777777E0,1.3333333E0,5.2888885E1,1.4533333E2,2.0888887E1,1.3777777E1,2.0888887E1,1.4222221E1,2.902222E2,1.6533333E2,3.9111107E1,1.6444443E1,2.6666665E0,7.9999995E0,1.2444444E1,1.7777777E0],"tree_param":{"num_deleted":"0","num_feature":"231","num_nodes":"105","size_leaf_vector":"1"}},{"base_weights":[3.8910735E-1,6.8116456E-1,1.7916715E-1,5.3984534E-2,7.2644204E-1,5.2327865E-1,9.6102215E-2,-3.0573255E-1,2.86307E-1,9.0193546E-1,5.852911E-1,6.6499496E-1,2.513966E-1,1.4059749E-1,-9.061229E-2,1.3043475E-1,-5.876289E-1,5.217391E-1,-1.6853938E-1,9.418764E-1,2.6174492E-1,-2.9032263E-1,6.1198735E-1,9.93921E-1,4.963072E-1,1.399594E-1,3.735849E-2,9.6641496E-2,3.944223E-1,-1.7355376E-1,5.37931E-1,-1.4400001E-2,3.9622638E-1,-2.011765E-2,-7.6634543E-10,6.976744E-1,-1.463415E-1,-4.1095895E-1,1.8E-2,1.0793401E0,7.42671E-1,-4.0871758E-8,7.35849E-1,2.7272725E-1,-5.217392E-1,-1.327434E-1,6.4059657E-1,5.2577317E-1,1.1452281E0,5.676998E-1,-1.643836E-1,3.6421722E-1,-2.3809528E-1,1.8432985E-1,-1.2238699E-2,1.6981128E-1,7.578947E-1,-2.7337283E-1,1.6600786E-1,-3.2432437E-1,7.692307E-1,1.9459458E-2,-3.6000006E-3,2.4690265E-2,-3.6000006E-3,1.2857142E-2,-1.5517242E-2,3.1034474E-3,-1.8679246E-2,-1.2857144E-2,3.2902457E-2,2.6454948E-2,1.0316204E-2,-1.032787E-2,1.1886791E-2,3.1034474E-3,3.272727E-2,-1.2857144E-2,2.5714284E-2,-7.6634543E-10,-1.8947368E-2,3.103448E-2,-1.451613E-2,9.194498E-3,2.1409513E-2,5.5384603E-3,2.8536584E-2,3.6157202E-2,-7.6634543E-10,1.9180326E-2,-1.232878E-3,1.6363634E-2,-1.8367348E-2,3.2264147E-2,6.356876E-3,-1.5109491E-2,1.1803278E-2,2.5837307E-3,1.546112E-2,-3.1933393E-3,6.264854E-3,1.0942248E-2,-7.4522304E-3,-1.6363636E-2,2.6896551E-2,1.0843361E-3,-1.1900828E-2,4.0723852E-4,2.8536584E-2,-1.4400001E-2,-7.6634543E-10,2.5714286E-2,-7.6634543E-10],"categories":[],"categories_nodes":[],"categories_segments":[],"categories_sizes":[],"default_left":[0,0,0,0,0,0,0,0,0,0,0,0,0,0,0,0,0,0,0,0,0,0,0,0,0,0,0,0,0,0,0,0,0,0,0,0,0,0,0,0,0,0,0,0,0,0,0,0,0,0,0,0,0,0,0,0,0,0,0,0,0,0,0,0,0,0,0,0,0,0,0,0,0,0,0,0,0,0,0,0,0,0,0,0,0,0,0,0,0,0,0,0,0,0,0,0,0,0,0,0,0,0,0,0,0,0,0,0,0,0,0,0,0],"id":2,"left_children":[1,3,5,7,9,11,13,15,17,19,21,23,25,27,29,31,33,35,37,39,41,43,45,47,49,51,-1,53,55,57,59,-1,61,-1,-1,63,65,67,-1,69,71,73,75,77,79,81,83,85,87,89,91,93,95,97,99,101,103,105,107,109,111,-1,-1,-1,-1,-1,-1,-1,-1,-1,-1,-1,-1,-1,-1,-1,-1,-1,-1,-1,-1,-1,-1,-1,-1,-1,-1,-1,-1,-1,-1,-1,-1,-1,-1,-1,-1,-1,-1,-1,-1,-1,-1,-1,-1,-1,-1,-1,-1,-1,-1,-1,-1],"loss_changes":[9.1693085E1,1.7734222E1,2.4890491E1,3.69963E0,1.3930145E1,6.361534E0,5.8624353E0,2.2215111E0,2.9554436E0,6.3589935E0,7.8059235E0,5.6533012E0,6.434149E0,6.3102818E0,7.1891456E0,1.4340935E0,5.254092E-1,2.20474E0,2.0889642E0,5.846512E0,2.0544512E0,1.4887164E0,6.839081E0,1.9872513E0,3.6414356E0,4.730872E0,0E0,4.6455355E0,6.7018414E0,4.1466427E0,3.4626718E0,0E0,8.452013E-1,0E0,0E0,1.5676804E0,1.1930795E0,9.4763875E-1,0E0,4.183029E0,5.3759384E0,1.727807E0,1.20944E0,1.8701298E0,4.393592E-1,5.646392E0,7.2366486E0,1.3887234E0,1.8403664E0,2.9970646E0,2.912547E0,3.5399103E0,3.7200177E0,8.71526E0,4.5599484E0,4.411353E0,6.2117805E0,3.5980883E0,3.351772E0,2.0756751E-1,8.7912035E-1,0E0,0E0,0E0,0E0,0E0,0E0,0E0,0E0,0E0,0E0,0E0,0E0,0E0,0E0,0E0,0E0,0E0,0E0,0E0,0E0,0E0,0E0,0E0,0E0,0E0,0E0,0E0,0E0,0E0,0E0,0E0,0E0,0E0,0E0,0E0,0E0,0E0,0E0,0E0,0E0,0E0,0E0,0E0,0E0,0E0,0E0,0E0,0E0,0E0,0E0,0E0,0E0],"parents":[2147483647,0,0,1,1,2,2,3,3,4,4,5,5,6,6,7,7,8,8,9,9,10,10,11,11,12,12,13,13,14,14,15,15,16,16,17,17,18,18,19,19,20,20,21,21,22,22,23,23,24,24,25,25,27,27,28,28,29,29,30,30,32,32,35,35,36,36,37,37,39,39,40,40,41,41,42,42,43,43,44,44,45,45,46,46,47,47,48,48,49,49,50,50,51,51,52,52,53,53,54,54,55,55,56,56,57,57,58,58,59,59,60,60],"right_children":[2,4,6,8,10,12,14,16,18,20,22,24,26,28,30,32,34,36,38,40,42,44,46,48,50,52,-1,54,56,58,60,-1,62,-1,-1,64,66,68,-1,70,72,74,76,78,80,82,84,86,88,90,92,94,96,98,100,102,104,106,108,110,112,-1,-1,-1,-1,-1,-1,-1,-1,-1,-1,-1,-1,-1,-1,-1,-1,-1,-1,-1,-1,-1,-1,-1,-1,-1,-1,-1,-1,-1,-1,-1,-1,-1,-1,-1,-1,-1,-1,-1,-1,-1,-1,-1,-1,-1,-1,-1,-1,-1,-1,-1,-1],"split_conditions":[-1.5113401E-1,-4.311583E-1,1.2989649E-1,3.8342107E-2,1.8471776E-2,4.7421473E-1,6.3089865E-1,3.8870263E-1,3.581279E-2,9.72E-1,4.218246E-1,6.022311E-3,4.6647614E-1,3.0228332E-1,6.8638004E-2,-2.0154917E-1,2E0,4.5825756E-1,3.495808E-1,5.603675E-1,1.124E0,4.6766037E-1,2.2081907E-1,3.6993533E-1,1.2473037E0,4.7108264E0,3.735849E-2,6.5984096E-10,6.3463874E-2,7.229728E-1,-6.93306E-1,-1.4400001E-2,3.758643E-1,-2.011765E-2,-7.6634543E-10,3.9563957E-1,-1.428758E0,6.717266E-2,1.8E-2,-1.2285949E0,6.5110885E-2,1.3707124E-2,1E0,-2.869224E-1,-2.064282E0,-5.445954E-1,1.4190727E-2,8.658927E-2,6.54865E-1,9.036014E-1,-4.3493286E-1,-1.0080496E0,3.8747063E1,2.2438385E-1,3.6660606E-1,7.2272114E-2,-7.298632E-1,1.0696091E-2,3.0742923E-2,1.3460084E0,1.5661902E0,1.9459458E-2,-3.6000006E-3,2.4690265E-2,-3.6000006E-3,1.2857142E-2,-1.5517242E-2,3.1034474E-3,-1.8679246E-2,-1.2857144E-2,3.2902457E-2,2.6454948E-2,1.0316204E-2,-1.032787E-2,1.1886791E-2,3.1034474E-3,3.272727E-2,-1.2857144E-2,2.5714284E-2,-7.6634543E-10,-1.8947368E-2,3.103448E-2,-1.451613E-2,9.194498E-3,2.1409513E-2,5.5384603E-3,2.8536584E-2,3.6157202E-2,-7.6634543E-10,1.9180326E-2,-1.232878E-3,1.6363634E-2,-1.8367348E-2,3.2264147E-2,6.356876E-3,-1.5109491E-2,1.1803278E-2,2.5837307E-3,1.546112E-2,-3.1933393E-3,6.264854E-3,1.0942248E-2,-7.4522304E-3,-1.6363636E-2,2.6896551E-2,1.0843361E-3,-1.1900828E-2,4.0723852E-4,2.8536584E-2,-1.4400001E-2,-7.6634543E-10,2.5714286E-2,-7.6634543E-10],"split_indices":[0,77,167,227,162,0,154,208,197,144,221,165,179,77,162,1,67,211,226,157,144,155,154,208,3,228,0,75,225,155,2,0,1,0,0,1,1,163,0,63,225,172,7,1,15,0,175,1,1,158,9,148,151,112,211,90,119,165,160,0,4,0,0,0,0,0,0,0,0,0,0,0,0,0,0,0,0,0,0,0,0,0,0,0,0,0,0,0,0,0,0,0,0,0,0,0,0,0,0,0,0,0,0,0,0,0,0,0,0,0,0,0,0],"split_type":[0,0,0,0,0,0,0,0,0,0,0,0,0,0,0,0,0,0,0,0,0,0,0,0,0,0,0,0,0,0,0,0,0,0,0,0,0,0,0,0,0,0,0,0,0,0,0,0,0,0,0,0,0,0,0,0,0,0,0,0,0,0,0,0,0,0,0,0,0,0,0,0,0,0,0,0,0,0,0,0,0,0,0,0,0,0,0,0,0,0,0,0,0,0,0,0,0,0,0,0,0,0,0,0,0,0,0,0,0,0,0,0,0],"sum_hessian":[1.4964443E3,6.2488885E2,8.715555E2,4.222222E1,5.826666E2,1.6844443E2,7.031111E2,1.6444443E1,2.5777777E1,2.573333E2,3.253333E2,1.0977777E2,5.8666664E1,5.6799994E2,1.351111E2,6.666666E0,9.777777E0,1.6888887E1,8.888888E0,2.4177777E2,1.5555554E1,9.333333E0,3.1599997E2,3.5555553E1,7.422222E1,5.3777775E1,4.8888884E0,4.853333E2,8.2666664E1,1.1999999E2,1.5111111E1,1.7777777E0,4.8888884E0,8.444444E0,1.3333333E0,1.3333332E1,3.5555553E0,7.1111107E0,1.7777777E0,1.4044444E2,1.0133333E2,1.0666666E1,4.8888884E0,2.6666665E0,6.666666E0,1.1555555E1,3.0444443E2,9.777777E0,2.5777777E1,6.711111E1,7.1111107E0,3.3777775E1,1.9999998E1,2.6844443E2,2.1688887E2,5.1999996E1,3.0666664E1,9.2888885E1,2.7111109E1,3.111111E0,1.1999999E1,3.111111E0,1.7777777E0,1.1555555E1,1.7777777E0,1.3333333E0,2.222222E0,2.222222E0,4.8888884E0,1.3333333E0,1.391111E2,7.422222E1,2.7111109E1,5.7777777E0,4.8888884E0,2.222222E0,2.6666665E0,1.3333333E0,1.3333333E0,1.3333333E0,5.333333E0,2.222222E0,9.333333E0,5.5555553E1,2.4888887E2,6.222222E0,3.5555553E0,2.4444443E1,1.3333333E0,5.9999996E1,7.1111107E0,2.6666665E0,4.444444E0,4.8888884E0,2.8888887E1,1.4222221E1,5.7777777E0,2.0799998E2,6.0444443E1,1.5244444E2,6.444444E1,3.5555553E1,1.6444443E1,2.6666665E0,2.7999998E1,2.6666664E1,6.622222E1,2.3555553E1,3.5555553E0,1.7777777E0,1.3333333E0,1.0666666E1,1.3333333E0],"tree_param":{"num_deleted":"0","num_feature":"231","num_nodes":"113","size_leaf_vector":"1"}},{"base_weights":[-1.8593632E-1,-3.7192267E-1,-1.1399374E-1,5.9762776E-1,-3.827871E-1,-3.6892947E-2,-2.0732816E-1,-3.449355E-3,3.0665537E-2,-3.9519525E-1,4.7649434E-1,-6.325833E-2,3.5011715E-1,-5.0889447E-2,-2.9686552E-1,-4.0588602E-1,4.065771E-1,7.4780844E-2,2.891541E-2,1.1649208E-1,-1.1613188E-1,-1.0741277E-1,6.284764E-1,-1.0842011E-1,3.567831E-1,-3.7574682E-1,-1.0281528E-1,-4.373592E-1,-1.7832415E-1,-3.4057156E-3,6.58604E-1,1.2448541E-2,-1.2819724E-2,-4.0568417E-1,1.7903468E-1,-2.9582968E-1,-4.8970927E-2,-3.6996198E-1,2.4612898E-2,7.261972E-1,-6.4126705E-3,2.4036738E-1,-1.7291097E-1,-1.7495597E-2,5.6495553E-1,-2.9104856E-1,-5.785307E-1,-2.4640042E-1,3.3888745E-1,-1.5111365E-2,-9.481314E-3,-1.3499179E-2,3.2710107E-3,2.908694E-2,1.5836763E-4,7.2840805E-5,-1.7131027E-2,7.859384E-3,-8.070983E-3,-9.715385E-3,1.1744585E-2,-8.145155E-3,7.049571E-4,3.7679605E-3,-1.9699395E-2,2.430903E-2,-3.8143224E-3,1.6569331E-2,-1.2778554E-2,-1.1510332E-3,-1.0764033E-2,4.396711E-5,2.6213128E-2,7.796831E-3,-9.984787E-3,-1.8811826E-2,-5.700376E-3,1.924417E-2,-8.941346E-3,2.0196768E-2,-4.9723624E-3],"categories":[],"categories_nodes":[],"categories_segments":[],"categories_sizes":[],"default_left":[0,0,0,0,0,0,0,0,0,0,0,0,0,0,0,0,0,0,0,0,0,0,0,0,0,0,0,0,0,0,0,0,0,0,0,0,0,0,0,0,0,0,0,0,0,0,0,0,0,0,0,0,0,0,0,0,0,0,0,0,0,0,0,0,0,0,0,0,0,0,0,0,0,0,0,0,0,0,0,0,0],"id":3,"left_children":[1,3,5,7,9,11,13,-1,-1,15,17,19,21,23,25,27,29,31,-1,33,35,37,39,41,43,45,47,49,51,-1,53,-1,-1,55,57,59,61,63,-1,65,-1,67,69,-1,71,73,75,77,79,-1,-1,-1,-1,-1,-1,-1,-1,-1,-1,-1,-1,-1,-1,-1,-1,-1,-1,-1,-1,-1,-1,-1,-1,-1,-1,-1,-1,-1,-1,-1,-1],"loss_changes":[1.995615E1,4.615425E0,7.7582827E0,1.631823E0,4.585766E0,6.0647607E0,6.820051E0,0E0,0E0,3.6546402E0,1.1660627E0,5.2908955E0,4.8974156E0,4.2330165E0,4.7086983E0,2.803009E0,8.424455E-1,9.5460737E-1,0E0,4.210727E0,5.1698194E0,4.006132E0,2.1078587E0,3.5839837E0,4.702667E0,3.6124516E0,5.8556967E0,2.6798706E0,3.9960573E0,0E0,8.2620394E-1,0E0,0E0,9.3662524E-1,4.301692E0,2.3734083E0,5.068571E0,1.8634809E0,0E0,1.6450329E0,0E0,5.430272E0,3.3249059E0,0E0,3.2710495E0,3.7068062E0,1.0845909E0,3.3671994E0,3.9496748E0,0E0,0E0,0E0,0E0,0E0,0E0,0E0,0E0,0E0,0E0,0E0,0E0,0E0,0E0,0E0,0E0,0E0,0E0,0E0,0E0,0E0,0E0,0E0,0E0,0E0,0E0,0E0,0E0,0E0,0E0,0E0,0E0],"parents":[2147483647,0,0,1,1,2,2,3,3,4,4,5,5,6,6,9,9,10,10,11,11,12,12,13,13,14,14,15,15,16,16,17,17,19,19,20,20,21,21,22,22,23,23,24,24,25,25,26,26,27,27,28,28,30,30,33,33,34,34,35,35,36,36,37,37,39,39,41,41,42,42,44,44,45,45,46,46,47,47,48,48],"right_children":[2,4,6,8,10,12,14,-1,-1,16,18,20,22,24,26,28,30,32,-1,34,36,38,40,42,44,46,48,50,52,-1,54,-1,-1,56,58,60,62,64,-1,66,-1,68,70,-1,72,74,76,78,80,-1,-1,-1,-1,-1,-1,-1,-1,-1,-1,-1,-1,-1,-1,-1,-1,-1,-1,-1,-1,-1,-1,-1,-1,-1,-1,-1,-1,-1,-1,-1,-1],"split_conditions":[1.07506625E-1,-1.8288085E0,2.0712315E-1,1.8942939E-1,8.85986E-1,6.3433254E-1,3.3420625E-1,-3.449355E-3,3.0665537E-2,2E0,1.9344172E-1,2E-2,1.3295522E-1,4.8538643E-1,6.2115878E-2,3.8409173E-2,3E-1,2.8033033E-2,2.891541E-2,4.128942E-3,-1.6310844E-1,2.033863E-1,3.5461705E-2,-2.5905454E0,5.7359893E-2,5.2E-1,2.6781186E-1,2.4789934E-1,5.4963446E0,-3.4057156E-3,5.52E-1,1.2448541E-2,-1.2819724E-2,-6.8682075E-1,4.1850808E-1,1.1811137E0,-3.4237573E-1,-2.8774935E-1,2.4612898E-2,1.6130166E-1,-6.4126705E-3,4.9839744E-1,4.9638695E-1,-1.7495597E-2,-3.3043426E-1,-1.5E0,6.370387E-1,4E-2,1.0412833E-2,-1.5111365E-2,-9.481314E-3,-1.3499179E-2,3.2710107E-3,2.908694E-2,1.5836763E-4,7.2840805E-5,-1.7131027E-2,7.859384E-3,-8.070983E-3,-9.715385E-3,1.1744585E-2,-8.145155E-3,7.049571E-4,3.7679605E-3,-1.9699395E-2,2.430903E-2,-3.8143224E-3,1.6569331E-2,-1.2778554E-2,-1.1510332E-3,-1.0764033E-2,4.396711E-5,2.6213128E-2,7.796831E-3,-9.984787E-3,-1.8811826E-2,-5.700376E-3,1.924417E-2,-8.941346E-3,2.0196768E-2,-4.9723624E-3],"split_indices":[167,54,223,77,119,106,154,0,0,69,1,113,90,191,165,163,125,216,0,171,78,3,77,74,229,125,54,1,170,0,129,0,0,63,94,1,1,71,0,80,0,203,168,0,1,130,1,135,160,0,0,0,0,0,0,0,0,0,0,0,0,0,0,0,0,0,0,0,0,0,0,0,0,0,0,0,0,0,0,0,0],"split_type":[0,0,0,0,0,0,0,0,0,0,0,0,0,0,0,0,0,0,0,0,0,0,0,0,0,0,0,0,0,0,0,0,0,0,0,0,0,0,0,0,0,0,0,0,0,0,0,0,0,0,0,0,0,0,0,0,0,0,0,0,0,0,0,0,0,0,0,0,0,0,0,0,0,0,0,0,0,0,0,0,0],"sum_hessian":[1.4936217E3,4.1544394E2,1.0781777E3,4.0052376E0,4.114387E2,5.912001E2,4.8697763E2,1.7675822E0,2.2376552E0,4.0611444E2,5.3242626E0,5.542761E2,3.6923973E1,1.7783488E2,3.0914273E2,4.0125784E2,4.8565874E0,3.5508351E0,1.7734277E0,1.2570901E2,4.285671E2,1.419925E1,2.2724722E1,1.564857E2,2.1349178E1,2.1913017E2,9.001258E1,3.5169446E2,4.9563396E1,1.7645959E0,3.0919914E0,2.2202303E0,1.3306048E0,1.2859215E1,1.1284979E2,1.15670616E2,3.1289648E2,1.15361595E1,2.6630902E0,2.0485626E1,2.2390943E0,2.3993567E1,1.3249214E2,3.5442448E0,1.7804934E1,1.5628764E2,6.284252E1,6.826402E1,2.1748554E1,2.2531E2,1.2638445E2,2.5187222E1,2.4376175E1,1.766941E0,1.3250505E0,3.9918828E0,8.867332E0,9.557295E1,1.727684E1,1.11648415E2,4.0222015E0,7.619027E1,2.3670622E2,4.4338074E0,7.1023526E0,1.869365E1,1.7919767E0,1.6459156E1,7.53441E0,7.756134E1,5.4930798E1,6.659043E0,1.114589E1,1.0647875E1,1.4563977E2,5.5318645E1,7.523879E0,3.1246157E0,6.5139404E1,1.2880592E1,8.867963E0],"tree_param":{"num_deleted":"0","num_feature":"231","num_nodes":"81","size_leaf_vector":"1"}},{"base_weights":[-1.7297359E-1,1.9016549E-1,-1.894944E-1,-1.953881E-1,5.4293144E-1,-2.1391362E-1,9.7155005E-2,5.0293547E-1,-3.0070877E-1,1.1801611E0,3.1770197E-1,-2.25474E-1,3.8386157E-1,3.279285E-1,-2.0700277E-1,-3.664428E-3,2.835891E-2,-4.0314108E-1,4.0424162E-1,1.24170175E-2,3.7960596E-2,4.5635387E-1,-1.6929245E-2,-2.1166976E-1,-5.98414E-1,7.2542924E-1,-1.8797053E-1,4.256297E-1,-3.2733393E-1,2.4068879E-2,-2.8239962E-1,-1.2261154E-1,-5.708912E-1,-3.5729043E-3,2.5582885E-2,7.756572E-1,3.0082624E-2,-2.4718082E-1,-4.4012547E-2,-1.4057232E-1,-6.335137E-1,1.0153767E0,-1.6243313E-2,-1.9068524E-2,5.186394E-1,5.960911E-1,2.1492235E-2,2.787661E-1,-1.8809272E-2,-3.7546393E-1,2.0683713E-1,-1.6966743E-2,3.911454E-3,-2.2900042E-3,-2.0617552E-2,2.9125798E-2,-2.767424E-4,8.163867E-3,-1.6320845E-2,-8.8875955E-3,-4.3185386E-3,2.229595E-2,-2.7389936E-3,1.2939289E-2,-1.5370681E-2,-1.963381E-2,2.2389066E-4,3.5567187E-2,3.1705513E-3,-1.2791348E-2,3.1265657E-2,-2.8064335E-3,2.1800602E-2,-1.102957E-2,1.3373313E-2,2.5768198E-2,-1.2710883E-2,1.22794425E-2,-1.2998618E-2,2.394954E-2,-1.6958605E-2],"categories":[],"categories_nodes":[],"categories_segments":[],"categories_sizes":[],"default_left":[0,0,0,0,0,0,0,0,0,0,0,0,0,0,0,0,0,0,0,0,0,0,0,0,0,0,0,0,0,0,0,0,0,0,0,0,0,0,0,0,0,0,0,0,0,0,0,0,0,0,0,0,0,0,0,0,0,0,0,0,0,0,0,0,0,0,0,0,0,0,0,0,0,0,0,0,0,0,0,0,0],"id":4,"left_children":[1,3,5,7,9,11,13,15,17,19,21,23,25,27,29,-1,-1,31,33,-1,-1,35,-1,37,39,41,43,45,47,-1,49,51,53,-1,-1,55,57,59,61,63,65,67,-1,-1,69,71,73,75,-1,77,79,-1,-1,-1,-1,-1,-1,-1,-1,-1,-1,-1,-1,-1,-1,-1,-1,-1,-1,-1,-1,-1,-1,-1,-1,-1,-1,-1,-1,-1,-1],"loss_changes":[9.007145E0,9.024099E0,1.003587E1,2.5094647E0,4.5773077E0,9.199932E0,7.999893E0,1.3808627E0,2.220045E0,4.044628E-2,3.5425897E0,6.53701E0,5.0954967E0,4.277627E0,3.983094E0,0E0,0E0,1.1240759E0,1.0671225E0,0E0,0E0,3.211474E0,0E0,7.429611E0,6.446037E-1,6.4641285E0,3.5841281E0,3.8924208E0,1.8007207E0,0E0,2.2026906E0,1.2805065E0,8.4557915E-1,0E0,0E0,2.0845995E0,1.7069917E0,5.1805E0,8.244415E0,1.1853961E0,5.703697E-1,1.9571352E0,0E0,0E0,2.69104E0,3.6555386E0,3.111827E0,1.8531284E0,0E0,1.9729171E0,4.1523943E0,0E0,0E0,0E0,0E0,0E0,0E0,0E0,0E0,0E0,0E0,0E0,0E0,0E0,0E0,0E0,0E0,0E0,0E0,0E0,0E0,0E0,0E0,0E0,0E0,0E0,0E0,0E0,0E0,0E0,0E0],"parents":[2147483647,0,0,1,1,2,2,3,3,4,4,5,5,6,6,7,7,8,8,9,9,10,10,11,11,12,12,13,13,14,14,17,17,18,18,21,21,23,23,24,24,25,25,26,26,27,27,28,28,30,30,31,31,32,32,35,35,36,36,37,37,38,38,39,39,40,40,41,41,44,44,45,45,46,46,47,47,49,49,50,50],"right_children":[2,4,6,8,10,12,14,16,18,20,22,24,26,28,30,-1,-1,32,34,-1,-1,36,-1,38,40,42,44,46,48,-1,50,52,54,-1,-1,56,58,60,62,64,66,68,-1,-1,70,72,74,76,-1,78,80,-1,-1,-1,-1,-1,-1,-1,-1,-1,-1,-1,-1,-1,-1,-1,-1,-1,-1,-1,-1,-1,-1,-1,-1,-1,-1,-1,-1,-1,-1],"split_conditions":[-1.9982471E0,-1.9790242E0,6E-2,-1.0443571E0,-5.9122926E-1,1E0,2.9440594E0,-1.0701642E0,4.9959984E-1,-7.290649E-1,1.1961335E-1,-6E-2,1.2193457E-1,1E0,-1.6714472E-1,-3.664428E-3,2.835891E-2,6.5946645E-1,4.8819822E-1,1.24170175E-2,3.7960596E-2,-4.6815777E-1,-1.6929245E-2,2.4677925E-1,-1.3109492E0,2.4932551E0,7.623228E-1,6.053419E-1,1.7700468E-1,2.4068879E-2,1E0,-1.0077901E0,4.2287442E-1,-3.5729043E-3,2.5582885E-2,-4.5985568E-1,3.238613E-2,-4.3771506E-4,-7.8154004E-1,-4.69556E-1,1.3878707E0,6E-1,-1.6243313E-2,-1.9068524E-2,-5.981264E-1,4.4E-2,4.2131446E-2,8.2471603E-1,-1.8809272E-2,-1.2034562E0,2.84E-1,-1.6966743E-2,3.911454E-3,-2.2900042E-3,-2.0617552E-2,2.9125798E-2,-2.767424E-4,8.163867E-3,-1.6320845E-2,-8.8875955E-3,-4.3185386E-3,2.229595E-2,-2.7389936E-3,1.2939289E-2,-1.5370681E-2,-1.963381E-2,2.2389066E-4,3.5567187E-2,3.1705513E-3,-1.2791348E-2,3.1265657E-2,-2.8064335E-3,2.1800602E-2,-1.102957E-2,1.3373313E-2,2.5768198E-2,-1.2710883E-2,1.22794425E-2,-1.2998618E-2,2.394954E-2,-1.6958605E-2],"split_indices":[3,54,103,66,73,26,170,64,203,40,172,132,77,58,78,0,0,221,154,0,0,11,0,223,1,92,221,1,54,0,57,65,4,0,0,54,189,73,4,3,3,126,0,0,73,144,172,3,0,2,144,0,0,0,0,0,0,0,0,0,0,0,0,0,0,0,0,0,0,0,0,0,0,0,0,0,0,0,0,0,0],"split_type":[0,0,0,0,0,0,0,0,0,0,0,0,0,0,0,0,0,0,0,0,0,0,0,0,0,0,0,0,0,0,0,0,0,0,0,0,0,0,0,0,0,0,0,0,0,0,0,0,0,0,0,0,0,0,0,0,0,0,0,0,0,0,0,0,0,0,0,0,0,0,0,0,0,0,0,0,0,0,0,0,0],"sum_hessian":[1.4943458E3,6.456875E1,1.429777E3,3.1063831E1,3.3504917E1,1.3177719E3,1.1200521E2,3.57627E0,2.7487562E1,7.6425214E0,2.5862394E1,1.293382E3,2.4389894E1,6.3640858E1,4.8364353E1,1.7820299E0,1.7942401E0,2.4374037E1,3.1135242E0,1.3508384E0,6.291683E0,2.2766155E1,3.096239E0,1.2487283E3,4.465367E1,1.5101085E1,9.28881E0,5.5688076E1,7.952782E0,2.69165E0,4.5672703E1,9.768701E0,1.4605337E1,1.77588E0,1.3376442E0,1.2547601E1,1.02185545E1,1.030076E3,2.1865225E2,3.5359244E0,4.111775E1,1.2450153E1,2.650932E0,5.7479033E0,3.540906E0,3.88335E1,1.6854574E1,2.6540256E0,5.2987566E0,3.8568604E1,7.104102E0,3.1020656E0,6.6666346E0,3.097269E0,1.1508068E1,9.858747E0,2.6888537E0,7.5580606E0,2.6604939E0,6.969134E2,3.3316257E2,1.15561075E1,2.0709615E2,1.3299978E0,2.2059267E0,3.9796204E1,1.3215433E0,1.023247E1,2.217683E0,1.3285125E0,2.2123933E0,6.22814E0,3.2605362E1,8.86097E0,7.9936056E0,1.3315351E0,1.3224905E0,2.2296119E0,3.633899E1,4.0033984E0,3.1007035E0],"tree_param":{"num_deleted":"0","num_feature":"231","num_nodes":"81","size_leaf_vector":"1"}},{"base_weights":[3.7667987E-1,6.09238E-1,1.5378018E-1,3.4078842E-1,7.241153E-1,9.287066E-2,3.5309264E-1,1.655412E-1,6.2213457E-1,7.481483E-1,-2.9648077E-1,1.3546622E-1,-1.6362146E-1,4.745217E-1,-9.556039E-2,2.4117652E-1,-4.062645E-1,9.4429815E-1,3.411315E-1,-1.5208913E-1,7.639017E-1,-5.7567686E-1,5.3539246E-1,1.6627213E-1,-2.6664537E-1,1.930657E-1,-3.0014643E-1,-1.0842464E-1,5.5624944E-1,4.2379105E-1,-2.6306987E-1,4.620678E-1,4.8674844E-2,1.5362431E-1,-2.0577788E-2,1.0259612E0,-1.4593926E-2,4.477517E-2,8.549178E-1,2.894259E-1,-1.813805E-2,7.254201E-1,1.1495878E0,-1.1961216E-4,-1.9934846E-2,-2.251203E-4,2.5519365E-2,1.1937589E-3,2.2461396E-1,5.336621E-1,-3.4576365E-1,7.0983905E-1,-3.0542108E-1,-3.5045406E-1,2.1678368E-2,-4.0730137E-1,6.733369E-1,1.0495666E0,4.2989308E-1,-2.8146586E-1,7.2369975E-1,-3.6618978E-1,2.1347795E-2,1.8200973E-2,-6.5403515E-3,1.1043668E-2,-7.012734E-3,-6.0711303E-3,2.5494816E-2,3.2637946E-2,-3.892541E-3,9.261699E-3,-7.3840213E-3,3.5718855E-2,1.2740234E-2,-6.5041175E-3,2.1189872E-2,4.2171227E-3,2.2233462E-2,3.7474148E-2,-2.7879619E-3,-3.1518815E-3,1.1757362E-2,1.04170395E-2,2.8730691E-3,2.5459852E-2,-2.4721026E-4,1.7960325E-2,-1.2499674E-2,3.361577E-2,4.704932E-3,-1.8647641E-2,-1.1375125E-3,3.5429616E-3,-1.3497868E-2,-1.7601682E-2,4.8401216E-3,3.1268015E-3,3.098942E-2,2.788844E-3,3.4220383E-2,1.652714E-2,-3.8461543E-3,-2.5307623E-4,-1.3036255E-2,3.0787425E-2,-3.8464477E-3,-8.8363065E-4,-1.6326409E-2],"categories":[],"categories_nodes":[],"categories_segments":[],"categories_sizes":[],"default_left":[0,0,0,0,0,0,0,0,0,0,0,0,0,0,0,0,0,0,0,0,0,0,0,0,0,0,0,0,0,0,0,0,0,0,0,0,0,0,0,0,0,0,0,0,0,0,0,0,0,0,0,0,0,0,0,0,0,0,0,0,0,0,0,0,0,0,0,0,0,0,0,0,0,0,0,0,0,0,0,0,0,0,0,0,0,0,0,0,0,0,0,0,0,0,0,0,0,0,0,0,0,0,0,0,0,0,0,0,0],"id":5,"left_children":[1,3,5,7,9,11,13,15,17,19,21,23,25,27,29,31,33,35,37,39,41,43,45,47,49,51,53,55,57,59,61,63,65,67,-1,69,-1,71,73,75,-1,77,79,-1,-1,-1,-1,81,83,85,87,89,91,93,-1,95,97,99,101,103,105,107,-1,-1,-1,-1,-1,-1,-1,-1,-1,-1,-1,-1,-1,-1,-1,-1,-1,-1,-1,-1,-1,-1,-1,-1,-1,-1,-1,-1,-1,-1,-1,-1,-1,-1,-1,-1,-1,-1,-1,-1,-1,-1,-1,-1,-1,-1,-1],"loss_changes":[7.820915E1,2.254071E1,9.346975E0,1.0908487E1,1.2892731E1,6.5024786E0,9.878412E0,6.1085644E0,7.40506E0,7.277832E0,3.2348652E0,6.3521748E0,4.193613E0,6.835781E0,3.5284815E0,5.223403E0,2.705862E0,5.0792427E0,7.141865E0,2.0767744E0,6.534607E0,5.008693E-1,6.369983E-1,4.5609074E0,2.5032053E0,6.4294558E0,3.4335256E0,4.5555058E0,7.333683E0,2.310758E0,3.3075147E0,5.7713547E0,6.134422E0,1.7456274E0,0E0,2.8201103E0,0E0,2.4533422E0,1.977932E0,1.3126905E0,0E0,4.0645447E0,5.47583E0,0E0,0E0,0E0,0E0,5.2172384E0,5.49514E0,6.364702E-1,2.5212727E0,2.5819058E0,1.0737929E0,2.8303757E0,0E0,1.5106447E0,1.0067348E0,2.053093E0,6.899765E0,1.5065053E-1,2.005281E0,1.6669998E0,0E0,0E0,0E0,0E0,0E0,0E0,0E0,0E0,0E0,0E0,0E0,0E0,0E0,0E0,0E0,0E0,0E0,0E0,0E0,0E0,0E0,0E0,0E0,0E0,0E0,0E0,0E0,0E0,0E0,0E0,0E0,0E0,0E0,0E0,0E0,0E0,0E0,0E0,0E0,0E0,0E0,0E0,0E0,0E0,0E0,0E0,0E0],"parents":[2147483647,0,0,1,1,2,2,3,3,4,4,5,5,6,6,7,7,8,8,9,9,10,10,11,11,12,12,13,13,14,14,15,15,16,16,17,17,18,18,19,19,20,20,21,21,22,22,23,23,24,24,25,25,26,26,27,27,28,28,29,29,30,30,31,31,32,32,33,33,35,35,37,37,38,38,39,39,41,41,42,42,47,47,48,48,49,49,50,50,51,51,52,52,53,53,55,55,56,56,57,57,58,58,59,59,60,60,61,61],"right_children":[2,4,6,8,10,12,14,16,18,20,22,24,26,28,30,32,34,36,38,40,42,44,46,48,50,52,54,56,58,60,62,64,66,68,-1,70,-1,72,74,76,-1,78,80,-1,-1,-1,-1,82,84,86,88,90,92,94,-1,96,98,100,102,104,106,108,-1,-1,-1,-1,-1,-1,-1,-1,-1,-1,-1,-1,-1,-1,-1,-1,-1,-1,-1,-1,-1,-1,-1,-1,-1,-1,-1,-1,-1,-1,-1,-1,-1,-1,-1,-1,-1,-1,-1,-1,-1,-1,-1,-1,-1,-1,-1],"split_conditions":[1.2217622E-2,-1.205454E-1,4.54964E-1,3.8190612E-1,1.0790626E-1,6.3089865E-1,1.4095716E-1,7.3E-1,-6E0,-1.94E0,6.68583E-1,5.789769E-1,4.7103293E-2,-7.9096794E-1,5.730763E-1,-4E-1,3.2665282E-2,4.8327826E-2,5E-2,1.238787E0,9.434794E1,2.1350409E-1,7.135641E-3,6.535564E-1,-1.4863334E0,8.64667E-1,1E0,7.20728E-1,4.27321E-1,4.27321E-1,7.041255E1,3.8741395E-2,-2.3495376E-1,-4.3222934E-2,-2.0577788E-2,5.730763E-1,-1.4593926E-2,2.0136353E-2,3.6055514E-1,-7.705468E-1,-1.813805E-2,-1.2378753E0,6.4E-1,-1.1961216E-4,-1.9934846E-2,-2.251203E-4,2.5519365E-2,8.084177E-2,-8.706048E-2,7.939874E-1,-9.234631E0,3.574064E-1,8E-1,-1E0,2.1678368E-2,5.3109687E-2,-1.2962996E0,1.8388448E-2,4.5767687E-2,1.4726794E-1,7.109349E-1,5.810908E-1,2.1347795E-2,1.8200973E-2,-6.5403515E-3,1.1043668E-2,-7.012734E-3,-6.0711303E-3,2.5494816E-2,3.2637946E-2,-3.892541E-3,9.261699E-3,-7.3840213E-3,3.5718855E-2,1.2740234E-2,-6.5041175E-3,2.1189872E-2,4.2171227E-3,2.2233462E-2,3.7474148E-2,-2.7879619E-3,-3.1518815E-3,1.1757362E-2,1.04170395E-2,2.8730691E-3,2.5459852E-2,-2.4721026E-4,1.7960325E-2,-1.2499674E-2,3.361577E-2,4.704932E-3,-1.8647641E-2,-1.1375125E-3,3.5429616E-3,-1.3497868E-2,-1.7601682E-2,4.8401216E-3,3.1268015E-3,3.098942E-2,2.788844E-3,3.4220383E-2,1.652714E-2,-3.8461543E-3,-2.5307623E-4,-1.3036255E-2,3.0787425E-2,-3.8464477E-3,-8.8363065E-4,-1.6326409E-2],"split_indices":[0,77,77,154,165,154,90,146,87,130,13,226,218,54,154,52,171,198,146,169,151,206,1,221,1,93,23,154,154,154,75,182,1,0,0,154,0,165,168,4,0,1,130,0,0,0,0,171,148,221,16,4,67,130,0,90,1,175,186,54,13,77,0,0,0,0,0,0,0,0,0,0,0,0,0,0,0,0,0,0,0,0,0,0,0,0,0,0,0,0,0,0,0,0,0,0,0,0,0,0,0,0,0,0,0,0,0,0,0],"split_type":[0,0,0,0,0,0,0,0,0,0,0,0,0,0,0,0,0,0,0,0,0,0,0,0,0,0,0,0,0,0,0,0,0,0,0,0,0,0,0,0,0,0,0,0,0,0,0,0,0,0,0,0,0,0,0,0,0,0,0,0,0,0,0,0,0,0,0,0,0,0,0,0,0,0,0,0,0,0,0,0,0,0,0,0,0,0,0,0,0,0,0,0,0,0,0,0,0,0,0,0,0,0,0,0,0,0,0,0,0],"sum_hessian":[1.509555E3,7.379234E2,7.7163165E2,2.2233319E2,5.155902E2,5.9214056E2,1.7949112E2,1.3797719E2,8.4355995E1,5.039892E2,1.1600987E1,5.0821353E2,8.392701E1,1.4121364E2,3.8277477E1,1.223691E2,1.5608091E1,3.820005E1,4.6155945E1,8.518877E0,4.9547034E2,8.916408E0,2.6845794E0,4.7259442E2,3.561912E1,2.3117014E1,6.0809994E1,1.7323341E1,1.238903E2,8.96187E0,2.9315609E1,5.633064E1,6.603846E1,5.3493195E0,1.0258772E1,3.6405098E1,1.7949517E0,2.996121E1,1.6194735E1,4.494252E0,4.024625E0,4.5313947E2,4.233088E1,1.3394885E0,7.5769196E0,1.3448367E0,1.3397427E0,1.2367529E2,3.4891913E2,2.6876404E0,3.293148E1,1.1142143E1,1.1974871E1,5.858562E1,2.2243755E0,1.2878668E1,4.4446726E0,2.377238E1,1.0011791E2,2.6922781E0,6.2695923E0,2.7075315E1,2.2402935E0,4.654079E1,9.789846E0,3.0846224E1,3.5192238E1,4.008792E0,1.3405277E0,3.4608032E1,1.7970655E0,1.5676422E1,1.4284789E1,8.104E0,8.0907345E0,2.2464447E0,2.2478075E0,1.2103059E1,4.4103638E2,3.9185978E1,3.1448987E0,9.780749E1,2.58678E1,1.7790932E2,1.7100981E2,1.3416694E0,1.3459711E0,1.7795119E0,3.1151968E1,5.804926E0,5.337217E0,4.881589E0,7.0932813E0,1.022692E1,4.83587E1,9.765559E0,3.1131084E0,2.2205763E0,2.224096E0,2.2430108E0,2.1529371E1,8.2288345E1,1.782957E1,1.346226E0,1.3460522E0,4.475524E0,1.794068E0,9.766761E0,1.7308554E1],"tree_param":{"num_deleted":"0","num_feature":"231","num_nodes":"109","size_leaf_vector":"1"}},{"base_weights":[-1.9660296E-1,-3.17328E-1,-8.530724E-2,6.442837E-2,-3.5193878E-1,-3.0438924E-1,-4.039535E-2,-5.8962956E-2,4.4399598E-1,4.7714904E-1,-3.5949567E-1,-3.4315696E-1,3.2651213E-1,6.03463E-3,-2.293791E-1,-2.742275E-1,1.8424423E-1,3.1694535E-2,3.210329E-2,2.6812728E-2,-6.1113057E-3,-4.1332814E-1,-2.3590101E-1,2.528817E-2,-3.6301166E-1,-1.11762464E-1,3.0659897E-2,-2.624721E-2,3.792207E-1,-3.126673E-1,8.7265626E-2,-4.3840906E-1,1.8987274E-1,4.248181E-1,-1.6249357E-1,2.5312658E-2,-1.9435132E-1,-4.3861526E-1,-3.4822986E-2,-4.19326E-1,-2.842555E-3,-4.2242804E-1,7.414437E-2,-1.43233435E-2,1.6183802E-1,-1.405163E-1,9.893144E-2,8.923026E-2,6.501753E-1,-9.906883E-2,-4.6216378E-1,-2.6153925E-1,4.184378E-1,-1.5905345E-2,1.3046905E-2,2.5504256E-2,-3.1877616E-3,1.6625866E-2,-1.2841045E-2,2.5556935E-2,-1.266885E-2,-1.3567421E-2,8.176149E-3,-1.3377488E-2,1.2439867E-2,-5.018245E-3,1.4066919E-2,-1.3483362E-2,2.203555E-2,-1.2719216E-2,3.8407193E-3,2.3969735E-3,-1.3756217E-2,1.3194199E-2,-1.8392771E-2,1.2942476E-2,-3.6637895E-3,-5.16568E-3,8.018369E-3,1.66128E-2,8.636224E-4,1.7562909E-2,-4.81556E-3,2.9700393E-2,7.0768944E-3,-5.230697E-3,1.9533524E-2,3.0725887E-3,-1.575779E-2,-1.11022E-2,1.3097502E-2,4.0650895E-5,2.8312244E-2],"categories":[],"categories_nodes":[],"categories_segments":[],"categories_sizes":[],"default_left":[0,0,0,0,0,0,0,0,0,0,0,0,0,0,0,0,0,0,0,0,0,0,0,0,0,0,0,0,0,0,0,0,0,0,0,0,0,0,0,0,0,0,0,0,0,0,0,0,0,0,0,0,0,0,0,0,0,0,0,0,0,0,0,0,0,0,0,0,0,0,0,0,0,0,0,0,0,0,0,0,0,0,0,0,0,0,0,0,0,0,0,0,0],"id":6,"left_children":[1,3,5,7,9,11,13,15,17,19,21,23,25,27,29,31,33,-1,35,-1,-1,37,39,-1,41,43,-1,45,47,49,51,53,55,57,59,-1,61,63,65,67,69,71,73,-1,75,77,79,81,83,85,87,89,91,-1,-1,-1,-1,-1,-1,-1,-1,-1,-1,-1,-1,-1,-1,-1,-1,-1,-1,-1,-1,-1,-1,-1,-1,-1,-1,-1,-1,-1,-1,-1,-1,-1,-1,-1,-1,-1,-1,-1,-1],"loss_changes":[1.9906963E1,9.420853E0,7.5966864E0,2.834972E0,4.258522E0,3.3260937E0,5.6426167E0,2.4662123E0,3.7074206E0,1.9752191E0,4.207222E0,3.2329235E0,2.5892212E0,6.2393575E0,3.372015E0,1.9789189E0,1.9261041E0,0E0,1.9833392E0,0E0,0E0,4.2857285E0,8.490085E0,0E0,3.2246075E0,6.6580075E-1,0E0,6.834828E0,3.181851E0,3.1675959E0,3.250718E0,1.7276087E0,1.4979415E0,1.7179999E0,2.9536698E0,0E0,1.1529863E0,2.8084946E0,2.0284398E0,4.1927643E0,4.930983E0,2.0026798E0,4.1800447E0,0E0,3.6743623E-1,3.2712092E0,7.2628508E0,2.7058291E0,2.7451248E0,2.525533E0,2.1529036E0,1.2117183E0,3.1392593E0,0E0,0E0,0E0,0E0,0E0,0E0,0E0,0E0,0E0,0E0,0E0,0E0,0E0,0E0,0E0,0E0,0E0,0E0,0E0,0E0,0E0,0E0,0E0,0E0,0E0,0E0,0E0,0E0,0E0,0E0,0E0,0E0,0E0,0E0,0E0,0E0,0E0,0E0,0E0,0E0],"parents":[2147483647,0,0,1,1,2,2,3,3,4,4,5,5,6,6,7,7,8,8,9,9,10,10,11,11,12,12,13,13,14,14,15,15,16,16,18,18,21,21,22,22,24,24,25,25,27,27,28,28,29,29,30,30,31,31,32,32,33,33,34,34,36,36,37,37,38,38,39,39,40,40,41,41,42,42,44,44,45,45,46,46,47,47,48,48,49,49,50,50,51,51,52,52],"right_children":[2,4,6,8,10,12,14,16,18,20,22,24,26,28,30,32,34,-1,36,-1,-1,38,40,-1,42,44,-1,46,48,50,52,54,56,58,60,-1,62,64,66,68,70,72,74,-1,76,78,80,82,84,86,88,90,92,-1,-1,-1,-1,-1,-1,-1,-1,-1,-1,-1,-1,-1,-1,-1,-1,-1,-1,-1,-1,-1,-1,-1,-1,-1,-1,-1,-1,-1,-1,-1,-1,-1,-1,-1,-1,-1,-1,-1,-1],"split_conditions":[-7.2900727E-3,-4.311583E-1,1.3140178E-1,3.9563957E-1,-5.36E-1,4.9638695E-1,7.896512E-1,4E-1,1.529646E-2,-1.7383224E-1,3.9583015E-1,2.6685696E-2,-5.641552E-1,3.9262655E-1,8.094807E-1,3.671499E-2,1E0,3.1694535E-2,-3.4052227E0,2.6812728E-2,-6.1113057E-3,8E-1,2.7700257E-2,2.528817E-2,1.2473037E0,1E0,3.0659897E-2,-8.2917206E-2,3.061455E-2,4.5825756E-1,5.3961664E-2,4.9839744E-1,4.3318417E-2,4.9959984E-1,-5.6E-1,2.5312658E-2,-2.1863468E-1,2.4E0,4.2708313E-1,7.923144E-1,5.687791E-3,-8.432989E-1,7.2322476E-1,-1.43233435E-2,-1.20402575E-1,4.5825756E-1,8.464398E-3,1.6142825E-2,4.0078333E-1,4.8989794E-1,2.0880613E-1,1E0,-1.9965403E-1,-1.5905345E-2,1.3046905E-2,2.5504256E-2,-3.1877616E-3,1.6625866E-2,-1.2841045E-2,2.5556935E-2,-1.266885E-2,-1.3567421E-2,8.176149E-3,-1.3377488E-2,1.2439867E-2,-5.018245E-3,1.4066919E-2,-1.3483362E-2,2.203555E-2,-1.2719216E-2,3.8407193E-3,2.3969735E-3,-1.3756217E-2,1.3194199E-2,-1.8392771E-2,1.2942476E-2,-3.6637895E-3,-5.16568E-3,8.018369E-3,1.66128E-2,8.636224E-4,1.7562909E-2,-4.81556E-3,2.9700393E-2,7.0768944E-3,-5.230697E-3,1.9533524E-2,3.0725887E-3,-1.575779E-2,-1.11022E-2,1.3097502E-2,4.0650895E-5,2.8312244E-2],"split_indices":[0,77,167,1,129,191,155,126,197,77,98,217,4,167,158,186,48,0,74,0,0,126,163,0,3,49,0,3,194,168,172,209,183,166,89,0,0,67,161,54,183,54,0,0,1,211,183,197,154,209,206,57,131,0,0,0,0,0,0,0,0,0,0,0,0,0,0,0,0,0,0,0,0,0,0,0,0,0,0,0,0,0,0,0,0,0,0,0,0,0,0,0,0],"split_type":[0,0,0,0,0,0,0,0,0,0,0,0,0,0,0,0,0,0,0,0,0,0,0,0,0,0,0,0,0,0,0,0,0,0,0,0,0,0,0,0,0,0,0,0,0,0,0,0,0,0,0,0,0,0,0,0,0,0,0,0,0,0,0,0,0,0,0,0,0,0,0,0,0,0,0,0,0,0,0,0,0,0,0,0,0,0,0,0,0,0,0,0,0],"sum_hessian":[1.4826084E3,7.1028955E2,7.7231885E2,5.8971638E1,6.5131793E2,1.3040764E2,6.419112E2,4.5141514E1,1.3830123E1,5.3216643E0,6.459962E2,1.232879E2,7.119729E0,5.16086E2,1.2582517E2,2.3878725E1,2.1262789E1,4.9316936E0,8.898429E0,3.1075222E0,2.2141418E0,4.4836404E2,1.976322E2,1.3472838E0,1.2194062E2,4.8823276E0,2.2374015E0,4.758528E2,4.023319E1,9.963135E1,2.6193827E1,1.7679667E1,6.199058E0,1.2420207E1,8.842582E0,1.3464797E0,7.551949E0,4.2013675E2,2.822727E1,1.1014505E2,8.748715E1,1.07379715E2,1.4560906E1,1.7706761E0,3.1116514E0,2.487026E2,2.271502E2,2.0076035E1,2.0157156E1,4.1705624E1,5.7925724E1,1.2859697E1,1.3334129E1,1.635405E1,1.325617E0,1.3401558E0,4.8589025E0,1.1088302E1,1.331905E0,1.338274E0,7.5043077E0,4.884988E0,2.6669614E0,4.1704575E2,3.0910118E0,2.2879177E1,5.348094E0,1.0793797E2,2.2070823E0,2.0210285E1,6.727687E1,7.1205115E0,1.002592E2,9.739035E0,4.8218713E0,1.3298832E0,1.7817681E0,2.3131442E2,1.7388193E1,2.9429375E1,1.9772084E2,6.27159E0,1.3804443E1,1.0310006E1,9.847149E0,3.859942E1,3.1062055E0,5.7601905E0,5.2165535E1,1.1536129E1,1.3235689E0,7.991547E0,5.3425817E0],"tree_param":{"num_deleted":"0","num_feature":"231","num_nodes":"93","size_leaf_vector":"1"}},{"base_weights":[-1.8916987E-1,-3.305748E-1,-8.917566E-2,1.8516795E-1,-3.596972E-1,-1.0440507E-1,7.555831E-1,-1.382677E-1,6.555764E-1,-3.764643E-1,6.846213E-2,1.6419436E-1,-1.2724234E-1,-3.2315555E-1,1.0465087E0,-2.7914962E-1,2.1627774E-2,8.750073E-1,-8.326619E-2,-2.1521641E-1,-4.2080155E-1,-2.8222114E-1,4.3894207E-1,-1.4638908E-1,5.3057355E-1,-1.5706123E-1,1.3649093E-1,1.8682641E-4,-1.4460896E-2,3.968569E-2,5.280725E-3,3.9678562E-1,-4.4050625E-1,-3.7678191E-3,1.0858166E0,-1.4456616E-2,1.2824821E-2,3.207128E-1,-2.8465188E-1,-5.086873E-1,-3.205788E-1,2.586843E-2,-4.9639547E-1,6.7333376E-1,-2.610265E-1,4.8263073E-1,-2.4511485E-1,6.681537E-1,-2.4948795E-1,-1.7150043E-1,2.0453025E-1,2.3088717E-1,-4.313344E-1,1.2855776E-2,-1.2677757E-2,1.7816294E-2,-2.0356702E-4,-1.6547821E-2,1.2706871E-2,3.819936E-2,-4.205746E-5,1.7656555E-3,3.2942943E-2,-1.1456526E-3,-1.1436743E-2,-1.6164312E-2,-1.0844542E-3,-1.0175323E-2,2.4590723E-2,-1.9906145E-2,7.4971886E-3,2.847988E-2,2.7901542E-4,-1.2622623E-2,3.4497477E-4,2.5624258E-2,4.661473E-3,2.3541045E-3,-1.2914464E-2,-7.252789E-3,2.5691254E-2,-1.5587211E-2,2.9215054E-3,-3.463539E-3,-7.131599E-3,-1.8227126E-2,1.14559205E-2,1.1381546E-2,-4.203807E-3,7.284311E-3,-1.715628E-2],"categories":[],"categories_nodes":[],"categories_segments":[],"categories_sizes":[],"default_left":[0,0,0,0,0,0,0,0,0,0,0,0,0,0,0,0,0,0,0,0,0,0,0,0,0,0,0,0,0,0,0,0,0,0,0,0,0,0,0,0,0,0,0,0,0,0,0,0,0,0,0,0,0,0,0,0,0,0,0,0,0,0,0,0,0,0,0,0,0,0,0,0,0,0,0,0,0,0,0,0,0,0,0,0,0,0,0,0,0,0,0],"id":7,"left_children":[1,3,5,7,9,11,13,15,17,19,21,23,25,27,29,31,-1,33,35,37,39,41,43,45,47,49,51,-1,-1,-1,53,55,57,-1,59,-1,-1,61,63,65,67,-1,69,71,73,75,77,79,81,83,85,87,89,-1,-1,-1,-1,-1,-1,-1,-1,-1,-1,-1,-1,-1,-1,-1,-1,-1,-1,-1,-1,-1,-1,-1,-1,-1,-1,-1,-1,-1,-1,-1,-1,-1,-1,-1,-1,-1,-1],"loss_changes":[2.122153E1,9.411652E0,1.1422714E1,5.2507563E0,4.2561493E0,5.3392057E0,5.276696E0,2.7338727E0,2.3413568E0,3.9646606E0,3.11894E0,7.8583136E0,6.309946E0,2.178981E-1,3.6270685E0,2.2139463E0,0E0,2.4303322E0,1.0442528E0,4.719612E0,3.7463684E0,3.4801898E0,2.0791612E0,2.4650636E0,3.5566044E0,3.7883759E0,4.4820547E0,0E0,0E0,0E0,8.426201E-1,3.3246303E-1,1.7279022E0,0E0,1.854022E0,0E0,0E0,2.9351168E0,2.618846E0,3.3223495E0,4.733099E0,0E0,1.5533416E0,1.6351881E0,1.6289252E-1,5.3149796E-1,2.0327682E0,4.852232E0,5.6247795E-1,2.5402508E0,4.273022E0,3.9515638E0,1.2761188E0,0E0,0E0,0E0,0E0,0E0,0E0,0E0,0E0,0E0,0E0,0E0,0E0,0E0,0E0,0E0,0E0,0E0,0E0,0E0,0E0,0E0,0E0,0E0,0E0,0E0,0E0,0E0,0E0,0E0,0E0,0E0,0E0,0E0,0E0,0E0,0E0,0E0,0E0],"parents":[2147483647,0,0,1,1,2,2,3,3,4,4,5,5,6,6,7,7,8,8,9,9,10,10,11,11,12,12,13,13,14,14,15,15,17,17,18,18,19,19,20,20,21,21,22,22,23,23,24,24,25,25,26,26,30,30,31,31,32,32,34,34,37,37,38,38,39,39,40,40,42,42,43,43,44,44,45,45,46,46,47,47,48,48,49,49,50,50,51,51,52,52],"right_children":[2,4,6,8,10,12,14,16,18,20,22,24,26,28,30,32,-1,34,36,38,40,42,44,46,48,50,52,-1,-1,-1,54,56,58,-1,60,-1,-1,62,64,66,68,-1,70,72,74,76,78,80,82,84,86,88,90,-1,-1,-1,-1,-1,-1,-1,-1,-1,-1,-1,-1,-1,-1,-1,-1,-1,-1,-1,-1,-1,-1,-1,-1,-1,-1,-1,-1,-1,-1,-1,-1,-1,-1,-1,-1,-1,-1],"split_conditions":[-1.5113401E-1,2.1767536E-1,1E0,3.966179E-2,6.636264E-1,-1.9982471E0,-1.0188786E0,2.1393977E-1,2.8E-1,1.9428903E-16,6.1245304E-2,-1.4103168E0,6E-2,3.1701103E-1,1.4304744E-1,-9.307587E-1,2.1627774E-2,-8.05032E-1,1.4E-1,-4.0298796E-1,5.4E-1,6.7047447E-1,6.3416995E-2,2.3748684E-1,1.9559006E-1,1.2172099E0,1E0,1.8682641E-4,-1.4460896E-2,3.968569E-2,3.1184986E-1,2.4789934E-1,1E0,-3.7678191E-3,8.094807E-1,-1.4456616E-2,1.2824821E-2,1.3877788E-16,-5.2331024E-1,2.3142357E-1,9.797959E-1,2.586843E-2,1.4707721E2,6.770532E-1,-4.0313652E-1,1.0589296E0,-1.5304012E0,1.110223E-15,1E0,6.813909E-2,0E0,6.053419E-1,1.4726794E-1,1.2855776E-2,-1.2677757E-2,1.7816294E-2,-2.0356702E-4,-1.6547821E-2,1.2706871E-2,3.819936E-2,-4.205746E-5,1.7656555E-3,3.2942943E-2,-1.1456526E-3,-1.1436743E-2,-1.6164312E-2,-1.0844542E-3,-1.0175323E-2,2.4590723E-2,-1.9906145E-2,7.4971886E-3,2.847988E-2,2.7901542E-4,-1.2622623E-2,3.4497477E-4,2.5624258E-2,4.661473E-3,2.3541045E-3,-1.2914464E-2,-7.252789E-3,2.5691254E-2,-1.5587211E-2,2.9215054E-3,-3.463539E-3,-7.131599E-3,-1.8227126E-2,1.14559205E-2,1.1381546E-2,-4.203807E-3,7.284311E-3,-1.715628E-2],"split_indices":[0,154,26,196,206,3,71,154,134,189,92,54,103,206,16,83,0,119,84,54,133,206,182,168,163,207,58,0,0,0,54,1,58,0,158,0,0,187,0,162,223,0,228,155,0,4,1,194,49,4,67,1,54,0,0,0,0,0,0,0,0,0,0,0,0,0,0,0,0,0,0,0,0,0,0,0,0,0,0,0,0,0,0,0,0,0,0,0,0,0,0],"split_type":[0,0,0,0,0,0,0,0,0,0,0,0,0,0,0,0,0,0,0,0,0,0,0,0,0,0,0,0,0,0,0,0,0,0,0,0,0,0,0,0,0,0,0,0,0,0,0,0,0,0,0,0,0,0,0,0,0,0,0,0,0,0,0,0,0,0,0,0,0,0,0,0,0,0,0,0,0,0,0,0,0,0,0,0,0,0,0,0,0,0,0],"sum_hessian":[1.5019344E3,6.211876E2,8.807468E2,3.2915333E1,5.882723E2,8.660107E2,1.4736132E1,1.9923044E1,1.2992288E1,5.6621936E2,2.2052923E1,6.7376434E1,7.986342E2,3.1065187E0,1.1629613E1,1.769646E1,2.2265851E0,9.875147E0,3.1171408E0,1.23375465E2,4.4284387E2,1.1451533E1,1.060139E1,3.678979E1,3.0586643E1,7.1787274E2,8.076151E1,1.3234677E0,1.7830513E0,8.976677E0,2.6529357E0,3.1291502E0,1.4567309E1,1.7888147E0,8.086332E0,1.7825139E0,1.3346269E0,1.3736108E1,1.0963936E2,2.337723E2,2.0907158E2,1.3281442E0,1.0123389E1,7.9704533E0,2.6309373E0,4.463367E0,3.2326424E1,2.6122803E1,4.4638405E0,6.908127E2,2.7060068E1,6.975817E1,1.1003335E1,1.3329124E0,1.3200233E0,1.7855791E0,1.3435712E0,1.3228267E1,1.3390433E0,6.7509394E0,1.335393E0,1.1079689E1,2.6564183E0,3.1258936E1,7.838042E1,2.1963115E2,1.4141145E1,2.0640747E2,2.6641066E0,8.361611E0,1.7617785E0,5.3268046E0,2.6436484E0,1.3158247E0,1.3151126E0,1.336276E0,3.127091E0,1.1983754E1,2.034267E1,4.428723E0,2.1694078E1,2.2297766E0,2.2340639E0,3.7562338E2,3.1518927E2,4.415072E0,2.2644997E1,4.9802326E1,1.9955849E1,1.7726549E0,9.2306795E0],"tree_param":{"num_deleted":"0","num_feature":"231","num_nodes":"91","size_leaf_vector":"1"}},{"base_weights":[3.8075364E-1,6.3639104E-1,1.7601955E-1,8.6299115E-1,5.2751505E-1,4.3094265E-1,9.500489E-2,1.046457E0,6.981125E-1,1.907193E-1,5.981207E-1,-1.21854834E-1,4.8904115E-1,8.7260835E-2,3.4703832E-2,1.5549026E-1,1.1044242E0,-1.4882532E-2,7.2111785E-1,3.7948328E-1,-2.2418141E-1,6.4361066E-1,1.7584242E-1,2.44467E-1,-5.648598E-1,5.354489E-1,-3.0948475E-1,1.288099E-1,-8.3675876E-2,-2.2067183E-1,2.077067E-2,-1.3185525E-2,1.1315277E0,7.445131E-1,-1.4683131E-2,4.9511436E-1,-2.4545017E-1,-4.8042876E-1,2.7086437E-1,6.149188E-2,6.85376E-1,-2.4613218E-1,6.5746784E-1,4.2183524E-1,-1.4404263E-2,2.3782327E-4,-1.9768393E-2,5.985943E-1,-3.9404593E-4,-5.547801E-1,1.7783731E-2,1.1381951E-1,7.116693E-1,4.9376094E-1,-1.5151006E-1,1.2215712E-2,-1.6788082E-2,3.474944E-2,-4.230721E-3,2.3169411E-2,-8.6948825E-3,2.0607056E-2,3.3252365E-3,-1.5193614E-2,1.2465057E-2,-3.6951277E-4,-1.8604219E-2,-8.287875E-3,1.5774895E-2,-1.2891455E-2,1.3980415E-2,2.3188874E-2,1.402689E-2,8.122416E-3,-1.1043541E-2,-9.96659E-3,2.6594585E-2,2.6531916E-2,-6.245817E-3,1.2561509E-2,2.2682162E-2,-9.497554E-3,1.6890036E-2,-7.352443E-5,-1.952863E-2,4.0226923E-3,-8.391787E-3,-1.4580454E-2,2.8575785E-2,-2.1997332E-3,3.6776226E-2,4.7789942E-3,-7.8733945E-3],"categories":[],"categories_nodes":[],"categories_segments":[],"categories_sizes":[],"default_left":[0,0,0,0,0,0,0,0,0,0,0,0,0,0,0,0,0,0,0,0,0,0,0,0,0,0,0,0,0,0,0,0,0,0,0,0,0,0,0,0,0,0,0,0,0,0,0,0,0,0,0,0,0,0,0,0,0,0,0,0,0,0,0,0,0,0,0,0,0,0,0,0,0,0,0,0,0,0,0,0,0,0,0,0,0,0,0,0,0,0,0,0,0],"id":8,"left_children":[1,3,5,7,9,11,13,15,17,19,21,23,25,27,-1,29,31,-1,33,35,37,39,41,43,45,47,49,51,53,55,-1,-1,57,59,-1,61,63,65,67,69,71,73,75,77,-1,-1,-1,79,81,83,-1,85,87,89,91,-1,-1,-1,-1,-1,-1,-1,-1,-1,-1,-1,-1,-1,-1,-1,-1,-1,-1,-1,-1,-1,-1,-1,-1,-1,-1,-1,-1,-1,-1,-1,-1,-1,-1,-1,-1,-1,-1],"loss_changes":[7.955057E1,1.6235199E1,1.7442965E1,5.8634033E0,1.0813377E1,6.6074524E0,5.1918983E0,5.053505E0,3.5943794E0,6.437298E0,7.1752625E0,3.4145722E0,7.0098076E0,4.55707E0,0E0,1.6359198E0,4.465515E0,0E0,3.6494522E0,4.1766376E0,3.4271684E0,8.27626E0,7.9404287E0,1.7126092E0,5.139911E-1,5.9184685E0,2.714212E0,4.4217157E0,5.001365E0,1.3081965E0,0E0,0E0,3.3496246E0,3.5074196E0,0E0,3.4382935E0,1.8373177E0,1.1359925E0,1.4710987E0,4.969799E0,5.727051E0,1.4318312E0,4.407455E0,3.0900376E0,0E0,0E0,0E0,4.115734E0,3.640988E0,4.759748E-1,0E0,4.0549703E0,4.135545E0,5.676751E0,3.9489944E0,0E0,0E0,0E0,0E0,0E0,0E0,0E0,0E0,0E0,0E0,0E0,0E0,0E0,0E0,0E0,0E0,0E0,0E0,0E0,0E0,0E0,0E0,0E0,0E0,0E0,0E0,0E0,0E0,0E0,0E0,0E0,0E0,0E0,0E0,0E0,0E0,0E0,0E0],"parents":[2147483647,0,0,1,1,2,2,3,3,4,4,5,5,6,6,7,7,8,8,9,9,10,10,11,11,12,12,13,13,15,15,16,16,18,18,19,19,20,20,21,21,22,22,23,23,24,24,25,25,26,26,27,27,28,28,29,29,32,32,33,33,35,35,36,36,37,37,38,38,39,39,40,40,41,41,42,42,43,43,47,47,48,48,49,49,51,51,52,52,53,53,54,54],"right_children":[2,4,6,8,10,12,14,16,18,20,22,24,26,28,-1,30,32,-1,34,36,38,40,42,44,46,48,50,52,54,56,-1,-1,58,60,-1,62,64,66,68,70,72,74,76,78,-1,-1,-1,80,82,84,-1,86,88,90,92,-1,-1,-1,-1,-1,-1,-1,-1,-1,-1,-1,-1,-1,-1,-1,-1,-1,-1,-1,-1,-1,-1,-1,-1,-1,-1,-1,-1,-1,-1,-1,-1,-1,-1,-1,-1,-1,-1],"split_conditions":[-1.2426874E-1,9.992007E-16,1.5601271E-1,1.4E-1,3.1411242E-1,-1.0073811E0,2E-1,-6.955094E-1,1.8E-1,-2.3700103E-2,9.797959E-1,7.938789E-2,2.3748684E-1,6.3089865E-1,3.4703832E-2,4.4873017E-1,2.0816682E-17,-1.4882532E-2,8.8245386E-1,4.489989E-1,6.544693E-1,-4.5456728E-1,3.815388E-1,1.361099E-1,-9.2E-1,1.2813579E-1,4.5339003E-2,4.924094E-1,2.9674E-3,4.0792608E-1,2.077067E-2,-1.3185525E-2,5.096258E-1,8.5871644E-2,-1.4683131E-2,1.4E-1,4.6E-1,-2.8897178E-1,3.1816326E-2,-2.869224E-1,6.737338E-1,1.896945E-1,1.5505104E-1,1.3416079E-1,-1.4404263E-2,2.3782327E-4,-1.9768393E-2,-1.9696887E-1,4.237563E-2,5.0324005E-1,1.7783731E-2,2.0927353E2,-7.864212E-2,7.2E-1,2.4903011E-1,1.2215712E-2,-1.6788082E-2,3.474944E-2,-4.230721E-3,2.3169411E-2,-8.6948825E-3,2.0607056E-2,3.3252365E-3,-1.5193614E-2,1.2465057E-2,-3.6951277E-4,-1.8604219E-2,-8.287875E-3,1.5774895E-2,-1.2891455E-2,1.3980415E-2,2.3188874E-2,1.402689E-2,8.122416E-3,-1.1043541E-2,-9.96659E-3,2.6594585E-2,2.6531916E-2,-6.245817E-3,1.2561509E-2,2.2682162E-2,-9.497554E-3,1.6890036E-2,-7.352443E-5,-1.952863E-2,4.0226923E-3,-8.391787E-3,-1.4580454E-2,2.8575785E-2,-2.1997332E-3,3.6776226E-2,4.7789942E-3,-7.8733945E-3],"split_indices":[0,163,167,113,154,1,115,78,84,148,223,217,180,154,0,154,189,0,119,179,158,78,1,167,91,216,225,13,229,154,0,0,73,183,0,181,102,78,182,1,92,206,78,78,0,0,0,4,160,0,0,152,71,221,206,0,0,0,0,0,0,0,0,0,0,0,0,0,0,0,0,0,0,0,0,0,0,0,0,0,0,0,0,0,0,0,0,0,0,0,0,0,0],"split_type":[0,0,0,0,0,0,0,0,0,0,0,0,0,0,0,0,0,0,0,0,0,0,0,0,0,0,0,0,0,0,0,0,0,0,0,0,0,0,0,0,0,0,0,0,0,0,0,0,0,0,0,0,0,0,0,0,0,0,0,0,0,0,0,0,0,0,0,0,0,0,0,0,0,0,0,0,0,0,0,0,0,0,0,0,0,0,0,0,0,0,0,0,0],"sum_hessian":[1.521088E3,6.755129E2,8.455752E2,2.1698424E2,4.5852866E2,2.0287704E2,6.426981E2,1.00172356E2,1.1681188E2,8.010779E1,3.7842087E2,1.9190002E1,1.8368704E2,6.3911896E2,3.5791638E0,6.3441343E0,9.3828224E1,1.8191085E0,1.14992775E2,5.5117016E1,2.4990774E1,3.411467E2,3.7274185E1,1.07494335E1,8.440569E0,1.7390944E2,9.777603E0,5.143451E2,1.24773834E2,4.0767007E0,2.2674336E0,1.3562021E0,9.247202E1,1.1319023E2,1.8025376E0,4.6686394E1,8.430622E0,1.64865E1,8.504273E0,2.3003267E1,3.1814343E2,2.012803E1,1.7146156E1,8.971302E0,1.7781312E0,1.3200452E0,7.120524E0,1.5547115E2,1.8438303E1,7.9904323E0,1.7871704E0,5.0261383E2,1.1731293E1,1.2456789E1,1.1231704E2,1.3585742E0,2.7181265E0,9.065354E1,1.8184776E0,1.1047428E2,2.715951E0,3.0617779E1,1.6068615E1,6.211508E0,2.2191143E0,4.0396423E0,1.2446857E1,2.6767483E0,5.827525E0,1.0360425E1,1.2642841E1,2.2508427E2,9.305915E1,3.6104233E0,1.6517607E1,3.1374125E0,1.4008743E1,4.940379E0,4.0309234E0,7.428211E1,8.1189026E1,1.20907545E1,6.347549E0,1.3370755E0,6.653357E0,4.7862094E2,2.3992899E1,1.7937646E0,9.937528E0,7.5266156E0,4.9301734E0,2.9429274E1,8.2887764E1],"tree_param":{"num_deleted":"0","num_feature":"231","num_nodes":"93","size_leaf_vector":"1"}},{"base_weights":[-1.8558265E-1,-3.069085E-1,-6.622643E-2,1.4606056E-2,-3.3705327E-1,-1.4455271E-1,8.076455E-2,-1.1702811E-1,4.7394717E-1,-5.828167E-1,-3.139847E-1,1.323562E-1,-1.861874E-1,1.6571127E-2,3.834597E-1,4.602016E-1,-2.0864427E-1,7.202858E-1,-3.2206202E-1,-6.1544216E-1,1.3479674E-2,-8.910867E-2,-3.4296328E-1,-3.099776E-1,3.2454363E-1,-2.2376722E-2,-2.4643281E-1,2.1648744E-1,-1.2349921E-1,-1.8991798E-2,5.833605E-1,2.8199166E-2,-2.673214E-1,-6.6331044E-2,-5.351087E-1,9.6808505E-1,-6.158872E-3,-1.4418873E-2,1.8561656E-4,1.2900893E-2,-6.4930284E-1,-2.6833493E-1,1.5632536E-1,2.5094174E-2,-3.4743485E-1,-1.981704E-2,-2.545618E-2,-3.1995276E-1,5.1936245E-1,-1.5912414E-1,2.2090927E-1,-2.6341295E-1,3.8113368E-1,3.0050263E-1,-3.494359E-1,-3.6438406E-1,-8.558161E-3,5.665759E-1,-3.2499117E-1,1.3707723E-1,7.6036817E-1,-1.2738921E-2,1.4550152E-4,-1.8987639E-2,2.4427657E-3,-2.0069027E-2,-2.0271686E-3,3.353937E-2,6.87387E-3,-1.9985585E-2,4.896805E-4,1.977652E-2,-1.0783378E-2,9.128689E-3,-1.8058717E-2,-1.1299684E-2,-4.835679E-3,-1.1618189E-2,1.4576738E-2,1.2726962E-2,-1.6518256E-2,4.7038277E-3,2.4801923E-2,-7.4227047E-3,1.0038679E-2,-8.04175E-3,1.5180988E-2,-2.3041137E-3,-1.0084474E-2,2.5035998E-2,-9.610458E-3,-5.016417E-3,1.0879569E-2,7.543886E-3,-1.4308979E-2,9.662661E-3,-1.4245483E-2,1.4582761E-2,-2.2129412E-3,-1.2742277E-2,2.842684E-2,-1.6632348E-2,1.2518746E-2,-9.40874E-3,2.198017E-2,2.8119469E-2,7.143458E-3],"categories":[],"categories_nodes":[],"categories_segments":[],"categories_sizes":[],"default_left":[0,0,0,0,0,0,0,0,0,0,0,0,0,0,0,0,0,0,0,0,0,0,0,0,0,0,0,0,0,0,0,0,0,0,0,0,0,0,0,0,0,0,0,0,0,0,0,0,0,0,0,0,0,0,0,0,0,0,0,0,0,0,0,0,0,0,0,0,0,0,0,0,0,0,0,0,0,0,0,0,0,0,0,0,0,0,0,0,0,0,0,0,0,0,0,0,0,0,0,0,0,0,0,0,0,0,0],"id":9,"left_children":[1,3,5,7,9,11,13,15,17,19,21,23,25,27,29,31,33,35,37,39,-1,41,43,45,47,49,51,53,55,57,59,-1,61,63,65,67,-1,-1,-1,-1,69,71,73,-1,75,-1,77,79,81,83,85,87,89,91,93,95,97,99,101,103,105,-1,-1,-1,-1,-1,-1,-1,-1,-1,-1,-1,-1,-1,-1,-1,-1,-1,-1,-1,-1,-1,-1,-1,-1,-1,-1,-1,-1,-1,-1,-1,-1,-1,-1,-1,-1,-1,-1,-1,-1,-1,-1,-1,-1,-1,-1],"loss_changes":[2.143259E1,7.1226196E0,8.624325E0,3.9198747E0,3.623886E0,5.6551304E0,5.059092E0,2.7654653E0,3.0622525E0,2.1774902E0,3.9838333E0,5.5767326E0,4.1883335E0,6.07865E0,3.6769385E0,2.7735453E0,2.0204442E0,2.7977338E0,2.1648869E-1,2.2313442E0,0E0,3.1947188E0,3.1667557E0,1.9804277E0,5.865888E0,3.8731992E0,3.4101295E0,4.355764E0,3.533107E0,3.0672927E0,2.3032541E0,0E0,1.583445E-1,2.7270641E0,7.8669643E-1,7.53294E-1,0E0,0E0,0E0,0E0,6.1561584E-1,3.7687902E0,3.6480052E0,0E0,2.8999252E0,0E0,2.4254951E0,2.1484447E0,3.797453E0,3.3279536E0,5.9814377E0,4.086912E0,2.9997394E0,2.3391285E0,1.0409964E0,3.2796655E0,2.8576818E0,2.6258755E0,2.1392522E0,2.8805392E0,1.7730198E0,0E0,0E0,0E0,0E0,0E0,0E0,0E0,0E0,0E0,0E0,0E0,0E0,0E0,0E0,0E0,0E0,0E0,0E0,0E0,0E0,0E0,0E0,0E0,0E0,0E0,0E0,0E0,0E0,0E0,0E0,0E0,0E0,0E0,0E0,0E0,0E0,0E0,0E0,0E0,0E0,0E0,0E0,0E0,0E0,0E0,0E0],"parents":[2147483647,0,0,1,1,2,2,3,3,4,4,5,5,6,6,7,7,8,8,9,9,10,10,11,11,12,12,13,13,14,14,15,15,16,16,17,17,18,18,19,19,21,21,22,22,23,23,24,24,25,25,26,26,27,27,28,28,29,29,30,30,32,32,33,33,34,34,35,35,40,40,41,41,42,42,44,44,46,46,47,47,48,48,49,49,50,50,51,51,52,52,53,53,54,54,55,55,56,56,57,57,58,58,59,59,60,60],"right_children":[2,4,6,8,10,12,14,16,18,20,22,24,26,28,30,32,34,36,38,40,-1,42,44,46,48,50,52,54,56,58,60,-1,62,64,66,68,-1,-1,-1,-1,70,72,74,-1,76,-1,78,80,82,84,86,88,90,92,94,96,98,100,102,104,106,-1,-1,-1,-1,-1,-1,-1,-1,-1,-1,-1,-1,-1,-1,-1,-1,-1,-1,-1,-1,-1,-1,-1,-1,-1,-1,-1,-1,-1,-1,-1,-1,-1,-1,-1,-1,-1,-1,-1,-1,-1,-1,-1,-1,-1,-1],"split_conditions":[2.4592746E-2,-4.249667E-1,1.3674253E-1,4.16246E-1,-1.48E-1,2.9234093E-2,6.053419E-1,3.8919132E-2,4.7465384E-2,1.0154264E0,8.326673E-17,2.3153366E-1,-2.8610498E-1,-3.5438564E-1,-2.4351066E-1,8.0392694E-1,1E0,5.814956E-2,-2E-2,-1.428758E0,1.3479674E-2,6.629513E-2,1.7238022E-1,4.124265E-1,-4.4254023E-1,-1.775124E-1,4.8794958E-1,9.3E-1,-3.0284885E-1,-2.1882907E-1,5.7380074E-1,2.8199166E-2,7.9599306E-2,-4E-1,4E-1,8.206729E-1,-6.158872E-3,-1.4418873E-2,1.8561656E-4,1.2900893E-2,8.9400685E-1,4.381876E-3,-6.7298174E-2,2.5094174E-2,7.529447E-2,-1.981704E-2,5.898032E-3,-8.2153183E-1,1.2E0,7.397097E-1,4.5074753E-2,-2.7100642E0,5.4687154E-1,-8.4E-1,2.7573364E-2,-3.6178923E-1,4.3671107E-1,6.8978536E-1,5.177847E0,-6.6E-1,4.5299006E-1,-1.2738921E-2,1.4550152E-4,-1.8987639E-2,2.4427657E-3,-2.0069027E-2,-2.0271686E-3,3.353937E-2,6.87387E-3,-1.9985585E-2,4.896805E-4,1.977652E-2,-1.0783378E-2,9.128689E-3,-1.8058717E-2,-1.1299684E-2,-4.835679E-3,-1.1618189E-2,1.4576738E-2,1.2726962E-2,-1.6518256E-2,4.7038277E-3,2.4801923E-2,-7.4227047E-3,1.0038679E-2,-8.04175E-3,1.5180988E-2,-2.3041137E-3,-1.0084474E-2,2.5035998E-2,-9.610458E-3,-5.016417E-3,1.0879569E-2,7.543886E-3,-1.4308979E-2,9.662661E-3,-1.4245483E-2,1.4582761E-2,-2.2129412E-3,-1.2742277E-2,2.842684E-2,-1.6632348E-2,1.2518746E-2,-9.40874E-3,2.198017E-2,2.8119469E-2,7.143458E-3],"split_indices":[0,77,90,1,144,215,1,163,227,155,189,157,90,88,80,155,48,196,91,1,0,194,154,155,1,85,78,146,1,78,0,0,63,67,179,158,0,0,0,0,77,196,0,0,182,0,78,1,67,158,217,151,78,132,227,77,155,1,75,130,206,0,0,0,0,0,0,0,0,0,0,0,0,0,0,0,0,0,0,0,0,0,0,0,0,0,0,0,0,0,0,0,0,0,0,0,0,0,0,0,0,0,0,0,0,0,0],"split_type":[0,0,0,0,0,0,0,0,0,0,0,0,0,0,0,0,0,0,0,0,0,0,0,0,0,0,0,0,0,0,0,0,0,0,0,0,0,0,0,0,0,0,0,0,0,0,0,0,0,0,0,0,0,0,0,0,0,0,0,0,0,0,0,0,0,0,0,0,0,0,0,0,0,0,0,0,0,0,0,0,0,0,0,0,0,0,0,0,0,0,0,0,0,0,0,0,0,0,0,0,0,0,0,0,0,0,0],"sum_hessian":[1.4804536E3,7.3339E2,7.4706366E2,6.291153E1,6.7047845E2,4.8737524E2,2.5968842E2,4.9477814E1,1.3433716E1,5.5451828E1,6.150267E2,6.3416744E1,4.239585E2,2.1512169E2,4.4566727E1,6.226221E0,4.3251595E1,1.0331566E1,3.1021504E0,5.414408E1,1.307746E0,7.067308E1,5.443536E2,1.9022392E1,4.4394352E1,1.14365E2,3.095935E2,8.840273E1,1.2671895E2,1.5090559E1,2.9476166E1,3.5759897E0,2.6502311E0,3.0959032E1,1.2292562E1,8.113481E0,2.2180848E0,1.7786968E0,1.3234537E0,1.3315525E0,5.2812527E1,4.0791847E1,2.9881233E1,1.3532342E0,5.430003E2,7.929676E0,1.1092715E1,1.0155567E1,3.4238785E1,7.34345E1,4.0930496E1,3.0200247E2,7.5910482E0,7.738361E1,1.1019124E1,4.0232502E1,8.648645E1,4.887041E0,1.0203518E1,8.874817E0,2.0601349E1,1.3245251E0,1.325706E0,5.72444E0,2.5234592E1,9.221538E0,3.0710247E0,6.3188195E0,1.7946614E0,5.1505276E1,1.3072518E0,3.0907953E0,3.7701054E1,2.5503439E1,4.3777947E0,4.684757E2,7.4524635E1,6.6382775E0,4.454438E0,2.2043233E0,7.9512434E0,1.6401674E1,1.7837112E1,6.2717316E1,1.0717185E1,1.5098116E1,2.5832382E1,8.5276474E1,2.1672598E2,4.4956417E0,3.0954068E0,8.878279E0,6.850533E1,1.7590421E0,9.260082E0,5.3111744E0,3.492133E1,9.321307E0,7.716514E1,1.3248775E0,3.5621638E0,7.9877954E0,2.2157223E0,5.321403E0,3.5534139E0,1.4794116E1,5.807234E0],"tree_param":{"num_deleted":"0","num_feature":"231","num_nodes":"107","size_leaf_vector":"1"}},{"base_weights":[-1.8060663E-1,-3.3749002E-1,-6.62047E-2,1.6172078E-1,-3.6068854E-1,-7.921453E-2,7.117891E-1,2.743164E-2,1.3386796E-2,2.462073E-1,-3.7457177E-1,2.2379123E-1,-1.0419173E-1,-3.6540616E-1,1.1098219E0,1.4029753E-1,-1.7377611E-2,-3.7937877E-1,8.662791E-1,-4.3122926E-1,-2.7672395E-1,3.4939727E-1,-3.4934515E-1,-5.008679E-2,-2.3825721E-1,-1.5490568E-2,-1.6121328E-5,3.8304366E-2,-4.0376806E-4,3.170863E-2,-5.332609E-2,1.30963605E-2,-1.8650979E-2,3.620636E-2,-3.5556257E-3,-4.4603768E-1,1.5139742E-1,-3.3447355E-1,-9.466116E-3,1.0368716E-1,8.661297E-1,-5.551143E-1,2.6908687E-1,6.396375E-2,-1.6211097E-1,-3.474203E-1,-1.2498972E-1,-6.5678363E-3,1.4565084E-2,-1.3727402E-2,4.2761145E-3,-7.410655E-3,3.1361323E-2,2.200377E-2,-1.0565562E-2,1.3127E-2,-5.714359E-3,2.8562289E-2,-9.138385E-4,3.1566195E-2,1.0594074E-2,-1.944523E-2,1.2156481E-4,1.2645246E-2,2.0464588E-5,8.220156E-3,-4.656303E-5,-1.8998896E-3,-8.662888E-3,-1.4240294E-2,-3.2263894E-3,-6.5581445E-3,6.180364E-3],"categories":[],"categories_nodes":[],"categories_segments":[],"categories_sizes":[],"default_left":[0,0,0,0,0,0,0,0,0,0,0,0,0,0,0,0,0,0,0,0,0,0,0,0,0,0,0,0,0,0,0,0,0,0,0,0,0,0,0,0,0,0,0,0,0,0,0,0,0,0,0,0,0,0,0,0,0,0,0,0,0,0,0,0,0,0,0,0,0,0,0,0,0],"id":10,"left_children":[1,3,5,7,9,11,13,-1,15,17,19,21,23,25,27,29,-1,31,33,35,37,39,41,43,45,-1,-1,-1,-1,-1,47,-1,-1,-1,-1,49,51,53,55,57,59,61,63,65,67,69,71,-1,-1,-1,-1,-1,-1,-1,-1,-1,-1,-1,-1,-1,-1,-1,-1,-1,-1,-1,-1,-1,-1,-1,-1,-1,-1],"loss_changes":[2.6322056E1,7.2240143E0,8.660622E0,3.1324997E0,5.0766983E0,6.357986E0,6.443225E0,0E0,1.9273334E0,5.694831E0,3.0891418E0,4.733636E0,5.601984E0,2.504112E-1,1.9923792E0,3.7872417E0,0E0,1.7704053E0,2.5755234E0,3.2143097E0,3.315443E0,6.6449714E0,1.6783736E0,7.0716405E0,2.7048435E0,0E0,0E0,0E0,0E0,0E0,1.7398236E0,0E0,0E0,0E0,0E0,2.4833298E0,3.7441444E0,3.6021976E0,3.2582045E0,4.249707E0,1.247201E0,4.8875046E-1,1.4998725E-1,3.7789345E0,3.4734879E0,3.386816E0,3.4735804E0,0E0,0E0,0E0,0E0,0E0,0E0,0E0,0E0,0E0,0E0,0E0,0E0,0E0,0E0,0E0,0E0,0E0,0E0,0E0,0E0,0E0,0E0,0E0,0E0,0E0,0E0],"parents":[2147483647,0,0,1,1,2,2,3,3,4,4,5,5,6,6,8,8,9,9,10,10,11,11,12,12,13,13,14,14,15,15,17,17,18,18,19,19,20,20,21,21,22,22,23,23,24,24,30,30,35,35,36,36,37,37,38,38,39,39,40,40,41,41,42,42,43,43,44,44,45,45,46,46],"right_children":[2,4,6,8,10,12,14,-1,16,18,20,22,24,26,28,30,-1,32,34,36,38,40,42,44,46,-1,-1,-1,-1,-1,48,-1,-1,-1,-1,50,52,54,56,58,60,62,64,66,68,70,72,-1,-1,-1,-1,-1,-1,-1,-1,-1,-1,-1,-1,-1,-1,-1,-1,-1,-1,-1,-1,-1,-1,-1,-1,-1,-1],"split_conditions":[-1.4278643E-1,2.1767536E-1,1E0,-5.4E-1,1.5386028E-2,-1.9982471E0,-2.36E-1,2.743164E-2,1E0,1.2573704E-2,6.2012874E-2,2.2E-1,5.6E-1,1.0587371E-1,6.273755E-1,4.5610785E-1,-1.7377611E-2,0E0,1.3977985E-1,6.636264E-1,4.4358012E-1,8E-1,7.869908E-2,6.813909E-2,3.1629574E-2,-1.5490568E-2,-1.6121328E-5,3.8304366E-2,-4.0376806E-4,3.170863E-2,6.705655E-1,1.30963605E-2,-1.8650979E-2,3.620636E-2,-3.5556257E-3,1.8005434E-1,3.8E-1,1.9238483E-3,3.5216135E-1,-1.12E-1,1E0,9.112973E-2,7.326523E-1,-2.869224E-1,2E-2,2.2449945E-1,5.563087E-1,-6.5678363E-3,1.4565084E-2,-1.3727402E-2,4.2761145E-3,-7.410655E-3,3.1361323E-2,2.200377E-2,-1.0565562E-2,1.3127E-2,-5.714359E-3,2.8562289E-2,-9.138385E-4,3.1566195E-2,1.0594074E-2,-1.944523E-2,1.2156481E-4,1.2645246E-2,2.0464588E-5,8.220156E-3,-4.656303E-5,-1.8998896E-3,-8.662888E-3,-1.4240294E-2,-3.2263894E-3,-6.5581445E-3,6.180364E-3],"split_indices":[0,154,26,91,219,3,129,0,37,195,163,116,126,1,223,155,0,59,78,206,122,52,225,4,182,0,0,0,0,0,155,0,0,0,0,194,130,175,158,144,57,71,0,1,91,223,98,0,0,0,0,0,0,0,0,0,0,0,0,0,0,0,0,0,0,0,0,0,0,0,0,0,0],"split_type":[0,0,0,0,0,0,0,0,0,0,0,0,0,0,0,0,0,0,0,0,0,0,0,0,0,0,0,0,0,0,0,0,0,0,0,0,0,0,0,0,0,0,0,0,0,0,0,0,0,0,0,0,0,0,0,0,0,0,0,0,0,0,0,0,0,0,0,0,0,0,0,0,0],"sum_hessian":[1.4668372E3,6.1774786E2,8.4908936E2,2.716703E1,5.905808E2,8.3600757E2,1.3081775E1,3.6223478E0,2.3544683E1,1.2833638E1,5.777472E2,6.30591E1,7.729485E2,3.551724E0,9.53005E0,2.002064E1,3.524044E0,6.581639E0,6.2519994E0,3.637281E2,2.1401909E2,5.2043793E1,1.101531E1,5.5168E2,2.2126845E2,2.2186828E0,1.3330411E0,8.177655E0,1.3523953E0,2.7138531E0,1.7306786E1,1.3235519E0,5.2580867E0,4.4778123E0,1.774187E0,3.5494113E2,8.786973E0,1.7578387E2,3.8235226E1,3.6085518E1,1.5958272E1,8.342062E0,2.6732473E0,2.7358017E2,2.7809982E2,1.11623E2,1.09645454E2,1.369233E1,3.614456E0,3.483326E2,6.6085076E0,6.578723E0,2.20825E0,2.2085652E0,1.735753E2,1.0611497E1,2.7623728E1,4.094386E0,3.1991133E1,1.0939214E1,5.0190587E0,7.015345E0,1.3267176E0,1.3411922E0,1.3320551E0,6.428917E1,2.0929102E2,1.570836E2,1.21016235E2,7.229222E1,3.9330784E1,8.573667E1,2.390878E1],"tree_param":{"num_deleted":"0","num_feature":"231","num_nodes":"73","size_leaf_vector":"1"}},{"base_weights":[3.6546287E-1,5.532391E-1,1.8147339E-1,7.375098E-1,4.5668492E-1,1.4156961E-1,7.8674453E-1,7.9852587E-1,2.7545488E-1,5.0227094E-1,8.709857E-2,5.235164E-1,9.503172E-2,1.1411988E-1,9.1614753E-1,8.252465E-1,7.798319E-2,4.0861404E-1,-4.3213356E-1,4.5785612E-1,9.7243965E-1,7.329808E-1,-7.5642146E-2,-1.6085346E-1,6.509548E-1,3.8189417E-1,6.0030416E-2,-3.9484286E-1,5.572872E-1,1.2349973E0,5.509822E-1,8.638474E-1,3.031024E-1,-1.7958459E-2,6.255928E-1,8.236936E-2,6.968791E-1,-6.736161E-5,-1.7127471E-2,8.340753E-1,4.047993E-1,1.0856327E0,2.008423E-1,-6.1359988E-3,9.85118E-1,-4.6263835E-1,1.4240947E-1,-5.1033026E-1,2.3343225E-1,9.7539747E-1,3.5831645E-1,1.9456828E-2,6.9194096E-1,9.351916E-2,-1.7827417E-1,-1.6236229E-2,-7.442949E-4,2.7736507E-2,2.1690605E-3,1.2766408E0,1.1592243E-2,-1.5931008E-2,7.171914E-1,-3.1671815E-3,2.639599E-2,-5.443117E-3,1.67193E-2,2.3200666E-3,2.9427063E-2,2.4959918E-2,-6.728394E-3,1.8085818E-3,2.7215432E-2,3.014644E-2,-6.593156E-4,2.152356E-2,9.933723E-3,-6.5222353E-4,3.4065228E-2,-1.4920117E-2,1.880656E-2,3.4573272E-2,1.5918657E-4,1.3044547E-2,-1.7081464E-2,8.898496E-3,-1.127467E-2,1.0028858E-4,-1.8788511E-2,-8.366464E-3,1.8988231E-2,3.1351242E-2,2.211733E-3,2.0002505E-2,-6.4351776E-4,6.0740085E-3,-8.889137E-3,2.9443685E-2,3.2125115E-3,5.0177188E-3,3.191293E-4,8.2434835E-3,-1.1219218E-2,1.16575295E-2,3.9733093E-2,2.6641874E-2,1.1480646E-3],"categories":[],"categories_nodes":[],"categories_segments":[],"categories_sizes":[],"default_left":[0,0,0,0,0,0,0,0,0,0,0,0,0,0,0,0,0,0,0,0,0,0,0,0,0,0,0,0,0,0,0,0,0,0,0,0,0,0,0,0,0,0,0,0,0,0,0,0,0,0,0,0,0,0,0,0,0,0,0,0,0,0,0,0,0,0,0,0,0,0,0,0,0,0,0,0,0,0,0,0,0,0,0,0,0,0,0,0,0,0,0,0,0,0,0,0,0,0,0,0,0,0,0,0,0,0,0],"id":11,"left_children":[1,3,5,7,9,11,13,15,17,19,21,23,25,27,29,31,33,35,37,39,41,43,45,47,49,51,53,55,57,59,61,63,65,-1,67,69,71,-1,-1,73,75,77,79,-1,81,83,85,87,89,91,93,95,97,99,101,-1,-1,-1,-1,103,-1,-1,105,-1,-1,-1,-1,-1,-1,-1,-1,-1,-1,-1,-1,-1,-1,-1,-1,-1,-1,-1,-1,-1,-1,-1,-1,-1,-1,-1,-1,-1,-1,-1,-1,-1,-1,-1,-1,-1,-1,-1,-1,-1,-1,-1,-1],"loss_changes":[5.228125E1,1.3004959E1,1.8420681E1,7.002945E0,8.290504E0,1.2766972E1,4.0069504E0,4.2827606E0,3.1362653E0,8.74614E0,5.8917603E0,6.9155083E0,6.4428067E0,2.196755E0,3.915535E0,4.1240845E0,3.7750359E0,2.4771876E0,3.2453108E-1,7.7275696E0,3.022293E0,2.8651233E0,3.8848817E0,1.9188266E0,5.919798E0,7.8348055E0,4.6064262E0,2.3919475E-1,8.41439E-1,2.2291374E-1,4.0146847E0,3.2311249E0,2.1359832E0,0E0,1.0075235E0,3.3534684E0,1.8429084E0,0E0,0E0,7.186199E0,7.964012E0,1.7990685E0,2.0885677E0,0E0,1.4779329E0,1.832587E0,2.4858637E0,4.3318665E-1,1.573033E0,1.85289E0,4.2659874E0,1.980223E0,6.2636223E0,3.0840096E0,6.4161882E0,0E0,0E0,0E0,0E0,2.8694534E-1,0E0,0E0,2.0472832E0,0E0,0E0,0E0,0E0,0E0,0E0,0E0,0E0,0E0,0E0,0E0,0E0,0E0,0E0,0E0,0E0,0E0,0E0,0E0,0E0,0E0,0E0,0E0,0E0,0E0,0E0,0E0,0E0,0E0,0E0,0E0,0E0,0E0,0E0,0E0,0E0,0E0,0E0,0E0,0E0,0E0,0E0,0E0,0E0],"parents":[2147483647,0,0,1,1,2,2,3,3,4,4,5,5,6,6,7,7,8,8,9,9,10,10,11,11,12,12,13,13,14,14,15,15,16,16,17,17,18,18,19,19,20,20,21,21,22,22,23,23,24,24,25,25,26,26,27,27,28,28,29,29,30,30,31,31,32,32,34,34,35,35,36,36,39,39,40,40,41,41,42,42,44,44,45,45,46,46,47,47,48,48,49,49,50,50,51,51,52,52,53,53,54,54,59,59,62,62],"right_children":[2,4,6,8,10,12,14,16,18,20,22,24,26,28,30,32,34,36,38,40,42,44,46,48,50,52,54,56,58,60,62,64,66,-1,68,70,72,-1,-1,74,76,78,80,-1,82,84,86,88,90,92,94,96,98,100,102,-1,-1,-1,-1,104,-1,-1,106,-1,-1,-1,-1,-1,-1,-1,-1,-1,-1,-1,-1,-1,-1,-1,-1,-1,-1,-1,-1,-1,-1,-1,-1,-1,-1,-1,-1,-1,-1,-1,-1,-1,-1,-1,-1,-1,-1,-1,-1,-1,-1,-1,-1],"split_conditions":[2.232859E-1,8.879187E-3,7.886926E-1,1.04386665E-1,2.3748684E-1,-6.341446E-1,2.7179316E-1,1E0,2.3297468E-2,8.424356E-2,-4.0923297E-1,-3.3748835E-1,8.711298E-3,5.4970133E-1,2.4094003E-1,1.2942728E2,1.9678684E-1,2.300654E-2,4.837876E-2,-7.301195E-1,3.9885159E0,-7.291709E0,-1.050239E0,8.398155E0,4.7370878E-1,5.64E-1,6.894408E-1,1.32885035E-2,2.9160263E-2,7.992789E-1,-8.1340784E-1,-8.432989E-1,-7E-1,-1.7958459E-2,5.2210536E-2,4.289632E-1,-7.9096794E-1,-6.736161E-5,-1.7127471E-2,5.322443E0,-4.0607524E0,-4.8734266E-1,-1.50915E-1,-6.1359988E-3,-3.774565E-2,-1.2003202E0,2.8174078E-1,-2.0994018E-1,-7.5512683E-1,4.3689743E-2,3.8418746E-1,4.9812067E-1,3.8465748E1,3.4197077E-1,-1.1E1,-1.6236229E-2,-7.442949E-4,2.7736507E-2,2.1690605E-3,-1.1402396E-2,1.1592243E-2,-1.5931008E-2,1.6333293E0,-3.1671815E-3,2.639599E-2,-5.443117E-3,1.67193E-2,2.3200666E-3,2.9427063E-2,2.4959918E-2,-6.728394E-3,1.8085818E-3,2.7215432E-2,3.014644E-2,-6.593156E-4,2.152356E-2,9.933723E-3,-6.5222353E-4,3.4065228E-2,-1.4920117E-2,1.880656E-2,3.4573272E-2,1.5918657E-4,1.3044547E-2,-1.7081464E-2,8.898496E-3,-1.127467E-2,1.0028858E-4,-1.8788511E-2,-8.366464E-3,1.8988231E-2,3.1351242E-2,2.211733E-3,2.0002505E-2,-6.4351776E-4,6.0740085E-3,-8.889137E-3,2.9443685E-2,3.2125115E-3,5.0177188E-3,3.191293E-4,8.2434835E-3,-1.1219218E-2,1.16575295E-2,3.9733093E-2,2.6641874E-2,1.1480646E-3],"split_indices":[167,167,13,215,177,13,167,38,165,187,1,90,165,154,90,74,42,182,227,109,149,92,109,229,203,144,154,165,54,106,54,54,132,0,195,154,54,0,0,169,75,78,1,0,3,63,71,54,13,175,191,1,228,206,87,0,0,0,0,80,0,0,16,0,0,0,0,0,0,0,0,0,0,0,0,0,0,0,0,0,0,0,0,0,0,0,0,0,0,0,0,0,0,0,0,0,0,0,0,0,0,0,0,0,0,0,0],"split_type":[0,0,0,0,0,0,0,0,0,0,0,0,0,0,0,0,0,0,0,0,0,0,0,0,0,0,0,0,0,0,0,0,0,0,0,0,0,0,0,0,0,0,0,0,0,0,0,0,0,0,0,0,0,0,0,0,0,0,0,0,0,0,0,0,0,0,0,0,0,0,0,0,0,0,0,0,0,0,0,0,0,0,0,0,0,0,0,0,0,0,0,0,0,0,0,0,0,0,0,0,0,0,0,0,0,0,0],"sum_hessian":[1.5151611E3,7.4887067E2,7.6629047E2,2.5519699E2,4.9367368E2,7.2005334E2,4.623713E1,2.2478506E2,3.041192E1,4.391486E2,5.452509E1,7.709211E1,6.4296124E2,7.7637525E0,3.8473377E1,2.166071E2,8.17797E0,2.595083E1,4.46109E0,4.0304816E2,3.6100445E1,1.0268336E1,4.4256752E1,1.2060822E1,6.503129E1,6.884153E1,5.741197E2,3.6643796E0,4.099373E0,1.9267574E1,1.9205803E1,2.0108679E2,1.5520304E1,3.6164844E0,4.561486E0,1.2776611E1,1.3174218E1,1.33671E0,3.12438E0,4.799577E1,3.550524E2,3.1127115E1,4.9733295E0,2.2163076E0,8.052029E0,1.5545333E1,2.871142E1,6.237697E0,5.823125E0,2.973335E1,3.5297935E1,3.222916E1,3.661237E1,5.0391284E2,7.020688E1,2.2942908E0,1.3700888E0,1.8170412E0,2.2823317E0,1.788544E1,1.3821334E0,2.2651021E0,1.69407E1,3.177925E0,1.9790887E2,5.4391403E0,1.0081164E1,2.272531E0,2.2889547E0,3.2118363E0,9.564775E0,3.590943E0,9.583275E0,3.9867287E1,8.128483E0,6.604438E1,2.89008E2,1.3658228E0,2.9761292E1,1.8213104E0,3.152019E0,6.7270494E0,1.3249794E0,1.325725E0,1.4219608E1,2.2456741E1,6.254678E0,1.3276007E0,4.910096E0,2.6836524E0,3.1394727E0,2.745385E1,2.2795007E0,1.906131E1,1.6236626E1,2.0630726E1,1.1598433E1,2.4035992E1,1.2576375E1,2.6612677E2,2.3778606E2,2.105626E1,4.9150623E1,1.3797348E0,1.6505705E1,1.3288267E1,3.6524343E0],"tree_param":{"num_deleted":"0","num_feature":"231","num_nodes":"107","size_leaf_vector":"1"}},{"base_weights":[-1.7765638E-1,-3.0075493E-1,-6.0049564E-2,-2.9206736E-2,-3.4725976E-1,-8.8427335E-2,3.7597525E-1,2.2781159E-1,-2.179089E-1,2.0219515E-1,-3.5793978E-1,-1.2676893E-1,7.8641854E-2,1.4416045E-1,8.799311E-1,3.4020776E-1,-4.797095E-1,4.801194E-1,-2.9147807E-1,7.387617E-1,-9.464718E-2,-4.0545937E-1,-2.2430007E-1,-9.063538E-2,-3.4464404E-1,2.5571975E-1,-2.25692E-1,6.170311E-1,-9.963202E-2,1.0269575E0,-3.434219E-3,-1.7121723E-2,4.423137E-1,-1.813162E-2,6.476311E-4,-1.516789E-2,3.371318E-2,2.4687134E-2,-3.3370557E-1,4.424596E-5,3.1320475E-2,-3.541387E-1,1.821604E-2,-4.904905E-1,-3.1902263E-1,4.136142E-1,-2.5031927E-1,-1.0990129E-1,3.7230882E-1,-1.19626E-1,-4.545026E-1,-9.514608E-2,3.8774863E-1,2.200516E-2,-2.8562376E-1,9.714126E-2,9.449158E-1,2.4482014E-2,-1.9676235E-1,3.4220185E-2,6.588938E-3,-1.4005878E-3,2.0037968E-2,-1.0820194E-2,1.323692E-2,3.6337809E-3,-1.7675258E-2,-1.5047298E-2,1.290798E-2,-1.0954929E-2,1.0327492E-3,2.4518037E-2,-1.4027357E-2,-9.602046E-3,7.395409E-4,-1.4568777E-3,-8.901732E-3,3.167199E-2,2.4699734E-3,-9.139225E-3,1.3980927E-2,-1.5835136E-2,-2.4566385E-3,1.8358832E-2,-9.95624E-3,1.5086515E-2,-6.309873E-3,-1.8031353E-2,-1.3328658E-3,1.7094417E-2,-8.635121E-3,6.656173E-3,3.475554E-2,1.5345163E-2,-9.838326E-3],"categories":[],"categories_nodes":[],"categories_segments":[],"categories_sizes":[],"default_left":[0,0,0,0,0,0,0,0,0,0,0,0,0,0,0,0,0,0,0,0,0,0,0,0,0,0,0,0,0,0,0,0,0,0,0,0,0,0,0,0,0,0,0,0,0,0,0,0,0,0,0,0,0,0,0,0,0,0,0,0,0,0,0,0,0,0,0,0,0,0,0,0,0,0,0,0,0,0,0,0,0,0,0,0,0,0,0,0,0,0,0,0,0,0,0],"id":12,"left_children":[1,3,5,7,9,11,13,15,17,19,21,23,25,27,29,31,33,35,37,39,41,43,45,47,49,51,53,55,57,59,-1,-1,61,-1,-1,-1,-1,-1,63,-1,-1,65,-1,67,69,71,73,75,77,79,81,83,85,-1,87,89,91,-1,93,-1,-1,-1,-1,-1,-1,-1,-1,-1,-1,-1,-1,-1,-1,-1,-1,-1,-1,-1,-1,-1,-1,-1,-1,-1,-1,-1,-1,-1,-1,-1,-1,-1,-1,-1,-1],"loss_changes":[2.1454521E1,9.138161E0,9.434161E0,5.239901E0,3.7013397E0,4.584605E0,5.3191214E0,3.8049865E0,3.3351638E0,2.0497568E0,3.76371E0,4.544565E0,7.274727E0,3.8802497E0,2.236247E0,3.9824705E0,4.313451E-1,4.5717697E0,2.9526544E0,1.0204458E0,1.8339841E0,3.1254196E0,2.7833652E0,4.4996004E0,1.9807234E0,3.98042E0,3.0717964E0,1.8527822E0,2.1811483E0,9.1769695E-1,0E0,0E0,4.0718412E0,0E0,0E0,0E0,0E0,0E0,1.319902E0,0E0,0E0,8.668634E-1,0E0,2.4944992E0,3.6705093E0,2.7668524E0,2.9950132E0,5.4942265E0,3.916417E0,3.215423E0,1.4586201E0,4.2335796E0,4.3785505E0,0E0,3.5932748E0,1.1696744E0,8.056793E-1,0E0,2.1509461E0,0E0,0E0,0E0,0E0,0E0,0E0,0E0,0E0,0E0,0E0,0E0,0E0,0E0,0E0,0E0,0E0,0E0,0E0,0E0,0E0,0E0,0E0,0E0,0E0,0E0,0E0,0E0,0E0,0E0,0E0,0E0,0E0,0E0,0E0,0E0,0E0],"parents":[2147483647,0,0,1,1,2,2,3,3,4,4,5,5,6,6,7,7,8,8,9,9,10,10,11,11,12,12,13,13,14,14,15,15,16,16,17,17,18,18,19,19,20,20,21,21,22,22,23,23,24,24,25,25,26,26,27,27,28,28,29,29,32,32,38,38,41,41,43,43,44,44,45,45,46,46,47,47,48,48,49,49,50,50,51,51,52,52,54,54,55,55,56,56,58,58],"right_children":[2,4,6,8,10,12,14,16,18,20,22,24,26,28,30,32,34,36,38,40,42,44,46,48,50,52,54,56,58,60,-1,-1,62,-1,-1,-1,-1,-1,64,-1,-1,66,-1,68,70,72,74,76,78,80,82,84,86,-1,88,90,92,-1,94,-1,-1,-1,-1,-1,-1,-1,-1,-1,-1,-1,-1,-1,-1,-1,-1,-1,-1,-1,-1,-1,-1,-1,-1,-1,-1,-1,-1,-1,-1,-1,-1,-1,-1,-1,-1],"split_conditions":[2.4592746E-2,-3.4381154E-1,3.9262655E-1,4E-1,4.0161672E-1,1.0500405E0,-4.1704556E-1,6.681317E-1,3.463257E-1,-1.2445108E0,6.9474626E-1,2.5122532E1,2.1960783E-1,-3.178067E-1,1.5849788E-3,-8.143625E-1,3.1477172E-2,-5.758801E-1,-1.0667825E0,-9.4206226E-1,-2.0673206E-1,1.9655157E-2,4.406747E-1,1.1811137E0,-8E0,2.4903011E-1,1.48525685E-2,2.9574513E-1,1.56205E-1,5.135723E-1,-3.434219E-3,-1.7121723E-2,0E0,-1.813162E-2,6.476311E-4,-1.516789E-2,3.371318E-2,2.4687134E-2,8.4920007E-1,4.424596E-5,3.1320475E-2,-3.9208892E-1,1.821604E-2,8.8245386E-1,8.59625E-2,4.6E-1,5.3715146E-1,8E-1,-6.9901377E-1,2.6783767E-1,5.5782495E0,1.5879546E-1,1.62E0,2.200516E-2,1.309442E-4,1.7011294E-2,-5.582772E-1,2.4482014E-2,-1.877734E1,3.4220185E-2,6.588938E-3,-1.4005878E-3,2.0037968E-2,-1.0820194E-2,1.323692E-2,3.6337809E-3,-1.7675258E-2,-1.5047298E-2,1.290798E-2,-1.0954929E-2,1.0327492E-3,2.4518037E-2,-1.4027357E-2,-9.602046E-3,7.395409E-4,-1.4568777E-3,-8.901732E-3,3.167199E-2,2.4699734E-3,-9.139225E-3,1.3980927E-2,-1.5835136E-2,-2.4566385E-3,1.8358832E-2,-9.95624E-3,1.5086515E-2,-6.309873E-3,-1.8031353E-2,-1.3328658E-3,1.7094417E-2,-8.635121E-3,6.656173E-3,3.475554E-2,1.5345163E-2,-9.838326E-3],"split_indices":[0,77,167,166,221,0,1,207,158,62,155,151,81,77,163,13,152,1,148,4,0,163,157,1,87,206,172,154,206,65,0,0,14,0,0,0,0,0,13,0,0,0,0,119,201,125,77,52,105,62,149,206,130,0,151,183,80,0,15,0,0,0,0,0,0,0,0,0,0,0,0,0,0,0,0,0,0,0,0,0,0,0,0,0,0,0,0,0,0,0,0,0,0,0,0],"split_type":[0,0,0,0,0,0,0,0,0,0,0,0,0,0,0,0,0,0,0,0,0,0,0,0,0,0,0,0,0,0,0,0,0,0,0,0,0,0,0,0,0,0,0,0,0,0,0,0,0,0,0,0,0,0,0,0,0,0,0,0,0,0,0,0,0,0,0,0,0,0,0,0,0,0,0,0,0,0,0,0,0,0,0,0,0,0,0,0,0,0,0,0,0,0,0],"sum_hessian":[1.4821965E3,7.234291E2,7.587674E2,1.0601583E2,6.1741327E2,7.1315063E2,4.561673E1,4.4795578E1,6.1220253E1,1.143024E1,6.0598303E2,5.8023145E2,1.329192E2,3.212541E1,1.3491321E1,3.9102886E1,5.692693E0,5.310248E0,5.5910007E1,3.5409505E0,7.889289E0,4.455282E2,1.6045482E2,4.989062E2,8.132525E1,8.4128456E1,4.8790745E1,1.0407532E1,2.1717876E1,1.1725E1,1.7663195E0,3.478665E0,3.562422E1,4.3941708E0,1.2985225E0,2.1824496E0,3.1277983E0,1.3662877E0,5.454372E1,1.3309969E0,2.2099535E0,6.1214504E0,1.7678385E0,2.2223381E2,2.232944E2,5.7043505E0,1.5475047E2,4.7970535E2,1.9200834E1,2.736459E1,5.3960655E1,2.3078054E1,6.1050407E1,2.2082994E0,4.6582447E1,4.526553E0,5.8809786E0,1.3729138E0,2.0344963E1,9.915462E0,1.8095392E0,1.1497629E1,2.4126593E1,5.3226044E1,1.3176758E0,2.185939E0,3.9355116E0,2.2003973E2,2.1940773E0,1.9748068E2,2.581372E1,3.9619963E0,1.7423539E0,1.2330817E2,3.1442305E1,3.6208408E2,1.176213E2,4.9332533E0,1.4267581E1,2.1159822E1,6.204767E0,4.47389E1,9.221756E0,5.3907714E0,1.7687283E1,5.1328403E1,9.722002E0,1.9538773E1,2.7043674E1,1.8163456E0,2.7102077E0,1.8060882E0,4.0748906E0,2.7262707E0,1.7618692E1],"tree_param":{"num_deleted":"0","num_feature":"231","num_nodes":"95","size_leaf_vector":"1"}},{"base_weights":[-1.8774319E-1,-3.327885E-1,-8.514613E-2,-3.5358456E-1,1.8061984E-1,-9.6934855E-2,6.3300383E-1,-4.3243277E-1,-2.3551475E-1,7.081192E-1,-1.7356591E-1,3.7987027E-1,-1.1092597E-1,1.0499064E0,-1.22102514E-1,-3.017145E-1,-4.9749023E-1,-1.2004919E-1,-3.9192268E-1,9.72664E-1,-1.0274295E-2,2.8574614E-2,-3.9056504E-1,2.9561697E-2,2.1302533E-1,1.7886959E-1,-1.3666594E-1,3.6976695E-2,-2.7450058E-4,2.4435693E-2,-1.7530618E-2,1.8447902E-2,-3.206475E-1,-5.2720124E-1,-5.5030286E-2,2.8193103E-2,-1.5518677E-1,-4.5833E-1,-2.1721585E-2,7.339815E-3,3.480322E-2,-1.2894644E-2,1.2297652E-2,-5.791704E-1,2.8987318E-1,6.612907E-1,-1.2745126E-1,4.565166E-1,-2.4741217E-1,-1.1183576E-1,-4.3595824E-1,-1.2814127E-2,-4.0429733E-3,4.642222E-3,-1.6251989E-2,1.2428171E-2,-1.0843683E-2,1.570823E-2,-5.838131E-3,-1.5203252E-2,3.8264817E-4,2.6275277E-2,-4.7569755E-3,5.8418745E-4,-1.9839505E-2,1.3386166E-2,2.7134994E-4,3.1087542E-2,2.0649312E-3,2.2876286E-3,-1.6930718E-2,1.9640217E-2,-4.272259E-3,1.8040266E-2,-1.1512897E-2,-9.194468E-3,-2.2289315E-3,-1.43311815E-2,1.2956459E-2],"categories":[],"categories_nodes":[],"categories_segments":[],"categories_sizes":[],"default_left":[0,0,0,0,0,0,0,0,0,0,0,0,0,0,0,0,0,0,0,0,0,0,0,0,0,0,0,0,0,0,0,0,0,0,0,0,0,0,0,0,0,0,0,0,0,0,0,0,0,0,0,0,0,0,0,0,0,0,0,0,0,0,0,0,0,0,0,0,0,0,0,0,0,0,0,0,0,0,0],"id":13,"left_children":[1,3,5,7,9,11,13,15,17,19,21,23,25,27,29,31,33,35,37,39,41,-1,43,-1,45,47,49,-1,-1,-1,-1,-1,51,53,55,-1,57,59,61,-1,-1,-1,-1,63,65,67,69,71,73,75,77,-1,-1,-1,-1,-1,-1,-1,-1,-1,-1,-1,-1,-1,-1,-1,-1,-1,-1,-1,-1,-1,-1,-1,-1,-1,-1,-1,-1],"loss_changes":[2.1953754E1,6.5942764E0,7.3974566E0,5.3737717E0,4.6951675E0,5.7352114E0,4.5756154E0,2.8388062E0,4.245842E0,1.9157515E0,4.145953E0,2.2707174E0,6.214555E0,1.7921162E0,3.0395918E0,2.2682056E0,3.0356827E0,5.2920628E0,2.461051E0,7.176995E-1,8.264288E-1,0E0,1.9207339E0,0E0,3.2169828E0,8.176344E0,5.619381E0,0E0,0E0,0E0,0E0,0E0,2.2698174E0,2.2475624E0,2.4198685E0,0E0,3.7037485E0,1.9503117E0,2.14556E0,0E0,0E0,0E0,0E0,5.5518293E-1,1.5536055E-1,1.9328794E0,1.1558691E0,5.0313663E0,3.4156306E0,5.133054E0,2.3107557E0,0E0,0E0,0E0,0E0,0E0,0E0,0E0,0E0,0E0,0E0,0E0,0E0,0E0,0E0,0E0,0E0,0E0,0E0,0E0,0E0,0E0,0E0,0E0,0E0,0E0,0E0,0E0,0E0],"parents":[2147483647,0,0,1,1,2,2,3,3,4,4,5,5,6,6,7,7,8,8,9,9,10,10,11,11,12,12,13,13,14,14,15,15,16,16,17,17,18,18,19,19,20,20,22,22,24,24,25,25,26,26,32,32,33,33,34,34,36,36,37,37,38,38,43,43,44,44,45,45,46,46,47,47,48,48,49,49,50,50],"right_children":[2,4,6,8,10,12,14,16,18,20,22,24,26,28,30,32,34,36,38,40,42,-1,44,-1,46,48,50,-1,-1,-1,-1,-1,52,54,56,-1,58,60,62,-1,-1,-1,-1,64,66,68,70,72,74,76,78,-1,-1,-1,-1,-1,-1,-1,-1,-1,-1,-1,-1,-1,-1,-1,-1,-1,-1,-1,-1,-1,-1,-1,-1,-1,-1,-1,-1],"split_conditions":[-1.4278643E-1,6.636264E-1,1E0,5.838501E-2,1.1733743E-2,-1.0626256E0,8.3042157E-1,4.5825756E-1,2.3182808E-1,4.9839744E-1,-7.479321E-1,-1.5542492E-1,-1.9982471E0,1.2E0,2.1724E-1,6.575081E-3,1.058526E1,1.5386028E-2,8.6596996E-1,-8.3699393E-1,-3.1450473E-2,2.8574614E-2,6.6E-1,2.9561697E-2,4.226526E-2,4.9325237E-1,6.530937E-1,3.6976695E-2,-2.7450058E-4,2.4435693E-2,-1.7530618E-2,1.8447902E-2,-2.1246172E-1,1.9595918E-1,2.2776337E-1,2.8193103E-2,9.037486E-3,3.853486E-1,8.6873704E-1,7.339815E-3,3.480322E-2,-1.2894644E-2,1.2297652E-2,1.9238483E-3,-4.8364234E-1,1.0299015E0,5.241227E-1,8.241435E0,9.746389E-3,2.0230686E-2,5.490073E-1,-1.2814127E-2,-4.0429733E-3,4.642222E-3,-1.6251989E-2,1.2428171E-2,-1.0843683E-2,1.570823E-2,-5.838131E-3,-1.5203252E-2,3.8264817E-4,2.6275277E-2,-4.7569755E-3,5.8418745E-4,-1.9839505E-2,1.3386166E-2,2.7134994E-4,3.1087542E-2,2.0649312E-3,2.2876286E-3,-1.6930718E-2,1.9640217E-2,-4.272259E-3,1.8040266E-2,-1.1512897E-2,-9.194468E-3,-2.2289315E-3,-1.43311815E-2,1.2956459E-2],"split_indices":[0,206,26,163,160,109,207,202,54,209,1,54,3,52,3,156,15,219,221,62,131,0,125,0,173,112,81,0,0,0,0,0,71,207,3,0,173,6,221,0,0,0,0,175,0,3,54,169,160,197,62,0,0,0,0,0,0,0,0,0,0,0,0,0,0,0,0,0,0,0,0,0,0,0,0,0,0,0,0],"split_type":[0,0,0,0,0,0,0,0,0,0,0,0,0,0,0,0,0,0,0,0,0,0,0,0,0,0,0,0,0,0,0,0,0,0,0,0,0,0,0,0,0,0,0,0,0,0,0,0,0,0,0,0,0,0,0,0,0,0,0,0,0,0,0,0,0,0,0,0,0,0,0,0,0,0,0,0,0,0,0],"sum_hessian":[1.47617E3,6.1064075E2,8.655293E2,5.871683E2,2.3472486E1,8.524018E2,1.31275E1,3.50463E2,2.3670525E2,9.027811E0,1.4444675E1,2.3553917E1,8.288479E2,8.206301E0,4.9211984E0,1.183344E2,2.3212863E2,1.3719263E2,9.951262E1,6.3394117E0,2.6883998E0,1.7862253E0,1.265845E1,4.0282874E0,1.9525629E1,6.71284E1,7.617195E2,6.859459E0,1.3468416E0,1.3743593E0,3.5468392E0,1.7576616E0,1.1657674E2,2.1734264E2,1.4785991E1,3.5763829E0,1.3361624E2,8.4175095E1,1.5337528E1,1.7700477E0,4.5693636E0,1.3337762E0,1.3546237E0,1.00277605E1,2.6306899E0,8.021896E0,1.1503734E1,4.0608337E1,2.6520063E1,7.046346E2,5.7084927E1,7.3291016E1,4.3285713E1,4.333492E0,2.1300914E2,5.701689E0,9.084302E0,6.6590934E0,1.2695715E2,7.625724E1,7.917853E0,1.3146204E0,1.4022907E1,1.3020432E0,8.725718E0,1.3116337E0,1.319056E0,4.4539666E0,3.5679293E0,8.408687E0,3.0950465E0,3.0443033E1,1.0165303E1,3.1986914E0,2.3321371E1,1.1276227E2,5.918723E2,5.489378E1,2.1911442E0],"tree_param":{"num_deleted":"0","num_feature":"231","num_nodes":"79","size_leaf_vector":"1"}},{"base_weights":[3.4810728E-1,5.712491E-1,1.3019569E-1,6.846843E-1,3.5149217E-1,3.5239545E-1,6.732738E-2,7.6541215E-1,5.4354423E-1,4.505394E-2,5.132236E-1,-2.8854728E-1,4.2794332E-1,-1.9042853E-2,1.593471E-1,7.973372E-1,2.0040238E-1,3.4797785E-1,7.36223E-1,-3.0556092E-1,3.1045178E-1,5.8711874E-1,-9.158366E-2,-5.303747E-1,1.5124647E-1,4.891603E-1,-2.938408E-1,9.68998E-3,-2.060266E-2,4.7015592E-1,9.826262E-2,8.377811E-1,3.143175E-1,-3.827577E-1,5.2062285E-1,-4.8584845E-2,5.172133E-1,-2.8956652E-1,7.976696E-1,-3.8945532E-1,2.7707716E-2,-1.285475E-1,6.1192656E-1,1.1355267E-2,6.588642E-1,-3.6118624E-1,6.487146E-1,-9.7715355E-2,-2.0118136E-2,-1.3087612E-2,3.5563412E-1,5.7323945E-1,7.297886E-2,-4.9558693E-1,1.77226E-2,-1.12647064E-1,1.738942E-1,6.6315144E-1,-1.7922135E-1,-4.0809977E-1,1.4174016E-1,2.6620947E-2,1.5423404E-2,1.4775241E-2,-9.386702E-3,-1.8862141E-2,5.904763E-3,3.0077891E-2,-1.3712551E-3,-1.746866E-2,1.2079558E-3,-1.024255E-2,1.8036164E-2,1.2431667E-2,-1.764986E-2,-8.846617E-3,2.5099296E-2,-1.5842471E-2,4.083846E-3,2.7831363E-2,-8.085787E-3,-1.4615778E-2,2.0888506E-2,2.4928514E-2,-6.8161003E-3,2.2672791E-2,8.539011E-3,1.1987662E-2,-1.5882231E-2,-1.2993859E-2,3.3056032E-2,1.2428425E-2,-1.4737526E-2,1.1969804E-3,2.4788424E-2,-1.2883864E-2,1.849723E-2,-6.568609E-3,1.6737932E-2,-1.9241402E-2,-4.8177405E-3,7.7680266E-3,-6.491435E-3,1.3237618E-3,1.31077785E-2,1.5035553E-2,3.755688E-2,-1.1814521E-2,2.552374E-2,-1.6252434E-2,1.803662E-2,2.5526148E-3,1.6672261E-2],"categories":[],"categories_nodes":[],"categories_segments":[],"categories_sizes":[],"default_left":[0,0,0,0,0,0,0,0,0,0,0,0,0,0,0,0,0,0,0,0,0,0,0,0,0,0,0,0,0,0,0,0,0,0,0,0,0,0,0,0,0,0,0,0,0,0,0,0,0,0,0,0,0,0,0,0,0,0,0,0,0,0,0,0,0,0,0,0,0,0,0,0,0,0,0,0,0,0,0,0,0,0,0,0,0,0,0,0,0,0,0,0,0,0,0,0,0,0,0,0,0,0,0,0,0,0,0,0,0,0,0,0,0],"id":14,"left_children":[1,3,5,7,9,11,13,15,17,19,21,23,25,27,29,31,33,35,37,39,41,43,45,47,49,51,53,55,-1,57,59,61,63,65,67,69,71,73,75,77,-1,79,81,83,85,87,89,91,-1,-1,93,95,97,99,-1,101,103,105,107,109,111,-1,-1,-1,-1,-1,-1,-1,-1,-1,-1,-1,-1,-1,-1,-1,-1,-1,-1,-1,-1,-1,-1,-1,-1,-1,-1,-1,-1,-1,-1,-1,-1,-1,-1,-1,-1,-1,-1,-1,-1,-1,-1,-1,-1,-1,-1,-1,-1,-1,-1,-1,-1],"loss_changes":[7.411313E1,1.8542908E1,1.077724E1,5.2344666E0,1.2792606E1,8.368851E0,4.8027678E0,5.486603E0,6.6731987E0,8.509239E0,7.613945E0,2.0533073E0,6.892168E0,6.0003414E0,5.507067E0,5.518158E0,3.574961E0,6.2772818E0,6.0131226E0,4.429022E0,6.955919E0,6.225029E0,4.0828824E0,6.741817E-1,1.0389265E0,4.897808E0,2.5352564E0,6.056271E0,0E0,6.106909E0,5.467453E0,3.9167938E0,2.8885128E0,1.1194375E0,3.3466752E0,1.3881319E0,4.9203854E0,1.488477E0,3.9434319E0,2.8146672E0,0E0,3.5235028E0,3.211728E0,3.6563926E0,4.649067E0,2.1027384E0,3.1762025E0,1.0406777E0,0E0,0E0,8.6031103E-1,5.3614044E0,3.6432974E0,4.2328858E-1,0E0,6.717289E0,4.3734465E0,2.9051113E0,2.9286954E0,2.9814394E0,5.277619E0,0E0,0E0,0E0,0E0,0E0,0E0,0E0,0E0,0E0,0E0,0E0,0E0,0E0,0E0,0E0,0E0,0E0,0E0,0E0,0E0,0E0,0E0,0E0,0E0,0E0,0E0,0E0,0E0,0E0,0E0,0E0,0E0,0E0,0E0,0E0,0E0,0E0,0E0,0E0,0E0,0E0,0E0,0E0,0E0,0E0,0E0,0E0,0E0,0E0,0E0,0E0,0E0],"parents":[2147483647,0,0,1,1,2,2,3,3,4,4,5,5,6,6,7,7,8,8,9,9,10,10,11,11,12,12,13,13,14,14,15,15,16,16,17,17,18,18,19,19,20,20,21,21,22,22,23,23,24,24,25,25,26,26,27,27,29,29,30,30,31,31,32,32,33,33,34,34,35,35,36,36,37,37,38,38,39,39,41,41,42,42,43,43,44,44,45,45,46,46,47,47,50,50,51,51,52,52,53,53,55,55,56,56,57,57,58,58,59,59,60,60],"right_children":[2,4,6,8,10,12,14,16,18,20,22,24,26,28,30,32,34,36,38,40,42,44,46,48,50,52,54,56,-1,58,60,62,64,66,68,70,72,74,76,78,-1,80,82,84,86,88,90,92,-1,-1,94,96,98,100,-1,102,104,106,108,110,112,-1,-1,-1,-1,-1,-1,-1,-1,-1,-1,-1,-1,-1,-1,-1,-1,-1,-1,-1,-1,-1,-1,-1,-1,-1,-1,-1,-1,-1,-1,-1,-1,-1,-1,-1,-1,-1,-1,-1,-1,-1,-1,-1,-1,-1,-1,-1,-1,-1,-1,-1,-1],"split_conditions":[1.2217622E-2,2.3748684E-1,1.5306966E-1,2.1753695E-2,3.1411242E-1,1.7607447E-2,1.3322676E-15,4.9839744E-1,1.9595918E-1,7.4684255E-2,1.0790626E-1,6.7006326E-1,2.3748684E-1,6.217172E-1,4.5365903E-1,1.2572871E-1,7.2805494E-1,4.5825756E-1,-1.0468775E0,7E-1,5E-1,5.551115E-17,1E0,1E0,4.772236E-2,8.8547826E-1,1E0,1.447468E-1,-2.060266E-2,6E-1,1.6E-1,-1.1502115E-1,4.6827346E-2,2.3182808E-1,5.4623926E-1,3.177687E-2,1.3148604E-2,-2.4478059E-1,1.6473009E-1,7.045188E-2,2.7707716E-2,-1.5888706E0,-1.5143521E0,3.6E-1,6.737338E-1,-2.3E-1,1.2490991E-1,-7.626596E-1,-2.0118136E-2,-1.3087612E-2,-4.3121496E-1,5.051551E-3,3.28E-1,4.8554358E-1,1.77226E-2,1.1952019E-2,5.9960946E-2,2.4811043E-1,4.8152733E-1,4.9638695E-1,4.0620908E-1,2.6620947E-2,1.5423404E-2,1.4775241E-2,-9.386702E-3,-1.8862141E-2,5.904763E-3,3.0077891E-2,-1.3712551E-3,-1.746866E-2,1.2079558E-3,-1.024255E-2,1.8036164E-2,1.2431667E-2,-1.764986E-2,-8.846617E-3,2.5099296E-2,-1.5842471E-2,4.083846E-3,2.7831363E-2,-8.085787E-3,-1.4615778E-2,2.0888506E-2,2.4928514E-2,-6.8161003E-3,2.2672791E-2,8.539011E-3,1.1987662E-2,-1.5882231E-2,-1.2993859E-2,3.3056032E-2,1.2428425E-2,-1.4737526E-2,1.1969804E-3,2.4788424E-2,-1.2883864E-2,1.849723E-2,-6.568609E-3,1.6737932E-2,-1.9241402E-2,-4.8177405E-3,7.7680266E-3,-6.491435E-3,1.3237618E-3,1.31077785E-2,1.5035553E-2,3.755688E-2,-1.1814521E-2,2.552374E-2,-1.6252434E-2,1.803662E-2,2.5526148E-3,1.6672261E-2],"split_indices":[0,223,167,162,154,198,162,190,223,162,165,111,180,2,155,196,221,207,105,114,25,189,36,49,227,158,38,4,0,125,126,0,188,54,54,163,171,1,206,225,0,1,88,126,92,146,16,54,0,0,81,156,144,158,0,165,227,76,0,191,131,0,0,0,0,0,0,0,0,0,0,0,0,0,0,0,0,0,0,0,0,0,0,0,0,0,0,0,0,0,0,0,0,0,0,0,0,0,0,0,0,0,0,0,0,0,0,0,0,0,0,0,0],"split_type":[0,0,0,0,0,0,0,0,0,0,0,0,0,0,0,0,0,0,0,0,0,0,0,0,0,0,0,0,0,0,0,0,0,0,0,0,0,0,0,0,0,0,0,0,0,0,0,0,0,0,0,0,0,0,0,0,0,0,0,0,0,0,0,0,0,0,0,0,0,0,0,0,0,0,0,0,0,0,0,0,0,0,0,0,0,0,0,0,0,0,0,0,0,0,0,0,0,0,0,0,0,0,0,0,0,0,0,0,0,0,0,0,0],"sum_hessian":[1.5247002E3,7.5250854E2,7.7219165E2,4.9492194E2,2.5758664E2,1.6928189E2,6.029098E2,3.120281E2,1.8289383E2,8.94262E1,1.6816045E2,1.7552065E1,1.5172983E2,3.1141086E2,2.9149893E2,2.9495114E2,1.7076963E1,9.2159325E1,9.073451E1,3.846245E1,5.096375E1,1.4987769E2,1.8282764E1,1.1192005E1,6.36006E0,1.401643E2,1.1565524E1,2.99508E2,1.19028635E1,4.677951E1,2.4471942E2,2.7148483E2,2.3466288E1,5.9840302E0,1.1092934E1,2.7778944E1,6.438038E1,4.9181647E0,8.5816345E1,3.664447E1,1.8179773E0,2.098279E1,2.9980959E1,1.6735123E1,1.3314256E2,1.3777403E1,4.5053616E0,3.1548824E0,8.037123E0,1.348741E0,5.011319E0,1.1629284E2,2.3871471E1,9.77576E0,1.7897639E0,1.718148E2,1.27693184E2,3.6045532E1,1.0733978E1,1.8687574E1,2.2603185E2,2.3390977E2,3.7575077E1,1.8441729E1,5.0245595E0,4.1415205E0,1.8425097E0,5.5766325E0,5.516301E0,3.1719694E0,2.4606974E1,5.463494E0,5.8916885E1,1.3500656E0,3.5680993E0,2.7296333E0,8.3086716E1,2.899266E1,7.6518116E0,1.8136686E0,1.916912E1,1.7966291E0,2.818433E1,3.213064E0,1.35220585E1,1.0494957E2,2.8192986E1,2.2457438E0,1.1531659E1,1.3430933E0,3.1622682E0,1.3481724E0,1.80671E0,3.6484923E0,1.3628267E0,4.448611E0,1.1184422E2,1.5243602E1,8.627869E0,6.17413E0,3.6016302E0,3.7170803E1,1.34644E2,8.628939E1,4.1403793E1,2.972055E1,6.3249826E0,9.3943815E0,1.3395965E0,1.6911512E1,1.7760631E0,1.9988467E2,2.6147175E1],"tree_param":{"num_deleted":"0","num_feature":"231","num_nodes":"113","size_leaf_vector":"1"}},{"base_weights":[-1.861822E-1,-3.1165287E-1,-6.0668886E-2,2.0474207E-2,-3.4599295E-1,-9.072922E-2,3.8146636E-1,-1.9045688E-1,2.3370102E-1,-3.573721E-1,4.5452732E-1,-4.4305705E-2,-2.2221653E-1,1.02092244E-1,6.7796767E-1,-5.8131926E-2,-1.9322623E-2,4.0580654E-1,-2.563766E-1,-3.7459385E-1,1.06430724E-1,-1.4922797E-2,7.87492E-1,-2.3407383E-1,1.1127425E-3,9.83849E-2,-2.88385E-1,-4.7826853E-1,2.926923E-1,3.277431E-2,9.226824E-1,2.9753208E-2,-1.8577419E-1,8.6737293E-1,1.560136E-1,1.20038E-2,-5.052321E-1,5.246616E-1,-3.8044173E-1,-4.5796773E-1,4.5164877E-1,3.678463E-2,-6.0709226E-3,-2.6538083E-1,2.7984004E-2,-4.1742954E-2,2.7498463E-1,-5.0015527E-1,2.631943E-1,-4.0070415E-1,-6.0377743E-2,1.1229571E-3,-1.8197391E-2,-6.781679E-2,5.928018E-1,-1.5514199E-2,3.7635463E-1,1.1291981E0,3.708989E-1,-1.4994285E-4,-1.6312985E-2,-1.20445E-4,3.0561106E-2,1.0273715E-2,-8.800466E-3,-1.8514771E-2,4.503597E-4,3.1298693E-2,-1.2628362E-2,-1.3500777E-2,-9.684789E-3,-1.9502252E-2,1.3019947E-2,-1.5259604E-2,1.9389095E-2,1.6427161E-2,-9.445421E-3,-2.8457567E-3,7.8009707E-3,3.3724876E-3,2.5437262E-2,-1.846197E-2,1.1355281E-4,-1.6869893E-2,1.2073787E-2,-8.584785E-3,-1.7015392E-2,-4.798176E-3,2.1415414E-2,1.1741739E-2,-1.7932829E-2,2.3327652E-2,-1.2725851E-2,2.0945499E-2,-3.9667813E-3,1.2053485E-2,3.5631616E-2,1.8839268E-2,-4.185709E-3],"categories":[],"categories_nodes":[],"categories_segments":[],"categories_sizes":[],"default_left":[0,0,0,0,0,0,0,0,0,0,0,0,0,0,0,0,0,0,0,0,0,0,0,0,0,0,0,0,0,0,0,0,0,0,0,0,0,0,0,0,0,0,0,0,0,0,0,0,0,0,0,0,0,0,0,0,0,0,0,0,0,0,0,0,0,0,0,0,0,0,0,0,0,0,0,0,0,0,0,0,0,0,0,0,0,0,0,0,0,0,0,0,0,0,0,0,0,0,0],"id":15,"left_children":[1,3,5,7,9,11,13,15,17,19,21,23,25,27,29,31,-1,33,35,37,39,-1,41,43,45,47,49,51,53,55,57,-1,59,61,63,-1,65,67,69,71,73,-1,-1,75,-1,77,79,81,83,85,87,-1,-1,89,91,-1,93,95,97,-1,-1,-1,-1,-1,-1,-1,-1,-1,-1,-1,-1,-1,-1,-1,-1,-1,-1,-1,-1,-1,-1,-1,-1,-1,-1,-1,-1,-1,-1,-1,-1,-1,-1,-1,-1,-1,-1,-1,-1],"loss_changes":[2.3189507E1,8.409821E0,9.842827E0,3.1919885E0,6.245224E0,4.212985E0,3.8382778E0,2.1073623E0,3.077216E0,5.303314E0,3.497722E0,4.4177794E0,3.85252E0,2.9568233E0,3.5549803E0,4.038583E0,0E0,2.9172077E0,1.7990711E0,3.5419998E0,4.955302E0,0E0,3.5685458E0,3.8635507E0,4.8770466E0,3.2474172E0,3.8090982E0,4.6440196E-1,2.1812892E0,1.5703143E0,1.452981E0,0E0,1.7113408E0,1.2011266E0,1.6418602E0,0E0,4.4771957E-1,2.6592312E0,2.3887253E0,1.9521098E0,3.2495143E0,0E0,0E0,4.0802283E0,0E0,5.784309E0,5.1413193E0,4.184003E-1,3.1489468E0,1.7465763E0,4.012834E0,0E0,0E0,2.6401284E0,2.378664E0,0E0,9.2052335E-1,1.0800362E-2,8.700227E-1,0E0,0E0,0E0,0E0,0E0,0E0,0E0,0E0,0E0,0E0,0E0,0E0,0E0,0E0,0E0,0E0,0E0,0E0,0E0,0E0,0E0,0E0,0E0,0E0,0E0,0E0,0E0,0E0,0E0,0E0,0E0,0E0,0E0,0E0,0E0,0E0,0E0,0E0,0E0,0E0],"parents":[2147483647,0,0,1,1,2,2,3,3,4,4,5,5,6,6,7,7,8,8,9,9,10,10,11,11,12,12,13,13,14,14,15,15,17,17,18,18,19,19,20,20,22,22,23,23,24,24,25,25,26,26,27,27,28,28,29,29,30,30,32,32,33,33,34,34,36,36,37,37,38,38,39,39,40,40,43,43,45,45,46,46,47,47,48,48,49,49,50,50,53,53,54,54,56,56,57,57,58,58],"right_children":[2,4,6,8,10,12,14,16,18,20,22,24,26,28,30,32,-1,34,36,38,40,-1,42,44,46,48,50,52,54,56,58,-1,60,62,64,-1,66,68,70,72,74,-1,-1,76,-1,78,80,82,84,86,88,-1,-1,90,92,-1,94,96,98,-1,-1,-1,-1,-1,-1,-1,-1,-1,-1,-1,-1,-1,-1,-1,-1,-1,-1,-1,-1,-1,-1,-1,-1,-1,-1,-1,-1,-1,-1,-1,-1,-1,-1,-1,-1,-1,-1,-1,-1],"split_conditions":[3.97354E-2,-4.1912025E-1,3.9262655E-1,1E0,1E0,6.3161604E-2,1.4796028E2,4.748725E-2,7.2553426E-1,1.0790626E-1,-5.6485057E-1,1.3140178E-1,6.5115285E-1,-5.9285736E0,2.217518E-2,3.0482749E-2,-1.9322623E-2,1.6660763E-2,-4.6396816E-1,-1.5304012E0,-2.9528722E-1,-1.4922797E-2,1.2883684E-1,8.250357E-1,4E-1,-7.8435154E0,2.0886657E-1,-2.8984218E0,-5.6111956E-1,1.9880734E2,2.203758E0,2.9753208E-2,8E-1,-7.8065073E-1,9.8688626E-1,1.20038E-2,3.254841E-1,-3.7729162E-1,1.2823941E-2,5.8E-1,-3.3584067E-1,3.678463E-2,-6.0709226E-3,-1.0254248E0,2.7984004E-2,1.159054E0,6.053419E-1,9.740131E-1,-7.040164E-1,2.343408E-2,9.7774434E-1,1.1229571E-3,-1.8197391E-2,2.9945025E-2,6.779686E-2,-1.5514199E-2,-6.6253567E-1,-4.515021E-1,-1.0484618E0,-1.4994285E-4,-1.6312985E-2,-1.20445E-4,3.0561106E-2,1.0273715E-2,-8.800466E-3,-1.8514771E-2,4.503597E-4,3.1298693E-2,-1.2628362E-2,-1.3500777E-2,-9.684789E-3,-1.9502252E-2,1.3019947E-2,-1.5259604E-2,1.9389095E-2,1.6427161E-2,-9.445421E-3,-2.8457567E-3,7.8009707E-3,3.3724876E-3,2.5437262E-2,-1.846197E-2,1.1355281E-4,-1.6869893E-2,1.2073787E-2,-8.584785E-3,-1.7015392E-2,-4.798176E-3,2.1415414E-2,1.1741739E-2,-1.7932829E-2,2.3327652E-2,-1.2725851E-2,2.0945499E-2,-3.9667813E-3,1.2053485E-2,3.5631616E-2,1.8839268E-2,-4.185709E-3],"split_indices":[0,77,167,7,27,225,228,197,168,165,11,167,221,151,174,225,0,175,13,1,54,0,163,65,91,92,90,3,73,228,208,0,67,74,15,0,3,11,162,125,86,0,0,54,0,0,1,1,120,187,221,0,0,197,165,0,71,77,62,0,0,0,0,0,0,0,0,0,0,0,0,0,0,0,0,0,0,0,0,0,0,0,0,0,0,0,0,0,0,0,0,0,0,0,0,0,0,0,0],"split_type":[0,0,0,0,0,0,0,0,0,0,0,0,0,0,0,0,0,0,0,0,0,0,0,0,0,0,0,0,0,0,0,0,0,0,0,0,0,0,0,0,0,0,0,0,0,0,0,0,0,0,0,0,0,0,0,0,0,0,0,0,0,0,0,0,0,0,0,0,0,0,0,0,0,0,0,0,0,0,0,0,0,0,0,0,0,0,0,0,0,0,0,0,0,0,0,0,0,0,0],"sum_hessian":[1.4727151E3,7.35741E2,7.3697406E2,6.898103E1,6.6675995E2,6.9080194E2,4.6172142E1,3.4730877E1,3.4250156E1,6.579608E2,8.799135E0,5.1153424E2,1.7926768E2,2.4464828E1,2.1707314E1,2.7761065E1,6.9698114E0,2.547559E1,8.774566E0,6.3458984E2,2.3371014E1,2.1521513E0,6.6469836E0,9.7983635E1,4.1355063E2,3.0585766E1,1.4868192E2,5.6751637E0,1.8789663E1,6.2810855E0,1.5426228E1,2.2753673E0,2.5485697E1,8.077553E0,1.7398037E1,2.2447762E0,6.52979E0,3.5268757E0,6.310629E2,8.745825E0,1.462519E1,4.440446E0,2.206538E0,9.617583E1,1.8078077E0,3.583269E2,5.522371E1,6.164247E0,2.4421518E1,9.910445E1,4.9577473E1,1.2718191E0,4.4033446E0,8.887503E0,9.902162E0,2.221052E0,4.060034E0,1.046358E1,4.962648E0,1.7608067E1,